2642 100
we 0.03622725 0.27516502 -0.5021632 -0.13237488 -0.47037157 -0.8812625 0.47406903 0.5844922 -0.2506163 -0.3627659 0.26101306 -0.057177156 -0.63513654 0.62925845 0.079050444 -0.35257918 -0.27055266 -0.23902075 -0.4050458 -1.4169973 0.68060017 0.6330025 0.31328043 -0.2333518 -0.59250814 -0.30701032 -0.15433836 0.1709992 -0.56272274 -0.1588505 -0.14440829 0.1544289 0.70157367 -0.24048951 -0.9251492 0.7192699 0.2992885 -0.13311318 -0.3016296 -0.3835302 -0.07508544 -0.33247375 -0.077370845 -0.037307523 0.39047572 -0.11033751 -0.2734742 -0.071285605 0.15148744 0.4872409 -0.061292257 0.3235705 0.2836762 0.042619046 0.25228313 0.043721978 1.0334489 -0.44039387 -0.58988625 0.30831265 0.18139088 0.2684039 -0.7413859 -0.48437417 0.1990551 0.35140294 -0.013110183 0.49428454 -0.1863262 0.37649503 0.3374045 0.18547407 0.379935 -0.22888546 1.0928005 -0.1045321 0.63223726 0.52809715 -0.3463046 -0.7404071 -0.087019145 0.20325975 -0.4081982 0.43027276 0.1716736 0.11553449 0.43481642 0.18824188 0.55394095 0.8980934 0.8314579 -0.25167897 0.16524255 0.08596416 0.5122587 0.633951 -0.040618338 -0.61981225 -0.06027761 -0.016047938
automata -1.1695949 0.24887756 1.5277603 0.4142377 0.60339177 -1.1893412 0.13362963 0.84222454 0.37630737 -0.5906705 -0.53213763 -0.32072192 -0.4456895 0.45576587 -0.53086656 -0.30859202 0.42591274 0.33262458 -0.079892956 -0.38237363 0.07967635 0.1252984 0.21877956 -0.5165226 0.09888842 -0.023754783 -0.24847727 -0.36468416 -0.6395837 0.4932676 0.1859442 0.00830657 0.46656242 -0.11208194 -0.1461342 0.22453228 -0.013511243 0.2832129 0.58209276 -0.9448284 0.18974599 -0.1062793 -0.516894 -0.5839178 0.41755635 -0.82587576 0.12504639 -0.89632756 -0.062168803 0.37998265 0.78782403 -0.35272032 0.05865917 -0.6454584 -0.32873413 0.22694483 0.93281406 -0.20879512 0.28881863 -0.017703827 -0.5410259 0.102463454 0.5382826 -0.26910824 -1.3409083 0.66890657 0.2684384 0.35233274 -0.20491001 0.9107733 0.14510943 0.029300084 0.75403345 0.37476408 0.47884333 0.3908672 -0.22879545 -0.45291048 -0.4681266 -0.38067418 -0.4849397 -0.34775585 0.54315615 0.8027091 -0.102290034 -0.29795036 0.22316897 -0.19999968 0.038151048 0.06630877 0.6554385 -0.34215587 0.22700308 -0.27277327 0.83829707 0.62268656 0.3645323 -0.15889129 -0.05884571 0.72228205
model -0.20816308 -0.053019114 -0.59127283 0.42806718 -0.04205302 -0.068955585 -0.038822543 0.35071832 -0.56507057 0.2268787 -0.16179314 -0.5203248 -0.3892416 0.25983322 -0.05435571 -0.0029181566 0.42094254 -0.017674748 0.055206362 -0.6743515 -0.37864512 0.21946692 -0.035266012 -0.29976293 0.39596117 0.28964937 -0.5167152 -0.32473516 -0.46680462 0.5567625 0.6739483 -0.356905 0.20722204 -0.4292077 -0.11730559 -0.09148392 0.14013621 -0.3155551 -0.1785335 -1.0554935 0.054694 -0.47382152 -0.209057 0.051147945 0.28065944 0.8631199 -0.62913966 -0.018890731 0.17289434 0.3162159 0.31517565 -0.6390597 0.07274002 -0.06675877 -0.4192981 0.3436656 -0.23883282 -0.17603534 -0.43039694 -0.061994486 0.045304194 0.2100288 0.22883002 0.105365574 -0.8581381 0.07416515 0.40395314 0.36455998 -0.73382825 0.707079 0.10683243 0.16533412 0.6625521 -0.36535382 -0.2603643 -0.273116 0.015838856 -0.01913974 -0.32225785 0.06333128 0.02928108 -0.32368815 -0.5552463 0.71318287 -0.04889562 -0.36072984 -0.23275554 1.0060079 0.4471114 -0.10387128 -0.17447561 0.3305908 -0.06878664 0.13845721 -0.0018446974 0.5073795 0.24457142 -0.061031885 0.3837897 0.06920921
languag -0.0933397 0.39907843 0.23989964 -0.78245825 0.8478693 -0.89023024 0.25243852 1.7859292 0.4732507 -0.44229496 -0.27061072 -0.14819688 0.077029936 -0.14182417 0.20763408 -0.48494998 -0.29343814 -0.60914177 -1.101806 -0.23504917 0.41441736 0.19808343 0.64950097 -0.2905405 -0.6844148 -0.106205046 -0.1182086 -0.23742597 -0.7376893 0.008201303 0.42526624 -0.38511863 0.09627384 -0.42505282 -0.1409654 0.8078716 0.15932697 -0.6421754 -0.7220238 -0.19471553 0.018556131 -0.23726942 -0.42808154 -0.027516158 0.8849425 -0.46279755 0.04040406 -0.37175655 -0.30869433 0.35257828 0.5337703 -0.31849283 -0.69935703 0.026677636 -0.79544806 0.44271845 0.8256645 -0.15347874 -0.32443148 0.28628513 0.15171443 0.18806611 0.20236023 -0.33375156 -0.51757044 0.6661809 0.20789957 0.0873214 -0.13157588 0.27806634 0.06268748 -0.45146763 -0.28130004 0.40113932 0.034456138 0.23526728 -0.13265753 0.4612457 -0.58696234 -0.3456232 0.1653515 0.21660082 -0.09045126 0.20386983 -0.3190681 0.2983446 0.816313 0.6971063 -0.21488051 0.20353723 0.6034124 -0.5908613 -0.09745642 -0.1529652 1.3373457 0.62879056 0.7182774 -0.96079636 -0.3482579 -0.76367146
system -0.18796684 0.28567192 -0.40658647 0.5111124 -0.3275991 0.1197474 0.10463966 0.31781533 -0.60090697 0.37651137 -0.36864352 -0.525339 -0.115168944 -0.037843876 -0.34174728 -0.20973317 0.2710512 -0.13212033 0.36347383 -0.68978125 -0.35055685 0.27086455 -0.049801134 -0.11208593 0.79777724 0.3504212 -0.5139699 -0.44441316 -0.28790662 0.5381482 0.77654505 0.14758246 -0.026546283 -0.5592075 0.32394904 -0.10725364 0.048649456 -0.31353834 -0.2784493 -1.1493587 0.18555251 -0.80494356 0.22112061 0.05773416 -0.044042394 0.55279934 -0.93475574 0.60648316 0.20727861 0.056636717 0.36924323 -0.5825659 0.09891911 -0.13499619 -0.24359745 0.31962144 -0.8593108 -0.153788 -0.43507823 0.1485502 0.11272431 0.31562477 0.1886511 0.040767793 -0.2421443 0.029284485 0.5686315 0.538875 -1.1730229 0.8334641 -0.20049998 0.58239245 0.6237798 -0.5591613 -0.3412812 -0.16320474 0.0021244613 -0.27881482 0.096735425 0.48128513 -0.3005186 -0.14021231 -0.7050389 0.62156445 -0.19578756 -0.31268254 -0.13139586 1.0318799 0.6917811 -0.31626877 -0.1297335 0.59698606 -0.07436715 0.3635346 -0.25695404 0.05236135 0.007362358 0.030146856 0.5062605 0.36495107
use -0.11938343 0.21231332 -0.37359798 0.1363808 -0.18427272 -0.18788838 0.0781224 0.40812376 -0.44162458 -0.06183079 -0.06426545 -0.48012048 -0.38927728 0.03663701 -0.044162028 -0.20336595 -0.004890005 -0.38332343 0.13460775 -0.5901676 -0.19414039 0.34705976 -0.04554061 -0.20721737 0.08308117 0.19198662 -0.6215532 -0.33299324 -0.3498134 0.29778603 0.34693682 -0.2137586 0.22730084 -0.30390346 -0.09846342 0.184595 0.14587913 -0.33972177 -0.28151882 -0.8136119 0.1644746 -0.59463435 -0.07887432 0.1351514 0.22575025 0.33696955 -0.46324572 0.12261732 0.079427145 0.2609371 0.26685894 -0.3827905 0.295915 0.119663455 -0.19508812 0.3782377 0.00766261 -0.0834904 -0.4191578 0.012294697 -0.013026346 0.17966542 -0.051777236 -0.038123906 -0.2571038 0.12021657 0.34521025 0.28317332 -0.5326716 0.4978229 -0.010030287 0.24363162 0.6062377 -0.36641273 -0.124659434 -0.15398444 -0.035375632 -0.05929318 -0.20246339 0.11483076 -0.08454357 -0.025390733 -0.6334175 0.46579382 0.11429878 -0.04687318 -0.103105135 0.765383 0.53826016 0.12919785 0.09325404 0.22437668 -0.3080612 0.11823947 0.12851922 0.3816621 0.09319082 -0.21343648 0.2400373 -0.09003338
problem 0.17261524 0.18520667 -0.2581244 -0.06842852 -0.054391306 -0.851446 0.21479493 0.6816446 0.18195844 -0.12563345 0.04990481 -0.12577298 -0.12990987 0.50468135 0.021873008 -0.46681893 0.24985321 -0.13050368 -0.4998703 -0.77878344 0.37326127 0.1669293 0.45967814 -0.2054085 -0.5230492 -0.5830007 0.024363426 -0.24054267 -0.06439506 -0.2057058 -0.0036984466 0.6072831 0.24732985 -0.13488781 -0.81504 1.0180334 -0.1706381 -0.09323558 -0.49531817 -0.711962 0.29668823 -0.27637738 0.20439067 -0.053580314 0.72023904 -0.37192553 0.06859767 -0.41101548 0.31231794 0.076767184 0.24656507 0.03103556 -0.046550713 -0.28655812 -0.3412941 -0.1684871 0.42264616 -0.3736876 -0.16804972 0.072376415 0.504984 -0.103380494 -0.4739338 -0.5595971 -0.2626256 0.6180765 -0.3386961 0.2937823 -0.4216254 0.13647345 -0.1998417 0.26618275 0.39336893 0.13549542 1.4577249 0.35403806 0.5778755 0.13207114 -0.24810717 -0.14152792 -0.3492969 -0.11866403 -0.108851604 0.23133337 0.20874402 -0.13723707 0.544283 -0.1885535 0.48910117 0.674431 1.0371015 -0.3567783 0.19140363 0.18992059 0.85200614 0.44310886 0.36900163 -0.73946756 -0.0055954447 0.19263199
can -0.17815834 0.3167433 0.24414244 -0.036427047 -0.06980552 -0.48868886 0.068641044 0.68056405 0.10853788 -0.12493042 -0.23165078 -0.33468062 -0.11408735 -0.018419066 -0.29266533 -0.46700737 0.092465214 -0.15443712 -0.12228992 -0.41716552 0.08658515 0.14322571 0.2586754 -0.19545694 0.028230222 0.059095524 -0.2872932 -0.4620162 -0.41510454 0.21482219 0.32393113 0.05978807 0.055397205 -0.25614706 -0.12871394 0.24202019 -0.08441968 -0.13518223 -0.19215961 -0.7078001 0.1787578 -0.31866136 0.004472262 -0.024643231 0.2635046 -0.20618257 -0.24114002 -0.119735286 0.11497827 0.18882687 0.34390524 -0.2654125 0.0065470254 -0.26676682 -0.35195744 0.29521886 0.1961788 -0.07951999 -0.12610415 0.28953803 0.16146038 0.1025481 0.097626425 -0.13592148 -0.36383975 0.34810057 0.104809366 0.3699005 -0.4537103 0.47851008 -0.15276673 0.18852618 0.35311317 -0.07364079 0.1773314 0.2982968 0.040554427 -0.09485222 -0.08184552 0.119425215 -0.26239124 -0.06707772 -0.2667524 0.54900956 -0.09952634 -0.07486274 0.12280587 0.42923555 0.3273372 0.12013147 0.38278985 -0.02089312 0.049009282 0.15469721 0.38245815 0.35443676 0.2745014 -0.20991564 0.045397308 0.07711738
state -1.097252 0.4944115 1.330937 0.2131103 -0.3471312 -0.5975932 0.13532025 0.4056991 0.8837958 0.02099694 -0.4505862 -0.32732293 -0.08606433 0.093337975 -1.1052538 -0.73940206 0.4508207 0.24354663 0.14546606 -0.13090388 -0.10478331 -0.22149998 0.76143134 -0.20715778 0.3904128 -0.043991826 -0.29621 -1.2050321 -0.59887904 0.71501535 0.63922447 -0.13553056 0.146543 -0.13675623 -0.06315727 -0.32014155 -0.4205575 0.4401688 0.2763756 -1.2947594 -0.04633309 0.07829629 0.108775 -0.11533641 -0.0046680886 -0.26029655 -0.03729281 -0.46174332 0.24370332 0.35218784 0.48264605 -0.27015644 0.10817535 -1.1365978 -0.43313885 0.2796765 0.3556973 0.06449601 0.3153869 0.29475605 -0.3828825 -0.34886757 0.5078119 0.1605091 -1.3400207 0.23700257 0.050564066 0.8335822 -0.638034 1.1477407 -0.359369 0.40607098 0.8508371 0.37505323 0.13775685 0.58685905 -0.153604 -0.5725313 -0.36130336 0.32643297 -0.74516964 -0.5078535 0.47962523 1.0295614 -0.4298523 -0.580258 -0.09979282 0.06321773 0.12896286 0.015398739 0.34450027 -0.2848181 0.30988842 0.11012897 0.15337291 0.71262157 0.5616314 0.44851387 0.05057224 0.586822
time -0.4522594 0.063991085 0.35083413 1.0232935 0.052644603 -0.6217675 0.05905615 0.5108515 -0.58740896 -0.12777711 -0.37830657 -0.5890816 -0.114001535 0.31115216 -0.22115405 -0.2756934 0.58117527 0.17358202 0.30208483 -0.68540365 -0.13933873 0.45824593 -0.61150575 -0.3357871 0.636933 0.09373787 -0.4135454 0.009650296 -0.096123174 0.08545397 0.0939398 0.5646571 0.23555571 -0.18860397 -0.06391516 0.41529655 -0.014786149 -0.045739315 0.18992518 -1.0506359 0.5028097 -0.6280289 -0.08518365 -0.42877474 0.028013898 -0.41074923 -0.53599155 -0.028873378 0.20295522 -0.029751854 0.6567887 -0.51469433 0.13060379 -0.28080067 -0.09756506 -0.08619306 -0.3674839 -0.47564754 0.18977934 0.019099811 -0.0018485815 0.4786344 0.619237 -0.45123273 -0.3462547 0.50186 0.116758674 0.25081193 -0.8976637 0.4303778 -0.12025835 0.5525555 0.6910908 -0.5043509 0.51754135 0.02822851 0.019082835 -0.57243294 0.12339677 0.15855633 -0.44107893 -0.20013738 -0.19875564 0.75694114 0.106643125 -0.2843823 -0.00095821876 0.035400223 0.7932106 -0.120023444 0.36965442 0.6078989 0.14589727 0.24321689 0.46183774 -0.060844824 -0.20354326 -0.012731832 0.46365505 0.9396711
which -0.23075865 0.3964553 0.3841428 -0.1683772 0.0059612575 -0.51998216 0.119231254 0.84369594 0.26073968 -0.08174438 -0.26298267 -0.27338907 -0.018514253 -0.07052213 -0.2635592 -0.48974943 -0.017751617 -0.24491417 -0.17386115 -0.3522889 0.09082536 0.12417026 0.38905334 -0.19195175 0.008349156 0.052019127 -0.21533684 -0.4766095 -0.394132 0.17854153 0.3761349 0.07445167 0.03861362 -0.2213125 -0.039878998 0.2585125 -0.082120515 -0.24932693 -0.2178356 -0.661197 0.11669905 -0.2555682 -0.015392296 0.010146143 0.27894115 -0.34190258 -0.15987837 -0.14558142 0.0261222 0.17072739 0.35336676 -0.28111812 -0.121184185 -0.22308381 -0.3630565 0.25563264 0.1776615 -0.05979825 -0.20713234 0.27165058 0.15552203 0.1283335 0.1325844 -0.13662368 -0.36263946 0.35270232 0.13080552 0.32642204 -0.46619448 0.57462496 -0.1368906 0.17105663 0.21702126 -0.022284823 0.18146911 0.40148842 -0.023516737 -0.10400018 -0.19072801 0.14065476 -0.20328306 -0.017153388 -0.13646996 0.4362518 -0.22712097 -0.029440863 0.19891389 0.46418557 0.22127935 0.024581993 0.46544266 -0.08175348 0.10240056 0.12817766 0.49004158 0.3310276 0.4101208 -0.288023 0.02136786 -0.003609054
show 0.03124504 0.297126 -0.19269782 -0.40614974 0.080960676 -0.7396753 0.08558617 0.62498814 0.1464839 -0.41739762 0.14095767 -0.1256115 -0.39346012 0.2137453 0.08694937 -0.43131623 -0.058490604 -0.6918381 -0.18964975 -0.6464184 0.053454984 -0.052063685 0.38663068 -0.31239444 -0.8793429 -0.66754675 -0.3082791 -0.35083067 -0.017962145 -0.042361587 -0.27788413 0.19540806 0.24838756 0.011415928 -0.6543527 0.9202441 -0.18193437 -0.09881315 -0.54245776 -0.7037251 0.09073293 -0.455375 0.08422266 0.46888375 0.776102 -0.3053144 0.24117649 -0.31085017 0.104217835 0.38697484 0.19028458 0.16091822 0.45269313 -0.038801473 -0.30478212 0.13747421 0.62015104 -0.0011409265 -0.29525498 -0.21244271 0.12433412 -0.26043862 -0.71652156 -0.31420892 -0.47636372 0.3693343 0.021170996 0.3434997 -0.1681619 0.1482853 -0.12165113 0.35452157 0.6639496 0.15692317 1.0186987 0.31943393 0.45645452 -0.037639577 -0.35890916 -0.25741678 -0.3972675 0.07115555 -0.23367596 0.16397674 0.52485067 0.1917769 0.2506943 -0.06310258 0.5948706 0.8259079 0.8855677 -0.6394714 -0.34436446 0.070969254 0.8448273 0.5771357 0.25642037 -0.68395025 -0.014756878 -0.2980868
finit -1.0586799 0.27115288 1.9029446 -0.24977656 0.470583 -1.2288272 0.16898641 1.2868636 1.0727708 -0.49376023 -0.67668265 -0.28712445 -0.15815146 0.14604461 -0.9583501 -0.86995447 0.30947292 0.34164035 -0.09321115 -0.17219931 0.16518113 -0.115764126 0.59750444 -0.27268192 0.050318554 -0.08700257 -0.07090446 -0.80846363 -0.898945 0.5029477 0.35660052 -0.19184832 0.28232458 -0.16889124 -0.1373502 -0.05377095 -0.3744074 0.16465652 0.32135704 -1.06753 -0.035821017 0.19011204 -0.31107908 -0.456015 0.2826181 -1.1201711 0.12957388 -0.90687406 -0.0453948 0.43460524 0.7469032 -0.33255893 -0.18846114 -0.97599983 -0.5243361 0.27196717 0.8669798 -0.07104124 0.5629919 0.29939985 -0.40286133 -0.26763594 0.7162992 0.03321166 -1.4847939 0.7452061 0.08041741 0.49936587 -0.40731487 1.0102123 -0.0932663 0.22241369 0.551834 0.46986908 0.39279383 0.73192036 -0.05844199 -0.46755707 -0.60617393 -0.008532239 -0.5278826 -0.27311805 0.6812913 1.1286727 -0.5471886 -0.3269505 0.42700654 -0.048297983 -0.28486648 0.124703586 0.6830046 -0.5447723 0.44909367 -0.16478617 0.973294 0.63218826 0.6392733 0.010639982 -0.024997497 0.5650331
algo -0.13690872 0.2608817 -0.8063966 0.27304748 -0.4791801 -0.35291058 -0.014907066 0.027191075 -0.5745826 -0.07047681 0.19156367 -0.45886254 -0.80941683 0.43210438 0.049285874 -0.17278595 0.16862576 -0.41161188 0.2788503 -1.0428752 -0.04713182 0.47574484 -0.010847091 -0.27287105 -0.2143653 -0.060665872 -0.6382145 -0.22473566 -0.24005201 0.26937208 0.104436286 -0.0028346928 0.51868755 -0.2177305 -0.5798191 0.31654233 0.05479263 -0.07822991 -0.06358353 -0.9286584 0.18116948 -0.6525701 -0.029415816 0.2224793 0.37817404 0.4558212 -0.27514982 -0.04829417 0.2748103 0.3234395 0.07601753 0.033714827 0.6274953 0.12351505 0.05422525 0.341402 0.29496282 -0.14891562 -0.4874511 0.036606714 -0.019029956 0.13035871 -0.5056511 -0.10906694 -0.23974808 0.055384483 0.21917614 0.40494695 -0.29835513 0.46114075 0.07649276 0.2942367 0.84466386 -0.41717738 0.4815742 -0.21586955 0.20396242 0.01868759 -0.20234337 -0.035680432 -0.18108669 -0.08459781 -0.58267653 0.49089816 0.5387965 -0.055075474 -0.29998836 0.5830425 0.9791807 0.56111777 0.47806042 0.093325965 -0.29806468 0.16195218 0.07099867 0.56050426 0.06731267 -0.17607109 0.117684476 0.035904393
from -0.23773584 0.4435722 0.28012988 0.044000078 0.08735096 -0.39333904 0.16574393 0.7153981 -0.0048549757 -0.10539977 -0.28639305 -0.46550202 -0.11919583 -0.07827547 -0.27111134 -0.45411858 0.03501656 -0.25595522 0.040085148 -0.4636815 0.089661665 0.22056423 0.096130386 -0.19236478 0.1505793 0.11967241 -0.41824362 -0.4036223 -0.4231662 0.23946863 0.40963268 -0.100051925 0.10460071 -0.3119516 0.06960549 0.10212024 0.07661647 -0.21689984 -0.21222152 -0.76092327 0.15194614 -0.45651364 -0.00794633 -0.0772152 0.16822617 -0.16263542 -0.38896444 0.03924298 0.03291075 0.13346927 0.3615248 -0.3669455 -0.051212188 -0.1488632 -0.2573664 0.38746145 0.09372282 -0.04850625 -0.20158331 0.21847112 -0.04281582 0.031883612 0.20838113 -0.078216664 -0.32906562 0.29873845 0.3147525 0.26638827 -0.5534094 0.5964317 -0.11777014 0.21948817 0.48746142 -0.19019452 -0.119184114 0.088559926 -0.05197759 -0.14319068 -0.20624845 0.2571433 -0.2186529 -0.013039462 -0.36571214 0.5420776 -0.1082972 -0.029541353 0.13651684 0.60080737 0.3619531 -0.023327356 0.25736538 0.14416416 -0.12693897 0.0631202 0.38215002 0.24569902 0.23926459 -0.19979624 0.1358187 0.10909002
our 0.034476116 0.28517368 -1.2273861 -0.16573517 -0.998565 -0.22128452 -0.07031196 -0.053059235 -0.46248412 -0.10998103 0.44435522 -0.5115763 -1.1070405 0.36647886 0.039009675 -0.19376707 -0.20306334 -0.92238003 0.35393116 -1.1082369 -0.24958475 0.5520601 0.1402567 -0.32454276 -0.7220127 -0.086098 -0.87384725 -0.41668445 -0.21175674 0.25675225 -0.014737308 -0.25003606 0.48935813 -0.07446029 -0.7654665 0.46742138 0.09931306 -0.33241284 -0.43973497 -0.77624077 0.12066715 -0.9066968 0.09464891 0.7912728 0.39493912 0.9660918 -0.26012853 0.070349894 0.20934416 0.5692839 -0.119724385 0.19588551 1.1848304 0.28498387 0.020027636 0.46392545 0.563984 0.040971685 -0.7718494 0.051689457 0.060333088 0.010956617 -1.139533 0.005846089 0.04970595 -0.13026065 0.27986652 0.69047976 -0.22019061 0.6201879 -0.046993118 0.32770202 1.0946647 -0.48780137 0.5055376 -0.15458669 0.35463542 0.07668558 -0.20717648 -0.21515508 -0.4117071 0.042195722 -1.0134777 0.35430998 0.73016894 0.11028002 -0.4314114 0.7363348 1.2095312 0.88332886 0.44511214 -0.20451854 -0.46031567 0.29590094 -0.19773585 0.941832 0.070104465 -0.09461822 0.08792577 -0.48113537
base -0.09463487 0.18540592 -0.5916953 0.13218522 -0.10906639 -0.13076673 0.052914843 0.4252492 -0.61704177 -0.03629047 -0.021589296 -0.53636795 -0.557254 0.12418245 -0.009540219 -0.115842104 -0.06497093 -0.5079308 0.25576505 -0.77335733 -0.18116038 0.5844826 -0.09931631 -0.30984506 0.021903548 0.20886253 -0.6529657 -0.17254938 -0.44870222 0.30897662 0.34530824 -0.32581922 0.43436432 -0.30176613 -0.0825564 0.12583044 0.17676744 -0.41239908 -0.20991227 -0.8770443 0.09330058 -0.79166704 -0.19066544 0.18154337 0.24181373 0.50411665 -0.58890766 0.18516822 0.0049366187 0.28597972 0.17412421 -0.33235207 0.35486656 0.33596602 -0.0150238 0.487671 0.040462624 -0.105914794 -0.53806305 0.050768774 -0.08400881 0.25789896 -0.13695863 0.011841108 -0.2625686 0.11231872 0.408141 0.30631697 -0.4543485 0.55746937 0.107409626 0.2732919 0.6479059 -0.49642122 -0.22509636 -0.393336 0.05605483 -0.07761502 -0.25903448 -0.029788835 -0.029696839 -0.00031791648 -0.78862184 0.54384375 0.21092032 0.03633623 -0.20215358 0.8609756 0.64143133 0.18151645 0.094967425 0.22172739 -0.31079504 0.1688895 0.06670676 0.46917608 -0.030587636 -0.1597789 0.26101103 -0.17154886
result -0.0036467216 0.39705673 -0.42434266 -0.42978618 -0.47589037 -0.5665227 0.11549695 0.32406074 0.08179526 -0.2652215 0.16654553 -0.18881077 -0.54649585 0.25059974 0.010399682 -0.37002966 -0.20297575 -0.52671885 -0.025467405 -0.98805046 0.19919328 0.19273253 0.3700044 -0.19752592 -0.64950496 -0.3006611 -0.34187436 -0.4519336 -0.23693514 0.08578493 -0.04533877 0.0956618 0.28754178 -0.085437626 -0.72560775 0.6612488 -0.05752622 -0.11988372 -0.34484714 -0.596312 0.07849777 -0.39760676 0.22086437 0.3691287 0.44157758 0.10731348 -0.009484366 -0.11840147 0.19146457 0.42127198 0.090922944 0.31033957 0.5992631 -0.08910251 -0.06310173 0.27110508 0.6794292 0.018294921 -0.47012168 0.110535726 0.20041068 -0.0719887 -0.88457185 -0.105489895 -0.03544375 0.11977977 0.10562182 0.5061346 -0.081642866 0.3804723 -0.036000066 0.17343333 0.6088482 -0.036647078 0.84484535 0.23779294 0.35522008 0.19709496 -0.1961507 -0.13887225 -0.25501454 0.121787116 -0.47482476 0.2576887 0.44422725 0.10503453 0.14822249 0.36197326 0.7101776 0.75266224 0.75357467 -0.352737 -0.15668418 0.12672853 0.32482198 0.6903523 0.20655002 -0.43895867 -0.10739725 -0.31056556
proc -0.06723306 0.08982341 -0.5131471 0.2505546 -0.34609064 -0.12876281 0.020631408 0.30930963 -0.39933634 0.18760915 -0.13059154 -0.47191843 -0.27749738 0.15428957 -0.20156331 -0.18409197 0.29351917 -0.19316266 0.24131985 -0.6101046 -0.21008247 0.20771398 0.1342716 -0.2236424 0.34662378 0.1366075 -0.5474716 -0.42444542 -0.25008717 0.39585397 0.5219258 0.046354033 0.13771968 -0.39266416 -0.04590145 0.01486833 -0.0713695 -0.29560435 -0.16206162 -0.9963406 0.06349326 -0.64928955 0.23774555 0.1436759 0.19061175 0.5450543 -0.61324126 0.19196619 0.2317582 0.22760051 0.2138255 -0.38925833 0.17576845 -0.10356623 -0.22501472 0.31726813 -0.24255365 -0.029306488 -0.303885 0.114061326 0.1280681 0.24680549 -0.011686368 0.067102656 -0.36840734 0.08998894 0.34517977 0.49689293 -0.72352934 0.61154246 -0.056915075 0.3589138 0.6756981 -0.3542475 0.017101415 -0.12531589 0.083471976 -0.093028896 -0.13769114 0.18402714 -0.20695883 -0.122748084 -0.57667166 0.55761117 0.07446098 -0.25877208 -0.18818167 0.8226067 0.55162096 -0.009757115 0.13440672 0.1888088 -0.08244261 0.37173775 -0.081798665 0.42350212 0.14497885 -0.09050168 0.35572433 0.18052809
comput -0.28150684 0.23948641 -0.0069349078 0.0773321 -0.36267805 -0.38082272 0.04566448 0.42098448 0.06091381 -0.0016188407 -0.12120728 -0.29504058 -0.2897746 0.1348751 -0.25490943 -0.29038724 0.20225334 -0.20714694 0.009901794 -0.46835482 -0.11490019 0.13062175 0.25452793 -0.1943281 -0.017483328 0.04025948 -0.40579563 -0.57488054 -0.3028526 0.38912997 0.313905 0.0017112239 0.16573682 -0.2214217 -0.26492476 0.17217499 -0.1332089 -0.14797172 -0.17247649 -0.8623202 0.06510387 -0.2750108 0.10321575 0.10853263 0.2537106 0.14538762 -0.19880727 -0.17488615 0.19321309 0.2786552 0.27389047 -0.2448185 0.2135267 -0.26884162 -0.25945407 0.2625172 0.1707618 -0.041282248 -0.19686529 0.08785289 0.053406496 0.013652298 -0.0914209 -0.027140092 -0.46795875 0.18465947 0.07630291 0.3968752 -0.48278448 0.6373713 -0.12117162 0.23863257 0.5755537 -0.14206317 0.2185539 0.19098754 0.08032001 -0.09885419 -0.19023971 0.072600625 -0.29481584 -0.11912006 -0.21110705 0.5233535 0.03440001 -0.21487781 -0.049549896 0.53748333 0.41209495 0.13231531 0.35791427 -0.067633495 -0.013233112 0.17348084 0.1370153 0.46397793 0.232607 -0.114151895 0.10696064 0.14900132
regular -0.027161986 0.44752988 0.7013691 -0.8350081 1.049935 -1.2461971 0.23268771 2.1466048 0.77823126 -0.5188811 -0.4154646 -0.13597135 0.24794848 -0.13158682 0.16289905 -0.66202027 -0.40258306 -0.47167507 -1.2625071 -0.27344832 0.53395814 0.21028285 0.6718632 -0.31075865 -0.859235 -0.25484347 0.057810426 -0.29733703 -0.86772263 -0.23970063 0.28163612 -0.23823431 0.11258872 -0.23377924 -0.36255577 1.0690209 0.005623043 -0.4298578 -0.59139204 -0.26773617 0.054896683 -0.16415967 -0.5754204 -0.059929222 0.8691207 -1.1519284 0.087501794 -0.62154883 -0.31416216 0.38140544 0.5214083 -0.34896588 -0.758121 -0.06818265 -0.8555899 0.37177902 1.0746328 -0.3061036 -0.20306477 0.2637196 0.20062992 0.23516558 0.26799002 -0.5857982 -0.685588 1.0556549 0.045679655 0.120094664 -0.08800202 0.1411673 0.039226547 -0.343562 -0.38739958 0.4577217 0.48529807 0.68038666 0.032802228 0.31290093 -0.57299626 -0.52971035 0.037090085 0.18945254 0.04714244 0.30179447 -0.36547977 0.49736226 1.0819349 0.33929694 -0.3456885 0.38358954 0.90210205 -0.6456412 0.1619376 -0.08044822 1.818335 0.63083446 0.7247021 -1.0789943 -0.48135495 -0.5867153
set -0.40390316 0.534808 0.86027676 -0.18669948 0.08366883 -0.6807159 0.18920612 1.0167711 0.6572793 -0.18680935 -0.3370162 -0.16957036 0.15207008 -0.079291314 -0.53421116 -0.7340832 0.04648998 -0.1155305 -0.21263745 -0.23949082 0.23360837 -0.046596628 0.55675536 -0.15060557 0.034947135 -0.07872066 -0.17270736 -0.53398246 -0.5087758 0.2037932 0.35973555 0.017183572 0.07078146 -0.23965603 -0.008464471 0.19613558 -0.16539444 -0.13781695 -0.16629377 -0.6617124 0.06041333 -0.18417992 0.07696418 -0.106841125 0.15191935 -0.6710649 -0.06299343 -0.2507228 -0.03603064 0.12316549 0.47468576 -0.23821272 -0.24062245 -0.47924736 -0.41779846 0.22984634 0.3320289 -0.051605184 -0.09836698 0.39136136 0.09915415 -0.06895156 0.28992558 -0.11655269 -0.44542906 0.47446993 0.15560262 0.39672795 -0.55993986 0.67613924 -0.16190973 0.22853892 0.29257745 0.18157016 0.23475382 0.5428562 -0.010828988 -0.11560192 -0.26346034 0.21477817 -0.3926436 -0.034837753 0.0889217 0.5118864 -0.36003357 -0.038188078 0.36577535 0.1454234 0.080682226 0.028688373 0.61546504 -0.24698104 0.2243372 0.0058583533 0.5825954 0.28810096 0.43453553 -0.17500173 -0.056442946 0.1394727
logic 0.14735861 0.6992567 -0.11095646 0.7502141 0.8780742 -0.6840606 0.5564441 1.5561875 -1.6217623 -0.35958466 -0.663453 -0.9977867 0.40654552 0.0105396025 1.1489551 -0.4181478 -0.6087705 -0.5629032 -0.22360213 -1.1120687 0.38049868 1.369392 -1.5395685 -0.26351613 0.34533122 0.39577028 -0.744568 0.9366543 -0.039112885 -0.54463124 -0.087384254 0.4752592 0.08296741 -0.5790577 0.27307457 1.3232846 1.1196141 -0.9343116 -0.78439856 -0.46067253 0.6542249 -1.4420633 -0.47243127 -0.6162152 0.16275518 -1.1705649 -0.8921141 0.60786045 -0.3618456 -0.5282179 0.9624072 -1.0687692 -0.5400442 0.856766 0.046880152 0.4914433 -0.5104465 -0.91638213 -0.61998063 -0.1828322 -0.079544 1.0289711 0.6314669 -0.9048414 0.9814954 0.9968598 0.48887545 -0.17536867 -1.3772708 0.15233386 0.13101828 0.4041837 0.09257458 -1.0854404 -0.10668469 -0.36384714 -0.12302599 0.06874436 -0.14948972 0.018023023 0.032238457 0.54907614 -1.0024835 0.28010556 0.09271596 0.7631082 0.9255726 0.983141 1.1096318 -0.13513848 0.40398514 0.96803033 -0.68065023 -0.10233449 1.4404479 -0.6373633 -0.4000533 -1.2837313 0.6547653 0.31998202
two -0.3915144 0.27961636 0.67716426 -0.37771988 0.02151702 -0.9132931 0.20327613 0.8371815 0.4123547 -0.40637168 -0.2584899 -0.052731913 -0.21080473 0.19606853 -0.2874788 -0.45511678 0.07455627 -0.19174992 -0.18179367 -0.5905804 0.21606311 0.082219586 0.462779 -0.29144526 -0.4414333 -0.29207632 -0.034376618 -0.378342 -0.34153473 0.0976077 0.12799887 0.2899344 0.1571199 -0.08301309 -0.44486696 0.44983363 -0.078817576 -0.047472462 -0.17286773 -0.6635046 0.086192854 -0.13544704 0.09581597 -0.11795256 0.5635057 -0.75653285 0.18578447 -0.43948385 0.01135359 0.29991192 0.39761546 0.009761483 0.18105043 -0.31324083 -0.32664126 0.17640164 0.78061193 0.029229807 -0.13333341 0.050173365 0.18237337 -0.07782739 -0.20001338 -0.12649606 -0.50083923 0.48309046 0.0066161584 0.29167828 -0.22350298 0.6372447 -0.03177702 0.1944776 0.45300546 0.18552795 0.86275303 0.57326365 0.3270097 -0.076602936 -0.33136556 -0.21413048 -0.33552104 -0.042376306 0.057885516 0.5290025 -0.008598501 -0.0009128867 0.35606498 0.123723716 0.14190955 0.50319016 0.8979809 -0.5087032 0.14938302 -0.017249241 0.72198373 0.4949749 0.4546911 -0.52018595 0.002893979 0.12346986
one -0.5347635 0.33422 0.97183836 -0.1831649 -0.049676083 -0.9054028 0.20660813 0.79744637 0.5925169 -0.28414628 -0.42107844 -0.18294564 -0.1199771 0.15313096 -0.51443154 -0.5401119 0.20998421 0.060109384 -0.19816794 -0.43294972 0.18809469 -0.12009723 0.4932709 -0.18042494 -0.134377 -0.20572738 -0.017911348 -0.67572355 -0.3901492 0.1966766 0.3488921 0.2914424 0.0150412 -0.091824815 -0.28912163 0.2586711 -0.114843905 0.050203007 -0.07735965 -0.8261928 0.0936794 0.0067622624 0.10015628 -0.2122146 0.45057207 -0.650377 0.1622555 -0.52344114 0.14943188 0.24311507 0.503017 -0.09263597 -0.008064557 -0.5885993 -0.43415025 0.2028375 0.62924105 0.047105324 0.0637158 0.19822708 0.14743657 -0.17780317 0.056441717 -0.12931432 -0.72030336 0.42479473 -0.059246052 0.35746634 -0.29343513 0.70408267 -0.20488134 0.13730532 0.4594898 0.282452 0.67751825 0.7359428 0.09506857 -0.15411232 -0.23409876 0.03277095 -0.38766485 -0.15527987 0.24020247 0.63970274 -0.19596119 -0.16938448 0.27396008 0.14054531 0.10072086 0.29253617 0.73006696 -0.39610004 0.20842329 -0.026300477 0.65392345 0.41810134 0.54579264 -0.36892673 -0.006507208 0.29533923
properti 0.13058545 0.3068515 -0.1138188 0.11565986 0.17474703 -0.42671046 0.18539388 0.8789321 -0.2719285 -0.029364852 -0.20104939 -0.24959445 0.08756164 0.03499133 0.25301033 -0.31953496 -0.11004824 -0.2581488 -0.3659212 -0.59695524 0.14757934 0.35577226 -0.13963878 -0.18416846 -0.034156796 0.042699914 -0.24226843 -0.0129875075 -0.18504827 -0.07708662 0.19907844 0.2203614 0.016590107 -0.29773366 -0.15027936 0.6901173 0.24097688 -0.44862273 -0.47950587 -0.5115119 0.24101092 -0.5700777 -0.04566957 -0.0486674 0.2784411 -0.3007678 -0.356461 0.08743818 0.012195839 -0.028503193 0.35272506 -0.41772535 -0.2168367 0.0671924 -0.28407356 0.15124884 -0.08952516 -0.32297662 -0.3870843 0.08793496 0.279581 0.33329427 0.042904116 -0.39646035 0.12463694 0.48249322 0.16399981 0.16061094 -0.6882615 0.2527206 -0.06104556 0.14856961 0.08304335 -0.3046023 0.29265073 0.038032576 0.06483778 0.12174737 -0.12510532 -0.0061477013 -0.044430383 0.12378067 -0.44300672 0.2567348 -0.046281766 0.18307723 0.47645378 0.5599682 0.45891792 0.024377381 0.4328386 0.16116533 -0.053416353 0.08343607 0.67357546 0.083086886 0.10599802 -0.60901636 0.12856556 -0.0027330932
paper -0.082581386 0.106842615 -0.7014674 0.11946613 -0.061880764 -0.45331177 0.2545757 0.32394046 -0.58822405 -0.21570648 0.24727425 -0.16849367 -0.70555127 0.4846983 0.19565082 -0.056901168 -0.06737522 -0.55727756 0.09393192 -1.0528916 -0.00406491 0.47541773 0.08432899 -0.33607712 -0.49829426 -0.24899061 -0.4376918 0.15921393 -0.27075884 0.20778102 -0.0666885 -0.083958164 0.61614627 -0.11110252 -0.5710344 0.5173621 0.19994539 -0.2628644 -0.23900656 -0.72781605 0.013937821 -0.6515619 -0.16881308 0.26602268 0.50956905 0.23871304 -0.24385454 -0.060984965 0.06482446 0.4277696 0.09986475 0.028521974 0.48847273 0.29811117 0.107841246 0.22271915 0.43531364 -0.25612548 -0.6660961 -0.3182954 -0.091552116 0.060198516 -0.5570615 -0.18650942 -0.34372795 0.16744803 0.31856185 0.31704965 -0.40063632 0.46997845 0.26757085 0.33272755 0.7249848 -0.3831054 0.53083336 -0.36441994 0.3777626 0.10247704 -0.5592903 -0.40396616 -0.045094077 0.0868274 -0.545224 0.37712812 0.46769452 0.11184364 0.0072642895 0.5627442 0.6767068 0.574254 0.5413555 -0.21417731 -0.30149654 0.03820033 0.34936127 0.51692766 -0.021992762 -0.4426438 0.21760972 -0.20173657
learn -0.34334594 0.16091894 -0.48656338 0.41945547 -0.26039475 -0.15781155 0.06864258 0.06120659 -0.5267458 0.10071232 0.054721765 -0.75037503 -0.8372012 0.40974507 -0.19247593 -0.12336215 0.29937896 -0.39929187 0.3976971 -0.6554618 -0.3139657 0.54613876 -0.12558423 -0.34127468 0.002404706 0.22148998 -0.80483854 -0.2903263 -0.5369527 0.45721546 0.43753532 -0.5446638 0.5153965 -0.3212222 -0.2508327 -0.31862932 0.13478716 -0.115476616 0.10856569 -1.1314974 -0.07540442 -0.569269 -0.40600094 0.12696952 0.28779733 0.687441 -0.4544161 -0.038141284 0.18186693 0.51302606 0.013176405 -0.25271454 0.44219345 0.10824907 0.10873356 0.4525154 0.25903517 -0.08098967 -0.32885337 0.001527883 -0.49513888 -0.04608357 -0.0278231 0.12106509 -0.7665684 -0.06298239 0.16080034 0.32906747 -0.3186063 0.6608999 0.07536611 0.23812868 0.9032106 -0.49437615 -0.23111862 -0.49660388 -0.0870929 -0.2852488 -0.43483523 -0.032093015 -0.115938365 -0.22073519 -0.44860348 0.77934116 0.3201499 -0.2627655 -0.52021164 0.92765987 0.7535586 0.30178922 0.000119998316 0.22088052 -0.3995344 0.07932777 0.012230163 0.7348799 0.13103944 0.20630176 0.20863537 0.0010863345
net 0.24323843 -0.13211086 -0.42972496 0.9910047 -0.34804553 0.1878264 0.20242806 -0.09429719 0.04571258 0.6663581 -0.56947756 -0.729766 -0.2144168 0.6919762 -0.5157034 0.091363676 0.6616492 0.065921865 0.3007158 -0.94043285 0.50232035 -0.2003124 0.35783243 0.12148687 0.8134497 -0.13700478 -0.5992304 -0.63280296 -0.40217847 0.34631005 1.4855937 -0.14870529 0.5890873 -0.612334 -0.34437588 -0.25690612 0.5068035 -0.42311397 -1.0703357 -1.7934887 -0.05617845 0.47423762 -0.05334179 -0.78402394 0.83102554 1.3720068 -0.8667678 -0.2520765 0.9529617 0.53950185 -0.071404226 -0.79027283 -0.6350475 0.08132114 -0.070267305 0.28628266 -0.61987054 -0.070028976 -0.70883685 -0.14063743 0.16453557 -0.6914251 -0.078197755 0.07638994 -1.5144309 -0.42894393 -0.13572192 -0.021629602 -0.2853806 0.910995 -0.0071109612 0.29048795 1.0982512 -0.2857551 -0.056875724 -0.57348704 -0.33701903 -0.047112416 -0.701476 0.70839185 0.47835627 -0.6998578 -0.5532837 1.0654707 -0.4789548 -0.67113656 -0.14850326 1.373147 -0.1523367 -0.23501833 -0.4119649 1.0162729 -0.8799831 -0.38804585 0.011998416 0.5197749 0.15375938 -0.61452985 0.8249463 0.6916028
specif 0.14836127 0.43759522 -0.6346248 0.61177176 0.08786243 -0.12502958 0.25942847 0.6414061 -1.3601574 0.054686114 -0.23626913 -0.72217584 0.022075236 -0.019145127 0.5332585 -0.30764142 -0.15640436 -0.49669436 0.046911072 -0.95061064 -0.12839516 0.89484274 -0.89593035 -0.28572628 0.39317662 0.34421968 -0.66862476 0.28271556 -0.09055626 -0.06964728 0.13585299 0.29245058 0.071961 -0.47452527 0.18687901 0.6163302 0.5136008 -0.6242835 -0.44957885 -0.77884805 0.45806932 -1.299099 -0.030846752 -0.08357542 0.009195072 -0.13511494 -0.9929456 0.6900014 -0.041929815 -0.2220103 0.4421256 -0.6769695 0.035817012 0.4440175 -0.0047556893 0.3486177 -0.6067963 -0.42065346 -0.5186761 0.034322895 0.06312516 0.64230776 0.21168149 -0.44860685 0.5399761 0.41122293 0.5032127 0.1759097 -1.2112945 0.33076927 -0.041021284 0.45302477 0.44147834 -0.94144475 -0.18729116 -0.44715577 0.1231314 -0.07806557 0.040458187 0.26402408 -0.16422626 0.22984645 -1.1548426 0.44854856 0.21174404 0.25160682 0.23928094 0.94524556 1.2033136 -0.03711361 0.15385845 0.85532266 -0.4542119 0.22077045 0.42255148 -0.2012327 -0.26660657 -0.5536001 0.4855545 0.13931058
word -0.23595624 0.8295016 1.3110292 -0.8183548 0.5425135 -1.2960603 0.39815438 2.0069602 1.3750906 -0.49867684 -0.4005162 0.062423263 0.5166234 -0.26482138 -0.4435693 -1.1922625 -0.28267777 -0.30107424 -0.793886 -0.15309708 0.77532995 -0.19137958 1.025573 -0.21595351 -0.56340575 -0.4142869 0.008719641 -0.5459579 -0.7709069 -0.22387859 0.24315982 0.04557718 0.05673477 -0.17239803 -0.1491188 0.71338844 -0.2635317 -0.29066747 -0.5067328 -0.33931822 -0.04496566 -0.12430601 0.07228416 -0.09636336 0.48613256 -1.6464202 0.35247 -0.58172923 -0.2674019 0.099127896 0.55340487 -0.22035523 -0.6051387 -0.5186753 -0.71325016 0.19123343 0.96761537 -0.13755333 -0.22698914 0.509759 0.45384604 -0.22173172 0.36660102 -0.42752954 -0.3809935 0.9851408 0.02420757 0.28098443 -0.4004642 0.6407747 -0.1328074 -0.02028416 -0.010083452 0.5340248 0.7101738 1.0666857 0.1112988 0.16051973 -0.5805212 -0.07769767 -0.35217854 0.16561058 0.25293934 0.34229508 -0.52251303 0.2717769 1.0263332 -0.080285676 -0.2054852 0.14787708 1.2471496 -0.74077207 0.4284006 -0.09069839 1.5515506 0.46273494 0.8151228 -0.7922578 -0.37119314 -0.2367002
approach 0.033267245 0.23068355 -1.298876 0.10267596 -0.70198095 -0.0727429 0.0011394517 -0.030798154 -0.8286859 -0.027773917 0.35496867 -0.50122064 -0.87774605 0.3299149 0.19520545 -0.034317885 -0.051216614 -0.70774597 0.41937736 -1.1875314 -0.30860552 0.5807396 0.0021931764 -0.251369 -0.19456151 0.13140367 -0.8206957 -0.19874747 -0.2842315 0.47802705 0.20903051 -0.18250996 0.49015048 -0.34317178 -0.51661646 0.3029452 0.18607785 -0.44910297 -0.30960986 -0.9404329 0.08451795 -0.9707166 0.118376255 0.5186717 0.31795055 0.93513435 -0.5249201 0.28163564 0.16503282 0.40889576 0.081156194 -0.031212043 0.8404492 0.31409362 0.0127758775 0.48274398 0.06947908 -0.026044857 -0.871964 -0.009771339 0.07250776 0.18714334 -0.7338482 0.14614345 -0.011270885 -0.15123627 0.5207903 0.5098184 -0.5307697 0.66686225 0.12239107 0.32434687 0.90584624 -0.6054135 0.12826599 -0.4176269 0.20516498 0.13500324 -0.27713284 0.06401695 -0.0864021 0.06356599 -1.0178108 0.4049087 0.58176965 0.059573174 -0.36166698 1.0911175 1.144877 0.58885795 0.29128134 0.123664156 -0.48980993 0.24710745 -0.24445516 0.60843796 -0.042507675 -0.20180652 0.1972455 -0.36497676
formal 0.22291845 0.1439048 -0.9725218 0.09118327 0.051082257 -0.1459617 0.12997447 0.7005462 -0.7594339 -0.041835036 0.03765031 -0.50455517 -0.51417005 0.092404336 0.40237042 0.14983824 -0.22702399 -0.6334798 -0.05161391 -0.8874192 -0.29971763 0.657612 -0.14410019 -0.31726614 -0.07797374 0.32341206 -0.6564262 0.042917427 -0.44639918 0.278865 0.41816685 -0.42265192 0.4033296 -0.3929848 -0.13326325 0.37500513 0.40870717 -0.7266767 -0.48009938 -0.7331483 0.11604259 -0.8534121 -0.32564947 0.23671095 0.3805656 0.6623869 -0.74067855 0.26137647 -0.040200252 0.35256046 0.18750857 -0.5239996 0.2286267 0.567297 -0.16028588 0.47798127 -0.046496447 -0.2265701 -0.8063768 -0.03987041 0.044998202 0.45301268 -0.20796362 -0.09177598 -0.17944476 0.15227154 0.57680637 0.23578864 -0.64645684 0.44835043 0.20466393 0.06036873 0.46169448 -0.6110951 -0.3410831 -0.45146778 -0.020216424 0.13563927 -0.3458431 -0.16251735 0.21343723 0.1193869 -1.0753136 0.40622124 0.23629346 0.2382408 0.02372519 1.2229621 0.6089311 0.12825228 -0.06655502 0.2858149 -0.34555954 0.10904207 0.19148867 0.45307752 0.039331205 -0.46118248 0.33485302 -0.5096498
studi -0.0332714 0.0894269 -0.23859814 -0.12088782 -0.04608078 -0.66350913 0.03063288 0.657539 0.13848132 -0.36205962 0.23322742 -0.13918293 -0.58808607 0.4415273 0.15019968 -0.1554564 -0.013893256 -0.60356313 -0.07497697 -0.43241426 -0.20282863 0.12704532 0.36953732 -0.25401726 -0.6181122 -0.1653551 -0.3916808 -0.17963605 -0.32004455 0.10429726 -0.14709911 -0.10894157 0.41727716 -0.12689118 -0.62319815 0.66222996 -0.13180092 -0.3458356 -0.37216404 -0.60373056 -0.037086777 -0.437198 -0.18895963 0.44685173 0.83417666 -0.12212134 0.15871963 -0.3223233 0.073802695 0.43909705 0.122412525 0.12952381 0.25632843 0.009805279 -0.26032963 0.06546993 0.42276624 -0.14437747 -0.49871966 -0.30466682 0.14742163 -0.18148136 -0.46358225 -0.039200537 -0.48228598 0.28583127 0.08691519 0.23211527 -0.21425703 0.48739374 0.17619269 0.1747398 0.5161714 -0.0315027 0.8336369 0.20023614 0.16597313 -0.11493741 -0.54445785 -0.22662681 -0.13922253 0.0033435936 -0.12404781 0.038626652 0.46190438 0.13371168 0.33041543 0.2992945 0.45865434 0.56165963 0.6978129 -0.48141953 -0.1697936 0.030376932 0.70453024 0.76847166 0.23641749 -0.46510285 -0.06224098 -0.26846302
complex -0.19939469 0.18161815 0.023100402 0.026688619 -0.42468685 -0.48661804 -0.043409854 0.5361527 0.24294797 0.014058344 -0.075845666 -0.22382352 -0.18656169 0.22831598 -0.22408925 -0.38866055 0.15391885 -0.12187015 -0.089975156 -0.4285729 -0.056740128 0.10313086 0.2836203 -0.14803347 -0.11136806 -0.07319805 -0.21418424 -0.5235273 -0.22951533 0.21363264 0.16822936 0.19224375 0.13700894 -0.18801999 -0.41961473 0.34738156 -0.18976317 -0.12071316 -0.20964684 -0.7283783 0.16124268 -0.25484395 0.12107156 0.05889527 0.29491642 -0.026543112 -0.11613071 -0.17997396 0.2648192 0.19305953 0.24437426 -0.14873166 0.16916454 -0.34705248 -0.27111527 0.12391715 0.12356204 -0.1278395 -0.1393944 0.076398134 0.18222807 0.058074962 -0.13740864 -0.14502706 -0.3962496 0.291112 -0.049188275 0.4688079 -0.5292673 0.602352 -0.13959295 0.2514813 0.48856667 -0.11465497 0.6067698 0.31842315 0.19441578 -0.09216215 -0.17529298 0.117344484 -0.40020272 -0.09659393 -0.13460511 0.46845284 0.038431957 -0.18590917 0.12689674 0.36916888 0.49226752 0.23532332 0.5455123 -0.10631293 0.16753459 0.21836917 0.3226903 0.5200187 0.22785611 -0.17211927 -0.00047304583 0.24940594
synt 0.23076224 0.32564077 -0.9028428 0.28629377 -0.30801743 -0.052455176 0.16223113 0.35426992 -0.94145244 0.11335917 0.02925999 -0.5541147 -0.3117084 0.0750015 0.16199785 -0.20889138 -0.056928877 -0.61571217 0.3000821 -0.86639994 -0.12103783 0.7112444 -0.22832985 -0.33613852 0.14199649 0.11267028 -0.5835605 0.022132302 -0.16545503 0.12814488 0.28377277 0.1268225 0.28344658 -0.44600216 0.035794176 0.35748494 0.21672502 -0.45801434 -0.40508172 -0.9186269 0.2527793 -1.0751276 0.10470758 0.17462407 0.23057729 0.38555336 -0.73502934 0.54822856 0.104618534 0.031532384 0.23274213 -0.25193748 0.29225942 0.35791847 0.08017628 0.40892056 -0.29504177 -0.16263713 -0.62211585 0.0911349 0.13012734 0.39076102 -0.26283303 -0.23928323 0.20612083 0.17565964 0.38566887 0.2764618 -0.8166927 0.40517405 -0.070196606 0.4249305 0.6917392 -0.69134754 -0.004643302 -0.3308142 0.26096526 -0.13542189 -0.071651705 0.21938416 -0.21373263 0.116978325 -1.0581223 0.4608197 0.24937831 0.0026162104 -0.10950219 0.7713101 1.0117986 0.27710125 0.16541584 0.44360638 -0.33605257 0.29872546 0.044643756 0.14812398 -0.15373822 -0.28863603 0.33973756 -0.10035293
decid 0.03728892 0.33408505 0.26927128 -0.33790427 0.032428484 -1.1579783 0.3023532 1.0390743 0.70258236 -0.31682625 -0.032551315 -0.11118834 -0.0704113 0.3736195 -0.115234084 -0.63630027 0.12667286 -0.16446249 -0.75512844 -0.5603387 0.47527316 -0.110299714 0.6726175 -0.2103543 -0.7291654 -0.59351736 0.1313301 -0.5137924 -0.22088335 -0.24236444 -0.059515618 0.58328426 0.17162481 -0.12925075 -0.84263146 1.1458668 -0.19333519 0.020360056 -0.5904642 -0.6306043 0.19966893 0.016531087 0.17386074 0.015737817 0.9184898 -0.85935324 0.3710676 -0.65120894 0.29761094 0.30725434 0.32470322 0.136549 -0.08638257 -0.5734162 -0.55045867 -0.16934134 0.80608225 -0.24095856 0.009445727 0.15232258 0.53833395 -0.17011556 -0.43280792 -0.657618 -0.45871776 0.6505472 -0.40251955 0.4053261 -0.25752643 0.1878749 -0.28863123 0.103808105 0.29075563 0.40860724 1.6470753 0.783383 0.43693718 0.11930662 -0.2581713 -0.22326934 -0.38996753 -0.091944985 0.17306101 0.17826581 0.019495867 -0.13069126 0.7009885 -0.27044767 0.2941505 0.6987576 1.1853778 -0.64280605 0.3333112 0.10226679 1.2195811 0.59327215 0.67962337 -0.80977005 -0.20540267 0.039547943
have -0.260174 -0.011436912 -0.09843256 0.26137987 -0.82722104 -0.34943888 -0.09450415 0.35129428 0.3434405 -0.18161008 0.35120243 -0.38113686 -0.6495995 0.44964987 -0.109620534 -0.024190882 0.099222004 -0.49885693 0.073909104 -0.124905095 -0.69163764 0.064602815 0.65237427 0.050514627 -0.1096546 0.72312057 -0.92708516 -0.43843856 -0.699448 0.28984785 0.03781805 -0.18250413 0.41436332 -0.09166892 -0.6590349 0.18797335 -0.272479 -0.7434817 -0.42967004 -0.7747962 -0.17016567 -0.17303883 -0.0115391305 0.6066526 0.5827144 0.15293604 0.10393418 -0.30506632 0.33861163 0.6179782 0.07687068 -0.06264646 0.201494 -0.20353979 -0.5417363 -0.15333144 -0.016176717 -0.123066895 -0.8607082 -0.3854584 0.46588305 -0.0740849 -0.16568224 0.50975364 -0.6079306 0.04482853 0.09150361 0.29978618 -0.50196666 1.0447788 0.19613871 0.121130764 0.5357279 -0.3321753 0.58943844 0.49403864 -0.46203956 -0.099382915 -0.5478814 0.31481963 0.07170435 -0.03473198 -0.29658923 -0.039208163 0.25630254 -0.14659448 0.23063025 0.79371816 0.21289088 -0.059928894 0.54275864 -0.042575456 -0.0022482572 0.14770211 0.1753782 0.9697465 0.4215461 0.11023014 -0.27229816 -0.1417413
automaton -0.8525621 0.4958457 1.5529935 -0.21166287 0.40894574 -1.1777619 0.2159729 1.2608407 0.8961253 -0.392379 -0.5762421 -0.23659591 0.030634712 0.064677864 -0.81002957 -0.97391677 0.24857761 0.14153473 -0.4163207 -0.18522827 0.40142423 -0.13632159 0.6848126 -0.26255903 -0.03603422 -0.2521066 0.06975862 -0.81073534 -0.66772383 0.27291363 0.33962995 0.21265087 0.09684057 -0.1910503 -0.07402911 0.38923487 -0.33254325 0.21892306 0.15991993 -0.87521976 0.13667895 -0.051683348 -0.105769396 -0.3430817 0.41774377 -1.3082565 0.21975058 -0.7841014 0.0019936454 0.23145787 0.6960154 -0.22350886 -0.2581235 -0.9128707 -0.700424 0.1808615 0.8547482 -0.10707515 0.38959226 0.54097944 -0.097437076 -0.025280505 0.5016383 -0.34478244 -1.0588471 0.81288266 -0.023714641 0.57364047 -0.4669872 0.8089679 -0.26939794 0.11751349 0.32199442 0.5820373 0.6075034 0.87943804 -0.016555127 -0.21263668 -0.26191583 -0.016746111 -0.623838 -0.27059025 0.58769476 0.69933116 -0.451994 -0.24443576 0.53988695 -0.2303847 0.008857243 0.1884054 0.91875917 -0.5724649 0.42691025 0.016679887 1.0384717 0.4700435 0.7257227 -0.35201 -0.22696331 0.49266917
propos -0.013269876 0.12853356 -1.1436211 0.18382433 -0.2822316 -0.19407251 0.011871485 0.21651252 -0.88729715 -0.18335919 0.38743976 -0.56874037 -0.92439204 0.45995098 0.32531452 0.011457618 -0.04961922 -0.8616491 0.40098107 -0.90233773 -0.43829048 0.59407985 -0.18951608 -0.3597036 -0.3700746 0.06303271 -0.94981784 -0.028256295 -0.24583976 0.16136506 -0.06329451 -0.2409411 0.59906393 -0.16717295 -0.44438797 0.4626809 0.20364286 -0.5552612 -0.4494886 -0.9278706 0.055070076 -0.96122974 -0.19085751 0.55793387 0.58300626 0.630478 -0.369944 0.16879019 0.07862824 0.45292807 0.03474376 -0.10468786 0.7491884 0.56405044 0.11312742 0.29938063 0.11110916 -0.14057243 -0.877888 -0.39691103 -0.06160769 0.12902653 -0.58683574 0.04154121 -0.26849505 0.009770276 0.3852322 0.2775004 -0.4731986 0.5986086 0.2838609 0.36227992 1.0136299 -0.64065534 0.23508331 -0.47637746 0.2094668 -0.10302211 -0.4755261 -0.2570617 -0.107150465 0.053364795 -0.926665 0.27801397 0.7104622 0.17902632 -0.17865 0.9572011 1.0024627 0.5309064 0.35123983 0.08720697 -0.6604133 0.18524167 0.24396436 0.7290115 -0.101315126 -0.32532254 0.26285243 -0.35916865
also -0.026438724 0.20727159 -0.21789463 -0.3948137 -0.12086249 -0.7265068 0.1273562 0.66009593 0.2798724 -0.270112 0.13425496 -0.06628318 -0.45515847 0.29943722 0.025543591 -0.38377726 -0.13071243 -0.52523154 -0.29766667 -0.634987 0.18449898 0.11386098 0.5329834 -0.24951914 -0.71641827 -0.3569639 -0.181654 -0.28824088 -0.2824548 -0.003919241 -0.0409431 0.10201113 0.30994895 -0.059947416 -0.70814216 0.72459596 -0.10582097 -0.1806213 -0.42140365 -0.52061266 0.022920346 -0.2538447 -0.020208327 0.304648 0.6808713 -0.16542768 0.16105859 -0.3406391 0.14735165 0.42061755 0.11104377 0.1683088 0.27376434 -0.06899904 -0.24525928 0.14465109 0.6698499 -0.115038365 -0.4143795 -0.038490657 0.2101468 -0.0743717 -0.6383127 -0.26791808 -0.32459953 0.35464892 -0.057185452 0.36757413 -0.12032018 0.37381214 -0.015106308 0.17003697 0.4277255 0.047887824 0.95493037 0.2529451 0.3308899 0.13172066 -0.39457762 -0.30637872 -0.2250803 0.046168152 -0.20829421 0.21604714 0.2915078 0.08345888 0.3297204 0.22960332 0.39968103 0.6222206 0.89101183 -0.5196121 -0.024073932 0.089793 0.71303195 0.6972813 0.35478494 -0.57197136 -0.15688074 -0.2855506
order -0.0010806127 0.7754292 0.6222406 -0.34797335 1.0022075 -0.9306591 0.4953351 1.6524838 -0.109893754 -0.41548395 -0.58190495 -0.34263954 0.42074504 -0.16360791 0.34456936 -0.6845325 -0.5933222 -0.38830867 -0.6275047 -0.73797965 0.55511844 0.62740976 -0.26334977 -0.329116 -0.18891533 -0.18834303 0.023492277 0.2488185 -0.39474663 -0.5428987 0.11266109 0.38148513 0.08444773 -0.18608053 0.10176607 1.0595282 0.31780437 -0.5333673 -0.5147 -0.32715645 0.25965577 -0.50212336 -0.17446688 -0.4382839 0.35801548 -1.3885677 -0.22877726 0.015035929 -0.26027593 -0.20157185 0.5199841 -0.29402804 -0.5300093 0.28925988 -0.27357328 0.15254219 0.4405299 -0.33244005 -0.32270765 0.17090271 0.33989254 0.49865118 0.21823575 -0.72713614 0.30058205 0.8434026 0.13210505 -0.20463777 -0.5753861 0.22517723 0.051363412 0.05353149 -0.16726014 -0.08091394 0.4554004 0.21134447 0.067495525 0.14254175 -0.25635695 -0.29698318 0.16095908 0.48414212 -0.47025067 0.21840192 -0.09689149 0.5048016 0.99528044 0.32521695 0.20501418 0.019820167 0.8356025 0.07427919 -0.15968624 -0.19999781 1.4317055 -0.118214086 0.17004691 -1.220816 0.19643354 -0.21439494
generat -0.11956314 0.26706192 -0.030868048 -0.5168513 0.39191777 -0.3235805 0.090781465 1.1029136 0.1522728 -0.014600399 -0.22289452 -0.36930928 -0.24220304 -0.22395518 -0.2189897 -0.401027 -0.16584812 -0.58846676 -0.21433325 -0.31266785 0.07694746 0.35270447 0.46351418 -0.28747302 -0.14737888 0.07873194 -0.25380307 -0.42798254 -0.7042677 0.23929615 0.63765436 -0.52193713 0.28093565 -0.34516916 0.10070216 0.20836717 -0.05811938 -0.47620097 -0.23366594 -0.6031209 -0.050840583 -0.4501461 -0.33179188 0.13923945 0.45584977 0.069920294 -0.29777956 -0.04508003 -0.19893861 0.2991004 0.25421542 -0.19736741 -0.24477379 0.18889213 -0.44072285 0.5948397 0.43828198 0.024469454 -0.25728208 0.3808153 0.00077145314 0.13537896 0.0510273 -0.023289204 -0.47265008 0.36992455 0.2397546 0.25334504 -0.19545202 0.45530674 -0.15294255 -0.020757224 0.040468756 0.052439846 -0.2847472 -0.026012465 -0.108483665 -0.0069980863 -0.36985144 -0.0076626088 0.10543749 0.049419045 -0.280002 0.4625094 -0.15698682 0.07303891 0.16865388 0.6558768 -0.0021309135 0.11153622 0.2058762 -0.25465325 -0.057196792 0.094202384 0.58708876 0.5281079 0.36719206 -0.34053645 -0.10424743 -0.5152995
present -0.09797737 0.098206975 -0.78579235 -0.16635267 0.009759431 -0.36061394 0.06151321 0.3734194 -0.5279116 -0.32160985 0.2907188 -0.37476078 -0.8579753 0.37654912 0.15176037 -0.019571781 -0.08430491 -0.7472977 0.24241361 -0.8320963 -0.23091778 0.39561763 -0.010208192 -0.3829793 -0.56562734 -0.22093832 -0.6439358 -0.1105667 -0.3013113 0.1438884 -0.0859309 -0.30725294 0.5956341 -0.12865813 -0.45856535 0.4569704 0.13090314 -0.32783997 -0.32785428 -0.7566809 -0.029795097 -0.7164656 -0.27772465 0.47884607 0.63023496 0.425043 -0.19742116 0.0068501467 -0.051647898 0.52854574 0.019082803 0.063498415 0.6637732 0.43890756 0.08597302 0.3589287 0.52595896 -0.04134289 -0.57809275 -0.28274658 -0.22314124 -0.026512792 -0.62653375 0.0033591376 -0.45056534 0.07543793 0.32601646 0.25662893 -0.12341395 0.4049813 0.28541952 0.27041852 0.87969506 -0.27052295 0.28339607 -0.3989255 0.3363391 -0.09996652 -0.50562555 -0.4451887 -0.14673308 0.05490979 -0.59355986 0.3464815 0.5997167 0.2146661 -0.05558244 0.59061176 0.7077522 0.71373856 0.38234538 -0.24765535 -0.542154 0.11607544 0.4091456 0.74559075 -0.045674667 -0.39986917 0.14030801 -0.3861998
determinist -1.0860996 0.3334119 1.8887472 -0.06452109 0.5332635 -1.4381375 0.2589566 1.3395042 0.7279633 -0.71220565 -0.694848 -0.27164477 -0.08955208 0.16402458 -0.7676544 -0.8029258 0.3843868 0.18873635 -0.2918865 -0.31286898 0.22122538 0.029624686 0.35460693 -0.4259079 -0.077888645 -0.2041072 -0.03484986 -0.7594287 -0.7262049 0.23496373 0.11664703 0.24684058 0.119940646 -0.08783269 -0.26901153 0.5404062 -0.38747823 0.27708852 0.32952386 -1.1452836 0.2243374 -0.025070507 -0.37103426 -0.52824867 0.58967876 -1.4466534 0.21160674 -0.96932477 -0.06536588 0.38906577 0.83067626 -0.31092125 -0.17967066 -0.99848276 -0.61517614 0.10606332 1.0453116 -0.22911935 0.6118083 0.27417547 -0.14364485 0.03378675 0.6768554 -0.3338253 -1.4368132 0.9166847 -0.14624242 0.5621561 -0.277869 0.81601095 -0.1585818 0.24809514 0.5285998 0.5453723 0.8788216 0.95516104 -0.07854121 -0.5333497 -0.34518516 -0.17830296 -0.5676026 -0.34460473 0.6025037 1.1097332 -0.3684492 -0.30284217 0.56650656 -0.26993933 -0.05513771 0.30682507 0.9820438 -0.4913019 0.45840728 0.034371983 1.3503288 0.6399171 0.5344813 -0.3405706 -0.1437695 0.62670135
over -0.34942764 0.5976698 1.1701776 -0.12548687 0.6406942 -1.0025655 0.28318122 1.5484368 0.5168284 -0.38973868 -0.55074507 -0.24594973 0.40452233 -0.1207388 -0.30399537 -0.8304186 -0.07706702 -0.05458544 -0.35541433 -0.22876684 0.4671423 0.17124604 0.3268599 -0.26815024 0.054845676 -0.06989015 -0.1779869 -0.2131037 -0.6154215 -0.03627401 0.24345994 0.04401092 0.14368361 -0.23492317 0.12457857 0.5429611 -0.04894417 -0.23679891 -0.19109431 -0.52021074 0.13031937 -0.30458397 -0.08522419 -0.41436538 0.1708543 -1.2213744 -0.11244916 -0.29658756 -0.2532892 -0.06791938 0.6932122 -0.5359597 -0.5046425 -0.38881811 -0.4001456 0.19860934 0.40434703 -0.253865 -0.01851639 0.28566927 0.1366786 0.0899967 0.664103 -0.37079498 -0.32678643 0.8818185 0.22728053 0.15125482 -0.5931315 0.60896915 -0.075490385 0.14724422 0.18776691 0.10855123 0.29600596 0.54753643 -0.057355557 -0.15149525 -0.35374862 0.066212095 -0.31800666 0.08945063 0.030032646 0.5216116 -0.37183288 0.12245906 0.70847243 0.0053765373 0.001966876 -0.12535337 0.7262879 -0.11204121 0.24501006 -0.116331495 1.0977219 0.11859322 0.3624725 -0.4838557 -0.017606698 0.23193379
provid -0.06510195 0.20863764 -0.545296 -0.23201552 -0.18479066 -0.36180034 0.024665203 0.42134714 -0.26003593 -0.19328576 0.13199238 -0.31536978 -0.5392573 0.16354841 0.0066664517 -0.22950917 -0.016374905 -0.6607923 0.096527815 -0.6804099 -0.19545846 0.25030887 0.17560203 -0.28078017 -0.45184362 -0.22279213 -0.53381795 -0.3689458 -0.2152941 0.17300153 0.03485829 -0.035473276 0.27910295 -0.13410605 -0.41501832 0.5011827 -0.054606687 -0.26413086 -0.3447354 -0.74333125 0.05474487 -0.6043743 0.033062037 0.42870528 0.49319255 0.23789391 -0.09729219 -0.027315328 0.05840374 0.38378033 0.153311 -0.009230788 0.5691234 0.13589971 -0.14913958 0.2969282 0.34847677 0.040364806 -0.45600337 -0.08300567 0.040472765 0.02830572 -0.58040124 -0.051178973 -0.29919094 0.14850257 0.19890423 0.3310385 -0.26588464 0.40420982 -0.0034681116 0.3140842 0.72408164 -0.19439751 0.40748703 -0.020213734 0.29985717 -0.07432605 -0.23602927 -0.15974557 -0.28159168 0.046469092 -0.5537555 0.29339376 0.39550394 0.09679355 -0.035367727 0.49010012 0.6816721 0.5632227 0.51582175 -0.2708548 -0.2939756 0.230873 0.32264623 0.5882016 0.14229901 -0.3521854 0.09933163 -0.28448275
general -0.16982675 0.19505383 0.09330987 -0.24417129 0.09156169 -0.67828304 0.12682751 0.69929284 0.13676284 -0.27056244 -0.102838434 -0.22580588 -0.37594202 0.21040112 -0.06850685 -0.27590284 0.006461857 -0.3750401 -0.23620282 -0.555159 0.12552269 0.14680901 0.40438113 -0.2851378 -0.42983198 -0.21665817 -0.23290454 -0.3507543 -0.37681687 0.053464983 0.108255066 0.049213678 0.27101675 -0.14041129 -0.46341553 0.5466564 -0.051656302 -0.19465788 -0.3385747 -0.608901 0.029167347 -0.23232669 -0.11359867 0.09367263 0.60845137 -0.15478157 0.01367084 -0.35993487 0.038105935 0.39162564 0.24196486 -0.047271695 0.08616619 -0.08630536 -0.2801435 0.15342355 0.61460435 -0.06070238 -0.28876758 -0.024936026 0.1198138 -0.07238636 -0.26737237 -0.18879575 -0.51317775 0.34404895 0.06084962 0.25591204 -0.109937094 0.38809204 -0.011382415 0.10976156 0.39892203 0.073126845 0.62373185 0.23173088 0.16248375 -0.0052997884 -0.35182005 -0.19823411 -0.13430792 -0.023540849 -0.118138865 0.32047164 0.110702835 0.008656208 0.27445945 0.31717652 0.19783185 0.4447166 0.57141393 -0.3044167 -0.08121456 0.02694651 0.68408203 0.6276113 0.2922661 -0.49072483 -0.014740228 -0.120322384
class -0.079096854 0.36747417 0.5255948 -0.64931524 0.59398854 -1.0765567 0.2621081 1.5024966 0.6093851 -0.41175815 -0.27304047 -0.088007 -0.03583436 0.11149664 0.0163009 -0.55303806 -0.24797332 -0.41221982 -0.80471146 -0.5121719 0.53048337 0.118161544 0.7111537 -0.30333352 -0.7128852 -0.33300316 -0.008295979 -0.29311207 -0.6476163 -0.16232948 0.2464232 -0.010325037 0.230376 -0.16786431 -0.4671687 0.8542289 -0.026154084 -0.333316 -0.5554729 -0.45301527 -0.03954214 -0.014924909 -0.296657 -0.05263578 0.8559118 -0.68728775 0.16972806 -0.5135854 -0.11595954 0.37552702 0.36186635 -0.088245235 -0.46824506 -0.11184511 -0.5159079 0.23733476 0.92369854 -0.15266971 -0.28340542 0.12415997 0.27468124 -0.028652398 -0.09594704 -0.35887957 -0.5750277 0.659355 -0.03304687 0.16910201 -0.012942789 0.31939682 0.015213739 -0.12970145 -0.05440203 0.35507292 0.7216945 0.5189039 0.09413622 0.21937954 -0.5584611 -0.4013456 0.078800194 0.12907976 0.054775625 0.32599622 -0.16647853 0.25390887 0.79439884 0.2889571 -0.16744237 0.41878188 0.899405 -0.60561466 0.024819676 -0.09386241 1.3338418 0.6776489 0.55032516 -0.90057045 -0.2524914 -0.40101448
express -0.026002899 0.3504973 0.393937 -0.18359064 0.7098378 -0.8034962 0.18331683 1.5763017 -0.06480648 -0.3815592 -0.4018625 -0.20049386 0.1596526 -0.14665657 0.45427638 -0.4143417 -0.40631434 -0.42834985 -0.8871383 -0.30482596 0.34549877 0.39975834 -0.0015910573 -0.36992475 -0.28736234 0.10846543 -0.3053287 0.016211156 -0.42566144 -0.2667821 0.09449043 0.02567632 0.012154503 -0.30519456 -0.010209796 0.83742267 0.21246788 -0.65461254 -0.6363456 -0.21674791 0.23931153 -0.34664172 -0.40152326 -0.27889687 0.57708657 -0.74819875 -0.22983806 -0.14180234 -0.23787248 0.10671309 0.5810787 -0.51961666 -0.60306925 0.15925124 -0.47085115 0.23697354 0.3721759 -0.33087474 -0.2418726 0.06072593 0.17396562 0.36412242 0.43203732 -0.53290564 -0.040426757 0.73093843 0.24320237 -0.03711476 -0.32322127 0.16034377 0.0529998 -0.31016886 -0.27557486 -0.07260863 0.028457586 0.123112716 -0.1589335 0.25052688 -0.25384614 -0.22092384 0.17407826 0.3135462 -0.3195812 0.22573105 -0.15588666 0.33709702 0.77188987 0.62181526 -0.024129178 0.009905522 0.50947267 0.03488545 -0.24146506 -0.20663367 1.2646396 0.30243325 0.22453472 -0.87772185 -0.11988894 -0.319283
given -0.15238008 0.4356978 0.74751115 -0.06745359 0.3283483 -0.80481607 0.2583573 1.2193973 0.35960078 -0.15104194 -0.4270928 -0.32179496 0.3357381 -0.061790366 -0.3075302 -0.78238845 0.08035397 -0.082007 -0.44352624 -0.22805317 0.3989155 0.07098314 0.22049533 -0.1423634 0.037369315 -0.18279457 -0.0110830795 -0.3934263 -0.35632017 -0.11564345 0.2576037 0.34438065 -0.03472563 -0.27987155 -0.0028181819 0.58082396 -0.11524034 -0.100106955 -0.307862 -0.69950956 0.26134717 -0.2718591 0.03721537 -0.2395599 0.31347635 -1.0430058 -0.102814175 -0.22729126 0.011160892 -0.041624732 0.4947933 -0.32540268 -0.42418748 -0.4731094 -0.47641551 0.09299257 0.23282962 -0.19099392 0.16953823 0.41624537 0.27785933 0.07135211 0.41636187 -0.48810527 -0.3317159 0.6832433 -0.06413161 0.28114265 -0.6363525 0.3203596 -0.3148539 0.1906021 0.11125829 0.13738884 0.5289881 0.5598867 0.048349302 -0.13322285 -0.10468609 0.19485186 -0.31643066 0.0013329736 0.016712166 0.46211573 -0.34351707 -0.031449504 0.60270333 -0.005692505 0.20539932 0.06246683 0.67039 -0.08502683 0.23580453 0.06609343 0.9833372 0.08479863 0.41891402 -0.4909812 0.0050405776 0.23541462
tree -0.33316413 0.47754765 1.1150342 -0.57771534 1.0063566 -1.1523849 0.1429898 1.898735 0.46020055 -0.57015103 -0.5175729 -0.25548002 0.13050507 -0.14615487 -0.21652833 -0.7688762 -0.26458907 -0.2942082 -0.6706189 -0.26303104 0.5908729 0.27508768 0.43590775 -0.39084452 -0.27884975 -0.12940367 -0.07010539 -0.32421243 -0.77449983 -0.015761985 0.2594107 -0.12710513 0.22434805 -0.30421788 0.04505696 0.7466407 -0.15093343 -0.30983 -0.11252785 -0.48649994 0.16947521 -0.22099234 -0.41651905 -0.3071391 0.6378011 -1.3550143 0.055507205 -0.5516419 -0.38717207 0.19373813 0.7246097 -0.32318336 -0.5766232 -0.14733563 -0.57858974 0.3588127 0.8986138 -0.21680678 0.07737238 0.42769635 0.13455965 0.30522808 0.5264575 -0.38090834 -0.60779583 1.0111904 0.17253739 0.14916527 -0.15249746 0.51336 -0.078047395 -0.16287734 -0.1540758 0.3113245 0.3232762 0.49383038 -0.17797995 0.050860673 -0.3537712 -0.21137765 -0.06871649 0.14920017 0.06733654 0.58823013 -0.42321864 0.23893546 0.70033586 0.18261804 -0.18553062 0.12790236 0.80263495 -0.45513183 0.25381768 -0.10848812 1.4868917 0.42075282 0.5288608 -0.722421 -0.31481832 -0.115184344
control 0.063858226 0.3612548 -0.83471626 0.5908332 -0.5235948 0.14672804 0.13419975 0.24566332 -0.9457307 0.39953214 -0.17984992 -0.6791439 -0.22787176 -0.003764013 -0.07872265 -0.24696293 0.15710519 -0.4027303 0.39151043 -0.91114867 -0.25394762 0.64743984 -0.18991725 -0.2390104 0.62402683 0.34992275 -0.6171371 -0.23830283 -0.22529355 0.34576538 0.5828007 0.16672543 0.17303337 -0.5514862 0.1958882 0.055679914 0.16513947 -0.45246226 -0.3280603 -1.1876749 0.26141542 -1.0567563 0.23533776 0.10133309 0.0498951 0.6518944 -1.0002174 0.6958006 0.23163931 -0.018525649 0.25246578 -0.49631053 0.14705318 0.1576522 -0.00322276 0.40212676 -0.74788076 -0.15655881 -0.5797481 0.18711248 0.15487425 0.36177194 -0.032187767 -0.065790854 0.061507594 0.010202009 0.45175356 0.46458185 -1.099599 0.7096636 -0.19938415 0.5461808 0.73223025 -0.82310253 -0.27973765 -0.3414644 0.15382013 -0.26174733 0.036629133 0.53962 -0.22345561 -0.00084277126 -1.0110412 0.60015374 0.060611594 -0.2345877 -0.27209577 1.0813218 0.99290276 -0.045848813 -0.03876909 0.734395 -0.2674498 0.39269558 -0.18063797 0.11131845 -0.110121705 -0.06755002 0.47711858 0.1855825
program 0.2126989 0.22274747 -0.6561159 -0.014130209 0.031995494 -0.101704806 0.17292474 0.63404113 -0.47544083 0.055829603 -0.12643336 -0.447866 -0.22890443 -0.05280514 0.21120062 -0.104775734 -0.16775821 -0.45690382 -0.09480309 -0.64625573 -0.13234371 0.4685025 -0.036488775 -0.22321178 0.062267777 0.1711679 -0.49006 -0.16574112 -0.3493477 0.18041985 0.50746244 -0.14705016 0.20309617 -0.32856324 -0.055714384 0.35797572 0.26137593 -0.5408324 -0.51024604 -0.7198174 0.18415049 -0.64642876 -0.059737254 0.109702796 0.26420802 0.43329012 -0.6449982 0.3003856 0.059579104 0.13494617 0.21238203 -0.42986622 0.08083265 0.3201215 -0.27566916 0.43778938 -0.16956183 -0.16728508 -0.5082952 0.0942728 0.22218235 0.3418875 -0.1744151 -0.13535924 -0.0584043 0.19611467 0.37652147 0.17944404 -0.65470093 0.39394915 -0.032981914 0.14098002 0.36248583 -0.41265234 -0.21099986 -0.23185562 0.063943386 0.098022394 -0.1976722 0.1008103 0.105569154 0.077792086 -0.8239112 0.3944441 0.02864387 0.12960434 0.094542935 0.89729905 0.50225294 0.028835598 0.048824146 0.24540162 -0.19878042 0.17218685 0.18889217 0.24816874 0.1049087 -0.41586545 0.29196328 -0.3261383
bound -0.2918731 0.2238669 0.429648 -0.09470948 -0.2000664 -0.69104356 0.016956013 0.9020269 0.61400205 -0.02060083 -0.2995561 -0.19864483 0.0049259868 0.09234288 -0.20529267 -0.555714 0.1184266 -0.14456165 -0.34495136 -0.33530268 0.21434872 0.11148146 0.38517222 -0.10920981 -0.2288868 -0.3298009 0.07207397 -0.566093 -0.22101663 -0.018555181 0.13801362 0.33632106 0.17705828 -0.1045337 -0.46356913 0.62201965 -0.2658998 -0.10166533 -0.18453656 -0.6622482 0.25853413 -0.029519547 0.02952915 -0.106597565 0.50281 -0.51943254 0.20995954 -0.44895643 0.28932106 -0.02724601 0.44293785 -0.04407932 -0.11063133 -0.31755593 -0.4951731 0.10372307 0.34495857 -0.22255088 0.14393021 0.23933122 0.27497512 0.15070352 -0.14507146 -0.34876338 -0.34521964 0.5868375 -0.36812246 0.3364872 -0.32470986 0.41025546 -0.25353655 0.21373492 0.22207731 0.12827727 0.94909567 0.49298713 0.1935829 -0.14267042 -0.18000709 0.054492358 -0.42034158 -0.08311574 0.21639602 0.4172209 -0.10007599 -0.13283734 0.2933956 0.012867707 0.36689213 0.2550742 0.93612385 -0.3553926 0.35117885 0.178817 0.90392596 0.43923318 0.4391076 -0.39331546 -0.22081093 0.30237702
func -0.13553452 0.6061665 0.5885044 -0.4124547 0.2549126 -0.807272 0.28440562 1.1815208 0.3607333 -0.35370037 -0.31346098 -0.15547949 0.20121603 -0.1578504 -0.23578885 -0.7526521 -0.18812488 -0.26461905 -0.35751048 -0.32780468 0.46104923 0.04562488 0.4724491 -0.21334106 -0.17640904 -0.19857384 -0.18928784 -0.41956443 -0.42621964 0.0059480043 0.18610774 0.19679594 -0.0403428 -0.23630658 -0.058181282 0.5012867 -0.06602855 -0.15725683 -0.39557445 -0.5370042 0.11053575 -0.2632637 0.1342648 -0.12266911 0.32939783 -0.87816066 -0.023347944 -0.16250493 -0.066851296 0.06515209 0.4532568 -0.25942895 -0.23436233 -0.26016575 -0.33737782 0.23287322 0.4479294 -0.087382264 -0.17794709 0.33397093 0.25260386 -0.005907751 0.15838611 -0.3188959 -0.16071962 0.60926205 0.15935081 0.18762727 -0.45759964 0.46028826 -0.14232123 0.20394523 0.25688785 0.06934163 0.37539044 0.50226736 0.1347902 0.064721964 -0.2532891 0.033134338 -0.28267074 0.19127224 -0.14886573 0.40336454 -0.2871713 0.16798848 0.49480972 0.2376637 0.19023414 0.17914583 0.7251998 -0.24154276 0.03047186 -0.017042601 0.85639167 0.17277849 0.4062301 -0.5819258 -0.030808363 -0.014276955
defin -0.09350401 0.5589361 0.7044609 -0.49364132 0.81201833 -0.94893384 0.37132943 1.5963206 0.28324112 -0.48826307 -0.47220305 -0.20772003 0.26007748 -0.17147459 0.06365526 -0.64274395 -0.4018933 -0.43391266 -0.5567507 -0.39561275 0.48615545 0.2151962 0.2208227 -0.2609201 -0.35747856 -0.21679386 -0.1423614 -0.12560807 -0.4853753 -0.2075777 0.13966918 0.047367685 0.07348774 -0.21062794 -0.009885083 0.8248604 0.13833046 -0.3745602 -0.55320835 -0.39196903 0.06336448 -0.3346257 -0.20182885 -0.18625876 0.5234541 -1.0972189 -0.0662197 -0.21447968 -0.28795737 0.08066745 0.54141945 -0.3121383 -0.42944404 0.022635305 -0.3882017 0.2724547 0.56656766 -0.19864404 -0.25652796 0.11923486 0.12033907 0.13572997 0.22185028 -0.47924426 -0.21831271 0.746458 0.22893935 0.0062599094 -0.3928423 0.26798955 0.0026855532 0.08692428 0.017860342 0.11088473 0.34339958 0.39911038 0.055467892 0.08882233 -0.4338993 -0.2144499 -0.086483955 0.2956405 -0.13887319 0.31739047 -0.25503325 0.40743366 0.7958012 0.26702923 -0.01867738 0.119153745 0.7320795 -0.26885265 -0.12265862 -0.15789041 1.3295931 0.18456402 0.35237837 -0.9321052 -0.01826482 -0.19830993
prove -0.04143828 0.29352766 0.018309735 -0.6966217 0.41205135 -0.8153257 0.14281148 0.99707216 0.37085238 -0.41559312 -0.014414686 -0.120776094 -0.3074562 0.11298678 0.03346738 -0.42944893 -0.16052757 -0.6446339 -0.41616032 -0.49262598 0.16229916 -0.030169047 0.5595437 -0.26630524 -0.8346543 -0.58179677 -0.10208966 -0.3691127 -0.19407155 -0.06003348 -0.054389827 0.053092506 0.22901148 -0.04788443 -0.5218703 0.90543854 -0.13460438 -0.22720838 -0.5102668 -0.5387104 0.030670626 -0.2827539 -0.06745816 0.3486745 0.873166 -0.4268994 0.26167828 -0.41130796 -0.014735626 0.38465157 0.24680872 0.086565524 0.15874323 -0.033479355 -0.42479122 0.20612457 0.7189691 -0.0060623507 -0.25099093 -0.10836803 0.15266204 -0.1537363 -0.5619613 -0.27464226 -0.5806497 0.5095094 0.021792889 0.23741585 -0.032502264 0.18240707 -0.13465174 0.16920924 0.3635115 0.28168523 0.86711216 0.39282134 0.34285823 -0.0065743537 -0.41998112 -0.3005143 -0.19754131 0.05851964 -0.1146347 0.17596048 0.24738099 0.21149531 0.43077046 0.042619675 0.21367113 0.66398513 0.8628598 -0.73280865 -0.14273942 0.024513664 1.0681394 0.63834685 0.48894763 -0.8128806 -0.08723061 -0.43867034
all -0.14733994 0.42776015 0.43565196 -0.3270649 -0.010318237 -0.5998741 0.13054062 1.0140016 0.6065174 -0.080557495 -0.27742195 -0.19596148 0.08629999 -0.08232474 -0.3096835 -0.6443211 -0.014247236 -0.26508033 -0.37668997 -0.24729255 0.19819306 0.00758938 0.59727013 -0.14786862 -0.16507159 -0.1266585 -0.12117677 -0.58429474 -0.4589667 0.08270056 0.3658034 0.07849811 -0.009340382 -0.21919578 -0.18308687 0.37918055 -0.1751776 -0.24602032 -0.35152552 -0.58126676 0.08548622 -0.17228082 0.08189751 0.051214024 0.37966526 -0.4529609 -0.049707096 -0.19965675 0.061042245 0.16646057 0.33480588 -0.1476377 -0.24697247 -0.32982776 -0.5047657 0.2649739 0.3260563 -0.024987096 -0.18020153 0.35483634 0.30991006 -0.020215625 0.027861975 -0.18728116 -0.31091228 0.41535285 -0.025532717 0.33087018 -0.40462467 0.498927 -0.22257528 0.12457956 0.14258283 0.12829857 0.38643095 0.54627347 0.037201583 -0.027618313 -0.20248377 0.15996173 -0.2504645 -0.030348042 -0.024925908 0.38616046 -0.23278005 0.011268802 0.3848484 0.29095414 0.10983614 0.14182605 0.6450598 -0.25859192 0.1948705 0.11088986 0.66775227 0.40382192 0.48470625 -0.36202466 -0.10966843 -0.06988565
new -0.11851916 0.16281888 -0.5787936 -0.1556693 -0.13377345 -0.4301396 0.18501031 0.40109357 -0.41987595 -0.28461894 0.16573283 -0.27326164 -0.7150159 0.307694 0.11575992 -0.12969881 -0.18223126 -0.5850352 0.030379537 -0.9384049 0.0034541744 0.42085704 0.11536739 -0.26288137 -0.47466534 -0.18979502 -0.50449586 -0.09807268 -0.3478612 0.12283258 -0.024973013 -0.1693241 0.5318474 -0.13928935 -0.5047911 0.42892182 0.16501307 -0.256105 -0.25485316 -0.6020372 0.0052966955 -0.58917934 -0.15371001 0.32540262 0.42829734 0.29610068 -0.20304823 -0.057274 0.0003963398 0.5098894 0.041508373 0.028039807 0.5701964 0.26441288 0.04034833 0.3192616 0.51860243 -0.09443139 -0.6110159 -0.07651395 -0.091513395 0.15705916 -0.55528396 -0.1228412 -0.2602784 0.12206741 0.3256518 0.3370218 -0.16657443 0.4359085 0.23029365 0.25075343 0.65251076 -0.30632308 0.40027407 -0.27465478 0.2792055 0.12618895 -0.37014568 -0.41662335 -0.06840392 0.1098116 -0.577866 0.37001467 0.3660133 0.18861654 -0.031135362 0.5309949 0.6304286 0.53792053 0.4630171 -0.23869674 -0.2233056 0.10509749 0.31456828 0.59075874 0.07645235 -0.41181827 0.09712537 -0.31891838
case -0.13289353 0.24493968 -0.090322375 -0.086032785 -0.6018533 -0.5791686 0.0029012172 0.40006784 0.35630322 0.022975331 0.13378468 -0.13263066 -0.39843825 0.38594544 -0.23150206 -0.37904847 0.036592048 -0.35059932 -0.046186674 -0.7246995 0.1137441 0.14817443 0.5690825 -0.17215379 -0.5061459 -0.14894147 -0.20558009 -0.4745093 -0.3636137 0.21728735 0.20914204 0.14130498 0.28332776 -0.055196397 -0.68573546 0.4342925 -0.23131901 -0.11753994 -0.24827033 -0.759844 0.022374319 -0.29115987 0.18117854 0.2969546 0.43412685 0.0862208 0.009791706 -0.21911278 0.19564511 0.2972183 0.13733251 0.17898767 0.26173946 -0.35919467 -0.20571125 0.16252473 0.5129655 -0.10118337 -0.3818758 0.09603634 0.294149 -0.15110578 -0.5627987 -0.083607726 -0.31322756 0.2446989 -0.07929585 0.60262424 -0.3051513 0.65164405 -0.16449536 0.17497005 0.52530444 -0.008832381 0.92598575 0.41661322 0.23002468 0.07570346 -0.29780632 -0.11384793 -0.31993756 -0.09492555 -0.21389373 0.45022902 0.22832727 -0.10412919 0.13263829 0.33001426 0.5008841 0.43568906 0.82753766 -0.38957173 0.0050104214 0.23230705 0.2788661 0.7444956 0.24974914 -0.16232473 -0.16686514 0.004757105
it -0.14080438 0.35919958 0.08113286 0.04756365 -0.3499748 -0.34990707 0.118493676 0.5083791 0.095153585 0.026137752 -0.1633028 -0.2953402 -0.1179121 0.03792865 -0.3198721 -0.5027926 0.08648277 -0.21229628 -0.024007712 -0.48598772 0.04391788 0.10525575 0.23591052 -0.13026401 0.13829392 0.055540632 -0.32926887 -0.52364475 -0.29576328 0.24745147 0.34986508 0.18078533 0.016883997 -0.2274208 -0.120952874 0.22504677 -0.060998723 -0.1767668 -0.26040184 -0.7613729 0.123542294 -0.37172705 0.15652572 0.09142555 0.15997626 -0.12053087 -0.28673804 0.037936278 0.19463713 0.17432398 0.25898513 -0.26799208 0.10622142 -0.29220498 -0.309469 0.18485768 -0.026936283 -0.08702337 -0.22685125 0.25307155 0.22195318 0.088891566 0.010490657 -0.09762116 -0.21795504 0.20853989 0.11482625 0.4729502 -0.6727271 0.6359029 -0.18186754 0.3417389 0.44281128 -0.17976047 0.216511 0.2775698 0.070380956 -0.10176453 -0.08573345 0.2307998 -0.31720275 -0.09301615 -0.3270571 0.4476778 -0.10437889 -0.1415885 0.08371131 0.5026839 0.48264775 0.08270426 0.40266147 0.057482246 0.07034588 0.1889282 0.20871872 0.27682865 0.29825488 -0.16690345 0.11842937 0.1593021
first 0.15558681 0.4906704 -0.09126217 -0.22637953 0.45692733 -0.81117356 0.42692617 1.0423524 -0.3604261 -0.38537017 -0.21551119 -0.34847328 -0.12710164 0.11083733 0.3708159 -0.41308212 -0.4927317 -0.5920726 -0.33092558 -0.9365903 0.46756282 0.62874925 -0.12128474 -0.28097928 -0.57756996 -0.29978505 -0.15031242 0.28823042 -0.14218575 -0.34433103 -0.07384086 0.26457044 0.3478411 -0.078015506 -0.30876997 0.9529162 0.400691 -0.3342439 -0.4600089 -0.32680744 0.20995362 -0.5737451 -0.13278931 -0.013037492 0.5037478 -0.6747144 -0.1349575 -0.029343551 -0.16322513 0.052809473 0.2810348 -0.048728786 0.05272258 0.33191997 -0.070670106 0.22659156 0.5106193 -0.3098926 -0.41577932 -0.08494742 0.14275369 0.38024843 -0.32241097 -0.610711 0.27681014 0.57563347 0.20315741 0.043437675 -0.36784047 0.074938744 0.044871464 0.18948789 0.22417977 -0.22107428 0.68164265 0.0015199782 0.21865822 0.14201316 -0.31492004 -0.37203747 0.008693292 0.29801384 -0.53496283 0.19380042 0.2911304 0.41191703 0.6383125 0.2668029 0.43303937 0.3823474 0.70299065 -0.09103566 -0.27158037 -0.09458179 1.1032447 0.18084748 0.06950485 -0.9391842 0.13508728 -0.19732688
method -0.003064725 0.26013783 -1.1319424 0.020665303 -0.66212046 -0.078758545 0.006467314 0.09808262 -0.6687535 0.023750063 0.2782172 -0.464571 -0.8001434 0.24810608 0.11227093 -0.07841913 -0.068812825 -0.6231086 0.24485016 -1.0526148 -0.31017697 0.51701623 0.08259048 -0.24564123 -0.19734009 0.19728656 -0.6967541 -0.3216585 -0.3349722 0.4747019 0.32685912 -0.25036472 0.39155367 -0.347906 -0.4462273 0.2093335 0.15323792 -0.43796247 -0.28815365 -0.8574233 0.109843485 -0.81035244 0.06385991 0.4405893 0.30713648 0.917905 -0.473398 0.17991772 0.18425697 0.41557404 0.100557715 -0.094326034 0.67443925 0.23441562 -0.087703146 0.50441116 0.087005876 -0.053927656 -0.7762602 0.06318929 0.112310015 0.22668572 -0.6081872 0.1182837 -0.070237905 -0.1166073 0.46981677 0.4843986 -0.5201904 0.7007452 0.044674568 0.19804114 0.7476311 -0.517379 0.01626989 -0.31420434 0.12517697 0.16140726 -0.24739869 0.093692854 -0.061965417 0.028671239 -0.9393299 0.43121633 0.40926015 -0.028210247 -0.33145374 1.1408769 0.9727428 0.4270603 0.23158692 0.09823922 -0.37413964 0.26984873 -0.228804 0.6343982 0.11080899 -0.17335024 0.12992793 -0.34185752
check -0.017933682 -0.12200207 -0.7550792 0.5169961 -0.10531549 -0.25878263 0.036728524 0.3761162 -0.68785703 0.01637843 -0.005374273 -0.6499957 -0.3577988 0.2403885 0.20299591 0.07226186 0.38916442 -0.1430955 -0.009630452 -0.40759805 -0.3831743 0.3326175 -0.35023844 -0.2232137 0.25058308 0.18969811 -0.6146568 -0.18144476 -0.16946217 0.3440302 0.23870696 -0.025168443 0.18659367 -0.45408762 -0.2663092 0.36063635 0.096945964 -0.3826859 -0.37695038 -0.9542464 0.20767874 -0.69227433 -0.011710357 0.15465578 0.317546 0.46695346 -0.47359964 -0.028968628 0.11471332 0.237806 0.4013452 -0.5095398 0.34239942 -0.061068933 -0.3952631 0.089898966 -0.16903539 -0.25014237 -0.19057392 0.0038337256 0.081269726 0.29322028 -0.0066032396 -0.2834251 -0.45765528 0.2873429 0.12422386 0.3615784 -0.7459069 0.3188588 -0.14557272 0.15908465 0.6245681 -0.3800259 0.1920972 -0.3474922 0.031105608 0.0018741499 -0.15233122 -0.06836567 -0.23059563 -0.12127505 -0.47689483 0.44090468 0.16889192 -0.18185106 -0.015424552 0.6858782 0.7716304 0.0069929846 0.117390834 0.12429083 -0.16558334 0.21106654 0.1809036 0.39499825 0.1533025 -0.2677256 0.33740434 0.022179278
has -0.23905377 -0.025532827 -0.006573238 0.3470809 -0.79122925 -0.38423154 -0.064321645 0.42056125 0.40153816 -0.17893586 0.3111081 -0.44407645 -0.53158456 0.49275184 -0.18488947 -0.085446835 0.17616904 -0.43190074 -0.023795357 -0.014821352 -0.6264531 0.018532116 0.66097826 0.15076512 -0.008893013 0.7613321 -0.8593615 -0.42609975 -0.7106339 0.18801899 0.058220547 -0.05164212 0.3366678 -0.111663185 -0.6145723 0.2729268 -0.2895439 -0.7217858 -0.45584664 -0.76078236 -0.15172896 -0.1166664 0.03722199 0.50654423 0.59784716 -0.044268157 0.13396713 -0.29199013 0.4050726 0.53194463 0.08579327 -0.06664816 0.0154867815 -0.327528 -0.61233413 -0.26852617 -0.10825428 -0.19490606 -0.76414365 -0.3165279 0.5803024 -0.07982768 -0.05654426 0.48755196 -0.5836274 0.107932664 0.0052763326 0.28406364 -0.547112 1.0380574 0.14064336 0.106463626 0.43983006 -0.24560288 0.7417322 0.6130059 -0.5113744 -0.11943634 -0.46824276 0.41491345 0.08751016 -0.048636775 -0.16206731 -0.1434352 0.15118657 -0.2259569 0.36806917 0.68125784 0.18112385 -0.07580674 0.62040704 0.027874174 0.13910209 0.16741146 0.26150975 0.88312083 0.48348844 0.07801432 -0.3263716 -0.0018378866
graph -0.20873006 0.3164394 0.298964 -0.34906274 0.5546514 -0.54532266 0.08597984 1.234001 0.23110013 -0.13594702 -0.38146693 -0.34916142 -0.09949728 -0.09951894 -0.18298939 -0.37994114 -0.15695219 -0.47716781 -0.20794952 -0.4035057 0.28265247 0.34270746 0.47853032 -0.26530254 -0.08194433 0.029975448 -0.17608099 -0.27886993 -0.61305654 0.17269963 0.5934643 -0.2805494 0.31123504 -0.34453234 0.060985338 0.35313264 0.032379642 -0.4647788 -0.27088022 -0.63088995 -0.010301996 -0.18615952 -0.35353947 -0.16302492 0.5906191 -0.20655659 -0.1911381 -0.26357797 -0.16384718 0.16191831 0.39105493 -0.26652014 -0.4119823 0.18825267 -0.3013325 0.48290378 0.38511354 -0.012201619 -0.29045823 0.25684938 0.06956162 0.1232109 0.15340042 -0.09834557 -0.5794974 0.4274177 0.23749636 0.1484014 -0.13291307 0.50308245 -0.010420378 0.0012457734 0.014221324 0.069967076 -0.0857441 0.16152266 -0.1812831 -0.02241513 -0.3914915 -0.038660787 0.17588657 0.01631966 -0.12668605 0.473564 -0.26205325 0.089327976 0.27167884 0.5761656 -0.22762744 0.038842514 0.28725573 -0.2088769 -0.005562325 -0.05398695 0.7583796 0.4570866 0.35446826 -0.49960566 0.028889082 -0.24902987
verif 0.20892873 0.114037514 -1.3595153 0.4768111 -0.49447757 0.12255515 0.07872039 0.088362016 -1.0431575 0.25009903 0.12098442 -0.62696636 -0.5670893 0.18173711 0.17877656 0.103251554 0.18867587 -0.51502025 0.30407315 -1.0237869 -0.52802193 0.6026068 -0.24104105 -0.27547142 0.2759053 0.29062042 -0.7573283 -0.19611876 -0.15866335 0.48098484 0.50672656 -0.07961989 0.29550034 -0.5123758 -0.12891015 0.30931482 0.3008588 -0.5591046 -0.5039577 -1.1424835 0.27296707 -1.0428034 0.123564646 0.3399551 0.20660785 1.1690993 -0.9448774 0.5119575 0.2538176 0.21619888 0.26675946 -0.5025843 0.55505466 0.30186588 -0.16680437 0.38981205 -0.5565571 -0.15080886 -0.77763873 -0.085052475 0.18443415 0.39833772 -0.38377634 -0.015396907 -0.08900884 -0.06337676 0.5730366 0.39474225 -1.0009749 0.61390185 -0.05386322 0.41278967 0.90957433 -0.7554926 -0.15119681 -0.56782246 0.17366375 -0.04097824 -0.097899325 0.2608339 -0.1246505 -0.029579043 -1.1693711 0.4828443 0.2683346 -0.1515204 -0.29651806 1.2071025 1.0802579 0.14117748 -0.1254613 0.54400545 -0.35638267 0.3179066 -0.32739398 0.3355205 -0.121687025 -0.23646061 0.5404751 -0.09622596
linear -0.077479705 0.54243344 0.70486045 0.44905663 0.879394 -0.83690095 0.3930941 1.534839 -0.47398973 -0.20811093 -0.75389016 -0.6536916 0.44912285 -0.074905515 0.40697944 -0.67205405 -0.24783361 -0.15621413 -0.4825002 -0.598682 0.5643389 0.75500077 -0.7196267 -0.27031812 0.25224417 0.10318719 -0.25492454 0.28538218 -0.26713008 -0.37139726 0.20940304 0.38591465 0.040564414 -0.3664704 0.13949525 0.948495 0.53966254 -0.5149693 -0.4319694 -0.59538245 0.5132439 -0.6910126 -0.4226623 -0.7028689 0.30313993 -1.2006582 -0.46010587 0.024432043 -0.14257216 -0.34136146 0.7718097 -0.8320141 -0.71811956 0.16698878 -0.26355866 0.3108739 -0.13268512 -0.62490934 -0.058004953 0.08353442 0.024803128 0.6266983 0.7119496 -0.8494918 0.25077376 0.9954662 0.15139973 -0.060345404 -0.856047 0.2211204 -0.114559785 0.230987 -0.0063347183 -0.40446654 0.21671972 0.07370917 -0.21020646 -0.059264634 -0.15980047 0.07509293 -0.0107312165 0.17333256 -0.32338193 0.4987929 -0.23330538 0.3532124 0.79506975 0.3316379 0.43578756 -0.21436782 0.57354313 0.5707504 -0.15175135 -0.18809412 1.4940245 -0.26516446 0.02493596 -0.9636516 0.30627412 0.40203902
relat -0.06661934 0.40610248 0.4070496 -0.49503392 0.38410008 -0.77720946 0.26019955 1.2419635 0.3963044 -0.28774217 -0.2610747 -0.055447713 0.1206362 -0.104338564 -0.10179475 -0.54342914 -0.19155662 -0.38196847 -0.54373384 -0.3628994 0.3279847 0.09897949 0.48757553 -0.23000556 -0.3300372 -0.1979608 -0.12395938 -0.2836257 -0.4567242 -0.031292066 0.20347112 0.092372395 0.05723865 -0.23068435 -0.13914374 0.6026719 -0.05681785 -0.3242919 -0.45493835 -0.42695817 -0.0062030675 -0.2523888 0.0083982 -0.013368239 0.48656818 -0.67275196 -0.026995596 -0.17922822 -0.15145484 0.19007398 0.3748544 -0.22014596 -0.2757002 -0.14880976 -0.46133 0.19955915 0.49302346 -0.08344215 -0.2825062 0.20167911 0.24810931 0.04155826 0.016063847 -0.2781014 -0.25433514 0.5896432 0.15849009 0.20760432 -0.3364336 0.3734886 -0.024310147 0.07099723 0.09336764 0.18275326 0.4157714 0.40909758 0.11653453 0.13545677 -0.3315746 -0.16594508 -0.11629988 0.16862085 -0.09018888 0.25838628 -0.18427992 0.19261272 0.6158318 0.27203235 0.028801031 0.1804573 0.72867906 -0.34474596 0.050848182 0.00430284 0.92438555 0.34184673 0.4380448 -0.6922664 -0.09261226 -0.18588607
introduc -0.16489585 0.17728876 -0.21967027 -0.0894603 0.45475784 -0.5209401 0.14062388 0.74945164 -0.39496043 -0.4065114 0.056949783 -0.26889306 -0.55263406 0.25376937 0.29145965 -0.084354386 -0.18076973 -0.6221039 0.05118022 -0.6062952 -0.17921954 0.394502 -0.07798854 -0.3660231 -0.4378976 -0.15210661 -0.5117278 0.06730074 -0.2853659 0.050074942 -0.13652137 -0.19251548 0.5047714 -0.086886205 -0.2899616 0.6230517 0.17108454 -0.4517987 -0.3096069 -0.6358394 0.005008473 -0.57440376 -0.33110836 0.2466956 0.62742114 -0.14244287 -0.121998854 -0.09609613 -0.13774495 0.3333397 0.24970244 -0.0802743 0.28317264 0.39462918 -0.04678904 0.20662414 0.42618498 -0.11911766 -0.4860069 -0.4126035 -0.15669723 0.10120484 -0.24959457 -0.11883555 -0.449833 0.3243335 0.33158624 0.06133028 -0.25723895 0.38461637 0.28769654 0.20621632 0.571837 -0.20430292 0.30579925 -0.23876366 0.1506507 -0.12124441 -0.5878174 -0.42630497 -0.009186373 0.1695481 -0.3928822 0.21189168 0.40654263 0.3085985 0.2441066 0.5382852 0.41123027 0.36147496 0.51992005 -0.24377015 -0.47724319 -0.065304644 0.81941414 0.5117782 0.03258852 -0.59766936 0.14996251 -0.3286511
free 0.057013612 0.39105484 0.3027169 -1.0083469 1.3234457 -0.9715616 0.33423167 2.6055741 0.84886456 -0.1620395 -0.64572734 -0.5519343 -0.41494584 -0.25564468 0.2530152 -0.31465816 -0.4052716 -1.0417762 -0.9131351 -0.5008668 0.5075732 0.92867875 1.0839266 -0.34441307 -0.8965118 -0.037453443 0.32116938 -0.03927923 -1.1168075 0.0822553 1.0315405 -0.75339186 0.6704984 -0.40743202 -0.39051753 1.0094098 0.31278273 -1.1125643 -0.50274026 -0.63671094 -0.30657798 -0.18006654 -1.0874215 0.0383781 1.3925095 -0.28122622 0.1931508 -0.81832236 -0.22573306 0.1620556 0.31699735 0.117840655 -1.2403339 0.6272712 -1.0063152 0.58551055 1.3043221 -0.021969156 -0.09613846 0.5286676 0.21303502 0.20966977 -0.3273194 -0.24677703 -0.8586402 1.0432732 -0.2036366 -0.06176848 0.3342921 0.31764778 -0.2676375 -0.551142 -0.83746046 0.7080963 0.026588444 0.19672771 -0.40100092 0.11941974 -0.99549776 -0.2341752 0.74770474 0.28570306 0.5061316 0.22096004 -0.044200785 0.5971973 0.94776326 0.8202984 -0.6732615 0.375841 0.9571909 -0.9871205 0.079316944 -0.40128058 2.0986724 0.8692329 0.84531313 -1.2917978 -0.30898133 -1.1800722
number -0.4869513 0.41748977 0.7241444 -0.11087727 -0.27331105 -0.5759113 0.060619358 0.77629715 0.714471 -0.025184883 -0.32818004 -0.23736893 -0.031872004 0.0003832422 -0.6707492 -0.684112 0.24680044 -0.08412854 -0.014603539 -0.22362213 0.057916917 -0.08430614 0.57411855 -0.114751905 0.11363331 -0.092336595 -0.13402686 -0.77792203 -0.42516336 0.29601967 0.40481186 0.14401901 -0.016596945 -0.18524483 -0.1217978 0.11172062 -0.2923856 -0.06250181 -0.04277642 -0.81774634 0.057469513 -0.13454312 0.18872632 -0.0122962855 0.19864826 -0.42037874 -0.021229535 -0.25778502 0.202648 0.15216228 0.37802583 -0.12236894 -0.062086683 -0.6064498 -0.46097204 0.21259767 0.27667144 0.003465472 0.06780028 0.34249082 0.1193489 -0.028093712 0.16932224 -0.08629259 -0.5577534 0.35299125 -0.0038139804 0.50850236 -0.5249199 0.7618816 -0.3199684 0.27221894 0.38707814 0.16774137 0.3562169 0.6085533 -0.007836254 -0.25791147 -0.18315648 0.29073864 -0.48456115 -0.13451394 0.14156835 0.59869474 -0.22127643 -0.20190053 0.13842238 0.15744445 0.2445812 0.055702843 0.6085527 -0.23620327 0.2882948 0.20581572 0.41517112 0.45485744 0.4759639 -0.05570172 -0.041785497 0.2855176
equival -0.3232147 0.34262747 0.8101239 -0.45363808 0.49769363 -1.1181548 0.28832737 1.1826974 0.5244369 -0.42253292 -0.40401843 -0.16006258 -0.050475627 0.09835652 -0.25008124 -0.5926302 0.018846668 -0.10588294 -0.53638375 -0.4571687 0.4128776 0.015504557 0.52522457 -0.25240058 -0.38578725 -0.3798384 0.055635627 -0.48967278 -0.45195776 0.03827545 0.18749599 0.22826838 0.1292958 -0.15510987 -0.39325505 0.7346412 -0.10209487 0.0014663547 -0.26641837 -0.68712735 0.080833875 -0.0040923175 -0.09873766 -0.24997826 0.6478209 -0.9117665 0.14585306 -0.5944433 -0.0055380305 0.28139418 0.47867495 -0.13724977 -0.16879745 -0.45069546 -0.54038495 0.12543796 0.8239425 -0.11404908 0.1022906 0.18477301 0.16913345 -0.026556319 -0.017666373 -0.38734302 -0.71001464 0.709386 -0.017361544 0.2818222 -0.21330649 0.4078964 -0.15858959 0.09613311 0.26382148 0.41574755 0.8355869 0.64589685 0.19155249 0.009095359 -0.34948552 -0.2564064 -0.23926708 -0.0702755 0.19648859 0.5339078 -0.2331757 0.001514503 0.6229104 -0.07479268 -0.02181409 0.42122522 0.8929692 -0.52796084 0.20680295 -0.064135216 1.1361254 0.45628124 0.5964555 -0.7332408 -0.097573504 0.09180967
gramm -0.053114664 0.27833012 0.02750347 -0.9829893 1.1970077 -0.7170856 0.1532221 2.1007154 0.34710377 -0.15589678 -0.43480948 -0.45876852 -0.32621095 -0.15736678 0.19888315 -0.40138468 -0.5288071 -0.9838513 -0.8547769 -0.44911683 0.4114862 0.7966102 0.6540925 -0.34367067 -0.70504624 0.056349304 -0.0121035045 -0.15342018 -1.0168265 -0.069727354 0.7888482 -0.6633576 0.52864575 -0.38549894 -0.16181092 0.8051437 0.14442082 -0.9241072 -0.5048946 -0.29890054 -0.08757879 -0.3140705 -0.955575 0.013844193 1.1275129 -0.23536529 0.046129104 -0.46967176 -0.35533968 0.3300166 0.24974458 -0.09518184 -0.8691971 0.6388002 -0.6801273 0.73785836 0.9787759 -0.08509632 -0.37006766 0.38229266 0.076996095 0.3160392 -0.07412382 -0.21974616 -0.57068384 0.7413566 0.071994685 -0.09652509 0.2942975 0.42054832 -0.03345855 -0.50553995 -0.5832955 0.3565042 -0.07824282 -0.025329532 -0.2613609 0.2147893 -0.7327935 -0.35335445 0.697052 0.17068489 -0.009228947 0.25888273 -0.17662406 0.40133286 0.71708184 0.8926247 -0.46436262 0.2795163 0.69551224 -0.55577433 -0.05945333 -0.12248034 1.6283786 0.83451915 0.68034774 -0.9949267 -0.39330518 -0.99395865
data -0.13100253 0.5139944 0.02920092 0.15527172 -0.1851682 -0.28384632 0.18863738 0.6477993 -0.0814153 -0.00507221 -0.19119373 -0.37686938 -0.050904986 -0.104915015 -0.26378775 -0.4415999 0.022070736 -0.28355372 0.18679206 -0.53018856 0.053553905 0.1641646 0.14051174 -0.19883232 0.33302373 0.20299265 -0.57256055 -0.3378867 -0.41836366 0.27212837 0.3981938 -0.123544365 0.08117049 -0.30818588 0.11874433 0.03872611 0.11830078 -0.36569872 -0.27311856 -0.82459086 0.11243093 -0.60776544 0.12719478 -0.021587856 -0.016446775 0.020511715 -0.5446422 0.20780657 0.050863087 0.12047959 0.2955911 -0.42538923 0.0102718 -0.07523811 -0.13645351 0.39769182 -0.14580867 -0.041854735 -0.46208876 0.22790128 0.09684934 0.027681585 0.16356073 -0.07580719 -0.10556334 0.18035719 0.4281312 0.29585892 -0.71711284 0.709354 -0.0575582 0.28915316 0.62378037 -0.36552104 -0.2509642 0.05392316 -0.03724525 -0.13346161 -0.23450865 0.397609 -0.25422135 0.033368632 -0.55840826 0.48975787 -0.101118565 0.0038954215 -0.011040216 0.70486915 0.5367243 -0.14904042 0.16426037 0.24999182 -0.057108846 0.089409396 0.12752047 0.17295389 0.16185176 -0.14149648 0.20091861 0.09406542
machin -1.0286567 0.2928367 0.876845 0.08770936 -0.27637893 -0.51210624 -0.029083317 0.33649954 0.5864517 -0.022007912 -0.36892 -0.39011475 -0.6263377 0.30423126 -0.7510096 -0.38808784 0.3253012 0.21280077 0.2039552 -0.2801112 -0.3046688 -0.047861915 0.47592556 -0.20811798 0.1523097 0.12072865 -0.42520374 -0.9721937 -0.661173 0.83409333 0.5902405 -0.46932125 0.23935567 -0.20140654 -0.24119619 -0.53200483 -0.12695502 0.25384358 0.30688077 -1.2296009 -0.10781976 0.13376746 -0.23369966 -0.17172371 0.14852051 0.17508548 -0.14525619 -0.5493992 0.32165432 0.53036505 0.26590365 -0.18336591 0.29823992 -0.7391567 -0.3076328 0.51677173 0.53901124 0.038223505 0.17173707 0.05938289 -0.5864665 -0.27284953 0.20716047 0.27620602 -1.4064707 0.065854914 0.14081489 0.58676547 -0.3482756 1.1499186 -0.04713449 0.11916638 0.84007573 0.18934868 -0.093039215 0.18563354 -0.060661398 -0.320772 -0.5812144 0.16590266 -0.41246572 -0.4318215 0.26320198 1.0426418 -0.25358796 -0.5196625 -0.2521477 0.5890708 0.13964798 0.075056694 0.11150942 -0.26118103 0.07370436 -0.05366267 0.076117046 0.8122842 0.55263174 0.34814596 0.058485243 0.43417755
work -0.052666083 0.23551969 -0.66709375 0.18206619 -0.41920224 -0.3460856 0.09559877 0.30401936 -0.31443188 -0.041202474 0.28692442 -0.23915127 -0.68652356 0.43787697 0.1729616 -0.11988359 -0.070844606 -0.52939904 0.08771358 -0.87749803 -0.1549346 0.35923287 0.13944344 -0.25121784 -0.31734133 0.02952623 -0.5203631 -0.16193378 -0.23828629 0.25416365 0.13369209 -0.064154476 0.4015987 -0.12986521 -0.55904645 0.32244796 0.1350024 -0.40733325 -0.29495823 -0.785639 0.09066168 -0.5344521 -0.036429245 0.3610065 0.46388182 0.39401847 -0.231814 -0.035174392 0.21601412 0.39822134 0.07599507 -0.078622915 0.44369116 0.1920684 -0.021169286 0.20842369 0.16443662 -0.1755246 -0.7434632 -0.19009148 0.13078688 0.06736259 -0.45193788 -0.056258835 -0.22397257 0.022111254 0.2640038 0.37022248 -0.4746167 0.69568044 0.17372483 0.23598114 0.6459666 -0.48382244 0.414897 -0.114422634 0.13431668 0.087308206 -0.4633138 -0.12597503 -0.06530405 0.018024975 -0.5665864 0.25120485 0.36382172 0.036467653 -0.13602406 0.8857652 0.74762017 0.34827554 0.49249896 -0.030132908 -0.24008502 0.13225582 0.21910028 0.61123025 0.15982106 -0.27861795 0.096894555 -0.2007964
theori -0.08771937 0.27164105 -0.1319859 -0.23880967 0.22110204 -0.54607004 0.19032516 0.7173124 -0.13022433 -0.34347543 -0.050651096 -0.25440425 -0.30607802 0.13490286 0.06674936 -0.15044262 -0.19671689 -0.37526542 -0.21149264 -0.6476588 -0.017564636 0.30822036 0.12853885 -0.26298997 -0.35107177 0.017092947 -0.38856736 -0.1464299 -0.39395222 0.17196883 0.12736136 -0.2087659 0.31802619 -0.18579923 -0.2429034 0.49346408 0.13425837 -0.32783768 -0.29208246 -0.52151346 0.07383045 -0.41061735 -0.13883637 0.09588452 0.3986991 -0.03761435 -0.20629501 -0.10038577 -0.06660417 0.3219739 0.3377894 -0.28536242 0.19850133 0.090441614 -0.18488155 0.3148332 0.34792385 -0.17107713 -0.39023674 -0.06041824 0.03161799 0.14390425 -0.12579955 -0.06600348 -0.30162466 0.2999997 0.36811733 0.18499865 -0.32383206 0.39128992 0.14332034 0.11399893 0.44553056 -0.15994504 0.15333489 0.07136893 0.058228765 0.046063088 -0.34429416 -0.2371342 -0.036934376 0.09471972 -0.5360822 0.306598 0.1107501 0.14405042 0.24731433 0.5309043 0.3040504 0.2946944 0.32172617 -0.11092389 -0.14722703 0.057489857 0.46990797 0.4040726 0.18160056 -0.43947515 0.103417836 -0.27592564
game -0.26654136 0.3872665 0.24836983 0.33002236 -0.1972231 -0.60932904 0.074043736 0.49284133 0.08671615 -0.008835238 -0.29326466 -0.3014464 -0.1033289 0.22764163 -0.14868474 -0.2610438 0.14439091 -0.1941977 0.1807103 -0.6311683 0.06513923 0.50206167 0.25083894 -0.31691396 0.0224084 0.009039201 -0.09260341 -0.1050187 -0.20763746 0.10652275 0.21381642 0.47999182 0.3400212 -0.16152647 -0.26536548 0.44465336 -0.12992492 -0.18274055 0.07383794 -0.830467 0.31686744 -0.46473658 0.16237444 -0.24630909 0.30682132 -0.3578001 -0.18652408 -0.14480333 0.07376814 -0.110667236 0.48145053 -0.08644819 0.114253744 -0.16743472 -0.048689842 0.089767285 0.179715 -0.20340826 -0.3708563 0.14340003 0.43220124 0.255353 -0.07732407 -0.22496355 -0.1569903 0.38298088 0.06272544 0.3195528 -0.5502561 0.5229468 0.088059306 0.3145077 0.47026154 -0.24562344 0.74008673 0.53624034 0.08291383 -0.37399796 -0.0007712561 0.10582569 -0.334063 -0.2071212 -0.27210394 0.5395066 0.07460369 -0.17000034 0.24525389 0.10634601 0.3353755 0.10522664 0.62547624 0.03206623 0.15967028 0.23592219 0.31208786 0.34412578 -0.031203602 -0.28323987 0.20415574 0.37200445
structur -0.18696603 0.3370054 0.19139154 -0.14882058 0.111817524 -0.43368933 0.1604099 0.7700726 0.054040466 -0.13488466 -0.26500052 -0.29628807 -0.16411796 -0.02579127 -0.22610225 -0.37406272 -0.08443517 -0.2802891 -0.047412504 -0.50215167 0.11144208 0.10519336 0.31121087 -0.22338511 0.037817113 0.048914574 -0.30832145 -0.4180842 -0.4760468 0.2468523 0.40704435 -0.114100836 0.10730301 -0.22706768 -0.01974795 0.16362718 0.07597357 -0.2714478 -0.28249785 -0.70179325 0.027862204 -0.30403727 -0.02629688 -0.019674068 0.23883857 -0.057137262 -0.31409863 0.012672014 0.034080565 0.27022514 0.32290965 -0.3398099 -8.832816e-06 -0.09888973 -0.23382926 0.34770727 0.1957508 -0.033909492 -0.3003739 0.110154994 0.05951099 0.06779819 0.05747664 -0.067878835 -0.42842966 0.21878397 0.31802094 0.31666696 -0.42899355 0.5962742 -0.0056224666 0.17136842 0.37227798 -0.13681148 -0.046953253 0.13870966 -0.005284801 0.014387402 -0.25780424 0.03529623 -0.09318363 0.014152185 -0.36335385 0.4884521 -0.16044354 -0.011519411 0.13382404 0.6082524 0.21646953 0.059075728 0.28516233 -0.015426573 -0.07317163 0.06522053 0.3987796 0.3486103 0.25188693 -0.30993518 0.08368196 -0.07143387
implement -0.08800155 0.19606456 -0.990461 0.15440117 -0.7607226 -0.09412548 -0.042888597 -0.067605935 -0.59786433 0.0056429757 0.35309705 -0.4441673 -0.78052527 0.27072668 0.06060219 -0.1425511 0.030830363 -0.565316 0.42080072 -0.88405025 -0.41475308 0.4076692 -0.043611687 -0.21993108 -0.16398537 0.17123961 -0.8176342 -0.36830655 -0.16056383 0.43219882 0.10059915 -0.111106396 0.29930478 -0.21146402 -0.41760853 0.2136247 0.065794066 -0.3313554 -0.20698129 -0.93110406 0.1432886 -0.8472704 0.10293624 0.5860168 0.21838541 0.74821335 -0.3924506 0.17297405 0.22627455 0.42815164 0.12663615 -0.12048901 0.8937257 0.08944613 -0.082900956 0.35581905 0.05337325 -0.02587457 -0.65743005 -0.0018897791 0.042536736 0.1919597 -0.55726546 0.07581285 -0.13998418 -0.076464444 0.36362943 0.61543804 -0.63548267 0.6855491 -0.00019048297 0.3892761 0.9685507 -0.5496552 0.20268221 -0.21161063 0.17155837 0.004156292 -0.22040355 0.05546837 -0.32626715 -0.025562728 -0.8695179 0.40846726 0.51322424 -0.04356584 -0.41165423 0.86879164 1.1089363 0.43592882 0.2896655 0.059169162 -0.3157793 0.35686538 -0.23218426 0.6180661 0.094118066 -0.017974747 0.20340236 -0.21542418
construct -0.26136428 0.24566534 -0.014004935 -0.11481391 -0.019188108 -0.48235282 0.13295272 0.53199863 -0.1300274 -0.23777504 -0.08384192 -0.29052868 -0.39366627 0.15135533 -0.15342262 -0.31756565 -0.028084 -0.3439819 0.0056272154 -0.6034244 0.009456675 0.2268855 0.14391989 -0.26023057 -0.17497858 -0.1026357 -0.36086535 -0.35982555 -0.35979417 0.24338302 0.14214392 -0.086197 0.27233872 -0.18376334 -0.22949067 0.31251577 0.029055486 -0.13109665 -0.11724034 -0.72131795 0.050809152 -0.42786166 -0.06557565 0.12184138 0.34477967 -0.031475093 -0.19633114 -0.10829727 0.04132904 0.33282658 0.27902415 -0.096860625 0.31447104 -0.08503719 -0.17432284 0.30553687 0.3966215 -0.057679147 -0.23987702 0.09579687 -0.10166887 0.11838502 -0.15657912 -0.08698465 -0.45197317 0.22381762 0.24182586 0.3794567 -0.29704687 0.47101858 -0.004327601 0.20199913 0.5349715 -0.10157068 0.2473012 0.041341778 0.1263469 -0.06973189 -0.24863577 -0.1078181 -0.19177787 -0.011855873 -0.35413843 0.48305976 0.12548901 -0.022592628 0.036235034 0.41622278 0.46479324 0.37801933 0.39393428 -0.14317118 -0.14824457 0.10399861 0.3665765 0.47464404 0.20210275 -0.25915265 0.07045434 -0.092524886
oper -0.21827242 0.3862312 0.48554403 -0.3449733 0.33556437 -0.6163568 0.19580711 1.1281326 0.23739432 -0.19805191 -0.40362528 -0.21781924 0.09190079 -0.104950964 -0.12636471 -0.512155 -0.22672999 -0.3355822 -0.4148845 -0.3948242 0.23946138 0.18560752 0.278652 -0.23001136 -0.12706335 -0.049541872 -0.18788294 -0.34712055 -0.4891681 0.06680488 0.31110764 0.011215618 0.017520836 -0.23664723 -0.054534424 0.48276308 0.013625034 -0.32062426 -0.34509063 -0.4786864 0.030800544 -0.22609967 -0.09674956 -0.0698335 0.30725244 -0.5078755 -0.17790851 -0.08110134 -0.077390745 0.17420235 0.4357459 -0.30609983 -0.2700242 -0.07133566 -0.40178037 0.3567731 0.29992187 -0.10002649 -0.20793055 0.17567046 0.04980424 0.21936823 0.14481181 -0.20632236 -0.2827246 0.4680691 0.16572846 0.21504758 -0.3607698 0.40677837 -0.036743753 0.09679407 0.025150124 0.037845995 0.10999972 0.30733037 -0.019498155 0.06989348 -0.25667948 -0.07413924 -0.13422218 0.1491487 -0.15840805 0.38263208 -0.2630468 0.1842538 0.49909317 0.46078804 0.08855128 0.07062754 0.5036183 -0.1534636 -0.03531141 -0.020657018 0.77859217 0.27797386 0.31516895 -0.5112949 -0.02365795 -0.069915995
non -0.54945034 0.28696075 1.0932834 -0.19949275 0.4218034 -1.0080299 0.12739031 1.140462 0.5194261 -0.28012806 -0.55532247 -0.27792987 -0.02548441 0.093699105 -0.38999382 -0.6393743 0.19253813 0.024076594 -0.4052457 -0.3338827 0.24850267 0.021107921 0.44430444 -0.26802573 -0.09634592 -0.11060997 0.048550945 -0.5136963 -0.5844211 0.19591045 0.2761865 0.23200628 0.06996841 -0.21519765 -0.14042851 0.41467905 -0.2133542 -0.07740065 -0.014627621 -0.6847159 0.109624796 -0.118497446 -0.19564123 -0.3092854 0.4987738 -0.9318491 0.039123785 -0.59008026 -0.00026636 0.24266292 0.57692647 -0.22025481 -0.26117176 -0.54398364 -0.6084009 0.14090967 0.6328392 -0.14009205 0.29273927 0.37703252 0.063728094 0.058165688 0.3221492 -0.22889699 -0.81283706 0.70436484 0.03469741 0.37031633 -0.3604944 0.64295626 -0.16942498 0.047831193 0.20121223 0.2927778 0.49794403 0.659559 0.00011275794 -0.15425509 -0.1792349 -0.07420764 -0.37193015 -0.16289581 0.33386612 0.62515694 -0.3008389 -0.11650813 0.49294207 0.047746215 0.025503099 0.16545022 0.76336163 -0.37732512 0.33849114 -0.004944776 0.9297676 0.3961377 0.5091813 -0.40201536 -0.13765045 0.30470368
tempor 0.3200198 0.75823796 -0.22136013 1.2393638 0.9269357 -0.41657344 0.50727606 1.4500519 -2.0964386 0.13734151 -0.75891554 -1.009829 0.35519162 -0.2684587 1.1290085 -0.57122844 -0.60507196 -0.4097046 -0.19455814 -1.4260424 0.17434457 1.5606068 -1.8112862 -0.584833 0.71588045 0.53968406 -0.620462 0.88665795 -0.1585504 -0.7453663 0.14799614 0.718497 0.33577588 -0.43704098 0.5262347 1.186718 0.86709213 -1.1577952 -0.59831786 -1.1058271 0.8960354 -1.6467618 -0.36358553 -0.7594033 -0.0503437 -1.032668 -1.6199818 0.92484725 -0.010698748 -0.75950944 0.5356278 -1.1201726 -0.46910104 0.8978224 0.10553006 0.30478898 -0.9587939 -0.685282 -0.41655934 -0.05002394 0.31595257 1.3099799 0.66338557 -1.1001097 1.0523376 1.0372853 0.6773353 -0.21817546 -1.6499957 0.21724035 -0.031377528 0.41441056 0.20694865 -1.4450718 -0.07381899 -0.84906036 -0.0019502408 -0.20225321 0.10796475 0.27537608 0.32741228 0.4572732 -1.6828028 0.770898 0.36460328 0.48607868 0.9474938 1.0984138 1.4325187 -0.5575375 0.3761207 1.7262088 -0.7450356 -0.038053073 1.4439628 -0.6121239 -0.63072026 -1.2289201 0.88296705 0.33461377
exist -0.02338362 0.30313423 -0.30481285 -0.063567914 -0.41747603 -0.31175926 0.06625014 0.40930548 -0.050342914 0.017736841 0.008820098 -0.33408618 -0.27979034 0.075612985 -0.15366684 -0.32168972 0.025801415 -0.40412316 0.032746922 -0.5215137 -0.060038287 0.26035672 0.24299966 -0.19450836 -0.1394664 0.01942227 -0.40329227 -0.42569867 -0.28026286 0.17004375 0.24036597 0.0873596 0.12897861 -0.22203162 -0.2581074 0.29678708 -0.05164254 -0.22838931 -0.24642557 -0.7102402 0.1407319 -0.5296133 0.14115407 0.23001821 0.28039646 0.14777935 -0.22216083 0.06710756 0.13125159 0.22094463 0.17609209 -0.10968059 0.29138416 -0.110896006 -0.19227709 0.25332782 0.17824925 -0.044651024 -0.38520637 0.20775294 0.22580913 0.09852233 -0.259114 -0.10546957 -0.09581301 0.14900538 0.1244394 0.39652663 -0.44650015 0.5060441 -0.12633353 0.20748872 0.49311304 -0.21704054 0.2956636 0.1569642 0.1638482 -0.06268624 -0.09613018 0.10990483 -0.30055267 -0.016544128 -0.48933917 0.38727897 0.12496325 -0.08283445 0.0013276933 0.5078545 0.61364484 0.2856565 0.44222444 -0.039212946 -0.009799169 0.2688356 0.1732759 0.42968884 0.19677578 -0.21188481 0.026530726 -0.06990582
