2531 100
model 0.052229457 0.7432167 0.676773 -0.110913426 0.00955168 -0.5006027 0.011777237 0.95788854 -0.5643935 -0.15740679 -0.16817963 -0.2876515 0.1968442 0.03830168 0.11903986 -0.26520374 0.33904105 0.1018611 -0.43004534 -1.4940003 0.23703256 0.11170326 -0.06043926 -0.5158821 -0.26998708 0.09701032 -0.65845186 -0.29421592 -0.38298213 0.115658015 0.01411267 0.14650978 -0.061252568 -0.31296885 -0.01851013 0.6936666 0.013039193 -0.4994003 -0.010089928 -0.79478335 -0.016931655 -0.7231537 0.23912096 -0.26874837 0.06297502 -0.676801 -0.31445327 -0.275236 0.11698035 0.18814251 0.20632575 -0.004341964 -0.30838197 0.17729221 0.09548935 -0.30820355 0.3922481 -0.015261381 -0.6941864 -0.024488796 0.14082627 -0.038013916 -0.41650912 0.20776756 0.19827397 0.31526372 0.33316568 0.18172617 -0.2655707 -0.35464856 -0.1538142 -0.120924406 -0.04092788 -0.25090793 0.62028533 0.48781008 0.22264643 0.3424118 -0.124010704 0.21806365 -0.014723482 0.50631547 -0.06500455 0.78233147 -0.0963969 -0.1305755 0.5153005 0.41468048 0.3416815 0.11145407 0.63043064 0.2737357 0.69447225 -0.24779364 1.2412709 0.61027724 -0.17269225 -0.13401093 0.06905849 0.11952591
we -0.44425166 0.24079816 0.27848676 -0.23145369 0.14157118 -0.7171721 0.6126836 0.71784824 -0.36357266 -0.12111194 -0.15629125 -0.87365866 -0.49863777 0.13031611 -0.19876802 -0.38243166 0.07622112 -0.3199196 0.34182942 -0.45632172 0.52256334 0.22278263 0.25280055 0.14551026 -0.28826463 0.1410979 0.19325376 -0.28442717 -0.21773222 0.2415387 0.6871964 -0.15114254 0.6554736 -0.7474173 -0.32962617 0.6279492 0.45568147 0.10885042 -0.07178498 -0.33176208 0.22173707 -0.5000528 -0.37632933 -0.14796486 0.68456745 0.37902486 -0.3709801 0.21063818 0.10284665 -0.22473739 0.32247728 -0.76398706 -0.23709434 -0.3445809 -0.20994471 -0.026183536 0.27072218 -0.1850476 -0.4773807 0.2704101 0.15863138 0.13071442 -0.24231896 -0.08678479 -0.5707664 0.7588597 0.08428005 0.3758572 -0.5150257 1.0475737 -0.3198787 0.0053808787 0.7334789 0.15627824 0.22633308 0.06910672 -0.12476119 -0.22697964 -0.19808091 -0.17618977 -0.23440465 -0.04102971 -0.8467892 -0.0029509736 0.21920037 -0.18107149 0.22915706 0.14733191 0.4661703 -0.041874107 0.91928625 0.2287713 -0.14634702 -0.022346565 0.18553714 0.15351716 0.42196766 -0.26202655 -0.0033210444 -0.2480941
learn -0.25318137 0.84936976 -0.18767594 -0.0464253 0.44960073 -0.023224289 0.01123878 0.8836581 -0.017311074 0.020313842 -0.045635592 -0.52067524 0.32883322 0.20714702 0.14437987 -0.20877013 0.19986284 0.12538314 -0.5148 -0.5162696 -0.369545 -0.051919233 -0.08277438 -0.690271 0.03638302 0.283291 0.035376 -0.37941143 -0.55905527 0.012377214 0.39582476 -0.042632606 0.014204895 -0.05625703 -0.3786473 0.37624756 -0.33994976 -0.19835766 -0.5464134 -0.669257 -0.37509802 0.22996606 -0.420288 -0.023097612 -0.007307496 -0.008212606 -0.19322655 -0.17862386 -0.13793543 -0.24408048 0.21769223 -0.93489367 -0.7326193 0.0586186 -0.5973034 -0.14819638 0.2790247 -0.35510638 -0.33842182 -0.028169831 0.14861457 0.06312049 0.14354962 0.13406341 -0.6157448 0.95855916 0.51829857 0.2672558 -0.6741683 0.392336 -0.028574418 0.42740524 0.7431275 -0.03350696 0.061372653 0.1722504 0.4174808 -0.51402366 -0.54355925 -0.17628343 -0.93866116 -0.30114245 -0.5083247 0.22541787 0.1449489 -0.55188924 0.32463756 -0.26896444 0.27575827 -0.1639587 0.31370836 0.7309552 0.5251454 0.15144181 1.0720654 0.57654214 0.28765598 -0.12878172 0.36852422 0.29524532
data -0.19581978 0.5010351 0.2630552 0.036054023 -0.021596868 -0.5335552 0.05643449 0.87282044 -0.18573084 -0.19117561 -0.052027665 -0.32990703 0.08336878 -0.06700118 -0.106814176 -0.14112698 0.07533375 -0.23377055 -0.10231653 -0.7033883 0.23476668 0.10445066 -0.0050134254 -0.0910177 -0.13104686 0.009398262 -0.17110421 -0.2510759 -0.38145855 0.11235909 0.18039526 -0.0029390473 0.081914626 -0.3215486 -0.15199116 0.54281956 -0.037357867 -0.5305618 -0.11696516 -0.6097058 0.029075935 -0.28896374 -0.08671573 -0.2061236 0.44122595 -0.37458074 -0.2374091 -0.3208092 -0.05236384 0.22165881 0.41488102 -0.06520788 -0.24323314 0.13944039 -0.44274455 0.08336741 0.19662574 0.0071192468 -0.45682827 0.1327633 0.27027628 0.07313178 -0.08468263 0.0065370733 -0.33904132 0.24606323 0.15824488 0.32941374 -0.43747666 0.24576394 -0.18390831 0.10613691 0.047831994 -0.18601073 0.33579418 0.2622885 0.05362288 0.11543808 -0.37234408 0.058312025 -0.234629 0.2707883 -0.40191132 0.5821339 -0.16058168 0.09696589 0.05742002 0.47191355 0.3355992 0.025255784 0.3504767 0.2691067 0.2934195 0.059237227 0.63197285 0.39229557 0.2899719 -0.5796031 0.19181181 -0.17634484
method -0.3341807 0.24786939 0.4268134 -0.23314221 -0.11747521 -0.60281193 0.25910652 0.5133376 -0.5207172 0.04905068 -0.30801502 -0.6616844 -0.24587508 0.17301784 -0.050746217 -0.32130936 -0.10191376 -0.41410467 0.2106802 -0.9976622 0.40984148 0.2639302 0.23528992 0.33828962 -0.48257592 0.25435126 -0.23237292 -0.16278142 -0.5170649 0.16223359 0.409513 -0.0480171 0.27096742 -0.25146082 -0.119831905 0.47379884 0.14461182 -0.13653138 0.06700696 -0.66441804 0.009481303 -0.5489375 -0.3274646 -0.047115844 0.6333939 -0.12919609 -0.15532325 0.049065076 -0.04176788 0.112582155 0.2320151 -0.12879184 0.021695036 -0.17622285 -0.11024695 -0.11449845 0.12797743 -0.10237331 -0.4904999 0.047953248 0.2492388 0.028607499 -0.039904974 -0.14924036 -0.37568256 0.20213473 -0.14900342 0.5157289 -0.38439795 0.8345797 -0.122396275 0.12687711 0.29141083 -0.04064745 0.15688507 0.42635986 -0.32078928 0.28939712 -0.32312557 -0.2256824 0.21552993 0.026868157 -0.6131639 0.45291916 0.04208198 0.011690735 0.14762649 0.6167088 0.6427924 0.124064825 0.74962956 -0.030297179 -0.20458631 0.19028313 0.21999848 0.17893143 0.30364424 -0.42594138 0.05576646 -0.5412829
our -0.40075302 0.028030006 0.574599 -0.3793994 -0.48145947 -0.92974347 0.4066982 0.2702668 -0.6470031 -0.17085065 -0.6378864 -0.73768693 -0.47794035 -0.042845037 -0.4128785 -0.50284463 -0.026572945 -0.67860097 0.29027608 -1.0710021 0.59006095 0.27960575 0.43225977 0.80670935 -0.67078066 0.017986942 -0.35576257 -0.17963657 -0.5468871 0.38400736 0.40332732 -0.1460325 0.2000276 -0.42972687 -0.18381345 0.7408759 0.5825753 -0.13565002 0.57225966 -0.6079551 0.2534383 -0.84823406 -0.22697666 0.051495448 1.036933 0.14901751 -0.10615182 -0.005683505 0.029907286 0.287461 0.35711628 0.30034631 0.4479938 -0.17234042 -0.07900524 0.12770973 0.26531714 -0.14062083 -0.7334751 0.29944247 0.563935 -0.15831569 -0.0034465757 -0.34588912 -0.1803021 0.08696003 -0.38100284 0.3419817 -0.41388157 1.1129605 0.12856345 0.07089263 0.17686813 0.0046186806 0.14929079 0.49810615 -0.5134675 0.6109762 -0.18317252 -0.123882234 0.60066664 0.27553284 -0.8988803 0.38476998 0.012215397 0.33390373 -0.08883905 1.151764 0.89658576 0.36998987 0.9321299 -0.26890016 -0.25585347 0.19377033 -0.22561494 -0.045382686 0.24408084 -0.6998085 0.02543058 -1.1010859
train -0.038453415 0.58772415 0.46490496 -0.08497463 0.0344654 -0.44902942 0.16079925 0.81420285 -0.42448577 -0.24241892 -0.12543081 -0.3305873 0.09409782 0.045303036 0.026855571 -0.18950076 0.17790973 -0.044730872 -0.30433592 -1.117371 0.19130653 0.20727052 -0.07688997 -0.2632141 -0.25196874 0.25969246 -0.4164256 -0.3970783 -0.21730478 0.14671087 0.1239238 0.082988076 0.038854852 -0.28450063 -0.18421479 0.7098058 0.014511942 -0.4920073 -0.06806724 -0.6967389 0.079208754 -0.47756773 0.18923618 -0.26110074 0.22256261 -0.45555937 -0.28902894 -0.25010836 0.050650492 0.10014784 0.19143032 -0.21364528 -0.37170938 0.094729386 -0.15987897 -0.08486196 0.2743155 0.024153858 -0.5298587 -0.0046386407 0.17651068 -0.055408057 -0.16385344 0.10998153 -0.11035436 0.3397631 0.056107648 0.20535487 -0.42197278 -0.06770447 -0.29073596 -0.0070808674 0.01852359 -0.27424443 0.4942492 0.35737556 0.078984946 0.25189686 -0.2997486 0.15591781 -0.044690706 0.3043988 -0.26244235 0.7278181 -0.033422153 -0.13084245 0.34518823 0.40015686 0.2681548 0.034470674 0.5303926 0.26821482 0.3922974 -0.058477063 0.8040251 0.37793258 0.13756388 -0.3127045 0.15280083 0.10946193
use -0.20750637 0.5021434 0.2581462 -0.056295764 0.049524765 -0.42832327 0.20906676 0.72617453 -0.28024608 -0.16232814 -0.16379629 -0.4558457 0.03599734 0.04901676 -0.02563771 -0.21699846 0.0316335 -0.21578848 -0.13639101 -0.7455128 0.13862962 0.17947395 -0.02943765 -0.15837641 -0.27175364 0.21782345 -0.1948854 -0.3742427 -0.32586974 0.12396456 0.24708435 0.0027807753 0.11136029 -0.19944382 -0.19226538 0.5502919 -0.08796038 -0.307643 -0.18234114 -0.6023757 0.009518854 -0.1916726 -0.15388702 -0.13307881 0.3411697 -0.18873657 -0.23879524 -0.13999832 0.004798819 0.04462308 0.18900691 -0.37361374 -0.2565836 0.027098717 -0.2566791 0.042101752 0.17814927 -0.09558555 -0.41649854 0.09946677 0.18771794 0.019189293 -0.088317566 0.011323242 -0.358606 0.43824184 0.060236678 0.30575916 -0.45842248 0.36388448 -0.1424749 0.14855224 0.3419435 -0.1721473 0.2766444 0.2847581 0.024113666 -0.033627775 -0.37265489 -0.057321653 -0.29694733 0.085556954 -0.46353716 0.46430728 0.090021245 -0.11603177 0.22574127 0.35344625 0.4347282 -0.009843112 0.50886136 0.27804235 0.14453651 0.13748248 0.57278717 0.30678716 0.19975549 -0.3995082 0.19254388 -0.052190773
net -0.6678186 1.4706639 0.1227293 0.44146356 0.82101464 -0.020389339 0.86360306 0.6500609 -0.5370762 -0.46645287 0.2786052 -0.8469543 0.8280276 0.2324983 0.5851648 -0.30352005 -0.2548587 -0.31315488 -0.5834709 -0.6452903 0.08985053 0.5269495 -0.22264819 -0.72400784 -0.124787286 1.0419459 0.0132966945 -1.0198616 0.30850568 -0.086982265 0.31342235 -0.24925062 0.6199562 0.40681854 -0.39465886 0.91396123 -0.56545126 -0.247121 -0.8057664 -0.7774632 -0.44462666 0.7289788 -0.15141216 -0.05831658 -0.16768779 -0.22589374 -0.26296446 0.061509367 -0.3516497 -0.5366808 -0.25038832 -1.3893521 -1.0841541 -0.21209925 0.21360686 0.03677603 0.12312272 -0.09398156 -0.047953226 -0.6031881 -0.52044535 -0.14451745 0.3715872 -0.1565895 -0.94561535 0.995223 -0.102780856 0.8744869 -0.8194604 0.5428974 -0.613215 0.37497032 1.0360763 -0.053206366 0.0025497049 0.06316641 -0.27871642 -0.87485206 -0.9439764 -0.32329246 -1.1833357 -0.42868546 0.012423888 0.677878 0.8241643 -0.9627314 0.87409776 -0.6044589 0.23502411 -0.17229718 0.6475643 0.8161967 -0.20564213 0.32899302 1.0760218 0.56999445 0.47376072 0.13985322 0.5472853 0.8385494
from -0.19503058 0.4415782 0.23167732 0.03705874 0.032569073 -0.53446376 0.043878596 0.9698032 -0.2236683 -0.15679848 -0.097390234 -0.43050492 0.016323647 0.0040251315 -0.060771167 -0.15487793 -0.018323844 -0.27970845 -0.04202058 -0.7198606 0.15806867 0.15829882 -0.09711464 -0.17350805 -0.17544389 0.102707446 -0.1838309 -0.27123794 -0.43992135 0.035922475 0.25612646 0.058628354 0.040160235 -0.19991456 -0.1935808 0.5194205 -0.18299831 -0.4600092 -0.2156818 -0.6590717 0.007988425 -0.21896683 -0.24615565 -0.24044308 0.42638415 -0.30113697 -0.2320809 -0.21679151 -0.0095637385 0.24511652 0.36826232 -0.21344377 -0.22540784 0.19322453 -0.49749744 0.080063924 0.18452042 -0.063050576 -0.43378413 0.1678002 0.22160222 0.17085962 -0.08296884 -0.03651088 -0.44159377 0.27042952 0.115822524 0.27375418 -0.4104681 0.27411267 -0.18248321 0.16870962 0.18580593 -0.2563396 0.3228284 0.2913851 0.054972667 0.023636984 -0.39909235 -0.0053518396 -0.30719998 0.14821813 -0.47105944 0.5605721 -0.07018894 0.017533053 0.06582246 0.4749592 0.4330313 0.010854538 0.34686187 0.32762766 0.1948453 0.14194296 0.6642063 0.4241863 0.26824135 -0.62107545 0.26296768 -0.13929258
perform -0.20178121 0.16927177 0.72322494 -0.25138637 -0.29556432 -0.7301346 0.11584252 0.5786921 -0.6861333 0.015460934 -0.39603844 -0.5623031 -0.12622736 0.088288434 -0.05198562 -0.35147408 -0.03728505 -0.4228968 0.06188772 -1.3540413 0.44715038 0.29175943 0.15492313 0.37687138 -0.588591 0.19050764 -0.42932922 -0.11069981 -0.5064772 0.2389096 0.20309925 0.0024388353 0.13088906 -0.19167577 -0.072054796 0.60726357 0.22270001 -0.37583768 0.20722862 -0.76845014 0.053672697 -0.800596 -0.12957188 -0.11717028 0.6267569 -0.34608147 -0.100589946 -0.13417928 -0.03008305 0.31309772 0.23770419 0.15493958 0.13599522 -0.04567842 -0.061384574 -0.07128103 0.15949786 0.007638748 -0.6614403 0.081412815 0.30734336 -0.015799176 -0.15224384 -0.158942 -0.17639193 -0.010492936 -0.2767898 0.36693513 -0.27811605 0.51307243 -0.042556487 0.0569098 -0.021731682 -0.15082206 0.30494216 0.5949263 -0.33028826 0.5888165 -0.24886438 -0.07106569 0.6060431 0.28320977 -0.52625275 0.741229 -0.12707414 0.24516515 0.018513832 0.92586064 0.7649093 0.24608041 0.7462978 -0.17232987 -0.12563288 0.1564138 0.22829704 0.23304315 0.15934615 -0.56936264 0.037122533 -0.70381564
task -0.15373911 0.47351322 0.393469 -0.050112303 0.03487485 -0.54888856 0.044878755 0.78642714 -0.35062453 -0.12300585 -0.13083048 -0.3881448 0.052135766 0.013616264 0.029211616 -0.22072443 0.08928916 -0.2068402 -0.13909078 -0.92374307 0.19050302 0.110376164 -0.018703293 -0.13259049 -0.30019125 0.08623263 -0.32548267 -0.1714684 -0.3885215 0.12722191 0.17446199 0.016662402 0.095010735 -0.28860298 -0.17738447 0.5453195 0.002207628 -0.465622 -0.051678725 -0.643649 -0.04057064 -0.42748046 -0.06563988 -0.19116783 0.3386669 -0.32140368 -0.16953267 -0.24861966 0.024711888 0.19079645 0.298219 -0.15933551 -0.17063022 0.10429893 -0.20901634 -0.09820007 0.21921484 -0.009105102 -0.5082247 0.07671053 0.1670662 0.051361773 -0.2043786 0.0062097274 -0.22974372 0.319331 0.12053612 0.2858462 -0.33761242 0.26750255 -0.14604121 0.06458576 0.12837087 -0.14720061 0.3574928 0.33533707 0.00865795 0.16686732 -0.24551797 0.00013841875 -0.09908587 0.2815143 -0.4005146 0.5450612 -0.0476556 0.0042548818 0.15700315 0.4811715 0.4781283 0.06947942 0.5523709 0.20070074 0.17452314 0.03397218 0.65822196 0.39405417 0.123406395 -0.40858722 0.12283205 -0.18629509
base -0.25905964 0.60606414 0.23406796 -0.06612893 0.201649 -0.34283122 0.27458304 0.7925658 -0.27299836 -0.13560903 -0.06605452 -0.5898886 0.07291037 0.110101946 0.07150127 -0.24783339 0.012228173 -0.21213028 -0.07097321 -0.6720587 0.10886969 0.21805851 -0.06547651 -0.25890374 -0.24224931 0.3359239 -0.10495803 -0.3959378 -0.24201395 0.052801143 0.30741695 -0.023689942 0.2013577 -0.15478763 -0.26835567 0.5237787 -0.112438664 -0.26712856 -0.34928766 -0.584741 -0.08870809 -0.114659235 -0.23073834 -0.14200586 0.23459838 -0.12921494 -0.25604427 -0.076470084 -0.029193249 -0.07134122 0.13125873 -0.6764977 -0.4334456 -0.04007952 -0.21921378 -0.06681333 0.17371038 -0.13232462 -0.32307348 -0.021877196 0.039860386 0.07100573 -0.052039903 0.022379236 -0.4752707 0.59581614 0.1431724 0.3636279 -0.52203673 0.419118 -0.209345 0.19016802 0.5504599 -0.14943044 0.23792449 0.24055457 0.044868603 -0.23777232 -0.41971186 -0.10960645 -0.45960954 -0.035330024 -0.44330353 0.44226804 0.17632261 -0.31943706 0.3619864 0.1172109 0.35117733 -0.07661509 0.5526416 0.39897197 0.038431745 0.09086902 0.6439851 0.40393004 0.28576487 -0.22306024 0.22196963 0.11428959
approach -0.340042 0.40589944 0.2821576 -0.16153103 -0.007946908 -0.5809505 0.30503798 0.5948728 -0.37997353 -0.08429416 -0.21891834 -0.62540877 -0.1965443 0.09294876 -0.055276852 -0.28592923 0.031174105 -0.3419915 0.14062053 -0.77652574 0.3584029 0.21690921 0.15411128 0.1286081 -0.3556486 0.21279494 -0.12857719 -0.29253915 -0.38012126 0.17322603 0.43266097 -0.027321402 0.35308594 -0.36134768 -0.24576327 0.5421938 0.1630063 -0.121122934 -0.051670782 -0.5552948 0.0046526454 -0.40172464 -0.23532586 -0.07125404 0.5286452 -0.012375911 -0.24965367 -0.0095112845 0.037460927 -0.047645688 0.21762314 -0.35389647 -0.18069912 -0.1795853 -0.14040722 -0.067985535 0.17093009 -0.12343262 -0.4831387 0.101668075 0.21335913 0.036761086 -0.09107323 -0.045371372 -0.39678356 0.46198747 0.017544307 0.38822374 -0.46596062 0.7447232 -0.1822354 0.08745289 0.40571406 -0.017136963 0.23532538 0.30088443 -0.16111833 0.040549792 -0.25294092 -0.16863859 -0.0755192 0.023933347 -0.6039284 0.35389486 0.13666873 -0.08154641 0.2331725 0.38667816 0.5155981 0.020387147 0.7219496 0.16544129 -0.05734658 0.11654326 0.3052505 0.18400975 0.30331993 -0.3072859 0.08735631 -0.28660554
propos -0.36313817 0.378754 0.18960223 -0.31998414 0.12977014 -0.6774961 0.52901316 0.7285262 -0.24705833 -0.16224486 -0.075368784 -0.78271437 -0.4502529 0.11558179 -0.072173856 -0.3244577 0.036290947 -0.42143753 0.37945282 -0.39732552 0.4642728 0.2493979 0.15987158 0.14897996 -0.360772 0.13257402 0.1644637 -0.32431138 -0.1771581 0.1296039 0.5258496 -0.13450229 0.615818 -0.56816596 -0.39541054 0.48148397 0.46571353 0.094521984 -0.16470613 -0.311101 0.11145618 -0.31466863 -0.17949577 -0.122980475 0.6261102 0.35556707 -0.3706482 0.15868849 0.08926411 -0.18867849 0.21442162 -0.6620018 -0.22040401 -0.3670379 -0.18522581 -0.13047172 0.26053324 -0.13525838 -0.4167113 0.18195938 0.17132513 0.07133991 -0.1753597 0.052691836 -0.5881784 0.7573934 -0.00285709 0.3295412 -0.64174205 0.9889819 -0.25728878 0.011033015 0.72087353 0.039591912 0.2265715 0.10706751 0.047484763 -0.24624225 -0.24756762 -0.14071886 -0.20016623 -0.05309229 -0.85070634 0.09601936 0.28217888 -0.114781 0.25165 0.22018881 0.41658217 -0.092192054 0.892211 0.2010401 -0.2086828 0.064399414 0.19031912 0.14906836 0.39764333 -0.17437394 0.09537191 -0.28075156
can -0.15708081 0.5216654 0.25761208 -0.070605546 0.0047332305 -0.50306016 0.11967626 0.8318699 -0.2729906 -0.15665667 -0.19303419 -0.5035124 -0.0050061448 0.062843256 -0.10081902 -0.19976126 -0.0046420037 -0.19195665 -0.12177448 -0.8271763 0.17611706 0.12835318 -0.04162974 -0.12328224 -0.2282811 0.17738423 -0.2831833 -0.32202402 -0.4535172 0.055775993 0.24561286 0.03249158 0.08055977 -0.21860804 -0.12770589 0.5771095 -0.07938696 -0.3834482 -0.15140606 -0.7023767 0.03209931 -0.2705566 -0.21380277 -0.13797122 0.40587154 -0.24784268 -0.22133225 -0.14457327 -0.026668536 0.13265544 0.30291042 -0.22738607 -0.19854002 0.16378526 -0.35908854 0.14255546 0.25784814 -0.059630316 -0.47354683 0.18028669 0.28351948 0.044052117 -0.12500852 -0.017390598 -0.3194227 0.30774924 0.037716236 0.3188132 -0.43636772 0.32870653 -0.16283293 0.14543188 0.20064948 -0.18494739 0.37128976 0.34248638 -0.028605964 0.088056386 -0.39523366 0.013112095 -0.27248573 0.19049998 -0.45633507 0.5052658 -0.04990245 0.015995044 0.14882787 0.472971 0.4641245 0.0303069 0.5046876 0.2623337 0.22047602 0.13153325 0.62531567 0.41874248 0.24216738 -0.5262414 0.15318252 -0.11565484
optim -0.28610158 0.33562306 0.20256619 -0.12120333 0.16893357 -0.38949722 0.23319632 0.89386415 -0.23851548 -0.030237153 -0.07735273 -0.6253821 -0.13299692 0.1451201 -0.06601598 -0.20239674 -0.09724746 -0.2839648 0.106940344 -0.5585527 0.15134428 0.21760908 -0.061413288 -0.13157964 -0.26213568 0.27880636 0.038057506 -0.35802248 -0.3284558 -0.004754462 0.3915568 -0.016281178 0.2528052 -0.23234402 -0.23237753 0.4644036 -0.088236034 -0.24327946 -0.374706 -0.5786888 0.009661404 -0.21432188 -0.3820719 -0.17349975 0.41744348 -0.076857954 -0.27126196 0.007384866 -0.0004569721 -0.009052239 0.19263864 -0.6352678 -0.31286925 0.017475143 -0.39234447 0.023490675 0.14655073 -0.15668967 -0.34974006 0.11297178 0.10242654 0.19918692 -0.09659895 -0.001588255 -0.58535206 0.48990512 0.03319013 0.33628565 -0.40164015 0.5209739 -0.186552 0.24186319 0.4947772 -0.13708086 0.24208193 0.20471008 0.037080936 -0.1878206 -0.37628958 -0.09324806 -0.3716916 -0.11301014 -0.5403558 0.32929096 0.11365588 -0.10675617 0.14040284 0.24402128 0.39126006 -0.09512424 0.47624967 0.36395478 -0.042742174 0.15438966 0.47804004 0.37867364 0.2807116 -0.43899524 0.16494916 -0.011572536
larg 0.28299758 0.8307113 0.9664061 -0.330987 -0.078283645 -0.76571983 0.077523336 1.0985457 -0.6530939 -0.4703401 -0.2654099 -0.07518813 0.23544106 -0.1880537 0.18463069 -0.4752388 0.66927373 0.30703282 -0.6008183 -2.0015478 0.5403971 -0.064572915 -0.0039000027 -0.63543427 -0.2596308 -0.23653036 -1.1112005 -0.43774018 -0.4151938 0.21520646 -0.3324613 0.28255153 -0.28448427 -0.54077256 0.22498703 0.95297545 0.08512343 -0.5370338 0.32045236 -0.8417177 0.30112106 -1.1591417 0.7496467 -0.23032342 0.034842398 -0.9008973 -0.47305986 -0.36187023 0.27956888 0.34548455 0.3988882 0.5719724 -0.11961734 0.28485247 0.42026109 -0.36923444 0.719843 0.12543136 -0.9014341 0.12069735 0.16101442 -0.31639683 -0.77740747 0.38564485 0.624926 0.26836637 0.4984389 0.01443376 0.0056149736 -0.8271867 -0.07255152 -0.39406925 -0.3177309 -0.19798297 0.95135653 0.73815817 0.57225007 0.66306186 0.07817964 0.5613715 0.10249488 1.0789106 0.14426534 0.92754966 -0.15063946 0.21358652 0.7204291 0.64616686 0.45129362 0.16731676 0.95144176 0.20796062 1.3253324 -0.51499707 1.7744658 0.80961204 -0.46090186 -0.15641727 -0.009887435 -0.046917688
which -0.18035293 0.5262946 0.24066782 -0.020933544 0.16457427 -0.42947972 0.18021066 0.96749866 -0.25988606 -0.15604416 -0.05649116 -0.4750524 0.0684281 0.09641839 0.030738985 -0.16749626 -0.0488554 -0.15843281 -0.08017709 -0.66480315 0.16662012 0.17856218 -0.1567136 -0.25760096 -0.15582918 0.23102371 -0.13523039 -0.3632493 -0.29540122 -0.004619313 0.25570902 0.020760572 0.1523792 -0.20530833 -0.16690111 0.5246969 -0.17604086 -0.40297303 -0.32618153 -0.6494138 0.03003879 -0.16390342 -0.20539388 -0.23322366 0.31213954 -0.30763832 -0.2570452 -0.14629872 -0.005652375 0.08477512 0.2566706 -0.47819117 -0.38708043 0.095207565 -0.4106301 0.08751962 0.16787124 -0.062904224 -0.35660806 0.09903742 0.13321276 0.14961697 -0.1306796 0.0289125 -0.47977424 0.43590268 0.09772409 0.35866138 -0.45347694 0.2645269 -0.2687293 0.16151378 0.31267232 -0.22115242 0.36798817 0.28743532 0.07535693 -0.07276864 -0.47328204 0.004948955 -0.3941973 0.087439746 -0.4002987 0.5657593 0.023161907 -0.080391474 0.18698946 0.308653 0.3420267 -0.10451244 0.4601607 0.36139372 0.17014821 0.116037264 0.7308884 0.4858711 0.2829841 -0.4694133 0.22163275 0.07364825
neural -0.39214858 1.435654 0.13584569 0.35477683 0.49771133 0.11841376 0.9564081 0.611689 -0.5311052 -0.6578608 0.263154 -0.78510094 0.90573394 0.18352486 0.65928805 -0.35715643 -0.03591244 -0.37861583 -0.59731716 -0.63511604 -0.033399615 0.62408555 -0.6479871 -0.5300333 -0.33048585 1.157113 0.079645775 -1.0413575 0.43817952 0.31166047 0.14161688 -0.2582941 0.4880886 0.24500048 -0.6541747 1.0742702 -0.594821 -0.5818081 -0.89553297 -0.68003273 -0.23766057 0.76913774 -0.00764951 0.18813176 -0.1730619 -0.11345489 -0.25856748 -0.17158383 -0.22055554 -0.5187992 -0.6102625 -1.5997804 -1.3717884 -0.2939859 0.2051889 0.22456242 0.1536837 -0.09231224 0.19857165 -0.56929153 -0.4654109 -0.2666997 0.19183692 -0.088811405 -0.80998755 1.2518455 -0.24131955 0.5982711 -0.93884313 0.4215988 -0.50339353 0.37647453 1.0770831 -0.30753455 0.025092874 0.29925013 -0.005116228 -0.6186707 -0.69394183 -0.39213336 -1.2274371 -0.44652078 -0.04223311 0.7446195 0.99176776 -0.90866166 0.82684106 -0.6764965 0.29140723 -0.44046515 0.6555766 0.93209356 -0.5335376 0.5846662 0.5964742 0.2228984 0.31055582 0.17675555 0.63031733 1.0906274
predict -0.23804887 0.44237605 0.33191916 -0.016357018 0.056320686 -0.45717084 0.119840115 0.8371983 -0.32668388 -0.04561118 -0.12399184 -0.51075274 0.05909579 0.11563499 0.042272344 -0.25464228 -0.06661191 -0.25841215 -0.04840084 -0.7771391 0.16803357 0.18685856 -0.111342825 -0.08449669 -0.25653848 0.23453923 -0.14073846 -0.2842357 -0.39004603 0.032701775 0.25311366 0.008774334 0.14729163 -0.15085864 -0.1466963 0.50740325 -0.11157647 -0.36504352 -0.20265809 -0.6701164 -0.02461482 -0.27037603 -0.28160793 -0.17543203 0.38673124 -0.3269599 -0.18253933 -0.15309663 -0.03309303 0.11876011 0.28147474 -0.34628502 -0.25110844 0.068224 -0.39038327 0.053765427 0.17706119 -0.100267865 -0.45508707 0.075533934 0.16636321 0.1285586 -0.10780926 -0.09165571 -0.44845513 0.34157848 -0.026607042 0.3499723 -0.40531728 0.36178663 -0.14757095 0.22500677 0.24999398 -0.20302288 0.3180578 0.36199188 -0.037689604 0.0926071 -0.3854863 -0.037773803 -0.194228 0.06836292 -0.43290207 0.523347 -0.0021388123 0.021678926 0.11447713 0.4256977 0.46867672 0.015151937 0.47019124 0.2609146 0.039067443 0.15455471 0.6012028 0.42641234 0.2768556 -0.49857238 0.18240947 -0.13922307
time -0.20279196 0.7480862 0.8629296 0.2029003 0.0014370086 -0.44538048 -0.26601678 0.9512903 -0.30658484 0.13566461 0.33329526 -0.24313422 0.5349687 -0.111572705 0.020926328 -0.21557224 0.3580298 -0.26224977 -0.21627337 -0.81838447 0.16322657 0.08031499 -0.37243375 -0.19173965 0.086293906 0.007287766 -0.16445696 -0.14013395 -0.28513095 0.030860784 0.2758811 -0.09693334 0.52297926 -0.60198563 -0.229629 0.19329768 0.09055206 -1.1035603 -0.08120296 -0.75403583 -0.14876692 -0.55056274 0.1701311 -0.52529466 0.020977305 -0.8689398 -0.24649183 -0.63010406 -0.33218178 0.13784586 0.6264458 -0.0046456386 -0.5248807 0.19745585 -0.51168513 -0.41581416 0.19993941 -0.051953424 -0.67554855 0.042246073 0.06033604 0.34032834 -0.5751232 0.2805245 -0.2134696 0.35163534 0.40284628 0.3998751 -0.35393173 0.24521132 -0.21558942 0.22055635 -0.048879895 -0.38912562 0.70916307 0.27065858 0.40723345 0.3408682 -0.07159903 0.31256157 -0.29067978 0.3671767 -0.15230253 0.79844314 -0.6124982 0.19305584 0.022565776 0.47964737 0.14756523 -0.023498544 0.71903795 0.29473695 0.25226521 -0.33281657 0.97340786 0.6795011 0.25563145 -0.14930908 0.0620957 -0.28332642
graph -0.2868499 1.0711564 0.1472213 0.23302716 0.4183835 -0.18851416 0.5087969 0.73236424 -0.34124768 -0.4222141 0.10901937 -0.581128 0.516155 0.1269605 0.3471563 -0.18760006 -0.05115763 -0.17841657 -0.38557625 -0.62400514 0.0787294 0.33643416 -0.29596356 -0.5056063 -0.13439225 0.6356622 -0.07921557 -0.67279786 0.092073515 0.055795275 0.18376105 -0.090549104 0.31029037 0.060266007 -0.34087175 0.7548532 -0.34623587 -0.39545467 -0.6241748 -0.61902064 -0.16340096 0.35118163 -0.097157136 -0.098360166 0.0026892924 -0.22577038 -0.2661506 -0.15477733 -0.14597225 -0.25899592 -0.08827192 -0.95239466 -0.85349095 -0.060477566 -0.031039206 0.08893099 0.13916756 -0.081892595 -0.14444835 -0.2763945 -0.18960665 -0.08068247 0.05187368 -0.0045940643 -0.5559704 0.82424265 0.01851833 0.49682212 -0.6986478 0.3247186 -0.44561026 0.20388171 0.6628592 -0.18532933 0.18583313 0.20332062 -0.022755833 -0.4689143 -0.59791946 -0.15964709 -0.85493064 -0.12955007 -0.14773093 0.5871453 0.44890305 -0.5562305 0.61324096 -0.23958942 0.24000493 -0.22498797 0.5308432 0.5972801 -0.05383086 0.25998095 0.81190044 0.40978748 0.28454834 -0.054471035 0.36654335 0.59936494
generat -0.025874395 0.6169337 0.378031 -0.093571976 0.033362918 -0.4766996 0.07717929 0.8994455 -0.29413885 -0.20448105 -0.14559527 -0.3030771 0.091666974 0.0030602803 0.0018215594 -0.18272625 0.23422526 -0.054918073 -0.26183578 -0.9783517 0.1931909 0.092430726 -0.058717687 -0.3551467 -0.19614963 0.10587296 -0.37857127 -0.34721288 -0.29595542 0.10153083 0.14683038 0.11396829 -0.020317152 -0.2915791 -0.11303575 0.60651135 0.010849412 -0.4375857 -0.1719795 -0.6252214 0.04645825 -0.4097275 0.07557914 -0.24755697 0.1858453 -0.43209562 -0.29534355 -0.24506645 0.057656575 0.13918975 0.29639122 -0.22818114 -0.3421696 0.1570206 -0.24171294 -0.045601673 0.3036911 0.005269021 -0.52785337 0.08179641 0.19450028 0.014119792 -0.23801231 0.16145965 -0.12949131 0.375178 0.25676537 0.18122768 -0.40476775 -0.02807105 -0.22637376 0.006699661 0.08066043 -0.26865876 0.47717375 0.32926407 0.17404197 0.08608905 -0.29277998 0.16810693 -0.21964532 0.31146634 -0.28160805 0.61343235 -0.048595957 -0.07559635 0.30116764 0.39525092 0.23831214 0.013955706 0.5180495 0.3011067 0.4982993 -0.08225915 0.8913576 0.44678715 0.106215924 -0.29996064 0.11642876 0.09303648
demonstr -0.432226 0.0244908 0.6899656 -0.35018983 -0.4595563 -1.0266384 0.306937 0.39865944 -0.75922954 -0.08864914 -0.5249512 -0.7301928 -0.44460404 0.02333634 -0.24394652 -0.4857382 -0.026641937 -0.67316455 0.36615255 -1.2417684 0.60126907 0.35284546 0.2984131 0.76101804 -0.732896 0.021348469 -0.33035192 -0.12556614 -0.55378747 0.29743224 0.3801527 -0.08032677 0.25697988 -0.38214234 -0.2264919 0.6514763 0.5486885 -0.25394005 0.5245935 -0.61849135 0.15017867 -0.95655864 -0.14183575 -0.0730084 1.0466917 -0.003637643 -0.097700834 -0.09697429 0.10035024 0.3177886 0.30485475 0.34000552 0.41020456 -0.23542278 0.03182731 -0.054918595 0.19586745 -0.07400249 -0.76081073 0.21015212 0.4698153 -0.054293472 -0.11652908 -0.28929383 -0.25441378 0.064945966 -0.3974428 0.35599813 -0.3511307 1.1338955 0.053407844 -0.014024293 0.16869673 -0.060631223 0.22428654 0.5983645 -0.41465223 0.6672702 -0.12743525 -0.17249696 0.7671382 0.26276734 -0.91218567 0.59989566 0.026600635 0.35188165 -0.074561074 1.1274099 0.94908476 0.3635872 0.8881531 -0.3043341 -0.29882166 0.1659365 -0.12375996 0.0071984385 0.26569825 -0.65277064 0.06026494 -1.1320143
languag 0.40888754 1.0446141 1.0582865 -0.15098445 -0.35234472 -0.6738264 -0.5549764 1.1009332 -0.5222822 -0.061056785 -0.75080115 0.25204825 0.2518706 -0.102652855 -0.41190746 0.042982806 0.8247918 0.48557547 -1.0487173 -2.2669384 -0.046937834 0.08933952 -0.1840832 -0.8363541 -0.2949271 -0.019485708 -1.332209 -0.5040595 -0.35591307 0.38059875 0.034416623 0.39060345 -0.48642644 -0.54364175 -0.10305052 1.0806541 0.500968 -0.8393065 0.39614356 -1.1698576 -0.024220193 -1.4556625 0.7601204 -0.595252 -0.23759918 -1.3260598 -0.45092338 -0.8629496 0.27480477 0.06238207 0.23295404 0.2627379 -0.6013155 0.31544617 0.059702665 -0.3955552 0.20575593 -0.02055225 -1.5657264 -0.029097077 0.6834224 -0.2304638 -0.5608356 0.59206945 0.931545 0.14065868 0.8202906 -0.27790308 -0.6443933 -1.0189631 -0.34350175 -0.56565475 -0.7360965 -0.5191588 1.1473653 0.6607879 -0.020590965 0.7483648 0.07377827 0.6564199 0.6626992 1.0299891 -0.011081476 1.3480937 -0.6388997 -0.108537205 0.6683806 1.0638386 0.10680908 0.21618237 0.6603176 0.121723406 1.7125908 -0.6933067 1.599932 0.34787828 -0.5627711 0.26164505 -0.17228115 0.26825792
dataset -0.2366407 0.21597673 0.51447517 -0.14548154 -0.45469928 -0.91206264 0.11794686 0.4940771 -0.47620928 -0.18329173 -0.5816069 -0.40346935 -0.16853258 -0.12185451 -0.43265978 -0.24962515 0.060017057 -0.5100145 -0.0005095628 -1.2583272 0.53382266 0.16999167 0.34073412 0.55525655 -0.45089376 -0.19149074 -0.5183502 -0.11339723 -0.6925629 0.37260145 0.23051955 -0.030472426 0.041311096 -0.415495 -0.1492783 0.7306425 0.3352692 -0.53241473 0.49600837 -0.75497997 0.20155676 -0.82785183 -0.05695859 -0.04658818 0.8822005 -0.29087877 -0.12187034 -0.36655706 0.01483136 0.46392864 0.5306594 0.5958141 0.30222017 0.03029891 -0.26094735 0.18637335 0.20253628 -0.0068551153 -0.87288177 0.2888066 0.63937664 -0.15403742 -0.044846892 -0.22395636 -0.111808605 -0.04403696 -0.09371805 0.33908734 -0.41991195 0.7563504 0.044714566 0.014362434 -0.25319287 -0.127643 0.32540485 0.50111634 -0.32279614 0.68134296 -0.24467137 0.011183666 0.51504356 0.5206354 -0.7170098 0.7334703 -0.29392803 0.48759 -0.14756766 1.1976322 0.7597283 0.31668133 0.65739435 -0.21159442 0.24354161 0.14763466 0.08563594 0.06361955 0.2168114 -0.80873764 0.0606056 -0.9506265
algo -0.38266882 0.28268823 0.2050029 -0.1824096 0.06315417 -0.5187285 0.27262014 0.6971726 -0.3157382 0.017357528 -0.16455907 -0.73830026 -0.2681634 0.15523934 -0.10814615 -0.31478876 -0.06996882 -0.40468076 0.2258796 -0.6059868 0.18645428 0.2112877 0.12278862 0.1045298 -0.3808134 0.20884986 -0.02730762 -0.24488908 -0.48610982 0.07214748 0.5010001 -0.044993285 0.24402148 -0.28292048 -0.26231787 0.44333053 -0.0047847605 -0.11623305 -0.16182382 -0.5780146 -0.049554773 -0.32268885 -0.44094196 -0.1018509 0.5744098 0.09120527 -0.2098689 0.06391553 -0.0022560293 0.027440846 0.2263008 -0.49839604 -0.11589814 -0.09599761 -0.2991229 -0.05095789 0.16108303 -0.15829115 -0.41435584 0.11603824 0.17431408 0.15330696 -0.052306343 -0.091499984 -0.5524819 0.44497648 0.0006579991 0.35210595 -0.3921578 0.7855173 -0.07743851 0.21531382 0.5502526 -0.03516503 0.14036953 0.2541382 -0.13648108 -0.08764308 -0.3064812 -0.22506298 -0.19148616 -0.10209803 -0.6861729 0.2453298 0.1649394 -0.11708514 0.1216266 0.34891632 0.5762751 0.037374206 0.57487965 0.2049557 -0.1595247 0.19402623 0.2730542 0.25529662 0.33789748 -0.44441307 0.097812705 -0.31549767
effect -0.2541946 0.24574809 0.41147017 -0.1387014 -0.15625104 -0.6183188 0.20252231 0.59674966 -0.4141231 -0.099418215 -0.2927392 -0.5303658 -0.15199685 0.010563463 -0.16376181 -0.28378257 0.03056938 -0.39225245 0.113480836 -0.8633716 0.3545989 0.19301781 0.13046162 0.23501413 -0.37128425 0.04996807 -0.23752216 -0.2064745 -0.45177528 0.18183792 0.2961235 -0.015412295 0.1937647 -0.3517186 -0.19985136 0.57176346 0.16851051 -0.33809647 0.094894566 -0.5880788 0.08545075 -0.5261466 -0.16603932 -0.12284944 0.6383605 -0.12595092 -0.17942922 -0.18376605 0.046430822 0.19689608 0.29248473 -0.025160491 0.015901793 -0.039967738 -0.2187242 0.002101932 0.1673531 -0.0696289 -0.5766712 0.19670472 0.32346714 0.011915719 -0.1217154 -0.1185033 -0.30198666 0.21549922 -0.081509486 0.28864133 -0.3519109 0.6060251 -0.06321954 0.07051767 0.18970363 -0.10187957 0.29851755 0.37018305 -0.14972924 0.2777359 -0.2308767 -0.04563603 0.13929105 0.19824892 -0.62569004 0.5121723 -0.06099028 0.12219736 0.043380726 0.67413574 0.59381914 0.11463022 0.61409867 0.04532886 0.014963073 0.087622814 0.2678591 0.21277542 0.20224836 -0.5483386 0.12257994 -0.47798544
improv -0.19036898 0.19625027 0.6067673 -0.24010937 -0.18267821 -0.6783114 0.096461 0.6392218 -0.58198 0.0010517528 -0.35915568 -0.52196074 -0.116763696 0.10255455 -0.05359103 -0.34233117 -0.010697375 -0.35137486 0.020917026 -1.2016912 0.38210747 0.23751494 0.075741276 0.22865906 -0.43155104 0.15407532 -0.40998772 -0.10207665 -0.48618707 0.17141339 0.145495 0.054336347 0.037537545 -0.23412047 -0.033243626 0.5479867 0.1867447 -0.35305426 0.21257862 -0.68776286 0.040411737 -0.71667385 -0.10305315 -0.15690255 0.56393564 -0.32894707 -0.13211872 -0.068338804 0.01614636 0.26564512 0.27489454 0.09669244 0.091332816 0.007463473 -0.13183318 -0.07589132 0.256146 0.032979246 -0.59297633 0.12802185 0.30784565 -0.009463322 -0.16351156 -0.11403513 -0.14592896 0.051790338 -0.18677987 0.317056 -0.29039726 0.44147298 -0.023403656 0.038385447 0.0031553903 -0.18346825 0.31305125 0.469622 -0.2017262 0.5181385 -0.23074573 -0.0082645025 0.38474414 0.26003692 -0.5139749 0.60637975 -0.116755456 0.19718991 0.038320027 0.8087526 0.64947474 0.19169861 0.64678186 -0.065991394 0.025228078 0.10083814 0.37540957 0.27322438 0.16308187 -0.5324204 0.0022682284 -0.52941
effici -0.21475863 0.42578548 0.39808062 -0.10862814 0.057505563 -0.46831262 0.2064116 0.80557656 -0.40767762 -0.052286915 -0.09578896 -0.55250376 -0.071635984 0.090718076 0.013098017 -0.2618779 0.012366327 -0.2550382 0.025624651 -0.8527672 0.2282031 0.21527702 -0.06882826 -0.08685203 -0.3057495 0.2585887 -0.19485362 -0.28483576 -0.33045143 0.05072255 0.28780314 0.013896776 0.23225014 -0.2844379 -0.18843283 0.51653826 0.080572955 -0.2919473 -0.15604888 -0.5912921 0.009314561 -0.44357565 -0.15621863 -0.21803553 0.3648222 -0.26834798 -0.20430486 -0.03225629 0.03934229 0.077004924 0.22306104 -0.37462997 -0.23790456 0.020871334 -0.2639142 -0.077759705 0.2508413 -0.053395335 -0.46853885 0.09426269 0.17790245 0.13280465 -0.16252057 0.023551539 -0.36837462 0.3318211 -0.014533098 0.32709053 -0.36496657 0.2945308 -0.2264809 0.07600554 0.28588575 -0.18679896 0.36496642 0.32630157 -0.028448753 0.12145682 -0.30019647 0.0102551505 -0.08302983 0.12367217 -0.47398284 0.5207775 0.002657266 -0.11492592 0.19356002 0.38063475 0.41922644 0.0040833736 0.5621007 0.25193533 0.08164502 0.038669173 0.6037702 0.38253367 0.23192528 -0.3766517 0.10107721 -0.11409926
result -0.35205385 0.04166848 0.62900054 -0.23137993 -0.3338435 -0.8440227 0.18034236 0.45913592 -0.58173823 -0.09411506 -0.48493525 -0.6911913 -0.31035 0.029440697 -0.22636338 -0.42953643 -0.06345668 -0.53190106 0.28572527 -1.1107913 0.5116198 0.2874616 0.25177422 0.49961925 -0.5578308 0.10292737 -0.33871868 -0.11194132 -0.6010517 0.2670045 0.36341134 -0.008466743 0.23334536 -0.41180724 -0.17804506 0.699839 0.30232227 -0.2500707 0.33851632 -0.69474185 0.1612257 -0.8218115 -0.24889465 -0.079127 0.94031894 -0.08825407 -0.14680095 -0.08550596 0.045455378 0.25307688 0.33076525 0.2346172 0.30228868 -0.11846921 -0.16253486 0.08896003 0.13518712 -0.061716143 -0.71210307 0.23717417 0.43747061 0.015064018 -0.13125418 -0.25813952 -0.2130721 0.06764375 -0.2564592 0.34232882 -0.29774302 0.8428142 -0.013688227 0.09038606 0.09788869 -0.062693246 0.3166472 0.5255637 -0.4006067 0.54904836 -0.1357529 -0.08800317 0.49718496 0.23151472 -0.7514108 0.53827804 -0.063710965 0.28524712 -0.07324724 0.9493197 0.8468221 0.2848778 0.75591344 -0.18001018 -0.15411666 0.12670457 0.010189369 0.08617508 0.23913114 -0.70338243 0.020002317 -0.8164836
distribut -0.24177869 0.2690181 0.123203866 -0.028019706 0.086942025 -0.47698078 0.15371074 0.9105594 -0.17138201 -0.12328796 -0.019442698 -0.5390023 -0.16217345 0.09934096 -0.014389201 -0.18315555 -0.1558836 -0.34300536 0.1746893 -0.47106805 0.20000032 0.16220286 -0.07002022 -0.06626073 -0.21040542 0.19550528 0.07456294 -0.2335234 -0.3148638 0.017507 0.33722126 -0.022297796 0.22447035 -0.26957536 -0.19550107 0.4496463 -0.15089509 -0.26899463 -0.3010497 -0.53755325 0.053742733 -0.13154198 -0.37340105 -0.22938165 0.533426 -0.10811612 -0.21611106 -0.05123571 0.0006129968 0.16428937 0.27672482 -0.4573016 -0.23941702 0.06619893 -0.4466107 0.12742855 0.1533925 -0.060264256 -0.31405556 0.17599165 0.13110094 0.21815597 -0.08569521 -0.0605033 -0.59461236 0.35239422 0.0048164786 0.33319145 -0.4232852 0.48926523 -0.1957291 0.2049638 0.39181432 -0.15521817 0.23673044 0.18942535 -0.031963695 -0.08632179 -0.40937284 -0.102795064 -0.29997066 -0.034838676 -0.546623 0.36183825 0.084716275 0.016913017 0.044096638 0.3271635 0.412819 -0.015769826 0.36988357 0.30111387 -0.08599747 0.17246854 0.38872874 0.36754757 0.3785463 -0.60812265 0.24139398 -0.103246905
set -0.24012384 0.3055999 0.22457424 -0.07194704 -0.026419362 -0.5546153 0.19559054 0.80158496 -0.281906 -0.13255186 -0.17121015 -0.5146174 -0.15416935 0.077408485 -0.11540914 -0.2190263 -0.08916781 -0.3284494 0.070386425 -0.6587369 0.22497879 0.18650325 0.023056805 0.0736211 -0.24587971 0.11922296 -0.08377956 -0.2730861 -0.41164726 0.10533806 0.29878852 -0.037393685 0.12666139 -0.28206593 -0.157966 0.536507 -0.07277698 -0.33392686 -0.10578776 -0.6123065 0.044863064 -0.2794421 -0.2673424 -0.14458239 0.5714804 -0.15470079 -0.20038658 -0.108769044 -0.024855841 0.1888767 0.31138217 -0.20214246 -0.117259845 0.04150964 -0.40640855 0.12909627 0.16064717 -0.08530884 -0.41571337 0.16308264 0.21992014 0.08874356 -0.086792976 -0.08817559 -0.4609194 0.28676975 -0.025888145 0.33245543 -0.40045866 0.4998326 -0.12508605 0.15726697 0.23394924 -0.14619431 0.2624161 0.2782536 -0.07542268 0.0602686 -0.36339623 -0.05988972 -0.13852747 0.08394692 -0.5326909 0.42370597 0.02878764 0.093220584 0.02522323 0.48150295 0.5173665 0.05709098 0.43223947 0.18355566 0.0521 0.17717783 0.35976774 0.30158922 0.28135988 -0.6419879 0.18955302 -0.25602275
func -0.3111899 0.37299713 0.111765906 -0.066906035 0.23773295 -0.36028665 0.23109616 0.95780826 -0.19029199 -0.07872503 0.05959887 -0.6748164 -0.045532778 0.19373083 0.06288612 -0.24980763 -0.21255593 -0.2563463 0.14183222 -0.34274086 0.14688532 0.25048473 -0.1786828 -0.20219232 -0.22089177 0.30889663 0.16878098 -0.3696441 -0.25276932 -0.06904844 0.36795664 -0.047599457 0.30538025 -0.19370988 -0.25964722 0.44378757 -0.28852808 -0.23515862 -0.49992123 -0.51703835 0.022557415 0.010652135 -0.40929672 -0.25046676 0.4125876 -0.05190202 -0.22810549 0.025767647 -0.034996543 0.004791893 0.14536425 -0.78792053 -0.36934116 -0.002976006 -0.41385868 0.066161826 0.11620109 -0.119577736 -0.15931879 0.036451444 0.029805655 0.25148132 -0.072222196 -0.041354958 -0.7288756 0.56994927 -0.0024503763 0.38929173 -0.43932858 0.49793333 -0.25220737 0.26056632 0.6258944 -0.13955194 0.2602816 0.21818584 0.04809712 -0.282555 -0.49301165 -0.08921641 -0.52632564 -0.16960955 -0.5298651 0.35952902 0.20425875 -0.19967666 0.17371903 0.13788167 0.39088506 -0.12729473 0.40378633 0.3967664 -0.1398122 0.15951045 0.51033324 0.48544616 0.36135146 -0.5116851 0.24305227 0.14413887
featur -0.17491816 0.51588035 0.14159486 0.025829403 0.1539809 -0.41148147 0.19125064 0.88616365 -0.16857575 -0.19259846 -0.03000718 -0.47486046 0.052763335 0.10474425 0.03148475 -0.14209548 -0.12642515 -0.2043537 -0.048994306 -0.5152398 0.15939401 0.17189153 -0.13159718 -0.22269332 -0.15953954 0.2250892 -0.051787086 -0.32450226 -0.29331264 -0.009225007 0.30618104 0.0037890126 0.15015782 -0.20681493 -0.13589714 0.5026862 -0.2900915 -0.3467401 -0.4118168 -0.61661804 -0.014952893 0.018631754 -0.3126304 -0.20443974 0.3551848 -0.18208773 -0.2032419 -0.13738872 -0.024609398 0.10993603 0.24808171 -0.4553821 -0.40260383 0.098831944 -0.40379402 0.16743849 0.14253901 -0.06637969 -0.3165665 0.11240571 0.10340197 0.15811409 -0.11208193 -0.07017812 -0.55333734 0.4277147 0.046455055 0.3269451 -0.4645921 0.33643666 -0.2814345 0.19486491 0.3671516 -0.18757613 0.2829169 0.23185846 0.042132538 -0.18191113 -0.52167976 -0.03221814 -0.5317168 0.0172851 -0.43000057 0.47589654 0.03628416 -0.09703968 0.15073742 0.2717533 0.38209128 -0.09214236 0.39067993 0.36013266 0.077683814 0.19535057 0.5745828 0.43316138 0.32569396 -0.5210374 0.21796918 0.05251185
framework -0.31560335 0.52559876 0.16493484 -0.16371211 0.1705528 -0.5086451 0.37580517 0.77458423 -0.2535337 -0.09072299 -0.068834536 -0.6973812 -0.20536485 0.12001091 -0.054966856 -0.26023147 0.06290999 -0.24667504 0.1378907 -0.5255688 0.26003253 0.17260736 0.034180976 -0.09039848 -0.26800677 0.21454911 0.05169254 -0.36191472 -0.29017323 0.0763599 0.50948745 -0.060884915 0.4422925 -0.447556 -0.35031664 0.5389446 0.16717646 -0.08255371 -0.2704256 -0.46649426 -0.008557757 -0.23970151 -0.26276043 -0.17428328 0.43165013 0.103406526 -0.3026529 0.042230584 0.067251526 -0.15589152 0.21490757 -0.6959764 -0.3867735 -0.1811539 -0.22169283 -0.10140143 0.20954734 -0.16160741 -0.41511345 0.09928261 0.13561188 0.12549928 -0.19541274 0.035489574 -0.5071904 0.6988779 0.14313494 0.34883684 -0.55085665 0.7210917 -0.25144878 0.098069325 0.6358056 0.0018854409 0.2858764 0.17178957 0.023683405 -0.2549196 -0.2755649 -0.12180791 -0.39791417 -0.0542105 -0.6507934 0.2148996 0.210265 -0.26889488 0.30198523 0.14388862 0.3777673 -0.082100935 0.70920706 0.354954 0.007935799 0.05230663 0.48149115 0.29605886 0.35235173 -0.1861536 0.097710565 -0.06035827
comput -0.18991695 0.4614958 0.420564 -0.07168895 0.08671491 -0.48568106 0.15065575 0.94612396 -0.35674822 -0.065999135 -0.04469152 -0.4507085 0.0084809745 0.055580277 0.03133604 -0.20901014 0.038620044 -0.15298897 -0.07792715 -0.816865 0.18480226 0.2094548 -0.09209949 -0.22418079 -0.18739754 0.18709984 -0.19780567 -0.32848608 -0.33631283 0.02245443 0.17774692 0.066461556 0.19284171 -0.26452184 -0.15551274 0.5214851 -0.07599833 -0.45347676 -0.22789636 -0.6152513 0.02322823 -0.38557008 -0.12380214 -0.22054006 0.3101223 -0.4051668 -0.22966343 -0.18934517 0.0078470595 0.07348387 0.26516798 -0.3267083 -0.30650407 0.054719508 -0.3625216 -0.08448766 0.16965929 -0.053285528 -0.45858556 0.051765636 0.14970021 0.101645775 -0.22791953 0.05738642 -0.36639833 0.36523443 0.055342246 0.28317714 -0.37257314 0.1612382 -0.27995232 0.103528604 0.20380443 -0.21844769 0.41163465 0.37425545 0.05956067 0.10112705 -0.33630055 0.09625263 -0.14020137 0.15602565 -0.37998852 0.5612487 -0.033754412 0.019240687 0.19902736 0.34810877 0.3477969 -0.091875456 0.4834976 0.27811906 0.172371 -0.0031348413 0.7747077 0.48748702 0.17804742 -0.3717521 0.13476902 -0.040375385
sampl -0.20343028 0.30425075 0.32940114 -0.0975057 -0.004705541 -0.49738827 0.10943645 0.87413365 -0.30636558 -0.06363251 -0.1650162 -0.5059389 -0.13334006 0.09891127 -0.07667214 -0.22534874 -0.068692505 -0.22729604 0.051963475 -0.7825897 0.23570028 0.1776047 -0.029608076 -0.06392571 -0.27822864 0.16618073 -0.12873678 -0.24581276 -0.35396215 0.08245823 0.28010145 0.041744754 0.12403878 -0.28264207 -0.14498612 0.54240334 -0.047804564 -0.3028701 -0.1643451 -0.6514952 0.045805886 -0.3696322 -0.2250956 -0.253135 0.49004722 -0.24388319 -0.21448164 -0.11449473 0.036233436 0.18682444 0.28459138 -0.2693688 -0.17888394 0.063854165 -0.3710147 0.041022275 0.1777207 -0.022102045 -0.473932 0.14549066 0.21311143 0.15014961 -0.14267652 -0.016121281 -0.38688633 0.23769636 0.024990141 0.29468724 -0.37533614 0.3209483 -0.17757319 0.11187701 0.19919081 -0.18228048 0.33272353 0.30201033 -0.035465322 0.1224762 -0.346176 -0.0040686945 -0.090067334 0.09135559 -0.47362816 0.49651006 -0.031473022 0.024776213 0.10362949 0.4736997 0.45044842 0.034770396 0.41931605 0.18439242 0.07782588 0.09487796 0.4979034 0.37180954 0.249521 -0.58259326 0.11453179 -0.12633911
show -0.3786468 0.16427729 0.5243725 -0.2946774 -0.3272114 -0.86415315 0.2804885 0.46088877 -0.59972763 -0.120365895 -0.41532287 -0.6993298 -0.38821813 0.05101332 -0.21011862 -0.4221615 -0.01612129 -0.5750463 0.3221625 -0.9963235 0.5224227 0.31633568 0.21671636 0.52794486 -0.60889304 0.09763874 -0.2613605 -0.21667165 -0.44022954 0.22650439 0.37615058 -0.089152075 0.2815188 -0.3686068 -0.24922669 0.64134336 0.4029813 -0.17474976 0.31612504 -0.6022633 0.1251283 -0.7027023 -0.14587405 -0.08391331 0.8669824 0.013980222 -0.16560726 -0.050024472 0.042030875 0.20468092 0.23466495 0.119964264 0.21696515 -0.16393691 -0.020790782 0.0018917791 0.18115221 -0.10441889 -0.6617976 0.16365246 0.39196435 -0.032889556 -0.1368756 -0.18269973 -0.2932782 0.20422515 -0.29994863 0.32872716 -0.41640276 0.96410847 -0.040038183 0.020350927 0.25011042 -0.06855127 0.23390807 0.5189577 -0.31174687 0.44298747 -0.19770087 -0.14402798 0.43661347 0.2052407 -0.80825216 0.5185022 0.06297688 0.22080755 0.018452719 0.88810337 0.7507147 0.23896727 0.81576854 -0.14488806 -0.22584839 0.14884275 -0.0021816369 0.083151214 0.26822844 -0.5380911 0.08226169 -0.80147856
work -0.3232789 0.48736882 0.16059531 -0.20853278 0.12169174 -0.5868389 0.30969015 0.8297721 -0.22017571 -0.09263763 -0.10627471 -0.5976409 -0.2767856 0.12468586 -0.07062049 -0.29973653 0.07732415 -0.22032332 0.11097785 -0.498062 0.25462237 0.12849389 0.069292754 -0.10140247 -0.19737016 0.1557391 0.02497189 -0.35095134 -0.32755765 0.07942731 0.5134106 -0.011492991 0.37377137 -0.4686903 -0.28954026 0.5022249 0.19236256 -0.08154009 -0.1693681 -0.46342912 0.03526549 -0.2851123 -0.23191871 -0.186677 0.39466685 0.036745165 -0.34131247 0.0330765 0.066285305 -0.17286089 0.25878158 -0.62966233 -0.34627193 -0.15034522 -0.28031406 -0.07184877 0.20874365 -0.19062409 -0.45560312 0.14264421 0.18319221 0.09915492 -0.24691814 0.06085814 -0.5015403 0.69058216 0.1518025 0.29589558 -0.5656157 0.6514046 -0.25247714 0.09635147 0.5898665 -0.020465402 0.2782012 0.18878709 0.050511796 -0.20464602 -0.26511142 -0.06413526 -0.33087164 0.015397751 -0.6716102 0.25431532 0.16862313 -0.14510465 0.25858548 0.2001643 0.36856225 -0.09862847 0.7645926 0.34002453 0.12991081 0.014906721 0.54837793 0.31154323 0.2720975 -0.20304134 0.12340072 -0.11254575
general -0.23976266 0.40180132 0.32709494 -0.09750005 0.05806211 -0.5222913 0.13696061 0.8297459 -0.32017767 -0.07826039 -0.102101624 -0.50596875 -0.03193984 0.08791691 -0.0046950416 -0.25688437 0.012810944 -0.23920453 -0.006810856 -0.7250147 0.22905691 0.1816142 -0.061363686 -0.075373985 -0.23848706 0.15612212 -0.109734125 -0.24222554 -0.3577334 0.0724231 0.2839402 0.022868542 0.20916805 -0.29518187 -0.19965038 0.52319735 0.008607605 -0.32895792 -0.14165801 -0.60482234 0.033118643 -0.35209507 -0.18343428 -0.23616561 0.3975184 -0.2511744 -0.20987678 -0.14546667 0.002245988 0.1089767 0.31572458 -0.30660802 -0.22996649 0.027009316 -0.3578474 -0.00036341537 0.21703191 -0.0772933 -0.47511524 0.1450653 0.19069369 0.109220885 -0.1808689 -0.03801675 -0.4159358 0.3425201 -0.000248433 0.28418264 -0.42340323 0.39233962 -0.18808682 0.12560095 0.25089356 -0.15889053 0.3239097 0.29005718 0.009804 0.07997383 -0.3277275 -0.010134717 -0.11511568 0.12968881 -0.49321827 0.47727847 -0.0033618703 0.041204803 0.07896402 0.45726958 0.4200412 0.01598877 0.5889368 0.22677076 0.08853856 0.06602605 0.5685079 0.40494516 0.2543776 -0.4764654 0.19150653 -0.19052312
proc -0.114399366 0.6000868 0.2880376 -0.058960844 0.19598366 -0.4403827 0.17937614 0.9404566 -0.24958831 -0.138006 0.029755134 -0.38770342 0.08186701 0.031820804 0.055802535 -0.1858037 0.10009436 -0.06695517 -0.18585575 -0.777162 0.14632255 0.12737554 -0.108492225 -0.4054326 -0.14009507 0.1727008 -0.2025752 -0.3898125 -0.27197188 0.00011669605 0.18495487 0.0538607 0.13666669 -0.22497271 -0.11033844 0.5312259 -0.15618871 -0.4142037 -0.26365945 -0.6457552 0.03679965 -0.25157332 -0.058639698 -0.22496168 0.19114551 -0.36219844 -0.2938224 -0.1401197 0.00028360164 0.06701173 0.24065995 -0.35676405 -0.39175305 0.1491316 -0.31166577 -0.008381483 0.28319454 -0.041196827 -0.39525822 0.076407686 0.08551092 0.06265602 -0.22277404 0.091702804 -0.27378553 0.46256638 0.15671991 0.27725267 -0.40367946 0.0548633 -0.3126175 0.0839856 0.22839737 -0.2158119 0.4271386 0.27941838 0.17430781 -0.0590438 -0.364348 0.064596884 -0.41184857 0.21431272 -0.28985223 0.5506517 0.028479582 -0.11013837 0.2794976 0.21415158 0.25311226 -0.11270602 0.4458317 0.37377062 0.31339693 0.017223803 0.89946365 0.48684695 0.13543959 -0.33510482 0.16470475 0.12927023
problem -0.335214 0.37380713 0.11159816 -0.07976781 0.16398914 -0.4885232 0.24758326 0.90568876 -0.17928202 -0.06562859 -0.024270283 -0.5981768 -0.13422139 0.12014586 -0.07522656 -0.20437391 -0.04931304 -0.29169104 0.105662115 -0.47128612 0.1490254 0.1324432 -0.02560251 -0.1268981 -0.19674647 0.15776464 0.062243834 -0.32926714 -0.3400584 0.0039158436 0.40363416 0.001209085 0.30990258 -0.2950552 -0.22344221 0.42222542 -0.083607055 -0.25963634 -0.31118947 -0.5368308 0.014959087 -0.15594216 -0.36290896 -0.15886499 0.44763958 -0.060114928 -0.26630798 -0.019802894 -0.02203946 -0.018322082 0.27786082 -0.5707465 -0.2970311 0.008015237 -0.41996512 0.0351273 0.15731336 -0.17393444 -0.34441966 0.15032902 0.12547548 0.15540731 -0.08201074 -0.0068931687 -0.645606 0.5176267 0.09716183 0.3455076 -0.44344 0.5676641 -0.18261327 0.19344516 0.5132731 -0.06694108 0.23265028 0.18221417 0.035910048 -0.22896144 -0.40424326 -0.104728155 -0.41071036 -0.03483183 -0.5722193 0.30544555 0.12483426 -0.049550213 0.13428618 0.23717104 0.44685522 -0.07874733 0.51089585 0.36789396 -0.010992016 0.18028271 0.5272832 0.3780469 0.28542084 -0.44570372 0.2028402 -0.07488643
high -0.19476464 0.410271 0.39013958 0.006661326 -0.027864944 -0.52715266 0.1071003 0.92429525 -0.31527278 -0.13954245 -0.12963894 -0.40690696 0.011344815 -0.0015036893 -0.07523281 -0.18951234 0.002627932 -0.23429908 -0.027762037 -0.8074636 0.19703726 0.2384405 -0.12966 -0.12866618 -0.15783861 0.1300187 -0.21349697 -0.2795719 -0.38204446 0.020105658 0.1508663 0.08027333 0.02166561 -0.2215744 -0.13629538 0.55243087 -0.120148845 -0.45390576 -0.14264369 -0.66619533 0.059008066 -0.38423613 -0.19527765 -0.26821035 0.43532643 -0.40643108 -0.18324712 -0.22750317 0.004375642 0.21001592 0.28983462 -0.1680429 -0.24491444 0.1134268 -0.3991478 0.042316284 0.13833715 -0.0627719 -0.45707002 0.12273251 0.25812456 0.13606814 -0.12546393 -0.033488553 -0.39460263 0.24110854 0.020786693 0.3111122 -0.3203133 0.18914415 -0.18157381 0.13869572 0.11924201 -0.20735872 0.42451987 0.35599548 -0.02581092 0.11493325 -0.3674848 0.06667126 -0.06027841 0.14886867 -0.4473415 0.6333388 -0.115350485 0.03711275 0.09714302 0.4482615 0.37088537 -0.01902469 0.36678317 0.22850716 0.2386211 0.1178138 0.68111223 0.44552717 0.19748557 -0.51979315 0.108238526 -0.13356824
introduc -0.27769575 0.58639544 0.038187437 -0.29811716 0.36316377 -0.6045379 0.5474406 0.97072977 -0.088428564 -0.17997488 0.087142594 -0.76603067 -0.37105036 0.18956617 0.041200437 -0.25909832 0.053742204 -0.2693748 0.31464168 -0.21384819 0.41057268 0.22272599 0.0693312 -0.14096989 -0.2234746 0.17841302 0.27972516 -0.38202795 -0.10061587 0.06953226 0.5956463 -0.13355991 0.6953901 -0.595539 -0.40354478 0.49472436 0.35120988 0.1384934 -0.49515766 -0.2905761 0.032865394 -0.072285846 -0.19871955 -0.20461866 0.42731106 0.3953248 -0.46081236 0.2313923 0.05674794 -0.31435063 0.21985623 -1.0284449 -0.5387751 -0.3474221 -0.26892966 -0.12533051 0.30504775 -0.12046045 -0.33167914 0.13398986 0.08129233 0.1268313 -0.2404201 0.22284544 -0.7192492 0.99773425 0.18226743 0.33605623 -0.7591827 0.8814041 -0.4002899 0.009469018 0.8640478 0.02644102 0.3039392 0.0060789557 0.22933906 -0.56332666 -0.3631433 -0.11453725 -0.585922 -0.13561136 -0.8013705 0.035759192 0.35317722 -0.2746284 0.40518215 -0.07214888 0.22669421 -0.2535578 0.9074935 0.40252894 -0.09950538 0.012151177 0.44893092 0.29194131 0.45749497 -0.06402184 0.10129349 0.034187175
machin -0.32096392 0.91282946 -0.17765975 -0.0064526354 0.3210604 -0.18402189 -0.07665218 0.89475 -0.052765172 -0.048352923 0.03301148 -0.5129953 0.18489206 0.1354382 0.07816631 -0.18549882 0.17870377 -0.18320604 -0.27624965 -0.44866002 -0.40952432 -0.14362639 0.0583983 -0.5349546 -0.14380953 0.24699079 -0.22140545 -0.38448206 -0.69824976 -0.114739284 0.4487441 0.16793391 -0.09499653 -0.061375517 -0.2412141 0.32137737 -0.3375317 -0.38599423 -0.4004571 -0.61179197 -0.4468687 0.123991445 -0.35764104 -0.052224074 -0.02584071 0.004589637 -0.1465055 -0.20054391 0.04730824 -0.13706543 0.22655167 -0.8501888 -0.49476695 0.24048628 -0.37191975 -0.18532203 0.24366216 -0.23052731 -0.37434512 -0.005402368 0.15853184 0.19006401 -0.041966077 0.20521536 -0.38894424 0.7385072 0.4894578 0.14650829 -0.53063726 0.2873198 0.11327774 0.31019714 0.75321615 -0.029451484 0.16188464 0.14806613 0.19416736 -0.4779475 -0.2516229 -0.1383117 -0.9029094 -0.05624344 -0.44627762 0.014259218 0.12862176 -0.5413617 0.46952176 -0.0027628934 0.41497073 -0.019068843 0.4847231 0.6942608 0.27586344 0.22028886 0.90148 0.6042325 0.12501201 -0.07131037 0.1820074 0.14731628
system -0.2173469 0.5818556 0.14170013 -0.018526167 0.19604078 -0.39393482 0.105106525 0.9101833 -0.19383799 0.023881074 -0.0720352 -0.5341202 0.106933676 0.046198774 -0.030176371 -0.18796271 0.025518931 -0.2761386 -0.060921315 -0.53530467 0.03793903 0.14002511 -0.0033019518 -0.3401731 -0.12499386 0.14917317 -0.05323384 -0.36429635 -0.4991131 -0.11099717 0.33480304 0.1265127 0.09950113 -0.07579345 -0.22181633 0.3859711 -0.2612653 -0.39580673 -0.39841032 -0.66189224 -0.17934072 -0.16018528 -0.37091452 -0.08681683 0.21444647 -0.14223844 -0.20608926 -0.20790753 -0.10497464 0.026867561 0.3420373 -0.50201404 -0.38991174 0.14939418 -0.5491669 -0.0093913805 0.18092681 -0.17533162 -0.41223532 0.08145662 0.17008682 0.18986897 -0.080664754 -0.04380942 -0.4772924 0.4662606 0.20987487 0.27333653 -0.48395026 0.333466 -0.21242067 0.2708498 0.40879 -0.19629923 0.23278822 0.27127317 0.09306206 -0.21451469 -0.4587526 -0.0058220816 -0.56112945 -0.051428474 -0.44245523 0.3422544 0.07358622 -0.12591243 0.1708071 0.27356604 0.32342535 -0.12646423 0.3839618 0.44422087 0.12713937 0.17399824 0.77068365 0.47422236 0.22891207 -0.384532 0.22493517 -0.07933943
state -0.044051986 0.39541206 0.6553093 -0.38194415 -0.2614522 -0.7267708 0.044918165 0.3144028 -0.67725176 0.091278 -0.5910482 -0.6474504 0.047146026 0.49390256 0.15319681 -0.2596894 -0.31984258 -0.486688 -0.04942994 -1.5707681 0.6874556 0.11904735 0.3738591 0.4026805 -0.71994865 0.352882 -0.6057605 0.0409243 -0.74056035 -0.042214897 0.35618803 0.057841722 0.14876482 0.047244653 0.039746117 0.37064067 0.11280323 0.017199475 -0.07606768 -1.0016638 -0.008649299 -0.36482695 -0.51607597 -0.021407988 0.54824233 -0.12858915 0.061004095 0.24822672 -0.44885936 0.55356073 0.15043847 0.05108314 -0.07166648 -0.21198677 0.17785305 0.13560799 -0.0019109356 0.06781059 -0.6020755 -0.13628757 0.47395015 -0.06809503 0.09447555 -0.06482409 -0.06874696 -0.23534739 -0.2787218 0.72762394 -0.36955908 0.92476976 -0.09168317 0.07799369 0.094471335 0.027564079 0.057225175 0.71624064 -0.6051667 0.33069345 -0.7687204 -0.36940092 0.6286109 0.028956203 -0.6607632 0.7594399 -0.22644241 0.21994638 0.2313192 0.78853047 0.75805837 0.114357166 0.9222847 -0.3577793 -0.46548095 0.5624207 -0.023257872 0.35149547 0.13942648 -0.49731487 -0.07946859 -0.9871033
dynam -0.22188972 0.62149316 0.12744372 0.030811919 0.16659337 -0.3929706 0.15015645 0.93374234 -0.11914205 -0.115359925 -0.023060432 -0.5301277 0.068518475 0.0666861 0.025356477 -0.16873649 -0.034363482 -0.28751376 -0.085338816 -0.47635135 0.08153199 0.14947975 -0.05208727 -0.3361888 -0.105766185 0.2162661 -0.09337742 -0.40685013 -0.34287092 -0.07467683 0.307109 0.04194616 0.18379433 -0.14953801 -0.23058403 0.39668533 -0.22792062 -0.36911204 -0.4180211 -0.57837206 -0.09031964 -0.07184121 -0.32214373 -0.17468894 0.27983677 -0.099087596 -0.2433274 -0.17238134 -0.05486031 0.04559684 0.3023548 -0.5726749 -0.41188553 0.114285 -0.45723462 0.039591834 0.14234485 -0.16143431 -0.34688804 0.09488804 0.12631229 0.16735077 -0.047353946 -0.024995781 -0.47541848 0.4885334 0.18812573 0.3395705 -0.4790353 0.39004037 -0.22362052 0.1739685 0.4424634 -0.15191515 0.20498313 0.23560545 0.081472434 -0.25350532 -0.40238187 -0.049648657 -0.5637454 0.014070114 -0.45217037 0.36623213 0.07720505 -0.17688866 0.24686737 0.19264114 0.25924358 -0.09960107 0.40216488 0.3964455 0.052501436 0.10983034 0.66497487 0.4728801 0.2941308 -0.3617397 0.18388057 0.014026991
challeng -0.28815213 0.42541516 0.18028022 -0.07191456 0.11863792 -0.5967137 0.31320983 0.93310255 -0.27723908 -0.044965625 0.03036486 -0.5725327 -0.13734382 0.12497763 -0.055341072 -0.23931843 0.05274004 -0.28987816 0.050791692 -0.5278682 0.32005283 0.17503433 0.014136878 -0.08601753 -0.16501108 0.1120705 0.076611154 -0.3326183 -0.27090842 0.0802078 0.41809478 0.019061934 0.43012443 -0.41218823 -0.24440694 0.4351348 0.09932048 -0.19872652 -0.2420285 -0.52720547 0.051686466 -0.29170978 -0.25478926 -0.18676722 0.37365767 -0.067957774 -0.32698983 -0.015986042 0.010536405 -0.08920941 0.3047581 -0.5923093 -0.33600542 -0.1500868 -0.3575615 -0.0836005 0.17247127 -0.08250286 -0.38745925 0.15774553 0.18613751 0.0812869 -0.13152274 0.0102493325 -0.6073038 0.5406175 0.14106946 0.39673436 -0.5912731 0.5953136 -0.31660044 0.05997052 0.45460632 -0.055913642 0.29003575 0.19377226 0.03885527 -0.18063104 -0.37491053 -0.05848127 -0.26623827 0.032585595 -0.6325153 0.306687 0.022647852 -0.08681824 0.20308927 0.16268736 0.38165733 -0.083917424 0.6698203 0.32158643 0.07534753 0.09453707 0.5872595 0.338604 0.334434 -0.2906674 0.2045808 -0.14116764
while -0.13944738 0.44319412 0.47101378 -0.07001575 0.036560174 -0.48639584 0.042706084 0.90943956 -0.4393909 -0.035345346 -0.1390826 -0.42130172 0.048798326 0.10741996 0.06018551 -0.2175737 -0.043646928 -0.18505831 -0.11365225 -0.9836553 0.19274008 0.19243416 -0.08000185 -0.18162599 -0.26164356 0.20720719 -0.30933136 -0.28183657 -0.3869739 0.024089493 0.13112381 0.084617525 0.042619362 -0.13046035 -0.06848597 0.5208617 -0.1361737 -0.4244791 -0.15397048 -0.7120987 -0.00932401 -0.43385157 -0.16682948 -0.20931132 0.3213028 -0.48139897 -0.17803796 -0.18708932 -0.00015900799 0.19020408 0.2619655 -0.21695969 -0.23258515 0.12273545 -0.33808511 -0.054233707 0.1890921 -0.031187594 -0.46900856 0.027927201 0.17671527 0.12717013 -0.16715753 -0.00750656 -0.33145866 0.22279465 0.01261493 0.34287092 -0.33706316 0.13171007 -0.19708782 0.09860465 0.117927626 -0.24731882 0.35266316 0.3986307 -0.047528885 0.20909286 -0.34785476 0.04479057 -0.018398125 0.16296193 -0.37365264 0.6678953 -0.07400174 0.018591855 0.15376449 0.48237494 0.4595806 0.016141191 0.43905964 0.20612814 0.14294364 0.03656034 0.75438046 0.5003399 0.1570959 -0.47953945 0.13745125 -0.12270986
novel -0.36084157 0.56598127 -0.003947977 -0.19702628 0.34119788 -0.4855691 0.682554 0.8538976 -0.20933226 -0.105542116 0.05039965 -0.8667439 -0.33399907 0.19057357 -0.02730299 -0.30985698 0.095145606 -0.2078886 0.20187043 -0.2522535 0.3946625 0.23006609 0.08029402 -0.14613338 -0.15375897 0.2557403 0.36545098 -0.43257582 -0.016006282 0.08772394 0.65721387 -0.17020439 0.69145 -0.5872859 -0.42581192 0.48669502 0.33032733 0.1308303 -0.43496424 -0.30515906 0.049411174 -0.09099745 -0.31323236 -0.16638821 0.36975834 0.4456416 -0.47592753 0.25090218 0.0645051 -0.43847096 0.1820349 -1.2305791 -0.6262417 -0.3917748 -0.18067221 -0.1388403 0.2732246 -0.24588051 -0.25367305 0.10286806 0.008447378 0.12447255 -0.24873355 0.09289381 -0.77588093 1.0690261 0.20500445 0.4669645 -0.76151067 0.99143165 -0.47530147 0.013488342 1.0346133 0.119439654 0.14208773 -0.012760688 0.12288008 -0.6554713 -0.3972799 -0.21669878 -0.6217832 -0.18051572 -0.81743044 -0.047729857 0.35009703 -0.48282528 0.46933606 -0.25708935 0.20926273 -0.2588628 0.93139654 0.4771761 -0.16457003 0.031525727 0.49058142 0.2938496 0.49992487 0.04963373 0.12295732 0.09541102
provid -0.31927142 0.35983837 0.29547364 -0.1455157 -0.009434267 -0.6238154 0.28033108 0.7272356 -0.3195526 -0.16663136 -0.23686852 -0.6547397 -0.22124869 0.09422062 -0.09940912 -0.2885814 -0.058894735 -0.38759574 0.121737406 -0.67131335 0.2432965 0.22604787 0.032566287 0.092316076 -0.3487837 0.18429808 -0.14110567 -0.334372 -0.42894477 0.08639582 0.41564834 -0.037160274 0.26115224 -0.29254562 -0.24730092 0.5881346 0.06746625 -0.19318631 -0.0782449 -0.6264305 0.06781608 -0.3113211 -0.28181848 -0.1214371 0.60512674 -0.0017003822 -0.2391832 -0.023345383 -0.016605433 0.08503387 0.24038126 -0.30423838 -0.11972805 -0.026440367 -0.31292155 0.114721105 0.19202662 -0.15057963 -0.48598537 0.20018074 0.2836059 0.073951684 -0.11644755 -0.10877984 -0.4745038 0.40773258 -0.07080153 0.31767958 -0.5028882 0.7036977 -0.11407179 0.16790433 0.42366573 -0.099495865 0.27420515 0.32585472 -0.08569005 0.042607814 -0.34465727 -0.09055897 -0.13567309 0.06535939 -0.6659791 0.40258867 0.105945654 0.0539015 0.09847794 0.52257156 0.5483388 0.021392478 0.6281323 0.18131107 -0.013706034 0.21320336 0.3243211 0.28035548 0.2872426 -0.51401836 0.18085824 -0.3309507
have -0.31975585 0.70290834 0.42286816 0.011502902 0.08349315 -0.43669182 0.20634736 0.8668303 -0.47346303 -0.15193756 -0.1853988 -0.39250374 0.24387535 0.043183465 0.14064395 -0.3564182 0.12194384 -0.10855233 -0.33047158 -0.9504905 0.1370317 0.116811454 -0.036842924 -0.39482766 -0.34450516 0.30707112 -0.29424614 -0.5834103 -0.33099404 0.13867196 0.10759209 0.11896558 0.15222143 -0.10654374 -0.079309404 0.6148716 -0.12197866 -0.39075533 -0.16436079 -0.6448666 -0.0134163285 -0.2372422 -0.008335547 -0.1989633 0.12814863 -0.42883638 -0.21691701 -0.25668353 0.12918733 -0.1971689 0.17220876 -0.54355925 -0.44591632 -0.007133138 -0.15483014 -0.1690628 0.2080943 -0.13917181 -0.52887386 -0.0029583743 0.07387575 0.028094616 -0.20404732 0.11445808 -0.21188273 0.5766429 0.11387918 0.25140247 -0.531783 0.12090383 -0.17868808 0.1430096 0.4201274 -0.26844102 0.44268328 0.34497982 0.0866568 -0.041342307 -0.3776142 -0.035904117 -0.30525964 0.15335965 -0.30329564 0.5627248 0.04248204 -0.28542128 0.34040394 0.27484277 0.5301829 -0.02798541 0.74393666 0.403666 0.34498116 0.009002329 1.045248 0.41061354 0.014857563 -0.16173497 0.20619869 0.12659115
has -0.31267828 0.6509445 0.29871988 0.025253681 0.14395417 -0.41884765 0.10586695 0.94962144 -0.35219985 -0.0813116 -0.11199404 -0.36079988 0.21883748 0.061955966 0.116278954 -0.3242185 0.093362786 -0.033837844 -0.2710004 -0.73451793 0.05600837 -0.0050649606 -0.027883222 -0.4774556 -0.25747254 0.2409964 -0.21472995 -0.52652174 -0.43338493 0.05721766 0.118617274 0.1856816 0.12245846 -0.10060828 -0.036110055 0.4453731 -0.2042527 -0.35748443 -0.23106411 -0.6100522 -0.025447054 -0.14472346 -0.09238588 -0.20882164 0.07343776 -0.41190562 -0.1993591 -0.2527103 0.13811351 -0.1999518 0.2521227 -0.5726996 -0.40574145 0.052629836 -0.3288516 -0.17208539 0.2360004 -0.15148975 -0.47769713 0.1176663 0.097616844 0.105531655 -0.20926793 0.15677883 -0.28515077 0.58898884 0.18368284 0.19432178 -0.494646 0.0862541 -0.18743509 0.19549127 0.4388452 -0.28484887 0.4265931 0.30955794 0.1953512 -0.121564806 -0.3923126 -0.018219475 -0.4379273 0.1365397 -0.33432132 0.4055814 -0.046224296 -0.2591424 0.24126065 0.25734133 0.49042472 -0.07994078 0.65052146 0.47444698 0.38065505 -0.014595644 1.143682 0.47508675 0.054114223 -0.2403523 0.22373281 0.11304999
inform -0.19636567 0.5433709 0.15138517 0.022378827 0.14400098 -0.42224464 0.25063652 0.86720186 -0.18339261 -0.19730397 -0.07545399 -0.52275825 0.06436979 0.06087583 0.023824792 -0.15272082 -0.1178772 -0.25701514 -0.04572372 -0.5556991 0.17594862 0.19296496 -0.1282327 -0.16763258 -0.1669998 0.2758517 -0.092908375 -0.39068666 -0.31131402 0.019491427 0.2954272 -0.024664706 0.17780745 -0.14281507 -0.1856182 0.53716654 -0.24547574 -0.37169167 -0.37850857 -0.63131845 -0.028353315 -0.0012665271 -0.29170573 -0.15853316 0.39373353 -0.18626623 -0.23251957 -0.14859082 -0.07838988 0.077687845 0.26446524 -0.43293336 -0.37744287 0.09186412 -0.41939646 0.1589402 0.18111181 -0.08870223 -0.3205378 0.11833757 0.13539548 0.09815638 -0.063306645 -0.089654244 -0.5588322 0.40928152 0.029916573 0.35164335 -0.503616 0.3882365 -0.27272773 0.21689114 0.33391923 -0.20040317 0.28186798 0.26186225 0.006185816 -0.11281894 -0.5349109 -0.031078827 -0.49895078 0.03305084 -0.4160865 0.5083175 0.07781217 -0.04820127 0.13244215 0.28674057 0.35273978 -0.10261818 0.41790098 0.3606636 0.039351724 0.19454128 0.5796902 0.3911489 0.32583946 -0.54760253 0.2391481 0.04619832
transform -0.120951205 0.7239081 0.39683253 -0.06618755 0.13939084 -0.43708992 0.20398447 0.8041878 -0.3561639 -0.23704948 -0.038076334 -0.44366 0.1678097 0.0696547 0.072372876 -0.20979434 0.13762715 -0.06832333 -0.2540739 -0.8884536 0.18120946 0.13012137 -0.13248365 -0.30654702 -0.18529408 0.21564735 -0.28373858 -0.37428913 -0.21720926 0.060089767 0.17956914 0.032737795 0.1603144 -0.25309387 -0.15893063 0.6121373 -0.01862573 -0.4519269 -0.19300593 -0.6570327 0.010152661 -0.2796201 0.04771983 -0.19083376 0.15811433 -0.36178645 -0.28331715 -0.2145528 -0.00677505 0.034548115 0.18040504 -0.40026182 -0.43209597 0.069500946 -0.15593068 -0.0057111564 0.26113188 -0.03988642 -0.45260787 -0.017066555 0.077036224 -0.0021469935 -0.24190892 0.093744196 -0.22148205 0.50500035 0.14982797 0.30813727 -0.4613061 0.11247091 -0.28283906 0.06401217 0.24781574 -0.20852692 0.43421504 0.33764684 0.14082642 -0.0135409115 -0.3450588 0.09726674 -0.31567207 0.23141019 -0.26847214 0.62060285 0.047698673 -0.18629804 0.33302557 0.2641881 0.2725298 -0.043268234 0.62496614 0.33262372 0.26522115 -0.03631201 0.86014843 0.48955223 0.17493142 -0.22623749 0.17539449 0.1401449
howev -0.1962214 0.50974625 0.33232114 -0.028694388 0.051194802 -0.4562117 0.080218576 0.9081084 -0.35917452 -0.09722146 -0.115347356 -0.40617365 0.057378296 0.076388665 0.031084832 -0.22721888 0.022173876 -0.17351945 -0.15956038 -0.87026584 0.13273206 0.14591967 -0.030527446 -0.21162403 -0.22855459 0.17580898 -0.27695516 -0.32475466 -0.41940874 0.066294335 0.16715485 0.07460607 0.027546993 -0.15706919 -0.12171845 0.5080557 -0.11729281 -0.4369833 -0.15812594 -0.6700015 -0.027057467 -0.33159527 -0.15335391 -0.1987476 0.3044825 -0.402499 -0.23564152 -0.18741706 0.0075720074 0.13141651 0.29784516 -0.2950784 -0.25480172 0.07886205 -0.36711827 -0.070526406 0.18341887 -0.054356504 -0.4574923 0.049238726 0.18330222 0.09321828 -0.11204114 0.04027051 -0.34667054 0.28817657 0.104521714 0.3347737 -0.40901852 0.17261328 -0.17579344 0.13389556 0.22014855 -0.22089104 0.31752813 0.3411782 0.017951138 0.07613046 -0.37898964 -0.016187895 -0.15365364 0.13860434 -0.40301389 0.5846639 -0.04761531 -0.037147753 0.2028208 0.41381434 0.4641993 0.019095186 0.49269173 0.30378497 0.22015044 0.08721155 0.7925727 0.4650359 0.15438806 -0.41761264 0.21118629 -0.09537171
experi -0.4285374 -0.0038645312 0.70107365 -0.19758737 -0.47182918 -0.9722036 0.30056763 0.2745119 -0.65269524 -0.21161462 -0.6251727 -0.6640871 -0.33085528 -0.17818019 -0.34162608 -0.415775 -0.056473535 -0.7464234 0.28607374 -1.2231166 0.6061877 0.3434666 0.3698649 0.82694 -0.6369585 -0.13819185 -0.43586692 -0.16774872 -0.7290463 0.34922096 0.31275985 -0.09869 0.24253623 -0.5159173 -0.27147418 0.76598734 0.3901136 -0.4293019 0.61012506 -0.67733026 0.28208762 -0.98534703 -0.12817226 0.054498855 1.125461 -0.032519024 -0.13880354 -0.3038779 0.0026195894 0.43406 0.3617289 0.5721534 0.4857792 -0.17046022 -0.07869316 0.06412398 0.095770545 -0.032893047 -0.8675336 0.35001734 0.528991 -0.07089421 -0.04168956 -0.3751822 -0.18530366 -0.038487785 -0.2488259 0.38228187 -0.29124394 1.133859 0.11038236 0.07019894 -0.03730334 -0.113373525 0.3083664 0.50595474 -0.47112653 0.7231651 -0.062382944 -0.16188385 0.64972645 0.41989544 -0.89537114 0.6678911 -0.14147042 0.48827782 -0.24186777 1.2742877 0.97735894 0.32014218 0.72411823 -0.34893653 -0.06592142 0.23207274 -0.26759157 -0.097162 0.21761605 -0.8460166 0.023918634 -1.1789058
signific -0.26635936 0.23798975 0.5742664 -0.16304635 -0.144747 -0.6543034 0.14169493 0.70585436 -0.542732 0.057355423 -0.24842864 -0.5531913 -0.13720106 0.13582139 -0.0068289223 -0.32908583 -0.05556753 -0.37464917 0.10892943 -1.0664591 0.3658084 0.24732962 0.10002165 0.23370993 -0.42263067 0.18357943 -0.2638717 -0.13533966 -0.5104677 0.15228927 0.25100636 0.033051796 0.17678908 -0.20772967 -0.08058905 0.51346797 0.13020322 -0.33618048 0.08942227 -0.66698736 0.023532923 -0.6362397 -0.17910804 -0.12582971 0.56430274 -0.2794907 -0.14869548 -0.07529038 -0.034929883 0.18346612 0.3012026 -0.025204705 -0.010432007 -0.083477095 -0.19512276 -0.0933181 0.19159286 -0.09498832 -0.5455549 0.06446175 0.24867742 0.054386742 -0.1708745 -0.12300486 -0.31281704 0.13708794 -0.15810825 0.38328207 -0.32153565 0.5089652 -0.10774763 0.07545513 0.12637773 -0.13575637 0.2882089 0.49665233 -0.20561762 0.39415258 -0.28631777 -0.076042876 0.33761317 0.17302282 -0.5413607 0.6037055 -0.033927437 0.19833866 0.05855692 0.6943899 0.6545897 0.12000309 0.6929711 -0.010070953 -0.08807188 0.13275164 0.38414705 0.33973047 0.16249456 -0.4688162 0.08225728 -0.5146156
exist -0.2359818 0.3403787 0.43260425 -0.19580087 -0.09264989 -0.55076134 0.24612853 0.653767 -0.47312194 -0.0073867175 -0.25905246 -0.578222 -0.12755272 0.11901157 0.004461962 -0.32639742 -0.053002987 -0.35874864 0.03158188 -0.9781986 0.33221167 0.26384577 0.11691442 0.12789035 -0.40585637 0.26439482 -0.27063832 -0.24377654 -0.39817062 0.14972936 0.2885571 0.012062233 0.18006499 -0.17555186 -0.0979888 0.540362 0.14286095 -0.24344419 -0.04741213 -0.64722466 -0.011963592 -0.48759615 -0.21493848 -0.11407362 0.47057256 -0.2028626 -0.17894156 -0.024921142 -0.02059049 0.12527816 0.20507766 -0.24275897 -0.094879225 -0.090967394 -0.20523821 -0.106112376 0.17782623 -0.0991976 -0.44086593 0.041462276 0.23074475 0.025833366 -0.04837749 -0.07627434 -0.32249647 0.24048714 -0.092526406 0.40793195 -0.43796346 0.54897183 -0.12614064 0.09334882 0.27457407 -0.12996636 0.1956424 0.36815315 -0.16731365 0.19171472 -0.36695492 -0.07632873 0.14195532 0.08275386 -0.5423278 0.4946819 0.02155785 -0.047515634 0.18373005 0.55884916 0.56983495 0.11221646 0.71136546 0.08420008 -0.098540746 0.10626596 0.3923561 0.2873477 0.2362274 -0.39858046 0.13824028 -0.38133878
structur -0.2377886 0.5816528 0.2374024 0.01275108 0.17901821 -0.43516123 0.2753961 0.8987817 -0.31019902 -0.20030811 -0.033470187 -0.5633955 0.05829292 0.08039289 0.07827427 -0.23591763 -0.051493667 -0.24926324 -0.0403012 -0.65737414 0.18298382 0.24635704 -0.13930012 -0.25613895 -0.22282644 0.2899217 -0.05423944 -0.4161671 -0.21656848 0.031501796 0.28591895 -0.0041349055 0.21720326 -0.1747339 -0.26398262 0.57364404 -0.1747497 -0.33459997 -0.37993532 -0.60659766 0.0050272825 -0.10971966 -0.23921908 -0.17063886 0.34957993 -0.18539947 -0.2551498 -0.14693819 -0.027681641 0.023642033 0.1665854 -0.5669944 -0.4283979 0.0037114974 -0.31278104 0.035216987 0.14787613 -0.09829268 -0.33272377 0.02029427 0.0841937 0.13785757 -0.11928668 -0.04577598 -0.5047719 0.51889056 0.066152595 0.36181915 -0.50498915 0.3451257 -0.30569357 0.16599014 0.45998624 -0.17704906 0.30326277 0.2766471 0.03626974 -0.16635598 -0.4366766 -0.07159029 -0.42865863 0.010199918 -0.44741425 0.4998657 0.17405279 -0.19511211 0.283575 0.17701644 0.36327192 -0.12155365 0.47805128 0.3861676 0.027631758 0.14784381 0.65818435 0.44327083 0.29277605 -0.38623175 0.24794282 0.11826912
represent -0.19832146 0.7357861 0.094001755 0.037517 0.20811766 -0.3324757 0.23588167 0.75071883 -0.20896168 -0.24720412 -0.009718019 -0.5319068 0.17102961 0.09884173 0.101246834 -0.16642924 -0.09528798 -0.23703933 -0.1651928 -0.5941741 0.062382065 0.16065395 -0.09780269 -0.2607938 -0.16415566 0.30823907 -0.12843435 -0.43399525 -0.30867124 -0.0061306255 0.27559137 -0.04894867 0.18200973 -0.054536045 -0.19807215 0.48420244 -0.30366078 -0.3535798 -0.3848387 -0.6322087 -0.08100922 0.087637186 -0.236663 -0.107677974 0.2449266 -0.147082 -0.17138185 -0.16689813 -0.09441611 0.061401147 0.15494722 -0.5332039 -0.4370454 0.11350064 -0.2880374 0.120575346 0.16315691 -0.10900827 -0.24442583 -0.0062756827 0.094973475 0.079002775 -0.028759204 -0.06678643 -0.47439167 0.4821319 0.07524023 0.3922202 -0.52119434 0.4034365 -0.21619546 0.18801698 0.43787226 -0.12216429 0.20440403 0.24701524 0.014469496 -0.20766693 -0.51877296 -0.06571406 -0.58085644 0.017433379 -0.36191857 0.45212352 0.14272156 -0.25630057 0.28058025 0.16089918 0.3495384 -0.0870505 0.43667385 0.3628354 0.016691502 0.23855473 0.61242354 0.44064954 0.30579314 -0.37336925 0.20530394 0.11577238
across -0.2154928 0.25262025 0.40774038 -0.06512967 -0.13820651 -0.73139614 0.11057616 0.6698942 -0.45012543 -0.17189153 -0.32239226 -0.473775 -0.04404761 -0.0031900783 -0.09035242 -0.24310364 -0.026144657 -0.36227545 -0.05387253 -0.96826315 0.3755624 0.18112357 0.075144604 0.25468937 -0.33490965 0.011224813 -0.35736918 -0.16091846 -0.54411274 0.20933543 0.1672079 0.017400008 0.055884313 -0.2798963 -0.12497828 0.59819144 0.034712914 -0.49233878 0.1428424 -0.69298667 0.08493955 -0.48856086 -0.13257782 -0.12047603 0.592652 -0.24083248 -0.105979644 -0.28583258 -0.02130086 0.3551222 0.43172836 0.1715599 0.11570731 0.035802856 -0.3010675 0.07754621 0.20859046 -0.013012229 -0.594833 0.2505586 0.34354252 -0.0240026 -0.14445119 -0.21655658 -0.26087192 0.1258432 -0.11633162 0.3390136 -0.3018853 0.53859425 -0.089883365 0.051450092 -0.026668286 -0.19744554 0.2883939 0.38434246 -0.16522926 0.37847468 -0.31071547 -0.05541112 0.14334004 0.30011532 -0.5204344 0.6165085 -0.12847549 0.2902862 -0.049618673 0.8383181 0.67336166 0.13042592 0.59293896 -0.031804178 0.074961916 0.19413643 0.34463084 0.28655457 0.21316484 -0.7272671 0.16003057 -0.6201544
deep -0.40125263 1.0968115 0.05622994 0.1450078 0.42744356 -0.095288135 0.37227798 0.7322817 -0.30620047 -0.27234212 0.12482128 -0.671283 0.44671252 0.19876204 0.3059593 -0.25453085 0.009534766 -0.2665452 -0.38604456 -0.5942251 -0.19108914 0.21183622 -0.15121308 -0.51540935 -0.21942584 0.66484284 -0.12640047 -0.6252588 -0.19243607 0.011869181 0.31948224 -0.038938463 0.20174485 0.13503464 -0.36385983 0.615523 -0.38813338 -0.37736484 -0.5610242 -0.66177446 -0.38665658 0.31660095 -0.18437888 -0.0102867745 -0.082543015 -0.07907246 -0.21154949 -0.10835889 -0.09678771 -0.30344224 -0.123666756 -1.127978 -0.803091 -0.03233413 -0.03743152 -0.10712537 0.18081476 -0.17674983 -0.1759043 -0.3161681 -0.14417313 0.0072391843 0.11384538 0.07396253 -0.59041154 0.85845274 0.19493942 0.44008198 -0.6422406 0.41662666 -0.16190277 0.29111326 0.869099 -0.06859461 0.10303262 0.20163924 -0.004160275 -0.55631435 -0.48759323 -0.25278145 -0.8989609 -0.20255849 -0.23385742 0.3496714 0.46888506 -0.7475117 0.66936463 -0.2575044 0.3613318 -0.12440505 0.5893471 0.72294265 -0.069085136 0.29297236 0.81270266 0.4817119 0.23940764 0.07179216 0.30585864 0.47593576
both -0.30937943 0.34951073 0.40045497 -0.077732176 -0.08008888 -0.6430341 0.16782893 0.7350124 -0.4000325 -0.13555944 -0.20355724 -0.5412665 -0.04359489 -0.007505851 -0.09998418 -0.2742432 -0.017404245 -0.41404834 0.09238777 -0.8732814 0.30014798 0.24337704 0.043048125 0.122906186 -0.35494986 0.10906816 -0.20474885 -0.23531851 -0.44182757 0.1326969 0.2670836 -0.014522082 0.16111863 -0.28652748 -0.21224865 0.57835835 0.029618591 -0.4419301 -0.008480574 -0.6460311 0.05893049 -0.43894437 -0.2198681 -0.1525875 0.6126296 -0.2063087 -0.19875227 -0.21009384 -0.0012503644 0.20657822 0.30813825 -0.13238755 -0.06210558 0.022304388 -0.28146183 0.023212831 0.1522192 -0.06498715 -0.52351415 0.1476253 0.2570963 0.07177949 -0.08404277 -0.13600202 -0.39076212 0.27178392 -0.0220635 0.36947143 -0.38776886 0.59051126 -0.12250258 0.1462232 0.2174803 -0.16711605 0.2601438 0.40561143 -0.10014763 0.1798146 -0.3087155 -0.09343457 -0.0012542745 0.17614964 -0.5934789 0.5748404 -0.029184515 0.07908759 0.046847265 0.616356 0.55563056 0.102283806 0.52366245 0.14122596 0.011895192 0.15240029 0.38757992 0.30462888 0.2854516 -0.5763195 0.17882295 -0.40160176
estim -0.26168063 0.32049647 0.24327144 -0.105847344 0.09044481 -0.46979824 0.28479433 0.81622696 -0.33618265 -0.04723511 -0.08292543 -0.6236313 -0.16569084 0.12165966 -0.014754693 -0.22716428 -0.124076664 -0.32609972 0.13579293 -0.63168937 0.21304631 0.28690773 -0.073372334 -0.025817454 -0.29682803 0.28844586 0.007778368 -0.32202244 -0.29339465 0.034279488 0.36546174 -0.05211553 0.26076946 -0.24914475 -0.17243041 0.510967 -0.06190354 -0.21846652 -0.26948532 -0.5939699 0.057339024 -0.24520478 -0.32929042 -0.15966412 0.47276703 -0.08691977 -0.24870972 0.041747753 -0.007093403 0.054866336 0.21419786 -0.4982383 -0.23440829 -0.02071336 -0.35325754 0.051932942 0.16261628 -0.08441832 -0.36049926 0.09419417 0.108705066 0.17897536 -0.09616019 -0.06442876 -0.5347743 0.40291616 -0.044102043 0.37426844 -0.41758028 0.52749616 -0.23123124 0.16609418 0.42463124 -0.13187885 0.2545872 0.24957232 -0.05958343 -0.02447902 -0.3818728 -0.10111331 -0.22116892 -0.04497658 -0.5511985 0.37613893 0.10277661 -0.06397719 0.14836575 0.32462516 0.4510126 -0.018771559 0.49496123 0.2843721 -0.11817638 0.1645066 0.41702756 0.33102027 0.3204949 -0.49889365 0.19842143 -0.09848655
it -0.27635503 0.32116932 0.4338191 -0.10863384 -0.0370383 -0.6052014 0.16286366 0.82153636 -0.43619207 -0.04401327 -0.20120108 -0.58460456 -0.0934904 0.06981218 -0.042902764 -0.28995016 -0.07640136 -0.3714743 0.07247997 -0.8746971 0.2834699 0.23649938 -0.024671264 0.07758211 -0.36502692 0.18001197 -0.17436576 -0.24056323 -0.4731246 0.09430533 0.30979466 0.0038789767 0.16915539 -0.25108004 -0.18022181 0.54595715 -0.0033503687 -0.38926205 -0.08090169 -0.6966824 0.04472644 -0.4658868 -0.27547166 -0.18589729 0.5757263 -0.24405444 -0.1649442 -0.12246435 -0.026092013 0.21005419 0.32929426 -0.22704451 -0.10783969 0.0070594 -0.37949467 0.030229097 0.15162817 -0.089218125 -0.5377428 0.12059242 0.2388985 0.14660932 -0.12971704 -0.12716135 -0.41872296 0.2647718 -0.056543138 0.37423694 -0.4115199 0.5163989 -0.14008877 0.16424833 0.24295786 -0.20700093 0.33867475 0.4099246 -0.13372158 0.20410381 -0.35414773 -0.05776908 0.016849766 0.10142966 -0.589071 0.5796035 -0.037154958 0.1134001 0.025590908 0.5973764 0.59648216 0.07175974 0.5725877 0.15487461 0.00047082725 0.1374489 0.480401 0.3468834 0.26227888 -0.6172598 0.17534831 -0.35562703
achiev -0.22858645 0.28396103 0.6447406 -0.24272269 -0.22899638 -0.71468943 0.19882353 0.58815897 -0.6656552 -0.0031399378 -0.41447696 -0.6326166 -0.11514111 0.14126402 -0.028390795 -0.33025566 -0.12946233 -0.4791892 0.055436686 -1.3172791 0.41282326 0.35918444 0.11408089 0.346044 -0.5517071 0.26860937 -0.427243 -0.165485 -0.5235696 0.1861441 0.21350566 -0.0024146114 0.09453096 -0.13248402 -0.07286914 0.58795494 0.13523544 -0.34778473 0.15748908 -0.8063326 0.020092005 -0.66723347 -0.18668726 -0.096579656 0.6621737 -0.26083407 -0.11136702 -0.0656281 -0.07809367 0.31634545 0.21570058 0.026248554 0.07410601 -0.05922784 -0.094127774 -0.010764456 0.17365111 -0.0118678445 -0.6082307 0.036473516 0.29515454 -0.012548698 -0.09020078 -0.20737024 -0.2195105 0.04963188 -0.26777935 0.4689005 -0.36730573 0.6430122 -0.03364002 0.08299914 0.11456098 -0.15158641 0.23280254 0.5730655 -0.3497581 0.5069163 -0.34954423 -0.13068832 0.44586524 0.19611607 -0.5686407 0.6995237 -0.014816406 0.14726327 0.10738791 0.8651077 0.7452699 0.19156379 0.73422474 -0.11833612 -0.22597866 0.2297773 0.23513964 0.2355686 0.21580654 -0.58785594 0.04827941 -0.6201993
more -0.21386288 0.38822934 0.30915493 -0.08140956 0.06686503 -0.46190235 0.14318395 0.85694396 -0.31445172 -0.03919802 -0.13375959 -0.4876197 -0.08297271 0.08099664 -0.015510805 -0.25030413 -0.04756991 -0.22377488 0.035951078 -0.7083285 0.16347489 0.18558377 -0.08077326 -0.094497405 -0.22053225 0.17672695 -0.16234744 -0.3023163 -0.40738297 0.036304764 0.25545415 0.05008468 0.1492076 -0.22696564 -0.11579011 0.49101907 -0.069374725 -0.3370216 -0.16930734 -0.61117804 0.050225336 -0.32150394 -0.27243617 -0.18694772 0.40872726 -0.2244821 -0.20785277 -0.050244376 0.0043393723 0.09813234 0.29585755 -0.31014782 -0.22774212 0.07800235 -0.4105265 0.030580277 0.19519472 -0.05608121 -0.4093812 0.13091664 0.20821042 0.16186915 -0.16386712 -0.039802086 -0.41482508 0.29519978 0.0076635536 0.29362142 -0.3964282 0.31252313 -0.16985744 0.16463222 0.25579384 -0.19194725 0.34341657 0.3072811 0.005217185 0.06186453 -0.371603 -0.0060163103 -0.18672761 0.09367702 -0.4713926 0.43349552 0.0027251816 0.01629594 0.08158652 0.43167698 0.44071883 -0.019492071 0.49048215 0.24887949 0.08490121 0.112393 0.6002812 0.41461405 0.24738275 -0.50740993 0.15911447 -0.14844407
domain -0.10819656 0.5226798 0.2020563 -0.01497438 0.0754851 -0.50582695 0.09390566 0.9159257 -0.14735101 -0.14891045 -0.10237091 -0.38139457 0.03326826 0.012478836 -0.055521242 -0.1209668 0.046900522 -0.15483715 -0.15828444 -0.6632045 0.20874687 0.07038901 0.0019525985 -0.17852053 -0.1100313 0.05892528 -0.17295998 -0.24640462 -0.4005703 0.06724159 0.24589753 0.0323523 0.14949615 -0.30826095 -0.135358 0.5204273 -0.06640674 -0.44726095 -0.156364 -0.6262201 0.024773696 -0.20672053 -0.1505196 -0.18302198 0.33665895 -0.2712523 -0.21250978 -0.27745628 -0.007814822 0.14636125 0.41585025 -0.16932082 -0.2915896 0.15892214 -0.46562308 0.08511836 0.25525823 -0.045093127 -0.43813613 0.21173441 0.22191706 0.053279124 -0.19134362 0.022057185 -0.355839 0.34314737 0.14113721 0.2710197 -0.4261618 0.24844874 -0.24595074 0.09004736 0.10604681 -0.16219105 0.33037564 0.24387796 0.08424147 0.0035608786 -0.39887333 0.07268606 -0.33473808 0.22007623 -0.36873686 0.49603862 -0.08153068 0.109030746 0.10301482 0.45072323 0.33188018 -0.047903027 0.48867086 0.27914646 0.29616475 0.05917186 0.7324736 0.4337133 0.21402454 -0.53243244 0.20987305 -0.132095
address -0.35619235 0.4768115 0.08149944 -0.14294447 0.26139286 -0.5192589 0.48099023 0.91428924 -0.15561473 -0.1307131 0.06575733 -0.6310396 -0.30893257 0.106496416 -0.012684415 -0.25886056 0.0675024 -0.2578728 0.23135017 -0.318255 0.40288925 0.16007987 0.03659842 -0.09003255 -0.11176261 0.10732387 0.23232846 -0.32143167 -0.20010103 0.058967337 0.46650586 -0.06312384 0.53499806 -0.53393185 -0.32400906 0.4586392 0.2840098 -0.06528144 -0.3285494 -0.30282363 0.04530662 -0.17977169 -0.2287318 -0.19862214 0.45779753 0.20495836 -0.38119203 0.17363904 0.06837277 -0.24580479 0.27004728 -0.7814161 -0.4671182 -0.25317714 -0.30163538 -0.13756162 0.24475187 -0.18451583 -0.32007515 0.093107104 0.10514677 0.16340636 -0.21836801 0.083315425 -0.67462003 0.8061013 0.14896755 0.3387911 -0.60227764 0.75093335 -0.41207847 0.062389832 0.6642105 0.011033067 0.21713088 0.08945603 0.085740976 -0.3840134 -0.3236982 -0.14790188 -0.3873991 -0.044640124 -0.73973936 0.1266285 0.2545228 -0.11944331 0.32424754 -0.03287504 0.28303757 -0.16093983 0.7638455 0.371255 -0.07287521 0.04714923 0.51095676 0.35920194 0.36144087 -0.17376617 0.16910592 -0.081282586
paper -0.29794982 0.4968181 0.066641 -0.20425475 0.23492567 -0.58013374 0.5253449 0.8472321 -0.16709805 -0.116462775 0.015367018 -0.68681824 -0.35501415 0.12242367 -0.032476243 -0.2646099 0.08225543 -0.20765701 0.21193092 -0.30863917 0.3787585 0.186831 0.0610422 -0.08105775 -0.15844092 0.16171703 0.2463727 -0.41723755 -0.091349535 0.10063366 0.5716191 -0.09447717 0.5708446 -0.5602198 -0.38062447 0.50026643 0.30735528 0.060513303 -0.3284875 -0.3471502 0.106067404 -0.17284027 -0.23921229 -0.20017487 0.39195156 0.26769885 -0.43411615 0.16790164 0.08935695 -0.3065402 0.21009712 -0.90908194 -0.5029679 -0.30196086 -0.2661946 -0.089035146 0.21386258 -0.19665658 -0.3313059 0.13094082 0.13520934 0.12368337 -0.25207168 0.08076385 -0.59821725 0.8826499 0.18392524 0.34160846 -0.6868888 0.79431635 -0.40458348 0.030589024 0.74502987 0.04975092 0.21762997 0.09005307 0.08270694 -0.40785936 -0.31632823 -0.13477401 -0.4298255 -0.09399862 -0.75591016 0.103345454 0.25001132 -0.24341117 0.37116554 -0.0775659 0.24849805 -0.18983364 0.8237372 0.37426916 -0.029594583 0.011861075 0.4618581 0.23763429 0.41629383 -0.084247544 0.10475684 0.009508909
differ -0.17994937 0.378819 0.31411165 -0.012691615 0.047466952 -0.54536426 0.07887853 0.82852995 -0.25309902 -0.15517153 -0.16838732 -0.3943036 0.008923509 0.0076326663 -0.02873197 -0.18662126 -0.045432407 -0.2631649 -0.09660257 -0.7389872 0.21182923 0.1754536 -0.052008685 -0.036290012 -0.21927042 0.13631332 -0.21484949 -0.23770022 -0.36289898 0.10015824 0.19851393 0.01241704 0.10999993 -0.24833219 -0.16636916 0.5747351 -0.092832915 -0.41777304 -0.11699788 -0.60752296 0.04255659 -0.27758372 -0.16968259 -0.18662266 0.4213522 -0.28831485 -0.17524531 -0.2468129 0.01832785 0.23386772 0.2997132 -0.15156144 -0.18853295 0.14082643 -0.33378595 0.11381014 0.19020306 -0.030606406 -0.45716435 0.16444185 0.17146017 0.06784996 -0.14568876 -0.07243631 -0.3465653 0.25405592 0.033403248 0.25458017 -0.3390224 0.3093013 -0.19908784 0.12199779 0.11421863 -0.1761819 0.3091419 0.325974 0.0014650727 0.10892617 -0.35219863 -0.006958152 -0.14955212 0.18292265 -0.40522584 0.5371103 -0.08860668 0.090743214 0.037345193 0.5404689 0.43712804 0.04740113 0.4388296 0.20490965 0.13731937 0.11849966 0.53543997 0.36955652 0.2251375 -0.5572061 0.17439975 -0.2005949
enhanc -0.22326496 0.48045826 0.43917534 -0.104789674 0.05976528 -0.52648044 0.17523558 0.78355557 -0.41552752 -0.085666604 -0.1572836 -0.5162651 0.055404697 0.082336314 0.03928154 -0.2889638 0.040692214 -0.22973299 -0.06848681 -0.9119123 0.2353072 0.21179925 -0.07032706 -0.115425356 -0.27385023 0.22439435 -0.24590793 -0.27266142 -0.3270915 0.07521631 0.21788964 0.033324756 0.141912 -0.21800297 -0.16390684 0.56095386 0.03687324 -0.38172323 -0.08199741 -0.6465128 -0.026397957 -0.4263709 -0.1312953 -0.20068848 0.3550259 -0.28583062 -0.18687397 -0.1515189 0.007988016 0.069364436 0.21196802 -0.29791927 -0.25122777 0.006533832 -0.20873114 -0.06124106 0.22683923 -0.049102176 -0.49676117 0.06653152 0.17461324 0.039379217 -0.17839715 -0.05825139 -0.2979845 0.38174954 -0.00044083377 0.31178284 -0.42129505 0.36245507 -0.16545707 0.083339214 0.26686862 -0.18340608 0.33291176 0.35497937 -0.025036765 0.121633336 -0.307657 0.0025561904 -0.080289796 0.1239315 -0.4415039 0.53417087 0.0150131695 -0.060523853 0.18863828 0.43349645 0.45510685 0.005519915 0.61039686 0.1946472 0.11319172 0.045509465 0.6226124 0.37753442 0.21422933 -0.35044605 0.1225046 -0.14431949
evalu -0.3056376 0.25903195 0.4763105 -0.21213655 -0.17936847 -0.76631874 0.19927981 0.6503086 -0.4250647 -0.11761566 -0.36944836 -0.5533634 -0.24977581 0.009104399 -0.17456646 -0.32117197 0.01962111 -0.40550786 0.13458613 -0.9717545 0.40795314 0.24350066 0.17452133 0.30186972 -0.4153517 -0.010977877 -0.2752715 -0.22983694 -0.5061765 0.20911199 0.32463738 -0.04272812 0.17492841 -0.41618994 -0.22047883 0.6002932 0.2597425 -0.3130556 0.19744238 -0.6411602 0.13531534 -0.65244 -0.1577008 -0.13025899 0.69164586 -0.10306568 -0.24453185 -0.14103533 0.058609568 0.20634726 0.33247358 0.042845808 0.0800493 -0.091769576 -0.19777592 -0.0058920686 0.1985975 -0.083144166 -0.63965625 0.20848496 0.34756923 0.01192451 -0.16818003 -0.116387695 -0.3003299 0.2584385 -0.023068115 0.32778567 -0.39993823 0.7539895 -0.058825247 0.030035846 0.17171006 -0.09796401 0.29761395 0.3933755 -0.12624826 0.30625552 -0.23211193 -0.053109042 0.21621674 0.24702801 -0.69762814 0.527258 -0.07857407 0.18160807 0.03095687 0.76765007 0.64656043 0.13419457 0.68615896 0.0032252523 0.07269007 0.095749766 0.2716184 0.1956954 0.23912059 -0.5351037 0.07815779 -0.61276096
studi -0.32066283 0.46939254 0.28063002 -0.13429804 0.05904629 -0.6004129 0.28540063 0.8121502 -0.3202888 -0.1287142 -0.1501979 -0.55487216 -0.15527532 0.09932904 -0.056804877 -0.2982671 0.060936056 -0.25426778 0.01221501 -0.69243187 0.23562196 0.1386349 0.046997532 -0.050249007 -0.28400713 0.14779319 -0.100447156 -0.38438377 -0.3472437 0.12212209 0.4002316 0.016369047 0.27998093 -0.36501956 -0.24276748 0.5624668 0.10460555 -0.2202226 -0.10071245 -0.5600497 0.07256187 -0.3441834 -0.1776712 -0.16074422 0.43983746 -0.081309184 -0.27723372 -0.08069465 0.046418253 -0.053656623 0.22729044 -0.44450477 -0.26813936 -0.08243473 -0.26011163 -0.04445389 0.19170308 -0.15751141 -0.52276176 0.12986858 0.20601252 0.052714057 -0.19282244 0.018052114 -0.42441145 0.53450847 0.11124031 0.27208924 -0.5042842 0.58252287 -0.17536816 0.0950812 0.44847846 -0.09454506 0.30391434 0.28585052 -0.0009203784 -0.06105114 -0.28921652 -0.04896361 -0.18912941 0.08033153 -0.59085 0.3679615 0.097750545 -0.052221738 0.1787931 0.3633511 0.5061367 -0.025631849 0.7171282 0.26206544 0.13431196 0.0727068 0.548035 0.31373262 0.20388782 -0.32819244 0.15468949 -0.17053181
adapt -0.15646076 0.477118 0.27239466 -0.09809181 0.11327634 -0.46798253 0.15087594 0.8546007 -0.24083544 -0.11785097 -0.080030635 -0.4469879 -0.023343278 0.069538094 -0.042243026 -0.16062464 0.034201115 -0.14027716 -0.11628659 -0.6961855 0.16102785 0.13529587 -0.043484703 -0.16756019 -0.19635332 0.16522442 -0.15502936 -0.2977248 -0.33603984 0.0666645 0.2669356 0.018858552 0.16782293 -0.31176856 -0.15127082 0.5232233 -0.036033254 -0.34407377 -0.18502386 -0.5908527 0.04255238 -0.2792295 -0.16589317 -0.21230705 0.3271168 -0.23258905 -0.21128562 -0.1383195 0.020998022 0.0741171 0.32528204 -0.34511217 -0.2778537 0.08391821 -0.36820078 0.0072796457 0.21046333 -0.06669008 -0.4320957 0.139549 0.17490484 0.08177533 -0.18810156 0.049163457 -0.3489957 0.38692623 0.13244593 0.26774815 -0.39921898 0.28039378 -0.24465641 0.10329885 0.24338958 -0.1871958 0.34373823 0.27030936 0.06369095 -0.020802299 -0.33957922 0.022115357 -0.26881903 0.13654386 -0.43591684 0.45309535 -0.018631065 -0.023608727 0.16992997 0.3723008 0.33853996 -0.033619404 0.50713634 0.2941042 0.22210225 0.066434495 0.68902963 0.40404966 0.20757897 -0.43112376 0.15950228 -0.07063563
scale -0.021496512 0.7550633 0.5062266 -0.017024893 -0.024803521 -0.45833215 -0.015115495 0.7737126 -0.36331794 -0.12957573 -0.30063418 -0.21921144 0.1874511 0.00771118 -0.13225971 -0.08345179 0.25971502 0.037789993 -0.44317594 -1.198867 0.08466965 0.18445225 -0.08798567 -0.41853023 -0.22590776 0.14062603 -0.5275661 -0.41812706 -0.24090715 0.16233866 0.15875274 0.1049012 0.0075330366 -0.26876083 -0.19333796 0.7127894 0.1033041 -0.5121666 0.039756414 -0.74599355 -0.026130635 -0.59226763 0.22499205 -0.28794825 0.052723914 -0.5789898 -0.30312756 -0.38495946 0.06415103 -0.013757137 0.18270436 -0.17203578 -0.41112268 0.09489598 -0.0686907 -0.11285203 0.18308456 -0.059252065 -0.7768866 -0.032295164 0.28332168 -0.07081735 -0.22252895 0.19503282 0.11036588 0.3140792 0.306503 0.1280514 -0.5035524 -0.13178188 -0.26162493 -0.14496876 -0.052571192 -0.23800765 0.55111516 0.3832725 -0.025585841 0.1901359 -0.18723163 0.19115634 0.011444676 0.38831684 -0.22148085 0.7736778 -0.1550405 -0.17470506 0.42293084 0.4615517 0.24721557 0.050291836 0.53034353 0.24449031 0.64060557 -0.18846133 0.92667186 0.33916244 -0.06426464 -0.05535845 0.08098298 0.117692664
robust -0.25622538 0.3986654 0.27715054 -0.11280935 0.03351009 -0.49409175 0.21956548 0.7199961 -0.3381952 -0.078493305 -0.19019017 -0.6043289 -0.064359434 0.12579314 -0.050637983 -0.26055202 -0.078032695 -0.31369153 0.05176569 -0.71106035 0.23033352 0.17416614 0.032594915 0.048719786 -0.2993555 0.24106689 -0.114892796 -0.28401646 -0.4168156 0.08554775 0.33498228 -0.013496443 0.20298916 -0.17579617 -0.1569684 0.51304424 -0.020574708 -0.2914557 -0.14494444 -0.6404939 -0.016144874 -0.24240066 -0.29762837 -0.12518732 0.45861802 -0.12414348 -0.15362799 -0.047986444 -0.048414715 0.087735586 0.24805647 -0.32932895 -0.16095223 -0.000138932 -0.30336285 0.08991033 0.19946024 -0.097452536 -0.40958846 0.11611349 0.21195881 0.05421065 -0.07559661 -0.1175632 -0.47017756 0.3255128 -0.0917212 0.36300847 -0.45963413 0.5731705 -0.13250333 0.18017115 0.31249523 -0.14212108 0.22219552 0.31554034 -0.122663945 0.08648418 -0.38834223 -0.08231306 -0.13612966 0.0322328 -0.5393467 0.43308586 0.05785231 0.009763537 0.101514205 0.44775146 0.505711 0.028999418 0.5715036 0.18937594 -0.036940556 0.2157218 0.42234823 0.3125706 0.28691632 -0.5198019 0.16140407 -0.24456283
compar -0.24543265 0.1989947 0.6046364 -0.26586664 -0.22429265 -0.71319324 0.19893588 0.62931037 -0.6119986 0.029817486 -0.37986746 -0.64037496 -0.19705752 0.14637165 -0.044589378 -0.34704232 -0.13277592 -0.44543928 0.15176328 -1.2526013 0.45888692 0.33940765 0.14573817 0.3850664 -0.55172104 0.23096615 -0.3864528 -0.15416805 -0.517931 0.17659433 0.22960022 -0.028164903 0.10606209 -0.17467356 -0.046782896 0.5441954 0.17883165 -0.30443168 0.18776576 -0.76833665 0.05828811 -0.68864304 -0.21532786 -0.10619273 0.6650515 -0.23876446 -0.12919967 -0.016839724 -0.034119565 0.33150938 0.26162013 0.06384438 0.1354106 -0.06139199 -0.13025743 -0.034390897 0.20689733 -0.000905751 -0.58104825 0.096127085 0.30204523 0.029474348 -0.10591551 -0.19877124 -0.2791661 0.030335758 -0.28439054 0.48260927 -0.34731254 0.64351887 -0.063722186 0.06989854 0.1066438 -0.1620568 0.23620881 0.51528674 -0.32099146 0.51497096 -0.36970317 -0.10620658 0.46466926 0.21591282 -0.6049972 0.6401048 -0.057853825 0.18089117 0.028420767 0.856889 0.74287343 0.18809965 0.7186721 -0.12774208 -0.18639156 0.21281415 0.2589662 0.25667644 0.23623212 -0.6038604 0.045507457 -0.67702454
two -0.33483708 0.41488212 0.22292937 -0.07901686 0.14012352 -0.53012854 0.3626961 0.8047179 -0.30110726 -0.15133189 -0.09461059 -0.635414 -0.11978419 0.087491885 -0.041969784 -0.2540542 -0.052575536 -0.32709646 0.116609976 -0.57450134 0.2983675 0.22113702 -0.003470652 0.0016620134 -0.24332665 0.19225125 0.014743543 -0.3487761 -0.27691704 0.0769475 0.38365778 -0.047990076 0.31604868 -0.33778536 -0.24815816 0.5548236 0.03303361 -0.22817355 -0.20761842 -0.54303795 0.03420903 -0.22525986 -0.26205143 -0.14753987 0.50900775 -0.006280204 -0.2743053 -0.0006002984 0.010030266 -0.009924633 0.2661202 -0.49993277 -0.27275556 -0.06710761 -0.31153253 0.0018722307 0.1680415 -0.13273987 -0.4026045 0.12724958 0.117640294 0.12768102 -0.09642943 -0.057714086 -0.6022377 0.5160203 0.030639179 0.39850157 -0.48423803 0.67207444 -0.2520785 0.16093963 0.49659973 -0.103919424 0.24225834 0.22573437 -0.024799176 -0.16200064 -0.38941887 -0.10906882 -0.29768962 -0.005432091 -0.61270696 0.35261738 0.15052024 -0.104207255 0.19015199 0.3035274 0.4540441 -0.02652569 0.60317093 0.31747484 -0.06260443 0.16487351 0.43939522 0.31892273 0.3389338 -0.4325612 0.20517942 -0.15695709
layer -0.30575132 0.69766605 0.19794394 0.038843002 0.29349476 -0.3142079 0.39317614 0.80863893 -0.31164756 -0.23549552 -0.0109453825 -0.6001029 0.19684948 0.14348267 0.14362271 -0.24532712 -0.10548589 -0.24096507 -0.17777766 -0.6518432 0.1840745 0.3483747 -0.26521617 -0.258241 -0.24953273 0.44442746 -0.070398755 -0.53191596 -0.118526146 0.0508379 0.26309028 -0.04355174 0.22655761 -0.12619883 -0.2657186 0.6792719 -0.3362554 -0.35894454 -0.43304348 -0.6679897 -0.07013038 0.099082574 -0.17891674 -0.13157222 0.21670377 -0.18624839 -0.24561018 -0.07728558 -0.06812238 -0.055241108 0.09250902 -0.7242967 -0.5184125 0.025039408 -0.22084619 0.17172882 0.14886801 -0.029727178 -0.27122948 -0.038292743 -0.063584454 0.08699404 -0.056918304 -0.093184635 -0.6011192 0.5664808 -0.07105157 0.4228762 -0.49675232 0.33218005 -0.32468677 0.21988422 0.49527776 -0.21277447 0.23456185 0.25535205 -0.025869733 -0.20990805 -0.5477376 -0.13938513 -0.6067778 -0.05893095 -0.33940458 0.5277822 0.26676083 -0.28440985 0.34829944 0.11485968 0.38971037 -0.13010652 0.5354054 0.47112843 -0.09018157 0.19708307 0.5922091 0.37528998 0.34575567 -0.3586308 0.29925582 0.26890725
applic -0.3294928 0.4218909 0.2120935 0.009831474 0.03979625 -0.5901782 0.1316256 0.8108552 -0.25047866 -0.091705434 -0.13681234 -0.50236183 -0.0060093533 -0.0041089905 -0.107523814 -0.23395017 0.06739638 -0.33994538 -0.0083861975 -0.6414535 0.21048926 0.15043607 0.085250914 -0.010410535 -0.18121894 0.01568288 -0.08587471 -0.27237242 -0.52281576 0.09060328 0.32653517 0.020723639 0.17862514 -0.29810837 -0.25032598 0.47470087 0.020858515 -0.48706946 -0.11989183 -0.56364936 -0.03948577 -0.38248563 -0.26251656 -0.1369279 0.49042124 -0.18592204 -0.24650964 -0.24469586 0.018778583 0.078099154 0.40977728 -0.2383606 -0.1698064 0.017248552 -0.49143317 -0.02343416 0.15413643 -0.15589981 -0.49624145 0.15431263 0.27930796 0.087622166 -0.06804092 -0.050956152 -0.5115426 0.4457991 0.18797831 0.30922997 -0.48793837 0.56911707 -0.12930934 0.1840853 0.3013709 -0.13924739 0.22058757 0.31626534 0.036154494 -0.018452028 -0.304576 -0.06684678 -0.24932745 0.08655265 -0.5637362 0.4316094 -0.018497866 0.0699688 0.02902036 0.40500045 0.47522092 0.0062505878 0.4818514 0.31884462 0.2073035 0.09816911 0.52659994 0.3366931 0.27210963 -0.47373682 0.23771381 -0.32096043
between -0.17296462 0.455723 0.2671444 -0.025549263 0.094410904 -0.5020626 0.16306567 0.96009415 -0.26071474 -0.13238682 -0.101278126 -0.494956 -0.009139722 0.061300185 -0.018621659 -0.18304408 -0.10308402 -0.24119802 -0.004121291 -0.70399547 0.20144187 0.20555708 -0.12548015 -0.1672081 -0.2256484 0.21854453 -0.11432171 -0.32054812 -0.3498462 0.0223222 0.27603447 0.06614019 0.1565275 -0.20352231 -0.15521796 0.54382133 -0.18160078 -0.3812776 -0.2910798 -0.6751928 0.06502184 -0.1736703 -0.2744603 -0.257809 0.42629018 -0.26000968 -0.25771555 -0.12616937 -0.020332728 0.1463853 0.27717003 -0.38583583 -0.28106377 0.10677109 -0.42726797 0.107064694 0.15903714 -0.052418627 -0.39629102 0.1375746 0.19081533 0.15756176 -0.15201639 -0.05391499 -0.468993 0.3749988 0.05068034 0.3054451 -0.44699472 0.3280481 -0.270886 0.15320894 0.26588067 -0.24251205 0.35536 0.28459877 0.013671082 -0.032854456 -0.44656104 0.00063109153 -0.30049393 0.09559483 -0.47272605 0.52486926 0.031343516 -0.00082493987 0.13687077 0.39859378 0.4305026 -0.057690687 0.45911577 0.30272886 0.06378702 0.16194542 0.63060033 0.41389576 0.2777842 -0.60088134 0.22085235 -0.047723465
through -0.31169748 0.35085785 0.38576654 -0.11472072 -0.095008135 -0.66682726 0.2587778 0.67113286 -0.39082134 -0.15268086 -0.25765365 -0.5844561 -0.09830588 -0.022077305 -0.15893388 -0.29403085 -0.029905561 -0.4410422 0.110051356 -0.8257384 0.32061422 0.22344226 0.07972099 0.15502441 -0.38088644 0.090297975 -0.2196578 -0.2922692 -0.4193022 0.13864604 0.31030062 -0.045835335 0.20817694 -0.29222813 -0.23686585 0.6133548 0.09010312 -0.37789294 0.051679287 -0.61967224 0.090050206 -0.44595873 -0.20049286 -0.09676267 0.6479877 -0.10355016 -0.18372464 -0.18089141 0.020112151 0.17461632 0.30590436 -0.12450158 -0.038112827 -0.027295345 -0.24614932 0.053437177 0.18386367 -0.10497283 -0.566574 0.18806104 0.2850869 0.029974913 -0.08152758 -0.14948231 -0.37323943 0.30510822 -0.04536159 0.32833853 -0.39543098 0.6786836 -0.105197735 0.11176908 0.24665558 -0.13460992 0.2803455 0.34924155 -0.120574 0.15719667 -0.30687585 -0.07030558 -0.039452802 0.18721674 -0.64845294 0.54076046 0.035360526 0.079194225 0.062307477 0.640592 0.5999524 0.092257835 0.57196194 0.11937939 0.021000149 0.14454935 0.33385733 0.24396937 0.24808082 -0.58175427 0.16926867 -0.43655226
