2401 100
we -0.053190906 0.25914997 0.06016606 0.15943353 0.0873632 -0.57381034 0.41193172 0.704735 -0.29502437 -0.2694833 -0.09841714 -0.37082297 -0.24740739 -0.0931394 -0.18916145 0.12579529 0.17959271 -0.5746732 -0.2467202 -0.77135825 0.22854751 0.2863858 0.34599218 -0.09079285 -0.12296943 -0.0062925853 -0.27491638 -0.10470103 -0.3348958 0.23701534 0.41534528 -0.022068938 0.3423306 -0.3090284 -0.033753235 0.3204223 0.043110088 -0.30302203 -0.09235061 -0.8780197 -0.12012151 -0.26051837 -0.25799742 -0.031148657 0.3671025 -0.37202725 -0.4276101 0.22884122 0.3606849 0.20606388 -0.0029171796 -0.2503871 -0.06533362 0.09204164 -0.118624605 0.28106332 0.19158792 -0.20464794 -0.43275207 0.23305635 0.16454415 0.24148089 -0.20301779 -0.15662657 -0.43473527 0.20945354 0.009284145 0.33116075 -0.16962598 0.32209605 -0.12228617 0.3174877 0.36222637 -0.21362123 0.4526406 0.06917268 0.10670889 -0.07114344 -0.2445196 -0.083378166 -0.12385153 0.121232785 -0.4407022 0.6897912 -0.08271244 0.04013562 -0.012023564 0.48199698 0.40687677 0.06839975 0.52897245 0.17237368 0.06339173 0.25970298 0.61631733 0.5315338 0.025243672 -0.41385454 0.10712571 -0.042123437
logic -0.10131329 -0.0032973194 0.10574074 0.39149436 0.31642264 -0.81008875 0.16664647 0.93347 -0.112761155 -0.52018094 -0.1726693 -0.4412552 -0.2742006 0.1608119 0.025904406 0.39139503 0.074593976 -0.4315583 -0.13296543 -0.9208165 0.054781437 0.2896139 0.3945972 -0.10681154 -0.13332662 0.005153288 -0.11975486 -0.020407086 -0.46911603 0.4156465 0.5913069 -0.14315857 0.38966906 -0.21488363 -0.093034044 0.36577553 0.108808555 -0.6663739 0.07649534 -0.57564354 -0.0043778066 -0.42199242 -0.23095012 0.021442965 0.68952984 -0.23795336 -0.18325657 -0.12704779 0.33608297 0.1661223 0.23548946 -0.39520672 -0.32563898 -0.013926954 0.07627058 0.43521467 0.3271528 0.00907915 -0.34201288 0.37557384 -0.31755435 0.29826263 -0.20005128 -0.04914803 -0.43983424 0.23014644 0.17045812 0.20691815 -0.22993763 0.75351053 -0.29750666 -0.11046936 0.35227567 -0.25181925 0.37588742 -0.04371092 -0.09010618 -0.009570151 -0.25506482 -0.03840783 -0.0120848585 0.25896603 -0.3858754 0.68136656 0.06326507 0.09310627 -0.10502459 0.5040494 0.44834724 0.010984113 0.39229977 0.04035494 0.040195104 0.25538045 0.5293354 0.55560356 0.3257817 -0.18100542 0.013749947 -0.06667941
model -0.30103517 0.55312437 -0.012297518 0.04700586 0.38146755 -0.38153958 0.19685811 0.6790887 -0.18477976 -0.20901962 -0.21842463 -0.38917825 -0.039773986 0.12699465 0.00901386 -0.21312533 0.17048994 -0.3513041 -0.10904104 -0.7160681 0.19603732 0.040116116 -0.017762603 -0.21421805 0.0029338212 -0.19138621 -0.054354317 -0.08508864 -0.31016332 0.070206136 0.34853053 0.0897488 0.047014263 -0.117540464 -0.17857967 0.54504657 0.025066007 -0.4371088 -0.20485565 -0.68376845 -0.019994842 -0.1877705 0.01504548 0.09170113 0.21765201 -0.11262046 -0.47658607 -0.14747095 0.22742842 -0.041318435 0.07938003 -0.35672677 -0.17445526 0.07442334 -0.37122115 0.34965503 0.30682483 -0.23325802 -0.5004291 0.08637993 0.507749 0.24342614 0.108156554 -0.12954158 -0.5090206 0.20494325 0.32716638 0.40573463 -0.32365867 0.38088894 -0.27822918 0.21852255 0.41560885 0.0089053335 0.5632902 0.432825 0.060803134 -0.0333385 -0.3310166 -0.061281506 -0.19346254 0.1383573 -0.38914633 0.5255317 -0.16874732 0.07644958 0.06848746 0.26790914 0.69674665 0.023128005 0.37607655 0.20072079 -0.028876133 0.051577527 0.38158074 0.5128571 0.2191596 -0.6096607 0.4929439 0.023061836
system -0.18614784 0.34460887 0.016597034 0.091848366 0.35390308 -0.52144575 0.24489518 0.77938545 -0.111895606 -0.3165096 -0.24439222 -0.41771498 -0.060502775 -0.066973105 0.00551571 0.032190077 0.10068654 -0.48729023 -0.054521192 -0.68304414 0.14731947 0.15885979 0.16399483 -0.051090587 -0.12046927 0.045022164 -0.20031786 -0.15365075 -0.29296046 0.25620732 0.43909574 0.11690684 0.092558116 -0.18305011 -0.06477188 0.45295468 -0.08305442 -0.45780742 -0.19772582 -0.75096023 0.011660923 -0.2076127 -0.07962348 -0.025546245 0.31822208 -0.27491242 -0.3987686 0.021008741 0.25518036 0.095780216 0.14791617 -0.37163815 -0.2715249 -0.04906351 -0.2182166 0.3590492 0.18526149 -0.15128969 -0.4525957 0.098109916 0.17437395 0.27327117 -0.094942905 -0.13609174 -0.4790462 0.13703442 0.17387289 0.252457 -0.16152419 0.38247773 -0.16818893 0.14159065 0.33576447 -0.1326975 0.44844887 0.20477596 0.055722266 -0.09807037 -0.29967037 0.021651115 -0.17227113 0.1699256 -0.3817278 0.5878816 -0.117493935 0.11303531 -0.00074543996 0.61145675 0.5090398 -0.12086271 0.3860672 0.14566636 -0.0113292495 0.23885307 0.47978324 0.43348357 0.2571379 -0.5486644 0.22252364 -0.050213937
use -0.1757162 0.4045169 0.00939912 0.0484774 0.2890011 -0.47547236 0.29229432 0.6966017 -0.20628291 -0.27300954 -0.22370662 -0.3907674 -0.12258143 -0.011781075 -0.053997252 -0.046228845 0.099882334 -0.44754148 -0.056559473 -0.68413806 0.16974525 0.118844435 0.1550357 -0.11003672 -0.0919238 -0.03164994 -0.18780686 -0.14526585 -0.29237285 0.19348048 0.4430015 0.109427154 0.12568226 -0.19910452 -0.0718018 0.43086737 -0.053147584 -0.34739402 -0.15756498 -0.80930454 0.0024537626 -0.23503605 -0.08922753 -0.002555151 0.24038586 -0.2840853 -0.40023196 0.0035780922 0.27718693 0.054035414 0.108491875 -0.34825513 -0.14448552 0.018419936 -0.24149857 0.32352957 0.19730215 -0.19417566 -0.47398847 0.12792914 0.32841966 0.22098418 -0.034098804 -0.12978093 -0.47675598 0.15155107 0.18378086 0.3142502 -0.21259463 0.38886306 -0.21677582 0.19789505 0.3802585 -0.05267246 0.51138824 0.22663237 0.03661032 -0.04827796 -0.2574943 -0.025728287 -0.1647902 0.14615162 -0.4025837 0.5662876 -0.12788542 0.06364854 0.047834996 0.47572684 0.52955246 -0.062447608 0.45219466 0.1594917 -0.012546943 0.15018566 0.45970067 0.43992084 0.20944276 -0.54337007 0.26633286 -0.04046402
our -0.10685748 0.449473 0.03233009 -0.09006098 0.17989272 -0.42464057 0.44137895 0.63259405 -0.32007512 -0.19877833 -0.13012783 -0.37441444 -0.1927522 -0.12620056 -0.17459518 -0.115857564 0.14501508 -0.51353496 -0.13886355 -0.6674791 0.22943494 0.10262757 0.24303728 -0.1558991 -0.12530981 -0.027600111 -0.17586091 -0.19523719 -0.22131263 0.18520655 0.44950023 0.053080134 0.17455004 -0.33133504 -0.021297956 0.40668726 0.036121134 -0.1619313 -0.18637337 -0.951391 0.014050661 -0.28497157 -0.13090596 -0.08603892 0.0731565 -0.39365923 -0.43471488 0.16664068 0.2755494 0.06249776 0.04385774 -0.3557686 0.04592412 0.14522284 -0.2873456 0.3124709 0.23511054 -0.20854257 -0.52810866 0.12055575 0.4816236 0.2068113 -0.005637052 -0.18077035 -0.4275982 0.17377055 0.18406491 0.34505415 -0.25952694 0.24742143 -0.19416443 0.2999573 0.4652814 0.019030433 0.51937395 0.20764259 0.07344489 -0.04983495 -0.21404138 0.012785536 -0.18209942 0.12095297 -0.41809484 0.62464386 -0.15467341 0.00942918 0.04469083 0.4497015 0.5119839 -0.0228097 0.56713265 0.24862142 -0.02272979 0.085473575 0.5383139 0.4949519 0.09726351 -0.6342693 0.23912555 -0.066284746
which -0.16518457 0.31512514 -0.0038987477 0.13476548 0.29507643 -0.5486068 0.26260623 0.7520361 -0.17220347 -0.33716235 -0.23420674 -0.41687155 -0.10647308 -0.043160543 -0.05026637 0.06150342 0.097846575 -0.5061739 -0.06731106 -0.74639666 0.12941843 0.17264557 0.18348907 -0.04705325 -0.11505054 0.016269138 -0.2275982 -0.17514423 -0.30040953 0.2596478 0.4612136 0.1302695 0.10349055 -0.1844131 -0.089026265 0.41075388 -0.1353235 -0.46596822 -0.10967534 -0.83377856 0.016428452 -0.2508028 -0.087115295 -0.0058604614 0.37305596 -0.26342386 -0.42226893 -0.004623535 0.2866004 0.10081594 0.1280946 -0.3210236 -0.23827532 -0.045111258 -0.21704365 0.3446921 0.16779047 -0.15713528 -0.46917844 0.14843737 0.15939733 0.24382247 -0.12846845 -0.1208976 -0.51643395 0.14603207 0.11642947 0.23423949 -0.14347926 0.40384823 -0.20145868 0.14898984 0.32092592 -0.15851842 0.52471954 0.16621706 0.044090167 -0.07851098 -0.27947757 0.0044841887 -0.12253185 0.16136989 -0.4153693 0.6044837 -0.06693897 0.087112166 -0.01675076 0.57439333 0.51307017 -0.09236497 0.4323726 0.14226678 0.0051135877 0.23676962 0.4709693 0.43991235 0.24390113 -0.5070278 0.20428997 -0.03508745
can -0.1511604 0.36528814 0.027505847 0.08907612 0.29255572 -0.50973845 0.31680053 0.7141674 -0.18848583 -0.29789466 -0.23632865 -0.43329984 -0.09080254 -0.097960606 -0.062076084 0.008324308 0.11829962 -0.51244664 -0.09379314 -0.7356331 0.1716731 0.17992757 0.17249222 -0.10262539 -0.10345304 0.024724038 -0.20765261 -0.14639041 -0.27800858 0.2530046 0.43359196 0.13734528 0.08288237 -0.22018419 -0.06567604 0.40858093 -0.11381018 -0.40547258 -0.15882652 -0.8352535 0.022767283 -0.22137356 -0.08454699 -0.019943966 0.31425858 -0.30662224 -0.44326824 0.02919813 0.2935354 0.10189461 0.10064291 -0.31781808 -0.15724401 -0.023969736 -0.25044507 0.37816262 0.14537811 -0.13992114 -0.496683 0.1579145 0.24923468 0.23159958 -0.12748554 -0.12894195 -0.47573352 0.16257145 0.12896916 0.27517337 -0.13814536 0.33775753 -0.19511156 0.1853896 0.3416775 -0.13167623 0.5204669 0.21217184 0.09200987 -0.08971207 -0.25174832 0.0034750998 -0.18033633 0.1581988 -0.40597838 0.59853363 -0.11168482 0.097559944 0.019235764 0.56692296 0.53275853 -0.0930376 0.45681268 0.15057519 -0.015043498 0.20075062 0.4671783 0.4368978 0.20647213 -0.5310325 0.23577476 -0.033149906
program -0.20068747 0.3662796 0.03190599 0.1735669 0.35252383 -0.5018625 0.23799364 0.7179926 -0.17843649 -0.31720394 -0.2097018 -0.36537018 -0.09046215 0.060036756 0.035389934 -0.0021560483 0.102055326 -0.4145601 -0.10139837 -0.7210338 0.16307409 0.18130614 0.17257874 -0.11952862 -0.026597153 -0.05836643 -0.1737644 -0.13734482 -0.3253153 0.21076739 0.4352286 0.057580374 0.18784285 -0.15198329 -0.13259369 0.4565698 -0.024374912 -0.44811636 -0.10800001 -0.77510923 -0.057724107 -0.21265954 -0.07155746 0.0016579907 0.34382227 -0.24534486 -0.38501838 -0.047974583 0.31289944 0.046571713 0.12092892 -0.37957957 -0.23007372 0.009720883 -0.16141859 0.3271003 0.2540129 -0.17338155 -0.43264407 0.14582677 0.21209444 0.2710281 0.007680277 -0.104688965 -0.5156648 0.19692294 0.1824762 0.30437046 -0.281012 0.45081982 -0.2994704 0.13517469 0.3558929 -0.08013994 0.45197698 0.20096867 -0.025598167 -0.049256098 -0.32282016 -0.05467558 -0.10476084 0.14909106 -0.3669002 0.58884966 -0.080926664 0.08675177 0.05222502 0.44155023 0.52303815 -0.032837786 0.41823715 0.15239869 -0.015017229 0.17683703 0.48273706 0.48502338 0.1984495 -0.4758689 0.28435043 -0.04081863
theori -0.12476294 0.18265714 -0.04517561 0.3812324 0.1388464 -0.5945906 0.27857798 0.78163624 -0.19955224 -0.35961053 -0.23687622 -0.3831255 -0.17428656 -0.06842234 -0.10059506 0.1735844 0.12734 -0.6311818 -0.07594326 -0.7560946 0.015798148 0.31257498 0.14627253 -0.0078519285 -0.14325286 0.004369055 -0.46050686 -0.16216193 -0.35360822 0.3165646 0.4645953 0.0565816 0.23591825 -0.15358388 -0.16291139 0.4096877 -0.156618 -0.4609132 -0.040465448 -0.76402014 -0.003934391 -0.24127823 -0.16398607 0.10435586 0.5542827 -0.22648244 -0.40395316 0.04441512 0.37724176 0.2373039 0.119759426 -0.2523838 -0.35404772 -0.04672334 -0.1476372 0.27232385 0.17286669 -0.17587978 -0.3259929 0.19734567 0.0005193759 0.32508013 -0.106270835 -0.07997574 -0.5269883 0.10135386 -0.058249284 0.25660676 -0.10133012 0.42842996 -0.11316116 0.1968782 0.29149982 -0.28517246 0.47597143 0.026407689 -0.019110143 -0.08620111 -0.30236593 -0.07376676 -0.10194116 0.10766387 -0.5309166 0.62708855 0.06314527 0.005024281 -0.07748832 0.60267246 0.49405295 0.045820843 0.35926768 0.20494102 0.059166882 0.45625344 0.5416939 0.44801465 0.13735992 -0.29765737 0.23014902 -0.09222748
proof -0.06313358 0.28323883 0.047934327 0.0891681 0.18173869 -0.5065211 0.31964538 0.73414856 -0.20991017 -0.30501327 -0.18960641 -0.40075943 -0.13265902 -0.105322935 -0.08093431 0.059475176 0.13126352 -0.5231172 -0.091567904 -0.73622495 0.130344 0.17077841 0.19926234 -0.13126208 -0.1557047 0.040447824 -0.29561308 -0.16080283 -0.28341112 0.28040412 0.4317747 0.06648365 0.26997197 -0.21736272 -0.036869723 0.42530736 -0.036682 -0.36700594 -0.22924666 -0.8310395 -0.046992872 -0.29075226 -0.14353427 0.03840166 0.3039321 -0.39929986 -0.36510116 0.056022495 0.2742227 0.14941195 0.07482578 -0.376003 -0.21695612 0.04805669 -0.19831589 0.32601717 0.22441182 -0.19982834 -0.35397467 0.15998788 0.18659954 0.26103482 -0.091308765 -0.100647934 -0.5066518 0.19634053 0.06750691 0.26155108 -0.24928938 0.37660468 -0.14796524 0.23888163 0.41021052 -0.10780609 0.45112377 0.14402969 0.08757749 -0.14774539 -0.2852714 0.02547312 -0.097459786 0.1189016 -0.4532342 0.61319757 -0.08699845 0.0289203 -0.008175016 0.535739 0.47569147 0.034178924 0.4348629 0.16603197 0.017034227 0.24637721 0.48754263 0.49001488 0.21410953 -0.44223917 0.21225007 -0.13203795
base -0.18977977 0.42326152 0.031189509 0.044139314 0.3036598 -0.50389016 0.26665926 0.7629492 -0.18425179 -0.30491132 -0.19025123 -0.39362705 -0.118300185 0.017651178 -0.041869503 -0.06143349 0.113427155 -0.4716637 -0.09081475 -0.72009397 0.18294351 0.08559306 0.15732396 -0.16549833 -0.10525307 -0.08924813 -0.17841434 -0.14121383 -0.2858554 0.20292625 0.43779373 0.07455814 0.14117338 -0.19405647 -0.06282132 0.47759205 -0.03412225 -0.37562364 -0.1684194 -0.8577594 -0.031377062 -0.25097695 -0.08094399 -0.008649649 0.22808938 -0.28498507 -0.38643274 -0.01027193 0.25400138 0.08606286 0.1161066 -0.3650056 -0.14876458 0.05296014 -0.25594372 0.37553993 0.24957813 -0.18574171 -0.49752998 0.121636614 0.3355047 0.24234618 -0.02892049 -0.1357137 -0.5001326 0.17253023 0.23088679 0.33749184 -0.25475222 0.41663498 -0.21734321 0.18899845 0.40880573 -0.04047366 0.511409 0.2572385 0.027900102 -0.05720921 -0.28450388 -0.0003484967 -0.15921639 0.1661962 -0.3972105 0.6085954 -0.117123164 0.081304155 -0.002932026 0.47823843 0.60616684 -0.051375996 0.45999628 0.15603676 -0.041918013 0.17379737 0.47455242 0.47729698 0.21081693 -0.6106859 0.26792723 -0.044647917
from -0.20267735 0.35440508 0.012343392 0.07542311 0.30254894 -0.5291964 0.27225873 0.76843107 -0.1413564 -0.35572192 -0.2731834 -0.45286363 -0.11129137 -0.06404159 -0.06067829 0.013630135 0.105187505 -0.5042223 -0.060381338 -0.72881395 0.11723997 0.16989248 0.15005964 -0.06409968 -0.09520831 0.00052992697 -0.2099493 -0.1691479 -0.300642 0.2536189 0.46236783 0.14440379 0.08240169 -0.19877055 -0.09584122 0.42462048 -0.12152195 -0.46378586 -0.112762034 -0.8424593 0.013181363 -0.22692657 -0.078287706 -0.024254607 0.31816062 -0.3157584 -0.4059503 -0.005746584 0.25588918 0.109230496 0.16037996 -0.32384926 -0.22114167 -0.048523318 -0.24153173 0.38272527 0.16615914 -0.14536618 -0.49430293 0.16525419 0.2075642 0.22107561 -0.091307655 -0.12530477 -0.50756997 0.13472973 0.16596009 0.265584 -0.13608344 0.4133769 -0.17492144 0.16441566 0.34593502 -0.14946967 0.55214745 0.22189565 0.061234314 -0.10347498 -0.2782655 0.020936707 -0.15052293 0.1757061 -0.41577762 0.6203563 -0.08993558 0.10836045 -0.0033348135 0.5772131 0.544827 -0.11002843 0.4487622 0.1348274 0.00846237 0.19523796 0.48442712 0.44344085 0.2716525 -0.5431282 0.2504136 -0.027377738
set -0.19536236 0.34699583 -0.011557469 0.122385465 0.2853094 -0.5524672 0.2530623 0.7145376 -0.18525422 -0.33575216 -0.22146206 -0.3918001 -0.1186694 -0.09770525 -0.029803801 0.0899055 0.11357945 -0.51338285 -0.08621193 -0.75257033 0.12159103 0.20785147 0.18876018 -0.041494578 -0.077294916 0.021233534 -0.23701417 -0.17253368 -0.27031347 0.27249935 0.4480472 0.11413122 0.14569107 -0.19929264 -0.06297004 0.39230824 -0.15694064 -0.42487812 -0.092151836 -0.8513868 -0.002357762 -0.24452786 -0.09517121 -0.008526069 0.36960256 -0.31296185 -0.40792614 0.0131462775 0.3010332 0.11828428 0.13757823 -0.28638706 -0.23200595 -0.03769418 -0.21129267 0.37025717 0.16942818 -0.13930392 -0.48722818 0.20659018 0.17723855 0.24708493 -0.10884998 -0.09546107 -0.47675657 0.12534082 0.13398834 0.25865597 -0.10068167 0.3909452 -0.17904088 0.13285023 0.28896454 -0.16569716 0.53579855 0.18529178 0.035013624 -0.070996046 -0.23993167 0.0006350839 -0.1212553 0.11719115 -0.37704843 0.6142958 -0.04682904 0.102933206 -0.012411575 0.590943 0.5182775 -0.11058587 0.45930916 0.1604168 0.019647865 0.23262197 0.47580135 0.41486916 0.2458457 -0.47570097 0.18643868 -0.0048642647
problem -0.182525 0.4023062 0.0043332675 -0.012874204 0.39462528 -0.5946782 0.35371843 0.7809829 -0.14228593 -0.33800212 -0.16178192 -0.5128758 -0.12164738 -0.11080146 -0.06770774 0.08072646 0.12446749 -0.5788094 -0.12270212 -0.81231064 0.22545597 0.168809 0.23638065 -0.089561634 -0.09989061 0.07098115 -0.111857384 -0.16739646 -0.23206894 0.23213293 0.4430879 0.13946281 0.099733785 -0.2666091 -0.061493512 0.3878873 -0.040073436 -0.36091208 -0.12636448 -0.84255946 -0.016071653 -0.2754624 -0.030428175 -0.0488949 0.2600419 -0.32582852 -0.42034504 0.055404384 0.25928235 0.13784577 0.18126272 -0.30596614 -0.13146845 -0.053536244 -0.22808212 0.38868517 0.20653437 -0.09683546 -0.56390524 0.19859841 0.19893447 0.18182927 -0.12832332 -0.12849651 -0.4868522 0.17696755 0.20821331 0.22807468 -0.10468991 0.39075273 -0.21164621 0.17762175 0.36948684 -0.1822757 0.5753301 0.19306356 0.12869711 -0.070028864 -0.20238031 0.069556855 -0.20331994 0.19876537 -0.4083814 0.61874855 -0.08099658 0.14984658 -0.01754553 0.62356734 0.5496218 -0.16824421 0.5211546 0.15290368 0.08423497 0.22307272 0.5212079 0.42863584 0.29530478 -0.526247 0.17659846 -0.005295152
languag -0.3081085 0.55231476 0.03488184 0.20625772 0.31595758 -0.475987 0.12991472 0.69816226 -0.21741498 -0.19734679 -0.28667614 -0.40333793 -0.12927738 0.26949406 -0.022227222 -0.22975008 0.095688246 -0.2814721 -0.057762798 -0.76102185 0.17019846 0.08704536 -0.08117465 -0.20623437 -0.07490225 -0.24390517 -0.14472795 -0.01693695 -0.33938894 0.0074252016 0.3293508 0.036310874 0.16306101 -0.027681228 -0.2383729 0.6604783 0.10324397 -0.54521513 -0.26295394 -0.5797986 0.0505043 -0.24696374 -0.050261833 0.22194332 0.33358502 -0.035321467 -0.5349632 -0.30819544 0.32863167 -0.122134045 0.047781102 -0.500744 -0.15125626 0.17158335 -0.3809258 0.47100088 0.42434385 -0.24655066 -0.394233 0.19884525 0.57102484 0.3019118 0.0678678 -0.10843491 -0.47514552 0.14498664 0.3153605 0.47544348 -0.33578157 0.44720376 -0.3691384 0.17459626 0.5125482 -0.018829187 0.6219994 0.47617683 -0.016804677 -0.035040855 -0.34750214 -0.17593524 -0.19979106 0.14594041 -0.41426545 0.576303 -0.18518925 0.035673525 0.057005882 0.16442044 0.7260517 0.17224945 0.34107712 0.21355559 -0.09555337 -0.012582432 0.29348996 0.5422964 0.2691561 -0.48521474 0.58760786 0.09927246
paper -0.046539735 0.24140589 0.04393671 0.11862634 0.19132102 -0.5178774 0.35914916 0.7006647 -0.27391836 -0.29041454 -0.110098995 -0.39560628 -0.22767083 0.017958716 -0.17088126 0.086807184 0.11048855 -0.5651941 -0.20653738 -0.73614925 0.2584758 0.21052487 0.28773317 -0.12093962 -0.1518611 0.010908141 -0.25351527 -0.19052047 -0.32135823 0.25973877 0.45563802 -0.054646038 0.2566452 -0.2895874 -0.052151628 0.34531385 -0.0006416454 -0.2567269 -0.09604457 -0.8665917 -0.05557938 -0.3196593 -0.20568743 0.03807252 0.3186925 -0.29253086 -0.37705284 0.0643309 0.3557269 0.15751606 -0.0021453453 -0.32635665 -0.08714867 0.06814593 -0.075433195 0.2387773 0.17979512 -0.17734456 -0.39242926 0.20665137 0.20283154 0.23147623 -0.10570601 -0.123278886 -0.46920532 0.18759342 0.030810961 0.33725238 -0.1760191 0.3801198 -0.16318065 0.20385927 0.41229382 -0.13527529 0.43748516 0.0010577153 0.049254056 -0.07450484 -0.22239235 -0.057423707 -0.14931946 0.11956874 -0.48761505 0.6283255 -0.0629079 0.018369049 -0.049736384 0.42987448 0.45902264 -0.021947706 0.5207372 0.18598118 0.09822197 0.26333836 0.52430016 0.52798 0.07939534 -0.42359504 0.12376169 -0.07723266
show -0.034168597 0.339383 0.0228194 0.038271934 0.2204741 -0.5015554 0.49903747 0.6627182 -0.29914704 -0.2737799 -0.14913984 -0.43078715 -0.15773758 -0.16747546 -0.13410029 0.033647202 0.13612892 -0.589272 -0.16731304 -0.74594265 0.25366938 0.16941656 0.25385642 -0.16191237 -0.16337703 0.041731767 -0.28171715 -0.23714949 -0.21777281 0.25428334 0.46424884 0.028936062 0.15702264 -0.36480346 -0.02658178 0.3459658 -0.09652395 -0.1847561 -0.08652682 -0.9393186 0.038090188 -0.36202773 -0.11409911 -0.0011067619 0.2656364 -0.42418003 -0.41324222 0.08397311 0.30286273 0.14815965 0.078912295 -0.2358381 -0.018169457 0.0010448088 -0.12644868 0.2709943 0.15774606 -0.106684096 -0.4506709 0.1917388 0.19804451 0.1462928 -0.1453839 -0.16319586 -0.4578576 0.16087177 0.083862886 0.30877408 -0.11637419 0.27200893 -0.18011668 0.16184135 0.3828999 -0.08388379 0.5589075 0.031699136 0.10165119 -0.033547893 -0.1708917 0.07590115 -0.19624871 0.16495623 -0.48597205 0.637567 -0.0270193 0.028971331 0.0011518724 0.51026905 0.48354435 -0.101316005 0.54304796 0.18574716 0.112744994 0.16727416 0.60166276 0.49863616 0.13828562 -0.4184322 0.11787452 -0.114226624
formal -0.13695768 0.40661448 0.023632033 -0.02216647 0.28078914 -0.4006474 0.30606648 0.6697334 -0.23294722 -0.25410354 -0.1930167 -0.38909197 -0.100820534 0.014915478 -0.05126366 -0.12623346 0.13511601 -0.430809 -0.049193785 -0.6089575 0.24239886 0.07144158 0.11220958 -0.1896958 -0.0887071 -0.03240759 -0.23475976 -0.15099218 -0.24182832 0.19684906 0.4232824 0.10833348 0.13702486 -0.19290473 -0.048777435 0.45404223 -0.02997085 -0.27564237 -0.23057933 -0.88204384 -0.02489791 -0.23074159 -0.062135246 0.0222329 0.13697593 -0.28087893 -0.4053035 0.014343546 0.2783507 0.059713893 0.050403256 -0.41824156 -0.12240683 0.08840505 -0.2457721 0.35938048 0.22593759 -0.22809404 -0.41440558 0.10901691 0.4363207 0.26127195 0.010519732 -0.12201956 -0.49942988 0.18625125 0.17662913 0.328879 -0.26878628 0.33312145 -0.19374122 0.2451722 0.4749824 -0.010674225 0.5113066 0.22728434 0.049737684 -0.097218916 -0.31104368 -0.021677574 -0.1836472 0.14172564 -0.42235848 0.5717397 -0.13767675 0.038931705 0.08414645 0.4626964 0.5355072 -0.061346244 0.46483356 0.1651466 0.00460332 0.16400947 0.43901864 0.46431023 0.18702005 -0.6009794 0.2986716 -0.05968225
type -0.09889654 0.21433887 -0.01599371 0.41540363 0.13781518 -0.5477684 0.27840015 0.7667223 -0.2089711 -0.4070584 -0.23538227 -0.36411572 -0.12290636 -0.046176486 -0.046728626 0.1761122 0.16316675 -0.6189999 -0.084109046 -0.7569062 0.005107363 0.31198904 0.11789339 -0.013079014 -0.18911955 0.02787331 -0.47338423 -0.23160839 -0.36777592 0.37852558 0.43600872 0.043427028 0.21573612 -0.17423199 -0.18677276 0.42765602 -0.24897358 -0.5312754 -0.049695175 -0.8082545 0.0010246739 -0.1941361 -0.15834062 0.19144437 0.5501754 -0.21500851 -0.41783512 0.0148954885 0.4125417 0.22035913 0.08696199 -0.31232923 -0.43770844 -0.09392621 -0.12408408 0.31567603 0.18966453 -0.17931964 -0.3032958 0.17794588 -0.02615627 0.2961033 -0.13948682 -0.061369754 -0.5654851 0.1848405 -0.07615695 0.2507594 -0.15096909 0.44473267 -0.14092945 0.17462276 0.30242708 -0.3050778 0.43097657 0.06887389 -0.021373222 -0.06990442 -0.34903517 -0.112361826 -0.119575225 0.13971415 -0.5115427 0.63546884 0.075496525 0.0074417484 -0.07105613 0.59770256 0.5026123 0.013551457 0.37165615 0.20319127 -0.001767373 0.50016487 0.47647718 0.42756227 0.1149993 -0.30009204 0.25672352 -0.10162092
properti -0.12198874 0.30639347 0.028301042 0.11328376 0.30481198 -0.5313709 0.28687936 0.7305467 -0.14620368 -0.32438 -0.219216 -0.429173 -0.09824898 -0.05211931 -0.027485581 0.073956914 0.074698485 -0.47287914 -0.0939763 -0.717385 0.15816759 0.18392262 0.1836673 -0.045542445 -0.12997049 0.042407397 -0.1890026 -0.15359566 -0.27436933 0.2627456 0.45174345 0.09351002 0.14682981 -0.20540209 -0.06356442 0.3978131 -0.07277895 -0.38556924 -0.12792999 -0.7951993 0.003972333 -0.25610203 -0.124282524 -0.008478566 0.32963538 -0.33178887 -0.38423735 0.01586979 0.2878995 0.11691158 0.1461068 -0.34556678 -0.18642606 -0.04947816 -0.1668424 0.36665142 0.17429587 -0.13247843 -0.4535763 0.18095475 0.13958287 0.2408155 -0.11735733 -0.1331664 -0.49951926 0.16629289 0.12628162 0.2030413 -0.13756187 0.398942 -0.2011888 0.1271565 0.3241336 -0.16562241 0.4935485 0.16964096 0.06834559 -0.08632813 -0.25560814 0.027377158 -0.14674647 0.17415912 -0.40312755 0.57295716 -0.0888711 0.115288876 -0.0025453782 0.5821102 0.4874458 -0.08901223 0.4299797 0.121604815 0.048680678 0.22528942 0.48412248 0.41483018 0.24050353 -0.46419695 0.15696576 -0.053767633
approach -0.14886478 0.45156607 0.056004368 -0.058694065 0.28362882 -0.44313657 0.34332082 0.6628278 -0.25052607 -0.21983597 -0.12329266 -0.39688 -0.12091428 -0.04766558 -0.13515946 -0.09211277 0.16902801 -0.5217267 -0.11250865 -0.6684866 0.29183444 0.082922675 0.19182278 -0.19389866 -0.097273014 -0.025343394 -0.16357195 -0.17540604 -0.22454059 0.19173802 0.46255586 0.09161489 0.14617187 -0.2613895 -0.017092636 0.40295997 -0.02898191 -0.27804288 -0.19886225 -0.9429962 -0.017499717 -0.24327682 -0.08528074 -0.057868678 0.11351598 -0.34848052 -0.42719135 0.049655925 0.23037136 0.06960434 0.08801606 -0.33894786 -0.08903072 0.11148899 -0.2738012 0.34080607 0.21507463 -0.18306604 -0.5373531 0.12934884 0.4316109 0.22552466 -0.07383538 -0.15090467 -0.47964433 0.1739242 0.2222271 0.32775816 -0.25462207 0.3366807 -0.2126963 0.2670296 0.43952137 -0.027956102 0.55189234 0.19698699 0.10595094 -0.0697564 -0.26854077 0.03101555 -0.20332554 0.14090693 -0.3903131 0.6568488 -0.1710359 0.09486862 0.043816883 0.44728166 0.56655616 -0.05719765 0.52455395 0.1702144 -0.007368809 0.1187634 0.4688987 0.47472262 0.16124232 -0.6077707 0.23318562 -0.026472408
reason -0.20911323 0.4045973 0.062478956 0.15028836 0.36700922 -0.5337644 0.21395418 0.7999187 -0.1668909 -0.3952429 -0.2916933 -0.44158584 -0.0847521 0.073841296 0.05485715 0.0051001622 0.079166524 -0.4173077 -0.0014630338 -0.6852968 0.17203496 0.16776986 0.051834155 -0.08932041 -0.014926482 -0.003724978 -0.20745221 -0.08851285 -0.3002153 0.20226318 0.45047998 0.1509196 0.07767353 -0.18126096 -0.054248683 0.5461628 0.015833568 -0.5066825 -0.23083748 -0.7032804 0.0054917145 -0.2662069 -0.1676706 -0.039557114 0.27704337 -0.2739791 -0.42818236 -0.0500614 0.25810355 0.012791097 0.19199854 -0.45862234 -0.27488464 0.08901939 -0.21864569 0.45894337 0.20608975 -0.22083789 -0.4857773 0.1361281 0.23735866 0.27722222 0.010866582 -0.07701341 -0.462389 0.15444939 0.18068121 0.28530738 -0.23387627 0.47839588 -0.32380298 0.1310188 0.35445616 -0.10267889 0.41004664 0.31630373 -0.047258105 -0.05417328 -0.28672484 0.042498033 -0.17503697 0.1708836 -0.2982931 0.5361193 -0.16823456 0.16731796 0.09697781 0.49685842 0.6151104 -0.077111244 0.43252528 0.11467743 -0.09448426 0.15873814 0.4680001 0.44684884 0.23721491 -0.61124676 0.30200675 0.035030365
result -0.10870587 0.36716348 0.039715003 0.03959228 0.21884155 -0.5302481 0.39888874 0.7137438 -0.24817432 -0.26043016 -0.1979852 -0.4350247 -0.15091842 -0.15005654 -0.11496338 0.03738779 0.15568385 -0.60427505 -0.12336111 -0.7564804 0.22887053 0.20060496 0.22843902 -0.15397368 -0.16304342 0.05580433 -0.26577333 -0.18618664 -0.23654406 0.2356103 0.4805188 0.09012648 0.15954098 -0.30205333 -0.04066908 0.3657237 -0.040630538 -0.2888814 -0.18166113 -0.91715956 0.011235179 -0.26498225 -0.100898124 -0.051420968 0.26208615 -0.42549548 -0.43964645 0.10993261 0.31250918 0.14112294 0.08004942 -0.29158264 -0.090828754 0.05057819 -0.2563771 0.35960463 0.17408581 -0.15622126 -0.4882757 0.16503274 0.27828276 0.23989189 -0.14281097 -0.14965425 -0.48445326 0.17474201 0.1109682 0.25505543 -0.15594324 0.3278609 -0.18757676 0.25936165 0.3720006 -0.14965893 0.56794906 0.13011807 0.12814102 -0.083190225 -0.23300736 0.037593346 -0.16155921 0.13053484 -0.46280396 0.6573787 -0.10150089 0.06595444 -0.033401527 0.57070297 0.47854605 -0.036764942 0.5209264 0.16979097 0.031575397 0.18725775 0.5191111 0.48082897 0.16665201 -0.5005195 0.18723093 -0.037401404
order -0.09312747 -0.13407618 0.13677478 0.3998572 0.017986525 -0.89528406 0.30816248 0.92868173 -0.14367092 -0.649514 -0.14510137 -0.33254597 -0.36960593 0.082811475 -0.1274667 0.47679338 0.095589675 -0.33021453 -0.21918692 -0.9824277 -0.15676562 0.3121297 0.32424468 -0.020213293 -0.18455635 -0.08039603 -0.14279687 -0.15765521 -0.45242622 0.26581997 0.64052 -0.055582173 0.51050085 -0.100405425 -0.04227755 0.30265084 0.25272736 -0.82881767 0.1695691 -0.51297337 -0.101256065 -0.4748392 -0.14794566 0.03380281 0.92301387 -0.3376289 -0.06634889 -0.089410804 0.4623626 0.23471063 0.29501104 -0.15890348 -0.3894805 0.0017766333 0.11571356 0.51187396 0.3950495 0.07944412 -0.14830351 0.4955178 -0.24634567 0.2937509 -0.263279 0.03160529 -0.37353694 0.18944022 -0.06636509 0.09244428 -0.21814166 0.7967668 -0.2958572 -0.13749792 0.32844135 -0.2659979 0.40912294 -0.0640384 -0.06664102 0.036559917 -0.23973466 0.010256695 0.19168499 0.20879634 -0.47749874 0.72673804 0.22960772 0.07726175 -0.13932765 0.48537514 0.42168647 0.18842976 0.398345 -0.08967607 0.061902378 0.33229792 0.6806841 0.40379086 0.41682932 -0.08688312 0.04408136 -0.25256017
relat -0.113615096 0.26632628 0.0064901435 0.2082926 0.24874294 -0.57663983 0.3009026 0.8029115 -0.16092482 -0.35323423 -0.26117498 -0.40977392 -0.14417334 -0.083260864 -0.07151648 0.14599358 0.098382086 -0.5321354 -0.13942623 -0.8053166 0.08523177 0.23459776 0.19062902 -0.079585575 -0.14313951 0.0107395165 -0.28547195 -0.17873777 -0.32322997 0.3077894 0.46453053 0.059060823 0.17487694 -0.24073192 -0.089745 0.413721 -0.082924 -0.47400364 -0.08450089 -0.8547075 -0.021565955 -0.29755184 -0.111386694 0.027802624 0.47922748 -0.35023707 -0.4051074 0.015928447 0.3347228 0.14710651 0.10462275 -0.29153875 -0.2555805 -0.045595024 -0.14489107 0.33517042 0.16189824 -0.1428967 -0.4451955 0.20308238 0.08073301 0.2548741 -0.14671244 -0.107381724 -0.5026999 0.15422222 0.10255857 0.2407863 -0.14638376 0.42333257 -0.18844004 0.10038728 0.31968942 -0.21317115 0.507096 0.08403138 0.030423999 -0.086288 -0.25861102 0.01359425 -0.0669356 0.16084146 -0.45467418 0.63418335 -0.029691648 0.05951645 -0.044245377 0.61622936 0.4692263 -0.03885449 0.42279798 0.12068033 0.057552483 0.2498142 0.54988796 0.47903582 0.2224574 -0.40973604 0.16072291 -0.057109144
semant -0.11786263 0.22094345 0.010357969 0.24267289 0.2354874 -0.56608665 0.30015853 0.76265585 -0.22192515 -0.332273 -0.2107313 -0.38679788 -0.16381188 -0.011960878 -0.08629712 0.12647347 0.122148566 -0.5238818 -0.12290803 -0.77035403 0.12883683 0.22123955 0.2371415 -0.10398668 -0.1559011 -0.03392465 -0.2831495 -0.13241488 -0.3440329 0.29695365 0.4745348 0.022573596 0.23924978 -0.20391868 -0.095509626 0.40368098 -0.05714723 -0.43618003 -0.07120976 -0.80742776 -0.020330599 -0.3067444 -0.1673867 0.036573514 0.46567816 -0.30408418 -0.35379672 -0.0017407584 0.3656096 0.133315 0.10726002 -0.29399058 -0.22575544 -0.00020673718 -0.12545756 0.33186004 0.20403528 -0.15751174 -0.40969482 0.18976507 0.07774825 0.26274562 -0.13693054 -0.10827718 -0.50237316 0.16385534 0.08886327 0.27783322 -0.18676388 0.460126 -0.19149646 0.1117786 0.34832555 -0.1700333 0.46441916 0.061104417 0.033228576 -0.06033163 -0.27873322 -0.024557373 -0.07410062 0.16779387 -0.45326227 0.6369684 -0.033999793 0.047653925 -0.04856657 0.53032184 0.47031203 0.0017580811 0.44669056 0.12765989 0.03423779 0.24463476 0.51719284 0.49062046 0.1921586 -0.38592118 0.16870727 -0.07056855
present -0.027943617 0.29143068 0.033509072 0.10361775 0.16259241 -0.4988057 0.4394288 0.67365867 -0.28371584 -0.28524932 -0.105146386 -0.3986641 -0.21714668 -0.014077573 -0.16205616 0.026654262 0.12850146 -0.5810604 -0.21322384 -0.7047587 0.21133219 0.17699893 0.2450263 -0.14647566 -0.1688355 -0.013539574 -0.31966147 -0.20864387 -0.29226333 0.24776551 0.5054224 -0.04536418 0.26450723 -0.33122325 -0.06790857 0.3428053 -0.010435584 -0.18570916 -0.08595065 -0.91768855 -0.033182908 -0.36297 -0.17113048 0.008978872 0.28013974 -0.36574876 -0.3906148 0.08432438 0.34438902 0.16122451 0.015200544 -0.35081404 -0.071860656 0.044679172 -0.09090655 0.25934675 0.25243604 -0.13630599 -0.38701442 0.21296936 0.23199326 0.19251382 -0.059566945 -0.14145218 -0.5246751 0.16896833 0.035433188 0.3549366 -0.20784713 0.35761943 -0.18512438 0.18623796 0.44401732 -0.11520681 0.47655475 -0.014375557 -0.0034525164 -0.060046226 -0.22880179 -0.020779114 -0.1746077 0.12448336 -0.49912938 0.68130255 -0.020432888 -0.016724952 -0.032932732 0.41970757 0.5202075 -0.009797007 0.51558673 0.17093077 0.10137374 0.20292541 0.59228027 0.52914 0.13794501 -0.41784525 0.12698498 -0.14210734
comput -0.17751218 0.36590776 -0.012094391 0.100644894 0.31913143 -0.5068078 0.27018386 0.709685 -0.16509673 -0.3005713 -0.23570025 -0.41267005 -0.05914591 -0.009904851 -0.042523254 0.0021535566 0.10448068 -0.4938734 -0.052533217 -0.711543 0.18451716 0.14522943 0.15796524 -0.0625907 -0.07608802 -0.019046154 -0.19568957 -0.1628179 -0.28277227 0.22634615 0.46226186 0.13625759 0.09192773 -0.19990435 -0.10594165 0.4243889 -0.097416 -0.41195133 -0.14212796 -0.83546346 -0.007841888 -0.19867466 -0.0733396 -0.025689663 0.28871703 -0.2707121 -0.43486154 -0.019327214 0.28979826 0.087515354 0.09768596 -0.3401624 -0.1913195 -0.01994007 -0.22205919 0.34407845 0.1803855 -0.16057758 -0.509666 0.16015933 0.25403056 0.22427276 -0.08834432 -0.1310254 -0.506872 0.12657015 0.14781967 0.24908489 -0.1366874 0.39193857 -0.21004029 0.15280946 0.35041428 -0.119796716 0.514407 0.17895733 0.04532376 -0.07597368 -0.27554184 -0.0035817816 -0.16404907 0.13708158 -0.4105238 0.5913784 -0.12267998 0.08095938 0.005156279 0.53881335 0.52868295 -0.11779307 0.43807796 0.16401726 0.0015083919 0.18978547 0.43051565 0.42000577 0.20995425 -0.57058847 0.262465 -0.019662745
proc -0.22527699 0.39196458 -0.008153717 0.025698885 0.37864003 -0.49407732 0.261665 0.74121064 -0.17669667 -0.28489876 -0.22564106 -0.4537302 -0.048169482 -0.01929537 -0.034664012 -0.048533034 0.1103693 -0.5635227 -0.10167279 -0.7286789 0.20907494 0.13284127 0.11842426 -0.10322357 -0.057288732 0.019627897 -0.17735547 -0.1566716 -0.27882427 0.20105566 0.41962785 0.15941782 0.04271059 -0.19835469 -0.07080178 0.43743235 -0.06312422 -0.4125192 -0.15207507 -0.8205009 -0.029696338 -0.23591162 -0.021049865 -0.021084521 0.24729724 -0.27994123 -0.46745983 0.047628503 0.23049872 0.07385283 0.12889014 -0.33946964 -0.18451844 -0.003472857 -0.2646594 0.34407708 0.2188335 -0.15461497 -0.49886844 0.113104306 0.2849561 0.22308607 -0.073192485 -0.14592242 -0.51164854 0.16921185 0.19831772 0.2948976 -0.17342253 0.38808638 -0.1933115 0.22210935 0.3535563 -0.12365569 0.531384 0.22082186 0.08515724 -0.09429621 -0.26076832 0.03728759 -0.22920212 0.15063362 -0.42028755 0.626563 -0.13053864 0.15050043 -0.014778649 0.5673764 0.5732452 -0.12273798 0.4697839 0.17679553 0.029064216 0.22905177 0.46862674 0.47873545 0.23517017 -0.62819815 0.25960785 -0.019879758
provid -0.117604114 0.32551682 0.017339569 0.11392505 0.22561076 -0.50794995 0.35254717 0.709191 -0.21898875 -0.28164274 -0.21620204 -0.42692852 -0.13906527 -0.06806461 -0.09946874 0.014612902 0.10158138 -0.5350956 -0.10509183 -0.71286494 0.17210299 0.15133297 0.17684948 -0.10316314 -0.13693848 0.005590886 -0.27311984 -0.18893537 -0.30308256 0.21953234 0.47521746 0.072101995 0.17526722 -0.24843782 -0.068421274 0.38315898 -0.052450236 -0.32977873 -0.13744695 -0.844931 -0.015573796 -0.29797846 -0.11396872 0.012832093 0.31265444 -0.34402436 -0.38537198 0.046667293 0.3124727 0.12698513 0.07844326 -0.31148186 -0.15082 0.016488759 -0.19621767 0.32780564 0.21010363 -0.16161403 -0.44030505 0.16918622 0.23546888 0.22661673 -0.09565747 -0.14015728 -0.5078887 0.14222199 0.085402824 0.31519797 -0.15716136 0.3606673 -0.17980167 0.17267013 0.37625736 -0.12411834 0.52237934 0.12262175 0.038371544 -0.06571356 -0.24577914 0.0046359347 -0.16116507 0.14016496 -0.46288112 0.6259111 -0.0842288 0.051270127 -0.01321203 0.50880325 0.5150237 -0.052557655 0.46696383 0.15369125 0.043097354 0.20775239 0.53529745 0.48316914 0.17974634 -0.4784237 0.17541794 -0.0897971
func -0.17610964 0.25918865 0.008322162 0.19100653 0.26579702 -0.5695192 0.23524915 0.7368565 -0.13475335 -0.36014453 -0.25439507 -0.42591232 -0.089260265 -0.061483566 -0.05330097 0.08483441 0.09776817 -0.5426556 -0.06201368 -0.73840624 0.08923941 0.22446948 0.1831723 -0.056796014 -0.07438487 0.027426928 -0.2435081 -0.14262874 -0.32579395 0.29679903 0.45901057 0.114686705 0.12125466 -0.18392414 -0.099618 0.4068575 -0.13509667 -0.49521324 -0.086944714 -0.80060077 0.005689964 -0.24896155 -0.09046035 -0.001810816 0.45541215 -0.27034798 -0.4096115 0.02769456 0.2995102 0.10322161 0.13480785 -0.26856345 -0.2349118 -0.06436063 -0.2006157 0.35461736 0.14656301 -0.11561041 -0.4624076 0.1826533 0.122293554 0.24729082 -0.14853124 -0.11449004 -0.48954704 0.12847845 0.09712033 0.23821634 -0.09734222 0.44370055 -0.17108816 0.14690259 0.28019485 -0.18133648 0.5315271 0.14013399 0.025676314 -0.100419186 -0.25933483 0.02154581 -0.1074728 0.13573927 -0.43008643 0.60119724 -0.047537185 0.09824423 -0.042268276 0.5591989 0.49390936 -0.06119862 0.44289443 0.1221748 -0.0054335496 0.23678078 0.5031082 0.43324405 0.22262833 -0.45942393 0.18167187 -0.050078075
first 0.08327902 -0.1582675 0.0082931295 0.37316135 0.2200216 -0.6491539 0.19128546 0.8626843 -0.07627879 -0.5560493 0.04351165 -0.3047939 -0.38890865 0.048489947 -0.100009985 0.43640885 0.0561037 -0.61495525 -0.13844827 -0.95345145 -0.03806981 0.32198882 0.4115288 -0.07286504 -0.0789557 -0.03592321 -0.096242264 0.025323156 -0.41033012 0.48225152 0.51038766 -0.2871592 0.49923062 -0.28440627 -0.05351187 0.25631094 0.03956895 -0.615653 0.098840766 -0.6269274 -0.080908 -0.50137234 -0.26703602 0.059046775 0.74047965 -0.30254102 -0.13129537 -0.045750707 0.28313377 0.31071413 0.075561985 -0.36873007 -0.2897826 0.06711237 0.17208007 0.27340734 0.32764903 0.05951011 -0.35687158 0.4855408 -0.33935434 0.3282267 -0.08713332 0.020749064 -0.423355 0.18553539 0.16906391 0.2575642 -0.33797976 0.7549125 -0.13312145 -0.040849805 0.40705004 -0.25199008 0.36407334 -0.31017447 -0.113668546 -0.022483092 -0.24262452 -0.041250397 0.107374065 0.068845876 -0.5023953 0.6968419 0.1872995 0.007613205 -0.06643197 0.4147379 0.36291644 0.15657896 0.3403396 0.090088636 0.19162202 0.2974063 0.5962838 0.5968799 0.29829383 -0.09766875 0.07419266 -0.12179212
structur -0.14839308 0.27998078 -0.014797183 0.17974922 0.25322267 -0.5627654 0.29459938 0.7830056 -0.17624997 -0.38578397 -0.25624663 -0.40264806 -0.15155551 -0.04833085 -0.069181345 0.113618456 0.09764536 -0.55460966 -0.091746345 -0.74960005 0.08523353 0.20711617 0.16131853 -0.047772005 -0.11569754 -0.021043899 -0.23986058 -0.1991426 -0.31671885 0.2947135 0.4787972 0.08401634 0.12778996 -0.22005321 -0.09510344 0.42191672 -0.13003059 -0.45488197 -0.05845483 -0.84976596 -0.016659254 -0.27261582 -0.13000919 0.020657334 0.46754196 -0.305757 -0.42083907 0.02218213 0.2974909 0.13842213 0.106845334 -0.2617621 -0.2514101 -0.052685745 -0.18137261 0.36842418 0.13929117 -0.1534917 -0.4604488 0.18937792 0.10366935 0.25088033 -0.14533497 -0.108205475 -0.5023085 0.13232408 0.09736322 0.25033873 -0.111208074 0.43935472 -0.16813904 0.13159625 0.31677854 -0.19309549 0.5449264 0.10565373 0.031833682 -0.08775023 -0.25655797 -0.011632505 -0.06403892 0.1284953 -0.4254988 0.59989244 -0.026342997 0.083983555 -0.023150494 0.5830017 0.5184716 -0.060935333 0.41144082 0.110689595 0.044285897 0.22931302 0.5033502 0.47705403 0.22369069 -0.50333065 0.2104988 -0.049414765
specif -0.21690951 0.40787888 0.025605967 0.03420817 0.34950718 -0.52455205 0.23809525 0.7492873 -0.15624496 -0.30193263 -0.20296532 -0.42836246 -0.07481882 0.056125984 -0.020353358 -0.061611164 0.09999583 -0.43276247 -0.0738694 -0.70673424 0.22335717 0.12564702 0.13933632 -0.12818526 -0.07860529 -0.05414194 -0.10544998 -0.14228168 -0.29035008 0.18767913 0.44043773 0.09645746 0.117464475 -0.18038397 -0.11189399 0.48618305 -0.016834676 -0.43027902 -0.15384142 -0.7719496 -0.0039033068 -0.21407115 -0.02838734 -0.036680263 0.2376699 -0.21686353 -0.39846689 -0.03977134 0.23977855 0.043049052 0.113677554 -0.39067423 -0.16402313 0.008362382 -0.21093534 0.36367399 0.25557292 -0.16066259 -0.460879 0.10148034 0.3114066 0.22588122 -0.02829389 -0.1319664 -0.48078522 0.20327418 0.2335469 0.3081421 -0.24666843 0.42661715 -0.23232602 0.16695733 0.39130604 -0.07058566 0.5340288 0.29015356 0.03352868 -0.081785806 -0.30251265 0.009481612 -0.18852681 0.19081806 -0.3872649 0.5998597 -0.11248498 0.12225005 0.040189587 0.46002927 0.5757612 -0.05239059 0.44245774 0.13489757 -0.004962131 0.1371092 0.43074176 0.48924968 0.18932927 -0.5694133 0.29256436 -0.0067767836
also -0.06850036 0.28516784 0.03138823 0.100032955 0.21998161 -0.54060763 0.38228226 0.70875674 -0.23691851 -0.31358272 -0.16544604 -0.4130173 -0.16918938 -0.09819037 -0.12735942 0.0847954 0.102176264 -0.5704035 -0.13704541 -0.7458531 0.18943332 0.22113211 0.24620514 -0.09848114 -0.14258413 0.0314862 -0.23735376 -0.173511 -0.28720453 0.27581593 0.47506252 0.04690391 0.18212514 -0.2891597 -0.04062294 0.34800163 -0.081318386 -0.33087188 -0.1102398 -0.893991 -0.02605956 -0.29451182 -0.1379235 -0.02328924 0.3453159 -0.3433862 -0.39959833 0.077611215 0.33202547 0.14607975 0.06639068 -0.28346944 -0.14176519 -0.009907233 -0.14739932 0.3064101 0.15290025 -0.13033345 -0.45635659 0.19197376 0.17280544 0.23782143 -0.14233112 -0.1552896 -0.49342504 0.16942446 0.07064079 0.26130542 -0.14392841 0.3503557 -0.17908244 0.18632738 0.37420613 -0.14944993 0.5085396 0.0749511 0.07687448 -0.09460462 -0.2441355 0.008991637 -0.15024793 0.1419139 -0.4761849 0.6537034 -0.06402796 0.053847805 -0.032442223 0.5498037 0.48434946 -0.05260222 0.48749882 0.16289358 0.06845049 0.22322203 0.5250208 0.47323468 0.16394095 -0.4338091 0.14372793 -0.08096962
complet -0.03914374 0.2647221 0.0061947615 0.18119349 0.18394625 -0.5560959 0.42652345 0.7494117 -0.18090495 -0.291044 -0.20230155 -0.45841053 -0.16678233 -0.1488409 -0.10362508 0.17243628 0.08163241 -0.5342877 -0.16681339 -0.80121315 0.12227199 0.21691747 0.2222845 -0.06825331 -0.1903944 0.08601906 -0.31394854 -0.19265118 -0.30048752 0.27575967 0.43144616 0.033620786 0.30591628 -0.30454025 -0.07647467 0.36764306 -0.0048344135 -0.33227158 -0.1690977 -0.83711016 -0.07732081 -0.3273169 -0.13360834 0.00879141 0.42876422 -0.46058443 -0.33924228 0.11871661 0.36402968 0.21356733 0.10937434 -0.28781834 -0.1694348 -0.043474175 -0.11281096 0.2953062 0.19016927 -0.1530773 -0.35086417 0.1933367 0.05022175 0.24119702 -0.19398525 -0.13937785 -0.4899984 0.17867312 0.038048524 0.26621154 -0.17364731 0.3710804 -0.14259791 0.17690705 0.36688057 -0.1899582 0.507506 0.060344104 0.11402429 -0.107904054 -0.19767766 0.03513817 -0.098172925 0.12523913 -0.5075557 0.620883 0.0055581247 -0.0018427989 -0.057333667 0.63455635 0.44228417 0.004164079 0.43362653 0.1642756 0.102671824 0.28917962 0.60307497 0.508007 0.22709745 -0.32054612 0.12255252 -0.11520435
prove -0.073942065 0.29525688 0.03515444 0.04428459 0.1954175 -0.47008348 0.40309888 0.6889174 -0.20831735 -0.26953995 -0.20279297 -0.41492805 -0.15982066 -0.14845526 -0.069146365 0.04863106 0.10838441 -0.5041381 -0.11428806 -0.7101641 0.1378453 0.18038271 0.21293344 -0.15279603 -0.11485982 0.058982242 -0.3189456 -0.21110469 -0.2844057 0.29377753 0.41339788 0.100267425 0.22860596 -0.2791776 -0.04023841 0.38554028 -0.08789967 -0.33278233 -0.22201431 -0.8590609 -0.022378886 -0.29536554 -0.1137704 0.055744912 0.29078588 -0.39143857 -0.34796888 0.054611035 0.2783824 0.15618195 0.08785065 -0.33406633 -0.14329043 0.041143008 -0.21243149 0.32097054 0.16984157 -0.17302567 -0.39075226 0.14924362 0.26384902 0.21370059 -0.09713501 -0.11261551 -0.49314374 0.19460168 0.06898965 0.24613911 -0.23152624 0.3404159 -0.20080943 0.24127227 0.41842702 -0.14169149 0.48789927 0.12586233 0.05593954 -0.109444715 -0.2532321 0.070043944 -0.09113316 0.14284101 -0.49287945 0.5619863 -0.0684553 0.025040524 0.042148884 0.54882556 0.44917035 -0.041128237 0.43827754 0.14831057 0.049084388 0.1854704 0.5417159 0.46987364 0.2215152 -0.4253536 0.15551437 -0.12189167
learn -0.3096848 0.53603977 0.009670482 -0.07530558 0.3769047 -0.4081397 0.25251418 0.71788263 -0.12344444 -0.24943535 -0.18848754 -0.4598992 -0.06506154 0.058907926 -0.058510855 -0.21561538 0.07062122 -0.40466952 -0.01719973 -0.6501682 0.30181617 -0.043794136 0.09475426 -0.19274992 -0.013564008 -0.09690878 -0.03715343 -0.15720685 -0.20986369 0.17437382 0.43127513 0.20526864 0.04291472 -0.16696681 -0.0027589032 0.53392124 -0.055570934 -0.33460152 -0.21444343 -0.877814 0.018790882 -0.21013784 -0.011006773 -0.08520302 0.053868983 -0.28959534 -0.42009464 -0.057569798 0.21251719 0.014996884 0.16318372 -0.3877041 -0.077440046 0.061633963 -0.35437223 0.4672678 0.24056944 -0.17675209 -0.61810875 0.113921836 0.5123011 0.2228098 0.02986027 -0.18640518 -0.53329253 0.09294448 0.34540597 0.35187903 -0.2576236 0.39906648 -0.23066647 0.18899447 0.4282795 0.048965406 0.55131555 0.40361667 0.060511693 -0.05515802 -0.24567325 0.05233369 -0.24625194 0.15885986 -0.28329575 0.55417514 -0.2115441 0.11726684 0.097321086 0.46865204 0.6888972 -0.13486373 0.4421138 0.13432932 -0.076653145 0.11681523 0.3688614 0.47410616 0.2542404 -0.8051359 0.3364383 0.021544663
framework -0.13738133 0.35755792 0.01913326 0.06322349 0.23772223 -0.4873694 0.2948123 0.7004929 -0.24535643 -0.28572664 -0.13790978 -0.400198 -0.16570012 -0.008294112 -0.0896861 -0.0249511 0.15642634 -0.5443655 -0.107662804 -0.67252517 0.23021884 0.17019023 0.2112443 -0.1491182 -0.1275825 -0.032060355 -0.25269866 -0.16941215 -0.29284716 0.21330188 0.4359683 0.042871255 0.1869189 -0.21837157 -0.038205147 0.42462274 -0.042544197 -0.31233582 -0.15805483 -0.87763906 -0.043557014 -0.2562566 -0.13782375 0.005086264 0.26447222 -0.29639405 -0.40186176 0.047134973 0.28912565 0.11694487 0.059402637 -0.32767808 -0.14225626 0.09127042 -0.18151264 0.3067818 0.21303989 -0.20040952 -0.46115926 0.14497443 0.29642504 0.25150117 -0.07966002 -0.12914759 -0.49034467 0.16923237 0.12744154 0.32548264 -0.22348277 0.3991075 -0.18213773 0.21854888 0.41399887 -0.08630048 0.48743737 0.14355297 0.04942157 -0.062778026 -0.29261592 -0.031414766 -0.16244164 0.12388321 -0.42617917 0.6341895 -0.10559204 0.07503516 0.003424573 0.4723877 0.52275866 -0.021384984 0.47467843 0.17464148 0.008655193 0.20747843 0.496977 0.49773434 0.13006867 -0.5240016 0.21051453 -0.05941734
time -0.21427712 0.28661603 0.001364081 0.023962332 0.38586116 -0.6295312 0.23369704 0.7527443 -0.112599045 -0.33269235 -0.24994603 -0.45668587 -0.08071659 -0.027334081 -9.983315e-05 0.054989137 0.038272977 -0.52893597 -0.03709124 -0.76589787 0.19391754 0.15661979 0.2564728 -0.060933713 -0.0828358 0.08352493 -0.079764985 -0.14334595 -0.33040792 0.26315352 0.5202688 0.13670401 0.06936312 -0.20825517 -0.07216298 0.37507302 -0.07594773 -0.45681116 -0.10800593 -0.7718054 0.020191068 -0.23453842 -0.084287 -0.08445873 0.2927981 -0.2976463 -0.37837818 0.017354885 0.2682134 0.09489356 0.19750471 -0.35310823 -0.19606857 -0.058270212 -0.14808649 0.4282744 0.19835876 -0.086465 -0.54506433 0.16197352 0.10566044 0.22176991 -0.17827788 -0.15255299 -0.47754118 0.15714802 0.17121166 0.19896546 -0.10460063 0.47247827 -0.23436835 0.13266647 0.3493186 -0.19131498 0.5122171 0.17205003 0.041300926 -0.07319089 -0.2174753 0.03679165 -0.21052499 0.2188998 -0.40309173 0.6555567 -0.07806313 0.13049453 -0.05423701 0.63767767 0.5135411 -0.19165212 0.5094403 0.12096374 0.033787586 0.1921479 0.45096326 0.43573543 0.27773616 -0.5313476 0.1371059 -0.04621587
have -0.25001845 0.5099772 0.0043713953 0.03276122 0.32653674 -0.5380477 0.27821082 0.6471488 -0.28527784 -0.3177074 -0.20109898 -0.40485305 -0.02894015 0.07299603 -0.0216347 -0.14061956 0.10329242 -0.39193198 -0.0896147 -0.6683223 0.20328045 0.038123075 0.11745687 -0.20526077 -0.15044013 -0.00054779876 -0.14959083 -0.2408914 -0.28756496 0.21559584 0.39824632 0.20509812 0.042113975 -0.19247828 -0.12080029 0.4362443 -0.16581342 -0.25474313 -0.12864932 -1.0293864 0.053290512 -0.17787287 0.016306894 0.0062871655 0.096464835 -0.34821105 -0.37610468 -0.11886391 0.3931066 0.03678136 0.08421185 -0.3876279 -0.13984893 -0.037233226 -0.2326653 0.22953567 0.2651879 -0.21382731 -0.5522912 0.22370198 0.4628367 0.22524455 0.0072414717 -0.123362385 -0.5710915 0.09973694 0.13511351 0.12563258 -0.2689841 0.45054 -0.20516357 0.13695122 0.46725753 -0.021844802 0.5494532 0.20279956 0.05927254 -0.04448441 -0.24987264 -0.121864274 -0.07445404 0.3318173 -0.5166657 0.45155776 -0.13838151 -0.028905604 -0.03788311 0.6072747 0.6004071 -0.120198645 0.5154181 0.21945214 0.0061347913 0.13294964 0.32591304 0.35920942 0.21025872 -0.71438354 0.35526407 -0.13798118
algo -0.14871898 0.41797507 0.013110554 -0.06600544 0.3109757 -0.4804551 0.35572448 0.67726916 -0.21311738 -0.23552261 -0.13855305 -0.40972185 -0.12706795 -0.08603659 -0.114392914 -0.06384738 0.14718921 -0.5180408 -0.11046674 -0.6738802 0.24203065 0.102221966 0.2020474 -0.17401233 -0.085020505 0.00045393573 -0.13863163 -0.1777248 -0.23917773 0.19726409 0.4629397 0.1119831 0.12595342 -0.24381658 -0.029370883 0.39864317 -0.048890207 -0.2854743 -0.17981713 -0.9212733 -0.011451195 -0.23972774 -0.07682137 -0.077948995 0.13763809 -0.33904472 -0.43099207 0.08684705 0.23424274 0.09299845 0.09328073 -0.33564073 -0.080202505 0.077170625 -0.27309078 0.3519686 0.1988006 -0.1656481 -0.5346176 0.14521767 0.3842601 0.19856495 -0.07004756 -0.16754037 -0.46210593 0.18336146 0.18208548 0.29017195 -0.21791221 0.3206225 -0.200827 0.2695413 0.40309665 -0.05941638 0.5439224 0.19562972 0.098096766 -0.081094526 -0.2545727 0.017589305 -0.2081612 0.16385397 -0.41306028 0.6319473 -0.15981731 0.099474914 0.03584567 0.49112216 0.5274027 -0.11104803 0.50240713 0.17304021 0.0076035983 0.14484756 0.48490584 0.44259852 0.17342955 -0.60576886 0.22050653 -0.043963905
state -0.23062117 0.37672487 -0.047222726 -0.05428483 0.34982425 -0.48485252 0.25168422 0.6952501 -0.1250042 -0.2814633 -0.18819095 -0.4356405 -0.049314756 -0.05587927 -0.049846243 0.00036138715 0.10488562 -0.46075624 -0.023472015 -0.6979115 0.13688825 0.07823846 0.12951906 -0.13600875 -0.07698596 -0.018805712 -0.12072567 -0.17713767 -0.20030907 0.17222528 0.4288733 0.19792521 0.07726196 -0.19934355 -0.03329839 0.38679996 -0.1111027 -0.42299238 -0.21038452 -0.8212485 0.036070857 -0.18909512 -0.0694942 -0.056581274 0.19137868 -0.30208945 -0.4305983 0.056772478 0.20445065 0.014641799 0.14290339 -0.28453982 -0.15846658 0.033629123 -0.2703211 0.39377645 0.17557216 -0.18151818 -0.536649 0.13034418 0.3230992 0.18955979 -0.0675803 -0.10883675 -0.46880808 0.10827927 0.22373185 0.27050692 -0.11780116 0.30889618 -0.15069112 0.13300255 0.34682107 -0.040185403 0.5293648 0.2136242 0.11976461 -0.12105936 -0.27989686 0.04063265 -0.1962671 0.17083466 -0.31298542 0.5857212 -0.11993198 0.16226155 0.043823488 0.53930366 0.5693966 -0.11659332 0.4899412 0.18550718 -0.07546534 0.1728921 0.4636359 0.44421512 0.20143275 -0.6318372 0.23553608 0.029244266
categori -0.16251531 0.22566289 -0.030506061 0.37311995 0.12626664 -0.5712685 0.2975054 0.71087337 -0.15818745 -0.37751496 -0.24190785 -0.3938532 -0.06819346 -0.2218218 -0.15403092 0.20096838 0.1154852 -0.6732621 -0.096092395 -0.73291373 -0.04172029 0.36290738 0.09856843 -0.0007895673 -0.15777384 0.016023993 -0.48101735 -0.23158966 -0.3536015 0.30145925 0.45386028 0.12740834 0.10434585 -0.18932106 -0.11392956 0.39172608 -0.30134168 -0.5035743 0.038252987 -0.9634716 0.013208573 -0.3046129 -0.18478712 0.00822066 0.64648217 -0.34391502 -0.4343378 0.05542359 0.3855841 0.21248084 0.06935112 -0.1737686 -0.3190834 -0.12630653 -0.21177702 0.29215908 0.025963992 -0.23108976 -0.38651 0.20627177 0.06573443 0.29431263 -0.19218421 -0.113329165 -0.5691011 0.06525083 -0.12188866 0.26641724 0.0871101 0.4067165 -0.025304856 0.21560194 0.28113663 -0.26323602 0.625649 0.031335652 0.010204357 -0.14861953 -0.28831562 -0.08566047 -0.037011128 0.047245465 -0.5819617 0.669383 0.04590861 -0.009106124 -0.07848806 0.68948513 0.43805882 -0.07835064 0.45952475 0.1860726 0.09233436 0.43256128 0.57519525 0.50623 0.13393368 -0.33958283 0.08567539 -0.11362481
verif -0.21014082 0.50962 0.0448366 -0.1291111 0.37259686 -0.47485453 0.2778364 0.7209133 -0.16712259 -0.2595549 -0.17352489 -0.41384482 -0.042912357 0.012217509 -0.022316663 -0.15038474 0.102870636 -0.4591902 -0.026079956 -0.62586653 0.2832426 0.0658487 0.14820531 -0.16259383 -0.056784797 -0.046415355 -0.10352554 -0.12798652 -0.2590073 0.15976065 0.46027595 0.13310254 0.109879136 -0.16937861 -0.014005373 0.5175483 -0.012542955 -0.3150581 -0.27130127 -0.8835183 -0.04078733 -0.20356739 -0.06492694 -0.094574146 0.05182106 -0.3103573 -0.41308254 0.050114777 0.18801066 0.025896238 0.11417331 -0.44650432 -0.11650921 0.044944692 -0.25820827 0.38150543 0.24245283 -0.19295987 -0.534003 0.09502458 0.4748116 0.18513665 0.016050387 -0.14913888 -0.46154973 0.17141971 0.28270227 0.2956255 -0.2472767 0.41851848 -0.20237797 0.22434588 0.43091866 -0.0011105351 0.5068263 0.2887856 0.080918714 -0.13183758 -0.27373505 0.060988054 -0.24965163 0.12624492 -0.3752877 0.5865105 -0.18575278 0.11513469 0.07687816 0.47184774 0.61996496 -0.1267671 0.49343795 0.14455582 -0.028213652 0.09847489 0.40010697 0.4148024 0.22594762 -0.70215654 0.27921414 -0.051995274
general -0.14323875 0.30569565 -0.011454776 0.14652422 0.23429944 -0.5245234 0.30536407 0.72485 -0.20421994 -0.2959317 -0.20589149 -0.40507573 -0.12434731 -0.052041344 -0.06958176 0.06059451 0.10964391 -0.53296924 -0.10718125 -0.7217909 0.12730633 0.18809685 0.18005912 -0.084297694 -0.1314807 -0.013006779 -0.26793808 -0.18518493 -0.3075306 0.24892953 0.45577514 0.06337796 0.14292143 -0.23916712 -0.07084306 0.38501468 -0.097033 -0.3866039 -0.072959304 -0.8417971 -0.025675442 -0.25977466 -0.13242428 0.015581737 0.34787148 -0.28761497 -0.37843135 0.03722146 0.302042 0.14694414 0.09743788 -0.2914634 -0.17294987 -0.015480239 -0.15408055 0.31757158 0.1630312 -0.13890034 -0.4482141 0.18182862 0.16014624 0.22735152 -0.12270851 -0.11925987 -0.47750628 0.14236481 0.059825417 0.2599367 -0.128256 0.38109317 -0.16545308 0.15328813 0.34869802 -0.16674978 0.4794197 0.11374874 0.03623413 -0.07788421 -0.23298496 -0.017802235 -0.1393819 0.15780394 -0.44898415 0.59188247 -0.055303484 0.052454792 -0.027862277 0.54697865 0.5181496 -0.047244895 0.45634246 0.15020496 0.028051827 0.25841704 0.50385725 0.45432413 0.1758071 -0.44480306 0.18904087 -0.08317707
method -0.18122396 0.43907145 0.04576957 -0.069373205 0.30351493 -0.45614117 0.3175104 0.6803901 -0.23356801 -0.25038993 -0.15246287 -0.4140995 -0.11584458 -0.03629584 -0.09845654 -0.08899747 0.14532842 -0.48006678 -0.08142101 -0.6663535 0.2557791 0.08276479 0.17423196 -0.19660078 -0.07406862 -0.04817359 -0.13591741 -0.16939871 -0.25069547 0.17177035 0.44416922 0.12391354 0.1325532 -0.21876054 -0.03304767 0.44582003 -0.03113053 -0.30506077 -0.19978023 -0.8941609 -0.012611112 -0.23313978 -0.076798506 -0.050893083 0.13594668 -0.32101297 -0.4133155 0.016362928 0.23291023 0.069152325 0.10128208 -0.34950554 -0.109781995 0.09574659 -0.253885 0.35002014 0.23938128 -0.16394177 -0.5192633 0.14322647 0.4288189 0.21675023 -0.04267122 -0.1538542 -0.46296498 0.17459473 0.21090466 0.28351277 -0.24568038 0.3592791 -0.23036788 0.2420555 0.42432287 -0.023294242 0.5352202 0.21221408 0.09454451 -0.08075079 -0.2783081 0.021631043 -0.18668336 0.14888209 -0.38802534 0.60746497 -0.1634378 0.09914199 0.05631868 0.47004393 0.57215875 -0.0750311 0.4782465 0.16386679 -0.0149859665 0.13195665 0.46493095 0.4527167 0.1825179 -0.6191634 0.2578078 -0.044582553
synt -0.15153003 0.3239727 0.02946968 0.08360531 0.27476308 -0.5377045 0.2536458 0.71135354 -0.19042583 -0.2955774 -0.18652008 -0.39982975 -0.10320771 0.0022206726 -0.06116624 0.02540031 0.11335681 -0.4941468 -0.07677741 -0.7037291 0.17361182 0.13836986 0.19009389 -0.11977097 -0.10820651 -0.009539783 -0.19461133 -0.12508409 -0.28778604 0.19646193 0.46975103 0.07431091 0.16393173 -0.19187945 -0.07300609 0.3998596 -0.029202359 -0.35941872 -0.14283977 -0.79234606 -0.019586392 -0.24003085 -0.10850154 -0.036134645 0.26020485 -0.28029966 -0.3559189 0.059328314 0.23698622 0.10953936 0.114157766 -0.3344665 -0.18265326 0.0048967944 -0.1734061 0.3488705 0.18774544 -0.13355339 -0.4694788 0.123760544 0.2428842 0.22517593 -0.08326512 -0.10751947 -0.4297571 0.14348377 0.16464786 0.30139896 -0.16568026 0.41915795 -0.18062535 0.18393399 0.35685796 -0.09289594 0.49872756 0.18545666 0.04337238 -0.091741025 -0.27834263 0.0015154821 -0.14486596 0.1281913 -0.42535207 0.63131285 -0.0920232 0.08985198 0.009917244 0.46150535 0.50524145 -0.057843532 0.4595022 0.14255624 -0.0034249318 0.23185717 0.47268388 0.47560963 0.18778326 -0.48765895 0.20880106 -0.06330119
algebra -0.12593144 0.22108808 -0.02822474 0.25903082 0.189072 -0.55631363 0.27544716 0.7646051 -0.15331396 -0.3460479 -0.24725285 -0.36963123 -0.16178416 -0.07163031 -0.056272976 0.14147593 0.082029566 -0.56929195 -0.1279241 -0.729145 0.07197784 0.25671443 0.18340234 -0.07385583 -0.15251365 -0.0036144776 -0.34741223 -0.18638055 -0.30874163 0.29227835 0.42876703 0.07471204 0.15883008 -0.22358689 -0.10404046 0.38078558 -0.14879884 -0.47263956 -0.067992866 -0.8208887 -0.01899332 -0.26574028 -0.14288644 0.038334735 0.52932006 -0.28177783 -0.4050564 0.032106344 0.3476903 0.17803207 0.09877654 -0.26765934 -0.2709006 -0.0458713 -0.14483677 0.28820825 0.13223986 -0.18675037 -0.39335155 0.19087481 0.06246061 0.27327314 -0.13566402 -0.12559141 -0.49079776 0.14068078 0.033278134 0.2773919 -0.092414685 0.4317341 -0.15307847 0.11454221 0.29982677 -0.23681335 0.4840655 0.076311775 0.024337979 -0.09714271 -0.25432092 -0.038228516 -0.06397718 0.14676757 -0.481521 0.60174024 0.008529602 0.028655345 -0.031251162 0.61094457 0.44835028 -0.01621071 0.43185997 0.13569307 0.029876726 0.28384548 0.5348237 0.5051672 0.17716515 -0.40681255 0.14931513 -0.07651606
propos -0.12067282 0.38780156 0.037647802 0.007021148 0.23930173 -0.48882204 0.37304002 0.67502457 -0.29313102 -0.2563855 -0.088187315 -0.36503103 -0.1564236 0.0527922 -0.109885685 -0.07608752 0.12285689 -0.4862694 -0.17039129 -0.6662166 0.2834268 0.0659771 0.1927702 -0.17463231 -0.13543084 -0.070119314 -0.19349505 -0.19476135 -0.24225153 0.19738664 0.4673014 0.04090942 0.1688629 -0.28553554 -0.047918774 0.39262974 -0.02472079 -0.19110456 -0.098189585 -0.9380715 0.013351195 -0.2961721 -0.10159879 -0.0033141347 0.1482147 -0.3133231 -0.3881791 0.011293145 0.30687127 0.07876699 0.030532436 -0.36231422 -0.042207595 0.044123575 -0.1503874 0.29286283 0.25467712 -0.13066068 -0.44076952 0.1893183 0.3694467 0.17488515 -0.009714175 -0.15619135 -0.5183817 0.14719956 0.15423064 0.3281591 -0.25002703 0.35453784 -0.24284674 0.14835136 0.43789673 -0.018807564 0.50644124 0.11813779 0.004835024 -0.045633983 -0.2419789 -0.0109651005 -0.16894881 0.19614089 -0.42952466 0.6173703 -0.12062117 0.03143545 -0.0047923285 0.40606353 0.58220255 -0.06844311 0.50652975 0.17051116 0.048589747 0.13637072 0.47952583 0.4464459 0.15278529 -0.5530685 0.20370801 -0.09286874
introduc -0.09788179 0.3154213 0.037251476 0.13515699 0.23713523 -0.5347108 0.3274139 0.74197334 -0.25945324 -0.33548075 -0.15961629 -0.3847566 -0.16864431 0.047687363 -0.08244948 0.032615267 0.09098101 -0.5230811 -0.16919188 -0.729026 0.205208 0.13605507 0.2052652 -0.13315716 -0.16093259 -0.043851964 -0.28682393 -0.21059516 -0.3143739 0.26223317 0.4728874 -0.0029990713 0.19971588 -0.26914346 -0.081017844 0.40465915 -0.07709735 -0.29946232 -0.05607097 -0.90195715 -0.0031576613 -0.32960233 -0.11368788 0.042966515 0.33895633 -0.32396302 -0.3890616 0.0027114374 0.35026875 0.1362443 0.06038296 -0.33994105 -0.17298102 0.017756354 -0.1244552 0.29848322 0.25620383 -0.14132977 -0.40568143 0.18538079 0.21401983 0.24006245 -0.07310999 -0.119057335 -0.56598324 0.17468747 0.09457049 0.32591313 -0.19302076 0.43931535 -0.22332332 0.11603464 0.4083775 -0.11451841 0.48730835 0.050172344 -0.024040572 -0.040862024 -0.24629001 -0.02284869 -0.14276071 0.1763919 -0.48143113 0.6658944 -0.04263073 0.041284144 -0.059661314 0.48220694 0.55595666 -0.04912489 0.46722475 0.1441826 0.056526303 0.21063435 0.5439691 0.5095186 0.17367023 -0.4919618 0.16065569 -0.11261383
one -0.14929481 0.31383044 -0.00045422878 0.104415916 0.26964632 -0.51793486 0.29468176 0.72985095 -0.17730981 -0.3000492 -0.23630399 -0.43557882 -0.080991216 -0.10194949 -0.06946765 0.052881844 0.0874254 -0.49721846 -0.093911946 -0.74001014 0.16335885 0.18599951 0.20769824 -0.055448115 -0.117485285 0.032211613 -0.2075323 -0.14849809 -0.2670534 0.25900367 0.4303836 0.11812934 0.12889469 -0.20759684 -0.061253455 0.38637218 -0.11062395 -0.44879672 -0.12818897 -0.8406341 -0.008282197 -0.23944178 -0.0755717 2.4578628e-06 0.3381358 -0.29103097 -0.4123991 0.0036495691 0.28007957 0.10354122 0.14864571 -0.32715008 -0.21972264 -0.054922413 -0.18289877 0.36236244 0.17610109 -0.1342191 -0.4610756 0.17629838 0.16671173 0.22879547 -0.15580428 -0.10856086 -0.51629925 0.13772854 0.11561308 0.234447 -0.14357485 0.3907004 -0.20688847 0.1273892 0.35612217 -0.1548825 0.49175483 0.17122503 0.08827069 -0.11365786 -0.25894582 0.023482492 -0.13953142 0.1838698 -0.3892558 0.59277844 -0.09599541 0.08253116 -0.038873885 0.58594763 0.49786028 -0.107466534 0.4393672 0.12852624 0.023973191 0.22938293 0.4809784 0.40447253 0.2451017 -0.48299283 0.18966565 -0.04931846
it -0.13611439 0.33375153 0.039370023 0.09717998 0.29925463 -0.54095197 0.3390422 0.7459075 -0.1967234 -0.30875567 -0.22112244 -0.4520785 -0.1540019 -0.08449644 -0.06110197 0.045462523 0.0935443 -0.5302269 -0.10209628 -0.7301464 0.1614011 0.19640878 0.18415183 -0.1161729 -0.13276811 0.01591236 -0.25157392 -0.18805751 -0.2996584 0.25477064 0.47790328 0.12766933 0.17319399 -0.22508234 -0.07456654 0.43126637 -0.059133913 -0.39017037 -0.16634127 -0.90472615 -0.006638942 -0.25015387 -0.11762122 -0.030712817 0.30763626 -0.33904746 -0.43037486 0.07277199 0.32645535 0.119143076 0.1017134 -0.3608815 -0.16092058 0.025182337 -0.23604482 0.37224784 0.1927287 -0.18562694 -0.454185 0.17510967 0.25026628 0.27756098 -0.13507657 -0.14367759 -0.5102705 0.1555817 0.1271706 0.25194204 -0.2096827 0.38866812 -0.20049886 0.20852683 0.39348704 -0.13122752 0.53495467 0.16315857 0.08989693 -0.10528489 -0.26555455 -0.011455364 -0.13114177 0.16367261 -0.44110474 0.64221984 -0.11591235 0.087668434 0.0018065793 0.57471913 0.5074257 -0.07081075 0.4734648 0.17510314 0.024172729 0.22950134 0.48666796 0.4983014 0.18566835 -0.529038 0.22708105 -0.06436521
two -0.12677759 0.2223891 0.03803947 0.14647079 0.20779496 -0.5619914 0.33381936 0.7523316 -0.18289962 -0.33943772 -0.20201235 -0.40928465 -0.15905616 -0.09138491 -0.10924207 0.13142611 0.093342006 -0.5388503 -0.15462139 -0.778853 0.14142677 0.20818648 0.24561138 -0.06208933 -0.13907972 0.015899278 -0.20145005 -0.18311824 -0.31089422 0.28488094 0.44905955 0.05169234 0.21184461 -0.24257846 -0.043791465 0.35588446 -0.06016978 -0.43771422 -0.08377704 -0.82491374 -0.0066642226 -0.2999907 -0.13670444 -0.0041043493 0.4294903 -0.33181867 -0.36098444 0.043147523 0.33922452 0.13778543 0.122344196 -0.30124727 -0.18441516 -0.0041837115 -0.14110263 0.35886258 0.18253009 -0.11373142 -0.42744106 0.22504006 0.095288716 0.24826176 -0.17896576 -0.103503615 -0.46408856 0.15176007 0.08230486 0.2504347 -0.15200667 0.4336195 -0.18055104 0.13358061 0.36564183 -0.19187446 0.50252694 0.06574643 0.06462622 -0.098239146 -0.24527003 0.01088505 -0.11379442 0.15774304 -0.45137197 0.63817495 -0.03961253 0.05755137 -0.074701846 0.5409274 0.48499513 -0.040254246 0.48663607 0.104414895 0.06934634 0.24442944 0.5370394 0.46073776 0.22224 -0.41639993 0.12625882 -0.05493282
has -0.2686808 0.51213986 0.030927917 0.054180607 0.3638122 -0.5984265 0.26007727 0.7028206 -0.29577425 -0.33344877 -0.22651626 -0.45394525 -0.029018914 0.064116314 0.00941146 -0.11882336 0.082986414 -0.4015101 -0.07422021 -0.71373355 0.23666784 0.046815787 0.15415566 -0.20083962 -0.1915321 0.03459693 -0.16406886 -0.25836608 -0.2958284 0.27423096 0.43589792 0.24661165 0.045727752 -0.17850474 -0.10686934 0.4429246 -0.17442788 -0.3209492 -0.13305141 -1.0629828 0.070364855 -0.18084012 0.022749523 0.018001284 0.11930129 -0.35225454 -0.3901801 -0.13223998 0.42110702 0.018357854 0.10065764 -0.44184273 -0.16198805 -0.06171811 -0.22362827 0.28364256 0.27323687 -0.19949242 -0.5613762 0.25211114 0.4322416 0.24751523 -0.03129542 -0.101463765 -0.60539937 0.1278584 0.16772941 0.10177754 -0.2811518 0.4872791 -0.25754347 0.12740886 0.49786672 -0.077633366 0.5892311 0.2476797 0.054622293 -0.073174395 -0.26453027 -0.12309163 -0.08636575 0.3612093 -0.5121337 0.49742016 -0.15937378 -0.011722568 -0.037562918 0.66536313 0.6469899 -0.1513264 0.53867644 0.21486765 -0.006417548 0.13918129 0.35089183 0.36272344 0.24483451 -0.744687 0.34198755 -0.12875788
oper -0.121048324 0.25023946 0.0044190036 0.19031404 0.2868773 -0.60089403 0.26682714 0.8014035 -0.1572093 -0.3728448 -0.26652375 -0.43267423 -0.14083666 -0.051281843 -0.03386757 0.14111109 0.08043647 -0.5214407 -0.08637069 -0.7577627 0.1237354 0.22478813 0.20367008 -0.06602736 -0.15119074 0.032278355 -0.24831186 -0.14673086 -0.34509274 0.29967713 0.49165007 0.05453352 0.15222865 -0.20832549 -0.0843924 0.40780857 -0.09160907 -0.48738262 -0.096607566 -0.8063938 -0.016158262 -0.26731026 -0.13679461 -0.02062901 0.47010428 -0.29112113 -0.4135825 -0.004058701 0.31751528 0.113205306 0.13095388 -0.3089556 -0.23909329 -0.058196943 -0.1431291 0.3354887 0.18003002 -0.1327935 -0.45147708 0.19694199 0.0693478 0.25281313 -0.16087344 -0.13342398 -0.50268245 0.1429797 0.119096674 0.24290855 -0.14496377 0.44350514 -0.20734254 0.108368255 0.30171314 -0.20664765 0.5024162 0.11420198 0.04001372 -0.07071414 -0.29015136 0.007890349 -0.10907584 0.18578298 -0.41095743 0.6421303 -0.066041134 0.1055393 -0.063107975 0.5860061 0.47614655 -0.08037232 0.43869355 0.12792633 0.00096296245 0.23214222 0.521312 0.48559093 0.2177871 -0.46262777 0.152364 -0.031848565
between -0.1831574 0.29601988 0.012600997 0.16668387 0.26953626 -0.5773025 0.28386843 0.80553544 -0.1504042 -0.38019547 -0.25894868 -0.47319078 -0.116091356 -0.09526778 -0.05490965 0.118845165 0.07579614 -0.5571202 -0.09771646 -0.7650147 0.08258336 0.20455772 0.16446467 -0.020602897 -0.13176292 0.01774427 -0.24071531 -0.16635574 -0.30906385 0.2708009 0.46216214 0.106085785 0.10857368 -0.18554047 -0.07849447 0.39786318 -0.13374528 -0.5248826 -0.08640044 -0.8743595 0.007577479 -0.27920645 -0.11029254 0.021828443 0.45639023 -0.33733547 -0.4324313 0.02918637 0.32473347 0.15464461 0.11691578 -0.30516526 -0.2532575 -0.092326686 -0.18744022 0.39019847 0.1429413 -0.13990107 -0.48479015 0.16623071 0.08245028 0.25540376 -0.18965776 -0.12467896 -0.52836585 0.13638556 0.0987685 0.26036146 -0.09440477 0.4302656 -0.1753957 0.141788 0.3278496 -0.22505334 0.53650206 0.15373781 0.08993674 -0.13495293 -0.27228388 0.023564667 -0.099404596 0.15017898 -0.45681342 0.6400722 -0.027869225 0.08131692 -0.086116016 0.62779903 0.5013741 -0.08409917 0.4335964 0.116474345 0.014826085 0.27596486 0.52769995 0.48077527 0.27702922 -0.4787631 0.20370373 -0.03674873
construct -0.11234412 0.29245967 -0.020536296 0.18708369 0.20496406 -0.5194711 0.3249347 0.7199928 -0.20757936 -0.31536454 -0.21560267 -0.38970187 -0.14806926 -0.095844276 -0.08464093 0.067473024 0.12118733 -0.54641134 -0.11546124 -0.7194267 0.097165614 0.21646048 0.1887543 -0.08927629 -0.1345364 0.0051490352 -0.33433157 -0.19049688 -0.2849309 0.26598465 0.4392977 0.06538425 0.17146358 -0.22535929 -0.088172 0.37777814 -0.11191849 -0.37637493 -0.09349423 -0.8169602 -0.0059384895 -0.26152897 -0.11275406 0.025391188 0.3943117 -0.31253493 -0.40867534 0.05907029 0.31590033 0.15221012 0.10448431 -0.2832914 -0.20278476 -0.023489473 -0.20319445 0.31883478 0.1644986 -0.16361226 -0.42311624 0.1698163 0.16616692 0.25229573 -0.11941608 -0.11095032 -0.48143604 0.12760507 0.027041577 0.2955951 -0.122103244 0.34975493 -0.16176006 0.18932214 0.34350607 -0.1755771 0.5103996 0.10121403 0.023652432 -0.08550603 -0.26366013 -0.022355353 -0.11937652 0.09981202 -0.47568008 0.6193278 -0.028930567 0.054871205 -0.008409138 0.5437767 0.4805487 -0.020103121 0.4469434 0.1790637 0.045699295 0.28553835 0.53242004 0.46456328 0.16072442 -0.39604953 0.18556285 -0.080853306
studi -0.12645386 0.26747805 0.04080096 0.14099742 0.26721027 -0.5224777 0.33376494 0.66788524 -0.23936586 -0.30926543 -0.18038604 -0.42647412 -0.13724 -0.022307612 -0.04967399 0.060874607 0.072451524 -0.52423155 -0.15146697 -0.7448775 0.20138827 0.18522137 0.21038029 -0.07743692 -0.1502687 0.012241029 -0.23101312 -0.18985327 -0.3015288 0.24025846 0.44747218 0.05689166 0.15307412 -0.26307774 -0.09140421 0.35641184 -0.09379037 -0.3300863 -0.057659723 -0.83313686 0.022931896 -0.28746343 -0.10412997 0.032508165 0.3139479 -0.2838966 -0.37943837 0.0012918913 0.31504288 0.13151892 0.059236012 -0.32086715 -0.13363777 -0.028666195 -0.09820883 0.27587664 0.16161737 -0.101221465 -0.44582933 0.22652982 0.14714992 0.22202516 -0.13203138 -0.12629652 -0.5250368 0.12199703 0.09651432 0.24859603 -0.14514162 0.3998187 -0.19460374 0.12134216 0.36274862 -0.17634031 0.49847484 0.04844706 0.031073963 -0.054974783 -0.20687744 -0.050562445 -0.14200741 0.18892916 -0.46619853 0.6180483 -0.059325367 0.057418454 -0.07524211 0.51992595 0.5133982 -0.112183295 0.47001088 0.13404635 0.09054474 0.23634791 0.4394587 0.43381503 0.17163515 -0.45583075 0.15059997 -0.09908105
linear -0.12800422 0.09031157 0.055398427 0.2959467 0.32430235 -0.7073318 0.1468945 0.83143973 -0.092087105 -0.3587726 -0.20486368 -0.42479178 -0.1361214 0.08879524 0.03994298 0.25675005 0.030493386 -0.50812215 -0.054785494 -0.81314653 0.10126321 0.26099837 0.29069224 -0.046277422 -0.13787755 0.04925135 -0.13499588 -0.07450062 -0.41261595 0.3509608 0.5187451 -0.027758682 0.23612347 -0.14834748 -0.11773839 0.37175 -0.039502613 -0.57699144 -0.0009982832 -0.63153225 -0.004817351 -0.31998605 -0.12959802 0.0044217957 0.51770335 -0.1990468 -0.27987844 -0.051895313 0.26934355 0.11368232 0.21391416 -0.32163855 -0.28947842 -0.079148084 -0.013150194 0.3533894 0.23906517 -0.10207474 -0.3847695 0.21925522 -0.15843952 0.24614263 -0.17016372 -0.08787184 -0.4665556 0.21050613 0.13367672 0.2491714 -0.16411813 0.58546245 -0.25237095 -0.010403316 0.29191843 -0.22426476 0.4081795 0.085611746 -0.05994546 -0.035275053 -0.26906252 -0.043087535 -0.06881512 0.20110679 -0.40444696 0.64157057 0.044158947 0.12658922 -0.09433298 0.5621507 0.44863015 -0.07991198 0.41101187 0.08717023 -0.017399404 0.30811337 0.45070553 0.49063185 0.21461652 -0.23713222 0.06595923 -0.041694738
theorem -0.07498127 0.4049804 0.020480566 0.017529963 0.15006354 -0.45377538 0.4066752 0.7074072 -0.21749057 -0.21770056 -0.28163198 -0.4076222 -0.20520712 -0.16733931 -0.07970868 -0.03489441 0.12690212 -0.5685705 -0.120941386 -0.75222623 0.20689793 0.21278284 0.15917797 -0.15117455 -0.09862134 0.040406924 -0.35430944 -0.22583984 -0.25624812 0.32074186 0.4404288 0.18612352 0.2237168 -0.21422578 0.025565954 0.47195712 -0.016642485 -0.33048812 -0.31679332 -0.92704415 -0.06977966 -0.3156538 -0.15322778 0.053698372 0.27104118 -0.42558745 -0.41694447 0.11654783 0.3338324 0.1639199 0.06924296 -0.382288 -0.1662201 0.0647286 -0.33155304 0.3811848 0.18277542 -0.29284656 -0.43561068 0.19662987 0.3878175 0.26613188 -0.058290582 -0.11499757 -0.48639348 0.16978988 0.119235076 0.29575253 -0.3029156 0.36312783 -0.18944138 0.3265129 0.45743757 -0.13362066 0.50798637 0.18811528 0.082230955 -0.17589839 -0.30239397 0.058262017 -0.07421036 0.10923475 -0.51185757 0.57565296 -0.07011976 -0.006513601 0.08328069 0.6090273 0.490559 0.03465199 0.499987 0.17649414 0.039569616 0.15603462 0.49216485 0.46982163 0.28411615 -0.53575164 0.2779846 -0.0992349
data -0.21188915 0.3812815 0.0027899041 0.054808225 0.35116875 -0.5614943 0.26182407 0.80316347 -0.15147021 -0.3363405 -0.28227097 -0.44881782 -0.11239866 -0.010676139 -0.039066102 -0.013268733 0.06875354 -0.5065656 -0.04626649 -0.74848104 0.17206691 0.16945384 0.13210519 -0.09415829 -0.09473399 -0.0342498 -0.17230618 -0.16788359 -0.28199637 0.22885169 0.49803528 0.16055518 0.09243539 -0.14637162 -0.09842477 0.47287616 -0.055459507 -0.43806887 -0.13948798 -0.85491985 0.02880792 -0.22258106 -0.074382216 -0.008122848 0.32921702 -0.27293617 -0.43470907 -0.02896143 0.24584411 0.09555944 0.1387607 -0.33278993 -0.20927712 -0.021743538 -0.2694595 0.39046937 0.19900131 -0.17365122 -0.50952476 0.12104021 0.2723575 0.289049 -0.09098933 -0.16323541 -0.5026448 0.12031018 0.21822912 0.2761323 -0.19769827 0.42297092 -0.24245706 0.16395731 0.37662512 -0.11268652 0.5294298 0.24024427 0.05603293 -0.097475596 -0.30881247 0.026867447 -0.13058719 0.15444052 -0.38494045 0.5984215 -0.094870955 0.12944931 0.028319847 0.56448716 0.5544588 -0.108934835 0.40559453 0.1331023 -0.0023466686 0.17603579 0.49627107 0.46709716 0.27839774 -0.6115059 0.25341082 -0.005742272
work -0.10790878 0.36044958 0.026411455 0.03772752 0.2392689 -0.5065227 0.33923945 0.69900316 -0.2713024 -0.2824886 -0.1325169 -0.4060973 -0.16721143 -0.03489539 -0.11486565 -0.01407127 0.12718049 -0.54836756 -0.12239174 -0.7333693 0.24518302 0.15093447 0.21598627 -0.14660613 -0.15097821 -0.022953175 -0.24617024 -0.19691372 -0.28349367 0.24438675 0.4531634 0.042817317 0.19851747 -0.25752318 -0.043498643 0.37514308 -0.06998211 -0.30122104 -0.13204059 -0.8950287 -0.0115659665 -0.28428158 -0.13704722 0.011790411 0.26086116 -0.31120247 -0.41114733 0.03616061 0.323815 0.13708688 0.046861053 -0.33689016 -0.130707 0.07305578 -0.18099679 0.33290112 0.20498171 -0.18610649 -0.4332329 0.18037401 0.2926026 0.25217542 -0.12478837 -0.13500093 -0.5046608 0.16815947 0.12461959 0.29417327 -0.21875003 0.3746499 -0.21366484 0.21411802 0.4281992 -0.10429859 0.50377905 0.121681415 0.055209864 -0.08617616 -0.26532006 -0.0077421404 -0.17329603 0.14609785 -0.45131415 0.66618353 -0.09250769 0.04312583 -0.018341547 0.50390506 0.5537804 -0.03788476 0.49480793 0.17020509 0.029286759 0.22405812 0.47500616 0.4969061 0.14610268 -0.5194681 0.18122892 -0.05429329
express -0.15385246 0.26614103 0.01891294 0.18146536 0.3086866 -0.60130537 0.28291577 0.79694754 -0.1701078 -0.36696342 -0.22212297 -0.4453806 -0.13353452 -0.03766544 -0.020202374 0.12512589 0.08643623 -0.48493758 -0.10209236 -0.78292114 0.118197866 0.19837224 0.2045952 -0.06284168 -0.09369517 0.010596382 -0.19468 -0.14811218 -0.33184445 0.27341342 0.46607965 0.08186216 0.15258352 -0.2192702 -0.09945241 0.4079839 -0.06876051 -0.49485275 -0.0945479 -0.7787519 -0.031672727 -0.27301005 -0.0913662 -0.009021253 0.4082442 -0.28124714 -0.3574389 -0.020738054 0.29235268 0.13686286 0.1565807 -0.3252966 -0.2036639 -0.051250003 -0.17676786 0.35538477 0.20771284 -0.096765526 -0.4474831 0.21785733 0.09265983 0.24219006 -0.14833269 -0.12176598 -0.48892066 0.18305807 0.12612 0.25740778 -0.16578752 0.45052925 -0.24307506 0.09000627 0.3150388 -0.17763476 0.5018751 0.1253818 0.02967274 -0.045808397 -0.24948102 0.0023947542 -0.10973955 0.19994672 -0.41538692 0.6023502 -0.053961314 0.11006081 -0.0278108 0.5478835 0.5118361 -0.066713214 0.44345486 0.10334631 0.017877884 0.22272517 0.50829524 0.48265523 0.25659636 -0.4512047 0.19861132 -0.059082784
devel -0.15713616 0.39706427 0.0290251 0.10807919 0.25966507 -0.48994035 0.30659166 0.70703375 -0.25707504 -0.29344243 -0.17234594 -0.41234747 -0.13620374 0.019305134 -0.07653679 -0.054254424 0.11707758 -0.50903034 -0.11618731 -0.6960064 0.20390742 0.11048798 0.13976684 -0.12594238 -0.14711727 -0.033880766 -0.2835459 -0.18471679 -0.29568073 0.2418513 0.4403529 0.09729422 0.15560634 -0.20867927 -0.08777481 0.44705415 -0.0762346 -0.3491748 -0.15098168 -0.93391937 -0.017257689 -0.25195014 -0.108398356 0.050336335 0.25311702 -0.3094656 -0.42978457 0.006530482 0.36610013 0.100651294 0.06260819 -0.4020265 -0.16551559 0.035396956 -0.2129459 0.32087347 0.24555519 -0.2170271 -0.45165446 0.1600506 0.3448643 0.27309045 -0.037805397 -0.1021562 -0.57306075 0.15687062 0.12742238 0.3037167 -0.24856526 0.41089097 -0.2158987 0.1882739 0.4468643 -0.08129323 0.5356876 0.18969616 0.0043148673 -0.09564342 -0.28779694 -0.06743418 -0.16656135 0.17710675 -0.45501962 0.61261517 -0.094313264 0.018722009 0.022164945 0.5054477 0.58719164 -0.041834317 0.50009745 0.20663853 0.033371985 0.22334419 0.46815857 0.48111928 0.166187 -0.5715959 0.25248235 -0.08627067
formula -0.17339979 0.24389486 0.01888999 0.12977213 0.3326289 -0.6558163 0.23367639 0.8286916 -0.13196014 -0.4080288 -0.22069061 -0.45615846 -0.1339516 -0.055545103 -0.03409402 0.17208062 0.093660295 -0.5147656 -0.078686565 -0.83385867 0.09974643 0.2091213 0.2667934 -0.07325356 -0.10927992 0.04516498 -0.13326313 -0.11980847 -0.30382904 0.2961924 0.49550602 0.092545845 0.14141579 -0.21743533 -0.056346506 0.38943505 -0.05922317 -0.5277201 -0.06008272 -0.7614671 0.004050378 -0.28125355 -0.10485257 -0.058167372 0.43181592 -0.2914577 -0.31935614 -0.032452382 0.23549348 0.12706469 0.18486366 -0.30625862 -0.23373193 -0.04727906 -0.13294622 0.40685552 0.18599503 -0.049968127 -0.4877491 0.25023946 0.03169849 0.21194717 -0.14737716 -0.10956304 -0.46798247 0.15708943 0.17417888 0.21388344 -0.14178301 0.49759647 -0.2264986 0.078457534 0.3003198 -0.1998519 0.4815024 0.15792294 0.02871011 -0.07224042 -0.22234964 0.03486901 -0.10180154 0.21861678 -0.39141488 0.63391167 -0.033268955 0.12987038 -0.062066082 0.61207825 0.49223787 -0.09189161 0.4191064 0.07872152 0.042280156 0.22884957 0.50223666 0.43782175 0.31108838 -0.40378293 0.15839602 -0.045343347
over -0.18352313 0.33119863 -0.025179785 0.093003504 0.3401533 -0.56400037 0.26999208 0.7748504 -0.15194534 -0.3475466 -0.2372771 -0.4260322 -0.093382835 -0.06040875 -0.029581398 0.07403003 0.096241 -0.51708305 -0.056490988 -0.7678185 0.08291631 0.1916161 0.13611802 -0.07915029 -0.099252634 -0.0049545285 -0.17301582 -0.17724177 -0.30824727 0.25395525 0.488942 0.105674654 0.114157036 -0.20655784 -0.078367464 0.4413513 -0.110203266 -0.4807881 -0.10837069 -0.85180897 0.029265268 -0.2591045 -0.094584584 -0.028842457 0.36791453 -0.26634404 -0.4343411 0.00542625 0.30175737 0.09575005 0.14993028 -0.31680843 -0.24058951 -0.011476084 -0.24372567 0.39827776 0.17671978 -0.13624343 -0.53557515 0.16013162 0.16783121 0.27130428 -0.12098829 -0.108586945 -0.4904821 0.14293087 0.16999169 0.23036979 -0.11832405 0.442266 -0.21307155 0.11292909 0.31957087 -0.1518778 0.5488459 0.16626321 0.04487438 -0.05328065 -0.24450347 0.004675641 -0.10746936 0.16693072 -0.41449475 0.61706895 -0.09954209 0.118386924 -0.01900141 0.615658 0.5501591 -0.10526879 0.438507 0.15636116 -0.012337677 0.20239457 0.48567674 0.45942834 0.2560457 -0.5712064 0.2293666 -0.008823909
complex -0.21299003 0.39604482 0.03070854 0.023639621 0.36339542 -0.5174254 0.27873638 0.7311086 -0.16722715 -0.2918105 -0.21842661 -0.45683178 -0.08531402 -0.036927294 -0.019924944 -0.016396075 0.087309 -0.48516116 -0.08502536 -0.73211104 0.20796026 0.12520055 0.13473816 -0.08069092 -0.0966606 -0.0008600757 -0.1397748 -0.16308697 -0.28780222 0.21684559 0.45223218 0.13766812 0.067643225 -0.20259498 -0.08982236 0.43515733 -0.07625325 -0.40475073 -0.14569017 -0.83105785 -0.01635795 -0.23498814 -0.07826682 -0.01386293 0.25792816 -0.28344306 -0.40112674 7.404346e-05 0.26263925 0.10627456 0.15784734 -0.36671755 -0.15592694 -0.02217388 -0.24247186 0.3967946 0.18638757 -0.14168362 -0.53031635 0.13989764 0.25499737 0.24772084 -0.087118715 -0.15422645 -0.48670894 0.15626019 0.21071756 0.26593262 -0.17213115 0.39169693 -0.2206188 0.16235298 0.36288002 -0.14411354 0.5349595 0.2475731 0.067224264 -0.06365919 -0.24280317 0.010593261 -0.17117323 0.16999432 -0.40396324 0.5889756 -0.13152708 0.13489063 -0.0101690125 0.5435754 0.5721237 -0.11159617 0.46525294 0.15688957 0.035479847 0.16128571 0.4623785 0.42282104 0.2593352 -0.59065384 0.26848173 -0.027605275
new -0.10877003 0.30563766 0.019307313 0.09371212 0.2047218 -0.49489632 0.31617138 0.68743587 -0.22801271 -0.2828985 -0.15410364 -0.3566466 -0.16763413 -0.052663494 -0.104284175 0.046203487 0.12064498 -0.5311315 -0.13907248 -0.6938404 0.18234937 0.18246944 0.19418481 -0.11006061 -0.117408805 -0.017246196 -0.2623758 -0.15217295 -0.28731596 0.2481082 0.40601513 0.049781192 0.18256235 -0.24499606 -0.05511399 0.37805906 -0.04736588 -0.31530857 -0.11253189 -0.8356447 -0.038642164 -0.26739347 -0.13173626 0.015153477 0.2967801 -0.2891244 -0.3962045 0.08390063 0.28400102 0.13685057 0.058360036 -0.3080413 -0.13349251 0.041851424 -0.17014806 0.29633746 0.19728781 -0.16778298 -0.42968264 0.17420803 0.21400996 0.23136202 -0.09988377 -0.12983628 -0.45531303 0.16546184 0.11749133 0.30190864 -0.19454102 0.35954538 -0.15964079 0.20861833 0.38722977 -0.11276908 0.4677685 0.11714121 0.028764984 -0.07140743 -0.2382382 -0.03581613 -0.1366357 0.14319669 -0.40941927 0.6182407 -0.06836756 0.049070165 -0.00038800706 0.49967477 0.4863064 -0.030560466 0.47761607 0.17577323 0.015290721 0.22352089 0.489449 0.47749224 0.13854767 -0.49123496 0.18509996 -0.042979818
term -0.1471336 0.3035253 -0.010898576 0.24931754 0.29858044 -0.6064992 0.28324908 0.84070945 -0.16496824 -0.36433956 -0.28246734 -0.42034003 -0.16077799 -0.11243571 -0.0382329 0.13756216 0.11003935 -0.57689196 -0.061917517 -0.8134186 0.056387536 0.27409795 0.1918972 -0.027320545 -0.115361676 0.020997442 -0.30898687 -0.20826454 -0.3657971 0.33866116 0.48437563 0.098215036 0.17096154 -0.22796556 -0.0952804 0.44052988 -0.16038553 -0.52315176 -0.082062766 -0.8533794 0.00090888125 -0.26930723 -0.11307533 0.0005104412 0.48630965 -0.30649766 -0.43643123 0.058931425 0.35250214 0.1456184 0.14407805 -0.29432243 -0.330047 -0.061412316 -0.17694333 0.35797712 0.16771044 -0.13208501 -0.46580112 0.1674076 0.074206054 0.30943412 -0.1705238 -0.14224288 -0.5243368 0.13584884 0.09550846 0.260368 -0.115863055 0.45753416 -0.14206015 0.15600508 0.31192276 -0.21831438 0.5302453 0.11456048 0.054528143 -0.0797438 -0.31723556 -0.029782966 -0.10195231 0.18968245 -0.46190763 0.6383232 -0.041249786 0.08715911 -0.063406356 0.68158156 0.50936043 -0.05761996 0.44627056 0.15474422 -0.03516268 0.31054533 0.5796682 0.49263027 0.24570416 -0.47667775 0.19315024 -0.09017102
defin -0.11278776 0.23642002 0.015470889 0.21738257 0.25930026 -0.5920919 0.28484946 0.7909832 -0.16918628 -0.37934878 -0.23138829 -0.41238508 -0.17451528 -0.037571948 -0.056536455 0.15723601 0.087501034 -0.52408445 -0.09721837 -0.78769743 0.09272499 0.24002007 0.22539057 -0.057133254 -0.13110211 0.013716608 -0.22942802 -0.14701349 -0.33807257 0.3076462 0.49847355 0.027712377 0.19714749 -0.20944946 -0.10675468 0.39185664 -0.076866604 -0.48347986 -0.042447697 -0.8044016 -0.021667939 -0.27844238 -0.12742244 0.022828061 0.47991204 -0.27946055 -0.35536945 -0.008504285 0.33090028 0.12907186 0.11848441 -0.28239024 -0.24913356 -0.047074754 -0.13038923 0.3215318 0.19831313 -0.11248035 -0.40139636 0.21267717 0.054246005 0.252361 -0.14631018 -0.09971883 -0.49500236 0.1594095 0.07426185 0.26025176 -0.14518787 0.45401934 -0.20029408 0.08690525 0.3005842 -0.16658267 0.4747375 0.07390274 -0.002480613 -0.0704325 -0.2773395 0.0043578404 -0.079209246 0.16241753 -0.43382528 0.6175576 0.0048519787 0.083685346 -0.03949049 0.5554914 0.46994004 -0.048006985 0.4303323 0.1039846 0.034889355 0.24423078 0.5477165 0.46544814 0.2287671 -0.41391364 0.17190562 -0.08610109
larg -0.37470675 0.6720758 -0.03149066 0.03044688 0.3979613 -0.2724936 0.2438932 0.66556954 -0.13899927 -0.21771726 -0.19959232 -0.2538191 -0.04979976 0.23097977 0.032502454 -0.36147594 0.18821786 -0.28359982 -0.08566796 -0.70438987 0.26080006 -0.043652866 -0.09541663 -0.20526493 0.069759 -0.32734987 -0.038751457 -0.120545566 -0.32648987 -0.022664726 0.26232916 0.13771662 0.043982662 -0.11892243 -0.21617746 0.6360697 0.12109085 -0.49055985 -0.21888359 -0.6040258 -0.061655916 -0.13644266 0.16420896 0.12238761 0.2003279 -0.045050856 -0.50781506 -0.16956437 0.30540702 -0.0918285 0.03417568 -0.3217545 -0.15347168 0.17187244 -0.38519597 0.34629583 0.41775596 -0.3156791 -0.43977085 -0.017064238 0.6645843 0.31969646 0.21284395 -0.14848578 -0.5359168 0.2649843 0.42312428 0.46795207 -0.4669481 0.30294207 -0.40326545 0.23739931 0.43898612 0.13967696 0.62762654 0.49714997 -0.018613392 -0.00041267672 -0.3776162 -0.16288924 -0.16249949 0.21465291 -0.42498472 0.48429993 -0.12727597 0.062179774 0.19557546 0.1250765 0.7480421 0.12939197 0.3882153 0.21057814 -0.09238452 0.0053353147 0.31875896 0.57009405 0.12190168 -0.7293677 0.6637241 0.0262382
implement -0.098167606 0.40173334 0.036925197 -0.016115569 0.27312753 -0.46991393 0.35425827 0.65732765 -0.2959814 -0.23526187 -0.1458802 -0.3832152 -0.15262954 -0.07014917 -0.089068815 -0.07285231 0.13563961 -0.49499014 -0.100880235 -0.6775772 0.25985086 0.116630636 0.1968492 -0.15540877 -0.12841368 -0.015470566 -0.22531788 -0.20731515 -0.23585135 0.22991674 0.47080913 0.09952948 0.16998878 -0.26153556 -0.054383103 0.412442 -0.03841177 -0.2620468 -0.21319371 -0.95690936 0.015139459 -0.25163454 -0.11269472 -0.038877368 0.16075262 -0.34902912 -0.44119447 0.07174504 0.3139749 0.063758746 0.06161895 -0.38691145 -0.09752595 0.08691388 -0.24969076 0.3248825 0.20018244 -0.20096596 -0.46631256 0.14675601 0.39854312 0.26196036 -0.08362502 -0.1639796 -0.48071525 0.17582205 0.17066649 0.294274 -0.26735815 0.32230178 -0.2451548 0.26471704 0.4339247 -0.028300337 0.52455574 0.18191642 0.07113135 -0.06230735 -0.27684784 -0.026822867 -0.16076182 0.13422628 -0.45175305 0.6575838 -0.16477594 0.058259107 0.054275017 0.47132364 0.5391802 -0.046089254 0.53291756 0.20198788 -0.009835418 0.15005788 0.5010111 0.46586296 0.15930793 -0.58507633 0.22634849 -0.07211829
rule -0.132869 0.3034316 0.034956947 0.13431682 0.29671535 -0.56143486 0.2872283 0.7704879 -0.15810262 -0.31522697 -0.23021352 -0.42626414 -0.16282362 -0.057864714 -0.07082357 0.075457565 0.090156056 -0.5349698 -0.11752818 -0.7491866 0.15978439 0.20782481 0.20697191 -0.08560887 -0.11255375 0.012992705 -0.24395585 -0.15651584 -0.31608385 0.2761009 0.44519982 0.07063911 0.18009025 -0.22681022 -0.08587403 0.43008345 -0.07258589 -0.41935575 -0.1408367 -0.81006634 -0.020509623 -0.2643889 -0.121969745 -0.0017785556 0.36927494 -0.34667757 -0.39343768 0.011119348 0.31234396 0.13892782 0.11746157 -0.3334933 -0.21850674 0.011300945 -0.17511314 0.35096404 0.2372496 -0.15991831 -0.43256488 0.16439915 0.14211546 0.25441673 -0.12971936 -0.1455894 -0.51419866 0.16772237 0.11703289 0.27039024 -0.17215122 0.4211062 -0.20741932 0.1576361 0.35098717 -0.12699547 0.47570747 0.17268506 0.06103658 -0.08812029 -0.284999 -0.015102078 -0.11508928 0.15916824 -0.4098103 0.618274 -0.09707918 0.10517999 -0.03933906 0.5852503 0.4973299 -0.039964538 0.435767 0.14814484 0.0035674274 0.23773251 0.53468674 0.4864552 0.20202528 -0.45067933 0.18019544 -0.07747501
net -0.40994716 0.6278466 0.014300142 -0.28122437 0.44074526 -0.5924761 0.27135167 0.87641656 -0.02292744 -0.3442757 -0.12982513 -0.40960932 0.119323485 -0.056688663 0.021250658 -0.17410776 0.024475442 -0.52755576 -0.009590071 -0.7180225 0.35189754 -0.019399036 0.06353686 -0.21733308 -0.0017145079 -0.07389814 -0.031972177 -0.09174113 -0.17988707 0.012291999 0.38811138 0.13100554 -0.0784261 -0.07450361 0.112948574 0.5313096 -0.06495534 -0.38904244 -0.11482849 -1.0818458 -0.079183765 -0.29106176 -0.07672138 -0.20238031 0.08172555 -0.42050794 -0.35939744 -0.056815945 0.058597907 0.10839293 0.08415675 -0.28518885 -0.14083242 -0.02708004 -0.17230305 0.46477127 0.23070972 -0.12305816 -0.6067301 0.16046262 0.48505035 0.0931884 0.013098034 -0.3259419 -0.5234581 0.19761467 0.31022352 0.24168931 -0.18539847 0.50773257 -0.07456132 0.0789772 0.46260923 0.08725669 0.49304676 0.2651341 0.11704312 -0.28601402 -0.2692706 0.2739303 -0.28254816 0.013254889 -0.31571633 0.5033104 -0.14466013 0.21336703 -0.04222301 0.58280987 0.7880405 -0.33902678 0.42726856 0.055050783 0.1562381 0.12968901 0.34501088 0.2812196 0.4148516 -0.8057962 0.20082936 -0.018806424
graph -0.20262423 0.35295135 0.023024678 0.076937445 0.27418536 -0.524133 0.25864014 0.77330357 -0.1356658 -0.33108655 -0.21876532 -0.4007286 -0.10786489 -0.05072338 -0.026014354 0.04491171 0.068890646 -0.5226042 -0.09056413 -0.7168131 0.13649149 0.1618781 0.13892572 -0.069160216 -0.11646262 -0.039564133 -0.22753054 -0.15871729 -0.27735594 0.22040297 0.42969435 0.07876452 0.102630705 -0.18935898 -0.056545965 0.41402444 -0.085811965 -0.39190957 -0.112978704 -0.8520638 -0.020491298 -0.23695527 -0.113349825 -0.02719504 0.32038155 -0.3112256 -0.41355145 0.026362538 0.26762643 0.15776534 0.10332799 -0.28730568 -0.19964394 -0.027295506 -0.19275637 0.37562326 0.20453341 -0.16675188 -0.43802842 0.15472461 0.17857659 0.24404486 -0.11064283 -0.1423968 -0.51488996 0.14086926 0.13806681 0.277983 -0.15392022 0.43234614 -0.1529771 0.12790987 0.33055153 -0.13433333 0.48632267 0.13587625 0.076468155 -0.098232426 -0.26030678 0.052668985 -0.14152573 0.12213365 -0.3981222 0.6008903 -0.08855642 0.09966403 -0.047831614 0.5838098 0.56332654 -0.10010303 0.40832096 0.13381813 0.031511217 0.23425494 0.49282864 0.44653898 0.23497546 -0.5408866 0.21021241 -0.045997806
finit -0.16013196 0.29912272 -0.022787806 0.13338132 0.29230317 -0.6094011 0.31362405 0.7853219 -0.12912561 -0.35019585 -0.22632687 -0.42152464 -0.10112039 -0.107408844 -0.04411871 0.13926995 0.10086179 -0.5338837 -0.08743554 -0.79109114 0.06349691 0.20805256 0.18012935 -0.044471707 -0.12525514 0.039392035 -0.2023699 -0.19021343 -0.27628067 0.2787435 0.47621167 0.10422202 0.1377663 -0.21963328 -0.086541295 0.3882693 -0.108095765 -0.46339747 -0.07309108 -0.8146401 0.00078730343 -0.28202614 -0.07500951 -0.019966977 0.40727308 -0.30829284 -0.38809803 0.028209805 0.28667244 0.15722638 0.13584268 -0.24289985 -0.23766704 -0.050055582 -0.18770145 0.3783214 0.1411553 -0.137088 -0.48741877 0.17692831 0.10197852 0.21828541 -0.1444505 -0.10913952 -0.45797104 0.13010928 0.12699158 0.21166854 -0.08339752 0.42802563 -0.15697667 0.1090419 0.28719512 -0.21640667 0.5354643 0.15405418 0.04981738 -0.07152079 -0.23831932 0.03687503 -0.09216019 0.15187995 -0.4412277 0.5962742 -0.03101461 0.10278165 -0.06063054 0.64157903 0.49667352 -0.10268333 0.45103955 0.11551246 0.036757927 0.26411176 0.51725423 0.43837222 0.24516673 -0.4602766 0.15474042 -0.03459285
applic -0.17058508 0.40422782 0.036831815 0.00535206 0.32341 -0.47437963 0.28307986 0.676135 -0.18567578 -0.26764587 -0.1950437 -0.42722142 -0.09613079 -0.018973803 -0.07221276 -0.037284918 0.08571421 -0.46023834 -0.090811886 -0.66830766 0.20763904 0.13092865 0.14171457 -0.102014475 -0.12625237 -0.009566342 -0.1932413 -0.18441193 -0.27105555 0.22895971 0.4459565 0.12705736 0.099144325 -0.21007197 -0.05890913 0.43273982 -0.0818747 -0.35126963 -0.15336412 -0.8722697 0.008279887 -0.19982068 -0.104442425 -0.032342765 0.22097574 -0.28453293 -0.41257247 0.034305226 0.30526567 0.06563985 0.11454812 -0.37652272 -0.14096653 0.03694728 -0.2428271 0.36331496 0.17048271 -0.18078388 -0.46209568 0.12192037 0.3341526 0.2320602 -0.0923645 -0.11867319 -0.49251756 0.13858883 0.1757518 0.23747884 -0.18505996 0.35843477 -0.20717038 0.20198016 0.40457767 -0.10728633 0.510902 0.24135809 0.064443976 -0.11375206 -0.25939992 -0.031165034 -0.18016541 0.15878116 -0.39166024 0.6002326 -0.14377329 0.08728026 0.018113716 0.5266479 0.53813714 -0.086566 0.46353775 0.17656821 0.019744344 0.1860134 0.4408369 0.4256845 0.18564859 -0.60019606 0.24905896 -0.048769224
generat -0.24306983 0.4719373 0.0010270315 0.05732789 0.32665116 -0.49397406 0.26346493 0.72321194 -0.15208293 -0.2612954 -0.25341153 -0.42756882 -0.086840086 0.012111672 -0.049371533 -0.07137258 0.1067414 -0.45544252 -0.05732708 -0.74004126 0.17381641 0.12670524 0.112453595 -0.14948605 -0.06887281 -0.079753585 -0.13159864 -0.13059416 -0.27619776 0.15366982 0.43243554 0.1234315 0.11345161 -0.14930083 -0.111633725 0.5113686 -0.03169556 -0.45262963 -0.1784876 -0.792058 0.003094956 -0.24650726 -0.021501476 -0.011943335 0.24581654 -0.250705 -0.44790447 -0.039899856 0.23659758 0.025747 0.13404982 -0.35632515 -0.15939897 0.043092005 -0.31268898 0.40599868 0.26554337 -0.1979228 -0.5252174 0.116420664 0.39557764 0.2588961 -0.039611984 -0.13388927 -0.47491276 0.15401362 0.23893987 0.34369272 -0.2386358 0.38249785 -0.22754143 0.19478197 0.3861031 -0.041725263 0.5883507 0.32069945 0.040857714 -0.0788245 -0.27528837 -0.005633296 -0.17780678 0.13795257 -0.4078412 0.60257506 -0.12979732 0.09003915 0.054561093 0.44901347 0.608121 -0.042592105 0.44076017 0.1655902 -0.029711246 0.12398056 0.44591025 0.5001925 0.23331995 -0.5865923 0.350673 0.004177699
analysi -0.15625718 0.4154827 0.03271386 -0.008911759 0.3370456 -0.4726024 0.2788681 0.7141815 -0.22316596 -0.26283532 -0.20607448 -0.438904 -0.11201566 -0.010964229 -0.05492213 -0.060361754 0.106004484 -0.4783682 -0.060097612 -0.66851056 0.24200928 0.086533405 0.20476103 -0.14142153 -0.10075215 0.0067826845 -0.16282444 -0.17294666 -0.29247844 0.20955221 0.4651896 0.112141736 0.12221175 -0.19670446 -0.042864267 0.4346726 -0.037985202 -0.32984164 -0.20995182 -0.88636637 -0.0294814 -0.21320438 -0.10368585 -0.048889257 0.1504488 -0.31045526 -0.405993 0.06209644 0.2876173 0.07452727 0.096008725 -0.40492722 -0.11056331 0.035454754 -0.21424727 0.348871 0.20928095 -0.1825896 -0.4932984 0.11800656 0.37005556 0.22130999 -0.05653677 -0.1526105 -0.5144339 0.14727423 0.18061602 0.28840184 -0.22130449 0.39695963 -0.20568462 0.20444825 0.40408286 -0.0764423 0.49596974 0.2197805 0.07469035 -0.086568505 -0.2652659 0.0008331536 -0.17569692 0.13622032 -0.42498404 0.6048007 -0.1617482 0.068919845 0.028384913 0.49199387 0.5445788 -0.08384855 0.50204104 0.16746777 -0.014403774 0.17631972 0.46043885 0.4499097 0.18050909 -0.6151781 0.23855846 -0.061339866
more -0.2250303 0.4111026 0.006904538 0.05911609 0.298194 -0.5304599 0.3187201 0.7584453 -0.17767619 -0.29099977 -0.2292569 -0.44863167 -0.08198714 -0.06708472 -0.038233925 -0.030807942 0.104541555 -0.5273326 -0.060663298 -0.7597002 0.2006474 0.16930375 0.15342014 -0.0838852 -0.12900968 0.0006409928 -0.22726943 -0.19054373 -0.2761405 0.22383165 0.43485647 0.14100544 0.07612244 -0.17898414 -0.043004677 0.43866253 -0.09523854 -0.41325453 -0.15831393 -0.8741774 -0.020660486 -0.23611552 -0.080324925 0.01291687 0.28604475 -0.28915 -0.4438878 0.023884865 0.29205656 0.12773888 0.10838682 -0.31907985 -0.17426555 -0.0074131233 -0.2598863 0.3715456 0.20723166 -0.15163253 -0.50268096 0.1701024 0.29171902 0.25382227 -0.11895291 -0.15328543 -0.53756565 0.15506393 0.14392477 0.29862675 -0.17679837 0.40069336 -0.2182101 0.19712168 0.38619196 -0.12110817 0.5526597 0.19744718 0.071427524 -0.07339311 -0.28804085 0.0064415946 -0.15818205 0.19403714 -0.42001417 0.6142989 -0.10209003 0.10760856 -0.033001732 0.5707249 0.57926357 -0.08316893 0.48275417 0.16293374 0.00549787 0.1923719 0.48667648 0.48334703 0.25444412 -0.59748787 0.26449013 -0.059454814
well -0.16548084 0.33104345 0.012330929 0.11835638 0.32908407 -0.5573725 0.30205515 0.8017007 -0.17750672 -0.36194485 -0.25994405 -0.44338888 -0.10637083 -0.039913725 -0.05735843 0.06067455 0.08023063 -0.5418743 -0.07284766 -0.78265226 0.16215299 0.16727886 0.16554564 -0.055800036 -0.108810574 -0.011480727 -0.20199047 -0.17549117 -0.30464587 0.27567044 0.46316656 0.12666419 0.12142316 -0.21646197 -0.08087469 0.44991335 -0.08612239 -0.45780814 -0.12153708 -0.88731396 -0.0024775066 -0.26827887 -0.09967057 0.014179943 0.37649646 -0.3201269 -0.43017375 0.030791601 0.33025965 0.113585174 0.14749537 -0.33113948 -0.21880126 -0.020645006 -0.21935804 0.37444973 0.18879084 -0.1663113 -0.5149274 0.18558446 0.17971888 0.2709431 -0.12369572 -0.13364594 -0.5439499 0.13217369 0.16053279 0.27626243 -0.15645938 0.46176338 -0.20727696 0.17499016 0.37065098 -0.18251193 0.5456213 0.17731313 0.08168585 -0.11470861 -0.26916945 0.018082129 -0.12949441 0.16569929 -0.4619513 0.61484134 -0.062040508 0.0819175 -0.006945374 0.6176106 0.56655794 -0.07256523 0.46171853 0.16091885 0.012586975 0.2437957 0.50276494 0.46651477 0.2511204 -0.5444619 0.2468286 -0.04167922
allow -0.19662489 0.3579406 0.016516611 0.09761855 0.31142852 -0.5442788 0.2829614 0.77324045 -0.15919927 -0.3236839 -0.26882553 -0.46512595 -0.11632892 -0.05407835 -0.075141676 0.008092065 0.10489707 -0.5221508 -0.0717344 -0.7671569 0.14503247 0.20735319 0.14530846 -0.10364721 -0.09479353 -0.014372633 -0.2279378 -0.18414369 -0.33412546 0.2474203 0.48526084 0.13461974 0.1066335 -0.21628201 -0.09718862 0.44112873 -0.11366924 -0.46530467 -0.12743562 -0.89010924 -0.01687099 -0.22957073 -0.09262345 -0.0148904 0.35760316 -0.32151896 -0.43758827 0.030124111 0.31102565 0.102706954 0.14982599 -0.35736084 -0.22061208 0.0020604343 -0.24190643 0.39751425 0.17435852 -0.14961585 -0.5273116 0.15969536 0.22590822 0.29757157 -0.104245014 -0.15146877 -0.51923317 0.1249828 0.12886173 0.28099665 -0.14972275 0.41284472 -0.17090131 0.17997631 0.34467903 -0.14028463 0.53840923 0.21493901 0.05187541 -0.074994385 -0.3053488 -0.015786594 -0.14671731 0.16052262 -0.4312835 0.6170317 -0.11452374 0.10796633 0.012036821 0.56847775 0.55592185 -0.076523945 0.48292667 0.15807216 -0.029523585 0.20281692 0.5037038 0.47340983 0.25079146 -0.5397687 0.24301834 -0.027492031
non -0.1690346 0.32150453 0.030149382 0.17749555 0.33566168 -0.6590657 0.27102926 0.82088983 -0.18944336 -0.32595626 -0.29603454 -0.504932 -0.117301255 -0.041595247 -0.021681577 0.09006955 0.113500886 -0.5897408 -0.1077112 -0.85130507 0.14481378 0.2143891 0.23519129 -0.05553852 -0.13749994 0.045487657 -0.23622742 -0.1677098 -0.37461746 0.31978208 0.5059083 0.12111502 0.14012483 -0.2258956 -0.09770906 0.41469002 -0.10110051 -0.52328277 -0.11722254 -0.87203956 -0.0039604395 -0.29927877 -0.13179523 -0.03303182 0.44581503 -0.34586674 -0.45093298 -0.0037745505 0.3616326 0.11924176 0.14061554 -0.34235173 -0.24059632 -0.030058045 -0.20573565 0.3707109 0.17625274 -0.17038244 -0.4859306 0.21186346 0.1395017 0.25104126 -0.17538024 -0.13200095 -0.5657009 0.18798219 0.1410861 0.2575676 -0.1489243 0.49895695 -0.2248082 0.15124467 0.35344842 -0.21397145 0.528367 0.17662401 0.039677255 -0.07870271 -0.2659504 -0.026323639 -0.14581853 0.17059672 -0.43898174 0.6797892 -0.05117586 0.110795 -0.067405716 0.6526716 0.5650497 -0.11946206 0.50031435 0.15305676 0.020184252 0.2609318 0.52053684 0.48140103 0.23991415 -0.49655047 0.18214747 -0.04604313
effect -0.14014755 0.3927612 0.022728007 0.06791666 0.2717937 -0.4848404 0.31510746 0.6964648 -0.21559848 -0.26684713 -0.2061703 -0.38912186 -0.10811437 -0.07908947 -0.080236 -0.021184448 0.09793819 -0.5215455 -0.09726747 -0.7051645 0.18695441 0.16409597 0.1483198 -0.11252575 -0.098125584 -0.008217173 -0.20858032 -0.16425543 -0.2673852 0.21259642 0.43961886 0.118419334 0.12299363 -0.2220912 -0.058901984 0.4110454 -0.08840903 -0.3498071 -0.13439228 -0.88036036 0.0074187093 -0.23519509 -0.10335343 -0.049107186 0.25853062 -0.32860583 -0.4378763 0.053869367 0.281828 0.08721988 0.07291797 -0.31038204 -0.12982695 0.01874752 -0.23101668 0.32281527 0.14563738 -0.1691174 -0.48219883 0.13657606 0.30741602 0.24247871 -0.08719971 -0.1594191 -0.47696567 0.15848258 0.1476945 0.2792609 -0.15793116 0.33973095 -0.19941494 0.20720653 0.36043563 -0.10596141 0.53275436 0.17654355 0.06606327 -0.08196928 -0.24909753 0.0011494441 -0.135514 0.14067625 -0.4251606 0.61136276 -0.106106415 0.07870366 0.021101892 0.5134829 0.53058136 -0.09053091 0.48164818 0.18211693 0.0011057548 0.18232593 0.49743918 0.46011224 0.16813646 -0.5527598 0.22103027 -0.039642826
