915 100
comput -0.23284987 0.2973535 0.15422647 0.0734452 0.12596664 -0.7709266 0.16268662 1.1004888 -0.34949836 -0.22522555 -0.27355617 -0.6664946 -0.05912783 0.108404584 0.055538174 -0.42700326 0.07251058 -0.5527793 -0.02742329 -1.0986199 0.15004562 0.14542356 0.156089 -0.14925258 -0.22008917 0.05966036 -0.496287 -0.23174244 -0.30971065 0.09404323 0.54091924 0.113414116 0.24694422 -0.16344924 -0.4892388 0.40541133 -0.14454898 -0.52160716 -0.42960897 -0.82211286 0.14036445 -0.28503606 -0.18549748 -0.059520427 0.28905812 -0.041550007 -0.32367688 -0.026520379 0.19613987 0.4574295 0.25030756 -0.43418148 -0.24090001 0.1449241 -0.45764574 0.29659122 0.36412254 -0.07540984 -0.53790087 0.16855727 0.2844312 0.17042468 -0.14393848 -0.33511218 -0.82442415 0.3378306 0.2567386 0.31921005 -0.5992671 0.43300956 -0.2653866 0.101849884 0.4666219 -0.15715739 0.44634438 0.3677847 -0.05762355 -0.12188361 -0.50293005 0.18874066 -0.33757034 -0.08612706 -0.48002765 0.6761214 0.12965702 0.1267005 -0.10337559 0.7115028 0.6270387 0.21854478 0.68317175 0.22548345 -0.09807981 0.10647502 0.7254576 0.6623604 0.202835 -0.6847406 0.2437534 -0.16414331
we -0.2748885 0.34486827 0.1760972 0.07794453 0.16084486 -0.882262 0.18027182 1.2567327 -0.3963823 -0.26039913 -0.32188052 -0.77142334 -0.06813029 0.12434308 0.07384014 -0.47939557 0.08774989 -0.627066 -0.0246052 -1.2466278 0.16540748 0.1564935 0.18091767 -0.1832532 -0.2521133 0.07631194 -0.57239044 -0.26765257 -0.3478513 0.119114526 0.6372838 0.12528536 0.26988724 -0.1857195 -0.5538496 0.47113565 -0.16795851 -0.58396876 -0.48160115 -0.92643374 0.17993824 -0.33930022 -0.20991065 -0.063238546 0.32731974 -0.03873188 -0.35563618 -0.0444703 0.22049387 0.5139127 0.30277562 -0.5120672 -0.26989585 0.16859467 -0.53443426 0.35410127 0.42124856 -0.07031188 -0.6114452 0.18899018 0.3174182 0.19638263 -0.16531485 -0.3784907 -0.93722993 0.3898117 0.30329576 0.35317224 -0.67362595 0.49996084 -0.31498015 0.09709731 0.5410303 -0.16170524 0.50468093 0.41389236 -0.0837631 -0.14187123 -0.56627196 0.22218812 -0.39587814 -0.09602445 -0.5508783 0.7597666 0.15690796 0.14059204 -0.1261323 0.80974567 0.72355354 0.23694323 0.7799782 0.2560269 -0.114598446 0.11255231 0.81771517 0.7549734 0.24860021 -0.778364 0.2687442 -0.19027446
data -0.23960678 0.3095869 0.14786874 0.06311515 0.14654359 -0.77969944 0.15651555 1.1296417 -0.36301914 -0.22075918 -0.29515684 -0.6899129 -0.046553325 0.106459975 0.07066968 -0.44528577 0.07811761 -0.5609966 -0.028727317 -1.1262296 0.13807526 0.13785489 0.15025833 -0.1636087 -0.22492044 0.059841942 -0.50299674 -0.23815037 -0.31890565 0.10418362 0.57098246 0.10908165 0.23654449 -0.1639543 -0.5110201 0.4196963 -0.15837733 -0.5280016 -0.43985692 -0.84310085 0.14837858 -0.29631203 -0.18242773 -0.05018666 0.30208683 -0.036080506 -0.32365268 -0.04092749 0.19352719 0.4613238 0.26882863 -0.45495254 -0.25021744 0.1409176 -0.49020398 0.3039458 0.36903432 -0.073739216 -0.55602 0.15934028 0.29910198 0.17132041 -0.13588807 -0.33514184 -0.85499436 0.35412833 0.27401447 0.3284422 -0.6205898 0.45064637 -0.27524844 0.10223042 0.48653856 -0.14960735 0.45181328 0.3878005 -0.059039284 -0.12134947 -0.5170194 0.20378378 -0.3455446 -0.09828565 -0.509465 0.6894189 0.14150913 0.122006945 -0.119252846 0.72964936 0.6571425 0.2171417 0.6974235 0.23843281 -0.09539863 0.10464156 0.747862 0.68204856 0.22397731 -0.6978396 0.25901768 -0.18333627
research -0.23681976 0.30270165 0.14725925 0.059297066 0.13643463 -0.7569037 0.15682085 1.080863 -0.33061197 -0.22583008 -0.26662982 -0.6503475 -0.050471086 0.094533734 0.06811257 -0.42022905 0.07821111 -0.5509168 -0.027171228 -1.063743 0.14144002 0.13509528 0.1568005 -0.13858339 -0.2331752 0.06511174 -0.48116845 -0.22907309 -0.294914 0.095991515 0.54012084 0.1075949 0.22602078 -0.15557912 -0.47437114 0.41073775 -0.14079127 -0.5125858 -0.4308123 -0.79365355 0.14974128 -0.2797229 -0.16669062 -0.056998514 0.29172397 -0.036854286 -0.30844066 -0.039329078 0.18521978 0.4382722 0.25985605 -0.4313496 -0.24145024 0.13150185 -0.46518865 0.2971723 0.35669562 -0.05625184 -0.5197328 0.1512951 0.28110972 0.1714619 -0.13005929 -0.3215716 -0.8046761 0.32391647 0.2526848 0.31700948 -0.5872784 0.4142062 -0.2615578 0.08682926 0.45878723 -0.13429756 0.43151903 0.35651714 -0.0710051 -0.11177155 -0.49636474 0.19646017 -0.33619753 -0.079904065 -0.4728938 0.66095054 0.13208602 0.11927035 -0.09960357 0.70954955 0.61678874 0.19744344 0.6612184 0.22055684 -0.10146869 0.10155589 0.71510375 0.64400256 0.21485941 -0.67427295 0.23754402 -0.17317444
scienc -0.1859561 0.2299695 0.1078749 0.04668131 0.106059924 -0.5805359 0.12163813 0.84115463 -0.2672854 -0.16256365 -0.22231677 -0.50613767 -0.050993193 0.0793692 0.040489573 -0.33174095 0.050531924 -0.41975555 -0.009137828 -0.8407295 0.10994101 0.09925196 0.12237715 -0.10643432 -0.1777732 0.049464334 -0.38041604 -0.1773481 -0.24051596 0.076527275 0.42764592 0.08916703 0.18368776 -0.12997904 -0.36569875 0.30748925 -0.1199876 -0.3932688 -0.3311556 -0.6262354 0.11724478 -0.22910395 -0.14608441 -0.033653073 0.22874568 -0.038462963 -0.23905748 -0.028323261 0.15278539 0.3363134 0.20335647 -0.33278233 -0.17021804 0.10541749 -0.35937867 0.22370923 0.26588458 -0.062198684 -0.41049653 0.11383764 0.2243335 0.124280475 -0.10560094 -0.25050676 -0.6347347 0.25569245 0.2079729 0.24989164 -0.4635697 0.34106383 -0.21415135 0.07680389 0.35593906 -0.10971877 0.34245878 0.28979436 -0.054149285 -0.08575595 -0.3752569 0.141739 -0.26636267 -0.07504944 -0.3708326 0.51148254 0.09667513 0.08675476 -0.07558632 0.55128574 0.47267073 0.15731385 0.5261231 0.1682871 -0.0720837 0.07630036 0.55381703 0.49625346 0.16945475 -0.51538587 0.18902211 -0.12904863
from -0.23820935 0.29428834 0.1465009 0.051934328 0.122393005 -0.753119 0.1581731 1.0767305 -0.34481445 -0.22428711 -0.28115174 -0.65619606 -0.060825333 0.091570325 0.055953298 -0.42682087 0.063167505 -0.5506137 -0.02097025 -1.0712603 0.13041204 0.13638397 0.15533198 -0.14010374 -0.22950833 0.05800614 -0.48410282 -0.24245384 -0.2960429 0.101677686 0.5446886 0.102734655 0.22712453 -0.16226989 -0.47918665 0.41078517 -0.14346416 -0.5012477 -0.41624677 -0.8061304 0.15665108 -0.29271996 -0.18032068 -0.056409612 0.28326282 -0.04314949 -0.31040117 -0.028422065 0.18691073 0.43863484 0.25734136 -0.43945032 -0.22393021 0.15010646 -0.46848142 0.2986909 0.36443555 -0.07337814 -0.5324805 0.14724322 0.28885272 0.16680144 -0.12769173 -0.32924828 -0.8040892 0.33142692 0.25425687 0.31032678 -0.59252286 0.41432792 -0.26441804 0.0979703 0.46766254 -0.13831133 0.4330095 0.3695238 -0.07630645 -0.115923 -0.48943713 0.19814141 -0.32415885 -0.0930541 -0.4714815 0.648587 0.13285671 0.113195784 -0.11364166 0.7135363 0.6172888 0.21066302 0.6772636 0.23105247 -0.10832058 0.10098024 0.71431524 0.6512843 0.20731293 -0.67538476 0.24282911 -0.17374772
system -0.20054786 0.26295906 0.13409713 0.05720763 0.12092513 -0.68575037 0.14712207 0.9802412 -0.31189153 -0.20014115 -0.24523799 -0.59692156 -0.049216364 0.1012642 0.049870446 -0.38237342 0.07339404 -0.4913514 -0.015023057 -0.9863966 0.12880547 0.12313604 0.14333043 -0.13329312 -0.2023375 0.059522625 -0.44685575 -0.21916527 -0.27133128 0.085010976 0.4991211 0.11136947 0.21160536 -0.1370177 -0.4441358 0.36942533 -0.14437965 -0.47178215 -0.3913852 -0.74349236 0.1417026 -0.26641023 -0.14947914 -0.056754574 0.26256177 -0.027506515 -0.29122737 -0.043571714 0.1664993 0.3994784 0.23183078 -0.40262413 -0.2216348 0.13305166 -0.4278167 0.2614196 0.32265386 -0.06820702 -0.4876473 0.13308972 0.25586948 0.14737736 -0.11864793 -0.2910671 -0.7421 0.3068789 0.22516553 0.2764515 -0.54093415 0.3820549 -0.24656852 0.09011045 0.41744977 -0.12751922 0.40415677 0.32160497 -0.05575255 -0.10243672 -0.451084 0.1837588 -0.29590854 -0.08558523 -0.44253793 0.6042617 0.120089546 0.10643959 -0.089379914 0.6389033 0.5598553 0.18948907 0.6070073 0.20288575 -0.09629232 0.09529175 0.642945 0.5907705 0.19843286 -0.61448926 0.2176729 -0.14697348
paper -0.1819534 0.23942561 0.13197646 0.059460405 0.105079226 -0.62578976 0.13171451 0.8904771 -0.2861151 -0.18808098 -0.23092166 -0.5458554 -0.0405848 0.08070645 0.049755733 -0.34542218 0.062145285 -0.4543997 -0.02101331 -0.9007928 0.11698652 0.12154674 0.12381693 -0.13196889 -0.19380184 0.058592476 -0.40922877 -0.18756565 -0.25437638 0.08854137 0.4421151 0.09592668 0.19270411 -0.13508229 -0.4017508 0.3333159 -0.13063607 -0.42345464 -0.35869798 -0.6671422 0.13199829 -0.24010459 -0.14498343 -0.041490693 0.24567057 -0.040883128 -0.26626706 -0.033681247 0.16534087 0.36714873 0.20330669 -0.36032903 -0.18335709 0.10995463 -0.3881665 0.25701126 0.2863381 -0.051394418 -0.43671915 0.13618325 0.24213448 0.13567863 -0.11853646 -0.2580768 -0.67172796 0.2810163 0.20212568 0.2668913 -0.4884061 0.346555 -0.22055723 0.075695835 0.38809228 -0.12286949 0.35794857 0.30321914 -0.04583297 -0.10475971 -0.40613258 0.15402254 -0.28353098 -0.072384775 -0.40684056 0.5519805 0.11271285 0.10030654 -0.08503505 0.5972293 0.52418894 0.17078868 0.55864495 0.18053184 -0.091843076 0.092565835 0.5852968 0.5370492 0.17165418 -0.55943155 0.20327464 -0.14380251
inform -0.16219722 0.20330901 0.102257155 0.05113536 0.093817115 -0.49698973 0.112426 0.7090715 -0.23120187 -0.14014418 -0.1793713 -0.44058618 -0.025160054 0.06364503 0.047749914 -0.2769182 0.03941999 -0.36448938 -0.019704292 -0.7144617 0.09464012 0.10160893 0.10783839 -0.10522975 -0.1441389 0.04286262 -0.32672083 -0.16452748 -0.19661424 0.055501584 0.36472586 0.06868045 0.16035925 -0.09165104 -0.31900933 0.27247268 -0.10072894 -0.32912663 -0.27695465 -0.54389113 0.095380925 -0.18629876 -0.11480185 -0.03826855 0.1879306 -0.029293805 -0.20608406 -0.02027658 0.120940305 0.28861707 0.16846459 -0.28621098 -0.15458202 0.08893819 -0.30102652 0.19404279 0.23762874 -0.04382944 -0.34362972 0.09473745 0.17946216 0.1060318 -0.081190616 -0.21533084 -0.54769343 0.21868604 0.16339009 0.21024594 -0.39953536 0.28399342 -0.18683971 0.062282328 0.3118757 -0.088602334 0.28046572 0.23316512 -0.051590133 -0.08740255 -0.33582222 0.12717716 -0.2202167 -0.06509793 -0.31021014 0.4390093 0.094475575 0.08341958 -0.070164606 0.45966113 0.4088188 0.14262113 0.43881822 0.1482315 -0.06390295 0.067468815 0.47860593 0.43830672 0.14054725 -0.43568435 0.16517855 -0.117309265
model -0.16531254 0.19857906 0.096195154 0.051595557 0.09069242 -0.53498507 0.103139624 0.7591198 -0.23994692 -0.15667245 -0.1919882 -0.46247086 -0.039185673 0.071429655 0.039324377 -0.28488016 0.05173654 -0.3925033 -0.0065873223 -0.7584993 0.09917558 0.10104243 0.09768873 -0.1061604 -0.14780323 0.03961684 -0.34961638 -0.1546769 -0.21017209 0.062161025 0.3867454 0.08225901 0.16752794 -0.098492995 -0.34478608 0.2880081 -0.10344451 -0.3514404 -0.2947629 -0.56066144 0.10823457 -0.19397953 -0.12520899 -0.042655703 0.19980375 -0.025831392 -0.22175004 -0.020004487 0.13709028 0.3175292 0.18149261 -0.2951526 -0.16493559 0.108292416 -0.31943464 0.1997103 0.24511512 -0.049433354 -0.36432967 0.10765913 0.19436733 0.12592119 -0.0881292 -0.22693497 -0.5747209 0.22691359 0.17346673 0.20641287 -0.40997207 0.2938856 -0.18604457 0.07028642 0.31901148 -0.1116716 0.30805635 0.24675208 -0.044549447 -0.088508554 -0.33815068 0.13745204 -0.22905481 -0.06335171 -0.33776683 0.47134125 0.09577036 0.08098096 -0.08414089 0.49729854 0.44191825 0.151683 0.46060312 0.16491196 -0.06674445 0.08110156 0.50641614 0.44743302 0.13788018 -0.46273705 0.17767477 -0.11421433
can -0.18177952 0.240964 0.13087624 0.04186068 0.10132937 -0.6296875 0.12329465 0.8950288 -0.28388727 -0.1886365 -0.22066472 -0.5469025 -0.0361893 0.07816639 0.053528123 -0.34205002 0.059858114 -0.45405772 -0.011834042 -0.89461607 0.11297162 0.11098316 0.12780125 -0.12574922 -0.19160165 0.05560229 -0.40380257 -0.19656782 -0.23905568 0.08286155 0.4429397 0.092731915 0.20192638 -0.11932676 -0.39071065 0.3375872 -0.12163767 -0.4222241 -0.35643026 -0.66739786 0.1204889 -0.2365032 -0.14961097 -0.036809336 0.22804014 -0.040677562 -0.25997412 -0.032304544 0.1485008 0.36629304 0.20508671 -0.35896537 -0.19984896 0.11971767 -0.37655407 0.24569614 0.28827444 -0.05676026 -0.42792594 0.13253106 0.22309302 0.13508157 -0.11181903 -0.26440722 -0.6800627 0.27729818 0.20139332 0.24745287 -0.4815315 0.34656858 -0.21782237 0.08611302 0.3775325 -0.110634185 0.3623848 0.30921435 -0.048982386 -0.1082684 -0.40998363 0.16678128 -0.26887357 -0.061556224 -0.3888073 0.5549463 0.10091248 0.10609556 -0.095418364 0.5875142 0.51949066 0.17631216 0.561007 0.18530056 -0.08492873 0.09248793 0.57878315 0.53540415 0.1830779 -0.5588578 0.20296068 -0.14631137
which -0.15718554 0.22191301 0.10920768 0.050193608 0.098406196 -0.55647427 0.11024595 0.7915525 -0.25119874 -0.16337645 -0.19720474 -0.4766494 -0.041443173 0.0701076 0.04980735 -0.31203383 0.046951104 -0.4052796 -0.017626792 -0.79083896 0.09805145 0.09202695 0.10883113 -0.116372354 -0.17275226 0.037360504 -0.3625499 -0.16370046 -0.2133004 0.06977049 0.39134213 0.07410316 0.17049372 -0.111806504 -0.3497602 0.2944771 -0.10868172 -0.37085822 -0.31625238 -0.59296966 0.09935115 -0.20979191 -0.12478242 -0.032180946 0.20539632 -0.031880856 -0.21741441 -0.026342245 0.13538311 0.33089924 0.18898198 -0.32129106 -0.16225661 0.1083363 -0.3427939 0.21701097 0.25940174 -0.042757593 -0.38554046 0.11095228 0.20690651 0.12316206 -0.098766 -0.23729493 -0.59754694 0.24835995 0.1927426 0.23329245 -0.43667465 0.31229103 -0.19899422 0.07689536 0.3395747 -0.10162437 0.32044148 0.2706246 -0.05366853 -0.079846434 -0.36046427 0.13708672 -0.24483693 -0.05323667 -0.35636166 0.47913095 0.104924634 0.08949717 -0.085377365 0.5088028 0.4612613 0.15826312 0.49413407 0.15922853 -0.083083495 0.07987411 0.52276057 0.4671142 0.14484122 -0.49078715 0.16950157 -0.12476477
use -0.18188813 0.22522 0.12523445 0.038895197 0.10838525 -0.5858386 0.119893804 0.85506153 -0.25606048 -0.1773301 -0.22318949 -0.5221706 -0.05095514 0.07600073 0.041691735 -0.3382548 0.055374205 -0.42517665 -0.0077956365 -0.8447121 0.10605292 0.109588504 0.1162073 -0.10757021 -0.17531782 0.056463305 -0.3918341 -0.17560609 -0.23512767 0.0834414 0.41636118 0.08980548 0.18503813 -0.12148365 -0.382964 0.30751702 -0.12560539 -0.4073208 -0.33096954 -0.63320297 0.11501593 -0.2165246 -0.1391033 -0.044114765 0.21507552 -0.042168014 -0.23558937 -0.0344042 0.14252819 0.35284552 0.20695992 -0.34772766 -0.18179986 0.1065547 -0.36018398 0.23025806 0.27641606 -0.050928418 -0.4041975 0.12960139 0.21156396 0.12596232 -0.10094282 -0.25079253 -0.64200497 0.2599077 0.20897944 0.24219278 -0.47142068 0.33591706 -0.20444565 0.07885816 0.36716244 -0.12103686 0.342264 0.28511184 -0.04696862 -0.10278153 -0.39482713 0.15354942 -0.27046183 -0.06205161 -0.37716392 0.5293723 0.10028884 0.096319444 -0.07777283 0.55080366 0.48292148 0.16572383 0.53025913 0.172287 -0.07280674 0.07406898 0.5588032 0.51019233 0.17387478 -0.51977813 0.19626327 -0.12455889
has -0.18385349 0.23213859 0.10372537 0.044890877 0.09500444 -0.5771057 0.10867811 0.80918175 -0.26137108 -0.1676737 -0.2151431 -0.49120665 -0.049104344 0.07086019 0.05577363 -0.310495 0.060647227 -0.4100468 -0.013962701 -0.8197637 0.112998635 0.1064732 0.119514346 -0.105991036 -0.16099836 0.057203334 -0.38034427 -0.1843015 -0.22409636 0.07955514 0.41824213 0.090756975 0.18480398 -0.12206054 -0.3562919 0.30121467 -0.12357286 -0.3754953 -0.31933352 -0.6131058 0.10878754 -0.22086853 -0.12602864 -0.035748873 0.21330602 -0.03769919 -0.24041493 -0.027918352 0.14990631 0.33239856 0.19388558 -0.32719713 -0.18437023 0.10977797 -0.3507287 0.22854201 0.2739696 -0.05192533 -0.40232474 0.1263941 0.2185082 0.13448937 -0.10084 -0.23502743 -0.6078529 0.25019473 0.20170622 0.23900722 -0.43831357 0.32094494 -0.20523216 0.06419712 0.34029263 -0.10711224 0.3395215 0.28433976 -0.051730663 -0.084334485 -0.3690936 0.14415225 -0.25027665 -0.070960864 -0.35485375 0.5054593 0.10539004 0.097963884 -0.07319519 0.5422354 0.47060072 0.15140198 0.5170261 0.17551637 -0.07406833 0.07798585 0.5290491 0.48662862 0.16778114 -0.5110709 0.1755908 -0.11663141
devel -0.17815267 0.24769126 0.12162585 0.042314176 0.116051115 -0.6163527 0.13107884 0.8799329 -0.26494685 -0.18719895 -0.21546978 -0.5436039 -0.050316144 0.07303222 0.04305373 -0.33336326 0.06596482 -0.44680753 -0.010925329 -0.87591803 0.12304383 0.11758105 0.11912361 -0.12399101 -0.18963236 0.05639392 -0.39534214 -0.19330262 -0.23343429 0.07441266 0.42981923 0.088717744 0.18917084 -0.13172746 -0.39493132 0.319142 -0.11221154 -0.40611538 -0.3444161 -0.64694154 0.12832488 -0.23233438 -0.13453142 -0.039687585 0.23771425 -0.025669271 -0.25780454 -0.031898152 0.15414368 0.36236966 0.21070047 -0.3465116 -0.18498562 0.106673256 -0.3776231 0.23411393 0.29863012 -0.04878064 -0.42852876 0.1306794 0.22064555 0.12924393 -0.10870798 -0.25433698 -0.6553847 0.27456594 0.20439133 0.24804696 -0.47669524 0.3414952 -0.2240358 0.066350795 0.38188052 -0.11913517 0.3513658 0.28626204 -0.044263817 -0.09571806 -0.3987978 0.1608314 -0.27720916 -0.06851933 -0.38554254 0.52723336 0.113636374 0.10224098 -0.08011063 0.5789185 0.5014593 0.161402 0.5528519 0.18256764 -0.077177174 0.092005305 0.5770591 0.5200006 0.17032468 -0.53458333 0.1887293 -0.12717117
intellig -0.17380096 0.21878234 0.10799657 0.053539835 0.0892065 -0.55123955 0.1066083 0.787831 -0.25198683 -0.14859024 -0.20557396 -0.4863601 -0.046145726 0.08010262 0.035898343 -0.31142047 0.043370657 -0.3894764 -0.008068302 -0.7775841 0.09769583 0.10822516 0.098796844 -0.110540345 -0.16996233 0.04668985 -0.3584859 -0.15993196 -0.21705525 0.05945414 0.38548264 0.07250793 0.17318848 -0.100264974 -0.35840866 0.30438802 -0.100032285 -0.3777474 -0.31882027 -0.5748558 0.11771883 -0.21137536 -0.13364413 -0.02864229 0.21003236 -0.019638918 -0.23501697 -0.040253785 0.13764435 0.30811083 0.17854281 -0.32006186 -0.15814172 0.112417005 -0.3377354 0.22372402 0.2693077 -0.04937167 -0.36977828 0.12240858 0.20753959 0.11546722 -0.106315754 -0.23819706 -0.57942003 0.23189174 0.1800129 0.23730506 -0.42318037 0.3143952 -0.2036769 0.06579728 0.34458718 -0.11112292 0.32543892 0.2730156 -0.048178416 -0.08908531 -0.3598927 0.13457358 -0.25281566 -0.06439011 -0.35087526 0.48605055 0.09079479 0.095432736 -0.08725284 0.5032995 0.4623648 0.16275033 0.48245573 0.16533259 -0.07917767 0.06603161 0.506508 0.4793895 0.15993959 -0.47566497 0.1849998 -0.113109946
proc -0.169991 0.20998894 0.114707485 0.045536645 0.105035335 -0.5613709 0.111548506 0.8133851 -0.2509707 -0.16302595 -0.21207921 -0.4989572 -0.048061695 0.084449925 0.035337653 -0.30378705 0.04252071 -0.4082635 -0.01496495 -0.8113302 0.113764025 0.10956444 0.113464795 -0.105908036 -0.16651088 0.05551912 -0.35878396 -0.18500076 -0.22703542 0.07005779 0.40703845 0.07940228 0.1754604 -0.12343442 -0.35621196 0.30578768 -0.10656883 -0.38273764 -0.32460093 -0.6114758 0.10920892 -0.22136629 -0.13595302 -0.034259655 0.21988231 -0.028081423 -0.2405835 -0.03383591 0.14933918 0.33403602 0.1854819 -0.3301746 -0.17328829 0.109650105 -0.34194815 0.22586374 0.25994694 -0.05988371 -0.40109017 0.11613755 0.21513574 0.13034916 -0.10116646 -0.23580064 -0.60580415 0.25093198 0.18085237 0.23820259 -0.4328714 0.3225889 -0.19319098 0.07690197 0.3447349 -0.11053044 0.3258545 0.26127487 -0.041488174 -0.09581056 -0.3588636 0.14126757 -0.247179 -0.07441707 -0.3676874 0.48548552 0.092418745 0.09245593 -0.088336945 0.52243966 0.4582287 0.15106942 0.50835204 0.17006327 -0.06716633 0.08477591 0.5221266 0.49204135 0.14754435 -0.5022075 0.17156376 -0.12138734
softwar -0.17251983 0.23117298 0.11538188 0.03863045 0.10955977 -0.581884 0.12685935 0.82472247 -0.26120946 -0.17175752 -0.21458115 -0.50636077 -0.03131226 0.07425143 0.053633362 -0.32971653 0.055371657 -0.41691905 -0.0067753596 -0.8270768 0.11512686 0.0994263 0.10647346 -0.1187561 -0.17491668 0.044319037 -0.37522236 -0.18680488 -0.22540772 0.07227344 0.40994468 0.08935421 0.17058983 -0.120849945 -0.3593154 0.31564325 -0.12467368 -0.3797963 -0.31656516 -0.61633813 0.12178388 -0.22664288 -0.1254822 -0.034469485 0.21964246 -0.035710614 -0.24090646 -0.031179078 0.14528987 0.33854392 0.20274204 -0.31825796 -0.16773626 0.103884034 -0.3417 0.22646368 0.27603835 -0.047888935 -0.40193376 0.12213502 0.20906 0.120769575 -0.113148235 -0.24284305 -0.6106235 0.2532162 0.19503243 0.23902807 -0.4388062 0.31483158 -0.20284836 0.062327176 0.35435215 -0.10020011 0.33852908 0.2822987 -0.042691674 -0.08360318 -0.36848366 0.15864834 -0.257353 -0.055992965 -0.35887453 0.50022274 0.111043565 0.09867421 -0.07254255 0.54191756 0.4839695 0.15970926 0.522566 0.17285876 -0.07050772 0.0765583 0.5461598 0.50062954 0.15791097 -0.5111151 0.18693605 -0.13572353
learn -0.16323209 0.21121949 0.104197115 0.050605457 0.10656356 -0.5758696 0.12025333 0.82688236 -0.2635355 -0.17205629 -0.21548706 -0.5014691 -0.03893978 0.08697898 0.05245731 -0.31774533 0.054999825 -0.4039987 -0.004472571 -0.80618715 0.112693205 0.09643302 0.10694138 -0.118586764 -0.16307962 0.04578848 -0.38023418 -0.16857044 -0.21726574 0.07011725 0.41933966 0.08412475 0.17238684 -0.117832 -0.36359966 0.3021196 -0.11101324 -0.37895003 -0.31330025 -0.6202595 0.108957894 -0.22109206 -0.12273239 -0.034476604 0.2106891 -0.028159989 -0.24138704 -0.027859097 0.15360832 0.33106798 0.18743908 -0.3355145 -0.1791193 0.10610353 -0.34358367 0.23432897 0.26558486 -0.048033025 -0.38685164 0.120706305 0.21370818 0.13781464 -0.09495717 -0.23636502 -0.6199292 0.26042542 0.19894445 0.24408309 -0.4465781 0.3239415 -0.19495703 0.0642579 0.3569272 -0.108226694 0.3395081 0.27117947 -0.052934296 -0.084264375 -0.3822661 0.13991922 -0.25900716 -0.06637856 -0.36444354 0.50612265 0.11110143 0.09151218 -0.08179527 0.5369293 0.4680281 0.14842659 0.5155212 0.16396227 -0.07129514 0.08875545 0.5377959 0.4933884 0.16274682 -0.5086933 0.18743287 -0.12556835
artifici -0.13743748 0.1942653 0.095720395 0.046904046 0.072880514 -0.4695883 0.11105152 0.67890215 -0.21430472 -0.14367779 -0.17363738 -0.41437528 -0.025018448 0.06507396 0.041434918 -0.26465803 0.05573404 -0.35254455 -0.018294504 -0.68519473 0.08521811 0.092774525 0.082822494 -0.096487105 -0.1519508 0.04809982 -0.3146054 -0.15810429 -0.18570957 0.072419874 0.33911824 0.062994726 0.15241274 -0.096562125 -0.320236 0.26717633 -0.10470231 -0.3288048 -0.27268574 -0.5181583 0.09672217 -0.16819866 -0.10441374 -0.022533374 0.18029347 -0.024317816 -0.20040932 -0.035380844 0.12255855 0.2823177 0.14925167 -0.28216344 -0.16058592 0.08299526 -0.28739813 0.19785663 0.23186924 -0.038425446 -0.32362798 0.09680304 0.17659122 0.09419691 -0.088665925 -0.20774093 -0.51321566 0.21839045 0.15183644 0.1940771 -0.3786252 0.26515827 -0.17357749 0.061739337 0.29859138 -0.09842697 0.26993886 0.23192935 -0.035466425 -0.06984885 -0.31544474 0.117421255 -0.21826471 -0.05613336 -0.30113694 0.42229992 0.09439307 0.07469285 -0.067044735 0.44025424 0.3928594 0.122458875 0.42430282 0.1424351 -0.07552284 0.07674846 0.43713772 0.40007076 0.12318414 -0.41588223 0.16032468 -0.09547589
have -0.16625814 0.21666579 0.10586118 0.05451083 0.09965807 -0.55109465 0.112064324 0.79191935 -0.24146798 -0.16149119 -0.20002545 -0.48355907 -0.034399457 0.07708868 0.04630794 -0.31360883 0.04590199 -0.39783007 -0.019778533 -0.79011214 0.103049055 0.10514332 0.10006675 -0.10078337 -0.16627957 0.04160691 -0.35533518 -0.17448068 -0.22622663 0.0661181 0.39803284 0.07365144 0.17160158 -0.11103732 -0.3544334 0.29846677 -0.10873492 -0.36296597 -0.30979568 -0.5898929 0.11153348 -0.21266209 -0.13605252 -0.03157165 0.20824224 -0.040306788 -0.23579517 -0.03030971 0.14334801 0.32884893 0.1945046 -0.32517654 -0.17027472 0.10126954 -0.3446922 0.22605692 0.26483098 -0.05243204 -0.39649454 0.109328456 0.20596334 0.13155197 -0.09640246 -0.24453935 -0.6064437 0.25046548 0.18574263 0.22337765 -0.4253095 0.30744326 -0.1927465 0.06661851 0.3312463 -0.106043175 0.3268727 0.27630317 -0.045967206 -0.08333422 -0.36654642 0.14287181 -0.25037488 -0.062034745 -0.3537662 0.4811278 0.09160324 0.10011823 -0.076921806 0.51733994 0.45164764 0.16091447 0.48659247 0.16684285 -0.07287081 0.08487631 0.5260765 0.47211546 0.15646034 -0.49361476 0.16683261 -0.12562485
it -0.18292475 0.24187459 0.12816843 0.05898762 0.097729914 -0.59862965 0.11880951 0.86287963 -0.2716784 -0.16886893 -0.21782272 -0.5226557 -0.033282977 0.08063451 0.040767297 -0.34268582 0.061689362 -0.44383034 -0.017348018 -0.85750043 0.10994934 0.10513514 0.115985915 -0.11802769 -0.17752731 0.05685578 -0.39758345 -0.18495215 -0.23190014 0.079374075 0.43964595 0.08537185 0.19346403 -0.13147357 -0.38241976 0.3142195 -0.123596914 -0.41775152 -0.34184143 -0.6525559 0.11500437 -0.22780693 -0.13645007 -0.044651955 0.22061186 -0.038586486 -0.24956395 -0.034391876 0.14245126 0.35394666 0.21226713 -0.34171903 -0.19596486 0.11643532 -0.3757431 0.22936219 0.28478536 -0.05480923 -0.42895114 0.11894863 0.2240223 0.14160897 -0.118799195 -0.25020093 -0.6516581 0.26587343 0.21479332 0.25300652 -0.47561622 0.34491915 -0.21160282 0.080158114 0.37077197 -0.121123165 0.35091788 0.2856318 -0.05114018 -0.09176978 -0.38973397 0.16651021 -0.27448 -0.07551557 -0.3784183 0.5313029 0.10091875 0.09885476 -0.08408378 0.564239 0.4930794 0.17271061 0.5479491 0.17167655 -0.08030409 0.08087908 0.5600791 0.51853883 0.16259456 -0.5269066 0.18757074 -0.13155657
more -0.16114648 0.20963852 0.10561082 0.054042976 0.09451793 -0.5345436 0.10684257 0.75691414 -0.2410863 -0.16151468 -0.19937722 -0.46745983 -0.030868813 0.07384951 0.05070403 -0.28707734 0.04197703 -0.3813659 -0.0033761717 -0.7507918 0.10271569 0.103701465 0.09450386 -0.09381412 -0.1493119 0.0531469 -0.35016078 -0.15681362 -0.20168506 0.06570504 0.37311968 0.08370954 0.15652432 -0.11354978 -0.3327462 0.29108956 -0.09626022 -0.36132425 -0.30683428 -0.55507344 0.110418595 -0.20441924 -0.13096079 -0.04319168 0.19547611 -0.032537892 -0.21751384 -0.026284833 0.12937512 0.30338496 0.1883134 -0.30807865 -0.17017424 0.10802018 -0.3203295 0.21674545 0.24462306 -0.05363742 -0.3681416 0.1068972 0.18721567 0.11581304 -0.09336489 -0.21909986 -0.56195176 0.23548298 0.17398494 0.21450973 -0.41532952 0.30400726 -0.19511469 0.06663678 0.32182974 -0.10777367 0.2977749 0.2598773 -0.05524375 -0.08478532 -0.341683 0.14428483 -0.24041587 -0.05725136 -0.3258687 0.45594707 0.09052159 0.09113179 -0.070938446 0.49660313 0.44308177 0.14738618 0.47121948 0.15410359 -0.07855135 0.076879814 0.49824253 0.44560602 0.14621785 -0.46829557 0.16838504 -0.10812613
our -0.15514243 0.18879311 0.10583502 0.033935007 0.07942841 -0.5039185 0.0928186 0.7164153 -0.22355358 -0.14793868 -0.19098063 -0.43827596 -0.03738337 0.071129955 0.049376328 -0.2729953 0.055425826 -0.37323853 -0.0017970399 -0.71691513 0.10214045 0.09469716 0.10203176 -0.1090349 -0.15826692 0.051058993 -0.32818517 -0.15325934 -0.19224788 0.062903136 0.37040326 0.0735909 0.14465201 -0.10953365 -0.3205939 0.25953603 -0.09240809 -0.33403254 -0.29040766 -0.528487 0.10712079 -0.1845407 -0.107597835 -0.046325844 0.1892888 -0.037071235 -0.21196069 -0.023795128 0.12522927 0.2951751 0.17223899 -0.28542155 -0.14937907 0.103514984 -0.31161782 0.20689413 0.24222083 -0.034175698 -0.3460384 0.099421956 0.18311661 0.11039539 -0.093706094 -0.2031221 -0.53877354 0.22412096 0.17249781 0.19647798 -0.38326555 0.29066283 -0.17986074 0.063516244 0.3006732 -0.10338958 0.29776487 0.23765947 -0.03677276 -0.07853732 -0.3291804 0.13269645 -0.22494765 -0.059480388 -0.31677845 0.4455225 0.08797411 0.08293376 -0.08012605 0.48073047 0.40450507 0.14572819 0.450774 0.14068669 -0.07233181 0.061750077 0.46520558 0.43823177 0.14903973 -0.44293302 0.1600722 -0.10202862
scientif -0.15656622 0.19165659 0.10135966 0.034127418 0.07779778 -0.50655216 0.11103696 0.71620965 -0.22864754 -0.15260816 -0.18172568 -0.43058088 -0.037213933 0.06706711 0.034518708 -0.27205613 0.04717797 -0.35157418 -0.023336826 -0.71362144 0.08251685 0.091151126 0.08910321 -0.092678756 -0.15414608 0.035112828 -0.3172653 -0.16291468 -0.19573618 0.05595341 0.36681247 0.08230335 0.15651223 -0.09600155 -0.31157595 0.26003456 -0.089066826 -0.34604764 -0.27124357 -0.5285933 0.09454156 -0.19254927 -0.10569356 -0.04155146 0.1968393 -0.03383189 -0.19710606 -0.025004774 0.13194917 0.2877752 0.17561062 -0.27785152 -0.15089338 0.09447469 -0.298673 0.20417134 0.24276394 -0.034798086 -0.34055784 0.11067826 0.19409248 0.11019778 -0.09196235 -0.21071306 -0.5361019 0.218556 0.15958689 0.19437575 -0.39019084 0.29012132 -0.18081582 0.05376 0.30963546 -0.093962066 0.2892421 0.24254721 -0.039384883 -0.073417835 -0.3242141 0.12995782 -0.21046782 -0.053567406 -0.32111537 0.44302642 0.09313024 0.08353533 -0.074451156 0.46968505 0.41590396 0.1445298 0.4440822 0.13905418 -0.065799296 0.0702515 0.47177455 0.41726163 0.14804262 -0.44752002 0.16513522 -0.12134777
problem -0.1368063 0.19586554 0.095759094 0.036361113 0.08377349 -0.48450828 0.09297621 0.69847065 -0.21538298 -0.13647002 -0.18511601 -0.41327512 -0.034617845 0.064119704 0.02874866 -0.26509884 0.05119938 -0.34376517 -0.018238546 -0.69827735 0.08431476 0.087947175 0.08585855 -0.10456023 -0.14586547 0.04152351 -0.32451722 -0.15452738 -0.19081262 0.0688701 0.34920135 0.071437895 0.14253896 -0.105086274 -0.30962762 0.26664603 -0.091025546 -0.32818407 -0.27038813 -0.52756244 0.09404699 -0.18802741 -0.10548406 -0.037143 0.17832556 -0.03514408 -0.20196606 -0.031171713 0.119716614 0.27916306 0.16179396 -0.282006 -0.1579684 0.08968094 -0.29388317 0.1875172 0.22032668 -0.04679654 -0.34785226 0.099408165 0.18701865 0.10461257 -0.08615866 -0.20101935 -0.5128855 0.21827392 0.17368856 0.18937086 -0.38553512 0.2663278 -0.18023454 0.050516397 0.2888449 -0.096680716 0.28136593 0.22973205 -0.051743135 -0.072116405 -0.31549123 0.12965392 -0.2057942 -0.048271 -0.3085821 0.4286476 0.081126116 0.08132869 -0.06486041 0.46352077 0.3948879 0.13622952 0.42562506 0.14060426 -0.056745894 0.06364721 0.45292744 0.40719983 0.12496338 -0.42033714 0.14869729 -0.10303697
algo -0.15267397 0.18387039 0.08565707 0.04780027 0.09010014 -0.4740365 0.10647186 0.68385583 -0.22553046 -0.12867509 -0.18092865 -0.41028604 -0.028453935 0.06321462 0.02988261 -0.26805893 0.050838396 -0.35497117 -0.010667957 -0.6906877 0.098309584 0.085184835 0.10306842 -0.100221165 -0.15161969 0.030559914 -0.31452996 -0.14439097 -0.18932028 0.06981407 0.34654158 0.0760472 0.1516646 -0.089437 -0.30742297 0.26371497 -0.10439544 -0.3200849 -0.26958737 -0.5130463 0.10148051 -0.18499686 -0.111952975 -0.035098754 0.18006149 -0.029388724 -0.1913875 -0.029212916 0.12781788 0.28098786 0.16463184 -0.2714498 -0.1483756 0.09199497 -0.2957231 0.19384708 0.2265153 -0.045709815 -0.34376982 0.08797152 0.17943428 0.10100864 -0.088465735 -0.20969361 -0.52504665 0.21203119 0.16821115 0.19387238 -0.38034627 0.27291837 -0.17101406 0.052769437 0.29191336 -0.092306145 0.27416524 0.21971875 -0.033940572 -0.07254443 -0.31533843 0.13130525 -0.21148616 -0.047273323 -0.30556786 0.42744082 0.08531541 0.07213847 -0.07353593 0.45931283 0.39569685 0.13361791 0.43396112 0.13488862 -0.066094294 0.058903895 0.44279435 0.4026733 0.13575211 -0.42149043 0.15800598 -0.104224294
how -0.14671525 0.19552712 0.09396807 0.043840453 0.0948368 -0.48772457 0.10663172 0.6917314 -0.21311687 -0.1369755 -0.17426252 -0.4361692 -0.036116946 0.06848196 0.032331664 -0.27908295 0.050608303 -0.36109403 -0.01648522 -0.6874413 0.083375 0.098385155 0.09581871 -0.09145031 -0.14864296 0.035489894 -0.32514483 -0.15212078 -0.1988794 0.058907107 0.3588531 0.06370649 0.14518122 -0.10522331 -0.3191486 0.25231957 -0.09798443 -0.32047632 -0.26651996 -0.52878064 0.08744734 -0.18748319 -0.122391135 -0.04032867 0.17946461 -0.023117585 -0.20919763 -0.022787325 0.12465576 0.29167715 0.16371614 -0.29006848 -0.14538105 0.08554738 -0.2935773 0.19481419 0.23933284 -0.041947756 -0.34314498 0.1073517 0.17456692 0.09940116 -0.08585116 -0.21159257 -0.5301747 0.21196757 0.15471843 0.20110689 -0.3817498 0.27249008 -0.1708777 0.06480511 0.30607757 -0.10174732 0.27796534 0.22576788 -0.051697508 -0.08139741 -0.32067043 0.11789812 -0.22109017 -0.057976913 -0.3042599 0.43049046 0.09433251 0.07149901 -0.07517496 0.4575414 0.41103032 0.1360038 0.43681228 0.14558206 -0.06278275 0.05804584 0.4623874 0.42576087 0.14068006 -0.4293482 0.14828071 -0.11308124
provid -0.13948025 0.18924679 0.086308755 0.04482491 0.079710424 -0.47975105 0.10483852 0.6895874 -0.21521267 -0.13530855 -0.18202917 -0.42540714 -0.025589881 0.07446942 0.02960493 -0.2631014 0.055016976 -0.3550261 -0.009445081 -0.6952751 0.0990896 0.08863207 0.10118165 -0.08598481 -0.13973565 0.033438575 -0.31699866 -0.15015851 -0.19023134 0.06490184 0.35877517 0.076640986 0.16021746 -0.10844911 -0.3157656 0.26153076 -0.09287093 -0.32849365 -0.2794332 -0.52298844 0.086337954 -0.17469917 -0.10780791 -0.043361396 0.18718733 -0.021203913 -0.20635916 -0.029702067 0.12292963 0.29406545 0.15445577 -0.27914065 -0.15706407 0.091355115 -0.2946565 0.18629706 0.22667865 -0.041717865 -0.34641814 0.10759394 0.1860443 0.099501446 -0.09174622 -0.20393005 -0.53158 0.20580123 0.1547552 0.19388166 -0.36986402 0.28148675 -0.17021762 0.050609436 0.30361113 -0.0887253 0.28100294 0.2242438 -0.044345025 -0.07693547 -0.32496998 0.12788449 -0.21371228 -0.06306428 -0.31750348 0.43205756 0.07810855 0.07400971 -0.06444132 0.4546322 0.39734846 0.12900203 0.4315316 0.14901713 -0.07131443 0.062336665 0.4511357 0.41362545 0.12744884 -0.44101554 0.16245486 -0.10052651
present -0.15194625 0.17930391 0.09373605 0.03614379 0.09464578 -0.48246247 0.09186229 0.69013 -0.22796847 -0.13910894 -0.18226391 -0.42605639 -0.029618178 0.07280491 0.043489125 -0.27723595 0.051715635 -0.36201385 -0.018370997 -0.6990916 0.087852925 0.08955392 0.090915345 -0.09276693 -0.13371472 0.047305934 -0.31541777 -0.14109391 -0.19039398 0.05948753 0.3415882 0.078365855 0.14073564 -0.10082784 -0.3015309 0.25629306 -0.09509609 -0.3349712 -0.2678039 -0.51182526 0.08561108 -0.18705653 -0.10355408 -0.031359076 0.1836589 -0.026180377 -0.21067381 -0.013600889 0.1193956 0.27980462 0.16685468 -0.27761826 -0.15594658 0.09763097 -0.2989661 0.18539743 0.2363634 -0.035778552 -0.33024925 0.10139441 0.1820802 0.0997761 -0.08451882 -0.1979704 -0.52324003 0.21094908 0.16022949 0.19864379 -0.38554937 0.27952805 -0.17121018 0.0687091 0.29098493 -0.098465264 0.27440768 0.22590905 -0.0398213 -0.07241379 -0.31561747 0.12855381 -0.22368327 -0.056531344 -0.31608334 0.42875585 0.084327705 0.088392906 -0.073344484 0.46170408 0.40435046 0.13520132 0.43195382 0.15158775 -0.06269072 0.07541444 0.45926836 0.42287633 0.14003573 -0.438463 0.14905451 -0.10711968
new -0.1449368 0.18765156 0.09468368 0.047202088 0.07923604 -0.4774931 0.10442218 0.68396866 -0.20997362 -0.13431542 -0.17651343 -0.425167 -0.030679563 0.055313595 0.03488021 -0.27504152 0.043242224 -0.35389236 -0.0038290564 -0.6844497 0.09937029 0.07806217 0.08950529 -0.09206857 -0.14397453 0.040905613 -0.31273907 -0.14887233 -0.19450527 0.050445095 0.34902573 0.071545854 0.15393373 -0.10448921 -0.30067417 0.24458879 -0.087160446 -0.31579682 -0.27432021 -0.50199926 0.08782716 -0.18990324 -0.107760035 -0.03171877 0.17189783 -0.035229225 -0.18838766 -0.021051956 0.12011511 0.28279743 0.15775858 -0.27214035 -0.14510165 0.100386806 -0.2971563 0.1907821 0.23131166 -0.049253058 -0.34266534 0.10713537 0.18558387 0.10160052 -0.08119828 -0.20301138 -0.51935256 0.20816234 0.15674888 0.2014489 -0.36929923 0.2603493 -0.16992894 0.055242687 0.29869717 -0.093043774 0.28377944 0.23186062 -0.04534173 -0.06718903 -0.30812603 0.12004973 -0.21556409 -0.057849225 -0.30830148 0.42192724 0.07529593 0.071835145 -0.06509773 0.44789705 0.3989637 0.1281245 0.4244939 0.14349465 -0.057709195 0.067729965 0.4577721 0.41397306 0.12480674 -0.424622 0.14343274 -0.11146848
some -0.15922616 0.1909456 0.11071425 0.044304594 0.08910382 -0.5203199 0.09647613 0.72594976 -0.22211218 -0.15029734 -0.18472458 -0.4533895 -0.027255842 0.07238206 0.041823458 -0.29054502 0.048470132 -0.3763614 -0.0044666096 -0.72906095 0.096946195 0.09820665 0.103959076 -0.107811116 -0.1432141 0.045229215 -0.34037796 -0.15145662 -0.20520447 0.07395643 0.367737 0.083560616 0.1622491 -0.10996585 -0.33235705 0.28452218 -0.101522416 -0.3536892 -0.28837568 -0.5528621 0.10246548 -0.20372397 -0.1106176 -0.035935678 0.20255256 -0.02272436 -0.21744297 -0.021579487 0.12835003 0.29240486 0.18286872 -0.28636444 -0.14952287 0.093817726 -0.32339525 0.20813584 0.23600374 -0.03662437 -0.3578226 0.11164031 0.19889937 0.115263216 -0.09671945 -0.21930283 -0.5446545 0.21814656 0.1731544 0.20967858 -0.39672714 0.29758263 -0.18751335 0.06660107 0.31155488 -0.09637592 0.3060833 0.2521142 -0.050096594 -0.085157245 -0.32796144 0.14282748 -0.22189899 -0.063121445 -0.3299985 0.44633695 0.087180935 0.08765826 -0.08072368 0.47610912 0.4328318 0.15259232 0.46730295 0.15392129 -0.07774175 0.063823335 0.48563716 0.43352863 0.13497144 -0.45486748 0.16179861 -0.12430278
articl -0.13479726 0.17229302 0.08407087 0.036607016 0.083022304 -0.4677771 0.0902202 0.6738104 -0.20062728 -0.14202501 -0.1614105 -0.39914617 -0.041282363 0.060762353 0.040340915 -0.25254247 0.03856729 -0.3449166 -0.0067557525 -0.6735972 0.0808612 0.08390339 0.09638702 -0.097301744 -0.13414164 0.038256943 -0.29977837 -0.13768148 -0.18292469 0.06778398 0.3336731 0.060782664 0.1549529 -0.10028364 -0.29235697 0.24525258 -0.100565344 -0.3218873 -0.25719932 -0.49967143 0.09268457 -0.18612114 -0.11330787 -0.039000627 0.1853614 -0.033994757 -0.1877162 -0.023757052 0.11700019 0.28215364 0.1543477 -0.2743331 -0.14329866 0.09564964 -0.27522537 0.18026245 0.22305134 -0.03703148 -0.3304691 0.103415176 0.16776273 0.10554939 -0.08184666 -0.1947722 -0.5065762 0.20676151 0.16487606 0.2010024 -0.3735862 0.2697354 -0.16085601 0.055514064 0.29502535 -0.0942275 0.26799107 0.21750344 -0.044200834 -0.07387853 -0.30767137 0.11456292 -0.19935837 -0.058840398 -0.3032769 0.41684085 0.09211825 0.07973128 -0.06735187 0.43758473 0.3834121 0.13542059 0.4089688 0.13784038 -0.057665173 0.06283806 0.4386131 0.40465704 0.13958828 -0.41083083 0.15883103 -0.10974971
studi -0.15156995 0.19554856 0.09646309 0.043271314 0.08568631 -0.51885927 0.10736199 0.74014056 -0.23665853 -0.15737128 -0.19133133 -0.43816847 -0.046429865 0.0785245 0.040534634 -0.28272337 0.045476332 -0.37707505 -0.009262497 -0.7230733 0.087959014 0.092342414 0.10116348 -0.09687852 -0.14401987 0.03864054 -0.32467383 -0.16428404 -0.20536743 0.07493074 0.37324926 0.0672324 0.15720709 -0.11382197 -0.32813093 0.27951097 -0.10957484 -0.33949095 -0.28108323 -0.5517001 0.0904951 -0.19626333 -0.11998768 -0.033206213 0.20266315 -0.024985975 -0.21445087 -0.022500182 0.1210604 0.2991464 0.17155142 -0.28414842 -0.16468579 0.08935917 -0.3102838 0.20460713 0.23443893 -0.050384782 -0.35853538 0.103089795 0.18244955 0.109733425 -0.09734194 -0.21206155 -0.5501273 0.22613941 0.17320718 0.20583366 -0.3955329 0.28908095 -0.17638178 0.061002564 0.3047072 -0.097763084 0.3060075 0.24009249 -0.050007023 -0.084156275 -0.3250092 0.1310869 -0.21588652 -0.06807053 -0.31542358 0.43859106 0.10038192 0.08582692 -0.07100145 0.4735739 0.4305333 0.14745088 0.4499418 0.14043996 -0.061941735 0.06502478 0.470663 0.4420225 0.13682374 -0.46214163 0.1738559 -0.116449445
complex -0.136595 0.16855854 0.082613476 0.032841604 0.07188052 -0.44921258 0.08282913 0.64442587 -0.19364597 -0.131359 -0.16091439 -0.39514863 -0.023979872 0.06766155 0.0355736 -0.25509822 0.037704643 -0.31719166 -0.014190495 -0.62895834 0.0926406 0.08639825 0.081466556 -0.08148446 -0.13449188 0.030073136 -0.28127107 -0.14748514 -0.1769421 0.05531406 0.30979836 0.06521851 0.14360498 -0.09756063 -0.29009405 0.2430463 -0.09192885 -0.30769518 -0.24914427 -0.47581884 0.09502829 -0.16827378 -0.093992054 -0.041738912 0.1719145 -0.017185947 -0.18248427 -0.024944538 0.112907566 0.25922328 0.14185822 -0.26219296 -0.13599047 0.08080888 -0.26125264 0.17348777 0.21585518 -0.03717407 -0.30157232 0.08229568 0.16813794 0.09707241 -0.07913997 -0.18991277 -0.4839798 0.20385832 0.1471161 0.18471801 -0.3530699 0.25485864 -0.14794886 0.053087268 0.27857277 -0.085149206 0.26525372 0.22322853 -0.039387554 -0.07256791 -0.2993974 0.12523407 -0.19907069 -0.048853517 -0.2837645 0.39734337 0.08656724 0.0734434 -0.060967628 0.42185977 0.3684323 0.12943076 0.39567268 0.12844358 -0.053229894 0.058165606 0.4138789 0.39110702 0.11419509 -0.3968734 0.1387938 -0.09353348
program -0.14000773 0.18283369 0.10140626 0.039532647 0.07600354 -0.48945457 0.0977024 0.69070256 -0.21852328 -0.14650917 -0.17094229 -0.41455722 -0.03603587 0.068390995 0.037799664 -0.27094743 0.03746983 -0.3508219 -0.008293634 -0.6861062 0.09707855 0.092541404 0.09996361 -0.10348716 -0.14576827 0.03441921 -0.30802104 -0.1438506 -0.19513114 0.063735805 0.35430154 0.074245326 0.15192209 -0.10607513 -0.29921457 0.25255996 -0.10313727 -0.3335016 -0.27930784 -0.5236126 0.08586043 -0.18289316 -0.11655271 -0.03869907 0.19010608 -0.022339499 -0.19898921 -0.024758844 0.13199402 0.28525588 0.1696742 -0.2699666 -0.16023086 0.082323276 -0.28592512 0.1943012 0.2265018 -0.03842271 -0.34411588 0.09363836 0.17359196 0.1142101 -0.09155331 -0.21517332 -0.5301013 0.21973188 0.16164677 0.1929513 -0.380251 0.27269867 -0.17618929 0.05603318 0.3022037 -0.092066266 0.277266 0.2361917 -0.03697096 -0.08694023 -0.3253462 0.13271464 -0.22260751 -0.055539 -0.3172626 0.4346435 0.08197065 0.07252729 -0.07124774 0.4540647 0.4078519 0.14392343 0.432211 0.14646934 -0.060559787 0.0673447 0.4503245 0.41787785 0.13630022 -0.42297387 0.15075086 -0.118741535
machin -0.1562693 0.21778376 0.09570494 0.043641057 0.0860207 -0.5228866 0.1208954 0.75913376 -0.23491146 -0.14567684 -0.18998045 -0.4701028 -0.033892978 0.07001665 0.039334457 -0.29060575 0.048317954 -0.37418178 -0.014445542 -0.75485635 0.09556811 0.08684124 0.092407815 -0.10011909 -0.16402645 0.048410915 -0.34253287 -0.17167233 -0.21363446 0.063101426 0.3710094 0.078572795 0.17455332 -0.115848064 -0.34389248 0.29269883 -0.09740755 -0.346489 -0.3079073 -0.5634739 0.0969514 -0.19220075 -0.11362135 -0.041250072 0.20736018 -0.0353374 -0.21335615 -0.022776173 0.14051417 0.31717786 0.17619798 -0.3012783 -0.17071424 0.09195773 -0.31901538 0.19815175 0.2504118 -0.045888025 -0.36202705 0.10281261 0.19550978 0.11364172 -0.10293302 -0.22757742 -0.5655879 0.22666475 0.17743106 0.22756313 -0.41384736 0.2940959 -0.18001844 0.064685434 0.32519177 -0.09268447 0.3149869 0.25901964 -0.04256233 -0.086435005 -0.3370767 0.14202707 -0.23988913 -0.06774686 -0.33676895 0.45656487 0.09763146 0.07611747 -0.07878487 0.5005946 0.43948627 0.14956324 0.46253124 0.16008553 -0.065032825 0.07688279 0.5051299 0.45655012 0.15304607 -0.4612511 0.16975223 -0.11816216
design -0.14803377 0.18558238 0.102840014 0.035446715 0.083661295 -0.4977759 0.10975252 0.7105923 -0.22379407 -0.14666973 -0.18354207 -0.43146715 -0.040149335 0.063252635 0.039227426 -0.269707 0.04780023 -0.35173258 -0.010921343 -0.7090832 0.08410296 0.096333265 0.1038708 -0.10349865 -0.14213815 0.050531805 -0.32720384 -0.15642415 -0.2047605 0.06653104 0.3514909 0.0756563 0.16270527 -0.10980337 -0.32455483 0.26751524 -0.106894605 -0.34298387 -0.287422 -0.53034353 0.095650844 -0.18710782 -0.11506923 -0.02594423 0.19599997 -0.03288698 -0.1959546 -0.032922376 0.121861584 0.29318267 0.16760896 -0.2874495 -0.15260829 0.094417796 -0.31100208 0.19036084 0.22633345 -0.039181806 -0.34685498 0.09408205 0.19094273 0.10987975 -0.087877214 -0.20550677 -0.5371153 0.22579761 0.15890548 0.19923858 -0.39335153 0.27979428 -0.18377988 0.06968901 0.30831528 -0.10262941 0.29188022 0.24395995 -0.05110262 -0.072996646 -0.33161306 0.13801286 -0.21236874 -0.05673855 -0.32266605 0.43290463 0.08808604 0.08142428 -0.062407453 0.46119136 0.39909196 0.12773533 0.43978924 0.1473898 -0.06649344 0.066973574 0.47287804 0.42544344 0.14420718 -0.43547177 0.15058506 -0.11184789
natur -0.15088235 0.17601673 0.089186594 0.04704035 0.081023596 -0.46076417 0.09363655 0.6662161 -0.20644651 -0.13352783 -0.17278638 -0.4122614 -0.039099295 0.06657331 0.027707243 -0.27029413 0.033148583 -0.33145103 -0.0075678667 -0.66342205 0.09778699 0.07930161 0.09573254 -0.08983627 -0.13272257 0.034701243 -0.2947284 -0.15267082 -0.17842385 0.06650111 0.3362412 0.07539921 0.15297194 -0.094561316 -0.29243436 0.25349218 -0.09460491 -0.30925238 -0.2595674 -0.5061758 0.09380697 -0.17890519 -0.10340825 -0.039123505 0.17363244 -0.02586303 -0.1907378 -0.029974854 0.12554412 0.27263498 0.16465798 -0.2671354 -0.13841489 0.08340833 -0.29050556 0.18828043 0.21778402 -0.035843816 -0.33544812 0.09957601 0.17539623 0.10426624 -0.08330008 -0.20306033 -0.51072335 0.19664402 0.16185637 0.19809884 -0.3732385 0.27453843 -0.16364358 0.051993 0.28666005 -0.08694687 0.26416433 0.22728528 -0.03622014 -0.06838362 -0.30187201 0.12493469 -0.2097172 -0.060596973 -0.29033443 0.40488255 0.08078928 0.0731777 -0.060268063 0.43384525 0.39016607 0.13221154 0.41380915 0.12945311 -0.0709529 0.068871394 0.43054196 0.41023406 0.12773329 -0.4253313 0.14384541 -0.09799275
approach -0.16097882 0.21015933 0.09360166 0.033650942 0.08637601 -0.52201927 0.099095196 0.737527 -0.24429627 -0.15195936 -0.18492769 -0.4648145 -0.042758286 0.07140872 0.045514744 -0.29938406 0.056078274 -0.38697854 -0.008644732 -0.7357129 0.10368116 0.10144862 0.11061255 -0.09960397 -0.16246808 0.049642604 -0.3476928 -0.16770673 -0.20025052 0.05836824 0.36932528 0.07419749 0.16552818 -0.10151728 -0.33142808 0.2849491 -0.10700575 -0.34761658 -0.30044115 -0.5615445 0.09471034 -0.19774824 -0.114923105 -0.03309719 0.19228117 -0.027048448 -0.20886496 -0.030976215 0.12686124 0.3055875 0.17173022 -0.29152223 -0.15349405 0.10816054 -0.30913407 0.1977076 0.2456687 -0.05384863 -0.3705098 0.09857609 0.19831091 0.1164325 -0.10295117 -0.21519932 -0.56195813 0.22951145 0.17270242 0.2110159 -0.41036624 0.30232194 -0.18340874 0.058484837 0.32495728 -0.10009433 0.2991792 0.2583817 -0.05014382 -0.07576462 -0.3449524 0.12701714 -0.23530059 -0.06404924 -0.33259085 0.45684522 0.09890567 0.090950854 -0.07739704 0.4944715 0.42956278 0.14482008 0.46391308 0.1523225 -0.07518848 0.068457104 0.49140126 0.45174402 0.13559093 -0.45729154 0.16499382 -0.11954105
work -0.15519588 0.18725458 0.09251194 0.031394742 0.08608514 -0.50074404 0.09603372 0.6976628 -0.21206003 -0.1439102 -0.18911247 -0.42536527 -0.043268006 0.06388931 0.042338435 -0.28204113 0.036833975 -0.36451793 -0.0037770332 -0.6935349 0.09609807 0.0928474 0.10030441 -0.10159472 -0.13690823 0.048055705 -0.3160224 -0.14417042 -0.20514196 0.06398038 0.36390814 0.071825705 0.14635774 -0.10335796 -0.31791928 0.26190114 -0.100119404 -0.3259665 -0.27772227 -0.52436936 0.093163624 -0.17908464 -0.12019971 -0.044792753 0.18263462 -0.034441926 -0.20938917 -0.0238969 0.12529495 0.2902009 0.17145753 -0.28473595 -0.15062317 0.09381916 -0.29322067 0.20407158 0.23076841 -0.04267927 -0.35161898 0.097693734 0.17649323 0.109374315 -0.09529053 -0.21499097 -0.529575 0.21887368 0.15740061 0.20461334 -0.37873158 0.28170937 -0.17954703 0.070440665 0.31283033 -0.094999984 0.28656903 0.22812703 -0.047642194 -0.07899184 -0.3178477 0.12691717 -0.22690696 -0.05071686 -0.32130247 0.442749 0.09341262 0.07436478 -0.06771919 0.47113577 0.40098885 0.12924491 0.44876722 0.1480863 -0.05594945 0.058485877 0.46191147 0.43088448 0.13515721 -0.44001016 0.15087248 -0.116611116
differ -0.15635823 0.20001556 0.09506663 0.033118103 0.09431825 -0.4951809 0.09890381 0.7019407 -0.21833579 -0.14732778 -0.18062873 -0.43223467 -0.026552407 0.07274843 0.039435416 -0.27961802 0.048088692 -0.35603064 -0.01727682 -0.70698386 0.08822753 0.09341091 0.08805298 -0.10161547 -0.13742341 0.037592743 -0.3109483 -0.15160821 -0.20019737 0.0565274 0.35284647 0.07782858 0.14644389 -0.10543961 -0.32119372 0.26953325 -0.101289526 -0.328003 -0.27799565 -0.5335752 0.09505981 -0.18611266 -0.10860687 -0.044328984 0.1789291 -0.03285005 -0.20056477 -0.027941074 0.12353811 0.29275748 0.17145845 -0.27939972 -0.15485153 0.09335115 -0.30582285 0.18760939 0.24117021 -0.047205344 -0.3531713 0.10524626 0.19197911 0.10898923 -0.08837319 -0.21317147 -0.5338796 0.20692609 0.15848593 0.19283551 -0.38903 0.28634137 -0.16563389 0.058104005 0.3008352 -0.086924955 0.28504667 0.2312603 -0.04054329 -0.0761571 -0.3250091 0.12193298 -0.20732899 -0.049045794 -0.3217403 0.42587325 0.08954793 0.08159568 -0.079165004 0.47116625 0.39993778 0.14047639 0.44591957 0.14594705 -0.061440937 0.06595534 0.45167243 0.42324135 0.13556375 -0.4460265 0.16372764 -0.11723601
practic -0.1326876 0.17293528 0.07979825 0.028147632 0.085586786 -0.46011546 0.09909367 0.6485662 -0.1942594 -0.12393477 -0.15671693 -0.38805503 -0.040663473 0.051087163 0.03064187 -0.25409907 0.04721166 -0.32674167 -0.0134414015 -0.6428554 0.081210665 0.07652761 0.09390382 -0.09973661 -0.13429756 0.03246251 -0.28715292 -0.14593469 -0.17665407 0.05150385 0.33614546 0.061817206 0.14436655 -0.089595094 -0.28085634 0.23796108 -0.0954438 -0.3134437 -0.24871139 -0.49101722 0.09417983 -0.17371735 -0.09765908 -0.03848065 0.17222376 -0.02423492 -0.19658941 -0.013721488 0.11199303 0.2731523 0.1543542 -0.25596672 -0.13822521 0.09470811 -0.28616408 0.18810068 0.22337642 -0.039021462 -0.31316143 0.09762003 0.17360538 0.09763251 -0.081063494 -0.19366261 -0.48435906 0.20748156 0.14575988 0.18711808 -0.36315683 0.25477543 -0.1708655 0.058881342 0.27657118 -0.08797097 0.26943886 0.20999555 -0.038558166 -0.07513854 -0.30074203 0.11050996 -0.20848107 -0.043398943 -0.297184 0.4038966 0.0767877 0.07291708 -0.063240536 0.41773552 0.3686589 0.11693467 0.3958227 0.12979253 -0.063753255 0.06341885 0.4267425 0.38267544 0.12273248 -0.40590373 0.13823806 -0.10794141
time -0.14637099 0.17568359 0.08511996 0.031320535 0.087206826 -0.48182532 0.092205316 0.6835217 -0.20485736 -0.14378874 -0.16706981 -0.42083082 -0.034075174 0.06971373 0.03436279 -0.25407484 0.042409845 -0.33933467 -0.0044742785 -0.68347776 0.08167356 0.079534836 0.09146873 -0.10040879 -0.14041585 0.031398695 -0.30618075 -0.14777984 -0.17970373 0.051064614 0.33666652 0.07641734 0.15645836 -0.0981242 -0.30091083 0.2472396 -0.092670485 -0.32752022 -0.2739454 -0.50565374 0.09293944 -0.17410383 -0.1189902 -0.032964032 0.18045835 -0.03129507 -0.19628161 -0.017074842 0.11197661 0.2778476 0.163941 -0.27044672 -0.14324567 0.09808854 -0.28209376 0.19056806 0.23113777 -0.05022996 -0.32329342 0.101632655 0.1706871 0.10136352 -0.079580024 -0.19679695 -0.5201793 0.20887727 0.15987132 0.19462718 -0.36171708 0.25976643 -0.15888856 0.047874175 0.29596266 -0.081256114 0.26993784 0.2174248 -0.035274576 -0.0848474 -0.31730288 0.12135173 -0.2157587 -0.04511755 -0.29226026 0.4156184 0.09251033 0.087606706 -0.06358916 0.4484658 0.39521876 0.1376724 0.4259099 0.14657971 -0.07093546 0.07438237 0.45272338 0.4164535 0.12193754 -0.42369965 0.15038058 -0.10129192
understand -0.16896431 0.2050375 0.10927741 0.054022506 0.08930238 -0.52446634 0.113882326 0.75100946 -0.23381823 -0.1622122 -0.1927431 -0.4549861 -0.032253746 0.060285315 0.03676653 -0.29026076 0.050190948 -0.38630563 -0.006531976 -0.74718076 0.090707615 0.107274145 0.09486941 -0.106750324 -0.1455544 0.04500452 -0.34730527 -0.16270526 -0.21250796 0.06013111 0.36917305 0.08356351 0.15390849 -0.1039697 -0.34147957 0.28688905 -0.10945058 -0.36147824 -0.28960454 -0.5728485 0.10476441 -0.20192455 -0.12798345 -0.045832895 0.20607653 -0.033105824 -0.21340445 -0.036102474 0.13433896 0.30632803 0.17169666 -0.3058567 -0.17168681 0.095646895 -0.32393163 0.20470619 0.24207035 -0.05576673 -0.36295897 0.107674874 0.20292623 0.11990419 -0.0879354 -0.22847185 -0.57696444 0.2325979 0.16891742 0.22286539 -0.40227744 0.2979587 -0.17962807 0.073171146 0.327155 -0.096147925 0.31443438 0.2542546 -0.054383744 -0.092424676 -0.3462261 0.13527487 -0.22339916 -0.07039061 -0.33811274 0.47126573 0.09150341 0.07607768 -0.07321695 0.48737097 0.42725345 0.13876346 0.46958193 0.1634739 -0.06607555 0.081647664 0.5028002 0.45785052 0.1404242 -0.45932165 0.15817954 -0.12306551
also -0.12731798 0.18076175 0.08213509 0.02886522 0.086267516 -0.44915003 0.08645685 0.6433143 -0.19481416 -0.1250766 -0.16496412 -0.3799429 -0.022873307 0.06700241 0.04471524 -0.25355625 0.042452667 -0.3242635 -0.004339394 -0.62401736 0.088139236 0.08590249 0.09337808 -0.08115619 -0.13237794 0.02883243 -0.29037422 -0.12951112 -0.18119453 0.0578629 0.32498422 0.058873072 0.14657518 -0.0900942 -0.28153127 0.24686171 -0.08746806 -0.2996277 -0.25919375 -0.46564522 0.07787664 -0.15984115 -0.097037435 -0.031909958 0.1601427 -0.01412088 -0.18567273 -0.016833425 0.10840402 0.25568095 0.15041909 -0.26382157 -0.14480597 0.07434978 -0.2667013 0.17581448 0.20910907 -0.033839524 -0.31279626 0.084379934 0.16892317 0.09251821 -0.08172654 -0.18038557 -0.4797259 0.20141003 0.15450016 0.17853723 -0.35162154 0.25978565 -0.15663211 0.053727996 0.27359077 -0.09079522 0.26098463 0.2109944 -0.034709446 -0.07523573 -0.29086423 0.118643954 -0.20367558 -0.05369968 -0.29134142 0.39158878 0.08133071 0.075333714 -0.06344373 0.41751137 0.36924943 0.12202749 0.40226933 0.12814645 -0.06482676 0.05739973 0.407325 0.37450904 0.12532102 -0.39060777 0.13610275 -0.108972766
net -0.1613253 0.20146191 0.090162 0.047083296 0.0949028 -0.50115407 0.096268855 0.72692245 -0.23350614 -0.13732485 -0.19008249 -0.44417998 -0.029591283 0.067090094 0.04505778 -0.28611648 0.052030534 -0.3770209 -0.0065000136 -0.7224438 0.08832475 0.09182631 0.09811261 -0.10096877 -0.15155593 0.031991094 -0.33738786 -0.16413954 -0.20970348 0.060165215 0.37308562 0.073182024 0.1493756 -0.11064098 -0.3190431 0.2679928 -0.10207817 -0.34633207 -0.27840936 -0.55024654 0.090642884 -0.18421409 -0.12310703 -0.034887232 0.19152147 -0.016825115 -0.20497666 -0.02221129 0.13000453 0.30027512 0.17377453 -0.29410657 -0.15264127 0.101412825 -0.29995874 0.198605 0.23722032 -0.0380844 -0.36283502 0.104547426 0.18268679 0.118004404 -0.10121479 -0.21327706 -0.53581697 0.22043623 0.16179554 0.19881433 -0.39158234 0.2797376 -0.17319085 0.05969492 0.317866 -0.09819947 0.28586814 0.23687352 -0.044138502 -0.08543802 -0.32397857 0.12811984 -0.2283116 -0.057974838 -0.32644168 0.43442884 0.0844421 0.0808161 -0.072423056 0.47825286 0.42466998 0.14635426 0.4569415 0.14966752 -0.07404764 0.07986149 0.47497824 0.44030255 0.13975789 -0.44403556 0.16719261 -0.12095946
theori -0.13884848 0.17365621 0.089492306 0.028052762 0.08351848 -0.44396847 0.09187924 0.6355969 -0.2098629 -0.121291 -0.1727484 -0.39730975 -0.026564492 0.05097395 0.031291496 -0.2512131 0.03996837 -0.3314639 -0.0071184947 -0.636307 0.08731873 0.081126936 0.09486665 -0.09826625 -0.12629968 0.03128024 -0.2883793 -0.1460119 -0.1802415 0.050851416 0.3172954 0.07709384 0.14107299 -0.09008403 -0.2912181 0.24400504 -0.09834206 -0.3045475 -0.25748473 -0.48573512 0.09071608 -0.1739288 -0.10008794 -0.028333958 0.16242844 -0.025784208 -0.18799062 -0.031968273 0.101811 0.26349142 0.15579632 -0.25653824 -0.14309242 0.08741914 -0.2723987 0.16638723 0.21861224 -0.031047128 -0.3211019 0.091998 0.17328957 0.09634329 -0.08188173 -0.19576259 -0.47579175 0.20437776 0.15452054 0.17882618 -0.3506909 0.2481455 -0.16934696 0.062171146 0.2736014 -0.08620608 0.26633292 0.20585784 -0.03215318 -0.07880537 -0.29790217 0.121865734 -0.2013667 -0.05485329 -0.29099146 0.38952297 0.07648345 0.068415344 -0.054323457 0.43001437 0.3692256 0.1235726 0.39213395 0.14002351 -0.06454213 0.06833441 0.43042263 0.3905758 0.12333678 -0.39095604 0.14955798 -0.10446793
technolog -0.14108863 0.18765727 0.09675547 0.038043506 0.08433291 -0.47176117 0.08571212 0.6587253 -0.21478699 -0.13404028 -0.17464446 -0.40492418 -0.025060533 0.072690316 0.045692038 -0.2560373 0.040136185 -0.33447653 -0.013626488 -0.6703921 0.09392456 0.0763181 0.09494995 -0.09551689 -0.14329118 0.037129626 -0.30746293 -0.13545322 -0.1911369 0.04960058 0.33996272 0.07384982 0.14850633 -0.09261532 -0.2997254 0.2434137 -0.09050183 -0.3048736 -0.26681116 -0.49963155 0.092418246 -0.1696302 -0.11298818 -0.038127746 0.17230342 -0.023473052 -0.18690047 -0.0168629 0.107487746 0.27946833 0.15491268 -0.2692584 -0.1525477 0.081527956 -0.27478597 0.1859416 0.21097589 -0.038387496 -0.3319036 0.08571764 0.17800802 0.1057657 -0.08381579 -0.18942678 -0.49430013 0.19918084 0.15984528 0.19297057 -0.35969633 0.2700871 -0.17245594 0.053883906 0.28564432 -0.082369044 0.26832524 0.23109686 -0.045053046 -0.08253154 -0.31049594 0.116533354 -0.19458 -0.058969315 -0.2995088 0.4148673 0.07537498 0.07781302 -0.061221257 0.42777118 0.3825583 0.12549609 0.41945085 0.13264512 -0.068816125 0.07485278 0.43082637 0.40722936 0.119125485 -0.4055623 0.14489257 -0.11136291
been -0.13920277 0.17239685 0.08586254 0.03640113 0.072016865 -0.4552041 0.08902161 0.65199417 -0.19572374 -0.13154005 -0.17167208 -0.38662907 -0.041166756 0.061588176 0.040497597 -0.25261676 0.03611808 -0.33590114 -0.019367883 -0.6347049 0.088675365 0.08224666 0.098161556 -0.09903295 -0.13317676 0.03737018 -0.3019548 -0.14959988 -0.16972527 0.054431673 0.3155096 0.07632825 0.13325235 -0.09496661 -0.284095 0.23754175 -0.09876246 -0.30789053 -0.26330546 -0.4798309 0.083572544 -0.17148516 -0.10046874 -0.03399934 0.17953442 -0.016264396 -0.18672003 -0.022400782 0.113983706 0.27170226 0.16228141 -0.26057625 -0.14104259 0.08250548 -0.27486706 0.17214358 0.20959765 -0.050021276 -0.31427425 0.094800286 0.1728262 0.097287685 -0.076031335 -0.19948976 -0.47389993 0.19795936 0.15477616 0.18974027 -0.35098794 0.2568192 -0.15844807 0.044263575 0.27106935 -0.08998511 0.2512628 0.22054498 -0.033875473 -0.07451168 -0.2864617 0.11713737 -0.20001094 -0.0462546 -0.2959749 0.38738292 0.08762488 0.065937884 -0.0556769 0.42866945 0.36316442 0.13440166 0.40858582 0.12565778 -0.06854572 0.052812193 0.4267422 0.3937804 0.12303503 -0.39868608 0.13438419 -0.10545423
field -0.12640248 0.15728647 0.07434075 0.036498662 0.0669265 -0.43647325 0.09308585 0.6221939 -0.20070179 -0.11545619 -0.14885013 -0.3695028 -0.03504753 0.06775972 0.025188891 -0.24247551 0.04038995 -0.31937593 -0.021280315 -0.6091772 0.08845136 0.0735636 0.080523916 -0.080388114 -0.12619743 0.025839156 -0.27137813 -0.1362233 -0.16605763 0.057463516 0.317091 0.07336907 0.14070465 -0.09654071 -0.27178362 0.22825965 -0.084809765 -0.28052992 -0.23588513 -0.4684009 0.09339894 -0.16433229 -0.098175764 -0.025802614 0.15578328 -0.02363069 -0.17670164 -0.013711338 0.11146271 0.24980435 0.1377975 -0.2506833 -0.1234639 0.07083381 -0.2515754 0.16865483 0.2012106 -0.028754063 -0.2904235 0.09719361 0.16967836 0.08525132 -0.07097985 -0.192738 -0.46989527 0.17941575 0.14869973 0.18411624 -0.34168896 0.23993617 -0.15427785 0.047180325 0.26123697 -0.077397175 0.25191087 0.20327246 -0.040687326 -0.07037521 -0.28347 0.11610883 -0.179491 -0.042051956 -0.28027636 0.3683754 0.06649873 0.06323691 -0.05816675 0.39662388 0.3550267 0.1265601 0.38557336 0.12790194 -0.047263153 0.06661012 0.40144458 0.3622692 0.118562534 -0.37259308 0.14456935 -0.09968708
base -0.14129116 0.1963569 0.10329319 0.03430164 0.0923286 -0.4980638 0.09198629 0.7177492 -0.23259069 -0.15110366 -0.18003187 -0.42429575 -0.03722534 0.07354662 0.045710772 -0.2726642 0.039501604 -0.3555246 -0.020446198 -0.71390474 0.09807325 0.08180455 0.103025295 -0.10201419 -0.1480497 0.034141593 -0.32858264 -0.15824276 -0.18761602 0.06872675 0.3474415 0.06702897 0.15776801 -0.11044644 -0.3102397 0.27303106 -0.10859992 -0.3263135 -0.27176097 -0.5345004 0.10035705 -0.19412476 -0.10802331 -0.027773222 0.1923476 -0.03512222 -0.20068672 -0.026891338 0.12240416 0.29807365 0.17026427 -0.28066593 -0.16020788 0.09905742 -0.3075287 0.19557227 0.24120206 -0.03926848 -0.340199 0.098535456 0.1889029 0.11787672 -0.09486499 -0.20708525 -0.5456054 0.22750522 0.17179509 0.20894693 -0.38281977 0.28577903 -0.18060675 0.054009244 0.3024957 -0.09508798 0.28482884 0.23017596 -0.050381314 -0.07072747 -0.31518233 0.13494568 -0.2239314 -0.055900484 -0.32443994 0.44247356 0.08970404 0.08935732 -0.07714879 0.46372202 0.41400334 0.14087209 0.4372314 0.13972384 -0.06472762 0.059379324 0.47369865 0.43350726 0.13406138 -0.4484019 0.1501273 -0.11277434
other -0.1463488 0.19518511 0.09020143 0.051009655 0.07920948 -0.49645242 0.10994941 0.71885115 -0.23496526 -0.1389558 -0.19196711 -0.44295105 -0.025443131 0.059114926 0.031087952 -0.28414324 0.04929902 -0.36209723 -0.018328635 -0.71844286 0.10227148 0.10181764 0.10816367 -0.09740528 -0.14422719 0.042954285 -0.32409117 -0.15077728 -0.1960171 0.064760104 0.3574007 0.06819311 0.16389658 -0.108882 -0.31791776 0.26759765 -0.10398493 -0.34363076 -0.27793404 -0.54337555 0.09027623 -0.1936052 -0.11004001 -0.030436037 0.1885403 -0.019785663 -0.21554612 -0.029194027 0.11761206 0.28782788 0.17809081 -0.29802564 -0.16361925 0.08389856 -0.29735932 0.19493309 0.23804909 -0.050333202 -0.3534163 0.10413178 0.1845347 0.10418593 -0.099260315 -0.21126218 -0.54955965 0.22154194 0.16819157 0.2147255 -0.39218894 0.29043576 -0.18563981 0.053583756 0.31378692 -0.09507949 0.28459215 0.23862506 -0.03516054 -0.08872369 -0.33089548 0.13082363 -0.22190842 -0.04871798 -0.32083586 0.43294695 0.08117604 0.07175248 -0.079944074 0.4636723 0.40698272 0.13635112 0.44641104 0.1427282 -0.06424589 0.07319466 0.47986358 0.4262109 0.14513324 -0.43767956 0.15667012 -0.11976312
make -0.15237665 0.18414444 0.10317601 0.049514454 0.09537512 -0.5006362 0.1053072 0.7073247 -0.2148938 -0.15015016 -0.18052684 -0.434927 -0.044319384 0.06844862 0.04930616 -0.266374 0.037579503 -0.35359716 -0.015817791 -0.68894744 0.082129985 0.09956601 0.08961817 -0.103574865 -0.14396355 0.040161967 -0.32636678 -0.1534556 -0.19426848 0.05634957 0.35870346 0.07627104 0.16077614 -0.09244721 -0.31879306 0.26740322 -0.091970615 -0.32553667 -0.2703054 -0.53041613 0.10054154 -0.18516526 -0.113275826 -0.04191924 0.18697591 -0.021452336 -0.21256001 -0.015278052 0.12598954 0.28748548 0.16316894 -0.28166464 -0.14596798 0.09782341 -0.30561906 0.20176718 0.2303349 -0.051571503 -0.3343472 0.10600689 0.18693678 0.11737678 -0.09819436 -0.21501656 -0.53093326 0.21111432 0.1641395 0.19992328 -0.39045185 0.2785252 -0.1723071 0.058921296 0.30527693 -0.09291161 0.29032093 0.23290166 -0.03339211 -0.08018949 -0.3162784 0.123815194 -0.21012248 -0.05285993 -0.31030068 0.4392301 0.07910341 0.08955008 -0.07047168 0.4587462 0.40042615 0.12592223 0.43503752 0.14816363 -0.05909421 0.077859014 0.45241043 0.43049702 0.12762938 -0.43136695 0.16480227 -0.11208051
project -0.18126333 0.21271229 0.113388546 0.046019863 0.09062945 -0.5660637 0.11882318 0.8191389 -0.25181302 -0.16177014 -0.2199025 -0.4906775 -0.03708209 0.06783998 0.04327841 -0.31738308 0.051798914 -0.41311732 -0.02012244 -0.81098825 0.110144936 0.10328928 0.11210765 -0.10979338 -0.17330346 0.039337717 -0.3603362 -0.18737394 -0.22753732 0.07206208 0.4003752 0.08589565 0.18479985 -0.11926236 -0.35394996 0.30476645 -0.12004834 -0.38610747 -0.3203873 -0.60169494 0.1185566 -0.20927219 -0.13755195 -0.04787079 0.22179925 -0.027779767 -0.2300836 -0.026829055 0.15085138 0.3248924 0.20351721 -0.33569098 -0.17760792 0.11412492 -0.35709736 0.2290466 0.26074976 -0.057416063 -0.39526695 0.1200373 0.2095899 0.13454768 -0.111948006 -0.24271381 -0.603762 0.25162685 0.18510021 0.23647013 -0.44852173 0.32274035 -0.19936489 0.07788062 0.35587132 -0.11442629 0.33972925 0.26834202 -0.04150802 -0.0991929 -0.37924245 0.14575446 -0.25995684 -0.0676269 -0.36369756 0.49786198 0.09020009 0.08609251 -0.08998923 0.5333075 0.47381467 0.15672036 0.5174706 0.16370717 -0.067821845 0.084564045 0.54383504 0.4885794 0.15864626 -0.5031098 0.1719181 -0.117365845
includ -0.15911955 0.20774154 0.1033653 0.045376614 0.08904529 -0.5245644 0.106572 0.7384006 -0.24105215 -0.1527069 -0.19111075 -0.45348713 -0.03231899 0.07119577 0.045101475 -0.29259214 0.04137216 -0.36832428 -0.005107818 -0.7276435 0.100179315 0.0873313 0.10838587 -0.10836435 -0.16012245 0.05077842 -0.33607492 -0.16940275 -0.20696345 0.070901185 0.36647934 0.0814945 0.15941043 -0.101208 -0.32644805 0.26610854 -0.106182024 -0.33865345 -0.2877578 -0.55692315 0.10764538 -0.18782325 -0.11072873 -0.03682894 0.184522 -0.03148878 -0.20815171 -0.03224941 0.13859674 0.29169214 0.1660884 -0.30115426 -0.15339269 0.09003833 -0.30547568 0.19309245 0.24683699 -0.041772235 -0.36019522 0.11571995 0.19726966 0.114410944 -0.089737035 -0.21347168 -0.5521693 0.23534349 0.17277847 0.20270368 -0.40572712 0.28948352 -0.19076407 0.06091445 0.32397312 -0.103984155 0.3033157 0.2520482 -0.045923486 -0.08088169 -0.33036435 0.12609555 -0.2232622 -0.049990535 -0.33079374 0.44396588 0.0818818 0.07510463 -0.07076282 0.48791635 0.4318537 0.14055316 0.45920607 0.15494087 -0.07945539 0.06183167 0.4880713 0.43426788 0.13950646 -0.46174237 0.17078407 -0.11866794
human -0.15575479 0.21431799 0.10199643 0.041687485 0.0970599 -0.5530139 0.11991419 0.79161996 -0.24132824 -0.16594821 -0.20691554 -0.47676024 -0.040740803 0.06765612 0.051820032 -0.2975883 0.046394054 -0.39473635 -0.007793604 -0.77728224 0.1101966 0.098661765 0.09977831 -0.109013066 -0.17187494 0.056104723 -0.36394244 -0.17129259 -0.21931005 0.07360027 0.39789584 0.07278702 0.16432141 -0.11134432 -0.3458415 0.2987036 -0.11053713 -0.3695804 -0.3163364 -0.5814911 0.10026747 -0.2037406 -0.12930764 -0.04692216 0.21374425 -0.030697059 -0.23621868 -0.03743352 0.13801318 0.3122313 0.1884264 -0.3111019 -0.16562335 0.09732565 -0.32562104 0.20746122 0.26586276 -0.04868311 -0.38347325 0.117489815 0.2012602 0.11624866 -0.102601856 -0.23992616 -0.58910364 0.23446903 0.18919185 0.21455146 -0.4304273 0.29871193 -0.20441267 0.06570254 0.32762623 -0.111408055 0.31965038 0.26222077 -0.04411629 -0.07846464 -0.36796194 0.14714669 -0.25018853 -0.056181956 -0.34001487 0.48938096 0.089115046 0.09224391 -0.08737093 0.51277673 0.44538447 0.14212987 0.4918486 0.1662447 -0.07664441 0.06818725 0.51775056 0.4658693 0.14354171 -0.49051857 0.17319141 -0.11226616
review -0.16810456 0.2155718 0.11102165 0.03784055 0.09281223 -0.536403 0.111772515 0.7616563 -0.24141271 -0.16452694 -0.18880174 -0.47397327 -0.04773342 0.07379891 0.046699703 -0.29635912 0.04997304 -0.38309646 -0.01159013 -0.7503857 0.09612941 0.08840389 0.095940724 -0.096945 -0.15614048 0.03881644 -0.33843017 -0.15681355 -0.20192944 0.060799364 0.3766684 0.076697044 0.15831673 -0.103308626 -0.33301222 0.27874532 -0.09943825 -0.36716515 -0.2926076 -0.57484365 0.10696947 -0.20441616 -0.11909808 -0.029956818 0.20023823 -0.03378365 -0.22870214 -0.022531405 0.13758436 0.31993502 0.1762929 -0.31647503 -0.15860146 0.09644047 -0.32041276 0.21931782 0.24807943 -0.044331145 -0.3757971 0.10387398 0.19314359 0.117439024 -0.10531821 -0.22843337 -0.5756225 0.24094428 0.18042666 0.22337979 -0.4104914 0.2963961 -0.19514625 0.07504911 0.3335841 -0.112266995 0.31347054 0.26349416 -0.037676997 -0.09254817 -0.34953764 0.13836281 -0.23173963 -0.062095955 -0.342748 0.47426715 0.10215942 0.08670886 -0.08262857 0.49448875 0.4342207 0.15145235 0.47531042 0.15477994 -0.0816151 0.07258308 0.50730234 0.46456963 0.15241864 -0.4762177 0.17934486 -0.118103765
analysi -0.14823478 0.19815536 0.08970408 0.046800654 0.09647712 -0.48788244 0.10412966 0.70872027 -0.22360349 -0.15098025 -0.17941968 -0.42868984 -0.04252218 0.068074524 0.04453424 -0.28128883 0.04804993 -0.34874088 -0.02139184 -0.697488 0.081807435 0.08160069 0.1028981 -0.10468021 -0.14686945 0.03216838 -0.3269505 -0.15944037 -0.19382036 0.06419926 0.34491172 0.06496511 0.14947627 -0.10278238 -0.32130578 0.2592619 -0.094016805 -0.32835227 -0.26847318 -0.52211756 0.095126085 -0.18354702 -0.1036522 -0.034005266 0.18748736 -0.024939403 -0.21262322 -0.018511228 0.12887919 0.28931838 0.17638059 -0.288398 -0.14845458 0.08463405 -0.30913463 0.1960304 0.23728922 -0.037074503 -0.35215837 0.10585211 0.18596011 0.1137627 -0.09093107 -0.20434435 -0.52160347 0.20688753 0.15574503 0.20951807 -0.3839731 0.26810342 -0.17826672 0.061734118 0.30990914 -0.096937716 0.28359613 0.22831154 -0.05109092 -0.07608198 -0.3207917 0.11875702 -0.21653321 -0.065782845 -0.31496745 0.4355355 0.08909504 0.0885857 -0.06488039 0.46006435 0.41081667 0.14230686 0.4464157 0.15445668 -0.060966864 0.072982416 0.46920544 0.42160836 0.13125117 -0.4279994 0.15853027 -0.11454835
turi -0.15192436 0.18722387 0.10643773 0.044632256 0.091052584 -0.48884848 0.10948692 0.7038074 -0.22891788 -0.14731795 -0.18632114 -0.4416976 -0.03505439 0.057020195 0.048358098 -0.279002 0.039022826 -0.3682548 -0.015646026 -0.7165108 0.09393326 0.096766934 0.094272554 -0.08973436 -0.14967053 0.033946957 -0.32528952 -0.1575304 -0.20313866 0.05368529 0.35088345 0.07236614 0.15863782 -0.109575 -0.32101247 0.26716068 -0.10092763 -0.33093634 -0.2804004 -0.52638775 0.10581206 -0.19676335 -0.10958362 -0.029147351 0.18648356 -0.019956632 -0.21108752 -0.029399775 0.11567087 0.29953074 0.15786605 -0.28876317 -0.15331858 0.088244595 -0.29250404 0.18876421 0.22503315 -0.034315 -0.35531828 0.11326895 0.18054746 0.11646572 -0.09120921 -0.2159936 -0.5414693 0.21106806 0.175271 0.21037704 -0.3867282 0.28619012 -0.17271678 0.06364655 0.30667773 -0.10557862 0.29641795 0.2300584 -0.047110755 -0.07730151 -0.31853998 0.11821163 -0.21779385 -0.05093467 -0.3235452 0.44439054 0.08186702 0.090724565 -0.078327335 0.47175318 0.41780138 0.12746431 0.44097355 0.1381961 -0.057744443 0.07843202 0.45774588 0.42704618 0.13506746 -0.4472951 0.15826292 -0.12125497
univers -0.14648798 0.18294452 0.10126676 0.04847957 0.08269699 -0.4943066 0.089822635 0.7046614 -0.21620817 -0.13293606 -0.17608668 -0.42966685 -0.03136924 0.07423945 0.047672234 -0.26422378 0.036132034 -0.3629592 -0.004219583 -0.70447403 0.09455227 0.09848711 0.092060946 -0.08943097 -0.1538438 0.04730597 -0.3119569 -0.14934027 -0.20131959 0.07179345 0.3596483 0.071325436 0.15586124 -0.094157085 -0.31345016 0.26764897 -0.100609936 -0.33196342 -0.27637595 -0.5279026 0.09455654 -0.19286588 -0.10849167 -0.026051646 0.18960167 -0.019995723 -0.20731871 -0.019208701 0.1162084 0.28154233 0.17565499 -0.2743979 -0.15568957 0.08576196 -0.29132822 0.19597296 0.23720254 -0.050494015 -0.342516 0.0999331 0.1832382 0.11084923 -0.09707125 -0.2036788 -0.53009754 0.22300602 0.16385458 0.20970207 -0.38250977 0.28126308 -0.18214504 0.050459146 0.29936582 -0.09677866 0.2928896 0.23999697 -0.04889925 -0.07050128 -0.31942424 0.11695987 -0.20985807 -0.0579108 -0.32052845 0.43788242 0.09385342 0.088337906 -0.069484524 0.46654838 0.40791142 0.12854037 0.44455695 0.1404593 -0.07572531 0.07665157 0.453358 0.42899483 0.12823653 -0.42437342 0.14977054 -0.10553297
challeng -0.13923904 0.19592048 0.09367078 0.03592611 0.075922795 -0.48703566 0.10839545 0.69794446 -0.21497756 -0.13415977 -0.18962969 -0.42684853 -0.042223208 0.06164021 0.040263813 -0.28042686 0.040997297 -0.3640085 -0.018626466 -0.7074765 0.10143788 0.098017216 0.0952003 -0.100303695 -0.13949756 0.042028513 -0.32826167 -0.15993305 -0.19330958 0.070916384 0.3557311 0.08302701 0.15941428 -0.10088947 -0.30410412 0.27316853 -0.089500464 -0.3221578 -0.28553835 -0.52207977 0.08793546 -0.1934536 -0.121447854 -0.032244675 0.18590885 -0.03272239 -0.197491 -0.015989743 0.12839045 0.2957744 0.16235524 -0.28878787 -0.14706787 0.088752 -0.3077258 0.19791408 0.22836207 -0.04851294 -0.34034014 0.10902478 0.19043733 0.10942697 -0.08164411 -0.20654556 -0.5224715 0.2146643 0.16787437 0.20870124 -0.393352 0.28310287 -0.17345858 0.06613127 0.30024734 -0.09753037 0.2788682 0.23336929 -0.045394417 -0.08357707 -0.3202526 0.13549365 -0.21100584 -0.06505766 -0.32021785 0.42756158 0.09097076 0.07005088 -0.064624295 0.46362245 0.4021362 0.14508072 0.4467545 0.1456388 -0.060644545 0.059043724 0.45281258 0.41938722 0.14642498 -0.4325899 0.16267112 -0.11662779
world -0.14509921 0.19095987 0.09478697 0.037966963 0.09065107 -0.5002274 0.10521888 0.70733106 -0.22269167 -0.14587735 -0.18833704 -0.43389538 -0.040100556 0.06863857 0.03330777 -0.27440593 0.034788735 -0.35915387 -0.012242124 -0.7065504 0.09454121 0.09997642 0.10055811 -0.09411814 -0.1502613 0.039410066 -0.31599078 -0.15106617 -0.1847342 0.06086736 0.35966185 0.07832724 0.15537275 -0.09260723 -0.3178606 0.25810853 -0.090508044 -0.3218352 -0.27223387 -0.5288738 0.10338655 -0.18361352 -0.113644846 -0.02640143 0.1894287 -0.022762563 -0.2032476 -0.032926988 0.11957495 0.28988117 0.1607212 -0.2744291 -0.14359906 0.083106846 -0.30505708 0.18804686 0.23040059 -0.04533241 -0.34482378 0.099049054 0.18708535 0.11904251 -0.09449933 -0.21766269 -0.5244072 0.20812751 0.17233694 0.20399371 -0.39062 0.26837128 -0.18328871 0.062678605 0.30391285 -0.0917018 0.28348723 0.23648088 -0.039411664 -0.07913672 -0.32867306 0.12623122 -0.21233442 -0.059668146 -0.31333607 0.42730677 0.094666444 0.07642793 -0.06044308 0.4554005 0.39345014 0.12881595 0.43170622 0.14603707 -0.059741504 0.06990847 0.4691398 0.42287835 0.1419647 -0.43457025 0.15453458 -0.1026745
need -0.13394706 0.18207242 0.07885706 0.027289134 0.0780381 -0.44780096 0.08891233 0.63647056 -0.20489606 -0.13753217 -0.15536843 -0.3924265 -0.034988515 0.058130886 0.033962198 -0.25785172 0.039445803 -0.32448807 -0.0016710042 -0.642799 0.077344336 0.0798246 0.09008738 -0.09383767 -0.1381913 0.029257342 -0.28329462 -0.14709279 -0.17971824 0.056610223 0.32101732 0.056208897 0.14658399 -0.09347489 -0.28403297 0.22950375 -0.09664639 -0.29725513 -0.2457591 -0.47336927 0.09326818 -0.1759857 -0.104140006 -0.034758445 0.16665186 -0.019272203 -0.1826133 -0.028958684 0.11504936 0.2678378 0.14532009 -0.2528146 -0.14150053 0.09315627 -0.26784393 0.17872994 0.2095952 -0.048178896 -0.3024596 0.09038148 0.17410776 0.1023152 -0.09025548 -0.19028287 -0.47681594 0.19290917 0.16027609 0.17799832 -0.35424805 0.25521305 -0.16189744 0.048115596 0.27533448 -0.08048909 0.25152755 0.21007724 -0.047205843 -0.068487205 -0.29558697 0.124293275 -0.19563268 -0.048871562 -0.28587475 0.39858362 0.07821951 0.064524546 -0.07167277 0.41801175 0.37502015 0.12630068 0.39171514 0.12465406 -0.06902429 0.06615903 0.4090067 0.38547245 0.12525974 -0.39639023 0.13254589 -0.093539976
structur -0.12072814 0.14428824 0.07060499 0.04174112 0.07093586 -0.40664068 0.08035619 0.5737581 -0.18776569 -0.121821046 -0.14712243 -0.35710102 -0.028032871 0.055998586 0.039619256 -0.22041014 0.03835177 -0.28372318 -0.013952623 -0.5588308 0.07424502 0.07169972 0.06781538 -0.077365674 -0.11027303 0.034414493 -0.26656866 -0.1268016 -0.16334857 0.056346923 0.2789795 0.06456552 0.11774965 -0.088371545 -0.26183805 0.21611802 -0.08747185 -0.27360868 -0.23007704 -0.43057364 0.07367166 -0.14916712 -0.084528714 -0.030282635 0.14447722 -0.019317484 -0.15869935 -0.024684832 0.09467098 0.23886593 0.14094806 -0.23642938 -0.114676945 0.06480525 -0.25045574 0.15083757 0.18968102 -0.035034657 -0.2738457 0.08918916 0.1537121 0.08571366 -0.07906595 -0.17793171 -0.42873114 0.18474306 0.12642866 0.16676421 -0.30590704 0.22049631 -0.14826374 0.042886965 0.23835021 -0.08379637 0.23558946 0.18322927 -0.038658593 -0.058728613 -0.2597749 0.09511249 -0.1798253 -0.042405378 -0.24992812 0.34610176 0.069839835 0.067229904 -0.05560992 0.3692653 0.3328754 0.101940624 0.36038217 0.1068117 -0.05568115 0.062032145 0.36878023 0.34885174 0.11634533 -0.36047295 0.12669836 -0.09346078
about -0.16834979 0.20329991 0.109306514 0.05302922 0.086044975 -0.52664745 0.10044744 0.74949896 -0.23225532 -0.16130419 -0.19043979 -0.46598184 -0.03620568 0.074630745 0.03587906 -0.2911196 0.046269797 -0.38929096 -0.014287245 -0.7417998 0.08943264 0.09060752 0.101840824 -0.09457189 -0.15365927 0.05345867 -0.34779024 -0.15334043 -0.21222775 0.06034293 0.36752754 0.079664245 0.15897226 -0.09961378 -0.3340755 0.2827528 -0.09831073 -0.36297408 -0.29628503 -0.5659226 0.09362176 -0.19563085 -0.117019325 -0.040473487 0.19579843 -0.03534337 -0.22036292 -0.024785029 0.13938053 0.3139478 0.17349792 -0.29750466 -0.16478086 0.09375623 -0.32328287 0.20033036 0.24995582 -0.053510796 -0.3745517 0.104061164 0.20350654 0.118553214 -0.089994565 -0.21487087 -0.57039213 0.22501312 0.18491133 0.21977793 -0.40384802 0.30507672 -0.17729926 0.060976148 0.32205886 -0.09543662 0.31221738 0.2615954 -0.054466423 -0.08960559 -0.33712086 0.13617706 -0.23098332 -0.052966136 -0.3268734 0.45233166 0.090581164 0.07648357 -0.06812551 0.49393767 0.42910013 0.14676249 0.47362468 0.16299267 -0.06400136 0.076269075 0.49272504 0.45906547 0.14686349 -0.46380317 0.1565543 -0.11457737
one -0.15668857 0.19722225 0.089701526 0.03821099 0.08689991 -0.4896267 0.09011547 0.7011186 -0.22557902 -0.15028277 -0.17496936 -0.42559797 -0.028189609 0.057968866 0.039216235 -0.27150244 0.050897706 -0.36366856 -0.005644843 -0.7033686 0.082872346 0.09024507 0.09238054 -0.10088569 -0.15011472 0.044682574 -0.32657164 -0.1506737 -0.1879334 0.06224661 0.34966806 0.07968157 0.14105994 -0.10937927 -0.306042 0.2705223 -0.10491996 -0.33782506 -0.27416694 -0.53053427 0.098131225 -0.17600863 -0.11850896 -0.04208804 0.1929729 -0.027063303 -0.20582038 -0.026692702 0.113654554 0.2800669 0.1607221 -0.27992815 -0.14944555 0.09945221 -0.29092857 0.19141711 0.21970172 -0.04153534 -0.34738988 0.10969089 0.18529004 0.10713611 -0.082541615 -0.21138537 -0.5286271 0.2136097 0.1735853 0.20580474 -0.37790775 0.27878684 -0.1770676 0.06840784 0.2907351 -0.096826 0.27600202 0.24313842 -0.046770573 -0.08081355 -0.3107254 0.11602418 -0.21775146 -0.052827537 -0.31586236 0.4361578 0.08759449 0.074579604 -0.065622434 0.46490398 0.40156713 0.14127156 0.42643726 0.14005424 -0.055046983 0.07303968 0.45938534 0.41503954 0.13900782 -0.43002626 0.16380946 -0.10878522
result -0.14260153 0.18730621 0.09003227 0.039517075 0.09117924 -0.50039 0.10743167 0.7011018 -0.23258561 -0.13649125 -0.17641678 -0.43710822 -0.039716832 0.06311099 0.040746883 -0.26766154 0.046571873 -0.36281863 -0.015915705 -0.7098161 0.08361686 0.09819859 0.088543855 -0.101219 -0.15366597 0.05101941 -0.31606025 -0.15468287 -0.19215366 0.06120258 0.3676578 0.07030284 0.1588421 -0.10561819 -0.30681503 0.27554557 -0.09327347 -0.3353031 -0.28122708 -0.54096305 0.10641488 -0.19700773 -0.12136095 -0.03043111 0.18540725 -0.01835772 -0.21364795 -0.014705954 0.1267992 0.28284672 0.17332485 -0.29041216 -0.14711179 0.10069594 -0.31259727 0.20195584 0.23952587 -0.036499877 -0.35451669 0.095913276 0.17659065 0.11594553 -0.09605782 -0.20740803 -0.53026706 0.22616488 0.17056006 0.20231211 -0.3849341 0.283987 -0.18598126 0.05451338 0.30321714 -0.09048629 0.2871876 0.22929938 -0.04392994 -0.0723019 -0.31747183 0.1322915 -0.22431657 -0.060671408 -0.31801373 0.42962167 0.07967761 0.080759786 -0.07005412 0.47066206 0.41353315 0.1456914 0.4357529 0.15545708 -0.06932365 0.06964815 0.46200415 0.42216194 0.13631633 -0.4486708 0.16735968 -0.1061363
number -0.15287042 0.19364795 0.10532867 0.035361707 0.0912556 -0.4931591 0.10328098 0.7033002 -0.23247816 -0.13639732 -0.18311004 -0.43995187 -0.03464913 0.05916529 0.04689711 -0.28103936 0.0436802 -0.35929912 -0.015917363 -0.70708907 0.099536106 0.09279352 0.08728322 -0.09644849 -0.15568377 0.038321685 -0.31532246 -0.14926402 -0.20154662 0.06481301 0.36111918 0.065935805 0.15010433 -0.10287237 -0.32447523 0.26573095 -0.09235012 -0.33026302 -0.2749453 -0.5298718 0.095069446 -0.19410025 -0.114171356 -0.02890579 0.18986377 -0.026924018 -0.19637434 -0.021033926 0.115047105 0.29699075 0.17718863 -0.29248548 -0.1447268 0.085266516 -0.30143887 0.19993004 0.22741458 -0.05232617 -0.35209486 0.09273042 0.17727132 0.1201276 -0.08800873 -0.2199949 -0.5236754 0.22405533 0.17439899 0.21246776 -0.39381987 0.27605042 -0.17407082 0.062346037 0.30728555 -0.10210212 0.28964156 0.24758455 -0.051962916 -0.07099332 -0.31899247 0.1229912 -0.2199665 -0.06524955 -0.32134256 0.43824673 0.084808365 0.09065173 -0.07901003 0.45662427 0.41258582 0.14365613 0.44315675 0.15393786 -0.058667783 0.06269855 0.47238502 0.41790858 0.1339462 -0.4434925 0.16328467 -0.11457409
between -0.15020254 0.19446352 0.0981373 0.035950616 0.08323822 -0.5086693 0.103760846 0.7219978 -0.23086084 -0.14416604 -0.19140694 -0.428957 -0.036811914 0.06071418 0.037981223 -0.27207473 0.045465223 -0.37082645 -0.021005677 -0.7243108 0.090984054 0.09979969 0.09125793 -0.09775523 -0.1494468 0.045539226 -0.33529806 -0.14837886 -0.20238383 0.069834076 0.35229358 0.08001712 0.14827053 -0.1061875 -0.32273793 0.2658136 -0.10170121 -0.33943045 -0.27840543 -0.5425073 0.094628476 -0.19695409 -0.107103676 -0.031317476 0.19957115 -0.020953635 -0.21285146 -0.016612016 0.119241506 0.29928097 0.16766787 -0.28983852 -0.15264016 0.09155251 -0.3125337 0.19694594 0.23925377 -0.03818317 -0.35758218 0.10899657 0.18460457 0.10431506 -0.098059446 -0.21330215 -0.5345142 0.22908197 0.17972805 0.21407434 -0.39651796 0.28210706 -0.17078015 0.06779107 0.31512418 -0.090235226 0.29354933 0.24474856 -0.05269498 -0.072237186 -0.31928897 0.1229006 -0.22120212 -0.049228765 -0.31633723 0.44954604 0.09758625 0.080089904 -0.063702695 0.4786438 0.41358942 0.13855292 0.45846963 0.15471783 -0.07431089 0.066745475 0.46983507 0.43644083 0.1403747 -0.45552596 0.16350847 -0.102064796
discuss -0.12640972 0.16929385 0.08560058 0.043050803 0.08321635 -0.42024976 0.08405309 0.610174 -0.19743247 -0.11489462 -0.16002323 -0.36012354 -0.040507063 0.053874653 0.042496804 -0.24062099 0.036731414 -0.30254123 -0.0004416931 -0.6049613 0.072184026 0.08764282 0.07304497 -0.081751585 -0.12037436 0.027567491 -0.28082097 -0.14106053 -0.16835877 0.058422666 0.29558742 0.06029924 0.13990192 -0.0914398 -0.26651847 0.23080377 -0.08854162 -0.2920828 -0.23005636 -0.4561112 0.09238703 -0.16338849 -0.09416784 -0.02450534 0.16135347 -0.018986445 -0.18136677 -0.012079105 0.10424334 0.24436024 0.14851114 -0.23340788 -0.13670692 0.08102316 -0.25484842 0.1652456 0.20118093 -0.028141158 -0.28879032 0.08128765 0.15551525 0.10336873 -0.077892736 -0.19141322 -0.45727125 0.17882615 0.14344749 0.1750292 -0.33500826 0.2342968 -0.14173973 0.057016216 0.26280496 -0.080188364 0.25398096 0.19892235 -0.03072353 -0.06906574 -0.28497875 0.09955942 -0.18983115 -0.040035307 -0.26759863 0.36320224 0.07668592 0.06599119 -0.06496761 0.40642923 0.35623387 0.117961064 0.38072696 0.1264755 -0.06712692 0.061120722 0.40580255 0.3692541 0.12067819 -0.37966862 0.13762513 -0.1025679
futur -0.12517343 0.16768204 0.0829198 0.03448838 0.077560626 -0.42153662 0.088258795 0.61443955 -0.18632403 -0.1213152 -0.15855476 -0.37599865 -0.03981442 0.05350364 0.038687944 -0.22723447 0.040067207 -0.31217143 -0.006056477 -0.6068675 0.07830765 0.08733736 0.0910712 -0.08340888 -0.13165131 0.039972913 -0.26487118 -0.1226237 -0.16988337 0.061127096 0.3138245 0.05311175 0.14034238 -0.08654038 -0.27494687 0.23052932 -0.074553885 -0.293958 -0.230652 -0.45902717 0.0745942 -0.15538989 -0.102665365 -0.025682356 0.16772832 -0.013096777 -0.16961333 -0.030378018 0.10907892 0.23782925 0.1435645 -0.23303854 -0.13576187 0.083841756 -0.2649632 0.15946901 0.20806429 -0.0330875 -0.2883365 0.09064844 0.15937632 0.097170725 -0.08640137 -0.1737156 -0.4595823 0.1905319 0.13723104 0.17476398 -0.32507715 0.23577556 -0.15872031 0.045286726 0.24943745 -0.07115254 0.24026114 0.20201178 -0.046062015 -0.07191364 -0.2818613 0.11253524 -0.18028046 -0.04540929 -0.2585898 0.37335414 0.08490237 0.07669768 -0.057939436 0.39795765 0.34150514 0.1138136 0.38247094 0.116664454 -0.0545374 0.05128625 0.40701127 0.36320463 0.11850083 -0.3805084 0.14180945 -0.10091557
quantum -0.12686943 0.15916343 0.0737102 0.032093313 0.074318066 -0.3880077 0.08657334 0.5664138 -0.17064717 -0.123063 -0.13816953 -0.3317091 -0.03189571 0.05281032 0.026745843 -0.22109297 0.044435903 -0.28491402 -0.00569609 -0.56375366 0.079619855 0.06876042 0.07219825 -0.07554103 -0.10562165 0.025034323 -0.25057605 -0.12323615 -0.16193335 0.045177832 0.2722219 0.06438356 0.11885236 -0.08524389 -0.2472295 0.21444826 -0.067809045 -0.27436197 -0.22063613 -0.42042413 0.0750572 -0.14911802 -0.08255036 -0.030377256 0.15734094 -0.021912616 -0.16298465 -0.012082725 0.10571032 0.23032123 0.13182344 -0.21792145 -0.1242017 0.07923073 -0.23957825 0.14872381 0.19114694 -0.040462807 -0.27126238 0.07352664 0.14879622 0.09339022 -0.06569093 -0.176457 -0.42830738 0.18010348 0.1351423 0.16125362 -0.31196782 0.21899882 -0.14928687 0.04920805 0.23358981 -0.074720144 0.23114032 0.19033949 -0.04158371 -0.06250563 -0.26192155 0.09732953 -0.1697137 -0.036935434 -0.25596145 0.34633273 0.07789927 0.07387172 -0.04907045 0.35877693 0.32596016 0.11865506 0.35172448 0.118103676 -0.05483228 0.05723359 0.37169138 0.34693307 0.10443414 -0.35617507 0.13150585 -0.0937284
physic -0.115307726 0.14790893 0.07245995 0.02820215 0.06670432 -0.3880159 0.078748755 0.5359897 -0.17544322 -0.10590518 -0.13668564 -0.32581335 -0.025595097 0.0407678 0.038949825 -0.21338 0.03231956 -0.2667611 -0.008446802 -0.5357602 0.0725581 0.072034575 0.08029114 -0.065068014 -0.11234121 0.027937599 -0.24030563 -0.1265715 -0.14075044 0.050313197 0.27795768 0.059004158 0.116120994 -0.075890794 -0.24527794 0.2113488 -0.07048328 -0.25226185 -0.2180163 -0.41359264 0.08205633 -0.14047147 -0.09123076 -0.03598599 0.13900377 -0.019433595 -0.16549076 -0.018580716 0.09765426 0.21158315 0.12788166 -0.22359905 -0.120605506 0.06981274 -0.24173085 0.14544773 0.17027666 -0.041079264 -0.2635998 0.08033622 0.15119813 0.093161404 -0.07567137 -0.17091733 -0.39979365 0.17112885 0.13507067 0.15114772 -0.30063552 0.20822334 -0.1433738 0.052068505 0.2280624 -0.0640777 0.21301924 0.1912705 -0.038086075 -0.05151149 -0.25273803 0.08963458 -0.15834603 -0.053527594 -0.24914137 0.33639643 0.05739616 0.067094445 -0.05054392 0.3466829 0.314208 0.10644404 0.34493053 0.114205696 -0.05586314 0.050714597 0.36161909 0.31830627 0.114548475 -0.33785936 0.11538973 -0.089130454
import -0.13899176 0.17160216 0.09457036 0.033390027 0.092108354 -0.4703354 0.08703626 0.6694179 -0.19941814 -0.13205177 -0.17383853 -0.4024706 -0.042992707 0.057501137 0.03226373 -0.25773394 0.035906527 -0.3465973 -0.018486926 -0.65911174 0.08949238 0.09486706 0.09312897 -0.086875685 -0.13394831 0.042993512 -0.30810153 -0.14434455 -0.184155 0.064493924 0.32702535 0.06857536 0.14827472 -0.10005267 -0.3060506 0.2545711 -0.09373853 -0.31436118 -0.26816452 -0.48940077 0.09240195 -0.17552987 -0.107659616 -0.03299047 0.18335049 -0.03524866 -0.18996178 -0.028163694 0.12638895 0.2780714 0.15193945 -0.26875296 -0.14891915 0.09669188 -0.27516717 0.18660857 0.22922133 -0.046300687 -0.32300714 0.09076429 0.16522156 0.0994901 -0.08614022 -0.20489603 -0.5063657 0.20447624 0.15709236 0.18324672 -0.35659578 0.2638089 -0.17491378 0.05622888 0.2768054 -0.08165571 0.26785523 0.23200212 -0.035660226 -0.07890888 -0.3139077 0.11426085 -0.19604895 -0.055874385 -0.2968503 0.4090219 0.07397411 0.07955998 -0.075048536 0.44704056 0.37506285 0.13663754 0.41347685 0.13594332 -0.06367286 0.06619271 0.4410915 0.4027904 0.12890323 -0.40514636 0.1416337 -0.11207864
organ -0.12524597 0.15668277 0.07379145 0.026768044 0.072458066 -0.39507592 0.08162408 0.5629741 -0.16670977 -0.11487358 -0.14004958 -0.33212772 -0.017904483 0.0495917 0.03268861 -0.2198334 0.032183614 -0.27992576 -0.0066546127 -0.55672747 0.075753085 0.065323845 0.07067348 -0.085482314 -0.10609383 0.03607403 -0.25390086 -0.11118856 -0.15052338 0.03879721 0.269717 0.053794283 0.1121034 -0.0715554 -0.2413709 0.208438 -0.078059524 -0.2679837 -0.21124499 -0.4190008 0.07323621 -0.15308657 -0.09043242 -0.03750793 0.1491511 -0.028308941 -0.15271205 -0.026959484 0.09079382 0.22667995 0.122968376 -0.21666935 -0.12369976 0.07394677 -0.2288199 0.15574355 0.18260679 -0.025990946 -0.27100012 0.08594615 0.1506221 0.0776616 -0.06845916 -0.1745395 -0.41754365 0.17828187 0.12835233 0.15378594 -0.29802397 0.22537789 -0.13133132 0.039877083 0.24316446 -0.06686088 0.21830809 0.18437499 -0.03414325 -0.0707201 -0.2546788 0.11055397 -0.17295463 -0.0524739 -0.2505794 0.32939795 0.070653744 0.069176 -0.054968707 0.35936895 0.3283382 0.097619385 0.34048083 0.10445231 -0.042480707 0.051530395 0.35747984 0.3245796 0.11597758 -0.3473763 0.11696684 -0.082346424
method -0.12588462 0.16212872 0.083112836 0.02761053 0.066205025 -0.39112136 0.070941836 0.56515914 -0.17237303 -0.107455954 -0.15350355 -0.34236535 -0.03458413 0.05863458 0.040674534 -0.2196066 0.02771828 -0.28005987 -0.010369005 -0.55586135 0.06657433 0.07126134 0.07424932 -0.06986235 -0.124247655 0.028346 -0.25540468 -0.123899035 -0.14903866 0.04857264 0.2787513 0.049510404 0.11155666 -0.07846701 -0.25071704 0.19933516 -0.07060844 -0.25696507 -0.21295494 -0.4218882 0.07665865 -0.14104916 -0.09723893 -0.035253074 0.13981478 -0.016807001 -0.17071459 -0.016615054 0.10568993 0.2307944 0.123309486 -0.21605584 -0.11520175 0.06538985 -0.23358075 0.16297163 0.19129056 -0.039312493 -0.26680356 0.07504631 0.1388154 0.09108414 -0.07705543 -0.16890796 -0.4264258 0.16446093 0.1301281 0.1623216 -0.30359045 0.22808088 -0.13486154 0.038689267 0.23015101 -0.076997824 0.22363734 0.1815702 -0.025428867 -0.05785151 -0.2629805 0.10694768 -0.17428052 -0.052212235 -0.24838951 0.350327 0.064855896 0.06020485 -0.058868486 0.37211716 0.3279319 0.10072702 0.3401816 0.114798464 -0.049239296 0.057576504 0.3707956 0.33673295 0.10789138 -0.34361532 0.124666676 -0.08144326
engin -0.11816372 0.16113842 0.072009236 0.034958035 0.072516665 -0.3992405 0.09014584 0.5655001 -0.17087086 -0.11576087 -0.13338518 -0.33700952 -0.029545737 0.056402378 0.037134197 -0.20995136 0.038311146 -0.2820063 -0.013501533 -0.5636172 0.064462245 0.06922325 0.07378586 -0.074795954 -0.11633144 0.03402311 -0.2486596 -0.1279459 -0.14663923 0.056695312 0.2871713 0.060303938 0.121046 -0.07821734 -0.2567666 0.2040757 -0.07660227 -0.2644142 -0.21587741 -0.42279992 0.08187753 -0.1519842 -0.08402556 -0.03133568 0.14411521 -0.018974187 -0.16300495 -0.020905903 0.094567835 0.2381978 0.12414013 -0.21978255 -0.1241151 0.084174454 -0.23542339 0.15740395 0.1813317 -0.036259606 -0.27971384 0.07901238 0.15254216 0.07686893 -0.06898222 -0.16267909 -0.41361764 0.16834734 0.13746312 0.15085483 -0.30552757 0.22886732 -0.13536401 0.0419338 0.2362538 -0.084273584 0.22626866 0.19335066 -0.041494362 -0.05690694 -0.26036853 0.107220195 -0.16623896 -0.042179424 -0.24998163 0.3327995 0.06380697 0.06452663 -0.06644705 0.3768916 0.32628667 0.10749174 0.35919285 0.11120107 -0.052019935 0.055384602 0.37472543 0.3396197 0.10567334 -0.35247937 0.1168618 -0.08098745
current -0.13008067 0.18054745 0.09369728 0.026216803 0.08836442 -0.4547394 0.09161515 0.63847 -0.19288103 -0.13827685 -0.16035378 -0.39488328 -0.0319291 0.06679847 0.026352514 -0.23791663 0.03255664 -0.31695253 -0.019901183 -0.64245415 0.07473203 0.08796428 0.08441096 -0.08701843 -0.14203934 0.046823952 -0.28723422 -0.14318718 -0.17887042 0.06524108 0.32283354 0.056124557 0.14144303 -0.09713614 -0.28188172 0.2469809 -0.09023837 -0.30116543 -0.24434547 -0.48291728 0.09103469 -0.16519772 -0.1124852 -0.035395466 0.17714334 -0.021713171 -0.1751559 -0.023588326 0.120575756 0.2530527 0.15615997 -0.2652126 -0.13368839 0.09250273 -0.2743903 0.18376225 0.20088655 -0.04004096 -0.3068033 0.08729907 0.17405364 0.09104035 -0.08312515 -0.1807526 -0.4719735 0.19642815 0.16040125 0.17273036 -0.35062915 0.2538265 -0.16116776 0.0595195 0.28111884 -0.090063795 0.25573754 0.22369753 -0.045618724 -0.08054867 -0.2918896 0.107622825 -0.19568716 -0.04908217 -0.2916866 0.38992476 0.07488171 0.06990415 -0.062546715 0.4221282 0.36487415 0.13181725 0.3980447 0.13868997 -0.0567898 0.06604825 0.42887947 0.37938336 0.12455282 -0.39976475 0.14673539 -0.10624868
relat -0.13416459 0.17597267 0.08105891 0.039263763 0.07565032 -0.43123245 0.08730119 0.60942006 -0.18516228 -0.1181765 -0.1689521 -0.38484862 -0.028671179 0.057532977 0.031053405 -0.2317316 0.030729152 -0.31667244 -0.0032001077 -0.6172432 0.075087234 0.08814551 0.09110697 -0.08930538 -0.13614783 0.034645207 -0.27215543 -0.13715754 -0.16614503 0.053352352 0.314726 0.06343475 0.14036585 -0.07930025 -0.2838539 0.23779702 -0.09403145 -0.30095246 -0.2367057 -0.46032926 0.089721225 -0.17433988 -0.09079364 -0.039686583 0.15678658 -0.021873308 -0.18366027 -0.018259523 0.10321868 0.24666366 0.15271197 -0.25062263 -0.12645243 0.07825598 -0.26514608 0.17545155 0.21063167 -0.040234517 -0.31294852 0.08753461 0.16932249 0.1034817 -0.0863402 -0.1810378 -0.455595 0.18145362 0.14607184 0.1785043 -0.34318963 0.23889762 -0.14865753 0.04778061 0.25944078 -0.08122905 0.25978252 0.21536022 -0.043457 -0.07158038 -0.27320322 0.111898676 -0.19569567 -0.058669202 -0.28095323 0.3846937 0.07909408 0.063706845 -0.05593879 0.40359038 0.3557813 0.11481092 0.38838127 0.12819335 -0.055550534 0.056339864 0.40259206 0.37065822 0.11622368 -0.3846516 0.14522447 -0.0944601
first -0.10280522 0.143026 0.07228255 0.029997546 0.0715688 -0.35343018 0.065400854 0.5190349 -0.16592918 -0.10489528 -0.14037153 -0.32093343 -0.028922204 0.05312094 0.030679597 -0.20008387 0.027257118 -0.25396243 -0.0002168897 -0.5026765 0.066348165 0.05660254 0.07806892 -0.07265128 -0.10386869 0.034268375 -0.22228517 -0.11204058 -0.1461291 0.044890814 0.25959376 0.05284363 0.10965774 -0.06393433 -0.22492482 0.1855762 -0.062025294 -0.2485243 -0.20384814 -0.37808743 0.06430723 -0.12850556 -0.088774756 -0.03541442 0.12589632 -0.017345171 -0.14185719 -0.009702401 0.09312313 0.21410908 0.120651744 -0.21180229 -0.10072346 0.061091263 -0.21102741 0.1396918 0.16735259 -0.034303844 -0.2416929 0.067210235 0.13526821 0.07957608 -0.0648089 -0.15862043 -0.3939144 0.14893195 0.117231674 0.14631301 -0.2853055 0.21101941 -0.12532534 0.036168475 0.21374875 -0.07562065 0.19921722 0.17235075 -0.03198677 -0.047895275 -0.22943398 0.0916127 -0.1483325 -0.046510532 -0.23627855 0.31565136 0.056907326 0.05502578 -0.04919612 0.3277811 0.29242048 0.10186779 0.31958783 0.10382506 -0.04907946 0.058805473 0.33850035 0.30537036 0.09391051 -0.3241226 0.112328775 -0.083640344
open -0.12465689 0.14616627 0.06931839 0.025842803 0.06494098 -0.37956956 0.08392754 0.543738 -0.15962873 -0.103909746 -0.13394663 -0.3275301 -0.022310138 0.05036885 0.03943295 -0.21861991 0.036098342 -0.27047816 0.00066885026 -0.54284376 0.07970131 0.07367357 0.06849118 -0.06481564 -0.11648474 0.039386872 -0.25427374 -0.12168652 -0.14282963 0.04686735 0.26311004 0.0549301 0.10869418 -0.071980245 -0.2319375 0.20015812 -0.06839672 -0.2575266 -0.20791885 -0.40176466 0.06523255 -0.14157388 -0.0930501 -0.020156087 0.13670678 -0.010995918 -0.15582228 -0.010564014 0.09986666 0.23157151 0.1287265 -0.21475144 -0.11409498 0.068591125 -0.2332779 0.15240467 0.18653019 -0.025628306 -0.26069903 0.08252814 0.13950932 0.0846299 -0.07366066 -0.16756901 -0.41263208 0.16984512 0.120733134 0.16328864 -0.30012295 0.2117161 -0.14140736 0.053601068 0.23685257 -0.070468776 0.21684808 0.175894 -0.039828338 -0.049999516 -0.25457084 0.10332438 -0.16248685 -0.032518737 -0.23681566 0.33173424 0.07243767 0.06667875 -0.06465441 0.3487436 0.31161213 0.104947224 0.34201193 0.1086914 -0.05277495 0.05570174 0.35758415 0.33335415 0.114037976 -0.33324558 0.12241136 -0.09475851
mani -0.121053 0.15706302 0.083777994 0.03526623 0.08113566 -0.4071639 0.09399646 0.59208566 -0.19141763 -0.12568922 -0.16026865 -0.35780343 -0.021221729 0.06331977 0.031558093 -0.22920002 0.030811194 -0.29259628 -0.0041058 -0.5865182 0.08641929 0.06667677 0.07161632 -0.07193873 -0.11775754 0.025300838 -0.2606973 -0.13282649 -0.16246603 0.056130346 0.28776807 0.06757303 0.12200416 -0.090932176 -0.2564304 0.2287056 -0.073891535 -0.27456948 -0.22975263 -0.44984722 0.07901662 -0.15753876 -0.091929086 -0.021404548 0.16366176 -0.023017365 -0.17678171 -0.012919908 0.11291205 0.23567209 0.14381947 -0.22975613 -0.12741014 0.08199676 -0.2582644 0.1542005 0.18828414 -0.04441567 -0.29701167 0.09066644 0.14781252 0.09818073 -0.07573274 -0.1786734 -0.45350492 0.176414 0.1425099 0.17919813 -0.32432804 0.24049173 -0.15032119 0.060408328 0.25223425 -0.08658983 0.24228773 0.1992724 -0.02859815 -0.07362641 -0.26692843 0.109895505 -0.17391752 -0.049421515 -0.26566738 0.35346287 0.078079075 0.060152587 -0.05272135 0.39496127 0.346848 0.12175018 0.36223537 0.13106297 -0.06301725 0.065177165 0.38335806 0.35546854 0.11345186 -0.366016 0.13961706 -0.090063445
knowledg -0.1253881 0.15329741 0.07834062 0.025657922 0.07318826 -0.38200358 0.08290178 0.54263115 -0.16584864 -0.10428415 -0.14277266 -0.34138045 -0.02778575 0.05430138 0.022796167 -0.22095476 0.03552911 -0.27548462 -0.014375362 -0.5488233 0.07897928 0.07926137 0.06667815 -0.08255695 -0.11259229 0.0274476 -0.24785271 -0.12401978 -0.15934569 0.043673035 0.27741644 0.060616408 0.10941908 -0.08693424 -0.25042513 0.20609273 -0.08450084 -0.257133 -0.2059107 -0.41735846 0.070943825 -0.13581951 -0.080090195 -0.028100254 0.13917029 -0.029913297 -0.16263132 -0.017693898 0.10431438 0.2211263 0.1384279 -0.22714463 -0.1125123 0.07796606 -0.2381845 0.15911709 0.17345066 -0.02980343 -0.27598205 0.07765208 0.14034207 0.091933765 -0.06593368 -0.17270799 -0.41450775 0.16206668 0.12131739 0.15860905 -0.2902925 0.20960498 -0.12616016 0.049946256 0.22651428 -0.07377615 0.22414628 0.19033116 -0.033049338 -0.05112027 -0.2546063 0.089762114 -0.17678118 -0.039239354 -0.2476793 0.32630622 0.061976887 0.06300641 -0.046488926 0.3557172 0.31867525 0.10559243 0.35025284 0.11794035 -0.058694378 0.043489784 0.355412 0.33153304 0.112236165 -0.33165628 0.12625645 -0.077077374
particular -0.10750559 0.14276949 0.0763328 0.033914354 0.06645003 -0.3739313 0.06664006 0.51795894 -0.1724728 -0.09670248 -0.14388305 -0.33000353 -0.023658179 0.05715451 0.036260158 -0.20871443 0.040511765 -0.2656347 -0.01304261 -0.5279543 0.06684153 0.05910356 0.072843105 -0.06544228 -0.11199634 0.03358008 -0.23313114 -0.10639426 -0.15224595 0.049191326 0.26168925 0.05938278 0.11109248 -0.0829401 -0.23287275 0.18621749 -0.06425494 -0.2560507 -0.20685063 -0.38501787 0.06630401 -0.14898528 -0.08856516 -0.034564614 0.14502896 -0.028166812 -0.15668945 -0.02652033 0.10164084 0.21158513 0.11871451 -0.20895089 -0.11275309 0.07745536 -0.22675228 0.13893305 0.1674831 -0.04137573 -0.24687566 0.085652895 0.13947958 0.07446335 -0.06960541 -0.15213883 -0.4010271 0.16946532 0.13067603 0.14894128 -0.2927088 0.21640444 -0.13010311 0.040869087 0.22731583 -0.07721385 0.20328125 0.18327367 -0.031836532 -0.05535214 -0.22952427 0.0905636 -0.16757868 -0.051119015 -0.22474922 0.31790692 0.07144604 0.062520064 -0.06033616 0.34554902 0.31218034 0.09690506 0.32738993 0.106529884 -0.04260296 0.048305355 0.33985806 0.30716777 0.098419696 -0.32280356 0.11492864 -0.08128529
perform -0.11413238 0.16562971 0.086487405 0.039710134 0.07674553 -0.408397 0.08291452 0.58550197 -0.18947415 -0.11474332 -0.15321891 -0.34573612 -0.023557339 0.048496038 0.03508043 -0.23035027 0.027871503 -0.2948717 -0.009264978 -0.5854673 0.07767275 0.07627588 0.070426665 -0.08214751 -0.12186718 0.03819859 -0.2575288 -0.11986917 -0.15851896 0.04329047 0.29196334 0.07081655 0.1341409 -0.07722759 -0.25589594 0.22222677 -0.08517478 -0.27838764 -0.22818725 -0.43888876 0.085564665 -0.14641432 -0.09449656 -0.03864748 0.14873269 -0.030041937 -0.17597334 -0.017783321 0.1047755 0.23267901 0.1302644 -0.23299953 -0.124512754 0.07748925 -0.23995845 0.15867223 0.18231195 -0.029760784 -0.27593848 0.078050055 0.15923086 0.09580946 -0.077029325 -0.17548753 -0.43074656 0.18630323 0.14565125 0.15919651 -0.31543785 0.222348 -0.15377714 0.04611428 0.24526827 -0.084229246 0.23786281 0.19083948 -0.0354001 -0.067132436 -0.26227525 0.11056532 -0.16920911 -0.042767458 -0.26254347 0.3616566 0.077198446 0.0670868 -0.049065065 0.37679872 0.33894783 0.10463527 0.36548698 0.12921107 -0.06253071 0.05899252 0.3867421 0.34286723 0.10543562 -0.36432064 0.13348974 -0.08885505
