2197 100
we 0.1201662 0.17326573 0.2271012 -0.03510945 -0.012393671 -0.68586004 0.2810027 0.76872796 -0.26881647 -0.2303373 -0.044557422 -0.8538147 -0.18657109 0.1894125 -0.0038944813 -0.21064089 -0.077414885 -0.22691983 -0.07303062 -0.8172279 0.26096117 0.12040176 -0.02568732 -0.07033815 -0.072733656 0.060645282 -0.27688292 -0.3585803 -0.3943859 0.03288693 0.3640487 0.027977012 0.20828545 -0.33566132 -0.18684599 0.33566448 -0.05619991 -0.36606658 -0.20549376 -0.7897988 -0.0008694288 -0.28494257 -0.1462527 0.07620629 0.33228222 -0.18543682 -0.26499292 0.10315543 0.26029572 0.3128781 0.0620206 -0.34325233 -0.0967087 -0.19152549 -0.019163107 0.19508448 0.25784427 -0.047493152 -0.39989847 0.28247845 0.15219049 0.08395787 0.02390979 -0.2536959 -0.4490489 0.36412948 -0.059564564 0.1789326 -0.4058348 0.4497725 -0.11268554 0.22931837 0.50239986 -0.23577583 0.4878878 0.22287199 -0.040172953 -0.15348977 -0.3861285 -0.04917699 -0.13517632 0.07624688 -0.20646065 0.4545335 -0.07099287 -0.051191922 0.2111796 0.49481466 0.3180104 0.0062153614 0.585825 0.29725945 0.14478466 0.04634192 0.43769348 0.3107139 0.065595806 -0.49196368 0.2301111 -0.25096303
graph -0.12477928 0.33598652 0.33164257 0.0017239753 0.17434473 -0.7505707 0.17069891 0.6373059 -0.33520633 -0.19371682 -0.031280454 -0.77136475 -0.1386813 0.31496686 0.230768 -0.23549174 -0.14876144 -0.1513335 0.021610048 -0.6501734 0.22963864 0.18742622 0.058366343 -0.0018281977 -0.023341628 0.035505094 -0.25105858 -0.24093977 -0.33135188 0.14954075 0.35637897 0.08819143 0.11484248 -0.24483462 -0.14212805 0.4637464 -0.117395885 -0.35367137 -0.065837 -0.5996225 0.19494782 -0.5305955 -0.19303268 0.1598456 0.29487768 -0.16320707 -0.2094411 -0.03275706 0.19839801 0.14461061 0.43767607 -0.3106874 -0.037316483 -0.14291222 -0.1003633 0.29059967 0.38073075 -0.09854374 -0.34776363 0.13142939 0.12603152 0.12819445 -0.11316032 -0.28809738 -0.50180876 0.39192075 0.025445918 0.11822849 -0.43856478 0.66444176 -0.29906577 0.06912278 0.5783211 -0.17299645 0.5108867 0.31729752 -0.17184502 -0.068094656 -0.28166962 -0.026773283 0.07811636 0.07105507 -0.15421394 0.4700753 0.05249868 0.07189732 0.030004838 0.37541136 0.33654898 0.020119952 0.646067 0.21316049 0.19729516 -0.14354445 0.32047102 0.26667222 0.16978864 -0.36399227 0.12865001 -0.24684167
problem 0.057796028 0.22361672 0.18695857 -0.10347788 0.06428675 -0.65394723 0.19298504 0.75383925 -0.27296084 -0.22551127 -0.09159226 -0.84107643 -0.15015002 0.19815134 0.16162477 -0.21248367 -0.1100613 -0.21881177 -0.09131281 -0.800301 0.23015855 0.10946732 -0.09524182 -0.059945337 -0.082830064 0.06322778 -0.25069058 -0.40952826 -0.37303478 0.0721538 0.44891047 0.025515385 0.11069755 -0.2740053 -0.19294503 0.3779349 -0.0962097 -0.31792235 -0.16459946 -0.75247574 0.037440125 -0.35239226 -0.13148852 0.11553707 0.33477494 -0.119087175 -0.20711343 0.025360616 0.23633642 0.2751909 0.115723185 -0.36375484 -0.091415435 -0.19685234 -0.07935861 0.21292613 0.21501788 -0.027353339 -0.4250337 0.21081959 0.20919599 0.10127886 0.011620355 -0.2120664 -0.4241284 0.37817755 -0.007106901 0.18125373 -0.3821719 0.50794464 -0.09552519 0.18755752 0.5078946 -0.20394516 0.4246734 0.27898377 -0.02332819 -0.10283747 -0.32775506 0.0009910595 -0.077298924 -0.029295282 -0.30045292 0.4201955 0.022825247 -0.027160613 0.11204397 0.4817899 0.34690097 -0.04289252 0.6369978 0.33060926 0.18749486 0.009595321 0.4189434 0.3339036 0.13209039 -0.4284076 0.2040819 -0.28835624
algo 0.14237638 0.1612181 0.21460877 -0.11214511 -0.0061409776 -0.690548 0.25565803 0.7833585 -0.22455476 -0.30615914 -0.09259187 -0.87535894 -0.19600324 0.1471129 0.05480776 -0.18551593 -0.09553392 -0.26763877 -0.09213142 -0.8078865 0.29475164 0.09803475 -0.08658451 -0.08781104 -0.1824012 0.103726946 -0.28501108 -0.4157063 -0.36760554 0.04408342 0.45732147 0.022528602 0.14678913 -0.29635134 -0.18735567 0.37800357 -0.058219787 -0.3377339 -0.26942903 -0.7943968 0.011126994 -0.29262382 -0.079027824 0.061761435 0.36646912 -0.17018256 -0.23010583 0.06775862 0.26060888 0.3177371 0.057608727 -0.40914845 -0.08482144 -0.25619477 -0.07789358 0.20203425 0.22002783 -0.0031147837 -0.41053456 0.23689523 0.17245728 0.1281686 0.07480492 -0.22801897 -0.39197725 0.33876547 -0.054227386 0.19553533 -0.3732473 0.4165602 -0.07179238 0.21312626 0.5015207 -0.18011586 0.42984816 0.21852024 -0.02850765 -0.14126346 -0.36730537 0.017510448 -0.185264 0.03455364 -0.27507308 0.43843743 -0.027289506 -0.07776738 0.22609848 0.5566811 0.31684443 -0.048246752 0.61037725 0.33459982 0.12871979 0.065719336 0.44648898 0.3242634 0.11287935 -0.46505687 0.21933964 -0.24271645
set -0.10319069 0.2713886 0.2963194 -0.092074424 0.12141904 -0.74417156 0.1524064 0.67786705 -0.32821077 -0.20558572 -0.08980189 -0.81939566 -0.15721437 0.24329242 0.22320068 -0.29176593 -0.17947374 -0.20702179 0.009364832 -0.7675856 0.22259566 0.15535009 -0.006280111 0.026178263 -0.057401016 0.03408663 -0.273518 -0.32899636 -0.3486706 0.07286666 0.40285635 0.12117728 0.07586273 -0.21958658 -0.14630638 0.42556813 -0.124658726 -0.3772113 -0.08085342 -0.7067921 0.14746816 -0.5035909 -0.17640036 0.16407317 0.3409111 -0.18957518 -0.20804766 0.008912421 0.22619078 0.19664536 0.3167891 -0.30440253 -0.022351773 -0.16065383 -0.103539646 0.27043277 0.30971825 -0.075307466 -0.37714332 0.11469857 0.18955538 0.13199782 -0.0987548 -0.24508634 -0.46191305 0.42557654 -0.028258631 0.15835889 -0.39656115 0.62271845 -0.2830689 0.16084999 0.54632133 -0.21251304 0.46528915 0.3918522 -0.1407826 -0.052405722 -0.28162125 -0.0120935915 0.03531687 -0.013489829 -0.2535886 0.46061736 0.04697852 0.042024042 0.03944675 0.4855363 0.3480047 0.03320678 0.6746758 0.25910172 0.14988402 -0.08720905 0.39728922 0.31402674 0.21541776 -0.39769813 0.19431116 -0.2686922
which -0.056564264 0.25589576 0.29818156 -0.07547578 0.07890761 -0.7576319 0.1930558 0.6987755 -0.31927857 -0.23318022 -0.09951354 -0.8497257 -0.17938352 0.22057386 0.15798444 -0.27124557 -0.15546843 -0.24449398 0.006410919 -0.7607829 0.23251879 0.16077118 -0.007267956 -0.007879284 -0.081003696 0.04828314 -0.2902891 -0.34215835 -0.34176183 0.071952455 0.41960245 0.0908134 0.10427109 -0.22935444 -0.1697901 0.43177176 -0.11371946 -0.36703777 -0.11190586 -0.7486145 0.13328886 -0.462097 -0.15908226 0.13614857 0.32985947 -0.17422052 -0.21176985 0.03130462 0.22188808 0.22051093 0.2803417 -0.34274113 -0.041052192 -0.15732001 -0.10607636 0.27265462 0.3374845 -0.078575365 -0.39764658 0.1377632 0.17103049 0.14745128 -0.054150946 -0.27796867 -0.47573516 0.40625653 -0.04004658 0.14807333 -0.41567424 0.5673553 -0.24719724 0.1621172 0.566155 -0.21615584 0.4858581 0.3460461 -0.15564613 -0.09393213 -0.31243315 0.010539368 0.004709072 0.030732825 -0.2196673 0.4696751 0.038833182 0.0056346194 0.08279873 0.5180394 0.35493088 0.03383443 0.6595702 0.2709897 0.13030237 -0.06984507 0.40189752 0.33625856 0.17055814 -0.43160245 0.21153836 -0.26714253
net 0.04438871 0.1557843 0.28349134 -0.081867404 0.006229833 -0.73496675 0.19604883 0.67677414 -0.3083114 -0.24472132 -0.11762457 -0.8790989 -0.20154414 0.20685095 0.031688184 -0.23969147 -0.08215269 -0.2665898 0.010647757 -0.8263545 0.2724779 0.124313764 -0.016207319 -0.05010154 -0.14198478 0.06323032 -0.34121293 -0.37225437 -0.3417113 0.020212106 0.5220216 0.1244015 0.11005647 -0.17578763 -0.22975458 0.37056756 -0.16432689 -0.39354166 -0.17306194 -0.8464414 0.096811086 -0.4269096 -0.08910772 0.06542424 0.357219 -0.15733968 -0.20350884 0.019391842 0.23020715 0.28265807 0.15288085 -0.39881164 -0.114653595 -0.14975312 -0.1533773 0.21674845 0.276017 -0.06750165 -0.4222472 0.14929624 0.17285432 0.19832201 -0.007519119 -0.26814067 -0.44066483 0.41462797 -0.07025695 0.13989471 -0.3838217 0.5050251 -0.20699915 0.2567361 0.5397695 -0.21697988 0.47678897 0.30229864 -0.132623 -0.117852345 -0.30883577 0.032759283 -0.102450415 -0.016229313 -0.2960495 0.4878489 -0.0099123465 -0.072885044 0.16480277 0.57848024 0.33804035 0.055077992 0.6161551 0.278885 0.06535859 -0.015339965 0.40557903 0.42749053 0.19954772 -0.4476551 0.24370599 -0.22569866
our 0.15842782 0.09224438 0.24356471 -0.075229086 -0.06111306 -0.6620822 0.22919515 0.7158907 -0.25677004 -0.2842619 -0.12178178 -0.8764041 -0.20778063 0.1518681 -0.02021502 -0.19232807 -0.09084564 -0.27749246 -0.051973715 -0.8373206 0.2749771 0.113634124 -0.061255887 -0.12503411 -0.15962362 0.096039645 -0.3109549 -0.3858783 -0.37909237 0.032248236 0.41885355 0.050791815 0.17322758 -0.28648138 -0.21389458 0.3411649 -0.115077995 -0.3558578 -0.27880165 -0.8235943 0.024525391 -0.30993444 -0.08517186 0.07293518 0.3734798 -0.22043198 -0.25110987 0.08670311 0.27947694 0.3370228 0.010496618 -0.40175045 -0.066447325 -0.2362857 -0.08705344 0.23547366 0.2000448 -0.014612859 -0.39590767 0.2872957 0.18312842 0.12352641 0.047271006 -0.22356275 -0.4145162 0.35033575 -0.08724951 0.21205227 -0.3673936 0.41051957 -0.0893744 0.2589532 0.51563853 -0.21535914 0.4345591 0.23199612 -0.045095768 -0.17592387 -0.3435295 -0.009425771 -0.19670214 0.03372465 -0.30133083 0.47588617 -0.028311238 -0.079975806 0.24653026 0.6066051 0.34780815 0.008047109 0.58202064 0.3177705 0.07541882 0.08065195 0.4315582 0.3803162 0.122332536 -0.4771558 0.25143006 -0.22913483
number -0.10814293 0.3340971 0.32435483 -0.05111042 0.15446766 -0.79544765 0.1990684 0.6992616 -0.34266233 -0.21511999 -0.05954414 -0.87803674 -0.13354829 0.27407753 0.25404698 -0.26830542 -0.19911027 -0.21031015 0.0029315895 -0.7748013 0.24803361 0.20070183 0.02687264 -0.008928874 -0.06044068 0.038630664 -0.30031183 -0.3427568 -0.35441947 0.07658723 0.42149717 0.094789125 0.12622376 -0.22716753 -0.18047899 0.46394214 -0.12564763 -0.37921205 -0.09219303 -0.7505314 0.17817152 -0.5140196 -0.17839606 0.16034476 0.3248981 -0.20422736 -0.23669893 0.021357963 0.2308354 0.19253239 0.3708349 -0.34011117 -0.040534146 -0.17793259 -0.0812838 0.30266756 0.38230938 -0.07999757 -0.3796908 0.1192681 0.16891003 0.13629276 -0.09821931 -0.28548148 -0.53185153 0.42540634 -0.053808894 0.11784596 -0.47945768 0.6484812 -0.3084132 0.13506566 0.6135883 -0.21200144 0.5032125 0.36327985 -0.13855341 -0.08658411 -0.3432014 -0.0034860645 0.04328474 0.029913053 -0.20195799 0.509869 0.061494276 0.07012947 0.045585927 0.46731228 0.3746996 0.03796374 0.68217105 0.25942883 0.1827718 -0.1114441 0.4103518 0.3183547 0.1844313 -0.42277128 0.18103114 -0.29048946
use 0.05514528 0.14412774 0.25317183 -0.07930304 -0.012724615 -0.7140604 0.20223296 0.71890295 -0.2840432 -0.25682384 -0.109655224 -0.8877374 -0.20619008 0.19410253 0.046412285 -0.2128192 -0.11543652 -0.2958455 -0.017944032 -0.8269989 0.26163352 0.12521122 -0.06656426 -0.06968836 -0.12171491 0.050831016 -0.31776103 -0.3741789 -0.35102308 0.01764085 0.4795056 0.083231024 0.14591363 -0.22164641 -0.21603866 0.37685212 -0.114391916 -0.36579576 -0.19118237 -0.8388793 0.056905266 -0.37113923 -0.111606844 0.0773222 0.36038566 -0.19442114 -0.22851788 0.07846032 0.26101723 0.31795222 0.104748525 -0.3782303 -0.08114562 -0.16869105 -0.09733196 0.23028724 0.2517393 -0.03810833 -0.3948415 0.21685235 0.17750764 0.17235072 0.004198936 -0.2544805 -0.436575 0.36832848 -0.074753545 0.15211946 -0.3618018 0.48115617 -0.16158028 0.24910073 0.52907664 -0.2376868 0.45612964 0.27349192 -0.10339765 -0.14609191 -0.31149638 0.020896792 -0.113172516 0.015941441 -0.28562078 0.47441906 -0.0084641315 -0.059219547 0.15390076 0.5891585 0.36355987 0.039008964 0.60269314 0.31456295 0.091557376 0.021739116 0.4369591 0.3858516 0.14250945 -0.4462368 0.25487974 -0.23642331
can 0.03762638 0.22403175 0.28668433 -0.1091993 0.03903989 -0.7431083 0.20294675 0.746748 -0.29804835 -0.26970688 -0.08919839 -0.9022651 -0.17841716 0.19522895 0.13589993 -0.23820132 -0.13273364 -0.25029486 -0.015019148 -0.83099663 0.26168886 0.14068808 -0.05031591 -0.052018926 -0.12636055 0.07516434 -0.30673185 -0.4007795 -0.34249112 0.066738196 0.43842265 0.07961443 0.13836777 -0.23488548 -0.17787787 0.4206044 -0.10199001 -0.37642577 -0.16567674 -0.8025595 0.082566984 -0.41434067 -0.1333881 0.11605801 0.33663535 -0.19113491 -0.23434056 0.038160063 0.23690744 0.25690252 0.1827526 -0.3767746 -0.07847682 -0.1829262 -0.09087349 0.25550655 0.28385973 -0.038349222 -0.40208665 0.19642693 0.16736354 0.14328748 -0.021976758 -0.24740992 -0.44913355 0.40647247 -0.06719156 0.14018 -0.39035136 0.5138759 -0.18978381 0.21040663 0.54237324 -0.2228087 0.4768965 0.3279753 -0.078780286 -0.13237788 -0.32975984 0.021857401 -0.060065273 0.03609961 -0.25336668 0.47521842 -0.0038260925 -0.013459563 0.115358554 0.55486053 0.3667521 0.014756474 0.6700661 0.30855277 0.12340939 -0.0068178913 0.4144891 0.34714013 0.19111544 -0.4601146 0.22902803 -0.2686497
model 0.06728172 0.16749108 0.2589153 -0.09428243 0.0039886623 -0.72278833 0.19389144 0.72851676 -0.29698068 -0.24890262 -0.10306027 -0.8881143 -0.2035002 0.18790595 0.062245395 -0.2270356 -0.108725995 -0.29676756 -0.037720524 -0.84484035 0.25147107 0.10472381 -0.06339498 -0.06837997 -0.14886469 0.041900545 -0.31702265 -0.38713 -0.34037587 0.009103135 0.48387855 0.069401346 0.115270056 -0.21542506 -0.20367618 0.36457855 -0.1265429 -0.37743995 -0.1762273 -0.8599342 0.03704053 -0.38540664 -0.113741346 0.0854372 0.35960543 -0.18103233 -0.19390209 0.06476493 0.2453532 0.31463945 0.09182507 -0.3870444 -0.07926431 -0.15970102 -0.116810866 0.22670713 0.24142148 -0.022587731 -0.41732696 0.20094962 0.1875309 0.16805317 -0.009953212 -0.24790455 -0.4164979 0.3965323 -0.0533447 0.17559375 -0.36902937 0.49758717 -0.16719325 0.2491485 0.5312845 -0.2179068 0.45089436 0.30861807 -0.1344328 -0.12542485 -0.31423616 0.008000355 -0.12628092 0.018352607 -0.3006472 0.44429654 -0.010990561 -0.058877826 0.15189019 0.5866148 0.37012085 0.03755453 0.6351893 0.2939401 0.06922257 0.015853927 0.42978853 0.3910473 0.15202364 -0.46339253 0.24468338 -0.25880042
result 0.096880354 0.16139868 0.27029482 -0.088432066 -0.003960439 -0.6951938 0.22475573 0.74966943 -0.2637796 -0.2648583 -0.12336604 -0.9039456 -0.20301926 0.17758857 0.017317466 -0.23026748 -0.10527441 -0.26141593 -0.016015701 -0.8261535 0.26268625 0.1166378 -0.048671007 -0.08955305 -0.119875014 0.1089508 -0.31504577 -0.3758755 -0.38158727 0.050617404 0.41274238 0.072238594 0.17786753 -0.2941106 -0.21282807 0.3532572 -0.11560846 -0.3794277 -0.23016568 -0.818942 0.037788633 -0.3320965 -0.11206037 0.07916948 0.33277375 -0.2125917 -0.23030135 0.06283823 0.239026 0.31061184 0.12059753 -0.40271467 -0.09189794 -0.22491641 -0.06888603 0.23115069 0.25021473 -0.01818972 -0.40732926 0.26048237 0.15165734 0.12762062 0.037350956 -0.25675422 -0.45977405 0.36336154 -0.03374088 0.17848067 -0.4150532 0.4770726 -0.13046445 0.23277967 0.5388046 -0.23147233 0.48570287 0.25220892 -0.061143637 -0.15979916 -0.38235262 0.015455708 -0.1585769 0.06499529 -0.26541185 0.50682974 -0.04763208 -0.054584686 0.22757277 0.56751263 0.34488633 0.011088585 0.61942685 0.31216827 0.13156283 0.021577682 0.43677062 0.35876194 0.1498989 -0.46205655 0.242846 -0.22543633
show 0.049179256 0.23384756 0.22553265 -0.06296564 0.023008384 -0.7023086 0.20095685 0.69083166 -0.27750665 -0.23470761 -0.0971359 -0.82490116 -0.1854109 0.20049356 0.107096344 -0.19460773 -0.123109035 -0.23055911 -0.014005517 -0.76173073 0.27090344 0.13750662 -0.03024289 -0.053126037 -0.07708667 0.10407789 -0.28852308 -0.37848657 -0.34361 0.07217799 0.41495958 0.074092135 0.18728481 -0.2870643 -0.17258689 0.3672105 -0.11597476 -0.32380703 -0.1999403 -0.7624205 0.0733034 -0.38190103 -0.115139715 0.09951128 0.31017697 -0.22210784 -0.24107327 0.049943354 0.25652522 0.25068438 0.16772823 -0.36770877 -0.094893366 -0.18056951 -0.07009327 0.2588978 0.28023466 -0.045997147 -0.3799507 0.23342574 0.16915181 0.13603166 -0.021078702 -0.25212532 -0.4457737 0.36022392 -0.02603228 0.1653034 -0.39372197 0.49957106 -0.16060299 0.18249422 0.53313243 -0.20402066 0.48656225 0.24777612 -0.06698008 -0.10980613 -0.33781904 0.030598715 -0.09578202 0.039356723 -0.22739331 0.4634388 -0.014090617 -0.020242155 0.16511853 0.5173593 0.335099 -0.027664533 0.63556665 0.307561 0.1373749 -0.009724402 0.38437453 0.32070458 0.1387668 -0.42613378 0.18344477 -0.21773277
time 0.13149123 0.27602834 0.23822573 -0.13998462 0.08274853 -0.7235276 0.28004956 0.80121946 -0.23695496 -0.3209355 -0.058725197 -0.96373826 -0.23449996 0.13512357 0.11613204 -0.19632976 -0.10674096 -0.23272519 -0.049121983 -0.8469965 0.31657302 0.152078 -0.08505418 -0.07117267 -0.17751406 0.1264321 -0.3109161 -0.45647508 -0.32901943 0.060436606 0.4259083 0.036897838 0.16177008 -0.33021358 -0.20797275 0.36810878 -0.045496464 -0.32598823 -0.19986722 -0.7962226 0.06407999 -0.36290514 -0.101897135 0.11055393 0.34908944 -0.1784702 -0.27037916 0.041134648 0.2864408 0.28980914 0.14489755 -0.40052432 -0.04094168 -0.25308278 -0.07313282 0.21598187 0.3077926 0.014745378 -0.43480867 0.25423855 0.15917654 0.09957437 0.038210876 -0.2211721 -0.39637396 0.42337924 -0.06903418 0.14854273 -0.40090954 0.46221942 -0.16104515 0.1604757 0.57970154 -0.23591931 0.46481138 0.2411646 0.015356 -0.121026546 -0.3638071 0.031174194 -0.15222518 0.01710492 -0.25978762 0.3938198 0.014723693 -0.039018665 0.16898952 0.56023574 0.35221505 -0.068486184 0.7173318 0.34278387 0.1744541 0.035164014 0.46260822 0.2779281 0.1725021 -0.45571893 0.18535358 -0.23835473
from -0.009259482 0.20477135 0.30441865 -0.08413893 0.0328464 -0.7604949 0.17800675 0.7248447 -0.32733905 -0.23777126 -0.12326882 -0.93117476 -0.20268492 0.22508663 0.090256415 -0.27776983 -0.14774176 -0.2677625 0.007906118 -0.82127696 0.26291475 0.15240327 -0.04172279 -0.05023321 -0.113545954 0.054031502 -0.32159236 -0.3566758 -0.35110447 0.030930853 0.45206577 0.094649985 0.12469398 -0.21293414 -0.21499848 0.41838318 -0.13330607 -0.40986606 -0.17380299 -0.8207252 0.10388207 -0.44451988 -0.14208993 0.120575175 0.37060964 -0.18425044 -0.23321547 0.030726798 0.24929394 0.26749438 0.18700626 -0.389362 -0.057021648 -0.15550436 -0.124949135 0.27493697 0.3135683 -0.0554432 -0.395682 0.19936864 0.18570285 0.1739681 -0.042217538 -0.27219558 -0.45636708 0.41813108 -0.061701037 0.1825629 -0.38572404 0.5696514 -0.23703444 0.21886256 0.5767976 -0.25069687 0.5026779 0.3569227 -0.13857977 -0.13173397 -0.32731882 0.002060558 -0.07780443 0.015644843 -0.28529993 0.5035117 0.002930095 -0.01762135 0.13082357 0.5790473 0.38307133 0.05810094 0.6587253 0.3100012 0.09544518 -0.038801327 0.420231 0.4110246 0.19881117 -0.44514433 0.25385278 -0.24920699
optim 0.075672366 0.14380379 0.21529403 -0.13136101 0.0381885 -0.65334266 0.1943637 0.7511887 -0.25478792 -0.24223322 -0.11272871 -0.87294805 -0.20874096 0.1948354 0.09182053 -0.19064434 -0.15093042 -0.24544263 -0.092000455 -0.83531255 0.26751864 0.113711804 -0.09676505 -0.035522636 -0.12040924 0.07138289 -0.26007578 -0.45678338 -0.35614437 0.024097187 0.4646872 0.042047594 0.117334574 -0.27069768 -0.19016804 0.38174155 -0.07678555 -0.3387859 -0.17993215 -0.832229 0.028032428 -0.3620019 -0.11808938 0.09696452 0.34243783 -0.14747553 -0.23027265 0.058315184 0.28104943 0.33673286 0.043633062 -0.4069562 -0.05876119 -0.19178647 -0.08106963 0.23656978 0.19950013 -0.03263859 -0.42052948 0.219119 0.21815623 0.13877082 0.022007067 -0.18213141 -0.37303507 0.37110123 -0.0698348 0.17397954 -0.32290554 0.4803822 -0.08480738 0.236181 0.48877776 -0.23488836 0.40880877 0.26173112 -0.024241176 -0.1377698 -0.2909964 0.00686641 -0.1038657 -0.031431206 -0.33309457 0.38183784 -0.0131197525 -0.04528855 0.12292914 0.5419596 0.34601322 -0.022972591 0.6372164 0.34267 0.14712662 0.046782866 0.40996492 0.36729482 0.12391676 -0.44439995 0.19382377 -0.276576
two -0.017916387 0.26518875 0.27611682 -0.090681314 0.09695949 -0.7384007 0.20074545 0.69815713 -0.29719293 -0.23221329 -0.07856023 -0.839319 -0.1535336 0.22695915 0.17843671 -0.2538097 -0.13301884 -0.24103282 0.0059603434 -0.7785059 0.24835278 0.15058683 -0.0352083 -0.020143488 -0.08045272 0.044561315 -0.28954938 -0.34674487 -0.32143405 0.06663294 0.39762887 0.09185883 0.09553203 -0.23418407 -0.17095031 0.41827402 -0.11992033 -0.35045344 -0.11213157 -0.7401263 0.11316175 -0.44482008 -0.13064392 0.1328118 0.328423 -0.18471694 -0.21995552 0.026161997 0.2294726 0.22170614 0.2501859 -0.31233582 -0.048383467 -0.1718658 -0.06227801 0.25095505 0.30626416 -0.05253488 -0.38575593 0.16260076 0.16058387 0.11477712 -0.07612809 -0.24740322 -0.43214828 0.40125507 -0.042576756 0.14470205 -0.3844535 0.5371956 -0.21842545 0.15222819 0.55564845 -0.19758475 0.47597426 0.32468697 -0.114249535 -0.088792875 -0.30763912 0.019447997 -0.019001791 0.044469707 -0.23084877 0.44521183 0.04624933 0.028471155 0.095946245 0.49392563 0.37013328 0.01581349 0.6596592 0.27765864 0.14106502 -0.07149268 0.39507198 0.32578814 0.15932846 -0.42790294 0.21188784 -0.2746941
comput 0.101531506 0.12781052 0.23924196 -0.09626091 -0.003204301 -0.6978992 0.21271703 0.73015946 -0.27677202 -0.27079993 -0.12829956 -0.8712999 -0.2007949 0.17373736 0.05590787 -0.2278319 -0.10361759 -0.2626043 -0.018991861 -0.79630136 0.28865808 0.10800296 -0.07152462 -0.088494554 -0.13195498 0.08660225 -0.32437637 -0.37464008 -0.34147212 0.028631976 0.48823512 0.065688394 0.12893005 -0.23894522 -0.19264024 0.35535926 -0.11467485 -0.34167835 -0.2090489 -0.82706356 0.03910405 -0.36627355 -0.086704984 0.090027384 0.34190562 -0.16973938 -0.21963726 0.056746606 0.2729925 0.30015594 0.086153746 -0.39719653 -0.08237137 -0.20271552 -0.09378195 0.23885699 0.2209134 -0.022556065 -0.39597094 0.21859506 0.18094058 0.18149868 0.035398055 -0.22350474 -0.42694357 0.3863804 -0.0473146 0.19478059 -0.3647005 0.4720493 -0.12809898 0.22396576 0.52923864 -0.21012901 0.45022658 0.26806015 -0.0903204 -0.13170524 -0.336754 0.008551987 -0.15012227 0.005463102 -0.29339516 0.47403476 0.0005776017 -0.06247985 0.1832967 0.57801545 0.3334388 0.0027321198 0.63045883 0.29907766 0.10568549 0.038076114 0.42877048 0.38249853 0.15743485 -0.4492265 0.23920672 -0.23051432
general 0.04010215 0.20725584 0.25392908 -0.05877146 0.008202646 -0.6944949 0.21559323 0.7122461 -0.2826504 -0.235697 -0.09689118 -0.8498427 -0.16694032 0.20884722 0.08572172 -0.22596137 -0.11427744 -0.26452512 -0.021946073 -0.7930942 0.24519052 0.12707086 -0.060955394 -0.059521087 -0.09884275 0.07387483 -0.28833407 -0.38035443 -0.35010135 0.055003237 0.42106616 0.07542822 0.15068701 -0.2595329 -0.2050836 0.3878699 -0.12747894 -0.3680009 -0.17341104 -0.7994998 0.07109277 -0.3639248 -0.12389438 0.113156706 0.3391616 -0.19183302 -0.23288292 0.04506354 0.23983572 0.27625322 0.1381764 -0.36596406 -0.090247326 -0.18586273 -0.073163755 0.25845352 0.27574727 -0.032940846 -0.38243937 0.2118486 0.16390179 0.122082084 -0.022636063 -0.2626457 -0.45653132 0.3849313 -0.05813306 0.16252531 -0.3959238 0.5045039 -0.17469773 0.20782293 0.5376777 -0.23353301 0.46668363 0.28178328 -0.0850405 -0.12198842 -0.33749932 0.0052590333 -0.09271019 0.041127548 -0.24978784 0.47057286 -0.000653092 -0.033125285 0.15308048 0.5286953 0.35169768 -0.0007055812 0.62263995 0.29613608 0.11539374 0.008464556 0.3912948 0.34354073 0.13326867 -0.43907976 0.22672653 -0.23624887
bound 0.038619336 0.22507876 0.25950903 0.00070735713 0.07412228 -0.7304436 0.22839864 0.7559892 -0.27100757 -0.21632074 -0.08245756 -0.8573663 -0.13445011 0.23925605 0.12923771 -0.25124842 -0.20631409 -0.20755176 -0.03435611 -0.76777136 0.28244516 0.14256328 -0.05051504 -0.02115344 -0.08578703 0.01771019 -0.26318958 -0.36294785 -0.44721052 0.020967867 0.3918076 0.011776709 0.18823935 -0.31520656 -0.18912524 0.42173755 -0.08722784 -0.3399245 -0.20341857 -0.76072586 0.12726249 -0.42659777 -0.16705626 0.15655349 0.29719478 -0.2764159 -0.293033 0.03416077 0.29410958 0.31032518 0.26774386 -0.4517034 -0.021082375 -0.24895278 -0.055436954 0.31578898 0.34039167 -0.07869515 -0.43323275 0.18041992 0.1345295 0.15465651 0.0008939175 -0.3064786 -0.56067735 0.40332174 -0.03987167 0.10819098 -0.43351498 0.54431385 -0.15368725 0.190462 0.51360464 -0.2181966 0.516681 0.3249186 -0.041659348 -0.09254747 -0.37785977 -0.013757263 -0.096049234 0.09199486 -0.22834438 0.51436603 -0.08340769 0.032655295 0.15446691 0.500792 0.3491919 0.032447398 0.591771 0.2931075 0.18752846 0.018928975 0.45312998 0.29341155 0.10884899 -0.46 0.14745991 -0.28021267
studi 0.06467078 0.16312255 0.2566064 -0.061341085 -0.016046153 -0.6774065 0.18163277 0.69523907 -0.25837195 -0.2103754 -0.09190772 -0.8318067 -0.182791 0.19738191 0.04785263 -0.20747112 -0.08678769 -0.2806614 -0.013686895 -0.7668758 0.24028613 0.10576259 -0.05572024 -0.052153736 -0.092203 0.075285874 -0.29131627 -0.35746804 -0.32932213 0.034571163 0.46451792 0.065389216 0.17554642 -0.27455887 -0.18614852 0.32893735 -0.12719522 -0.3598597 -0.19262554 -0.7915177 0.056692526 -0.34761673 -0.10438373 0.08094666 0.3203749 -0.20318837 -0.20681934 0.05000247 0.21986863 0.29182088 0.11515706 -0.34890473 -0.10468729 -0.15165624 -0.08208581 0.21594836 0.2465557 -0.037606046 -0.39267725 0.2150385 0.14868294 0.15152304 -0.026457183 -0.23697037 -0.44131133 0.3607477 -0.023709318 0.18784294 -0.3784984 0.4951968 -0.1323045 0.2181256 0.5340101 -0.22957928 0.46487692 0.23798051 -0.087461345 -0.12196748 -0.31063876 0.030108973 -0.1226004 0.022757681 -0.25560567 0.45393443 -0.035585076 -0.03634231 0.17855018 0.53032225 0.3243841 0.028684236 0.6133288 0.27342024 0.11566393 0.0010557448 0.3661015 0.3710868 0.11791854 -0.3952303 0.22378965 -0.22896779
one -0.035803843 0.2677461 0.3118365 -0.075215355 0.09284855 -0.7992312 0.18485142 0.7306461 -0.32020983 -0.26246622 -0.113869436 -0.9016205 -0.17465143 0.23567802 0.19652556 -0.2599694 -0.17428996 -0.24710159 0.020747472 -0.7998957 0.25471434 0.1759342 -0.044687957 0.0021413297 -0.07309431 0.06864305 -0.32310498 -0.34252992 -0.33226228 0.0565607 0.4231658 0.11357246 0.10049969 -0.22928004 -0.1734057 0.4435962 -0.10463536 -0.38912067 -0.13643478 -0.763828 0.14245424 -0.4803328 -0.16204222 0.13215272 0.338514 -0.18135366 -0.21916504 0.031282287 0.22748823 0.22122112 0.29488638 -0.35802165 -0.062268186 -0.17023532 -0.090960555 0.30473816 0.33120644 -0.0723298 -0.40462658 0.14498441 0.14863129 0.15300503 -0.06984912 -0.26151448 -0.47485375 0.43979618 -0.06065487 0.15155073 -0.42696363 0.59575534 -0.2652534 0.17359507 0.5831497 -0.24345823 0.48376736 0.37183282 -0.14000541 -0.10227411 -0.3128323 0.038045224 -0.011960562 0.03420396 -0.23411088 0.4865793 0.045766663 0.034040857 0.09800635 0.53717065 0.3897893 0.03056965 0.6905327 0.28001848 0.12319198 -0.06954693 0.407415 0.3358179 0.19800901 -0.43256402 0.22597547 -0.25371122
have 0.0060484926 0.18452798 0.30447373 -0.08031965 0.02044069 -0.7781258 0.16364203 0.7533144 -0.28092182 -0.25731105 -0.11970534 -0.89171976 -0.21692665 0.2144836 0.12956509 -0.23353331 -0.12784342 -0.32253605 0.03428884 -0.83699155 0.25062928 0.16271342 -0.022416113 -0.06606374 -0.10350269 0.073502414 -0.34979823 -0.34100223 -0.3565057 0.05660293 0.50565517 0.07198205 0.12704939 -0.27969083 -0.19639681 0.39108497 -0.1362669 -0.39275143 -0.1784382 -0.8045611 0.14325969 -0.42640856 -0.12966591 0.0871834 0.37451977 -0.22642717 -0.2242741 0.04864298 0.24740234 0.30955458 0.22013405 -0.3800125 -0.053918228 -0.13951327 -0.11022189 0.28629538 0.32632408 -0.030798217 -0.42761967 0.19371104 0.14551872 0.18066774 -0.035524074 -0.24730733 -0.5077103 0.42705137 -0.031848963 0.1533881 -0.41196054 0.596225 -0.21749076 0.21314767 0.58063424 -0.2728206 0.51498395 0.32507443 -0.124060415 -0.115970984 -0.3218104 0.004810273 -0.062234323 0.024046281 -0.27138078 0.5305435 0.022498641 0.0032249105 0.13284168 0.6039782 0.3514969 0.07577265 0.65989953 0.27278897 0.12719186 -0.070739605 0.41153434 0.4187632 0.20982964 -0.44287264 0.26699337 -0.25957075
edg -0.15393414 0.36414555 0.34615478 -0.056626495 0.1661305 -0.8023182 0.15547726 0.6619789 -0.33110636 -0.22684172 -0.02646473 -0.77602464 -0.12911586 0.31904894 0.29378125 -0.25942162 -0.18230343 -0.16944876 -0.001093067 -0.7060235 0.20586897 0.21294701 0.006357554 0.04355017 -0.05890853 0.025246616 -0.26013976 -0.27321824 -0.31062156 0.13588093 0.38221896 0.138911 0.0826816 -0.18247339 -0.14815697 0.46368405 -0.10171397 -0.39069122 -0.027884688 -0.6335002 0.19167532 -0.5659317 -0.1819632 0.15149426 0.33453023 -0.16689709 -0.20077412 -0.023479309 0.21887265 0.115840495 0.47189474 -0.2685817 -0.0373745 -0.1588739 -0.067626916 0.30429298 0.39611873 -0.086738355 -0.35233036 0.085186176 0.17590055 0.122686125 -0.14568986 -0.27324915 -0.49261093 0.41976002 -0.028206721 0.08830673 -0.45690393 0.6962298 -0.34026742 0.057476163 0.59318286 -0.18209358 0.49523103 0.38484475 -0.15233736 -0.05014757 -0.28090665 -0.005227718 0.15604477 0.041830957 -0.19811144 0.5113532 0.12004106 0.11395087 -0.0225843 0.4127954 0.36684102 0.04756151 0.7066892 0.20499167 0.18718056 -0.14685157 0.34656012 0.23868206 0.21202248 -0.387418 0.16003191 -0.27366224
method 0.115588486 0.12318712 0.24761447 -0.10931183 -0.04371557 -0.6772008 0.20093681 0.7209307 -0.26167855 -0.25690347 -0.12708832 -0.867557 -0.1904299 0.16915594 -0.005257771 -0.20125109 -0.08616599 -0.27520025 -0.05139546 -0.8292393 0.26358816 0.097355306 -0.08681664 -0.10234444 -0.15622419 0.066556916 -0.3105988 -0.39854655 -0.34831277 0.015499906 0.45309928 0.06589646 0.13310148 -0.24535188 -0.21325713 0.36551014 -0.096724845 -0.35939598 -0.22359838 -0.8560678 0.019911751 -0.3299423 -0.08155966 0.0632115 0.351359 -0.19615963 -0.2174081 0.0747105 0.24100663 0.32390472 0.045074042 -0.40044266 -0.09718589 -0.2032262 -0.088012464 0.20582007 0.20397225 -0.028442206 -0.41669506 0.22145276 0.18327625 0.14100847 0.03665729 -0.2335124 -0.38599542 0.36562335 -0.051676013 0.1643253 -0.3591402 0.42889747 -0.12847717 0.24582021 0.49313194 -0.21431595 0.4345438 0.25449756 -0.09549616 -0.15010557 -0.32986838 0.023164768 -0.14598961 0.03485615 -0.29726067 0.4633003 -0.035459533 -0.07454059 0.21809223 0.59990066 0.3352478 0.033851385 0.57633567 0.30755836 0.08648245 0.03829858 0.42057756 0.36152706 0.117208615 -0.44459605 0.24490878 -0.22323161
tree -0.061880063 0.27323842 0.25759044 -0.02514252 0.1309824 -0.722483 0.20979038 0.67504793 -0.31986374 -0.17779025 -0.07816037 -0.7782074 -0.14255092 0.25016436 0.16612287 -0.23159103 -0.14989236 -0.2163159 -0.0022522174 -0.72762644 0.26590127 0.16238356 0.011648249 -0.02309133 -0.09018527 0.027925437 -0.28696746 -0.3104936 -0.35662585 0.11958415 0.3967599 0.091629006 0.13050464 -0.23711947 -0.1758695 0.4495916 -0.13758877 -0.34843725 -0.12540883 -0.69101435 0.16155209 -0.47157368 -0.14875562 0.14934886 0.30468467 -0.18262324 -0.21366203 -0.016472017 0.2567405 0.20496446 0.33841833 -0.33787125 -0.031101095 -0.17303589 -0.09048634 0.28413078 0.33772057 -0.082494706 -0.39027983 0.110115215 0.13987729 0.12629105 -0.07230565 -0.26548344 -0.5040426 0.3919956 -0.0039845267 0.12246019 -0.44993165 0.59671456 -0.2347622 0.12098046 0.55296314 -0.19778523 0.47376972 0.28558713 -0.095515974 -0.07547959 -0.32838014 0.0077481354 0.015635336 0.07180826 -0.20470013 0.49384898 0.028673664 0.018654285 0.05687852 0.4848532 0.3569438 0.012646832 0.66211635 0.24524331 0.17498975 -0.10334374 0.36719218 0.28113064 0.15447035 -0.3973276 0.18190047 -0.2586386
base 0.06316786 0.15902756 0.2521421 -0.09529999 0.01886499 -0.71267885 0.21791616 0.7278336 -0.2692359 -0.24494143 -0.07878201 -0.9184867 -0.2049226 0.20383744 0.05569347 -0.23001735 -0.1138058 -0.29419827 -0.05340814 -0.8275233 0.2479542 0.13865824 -0.071422316 -0.049225293 -0.1472744 0.03864691 -0.31196544 -0.4113873 -0.35993123 0.018453058 0.4821555 0.0626274 0.11568623 -0.24340852 -0.22589439 0.36157188 -0.11752872 -0.36102435 -0.17267832 -0.86875206 0.038329117 -0.3864107 -0.13084485 0.07762045 0.36572698 -0.19253027 -0.24137315 0.07193118 0.27143806 0.32811224 0.09284285 -0.4063152 -0.06006027 -0.19220455 -0.09327687 0.23856902 0.26362467 -0.036234364 -0.41175684 0.22344925 0.1831181 0.13441065 -0.0008406602 -0.24719988 -0.41971755 0.37695038 -0.086267285 0.15774143 -0.36363173 0.48981988 -0.16454342 0.24311619 0.5337076 -0.2429699 0.4363008 0.2812833 -0.11799992 -0.14756216 -0.3209912 -0.00031188506 -0.11786047 0.003813582 -0.2931619 0.45036486 0.006767981 -0.06114438 0.14266932 0.58802605 0.37877145 0.033453763 0.6345426 0.3138727 0.09635733 0.004008709 0.44085455 0.39478406 0.15551072 -0.45766228 0.2347452 -0.26719406
paper 0.11901286 0.16778012 0.21501239 -0.058444988 -0.024657924 -0.6879818 0.253982 0.7328766 -0.25699475 -0.22596726 -0.08447005 -0.8820464 -0.18652341 0.21107294 0.017865043 -0.1848513 -0.086080775 -0.27166334 -0.03646611 -0.810903 0.28080145 0.1011953 -0.054675538 -0.060255513 -0.101023674 0.06335689 -0.28407827 -0.38463876 -0.3642075 0.024535922 0.45731217 0.07092174 0.20140857 -0.31192002 -0.20723414 0.3498378 -0.08336695 -0.35358012 -0.23578148 -0.8235629 0.014015924 -0.30819502 -0.10346022 0.064986706 0.3589616 -0.21455084 -0.25649795 0.06665533 0.27034846 0.32270503 0.057858594 -0.3795107 -0.106656894 -0.17650871 -0.04994908 0.21283972 0.25436625 -0.027790682 -0.40886483 0.27506536 0.17802674 0.09728893 0.0072012926 -0.2608011 -0.47065815 0.3527309 -0.06671202 0.16885683 -0.37234056 0.48003054 -0.114367016 0.2114963 0.5532321 -0.21830651 0.48912513 0.2077315 -0.06982655 -0.14003861 -0.38499612 0.009626189 -0.13391858 0.04752504 -0.26801354 0.4619908 -0.06339003 -0.06722971 0.210895 0.5332562 0.34042808 -0.01248765 0.6113728 0.32451215 0.10663658 0.025368147 0.41198367 0.34624237 0.067968145 -0.47279024 0.24046686 -0.22711986
func -0.017719511 0.18976387 0.26523373 -0.09127121 0.06871232 -0.7176672 0.1790007 0.69773334 -0.32412773 -0.2043674 -0.10802996 -0.8715284 -0.16659024 0.22971885 0.12483279 -0.25815547 -0.12448598 -0.26455423 -0.013690182 -0.82178795 0.23464318 0.13215877 -0.034498274 -0.016736066 -0.07915147 0.06991855 -0.30422536 -0.34830743 -0.32859725 0.018642716 0.42696372 0.114124686 0.106655926 -0.22567946 -0.18395014 0.3786574 -0.10767983 -0.397233 -0.12868015 -0.7864317 0.07127201 -0.4299941 -0.11715135 0.11436052 0.32900316 -0.2024135 -0.22741225 0.07696206 0.2493839 0.2501401 0.18400474 -0.3517068 -0.08795779 -0.12241816 -0.09712542 0.24459171 0.30820328 -0.036608152 -0.36960906 0.17152019 0.17255688 0.12972286 -0.05069672 -0.25497457 -0.44221586 0.38877496 -0.08020667 0.12377294 -0.39851007 0.5365533 -0.21212974 0.22802451 0.5257672 -0.2588668 0.45877162 0.31230745 -0.106255695 -0.09624837 -0.32234183 0.028386481 -0.07662121 0.0155936275 -0.2644875 0.45605752 -0.011203114 -0.005870462 0.09426867 0.5546685 0.3681312 0.032844316 0.63617533 0.29986024 0.09787521 -0.023108369 0.41064957 0.37157533 0.1805511 -0.4639573 0.19604413 -0.26450673
also 0.08143562 0.19877373 0.2557844 -0.04502582 0.0035290446 -0.71359533 0.24408138 0.734052 -0.2717575 -0.24017999 -0.10348651 -0.8888327 -0.18284059 0.18880825 0.047444254 -0.23318453 -0.11752142 -0.2609092 -0.0072699636 -0.80851793 0.282451 0.11749924 -0.03939812 -0.072862335 -0.101484366 0.086982206 -0.29934332 -0.36430123 -0.38057923 0.033324793 0.4294267 0.07304244 0.1895622 -0.30576938 -0.18814594 0.3635522 -0.08784707 -0.3604195 -0.23178054 -0.7877578 0.055975568 -0.37736124 -0.11858184 0.09512307 0.3308156 -0.2260614 -0.23476915 0.0641189 0.2620535 0.2878033 0.14158882 -0.382891 -0.08166661 -0.18733372 -0.07502729 0.24690536 0.28905836 -0.048108276 -0.41468504 0.2558871 0.1708265 0.12072487 0.008780242 -0.26917577 -0.48633194 0.36852956 -0.057058327 0.17740422 -0.41758358 0.4881939 -0.14833719 0.20994954 0.5587441 -0.21957333 0.50716853 0.2563487 -0.07428262 -0.12226978 -0.36497945 0.0018268563 -0.122452214 0.053313985 -0.25201142 0.48658866 -0.042968832 -0.047502242 0.19621733 0.53347534 0.34767142 0.0010505862 0.61620414 0.30500042 0.13699053 0.014737783 0.43513882 0.35263243 0.11137159 -0.46225747 0.21581529 -0.23714393
order -0.033979923 0.24108893 0.32308766 -0.06596214 0.08800424 -0.80288494 0.18023196 0.72188187 -0.3181444 -0.23833713 -0.094151564 -0.9163366 -0.17553663 0.24966174 0.15216273 -0.27876636 -0.15455107 -0.25403732 0.024792565 -0.81313276 0.25778148 0.17059197 -0.023667067 -0.043926004 -0.067079954 0.05359298 -0.3275903 -0.35442585 -0.37496266 0.07507387 0.4396676 0.117172584 0.1261782 -0.24773954 -0.20343009 0.45766562 -0.13223319 -0.4160138 -0.13377166 -0.8130844 0.12631898 -0.48414165 -0.1417703 0.12805544 0.3690277 -0.18986014 -0.24438515 0.028656783 0.23814112 0.22822715 0.2823698 -0.35261592 -0.04900368 -0.17667721 -0.118662894 0.2973101 0.32450616 -0.049579833 -0.40516302 0.17721991 0.18595688 0.16677132 -0.06872437 -0.28482005 -0.48142967 0.41533127 -0.054851685 0.14618297 -0.42020324 0.61577046 -0.26818758 0.18730912 0.5795569 -0.23002066 0.5320582 0.351765 -0.1481919 -0.113711774 -0.31779355 0.027203102 -0.016929364 0.03585569 -0.25029495 0.4924524 0.01041817 0.008455548 0.09049297 0.5447431 0.39957368 0.05433113 0.70221895 0.29246476 0.1188608 -0.07018332 0.42156857 0.35370946 0.17619626 -0.45876294 0.22070509 -0.28723565
has -0.0057913815 0.18769902 0.30433783 -0.06877462 0.04433661 -0.7946441 0.14417869 0.76043385 -0.2649327 -0.2693806 -0.08763853 -0.8592891 -0.22671622 0.22307563 0.15051323 -0.21563491 -0.1445723 -0.33234683 0.04654714 -0.83314013 0.21259108 0.16978261 -0.0028344425 -0.055069085 -0.09359197 0.057742994 -0.3508899 -0.30567622 -0.3543632 0.08870089 0.5000577 0.05690205 0.14139901 -0.2776195 -0.18545844 0.40075034 -0.1575624 -0.40569887 -0.13572016 -0.77349854 0.16511297 -0.47722808 -0.15388608 0.089212194 0.38110724 -0.2365489 -0.202871 0.026396556 0.24089627 0.30818704 0.26351514 -0.3790836 -0.0389363 -0.12515591 -0.08773933 0.27538967 0.34660834 -0.039573446 -0.4315588 0.17740679 0.12270786 0.18397424 -0.032867976 -0.24267627 -0.52361804 0.43910646 -0.0063988077 0.16105473 -0.4417297 0.62441385 -0.23721775 0.18062991 0.6082618 -0.27146664 0.50060016 0.3337812 -0.14662835 -0.10877606 -0.3010374 -0.021306103 -0.010305323 0.011845825 -0.27855173 0.55317235 0.06428573 0.027617142 0.1147619 0.5900194 0.35730922 0.09745546 0.6551594 0.2551651 0.14734624 -0.0963587 0.41043815 0.41332906 0.23902744 -0.4198264 0.28036818 -0.2784957
class 0.0056353724 0.23448384 0.2542759 -0.03204641 0.07385555 -0.71303743 0.21918182 0.68979734 -0.31062663 -0.20981993 -0.08435661 -0.8038435 -0.17608602 0.24322611 0.1227742 -0.2210059 -0.14338356 -0.22942524 0.0018284352 -0.72540987 0.21517514 0.14609882 -0.011788961 -0.020758128 -0.05373485 0.043067817 -0.25102732 -0.32922354 -0.34669662 0.072770745 0.40995947 0.054766007 0.135444 -0.2690891 -0.16830894 0.39572123 -0.12659858 -0.3426415 -0.12173357 -0.7143584 0.08944832 -0.40896553 -0.15580505 0.13271919 0.32532734 -0.18019098 -0.22444674 0.029961653 0.21237966 0.22286615 0.22238134 -0.31931913 -0.06738995 -0.16495237 -0.080248736 0.24642414 0.28701904 -0.07159552 -0.36246648 0.18050238 0.13638672 0.12530646 -0.04583388 -0.24369486 -0.46068114 0.36524063 -0.036605075 0.13405451 -0.40515327 0.54001456 -0.20348664 0.16010088 0.5212581 -0.2095767 0.5025876 0.2790357 -0.123596944 -0.10416138 -0.29709467 0.001965094 -0.029801372 0.035657663 -0.1986106 0.4355593 0.014763369 0.0087695485 0.111965835 0.47703493 0.36038625 0.020862479 0.6042436 0.2537218 0.15548313 -0.05039527 0.3600744 0.30799276 0.12994261 -0.41436556 0.2184756 -0.252705
solut 0.0593366 0.14939284 0.21890377 -0.13225058 0.01405969 -0.6805581 0.17825843 0.7427616 -0.2511588 -0.24423936 -0.11401092 -0.86814684 -0.17789713 0.1929802 0.10314065 -0.23236953 -0.14451331 -0.24060199 -0.074838206 -0.79788506 0.28387678 0.11475708 -0.09618287 -0.045696504 -0.13129549 0.05019431 -0.2672836 -0.42768952 -0.35799965 0.0189415 0.446177 0.058202557 0.12856779 -0.24636146 -0.20011884 0.39047655 -0.09814703 -0.36363754 -0.18594971 -0.806226 0.05530929 -0.34777635 -0.07787247 0.073071554 0.3412269 -0.14923725 -0.20598045 0.06296142 0.25608313 0.3086254 0.07440667 -0.4040663 -0.060326416 -0.2000048 -0.06913901 0.24166423 0.23726362 -0.020156918 -0.38570988 0.18086106 0.20146455 0.13992564 0.021113945 -0.21101946 -0.4017265 0.3812672 -0.06614928 0.16068476 -0.3572857 0.4754596 -0.09828154 0.22338201 0.50203866 -0.22142905 0.42707264 0.30611053 -0.058333643 -0.12955894 -0.32750362 0.0352418 -0.11044175 -0.0019572938 -0.30867657 0.44559968 0.0052871075 -0.038713694 0.15460737 0.5593468 0.3479037 0.013349603 0.61251676 0.31802455 0.123570696 0.022270583 0.41327634 0.36849347 0.12699772 -0.44432124 0.21452564 -0.24931994
provid 0.106121026 0.1686459 0.24987993 -0.07696992 -0.025557283 -0.72399634 0.23820116 0.74662256 -0.2716593 -0.26786166 -0.09446044 -0.8950491 -0.20511086 0.1932228 0.04189556 -0.21069838 -0.13886712 -0.26890597 -0.026687302 -0.8234221 0.29626527 0.12634002 -0.04979925 -0.08517047 -0.12165177 0.07869832 -0.29225463 -0.38841736 -0.37712547 0.03450009 0.45164996 0.06983445 0.18955559 -0.29950628 -0.18285432 0.35916892 -0.10911293 -0.36866376 -0.24033783 -0.85435814 0.035635047 -0.36148748 -0.11836227 0.08687448 0.36036944 -0.23249151 -0.24776132 0.077258624 0.29144827 0.3123641 0.114262216 -0.39611703 -0.09248679 -0.22919635 -0.061599165 0.25414857 0.26533547 -0.021484256 -0.4198368 0.24992265 0.15830398 0.1496896 0.009626558 -0.27737597 -0.47997594 0.3888906 -0.06640639 0.17722969 -0.4027616 0.4806076 -0.14494339 0.22725454 0.56485 -0.22120102 0.4753216 0.2552886 -0.045041516 -0.162371 -0.3814969 0.0348 -0.16273849 0.04439071 -0.2746024 0.48659083 -0.04500593 -0.058368992 0.19769552 0.567358 0.36246556 0.0146306 0.6364649 0.32525194 0.12554342 0.03688105 0.43392724 0.36894453 0.13432981 -0.45934364 0.22258304 -0.24826692
propos 0.13440612 0.13777277 0.21557626 -0.09477132 -0.05030897 -0.6885037 0.24381652 0.7482918 -0.22861551 -0.24549699 -0.08678937 -0.9041421 -0.21170935 0.17887777 0.007037405 -0.17312557 -0.095845245 -0.2804448 -0.053895466 -0.83059984 0.27566975 0.098332636 -0.100602955 -0.07771464 -0.1516596 0.08370052 -0.29100963 -0.41615197 -0.36516118 0.013528299 0.46298683 0.065707274 0.20336312 -0.2910155 -0.2154832 0.35050288 -0.086871244 -0.336364 -0.26536405 -0.86088115 0.011088449 -0.31377387 -0.08126103 0.06822727 0.37262297 -0.24076998 -0.23026864 0.09806076 0.28001523 0.3442771 0.03032862 -0.39659154 -0.09436532 -0.20841053 -0.066377096 0.205151 0.23080987 -0.02585717 -0.39499184 0.25610125 0.17040613 0.11800567 0.023918837 -0.2503353 -0.43300998 0.35112685 -0.063004635 0.20515354 -0.36622062 0.43896958 -0.09073314 0.24427262 0.536328 -0.20042266 0.4587254 0.22501338 -0.048681784 -0.16485041 -0.3496693 0.02657174 -0.17715064 0.026820166 -0.29214332 0.44541883 -0.026591448 -0.08018965 0.22041681 0.5890481 0.3464281 0.021234153 0.6022932 0.3247256 0.10863273 0.05538842 0.4427511 0.38501522 0.1174151 -0.43837574 0.24905775 -0.24186407
all -0.038952433 0.25427657 0.30621114 -0.08020428 0.095388025 -0.7673552 0.19717366 0.7083712 -0.3161071 -0.23152624 -0.08719524 -0.85692745 -0.17458874 0.23951925 0.18662602 -0.25585946 -0.15666083 -0.21704617 -0.0012872359 -0.77919257 0.24369465 0.18038148 -0.015745047 -0.02739391 -0.07335355 0.06903447 -0.30362546 -0.35049766 -0.36500672 0.08556495 0.4013108 0.10190978 0.13438511 -0.25510788 -0.19222003 0.43615004 -0.12835395 -0.38807645 -0.15051082 -0.74106824 0.13294442 -0.45360646 -0.15515207 0.1489062 0.34883088 -0.19509426 -0.21492487 0.010445681 0.22819203 0.22908016 0.28747615 -0.35079405 -0.049503583 -0.16742371 -0.10243347 0.27147546 0.31510952 -0.06554511 -0.39223945 0.14653713 0.1710253 0.13637787 -0.06740274 -0.26225778 -0.48621824 0.41427648 -0.049318094 0.14905071 -0.43335372 0.5979897 -0.2554545 0.1685532 0.57908785 -0.22809981 0.4938251 0.34267315 -0.12627894 -0.08398817 -0.33833337 0.02227491 0.005090253 0.036459412 -0.25744885 0.49129343 0.04208669 0.030729521 0.09742199 0.5125681 0.35102552 0.0133398445 0.67056966 0.28420505 0.15276566 -0.07369056 0.41051093 0.32669824 0.18999085 -0.42180374 0.1890113 -0.26286682
complex 0.030731276 0.17238103 0.26502508 -0.071156375 0.010040593 -0.70145327 0.19380105 0.72001666 -0.29043326 -0.250044 -0.1336942 -0.8907737 -0.20127538 0.19412762 0.047937658 -0.25734618 -0.1297038 -0.25287956 -0.0015003212 -0.7985115 0.28474984 0.116564326 -0.03843881 -0.069166906 -0.107768945 0.077855825 -0.3092081 -0.38893256 -0.34701294 0.04930243 0.458374 0.08951468 0.14148507 -0.23092476 -0.1841789 0.38378954 -0.12916385 -0.35252002 -0.17960025 -0.8180641 0.068882674 -0.38805786 -0.11032781 0.089438915 0.34180355 -0.17602408 -0.2049399 0.038245883 0.2589062 0.27846578 0.15539025 -0.3721512 -0.07266956 -0.19164571 -0.11741846 0.24866754 0.25753605 -0.036102757 -0.42505807 0.20872007 0.17168863 0.16711064 -0.005696823 -0.2631364 -0.4562469 0.380363 -0.04754412 0.18288164 -0.39292565 0.52457917 -0.16967277 0.21588019 0.5362846 -0.2268913 0.45837495 0.31098273 -0.10415068 -0.12630811 -0.31889582 0.027628243 -0.11345814 0.0056141154 -0.2577696 0.46883255 -0.0036994128 -0.048539422 0.17547925 0.56586236 0.35617632 0.023363817 0.62878394 0.28474957 0.09700838 0.007849746 0.40984386 0.3912251 0.16263628 -0.4693979 0.2302282 -0.22545066
between -0.055454656 0.2927445 0.31076092 -0.11224918 0.084786415 -0.85359657 0.19725028 0.77461606 -0.37460124 -0.25230852 -0.084839284 -0.99945235 -0.19781096 0.26779237 0.18397762 -0.3264895 -0.14690365 -0.29452622 0.010051635 -0.8594302 0.29266638 0.19595252 0.00016833039 -0.01509754 -0.10043381 0.065540664 -0.35679248 -0.39709705 -0.36963373 0.051072285 0.47644338 0.11320131 0.1314233 -0.23713025 -0.21318235 0.4687537 -0.14921732 -0.42644444 -0.15658502 -0.89465964 0.11671145 -0.5229575 -0.14815137 0.14617959 0.37084547 -0.21594898 -0.22826916 0.01929331 0.2615272 0.25771156 0.29190636 -0.38035506 -0.05766365 -0.15175247 -0.092213884 0.28910077 0.36066326 -0.09411551 -0.44320205 0.15954822 0.20657016 0.17746648 -0.09792547 -0.29848006 -0.53512186 0.4652092 -0.064535186 0.15819003 -0.4697948 0.66541284 -0.2744564 0.19097343 0.66162413 -0.25891897 0.54243755 0.40505525 -0.17282791 -0.106246576 -0.37315157 -0.0026736038 -0.022116005 0.017711112 -0.28083143 0.5403726 0.04495138 0.020625055 0.0869609 0.5882916 0.409209 0.04693699 0.7443209 0.30945638 0.13422024 -0.09194569 0.460682 0.40453604 0.17946242 -0.48330918 0.24690585 -0.3188214
prove 0.03771387 0.21758959 0.22840852 -0.05211588 0.029865433 -0.7067735 0.1986748 0.68809164 -0.2663246 -0.21441187 -0.093059435 -0.81529117 -0.17370288 0.22651337 0.10347682 -0.21337716 -0.15673171 -0.2407651 -0.00013193313 -0.73859173 0.26363462 0.13383427 -0.023345944 -0.059319656 -0.054955434 0.082961276 -0.26374605 -0.3409038 -0.37147066 0.06156654 0.39801595 0.06728655 0.17329745 -0.29330936 -0.17573567 0.37351903 -0.10519774 -0.33889207 -0.19705123 -0.73973626 0.084049545 -0.37411785 -0.1360449 0.095403135 0.30557662 -0.23658125 -0.25235212 0.049857218 0.25254124 0.24926366 0.19883066 -0.3685146 -0.075905025 -0.18631257 -0.046310827 0.28040296 0.28427386 -0.042407807 -0.38640168 0.21189035 0.14385188 0.111781254 -0.04448085 -0.27476257 -0.48287153 0.3617465 -0.044897795 0.15593664 -0.41799653 0.52968127 -0.1715761 0.18874553 0.5570259 -0.20899475 0.48263416 0.23629181 -0.07432671 -0.11979174 -0.34782556 0.024055297 -0.08691465 0.067030616 -0.23591708 0.48730084 -0.01182542 -0.012346884 0.15299147 0.49523667 0.33206156 -0.014068389 0.6248388 0.2953805 0.1530419 -0.023219762 0.38824284 0.33431777 0.11378138 -0.43686256 0.174575 -0.24260096
vertic -0.14630823 0.3409206 0.3020967 -0.064429164 0.19001482 -0.71696776 0.12954342 0.59608483 -0.29931206 -0.18833576 -0.0399814 -0.7160245 -0.10260019 0.28684106 0.27845916 -0.26872241 -0.1617968 -0.16425897 0.01243562 -0.6494529 0.18870358 0.19654976 0.012579642 0.032893937 -0.010793716 0.014861461 -0.2328876 -0.25016168 -0.3053747 0.10606327 0.32577762 0.11216624 0.06473233 -0.19802149 -0.1473406 0.43588915 -0.11195892 -0.33198768 -0.041502487 -0.58468074 0.1806568 -0.49868107 -0.1648109 0.14559546 0.27225307 -0.15921074 -0.17418094 -0.027699552 0.1817763 0.13868515 0.41789243 -0.2406806 -0.0341919 -0.12781443 -0.07671145 0.261074 0.3536784 -0.103803806 -0.3393674 0.07145257 0.16524357 0.10673475 -0.13436396 -0.241584 -0.4483127 0.37297174 -0.022640048 0.08909635 -0.4077045 0.63776165 -0.2835878 0.062005118 0.52956975 -0.16605471 0.4494932 0.34500268 -0.1523808 -0.035719384 -0.26052833 -0.0074536237 0.1439534 0.049238294 -0.20083031 0.4320407 0.10387341 0.1073654 -0.024620734 0.39526275 0.31645414 0.045099955 0.6446704 0.20031624 0.17656814 -0.14633696 0.3043583 0.23667064 0.17694661 -0.35541978 0.14336137 -0.26874852
new 0.09854432 0.1412432 0.21530807 -0.077226385 -0.0050716144 -0.6929564 0.24265426 0.7259461 -0.2430654 -0.22342953 -0.0641566 -0.85445225 -0.20235696 0.18000592 0.016310992 -0.19422978 -0.10600007 -0.25976592 -0.053561118 -0.7948248 0.2530917 0.09250616 -0.05204697 -0.07758075 -0.10828809 0.051702585 -0.26785254 -0.3885176 -0.36482522 0.0031536247 0.44833103 0.043126896 0.17815615 -0.28118768 -0.18700482 0.34227476 -0.096985705 -0.3662485 -0.21198976 -0.8250966 0.037034206 -0.3295561 -0.101579025 0.0739424 0.3416872 -0.2169394 -0.25327685 0.09469865 0.27080384 0.3343891 0.07238821 -0.37716126 -0.0762403 -0.1759014 -0.072588645 0.23759432 0.26004902 -0.030284787 -0.38946542 0.2551404 0.17600743 0.109883584 0.018968266 -0.25126427 -0.4351278 0.36291453 -0.07034406 0.16217944 -0.39177737 0.4616305 -0.13229634 0.23206532 0.52054304 -0.21858202 0.46426773 0.223799 -0.06556964 -0.14442055 -0.3553056 -0.008446821 -0.14720768 0.062730655 -0.26296046 0.45548898 -0.05673848 -0.053597383 0.19902773 0.5319671 0.33243072 0.0027993629 0.5825615 0.30236673 0.10447002 0.04087429 0.41593844 0.3374378 0.08218157 -0.4601389 0.21189003 -0.25250795
present 0.11109527 0.16152024 0.20183642 -0.085211486 -0.009828744 -0.69910204 0.23163074 0.7557076 -0.24096632 -0.24712504 -0.06194823 -0.8892165 -0.19823943 0.21586314 0.04189624 -0.16988458 -0.11228042 -0.2575965 -0.036139734 -0.82049763 0.2548301 0.10126886 -0.08355991 -0.073295 -0.1132712 0.07844037 -0.27695808 -0.40991628 -0.34669533 0.025133746 0.4332671 0.06658422 0.21106087 -0.3070377 -0.20026341 0.34155148 -0.09399456 -0.35929117 -0.23342186 -0.83133405 0.025701772 -0.31873047 -0.12339764 0.08460101 0.34581864 -0.24960716 -0.2524759 0.09390981 0.25897264 0.30002642 0.07848487 -0.37447947 -0.08759146 -0.18613772 -0.033901017 0.23700336 0.26421478 -0.029901268 -0.38163468 0.27169025 0.16131376 0.09620586 0.009179718 -0.2511034 -0.4614417 0.3581602 -0.061480857 0.18073188 -0.36977476 0.44655895 -0.11152997 0.20142971 0.5471226 -0.20530753 0.46786165 0.206608 -0.032907527 -0.15237525 -0.38119426 0.02842211 -0.15142208 0.071069166 -0.25732023 0.4420705 -0.03205472 -0.03038028 0.20095551 0.54782003 0.35599118 0.0024370009 0.63892806 0.33109233 0.109413475 0.050787278 0.42797312 0.3602254 0.09354534 -0.4502924 0.22536263 -0.23570573
structur 0.0012200283 0.18900754 0.2723846 -0.04302822 0.03143069 -0.68563414 0.19986334 0.6581973 -0.29003906 -0.22191685 -0.09666 -0.8344602 -0.16623746 0.18925978 0.058884263 -0.2265452 -0.11111249 -0.24912322 0.009737621 -0.74064785 0.22914618 0.14310943 -0.037391268 -0.058330603 -0.079121724 0.055669356 -0.28587204 -0.33203027 -0.33995908 0.026541146 0.4134723 0.08940368 0.116171256 -0.21361597 -0.19822928 0.3782453 -0.13746923 -0.36729184 -0.14222717 -0.775016 0.08031494 -0.39270037 -0.13678922 0.08560783 0.34560868 -0.18300325 -0.20576827 0.023617856 0.22477295 0.2481336 0.16843256 -0.3472518 -0.089108735 -0.15397587 -0.11782596 0.23311268 0.27064693 -0.06857865 -0.36005837 0.17886592 0.16874106 0.16503243 -0.013997206 -0.2641673 -0.45555833 0.37313625 -0.065575376 0.16458806 -0.35644034 0.5045484 -0.18384986 0.20460024 0.5305935 -0.21445669 0.47792104 0.2936381 -0.14428055 -0.13073224 -0.3122557 0.017468804 -0.059145834 0.019261984 -0.24309437 0.4644516 -0.009795673 -0.050496727 0.13760823 0.5227133 0.33414313 0.022691347 0.6021126 0.28543445 0.098676376 -0.013516733 0.40537328 0.37004524 0.14455335 -0.40202478 0.21248907 -0.2445006
connect -0.04378935 0.29689088 0.2778359 -0.06321977 0.138922 -0.7029772 0.15667768 0.64282066 -0.28614375 -0.1963003 -0.045754645 -0.73125625 -0.11747879 0.269236 0.21172063 -0.24154699 -0.14003715 -0.17877874 0.010533362 -0.64536476 0.23036446 0.17925541 0.0044770865 0.015661594 -0.050304435 0.027796587 -0.25183356 -0.26872724 -0.31306016 0.109861374 0.35399663 0.075726874 0.12059436 -0.22085887 -0.14897697 0.42018262 -0.10020215 -0.33758673 -0.11351087 -0.6165878 0.12590773 -0.44339308 -0.14767295 0.13101086 0.28777733 -0.14958762 -0.20643575 0.0075793206 0.19287178 0.15681615 0.3260172 -0.30708644 -0.058246873 -0.16907302 -0.062166527 0.2474174 0.3191234 -0.075796954 -0.3400521 0.116613954 0.15375137 0.10829597 -0.084907405 -0.24135485 -0.44867373 0.36253917 -0.0047236593 0.12218002 -0.40669563 0.58578426 -0.24304244 0.10082185 0.52820075 -0.18888354 0.46476236 0.30147105 -0.12025249 -0.08148026 -0.29344484 0.008367797 0.032936182 0.041675206 -0.20472138 0.45974436 0.05478267 0.054567706 0.045802653 0.41038394 0.3259045 0.0215325 0.6244743 0.22682361 0.15507224 -0.09196602 0.3288031 0.24621913 0.1524882 -0.36754555 0.15389153 -0.25517842
linear 0.06867618 0.24156578 0.121942386 -0.13020973 0.06718748 -0.6437728 0.20304029 0.80799186 -0.27623722 -0.17643566 -0.033481974 -0.91315794 -0.17383054 0.20743231 0.18828174 -0.18333831 -0.13253224 -0.28809395 -0.06442135 -0.92662185 0.16203523 0.08706555 -0.14871976 -0.006701144 -0.1092996 0.028152961 -0.2816451 -0.5604524 -0.34735814 -0.044315062 0.5281025 0.010844471 0.09182382 -0.31835756 -0.23002072 0.33241835 -0.071276374 -0.3883851 -0.055414982 -0.9489173 -0.02566162 -0.33172083 -0.18851912 0.08135362 0.3101675 -0.20528246 -0.24492146 0.085010014 0.3184228 0.3318144 -0.009548842 -0.39743602 -0.077827014 -0.12228193 0.021421898 0.24445574 0.2143379 0.05244765 -0.42791483 0.24640305 0.22916263 0.083649665 -0.062409032 -0.15631828 -0.2711012 0.39054567 -0.111781955 0.030810734 -0.33062991 0.41541183 -0.12244556 0.21638036 0.48839223 -0.28578028 0.41762036 0.27230045 -0.029518448 -0.10386452 -0.28921732 0.02113586 -0.15948807 0.015439046 -0.34534428 0.324219 -0.053375207 -0.045439307 0.0556873 0.6013816 0.42823207 -0.026081355 0.6866797 0.3577499 0.09654258 0.01863424 0.43343362 0.34262508 0.15270863 -0.5027612 0.2238618 -0.34993875
data 0.0142587 0.17159404 0.3181872 -0.13094065 0.019781359 -0.7785009 0.19035225 0.7349491 -0.34093678 -0.24827465 -0.17147233 -0.98677266 -0.21407291 0.183833 0.04488078 -0.28404164 -0.1125254 -0.3143373 0.018723892 -0.8855893 0.30077025 0.13502419 -0.030796258 -0.08390973 -0.12965779 0.045879886 -0.35818297 -0.41481704 -0.36963075 0.013954244 0.5032431 0.14367719 0.120791815 -0.19552952 -0.24377063 0.42956978 -0.1870026 -0.4273351 -0.19852152 -0.9308544 0.084730186 -0.44756326 -0.101049095 0.106012195 0.38595513 -0.19363183 -0.22891755 0.03797166 0.23298477 0.3089123 0.17160836 -0.41130087 -0.10096253 -0.178329 -0.15109682 0.24339624 0.31095886 -0.03981927 -0.4512156 0.18883567 0.2141659 0.21107747 -0.027842887 -0.29788184 -0.457006 0.45764977 -0.071806334 0.1773634 -0.4030823 0.5380285 -0.24567679 0.27631146 0.5873013 -0.24204393 0.5182942 0.33324936 -0.14627908 -0.16552481 -0.35259396 0.033796605 -0.11543494 0.0014411749 -0.3200133 0.52521557 -0.0026781738 -0.074296474 0.1964107 0.66206354 0.38055804 0.06777883 0.65322703 0.33477312 0.065916486 0.0029235256 0.47502166 0.45929036 0.19669367 -0.48584503 0.28733882 -0.26531592
approach 0.0925623 0.138446 0.2654935 -0.10504603 -0.028104573 -0.7140847 0.20233302 0.73286766 -0.27747566 -0.25752652 -0.11883457 -0.90222317 -0.19010685 0.1924028 0.029123519 -0.20694898 -0.10943626 -0.28957742 -0.04900576 -0.8567084 0.27995536 0.09560662 -0.06707259 -0.08978186 -0.1609314 0.06706317 -0.3235042 -0.39532143 -0.37397474 4.7965834e-05 0.4888186 0.07594187 0.15324846 -0.24311146 -0.22592787 0.36387223 -0.10987753 -0.3631827 -0.22778064 -0.87328744 0.045971144 -0.3523501 -0.10852505 0.07104546 0.36880103 -0.19480263 -0.21126297 0.088801414 0.2418852 0.34424427 0.07076563 -0.40684476 -0.09817635 -0.20403528 -0.084222816 0.23095486 0.22824615 -0.02037494 -0.43041867 0.20880361 0.18802449 0.15185729 0.028477594 -0.24214919 -0.4190089 0.36639813 -0.055425823 0.17471705 -0.37013572 0.49072292 -0.14753982 0.24888572 0.5327548 -0.2165612 0.45401067 0.28874457 -0.10130165 -0.16834022 -0.34961316 0.007978876 -0.13715616 0.022353085 -0.3028293 0.486879 -0.03712168 -0.065287 0.20998906 0.5963118 0.3543466 0.026459211 0.62423337 0.30561104 0.08138013 0.048467834 0.4269062 0.39601308 0.12368339 -0.462871 0.24812901 -0.2597997
it -0.07110439 0.2704178 0.32808676 -0.08082073 0.091991514 -0.7952091 0.16354603 0.72920394 -0.32756507 -0.2414628 -0.0964996 -0.879615 -0.18298492 0.2597497 0.19537078 -0.28679222 -0.167191 -0.25760177 0.002339713 -0.7914438 0.2552411 0.18085448 -0.0019558806 -0.025862947 -0.077048495 0.04569208 -0.32040522 -0.34794512 -0.34568045 0.07533447 0.4228584 0.1221895 0.09317863 -0.22457966 -0.18661511 0.43140236 -0.14648563 -0.40753603 -0.12458652 -0.7684834 0.13766323 -0.5020029 -0.16037233 0.13623063 0.36994243 -0.17456473 -0.21731812 0.008934245 0.23472445 0.23492283 0.3256292 -0.34892353 -0.055776395 -0.16561829 -0.10846235 0.27755806 0.3330922 -0.087783754 -0.40440482 0.14455737 0.18073483 0.15749703 -0.079470724 -0.27931273 -0.483186 0.43642798 -0.03709436 0.15850048 -0.4242101 0.6390608 -0.2707168 0.14984807 0.5839209 -0.23525336 0.4830495 0.37562212 -0.15085039 -0.09561795 -0.30658013 0.00720726 0.022212798 0.027298642 -0.27145103 0.50472087 0.06954194 0.026223581 0.08125554 0.5349915 0.35877416 0.054165784 0.6951361 0.25743017 0.13217108 -0.09575612 0.41660056 0.36745152 0.20069562 -0.4330512 0.19821462 -0.27861357
introduc 0.08208963 0.15633741 0.2273828 -0.06941153 -0.026367359 -0.75191295 0.23795074 0.7590662 -0.28654948 -0.20874435 -0.064575285 -0.89937824 -0.20462772 0.24250545 0.034560785 -0.21431294 -0.10943055 -0.29642305 -0.043953054 -0.83008206 0.2789586 0.10776251 -0.06769495 -0.046858095 -0.1076354 0.05139855 -0.28717658 -0.39182582 -0.3679737 0.026933277 0.50258446 0.09982711 0.20370269 -0.2900724 -0.20183322 0.36384737 -0.11556981 -0.36827344 -0.20416616 -0.8920562 0.06118071 -0.3753563 -0.121362135 0.10087774 0.36048907 -0.25047067 -0.2396425 0.09110823 0.28049284 0.30969653 0.09385606 -0.39776543 -0.08763265 -0.18423907 -0.05931095 0.2436497 0.2832975 -0.02558445 -0.38999134 0.2554125 0.18912245 0.11790239 0.00035985868 -0.28891018 -0.4992609 0.36806035 -0.056634843 0.19507888 -0.41042882 0.5111293 -0.1643461 0.22877862 0.5780693 -0.22028485 0.49751177 0.25206774 -0.0996118 -0.14905629 -0.37010568 0.024122696 -0.11856654 0.056880362 -0.28478518 0.47087076 -0.046305545 -0.05473979 0.18906748 0.5644219 0.38067368 0.047673486 0.6563558 0.32126585 0.12850766 0.026153978 0.42844847 0.3875112 0.12023313 -0.4434166 0.26395294 -0.26194996
given -0.049750656 0.27437058 0.2649769 -0.088521935 0.13145596 -0.69385505 0.15000474 0.66634715 -0.3067853 -0.2064098 -0.061325703 -0.7762406 -0.15279499 0.24973573 0.21114902 -0.23875043 -0.15829921 -0.19032313 -0.025064174 -0.72217566 0.22915417 0.15373923 -0.02428154 0.00068592356 -0.059822313 0.027921384 -0.27102095 -0.35012653 -0.30840296 0.08387528 0.37242433 0.077839404 0.09591588 -0.23104237 -0.16191049 0.42319727 -0.12242644 -0.33798403 -0.0830112 -0.69189847 0.12396151 -0.4521554 -0.14180027 0.13474253 0.3085918 -0.1739631 -0.20042656 0.0023752695 0.21344796 0.204674 0.2719235 -0.3172706 -0.05552679 -0.12732396 -0.09068843 0.25723216 0.31907088 -0.051050786 -0.34984803 0.12503205 0.18020101 0.13481978 -0.09075796 -0.22788917 -0.42812657 0.39780363 -0.02822874 0.12305152 -0.37216845 0.5670073 -0.24453422 0.13018438 0.52114516 -0.21493864 0.44091293 0.31269413 -0.1185133 -0.06507937 -0.27557614 0.013802419 0.018338216 0.018960614 -0.24381019 0.4348753 0.038998317 0.042336963 0.028987508 0.44982165 0.35336494 0.01498131 0.63405544 0.2551763 0.14913352 -0.081358455 0.37452865 0.31315026 0.1635743 -0.40551612 0.15666948 -0.2677674
some 0.02213761 0.22905697 0.2819033 -0.04481097 0.035301246 -0.73879015 0.21355194 0.71848947 -0.3200596 -0.22484708 -0.10856233 -0.8805951 -0.17111412 0.21785204 0.09424451 -0.25495514 -0.1389035 -0.24167584 -0.0015767984 -0.79218715 0.27019805 0.160192 -0.009983775 -0.045881316 -0.06943957 0.062045373 -0.2945999 -0.34370527 -0.36207083 0.057258658 0.4120442 0.08352195 0.1673434 -0.27530473 -0.18290232 0.40029868 -0.124790415 -0.3928366 -0.16334511 -0.7820156 0.092377864 -0.41506436 -0.1350796 0.11996684 0.3400402 -0.18809628 -0.24760096 0.03837353 0.22491482 0.24876292 0.22986065 -0.37482035 -0.089741856 -0.19372454 -0.07547942 0.26831943 0.31677195 -0.06485899 -0.3943734 0.20362574 0.1531122 0.13653263 -0.052189324 -0.2673658 -0.5089212 0.39768437 -0.053413242 0.16916983 -0.4240284 0.56284565 -0.22425486 0.17969422 0.57213295 -0.22894654 0.5011727 0.29781356 -0.10065706 -0.13538767 -0.34474775 0.01641057 -0.053132717 0.07146475 -0.23472159 0.48608264 -0.012760138 -0.017629592 0.13276233 0.5256609 0.34892216 0.02279794 0.6423993 0.28123403 0.14215432 -0.025953168 0.42297935 0.3441553 0.15963577 -0.43542603 0.21062599 -0.261104
consid 0.011810247 0.20352478 0.2465585 -0.0567639 0.04928804 -0.6936872 0.18782884 0.6806719 -0.25584602 -0.22845288 -0.081222236 -0.8075428 -0.18255752 0.21527526 0.13816941 -0.19633096 -0.13168171 -0.23561841 -0.02596632 -0.71753246 0.23152325 0.14316191 -0.059233528 -0.038523935 -0.072830245 0.06494254 -0.27772352 -0.35105824 -0.32127163 0.051780846 0.41475433 0.09025651 0.15321392 -0.2405126 -0.17850251 0.37418678 -0.10281475 -0.3257768 -0.15368004 -0.73319536 0.095579155 -0.38132453 -0.12048849 0.09759571 0.31510323 -0.18872309 -0.22523348 0.048159357 0.23175782 0.23694068 0.17732796 -0.33133277 -0.06818812 -0.15231988 -0.08413824 0.25130984 0.27087685 -0.060323868 -0.35412744 0.19478175 0.1619363 0.13454075 -0.055733167 -0.25630212 -0.45027542 0.3575288 -0.03690913 0.16251576 -0.38946506 0.5107868 -0.16611727 0.17463267 0.5304143 -0.20461091 0.46073413 0.26092622 -0.06750427 -0.10487845 -0.3089125 0.021311928 -0.04468664 0.029497448 -0.2386861 0.44538084 -0.002725655 0.010138919 0.12350736 0.4741067 0.32101235 -0.013389747 0.6122602 0.27980086 0.14012511 -0.013577956 0.35645747 0.3409646 0.12135045 -0.38659286 0.21061662 -0.23517324
system -0.011334671 0.20121111 0.31279975 -0.099399604 0.012485417 -0.8038544 0.20724657 0.78848857 -0.33148172 -0.2520495 -0.14093935 -0.9642601 -0.20268212 0.20962934 0.10441584 -0.2874883 -0.14223246 -0.29925334 -0.0080159195 -0.89745903 0.29397723 0.14583163 -0.03721094 -0.03879613 -0.11773614 0.047740858 -0.32862726 -0.42266062 -0.37745646 0.027963484 0.4929733 0.116598375 0.13546662 -0.23837763 -0.20239075 0.42794043 -0.15422972 -0.4284707 -0.16170494 -0.89225537 0.10671841 -0.46371788 -0.14208788 0.1055606 0.38755095 -0.20789266 -0.22115263 0.05472395 0.27543828 0.29555017 0.20709927 -0.4120942 -0.09034335 -0.16650127 -0.1429437 0.28277332 0.2941907 -0.062050182 -0.44330764 0.19779812 0.1937417 0.19674446 -0.06074683 -0.282581 -0.48156968 0.44942194 -0.076286525 0.17541751 -0.42602476 0.5873287 -0.22664273 0.25264472 0.61158955 -0.26717648 0.52825767 0.35694614 -0.14056256 -0.139737 -0.3631836 0.01413429 -0.09373116 0.0019202547 -0.3067066 0.5173284 -0.015380009 -0.041878548 0.12597305 0.6268686 0.40888718 0.03803546 0.7201609 0.31298506 0.11623859 -0.021923237 0.47577447 0.42721742 0.19720764 -0.49377903 0.24163084 -0.27457798
properti 0.018610459 0.22137801 0.28718615 -0.06422652 0.036453623 -0.77343094 0.21379727 0.7421246 -0.3311028 -0.23636997 -0.117925905 -0.92528063 -0.19310758 0.22412486 0.08394427 -0.2641373 -0.13471018 -0.26289296 0.021895532 -0.8279895 0.26665932 0.13561895 -0.016112521 -0.061893005 -0.10379128 0.07412046 -0.32147124 -0.38613236 -0.37021303 0.045828067 0.45404685 0.10035149 0.14971697 -0.25227195 -0.20643678 0.39028043 -0.1379775 -0.3876813 -0.16604158 -0.85038364 0.096579455 -0.41543186 -0.12360335 0.11262608 0.33632177 -0.20754637 -0.22889082 0.041861616 0.26143503 0.25936267 0.17682207 -0.38125977 -0.06858863 -0.1813238 -0.090807006 0.25023144 0.3126551 -0.050974037 -0.4091146 0.22311908 0.18041499 0.1650208 -0.02997237 -0.27572954 -0.48376697 0.4245607 -0.05487666 0.14629094 -0.42081526 0.549982 -0.22487444 0.20969054 0.5798213 -0.25331146 0.524408 0.31919253 -0.13514155 -0.12784693 -0.33508286 0.008641661 -0.07428727 0.059868578 -0.26369947 0.4853218 -0.01942114 -0.042651545 0.15427662 0.58681417 0.38767835 0.03254859 0.6617814 0.30323175 0.0985353 -0.04322937 0.4369005 0.37878355 0.160233 -0.4725414 0.2505409 -0.26840165
polynomi 0.16897269 0.22362995 0.13470405 -0.09381386 0.060601182 -0.5945478 0.26723346 0.6910911 -0.16582745 -0.2860429 -0.07628874 -0.7370253 -0.15563935 0.09175442 0.13692455 -0.1424087 -0.11137906 -0.17382379 -0.047480468 -0.6616931 0.26478451 0.11001878 -0.1340097 -0.061867196 -0.16181147 0.15868753 -0.3019309 -0.41381273 -0.3162896 0.06985059 0.3942228 -0.033283614 0.11465201 -0.28997248 -0.14113322 0.33779553 -0.05923309 -0.26809764 -0.22514246 -0.6327835 0.0023712823 -0.23757736 -0.107273445 0.04311302 0.28334183 -0.17601866 -0.24973719 0.0029687118 0.2273665 0.18406652 0.102061614 -0.349454 -0.03071288 -0.22838748 0.0050794017 0.15289795 0.26580262 0.010580716 -0.35788485 0.20775601 0.12783398 0.078208104 0.029689489 -0.22980589 -0.34081382 0.28571653 -0.04053728 0.084259264 -0.34330153 0.29943466 -0.09492616 0.1411878 0.41725016 -0.19513676 0.4093278 0.19114326 0.041110676 -0.06065932 -0.3495155 0.054470126 -0.17503826 0.075378075 -0.19414622 0.36052692 -0.055527754 -0.042814303 0.11326982 0.42243767 0.25562918 -0.10249246 0.58744544 0.3083815 0.12194864 0.02121373 0.3805127 0.19696674 0.08491912 -0.38845932 0.1537729 -0.17605084
each -0.08095433 0.2780782 0.32308528 -0.097008675 0.109034 -0.77874917 0.18016995 0.6942371 -0.31311154 -0.24737288 -0.07788966 -0.8601065 -0.17900322 0.24533865 0.21135607 -0.26722544 -0.16385786 -0.23314632 0.013206049 -0.75558317 0.2320113 0.16257587 -0.03524998 0.011532224 -0.0775997 0.034676407 -0.30049488 -0.32020485 -0.31456226 0.05669446 0.41252553 0.11665115 0.079907395 -0.19174626 -0.1623304 0.42542025 -0.108288035 -0.39358392 -0.08860407 -0.75290227 0.15200692 -0.4859821 -0.15031257 0.16073361 0.33045924 -0.1843849 -0.22031006 0.027976992 0.22961195 0.21025239 0.30263817 -0.35004038 -0.03252848 -0.17088588 -0.093104474 0.29796845 0.33515775 -0.061668478 -0.38547534 0.108084485 0.15856647 0.15407825 -0.10105469 -0.26468664 -0.47463605 0.42849863 -0.051330596 0.14324594 -0.40700725 0.58810174 -0.28197736 0.1653857 0.5777159 -0.23780681 0.48592123 0.3825135 -0.125978 -0.1023091 -0.30365697 0.022563882 0.02452041 0.020060757 -0.24084 0.4898379 0.06745963 0.041593686 0.054012094 0.4953674 0.35381037 0.0491813 0.6728232 0.254059 0.11974313 -0.08932811 0.39225823 0.33870426 0.20114633 -0.4221566 0.22585759 -0.25692266
exist 0.031459466 0.20539464 0.2626439 -0.06773451 0.056335866 -0.7049811 0.19776893 0.6973041 -0.28151938 -0.24339709 -0.10021292 -0.84209496 -0.19015943 0.21598841 0.1071563 -0.23963605 -0.123989314 -0.22827448 -0.016746458 -0.76413476 0.24045521 0.12989293 -0.029846134 -0.055456616 -0.09479437 0.055886954 -0.30032125 -0.3559684 -0.3445323 0.052546926 0.4018912 0.076256745 0.13353033 -0.24187735 -0.18954583 0.38544336 -0.10264576 -0.35360712 -0.16032504 -0.7495497 0.080174744 -0.38843378 -0.10936042 0.10312431 0.33421093 -0.1789065 -0.23150972 0.055969663 0.23760846 0.2561885 0.19402534 -0.35693368 -0.059891306 -0.19119662 -0.09615731 0.25232694 0.2837093 -0.040105723 -0.39107853 0.19947769 0.1682322 0.14609458 -0.03062951 -0.24667507 -0.43822113 0.36251056 -0.063312344 0.16886798 -0.38377303 0.50327694 -0.18910778 0.1857704 0.539605 -0.21758088 0.4602456 0.2780759 -0.11122551 -0.11620537 -0.3240315 0.00093979953 -0.06255042 0.025171567 -0.25280276 0.47124803 0.011627016 -0.003881989 0.14401545 0.5174816 0.35300723 0.027923493 0.6271073 0.29606563 0.1248497 -0.0154382195 0.40522188 0.3351205 0.14586149 -0.41579574 0.21649194 -0.25054446
known 0.034462836 0.20181322 0.3016544 -0.066964425 0.05574683 -0.72685933 0.21198636 0.7310617 -0.3201863 -0.25474367 -0.1308042 -0.90904325 -0.19103034 0.19019793 0.12928134 -0.2537474 -0.15684503 -0.26723558 -0.010296121 -0.831488 0.26812363 0.14570934 -0.047405522 -0.032688875 -0.109423764 0.054418687 -0.32082245 -0.3877185 -0.3985506 0.028011478 0.4258834 0.06867799 0.15128812 -0.29506242 -0.1980147 0.4125385 -0.14565058 -0.37189144 -0.19713333 -0.7843848 0.11144375 -0.42425147 -0.12202254 0.13343227 0.3313397 -0.17986791 -0.2489588 0.029656235 0.23266865 0.30575687 0.17738654 -0.40364325 -0.059350036 -0.22831446 -0.068883784 0.25635642 0.27119848 -0.028227208 -0.4389735 0.23130256 0.15828693 0.16090123 -0.026314009 -0.26654235 -0.4907004 0.38357377 -0.028629791 0.17862381 -0.4194885 0.567848 -0.16470414 0.2032294 0.5633631 -0.24713255 0.50811166 0.28289077 -0.09804789 -0.119150884 -0.32832918 -0.012220763 -0.08327415 0.0550077 -0.2691003 0.52199525 -0.014317608 0.012631756 0.13880225 0.57744324 0.38914597 -0.018075991 0.6577879 0.28028217 0.16566588 0.0067846146 0.41011164 0.35818458 0.16021445 -0.48741823 0.21473897 -0.29020065
vertex -0.15278101 0.31673053 0.33285448 -0.044707336 0.16939087 -0.7487673 0.109509096 0.62092274 -0.31175548 -0.18875119 -0.04278816 -0.7435124 -0.11759899 0.29805574 0.29533324 -0.26138613 -0.18535396 -0.18855071 0.029806161 -0.67443526 0.20749 0.20562573 0.0031429152 0.046181418 -0.04883239 0.033033945 -0.24342941 -0.2540046 -0.31040058 0.13012363 0.36152452 0.11569241 0.069560476 -0.17371352 -0.14692031 0.4578492 -0.11864355 -0.3585264 -0.036000043 -0.6074178 0.18541722 -0.53588593 -0.1769888 0.18037535 0.30680153 -0.1401707 -0.19272035 -0.024218844 0.17564803 0.11995334 0.44189033 -0.26014346 -0.033161975 -0.15198845 -0.074475564 0.2836148 0.3629963 -0.115442686 -0.3501385 0.060822144 0.15163955 0.12972803 -0.14203769 -0.24913697 -0.46540564 0.4182698 -0.0027166198 0.13268133 -0.4116322 0.6654216 -0.32138157 0.055055182 0.5507109 -0.18580331 0.48212126 0.38556316 -0.17700198 -0.032677952 -0.25860816 -0.024526475 0.13776147 0.021246696 -0.21497667 0.48195988 0.110776655 0.114009604 -0.0136116715 0.4157193 0.35000783 0.033240695 0.67407817 0.20732097 0.1581441 -0.13098423 0.32788017 0.26832435 0.18293306 -0.3327147 0.15086876 -0.25418404
solv 0.12775303 0.1729825 0.18458931 -0.12082742 0.0013289809 -0.6416214 0.22638232 0.7399118 -0.22678831 -0.2561526 -0.10521647 -0.8397519 -0.21007006 0.1547133 0.09718168 -0.1935245 -0.12839936 -0.25504443 -0.08755933 -0.80330074 0.28074884 0.12521073 -0.11118663 -0.054024667 -0.1281315 0.09021281 -0.28813434 -0.44909465 -0.33480337 0.04900104 0.4498026 0.04711269 0.13456863 -0.27789417 -0.16707775 0.37080276 -0.06207243 -0.2995446 -0.21463381 -0.78528625 0.011849134 -0.32783678 -0.11865032 0.07962003 0.3213494 -0.16784401 -0.21586007 0.076223895 0.27230453 0.31314692 0.04549277 -0.3948368 -0.0629563 -0.20938577 -0.08111302 0.22032197 0.20442776 -0.016851638 -0.3991152 0.2428749 0.19719712 0.117615364 0.03700325 -0.18966123 -0.35077974 0.3490356 -0.050876576 0.17157097 -0.3535012 0.43892068 -0.08794132 0.22051342 0.48176616 -0.22685495 0.40230566 0.23047894 -0.026221236 -0.13368168 -0.31392905 0.037552357 -0.13878523 -0.011977062 -0.30340838 0.3881542 -0.007881185 -0.061673 0.15721828 0.5437254 0.3245046 -0.02243969 0.6384474 0.32809934 0.13612883 0.038135983 0.40421754 0.31874976 0.14044812 -0.43214694 0.20850404 -0.2550001
applic 0.048817866 0.14922288 0.25952908 -0.079387896 0.0050678826 -0.68716156 0.1832335 0.66959906 -0.28800842 -0.2343149 -0.14328752 -0.84303457 -0.19552836 0.19615443 0.033309206 -0.22850238 -0.11160831 -0.2676924 0.006328357 -0.78046024 0.25287113 0.13014317 -0.03636505 -0.05547491 -0.12538776 0.058266975 -0.30162618 -0.34230435 -0.32370862 0.028763227 0.45982498 0.100477785 0.12792994 -0.18974389 -0.20445748 0.34755683 -0.13122834 -0.33720648 -0.16337918 -0.7790436 0.07956106 -0.36366844 -0.112112336 0.101517305 0.3378388 -0.15839612 -0.19359821 0.031414684 0.22469215 0.2780921 0.12066434 -0.3412481 -0.071426444 -0.17546538 -0.1228257 0.21779248 0.24449044 -0.049955193 -0.39206633 0.18854356 0.15968873 0.18214516 -0.02089158 -0.2616883 -0.42225382 0.35871106 -0.03770648 0.17202736 -0.3661662 0.47780475 -0.17822248 0.21710287 0.512823 -0.21288206 0.4419107 0.2886347 -0.12001116 -0.13145962 -0.3091209 0.014162477 -0.09679172 0.014525406 -0.27253574 0.4594754 0.007870377 -0.05125531 0.17547715 0.5518998 0.3230831 0.030223655 0.57087564 0.2724693 0.09441454 -0.00070714124 0.39515412 0.3837405 0.16077417 -0.41379172 0.23149443 -0.21703124
theori 0.04316295 0.1581203 0.2595322 -0.0759249 -0.009639908 -0.6787714 0.18804331 0.6821161 -0.31474915 -0.24293293 -0.10592503 -0.8620932 -0.19577621 0.20346817 0.025915211 -0.2540295 -0.10512727 -0.27430084 0.010876101 -0.78853273 0.24813958 0.12421911 -0.041814677 -0.07083649 -0.115799345 0.038798086 -0.2774566 -0.36206794 -0.33707687 0.026845697 0.44106352 0.07453683 0.13404933 -0.20867471 -0.19013302 0.35084698 -0.14618693 -0.3560114 -0.16547698 -0.7868022 0.06804672 -0.3821372 -0.124184586 0.09103896 0.3479031 -0.16458057 -0.20443162 0.035263907 0.23041877 0.2870985 0.1213079 -0.34300345 -0.08689843 -0.14716157 -0.121319994 0.2299393 0.2507776 -0.061514065 -0.37098336 0.20117477 0.17209017 0.17696416 -0.025502063 -0.25832158 -0.438468 0.3601168 -0.029435996 0.1687475 -0.3571488 0.50770205 -0.18898551 0.20116916 0.5163828 -0.21680555 0.44566688 0.28301013 -0.15937585 -0.13438018 -0.3112809 0.028094765 -0.08643831 0.03356097 -0.27371305 0.46922603 -0.012164986 -0.063080475 0.15262206 0.5662758 0.35111514 0.03771233 0.580963 0.26548305 0.07486861 0.009910718 0.3914071 0.3977797 0.16148072 -0.431683 0.2221425 -0.21983938
generat 0.028830862 0.16222183 0.26114216 -0.0625927 0.03125487 -0.6994017 0.19581956 0.6911787 -0.29868284 -0.24531375 -0.107050225 -0.8663691 -0.18869679 0.20391509 0.0816818 -0.22304925 -0.115308575 -0.23946239 -0.020135509 -0.76027966 0.26537582 0.13373384 -0.06656404 -0.051676326 -0.1038253 0.06292649 -0.31149518 -0.36517403 -0.34555608 0.049256366 0.40840727 0.100949384 0.12597257 -0.24238588 -0.20423634 0.38888845 -0.12890556 -0.36137286 -0.17893434 -0.7759801 0.06934876 -0.38148886 -0.10164708 0.093367666 0.33825204 -0.18683104 -0.20778818 0.04847545 0.22694932 0.2783319 0.15821128 -0.36980265 -0.053419538 -0.17547947 -0.120214894 0.2317242 0.2870174 -0.043647416 -0.37476304 0.20450844 0.16732378 0.14773694 -0.02035792 -0.2721831 -0.43345985 0.38337332 -0.06771636 0.1643182 -0.3494374 0.49286732 -0.19603819 0.19732045 0.5174434 -0.23162782 0.4723909 0.26531494 -0.11506712 -0.11680408 -0.31936783 0.0028784508 -0.08000131 0.034765556 -0.24401884 0.4464508 -0.0035431131 -0.028092857 0.14615412 0.54781175 0.35228965 0.011032154 0.62817186 0.2643788 0.09397041 0.0006411502 0.3939567 0.36815906 0.15986724 -0.43854472 0.21807726 -0.24023628
differ -0.0064973393 0.19384909 0.2773549 -0.074258514 0.035946805 -0.7184453 0.17655995 0.68731755 -0.28552836 -0.24025118 -0.09765389 -0.8586187 -0.18208285 0.20348792 0.096901104 -0.24061179 -0.11500074 -0.2753599 -0.008966083 -0.77570593 0.23011695 0.12974907 -0.036100302 -0.02440564 -0.09622572 0.06441493 -0.3077207 -0.3444162 -0.32912433 0.026427936 0.42360654 0.097863145 0.108150154 -0.2051298 -0.18823929 0.38431442 -0.11710449 -0.37727877 -0.14736524 -0.7835266 0.07180851 -0.40096363 -0.12142973 0.10786834 0.3383093 -0.18965995 -0.21155304 0.045824617 0.24137618 0.26350227 0.17535011 -0.3332263 -0.072115235 -0.16764429 -0.10011651 0.23336186 0.28534117 -0.05795865 -0.39865986 0.17427348 0.17724925 0.15245685 -0.03929367 -0.2449817 -0.4508057 0.38366488 -0.04655386 0.16215488 -0.36976928 0.52631456 -0.19055483 0.18628944 0.5391207 -0.21613933 0.47170526 0.3228623 -0.13863134 -0.12255388 -0.3114403 0.0124491835 -0.057780426 0.03991545 -0.25021043 0.44699863 0.007316652 -0.028015282 0.13556115 0.54006654 0.34134185 0.03406924 0.6363488 0.2877539 0.110762656 -0.027265163 0.3982931 0.37118942 0.16975282 -0.42877087 0.21375486 -0.24851885
well 0.005110359 0.20531818 0.24924482 -0.07717305 0.04554833 -0.71002024 0.1529619 0.7035111 -0.31283703 -0.24884894 -0.1069735 -0.8441459 -0.17083156 0.18170658 0.088570744 -0.24975276 -0.11027225 -0.27092072 0.012504672 -0.7899126 0.2207325 0.13182552 -0.039448354 -0.055359427 -0.10247821 0.06833471 -0.32172072 -0.34736767 -0.34456262 0.04957525 0.4232136 0.09746442 0.10211855 -0.24798355 -0.1718403 0.4020218 -0.13979433 -0.38927388 -0.15707728 -0.78252375 0.08861068 -0.37388554 -0.14688128 0.09762968 0.34983128 -0.17405868 -0.21299222 0.036625773 0.22625536 0.24918982 0.1759158 -0.3672499 -0.052814286 -0.15514176 -0.08729641 0.24534611 0.258371 -0.03666673 -0.40246964 0.21559215 0.17684758 0.15160654 -0.0075098434 -0.2573019 -0.45038146 0.3848095 -0.032325897 0.16983552 -0.38273868 0.53117484 -0.19592932 0.21319318 0.50882596 -0.2397189 0.46212015 0.32321998 -0.12952131 -0.114886984 -0.30106074 -0.021897644 -0.08006041 0.02536392 -0.27569917 0.49693096 -0.005725316 -0.03947533 0.15622535 0.56868553 0.34435388 0.045024633 0.6104267 0.2783352 0.13605824 -0.0035568657 0.4002329 0.34508353 0.17793116 -0.43968347 0.24515763 -0.24465388
first 0.088068575 0.1910861 0.22474936 -0.080746286 0.04161479 -0.70408857 0.23405129 0.7137507 -0.26780826 -0.22501571 -0.06836634 -0.8717406 -0.20047097 0.18664414 0.08079653 -0.19202133 -0.111815654 -0.2553883 -0.0402367 -0.79571754 0.23777723 0.1326582 -0.08193039 -0.061414666 -0.11272745 0.08978444 -0.27319 -0.3874909 -0.3461663 0.032959986 0.4402512 0.046735812 0.1602805 -0.28421816 -0.1779647 0.38048685 -0.08587764 -0.3554051 -0.1909647 -0.79597014 0.063595854 -0.35791883 -0.12655304 0.09255565 0.33066222 -0.18854763 -0.24644653 0.0723695 0.25036734 0.25921953 0.12796177 -0.3774174 -0.07050088 -0.1702685 -0.08260378 0.24535808 0.274894 -0.017549204 -0.40221316 0.21821119 0.15354015 0.122234136 -0.015631173 -0.24128085 -0.42562297 0.3758033 -0.047433443 0.15697296 -0.38147917 0.48628697 -0.16694932 0.1854631 0.5277712 -0.21423951 0.46690813 0.24418616 -0.07260924 -0.115791336 -0.3350424 0.024027592 -0.1163929 0.046771947 -0.25854686 0.4292322 -0.03579753 -0.0368987 0.15578374 0.5356258 0.3521787 0.008514465 0.6207633 0.32335705 0.11118701 0.0060953503 0.40835038 0.33669212 0.12801117 -0.45587054 0.23104094 -0.24191867
path -0.05618484 0.26240003 0.3100315 -0.112947226 0.10846498 -0.766192 0.2007972 0.73123896 -0.33999988 -0.21169755 -0.078379944 -0.8994283 -0.16043074 0.2260534 0.21805133 -0.29511374 -0.16561383 -0.24029613 -0.028614527 -0.7926702 0.28588292 0.18067865 -0.050665647 -0.021456556 -0.10332437 0.035172593 -0.27834967 -0.3484385 -0.36492127 0.078961164 0.46901417 0.06708988 0.09655671 -0.23957367 -0.20689282 0.4366682 -0.11894474 -0.37918782 -0.13055629 -0.7793493 0.13334967 -0.4817275 -0.14689659 0.15005264 0.34875187 -0.17987524 -0.19063123 0.013652523 0.23320664 0.2623067 0.29657152 -0.3964032 -0.04313386 -0.17875023 -0.11366759 0.28617668 0.30679244 -0.10328759 -0.42345977 0.12874788 0.1685665 0.18436113 -0.06595371 -0.29130334 -0.4662566 0.44078538 -0.02331824 0.19193465 -0.44432586 0.6090982 -0.2242798 0.1836167 0.6045741 -0.24482821 0.49766564 0.39019102 -0.15240805 -0.08473792 -0.31782603 -0.012756893 -0.010081741 -0.020915505 -0.2878971 0.50186175 0.042023025 0.06485513 0.058006126 0.49059296 0.38645816 0.04315028 0.7043721 0.3032752 0.18347156 -0.07978628 0.4263139 0.3145764 0.15566465 -0.4413161 0.22107175 -0.3075303
proc 0.023887644 0.19808108 0.28234777 -0.09545743 0.025830407 -0.74845433 0.19946261 0.73087937 -0.29739857 -0.25967115 -0.11938945 -0.87458783 -0.19936287 0.18980512 0.09845908 -0.23083682 -0.12583317 -0.27744982 -0.030741166 -0.82132983 0.27281964 0.1534377 -0.07042442 -0.05027483 -0.11969921 0.06899265 -0.33035487 -0.3675571 -0.35346064 0.050453797 0.44308785 0.10449868 0.10500769 -0.23441584 -0.18962608 0.3935277 -0.12709054 -0.37382394 -0.16440514 -0.82587177 0.07686934 -0.41907158 -0.1126697 0.109403774 0.37678 -0.17335895 -0.22256123 0.062721774 0.23173994 0.27674 0.16721667 -0.37900704 -0.067310825 -0.18539211 -0.11610142 0.24788873 0.2877801 -0.028737778 -0.42651695 0.19778118 0.17208426 0.15590882 -0.028007392 -0.26888293 -0.44655854 0.40841293 -0.050434474 0.1747078 -0.39109752 0.52288413 -0.18628561 0.22114845 0.56091464 -0.21709917 0.4774099 0.31837606 -0.1267391 -0.12543666 -0.32086247 0.004929624 -0.07874622 0.032800756 -0.25737515 0.48411727 0.017728481 -0.03285626 0.15905179 0.5778977 0.3547813 0.025072232 0.66420716 0.29539678 0.09240427 -0.016610088 0.41298345 0.3809643 0.17119797 -0.46923065 0.24219115 -0.23291956
case 0.03664328 0.22674143 0.25620657 -0.053705726 0.06279462 -0.71492165 0.20510985 0.7199294 -0.3000556 -0.22081944 -0.113788046 -0.8362933 -0.19205777 0.19879209 0.119681396 -0.23733164 -0.1319248 -0.23487924 0.008928894 -0.7836407 0.24330029 0.15427029 -0.049719285 -0.05013758 -0.07310813 0.06910475 -0.30377835 -0.37442 -0.36455935 0.066288546 0.39985237 0.07082924 0.15560731 -0.2720762 -0.17351708 0.3902904 -0.115263805 -0.36267817 -0.1465152 -0.7677967 0.09954281 -0.39496976 -0.12222513 0.1175622 0.32605544 -0.18213703 -0.2375293 0.056797724 0.23689027 0.24212979 0.19950448 -0.34671548 -0.076824635 -0.18762712 -0.068722926 0.2510922 0.287774 -0.021907343 -0.3885707 0.19860163 0.15850978 0.14465177 -0.028390367 -0.27151868 -0.4651857 0.3745614 -0.043897256 0.15507685 -0.41151738 0.5078078 -0.16746576 0.19125785 0.54286695 -0.2149964 0.4900781 0.27579466 -0.07350355 -0.1173216 -0.3499177 -0.0018854266 -0.07929719 0.05962836 -0.23358153 0.4520728 1.2655175e-05 -0.019375006 0.14042576 0.5296192 0.35307363 0.0029545422 0.6272782 0.28793988 0.12343996 -0.015499478 0.40840262 0.33818063 0.15379187 -0.44837853 0.2210347 -0.2623603
more 0.02977201 0.2093213 0.2934498 -0.08893415 0.03762387 -0.761162 0.21086264 0.7477566 -0.3015486 -0.26063377 -0.134605 -0.9119677 -0.21271154 0.20184538 0.099260636 -0.2393045 -0.12905483 -0.28425086 0.0060627586 -0.82756513 0.26290303 0.16171716 -0.02769911 -0.055295035 -0.12751445 0.07328305 -0.30466434 -0.3520644 -0.36265904 0.061149906 0.4732108 0.08580289 0.14009991 -0.22700778 -0.20747128 0.4135177 -0.121163994 -0.39309278 -0.15923147 -0.8391483 0.07394859 -0.41132224 -0.13276753 0.10978478 0.3784121 -0.16790897 -0.20806547 0.037048105 0.24774517 0.26448384 0.19726211 -0.35431483 -0.085595444 -0.18714733 -0.1223186 0.2433443 0.3041834 -0.038929507 -0.399687 0.18924007 0.17625663 0.1782168 -0.040896524 -0.2618008 -0.4897547 0.41073948 -0.06909665 0.1701082 -0.38789925 0.53677845 -0.21937831 0.1873667 0.5406155 -0.20635378 0.46950677 0.3177333 -0.14175822 -0.13546515 -0.34404036 0.02940091 -0.06210155 0.03125102 -0.2524295 0.49851063 0.038354807 -0.016162602 0.14776738 0.5838201 0.3591637 0.03151869 0.6670515 0.279126 0.11243068 -0.033461157 0.444561 0.3795712 0.18125296 -0.46485344 0.25429845 -0.2603133
sequenc -0.033807393 0.22800314 0.26810667 -0.08127841 0.084089406 -0.71490365 0.20054284 0.7084491 -0.2938444 -0.22315402 -0.09088073 -0.8527421 -0.19321348 0.21551555 0.10308554 -0.25635612 -0.111047484 -0.2476157 0.021945542 -0.7986503 0.25566408 0.12378665 -0.059511784 -0.026219642 -0.055322733 0.032046173 -0.29434773 -0.37324622 -0.34840047 0.038091123 0.40573454 0.12108688 0.12765788 -0.24534634 -0.20516878 0.4172511 -0.11891363 -0.40428385 -0.1406686 -0.8134134 0.0856799 -0.41573027 -0.10151021 0.11314443 0.35748613 -0.20373943 -0.24519454 0.04972966 0.23064503 0.24625692 0.21260978 -0.34166032 -0.08026479 -0.13105883 -0.09590455 0.24801199 0.33719748 -0.051363245 -0.3757021 0.16048998 0.18281758 0.16283664 -0.051582575 -0.28563556 -0.46670985 0.42799935 -0.057808667 0.13666467 -0.40962023 0.5286389 -0.25623712 0.19604851 0.5440081 -0.23825264 0.5035545 0.30990604 -0.13361819 -0.11438822 -0.33675987 0.012731779 -0.03596128 0.07336888 -0.2582835 0.4692678 0.006714646 -0.0059099803 0.12523477 0.53425187 0.37903658 0.062718 0.63831186 0.30078858 0.10302422 -0.039862543 0.41575214 0.3781695 0.13927785 -0.46110412 0.24161372 -0.27114293
find -0.0025059604 0.2290902 0.2587946 -0.100710034 0.07750253 -0.7196362 0.18527916 0.6918149 -0.29355073 -0.22037607 -0.08794568 -0.83122426 -0.16334361 0.2084493 0.16987322 -0.23967163 -0.14477053 -0.213284 -0.03221455 -0.75658023 0.25635394 0.1485345 -0.029747417 -0.020909011 -0.09515646 0.04902196 -0.26642546 -0.37092152 -0.33286095 0.06986982 0.42739734 0.085001744 0.12254267 -0.23829916 -0.18994495 0.4109993 -0.1011105 -0.34930804 -0.1668406 -0.76163644 0.10888194 -0.4199371 -0.13174352 0.10707244 0.32351503 -0.18227562 -0.23010764 0.03508537 0.24405123 0.2350826 0.2148848 -0.37244442 -0.062122937 -0.1767006 -0.10318891 0.249926 0.2664281 -0.065040044 -0.37957278 0.17571746 0.19455339 0.1506045 -0.0567981 -0.25153267 -0.43218192 0.3925862 -0.02606201 0.15424569 -0.39809588 0.5384875 -0.19876201 0.19037104 0.5357185 -0.20206289 0.44711766 0.3157131 -0.089729995 -0.09416671 -0.32660326 -0.0021135728 -0.030911252 -0.0044036293 -0.2744613 0.46306688 0.0065587144 0.0061267633 0.10756837 0.47058833 0.3541644 0.013869832 0.65311444 0.29996276 0.14031462 -0.035471473 0.40676403 0.31989127 0.1577511 -0.4279773 0.19078475 -0.27151087
random 0.01562729 0.19404052 0.2913928 -0.0845145 0.07073798 -0.74007326 0.18219292 0.72300154 -0.29611486 -0.23675022 -0.10549783 -0.87506765 -0.2017458 0.20876248 0.0926375 -0.24337196 -0.13726217 -0.2724672 -0.032818515 -0.79378337 0.26717442 0.16538927 -0.036931545 -0.03266273 -0.102700345 0.06499387 -0.31982666 -0.3598783 -0.35968542 0.060251057 0.4344167 0.08685187 0.13120323 -0.25028414 -0.20647652 0.42361793 -0.13244854 -0.38031635 -0.17233709 -0.7828176 0.0940048 -0.4195844 -0.13485645 0.111032344 0.3726976 -0.1969278 -0.21959381 0.035374247 0.25274572 0.2797379 0.19140689 -0.38093528 -0.07274617 -0.16141269 -0.10242715 0.25878325 0.31908372 -0.063094065 -0.40816393 0.18279658 0.15866557 0.15669751 -0.026977856 -0.2837521 -0.4770095 0.40554208 -0.05032716 0.16417013 -0.39082193 0.57032883 -0.22936578 0.19994059 0.5500187 -0.2189227 0.4920578 0.33062732 -0.12542665 -0.13074972 -0.3450481 -0.0041702213 -0.046148963 0.026511794 -0.26614627 0.49692973 -0.0045352047 -0.012272405 0.12299389 0.5878094 0.35667658 0.04609681 0.6638986 0.2929536 0.1207415 -0.021241954 0.43235686 0.378772 0.16963539 -0.4450833 0.22574094 -0.2757396
where -0.04436318 0.26282156 0.29468518 -0.09147386 0.088265456 -0.78954834 0.18625484 0.7467305 -0.30164337 -0.24887232 -0.09229929 -0.878665 -0.17150322 0.23752499 0.17590937 -0.2658306 -0.15924877 -0.25348192 -0.0115624815 -0.8121698 0.2617978 0.15771297 -0.04680153 -0.032234304 -0.07699846 0.064353846 -0.31298986 -0.35693687 -0.35396385 0.05501272 0.43486974 0.09680924 0.103771426 -0.21907252 -0.1818862 0.42909223 -0.126039 -0.39021665 -0.11471046 -0.794393 0.115661584 -0.4708678 -0.15445107 0.11628804 0.36065042 -0.18341209 -0.21641688 0.018776992 0.22946766 0.24502452 0.24905351 -0.3566696 -0.07145357 -0.1752337 -0.08919447 0.28255284 0.3186379 -0.04725239 -0.41801986 0.16938601 0.18765691 0.14303966 -0.065817595 -0.2734208 -0.48074123 0.4386114 -0.045932624 0.15056024 -0.4086904 0.60957384 -0.23032147 0.16531257 0.58848333 -0.22297063 0.47894165 0.35135317 -0.12392939 -0.11656492 -0.3305002 0.021942714 -0.019847007 0.007842499 -0.26741424 0.47534195 0.037963435 0.022319486 0.092534594 0.5326254 0.38366693 0.009901431 0.68677545 0.27925798 0.15753691 -0.05418667 0.40620586 0.34641716 0.1920731 -0.4459227 0.20388402 -0.2672502
non -0.025825689 0.26784956 0.33255935 -0.10018854 0.06317246 -0.8343683 0.19450663 0.8128672 -0.34186196 -0.23791355 -0.1302419 -0.98594713 -0.21504118 0.2611311 0.16470565 -0.284918 -0.17856307 -0.2716737 -0.00852394 -0.90083045 0.2696267 0.15773164 -0.04152389 -0.019349758 -0.10983598 0.051797733 -0.35190892 -0.42705342 -0.38753426 0.053625613 0.48942882 0.10054525 0.12502559 -0.26192474 -0.21880876 0.44354475 -0.1287645 -0.4246159 -0.14359191 -0.8971959 0.11558863 -0.47692648 -0.16431597 0.11617768 0.37180388 -0.20776692 -0.272362 0.04811304 0.28472593 0.29532593 0.22750181 -0.39685446 -0.0633993 -0.19706959 -0.10186233 0.31390935 0.3576843 -0.060793024 -0.43139574 0.18912837 0.18361689 0.17283663 -0.07180775 -0.29257348 -0.5298962 0.44306618 -0.06357723 0.15947875 -0.44631696 0.6423968 -0.24970265 0.19665791 0.6051623 -0.2787073 0.5364669 0.35658303 -0.11451496 -0.120672375 -0.37896067 0.017337052 -0.0481201 0.015962144 -0.2914679 0.5462147 0.0019446646 -0.01158834 0.11168976 0.61685294 0.42783868 0.019837629 0.7264231 0.32570156 0.14333466 -0.04183717 0.4729596 0.40136412 0.19509357 -0.4981596 0.24060191 -0.29704764
program 0.08424487 0.23354088 0.13728364 -0.14418095 0.055723023 -0.66834587 0.2529445 0.8400427 -0.2511425 -0.20370448 -0.0063124136 -0.94193214 -0.20757416 0.21137618 0.16494878 -0.15091296 -0.13178378 -0.27180648 -0.09788658 -0.9797459 0.14697863 0.07031143 -0.16252992 -0.00048166348 -0.11317513 0.05288585 -0.24199611 -0.60748065 -0.32805344 -0.0363061 0.5213547 0.026782343 0.10740874 -0.3213366 -0.26707247 0.31767282 -0.050111204 -0.38532788 -0.044518452 -0.9794124 -0.010601663 -0.35438094 -0.14054963 0.05375815 0.30272183 -0.21921426 -0.26103255 0.077313736 0.32244378 0.3877395 -0.08313555 -0.38916096 -0.10690937 -0.09126935 0.0076546683 0.25003862 0.19332846 0.04887999 -0.4396748 0.2678699 0.27642384 0.033074718 -0.03477531 -0.13836275 -0.25325733 0.39113218 -0.08664504 0.018580433 -0.32204497 0.4540792 -0.11203988 0.23390493 0.4785925 -0.3186117 0.41059315 0.28862426 -0.052951626 -0.08478723 -0.29636824 0.043368485 -0.13699919 0.0030844612 -0.37589282 0.29690292 -0.056921754 -0.050754204 0.040888574 0.667067 0.43365586 -0.032732096 0.7156939 0.36006722 0.10013673 0.027921146 0.4628558 0.37101805 0.1475006 -0.53307956 0.18244311 -0.348565
relat -0.0025660042 0.23550506 0.29040438 -0.09082171 0.06905079 -0.75181156 0.19845362 0.711844 -0.30399802 -0.2358405 -0.0936632 -0.8820482 -0.18239076 0.2374729 0.10285569 -0.24134207 -0.14724804 -0.24666354 -0.006243357 -0.8031225 0.24474786 0.16001719 -0.019609418 -0.042224556 -0.09242666 0.07018059 -0.29681787 -0.36087608 -0.34721428 0.064459376 0.43869635 0.0827718 0.13824853 -0.2397822 -0.18635072 0.41376206 -0.12746339 -0.3850401 -0.13973458 -0.79994345 0.10198112 -0.42704806 -0.1470557 0.11011179 0.3535447 -0.1957077 -0.21511306 0.042410072 0.25109628 0.23598285 0.22932376 -0.3673384 -0.06968257 -0.1542747 -0.0985173 0.27406484 0.29928795 -0.052441828 -0.38272437 0.17747132 0.18406187 0.14537296 -0.05658977 -0.25712538 -0.46387005 0.39939266 -0.044861633 0.14116454 -0.41052732 0.55366814 -0.23118843 0.19830033 0.57224375 -0.23867197 0.48590246 0.32679012 -0.14068285 -0.12945378 -0.3273478 0.00515416 -0.046959978 0.036605455 -0.25424138 0.4773664 -0.00043975905 -0.009966342 0.12249067 0.5310988 0.36436987 0.045103926 0.6475155 0.2937497 0.12158523 -0.040086403 0.41967028 0.35706726 0.15839893 -0.4547915 0.22954115 -0.27115005
size -0.013298322 0.26669973 0.28576604 -0.07920298 0.089048624 -0.7730439 0.20327787 0.73718643 -0.30264696 -0.22454502 -0.10663174 -0.917675 -0.17601795 0.23466168 0.1642529 -0.24374762 -0.16894437 -0.2470049 -0.006796711 -0.8297207 0.2536466 0.1627966 -0.024888668 -0.035709966 -0.10848055 0.05808207 -0.29833576 -0.39350173 -0.3653517 0.055987567 0.46387962 0.09345171 0.14147048 -0.24777713 -0.21092057 0.44093704 -0.12523441 -0.39789757 -0.14017086 -0.802482 0.12812258 -0.47491106 -0.1358773 0.119373865 0.33730343 -0.20045911 -0.2484679 0.038168386 0.2559683 0.2524147 0.25404164 -0.3830053 -0.04424484 -0.19006567 -0.08707994 0.28883138 0.3314911 -0.062136114 -0.42212138 0.17435567 0.19279143 0.15547672 -0.06453212 -0.2569203 -0.47235045 0.41254044 -0.04694513 0.13985698 -0.4439764 0.58001006 -0.21534318 0.17678097 0.5745721 -0.23010351 0.5116987 0.348459 -0.106472366 -0.1090624 -0.32870397 0.0037427172 -0.04463536 0.014922039 -0.26964813 0.5002464 0.016781902 -0.0022760627 0.113669276 0.53894496 0.38580805 0.011543779 0.69240606 0.29715106 0.15886001 -0.05186764 0.42500317 0.3479408 0.1677294 -0.46131682 0.22201626 -0.2798029
approxim 0.11056987 0.17422888 0.22575599 -0.08156975 0.028172715 -0.655533 0.21024702 0.73843604 -0.25109386 -0.25355628 -0.11831755 -0.8537502 -0.19227855 0.18115185 0.061178464 -0.19610636 -0.12707946 -0.23569961 -0.038628057 -0.7652348 0.26271558 0.10573939 -0.05663564 -0.07064326 -0.1219147 0.10067049 -0.27138016 -0.37907913 -0.36671183 0.052471463 0.42759958 0.051975615 0.14622644 -0.2655776 -0.1790248 0.34752414 -0.077799395 -0.34302428 -0.22981262 -0.75563884 0.02915954 -0.32574692 -0.11234458 0.074086554 0.3214025 -0.16967647 -0.21428816 0.07251596 0.26253548 0.30171674 0.10341226 -0.38695067 -0.039843164 -0.22658917 -0.055405043 0.21745424 0.24033059 -0.022963447 -0.39282322 0.21718995 0.15921035 0.118909016 0.031912446 -0.23799177 -0.44121832 0.3315097 -0.052355472 0.17513247 -0.37597 0.47377807 -0.10913445 0.18102387 0.49446604 -0.20881489 0.42005712 0.23385514 -0.040630635 -0.11817783 -0.33684877 0.0095022265 -0.11859341 0.01702869 -0.27127567 0.44279337 -0.021239785 -0.05466999 0.18193482 0.5233062 0.31907842 -0.012185563 0.61793923 0.30554286 0.13446514 0.049279142 0.4213251 0.3268489 0.117783785 -0.44766143 0.19765106 -0.23830555
ani -0.056633275 0.27147692 0.3146996 -0.092951745 0.09485528 -0.8062438 0.20258313 0.7490183 -0.3221263 -0.23560354 -0.09169219 -0.910848 -0.17487134 0.25076708 0.19316015 -0.28919372 -0.16235216 -0.24471714 0.019393923 -0.83600783 0.27058387 0.17997853 -0.027210534 -0.009286943 -0.08748335 0.069408335 -0.32823342 -0.37181023 -0.3555159 0.07155732 0.42926833 0.109571666 0.109915376 -0.23393004 -0.1825195 0.4516279 -0.11946028 -0.41180456 -0.12204826 -0.80011123 0.123665124 -0.48821405 -0.16730022 0.14362544 0.34925386 -0.19242981 -0.2349372 0.03626088 0.25263596 0.2527172 0.29502594 -0.36922115 -0.05609969 -0.17695488 -0.10589573 0.30206174 0.3627438 -0.052668862 -0.41183388 0.16857162 0.18140607 0.16103272 -0.081486896 -0.28958473 -0.5068648 0.43953198 -0.055127718 0.15371178 -0.44300267 0.61354077 -0.27704358 0.18287371 0.6052433 -0.24102008 0.512602 0.3612408 -0.14610139 -0.09219309 -0.34600046 0.015714087 -0.0029899976 0.043622334 -0.25414938 0.5187245 0.043509826 0.029396795 0.072346136 0.547894 0.38771278 0.035924032 0.71374494 0.28684565 0.14206184 -0.06723753 0.4270953 0.36707655 0.21208039 -0.45611712 0.22226536 -0.29257336
construct 0.0297051 0.19976969 0.28403246 -0.08051552 0.05140792 -0.7300692 0.22013307 0.7422133 -0.31602684 -0.24730459 -0.11763323 -0.8909609 -0.1849252 0.23446275 0.09353773 -0.24501632 -0.1468562 -0.23820993 -0.016884021 -0.8091083 0.2839118 0.1243043 -0.062783524 -0.03394418 -0.09422046 0.042901505 -0.29107973 -0.38914764 -0.36109737 0.052955113 0.42229462 0.09591363 0.14093685 -0.26760298 -0.18717171 0.42337132 -0.10719294 -0.37549058 -0.1708251 -0.8248882 0.07616509 -0.41221967 -0.12694088 0.11372133 0.36265585 -0.19612935 -0.24458133 0.062186513 0.25587735 0.27751464 0.18523876 -0.37702885 -0.06971885 -0.17743395 -0.114404835 0.2516074 0.29079017 -0.063383885 -0.40502286 0.21003594 0.17029272 0.15725455 -0.018371442 -0.26914665 -0.4808902 0.3902957 -0.047025334 0.16999596 -0.40319306 0.54613936 -0.20333439 0.21392095 0.54754317 -0.24029139 0.4929492 0.29986572 -0.09965331 -0.14658675 -0.3370311 0.019706506 -0.05832222 0.03709109 -0.2631527 0.47244877 0.0038699189 -0.037688192 0.15293647 0.5753336 0.3798746 0.029513089 0.64100075 0.31364927 0.11533753 -0.004745677 0.4178327 0.3597728 0.14881428 -0.45521283 0.2358342 -0.25464898
over 0.0028410417 0.2207972 0.2848088 -0.102201596 0.062054634 -0.76294774 0.21378805 0.74786866 -0.29793823 -0.2480779 -0.12253371 -0.92616194 -0.20083082 0.2049004 0.10560037 -0.26237896 -0.13725302 -0.2646513 -0.012154558 -0.84348077 0.2787313 0.15575737 -0.06996387 -0.05919757 -0.11881519 0.07042308 -0.34135342 -0.40453663 -0.3760792 0.0344923 0.47528625 0.088200785 0.10980671 -0.24690434 -0.20845412 0.4153459 -0.1424997 -0.38779074 -0.14622557 -0.83728296 0.08753648 -0.40571204 -0.12821242 0.10729012 0.35588616 -0.19924855 -0.23740257 0.040851194 0.26000127 0.2737785 0.20644125 -0.39860672 -0.056452855 -0.17657894 -0.1116206 0.27503932 0.29846153 -0.027602484 -0.43450814 0.18818721 0.17297338 0.17267618 -0.022794155 -0.27796152 -0.46842432 0.40998206 -0.07126988 0.15851417 -0.38245517 0.5297503 -0.20301737 0.20380987 0.5472573 -0.24956964 0.49064818 0.33921754 -0.1100607 -0.10462062 -0.34514335 0.010928261 -0.094365105 0.029276747 -0.27993268 0.47666106 -0.0034331095 -0.026920704 0.14227661 0.5763801 0.37485322 0.015804932 0.68884647 0.31151462 0.10939238 -0.033702247 0.43140396 0.3779033 0.19530676 -0.45359546 0.23976283 -0.24926044
match -0.030581495 0.2812218 0.30135795 -0.06435931 0.12905793 -0.7566224 0.16503924 0.67688406 -0.3238701 -0.20119677 -0.09172584 -0.85368305 -0.13972266 0.27308834 0.20967753 -0.24792606 -0.14613077 -0.20219289 -0.020903043 -0.7527799 0.2175222 0.14440586 -0.006103275 0.006738648 -0.069749646 0.04486437 -0.26148266 -0.32325834 -0.37110147 0.07597758 0.39862335 0.091363885 0.11177861 -0.254376 -0.1824986 0.4126903 -0.10023778 -0.37584424 -0.12146969 -0.6948437 0.11728301 -0.47375965 -0.1725699 0.12667845 0.3413761 -0.19632305 -0.2390193 -0.0047748047 0.23663247 0.18718813 0.2805401 -0.33013883 -0.045606636 -0.15840541 -0.08857979 0.25833794 0.31169978 -0.090743594 -0.35000315 0.17565411 0.1742033 0.11111153 -0.082351245 -0.2438999 -0.4822314 0.40684336 -0.013809992 0.13420925 -0.44422552 0.6288888 -0.24555111 0.12508525 0.5659551 -0.22022916 0.45785707 0.34738144 -0.11698983 -0.09325508 -0.2890637 -0.008936037 0.004967022 0.014616378 -0.21617441 0.46706995 0.05508654 0.03904988 0.06304967 0.4716343 0.38493904 0.010280866 0.65739495 0.26468346 0.18137787 -0.07305015 0.37492 0.28531078 0.14835873 -0.42026958 0.18585868 -0.27935642
onli -0.008392586 0.26164973 0.31772 -0.077151254 0.07930402 -0.8040536 0.19409807 0.76576865 -0.32816452 -0.24665281 -0.10710971 -0.9074152 -0.1839751 0.23380658 0.1583115 -0.26597324 -0.16281113 -0.2658369 0.0036656717 -0.85167235 0.26068532 0.16234191 -0.043158043 -0.036132738 -0.09659507 0.070661955 -0.3240804 -0.37088013 -0.3631296 0.047779653 0.462786 0.11770555 0.13496277 -0.23640306 -0.19299787 0.44091624 -0.13033296 -0.405844 -0.13800934 -0.8344431 0.12565988 -0.4598621 -0.15766111 0.11971276 0.35487553 -0.20431504 -0.24135046 0.04513074 0.25270078 0.25250706 0.24679084 -0.37395266 -0.06517833 -0.1828324 -0.08794915 0.2869025 0.31865048 -0.04840924 -0.41790614 0.16639869 0.1854418 0.16558866 -0.059309408 -0.27926028 -0.4905326 0.43575752 -0.04582229 0.13951226 -0.4292845 0.58850414 -0.2551782 0.18418442 0.5847813 -0.24984719 0.51204777 0.35026133 -0.13359894 -0.12054016 -0.3376777 0.02081621 -0.022700403 0.038595833 -0.2690273 0.52064663 0.034493174 0.009955829 0.12538499 0.5660987 0.38993606 0.023756618 0.7030842 0.3071979 0.12557854 -0.05018728 0.43144295 0.36554188 0.18555051 -0.46910086 0.2333913 -0.27878904
