2738 100
model -0.82260716 0.5705926 0.0049592047 0.64244366 0.23118617 -0.8619722 0.7345477 1.3063313 -0.84246427 -0.8577506 0.53452545 -0.8277659 0.23827377 -0.113509744 0.5074029 -0.66421753 0.66629404 -0.5189932 -1.1310155 -0.6727589 0.3491227 0.54117477 0.3064065 -0.5028089 0.5703157 0.079310626 -0.04112907 0.13350308 -0.8619677 0.312146 0.22472174 -0.053258132 -0.34535503 -0.112722926 -0.42259452 0.86959517 0.85599446 -0.41048038 -0.53172934 -0.46915168 -0.84384656 -0.07519256 0.3017554 -0.5052833 0.61083364 -0.3418863 -0.10202388 -0.037159633 0.17037426 0.82309407 0.1722601 0.18463261 -0.47707126 -0.17123166 -0.18797831 -0.22903931 0.3700747 0.24746265 -0.45073333 0.52433836 0.12661159 -0.012254386 0.8923458 -1.0468496 -0.9329204 0.17511892 0.5128043 1.0619038 -0.7405403 0.6363572 0.6370917 0.021869194 0.12151803 -0.48487157 -0.1742386 0.10071368 0.105915934 0.53193575 -0.6691332 -0.053476762 -0.83887017 0.54064995 -0.104476385 0.8738846 -0.25675514 -0.2865926 0.29726392 -0.50196534 0.600049 0.25627592 -0.19970839 0.118372746 0.010563115 -0.08183147 1.3537827 0.38260046 0.54097015 -0.7536021 0.6249571 -0.34536606
we 0.016163357 0.25834057 0.43287838 0.57423204 0.60799134 -0.60404605 0.27644682 0.931629 -0.3824966 -0.2451974 -0.11254335 -0.72942173 -0.22306164 0.6496824 0.08995163 -0.2357727 -0.16475254 -0.15900762 0.1919059 -0.98492754 0.5863811 -0.17682815 0.6897103 -0.32849535 -0.27804098 0.5179194 -0.2783993 -0.22763632 -0.00572402 0.46101755 0.7275345 -0.32453573 0.6661127 0.28942782 -0.048098564 -0.0012673796 -0.0074917627 -0.09485127 -0.31197163 -0.41509268 0.64570624 -1.0736165 -0.62056834 0.31326315 -0.36153492 0.088461645 -0.4929392 -0.12846938 0.36686394 -0.42822212 0.60516524 -1.4651349 -0.29453182 0.3165922 -0.42026073 0.49383307 0.030935295 -0.23515357 -0.8877123 0.50310534 -0.11591015 0.11123434 -0.16143951 0.007870807 0.08018492 0.38826105 0.29977688 0.36869016 -0.37445587 0.90784186 -0.21904211 0.20917699 0.5687798 -0.008292083 0.877111 -1.0606458 -0.45804867 -0.23981826 -0.026848149 -0.5536624 -0.60759896 -0.64086676 -0.9778785 0.4931169 -0.08566588 -0.13968682 -0.17297593 -0.50353175 0.6574105 -0.68723804 1.0080278 0.2336727 0.3796665 0.10075392 0.5595067 -0.29994494 0.37497056 -0.21515362 -0.35491192 0.033142656
languag -1.1085912 0.8720259 -0.3695693 0.626068 0.34855548 -0.3048378 0.80261457 1.2138543 -1.0852399 -0.89518434 0.6258548 -0.9755686 0.75891125 -0.2982859 0.93712085 -1.0460006 0.9708907 -0.19924694 -1.4759989 -0.49539185 0.22314987 0.5754978 0.1581568 -0.4792317 0.84243274 -0.36893222 0.6959418 0.12763877 -0.8661059 0.3574034 0.34196278 -0.26275992 -0.5795762 -0.13179028 -0.68042743 0.9311214 0.7495507 -0.3158801 -0.2714861 -0.8674703 -0.9420646 0.14644954 0.46189225 -0.50233465 0.79274863 0.18833508 0.16008525 0.024069596 0.020523058 0.9139936 0.52564335 -0.27644506 -0.8628795 -0.70453393 -0.5635247 -0.085917175 0.690949 0.20214471 -0.8620077 0.45195442 0.40463278 0.0010248612 1.3284507 -1.0932994 -1.3508257 0.43103775 0.3447064 1.467811 -0.9362309 0.964378 1.1993365 0.12533298 0.32099074 -0.41606534 -0.29344562 0.27740863 0.40718123 0.6095873 -1.1039052 -0.03693207 -1.1459152 0.080495514 -0.77384883 0.95991606 -0.11503038 -0.6867397 0.17737588 -0.68796736 1.1532956 0.22587161 -0.18274312 0.37578896 0.24222238 -0.21868949 1.7214941 0.76131266 0.7753448 -1.1035632 1.190054 -0.5827811
larg -1.2105331 1.0041124 -0.038087506 0.7830168 0.30377638 -0.7675515 1.1221364 1.6318429 -0.8106441 -1.1949238 0.8517619 -0.89619946 0.4579534 -0.3332138 0.8859628 -0.941995 0.84366655 -0.6229797 -1.2794162 -0.1986213 0.31524357 0.5220476 0.40110654 -0.09650632 0.35438213 -0.19372077 0.33816501 -0.05712233 -0.7611233 0.18379577 0.1703247 -0.1593849 -0.38263655 0.092921965 -0.18541119 1.0970979 1.1232994 -0.65181476 -0.7285511 -0.48691127 -0.50553393 -0.01568937 0.51927865 -0.7034205 0.7955492 0.079558045 -0.060263716 -0.20096701 0.3468867 0.7650006 0.51896906 -0.025954029 -0.72644657 -0.5476537 -0.21938035 0.061978325 0.5888463 0.44063517 -0.47662878 0.62666935 0.30190316 0.3208776 1.2024906 -1.2650769 -1.0605088 -0.03152451 0.36329058 1.3172567 -0.91522586 0.7127628 0.83158207 -0.15237758 0.3846909 -0.1969374 -0.25442266 0.02064736 0.071182236 0.4938857 -0.958105 -0.059901845 -1.2401626 0.5327983 -0.2459033 1.0472276 -0.22683023 -0.5004696 0.47184542 -0.45979998 0.78325623 -0.032039948 -0.28891736 0.18999785 0.01753226 -0.19390117 1.454668 0.393634 0.64109594 -1.1935303 0.6980727 -0.50502896
learn 0.13889477 0.114840314 -0.38094863 0.039531168 0.35548913 -0.7793357 -0.62404126 0.58467203 -0.043137267 -0.09847602 -0.6305912 -0.78930044 -0.0006982706 0.4014434 -0.5897679 -0.27906612 -0.46914694 -0.45556352 -0.7155055 -0.49130988 0.6289059 -0.01997379 0.59862596 -0.169246 -0.38671064 0.06007537 -0.37908867 0.03491302 -0.53482264 0.017510097 0.5751462 -0.37428993 0.34092295 -0.3407881 -0.2677583 0.74579895 0.39173955 -0.2174289 -0.5661007 -0.53204423 -0.20845693 -0.15837237 -0.20636767 0.14708996 0.31115863 -0.75406986 0.17516115 0.175684 0.06476029 0.49637756 -0.05937825 0.054896794 0.38101274 -0.30080527 0.10866306 -0.24836344 -0.26650295 -0.61767066 -0.9031964 -0.38280886 -0.044508547 -0.2589002 0.17877345 -0.5649307 -0.43969128 0.23409227 0.3056017 0.3146083 -0.21665902 1.0022635 -0.6147932 -0.38381487 -0.016764991 0.2294756 0.628395 0.5761835 -0.4625484 0.09310133 -0.004930414 0.2276267 -0.54329675 0.51233494 -0.7452975 0.5284494 -0.51556754 0.089793965 -0.29560265 0.6867329 0.36178604 0.46553722 0.15971842 -0.38204738 0.33252937 -0.06045952 0.5727551 0.23241122 -0.050734293 0.19334634 -0.30369437 -0.116872765
generat -0.84158945 0.10092144 -0.051935147 0.03906856 0.06973828 -0.74832505 0.5662756 1.4140257 -0.41753423 -0.7545698 0.16030258 -0.87766623 -0.06443367 -0.32142293 0.24497387 -0.5639171 0.42529225 -0.7374237 -0.5791859 -0.4773491 -0.078139916 0.2901867 0.077389635 -0.53409564 0.3487324 0.0101803355 0.04064819 -0.15920721 -0.92128855 0.30494165 0.6140193 0.19885473 -0.20602483 -0.11993754 -0.61816424 0.9203838 0.22933029 -0.17196919 -0.3548971 -0.1494624 -0.25369656 -0.04239118 -0.07118081 -0.18160725 0.6874663 -0.36531818 -0.006465659 0.15336387 0.049773134 0.704202 -0.047996823 -0.05945297 -0.11623519 0.17237757 -0.53393155 0.16702114 0.06008935 0.15026696 -0.05719986 -0.037448954 0.33038044 0.22329965 0.713203 -0.5158256 -0.7418774 0.23868115 -0.10050043 0.29099828 -0.6607432 0.029510697 0.3496021 0.5043652 0.2428734 -0.75923437 -0.005746199 0.25391167 0.055946108 -0.0969407 -0.552802 0.58681715 0.28293234 0.042452373 -0.24878909 0.557068 0.1415741 -0.13541085 0.020164754 0.07864493 0.651387 0.19051881 0.08760472 0.09527942 -0.1725863 0.03998033 1.3147674 0.56093264 0.53776664 -0.5944094 0.5614475 -0.31036547
our -0.24331999 0.12591644 0.8774179 0.06813178 0.038086943 -0.36976415 0.47753385 0.39576584 -0.64045566 -0.08494165 0.20648123 -0.3085215 -0.48476398 -0.040544245 0.68270415 -0.24716358 -0.14136456 -0.120685115 0.5582862 -1.0149859 -0.08820708 0.2153684 0.26290008 -0.44432735 0.49445626 0.9195508 -0.6308345 -0.19252928 0.26083958 0.2508536 -0.021288553 0.5602238 -0.02930804 0.29333743 -0.25412333 -0.40956798 -0.40129805 -0.40080196 -0.463636 -0.94728464 -0.051134035 -1.1071957 0.14805181 0.23931988 -0.06345726 -0.4658195 -1.3737595 -0.79557216 0.100953735 -0.031596716 0.482581 -0.45912018 -0.7402476 0.46183968 -0.42168662 0.029268404 0.71023035 0.25677112 0.039357625 0.49431273 -0.18366575 -0.019478958 -0.22208202 -0.2823792 -0.28790003 0.30682397 0.7502972 0.6952007 -0.8504341 0.15284239 -0.16032042 0.9648508 -0.2710551 -0.110785566 0.5932155 -0.7359397 -0.035116844 0.13333374 -0.59894025 0.019882103 -0.3272752 -0.07098423 -0.07998356 1.1144772 0.05286128 -0.52086556 0.20477052 0.11510638 0.074161574 -0.30960852 1.0696841 0.8190313 -0.352451 0.36477318 0.8050192 0.33946127 0.89934456 -0.58246464 0.438352 -0.24784358
data -0.26514587 0.062289055 0.06608858 -0.03586186 0.13686594 -0.67988455 0.22735307 0.7060884 -0.1505218 -0.23195079 -0.27067193 -0.64413476 -0.27073225 0.039608277 0.22705352 -0.3052433 -0.13779718 -0.40494058 -0.1713808 -0.70379454 0.051927183 -0.023375528 0.108228914 -0.42795315 -0.056740236 0.17197184 -0.14634372 -0.19129431 -0.50849843 0.16682893 0.57351106 0.25716034 0.13426758 0.1225492 -0.23358664 0.30019838 -0.03577702 -0.099091254 -0.29382575 -0.30275923 0.10845959 -0.2111066 -0.29898044 0.11267004 0.39265922 -0.4021385 -0.21906745 0.014319571 0.1299657 0.37130013 -0.018330596 -0.18841377 -0.047869585 -0.11949856 -0.41768748 0.31776512 -0.23897 -0.21674526 -0.1570678 0.1103165 0.26479736 -0.025581878 -0.015676131 0.00634639 -0.34875843 0.16381314 0.2193754 0.11489154 -0.2387003 0.4447712 -0.3530693 0.25988102 0.030901026 -0.53420067 0.19988729 0.22249725 0.13346612 -0.38574445 -0.32078555 0.30466592 0.28314987 -0.16380027 -0.3865179 0.36782748 0.066300005 -0.034989078 -0.23006172 0.4268138 0.4696812 -0.06651341 0.42484918 -0.0032603834 -0.05744065 0.06455444 0.5604646 0.37321636 0.48861924 -0.37227485 0.0387511 -0.008283593
task -0.34410146 0.23540503 0.26142985 0.23789357 0.05890115 -0.5775086 0.46666026 0.5657953 -0.38893014 -0.1490957 -0.09120199 -0.4709661 -0.284597 -0.13172771 0.48454934 -0.22326031 -0.24007644 -0.2751561 -0.1682118 -0.7199917 0.028485546 0.16153719 0.09975844 -0.35692224 0.14796183 0.34076482 -0.29093423 -0.2229741 -0.004517775 0.16382633 0.34600374 0.29910466 0.1977577 0.35028633 -0.095521055 0.081646316 -0.007744669 -0.08704468 -0.3879658 -0.62442535 -0.0032894404 -0.40251803 -0.030474443 0.07129253 0.1672948 -0.3485016 -0.60668045 -0.18665153 0.13083465 0.25429866 0.20362602 -0.14500545 -0.36520964 -0.17858021 -0.3119234 0.16941899 0.18798287 -0.11455927 -0.13911867 0.3805049 0.046198156 -0.057925586 -0.047176473 -0.23427731 -0.5499328 0.15903522 0.5258013 0.4487719 -0.49481374 0.5999308 -0.3563544 0.19367854 -0.21296214 -0.27312478 0.33104253 -0.14022525 0.060229894 -0.053695533 -0.47996613 0.04742445 -0.06307531 0.0058803814 -0.24715756 0.7427259 -0.06364753 -0.15547821 -0.09246878 0.27819005 0.31528538 -0.22343305 0.4105525 0.25556076 -0.10490349 0.11975977 0.61900413 0.31211033 0.50239277 -0.50323194 0.30858192 -0.07088013
train -0.8164919 -0.087653875 0.4350587 -0.07091434 0.27665085 -1.3879735 0.17073312 1.5033458 -0.35880193 -0.83379483 0.08882627 -1.1618387 -0.1920074 -0.16696751 0.24703436 -0.17394903 0.5729286 -0.79879105 -0.41501477 -0.9469173 -0.019060075 0.12760486 0.30313048 -1.1719334 0.46967775 0.8586672 -0.2983637 0.31819275 -0.8275557 0.8368801 0.6157557 0.23158376 -0.16827647 0.034415755 -0.96786606 0.9238312 0.30315542 -0.019501753 -0.5127789 0.18228243 -0.4781587 -0.60489416 -0.32100657 -0.259536 0.68253934 -1.1582305 -0.22229773 -0.0396552 -0.08421757 0.87785566 -0.12596394 0.19728759 -0.027018163 0.77632284 -0.6807653 -0.20272397 -0.4112548 0.08339698 0.04758212 0.2588625 0.41312948 0.018162793 0.95622534 -0.5377982 -0.5919108 0.20789863 0.43553644 0.0890133 -0.6938455 0.16953674 -0.008534067 0.5504913 -0.21426636 -0.87492764 -0.038641367 0.009142148 -0.18328905 0.097155556 -0.25019628 0.56644917 0.6438871 0.22416002 0.047025256 0.78897256 -0.04116221 -0.22293045 -0.046070468 -0.35001773 0.55247444 0.13038564 -0.21323378 0.05418264 -0.1828707 0.041643273 1.6912339 -0.093107924 0.9014199 -0.15282677 0.354952 -0.32587835
method -0.06219506 0.014186761 0.5657445 -0.0061733425 0.014954309 -0.66090894 -0.08300885 0.45870388 -0.46728197 -0.02927003 -0.2704826 -0.4423847 -0.27878207 0.033328265 0.22525038 -0.11024538 -0.48550367 -0.4305612 0.257476 -0.9392286 0.3338326 0.31087315 0.3626634 -0.4814945 -0.018127238 0.7557009 -0.7102574 -0.083203755 0.14283651 0.36557207 0.15736905 0.28324226 0.14404067 0.13713145 -0.13725378 -0.04338441 -0.26086038 -0.16673194 -0.4782467 -0.68092 -0.19804464 -0.9766911 -0.10684839 0.28007162 -0.108565666 -0.74009186 -0.93712276 -0.21086149 -0.08047218 0.06607081 0.20431244 -0.36915863 -0.121240616 0.31407613 -0.16489811 -0.08460711 0.29607514 0.030721594 -0.24005066 0.31791285 -0.36867934 -0.06826686 -0.33664814 -0.43873084 -0.2135267 0.36549821 0.6449956 0.58840775 -0.52192533 0.2820878 -0.3004741 0.48163325 -0.17570746 0.083373286 0.7858019 -0.41745618 -0.21960326 0.13738722 -0.1896792 0.002436717 -0.31978518 0.37436578 -0.2108667 1.0815939 -0.06729422 -0.1986289 0.027695578 0.14609738 0.2229927 -0.022925915 0.9712356 0.42575544 -0.1864996 0.2939146 0.60347897 0.09768357 0.54669964 -0.20005207 0.15291983 -0.17037775
base -0.06309692 0.061683588 0.062193144 0.087288834 0.29962248 -0.75224006 -0.17132503 0.8440757 -0.21006674 -0.25293005 -0.29395995 -0.67587316 -0.08872594 0.17272367 -0.26117843 -0.24942029 -0.18391262 -0.49248654 -0.51038235 -0.57126236 0.41739804 0.14449091 0.43465003 -0.39794543 -0.076373436 0.3075609 -0.4421381 -0.06871803 -0.45814893 0.22168145 0.3881728 -0.19464456 0.09872685 -0.1720967 -0.32410026 0.67624813 0.20220199 -0.20357 -0.5824659 -0.47929433 -0.22860084 -0.4089755 -0.15402831 0.13703008 0.25009912 -0.66489005 -0.13577235 0.012027855 0.078575686 0.36334804 0.02706354 -0.22822934 0.033655945 0.03981663 -0.25058457 -0.072356425 0.049607083 -0.21039042 -0.6657757 -0.006638729 -0.0979711 -0.06780822 0.20057352 -0.50857157 -0.43479437 0.32842743 0.34794173 0.34919822 -0.39140698 0.5438549 -0.3703445 -0.00081970164 0.08072836 0.030106049 0.49781168 0.17293704 -0.3821145 0.048772413 -0.16161491 0.1811977 -0.26847294 0.35797417 -0.5254526 0.6849265 -0.2575341 0.087322906 -0.18373486 0.25031543 0.41352293 0.26133505 0.26038092 -0.042792875 0.12437675 0.056632873 0.70703435 0.20926991 0.16153957 0.025476677 -0.05353422 -0.1603587
use -0.24790715 0.15456533 0.10011673 0.03280626 0.2292499 -0.66560763 0.12340419 0.8289691 -0.19957604 -0.27052736 -0.1660876 -0.6456475 -0.17638324 0.043184057 0.13060202 -0.33086076 -0.08482586 -0.3789683 -0.31778967 -0.62030274 0.11860522 0.087046236 0.19638449 -0.30555263 0.056069814 0.2681667 -0.27579397 -0.16248758 -0.4227537 0.14478967 0.3989069 0.05163125 0.09274127 0.011449767 -0.32645744 0.40684104 0.120597325 -0.2718804 -0.37193877 -0.50044703 -0.07929555 -0.28796357 -0.10241931 0.04850983 0.3200154 -0.48698273 -0.23455757 -0.1516967 0.1050317 0.3775173 0.048703462 -0.17771998 -0.25704476 -0.042253837 -0.26948246 0.10721844 0.031671472 -0.15612026 -0.30455086 0.1520986 0.11206975 -0.03495331 0.18809162 -0.28884813 -0.45043325 0.22159551 0.33928764 0.2540348 -0.4052548 0.47248825 -0.26476744 0.1945515 -0.0013809986 -0.29365957 0.29306513 0.15961605 -0.055829495 -0.121848166 -0.37844774 0.2421354 -0.050831582 0.053555228 -0.40238234 0.5658312 -0.11084786 -0.06771237 -0.14643742 0.34283274 0.38146994 0.0125452895 0.29377422 0.05965764 0.04134069 0.014241326 0.7174976 0.3255739 0.37221888 -0.28590864 0.10412581 -0.09454531
perform -0.590952 0.15287654 0.61247236 -0.026515208 -0.15021451 -0.62986535 0.3108312 0.34082013 -0.6034534 -0.10997458 -0.05496275 -0.24023347 -0.48086637 -0.29387388 0.81311804 -0.16602078 -0.28890806 -0.28741512 0.21805987 -0.909279 0.017762082 0.42027852 0.12742402 -0.5123136 0.40518337 0.83420306 -0.6664581 -0.06250067 0.18158615 0.38169813 -0.0077765873 0.72457963 -0.15200149 0.33654806 -0.13858613 -0.21924175 -0.35173 -0.17691164 -0.52367646 -0.7586085 -0.3887621 -0.8170582 0.18016304 0.033660423 0.18263444 -0.73673654 -1.1714239 -0.49152967 -0.025160516 0.27669302 0.3559618 -0.05701133 -0.48396516 0.11183354 -0.38099727 -0.0655016 0.5642064 0.22837134 0.1627595 0.6247016 -0.11676952 -0.102426514 -0.20856877 -0.51806533 -0.47881937 0.17939252 0.98643965 0.7507412 -0.6751342 0.28592938 -0.24035734 0.55482066 -0.5198421 -0.188026 0.42137256 -0.21128166 0.104788005 0.21827021 -0.6208832 0.096092924 -0.22327499 0.419637 0.11020836 1.3003342 0.07982499 -0.3876263 0.22969186 0.22737265 0.13305931 -0.077351 0.8767031 0.6601085 -0.4389989 0.2142998 0.7105575 0.34221825 0.9229478 -0.57955986 0.5319564 -0.11604531
from -0.22759078 0.06645629 -0.10809432 -0.016728975 0.13588023 -0.57316333 0.28274333 0.6610825 -0.115680076 -0.13738033 -0.28295305 -0.47905275 -0.37546104 -0.1546603 0.10602233 -0.30517942 -0.25275546 -0.4153965 -0.19446824 -0.57356733 -0.0037616147 0.07876191 0.006180615 -0.27057448 0.009078182 0.002028263 -0.29864198 -0.29005677 -0.45035765 -0.086545415 0.52876186 0.25140998 0.11194628 0.09059101 -0.17339315 0.42296073 -0.075005226 -0.14815758 -0.3721406 -0.52639455 0.08467144 -0.0010286835 -0.20433228 0.18665871 0.41717595 -0.35051942 -0.23563828 0.04023003 0.11402722 0.45020324 0.0029337567 -0.06951991 -0.08154595 -0.3036986 -0.40422532 0.27123 -0.0009597039 -0.22287449 -0.20647897 0.058808662 0.08331208 -0.002580446 -0.08887479 -0.11017256 -0.52083796 0.1378248 0.23009883 0.06375595 -0.24250688 0.4076745 -0.5099163 0.2040086 0.011447416 -0.44728994 0.27210686 0.40512997 0.12984577 -0.3823266 -0.4308906 0.3915687 0.22585547 -0.0090397885 -0.43726996 0.36681682 0.037480146 0.061393842 -0.26671338 0.7635788 0.41400984 0.0054147025 0.42382532 0.061159465 -0.021993347 0.11132153 0.5353801 0.6322918 0.36284456 -0.36874115 0.13896215 -0.016935064
can -0.3215938 0.056782458 0.15867394 0.0024577433 0.017281646 -0.55654156 0.22209474 0.5577016 -0.23762381 -0.12575454 -0.22079666 -0.46748853 -0.30823117 -0.04078427 0.2337571 -0.33003655 -0.28351986 -0.34098297 0.030289968 -0.6138126 0.10074754 0.16558674 0.14356329 -0.262054 0.049335495 0.27327335 -0.353105 -0.17772807 -0.31633922 0.013953077 0.3107432 0.2947008 0.021286301 0.18391149 -0.10950557 0.20897488 -0.14013092 -0.2353812 -0.45708147 -0.51721656 0.004537014 -0.3001151 -0.13002338 0.11764858 0.3085082 -0.40044388 -0.5334153 -0.16086753 0.09534781 0.20591128 0.15688832 -0.210419 -0.16238983 -0.07345822 -0.37494764 0.1787004 0.19728513 -0.07454528 -0.10341297 0.24528174 0.002526292 -0.0025773542 -0.112499125 -0.25737906 -0.42275658 0.16127777 0.36455324 0.32628927 -0.35957417 0.3343616 -0.32992136 0.34401834 0.04215702 -0.3084753 0.3705289 0.14254645 0.05602195 -0.21158002 -0.4259171 0.22708802 -0.04263686 0.0154854655 -0.30998862 0.6088593 0.08491147 -0.05323881 -0.1224952 0.4277684 0.3354969 -0.009114864 0.5804404 0.2872062 -0.10148028 0.08429639 0.48208237 0.483088 0.45597544 -0.35032776 0.20090367 0.029953688
propos 0.23902595 0.06287916 0.5531218 0.4280116 0.47975108 -0.6550425 -0.15642285 1.0215001 -0.3211801 0.003588223 -0.40335774 -1.2393377 -0.062978804 0.73879987 -0.48464435 -0.12584297 -0.57133245 -0.53608644 0.12853673 -1.1057066 0.9942301 -0.05671936 0.76718193 -0.07834998 -0.67512876 0.9257328 -0.07939578 -0.38797316 0.0570946 0.42676374 0.76977646 -0.45437172 0.786319 0.107050434 -0.25555345 -0.08576274 0.20307279 -0.09947575 -0.65301836 -0.61155534 0.3851676 -1.3851346 -0.6088612 0.33611292 -0.62235147 -0.34480006 -0.551953 -0.17690147 0.36388865 -0.3374852 0.2836945 -1.3487428 0.015434932 0.6577825 -0.28184435 0.11729534 -0.049609683 -0.61994874 -1.2353723 0.25071728 -0.005009287 0.0005436896 -0.054894045 -0.10258594 0.12045479 0.44190872 0.18060316 0.676435 -0.4112662 0.8852025 -0.21163432 0.19056822 0.2940316 0.18076771 1.1473371 -1.0997483 -0.6036802 -0.06283906 0.3518087 -0.41532034 -0.71901435 -0.43858734 -1.2137064 0.65963644 -0.531354 -0.16048749 -0.3471985 -0.49909407 0.40446597 -0.37191743 0.96591717 0.21162698 0.3475528 0.42592835 0.59984374 -0.46679083 -0.07385613 0.055264805 -0.44135734 0.08187497
approach -0.0015663592 0.08104317 0.4116622 0.06660311 0.19232154 -0.6282581 -0.08489786 0.59518284 -0.34439364 -0.08839034 -0.2765187 -0.5735396 -0.14636408 0.24271482 0.08751697 -0.22464913 -0.38352695 -0.41084522 0.1395012 -0.84016657 0.4016817 0.1689208 0.41623595 -0.3679038 -0.11258311 0.57526404 -0.5336631 -0.16573364 -0.07267006 0.27165943 0.30613896 0.011001981 0.22463177 0.034008693 -0.16982567 0.09054981 -0.119492784 -0.19571695 -0.43210024 -0.62960494 -0.04635767 -0.8282918 -0.17861359 0.25073645 -0.109057814 -0.5826455 -0.6264326 -0.2226954 0.08093536 0.031130081 0.21933222 -0.51026666 -0.1118501 0.28051937 -0.10525433 0.009937181 0.21629807 -0.09406965 -0.45478985 0.19446531 -0.25019982 -0.030557593 -0.20715983 -0.34188244 -0.13377726 0.33677042 0.4348033 0.4900972 -0.42799512 0.39153653 -0.24398078 0.3013998 0.06931849 0.051974263 0.7385164 -0.3698999 -0.27337795 0.060946308 -0.12124132 -0.0072907126 -0.42288873 0.14434607 -0.4365385 0.82401204 -0.11560143 -0.14296031 -0.042486288 0.15487312 0.3237873 -0.040612746 0.83790725 0.2816534 -0.01452172 0.20026869 0.5721916 0.108679675 0.32717997 -0.12912214 -0.017063815 -0.13269159
dataset -0.18048182 0.1765489 0.44795948 0.07064022 0.019162081 -0.3893067 0.756439 0.6502232 -0.38122904 -0.10213929 0.03840939 -0.17707023 -0.56692415 -0.095202506 0.8233802 -0.2568643 -0.13093932 -0.049937334 0.4811757 -0.9626718 -0.3095997 -0.033957213 -0.0859332 -0.31545404 0.3269717 0.38364777 -0.3950147 -0.40765783 0.039701965 0.053935565 0.34157264 0.55050915 0.1465561 0.37102607 -0.11742602 -0.35433835 -0.4569159 -0.22092514 -0.10576374 -0.7889876 0.34229314 -0.5815663 -0.06443681 0.40114173 0.08060844 -0.11521545 -0.9247336 -0.49939477 0.30197152 -0.045287397 0.28395253 -0.5141163 -0.8317321 0.0948201 -0.49235445 0.5517556 0.3504304 0.015103366 0.13409996 0.3968299 0.08454115 0.11100673 -0.35166678 0.26954553 -0.23902105 0.27323112 0.4813841 0.27335218 -0.56867146 0.15444992 -0.23584822 0.8711521 -0.040132124 -0.5016413 0.44671944 -0.38116634 0.25558034 -0.29223534 -0.6317526 0.044997513 0.21990529 -0.5765035 -0.18810824 0.59051156 0.2615411 -0.3590749 -0.06779631 0.5553882 0.21593936 -0.6287206 1.0330244 0.6336367 -0.201128 0.28683057 0.55267614 0.5397729 0.7105741 -0.8699276 0.3032835 0.038379975
evalu -0.38648996 0.42991078 0.36319104 0.43890426 0.15531889 -0.31616092 0.7517557 0.8016224 -0.63506246 -0.37861645 0.29514918 -0.5000679 -0.10008873 -0.054750703 0.64424986 -0.4479974 0.16708748 -0.16856036 -0.08808419 -0.74451494 0.13501932 0.23327476 0.1836217 -0.2162073 0.27397865 0.3304621 -0.011173268 -0.2515782 -0.07111836 0.22319838 0.24348041 0.118630454 0.034009077 0.25946978 -0.20212214 0.014824017 0.037708465 -0.26797637 -0.30982655 -0.6891615 -0.006760168 -0.5091036 0.10451089 0.084074564 0.018965896 0.03588408 -0.6226501 -0.34797853 0.22362971 0.007228603 0.4234062 -0.58837503 -0.6791594 -0.006879526 -0.43355387 0.23773766 0.45639962 0.13033465 -0.3032235 0.5313155 0.09559037 0.112682916 0.23903705 -0.28348848 -0.4237477 0.22676957 0.37307262 0.8045506 -0.6806159 0.4082105 0.2685189 0.5372357 0.14170532 -0.27163106 0.32908577 -0.51618445 0.11776556 0.14493077 -0.55386746 -0.20929445 -0.5272897 -0.29202583 -0.38633654 0.7260317 0.0016982345 -0.41356882 0.11194436 -0.24817161 0.38588515 -0.42532077 0.59357476 0.55045754 -0.05729629 0.20185277 0.822373 0.23227465 0.5099097 -0.7222677 0.4614753 -0.12719272
which -0.24275897 0.074069746 -0.11490026 0.11086246 0.2396018 -0.6732046 0.048616078 0.73818636 -0.10439575 -0.21656296 -0.34882364 -0.66236967 -0.14775631 0.09869424 -0.10149842 -0.36792275 -0.2544182 -0.48364174 -0.35366717 -0.49533808 0.32062972 0.08218526 0.26504263 -0.23333625 -0.19087169 0.063473165 -0.23016825 -0.18403916 -0.5618115 0.057289414 0.56025314 -0.031223342 0.16391562 0.027757857 -0.11924378 0.57572484 0.14351986 -0.14320798 -0.48202366 -0.3703277 0.039428595 -0.13904202 -0.32328057 0.06444649 0.34603417 -0.38052303 -0.085586995 0.10625808 0.13701883 0.343437 0.07201581 -0.32486108 0.07152569 -0.18530093 -0.3089284 0.19396994 -0.099260055 -0.28169426 -0.51192266 0.08069614 0.053307727 0.027617825 0.06242776 -0.3062056 -0.46730947 0.17021342 0.15456137 0.14512722 -0.1886075 0.57678354 -0.39475676 -0.042084027 0.19137372 -0.26281023 0.35224062 0.26436952 -0.094251536 -0.28877044 -0.23712401 0.19644064 -0.10053483 0.063933395 -0.6114518 0.40752143 -0.10297578 0.12987678 -0.27305922 0.34514692 0.49855933 0.13112503 0.3150309 -0.07441714 0.1279158 0.024466027 0.51593024 0.3005706 0.21238922 -0.13050745 -0.053278755 0.0031572275
demonstr -0.3795709 0.31899732 0.84961456 -0.007720574 -0.04805463 -0.46501166 0.436125 0.40081653 -0.6701981 -0.0884721 0.16261522 -0.3658786 -0.4175514 -0.19870347 0.9061875 -0.24791086 -0.14872143 -0.27306348 0.3753333 -1.018754 -0.17560561 0.30153698 0.02818027 -0.48446584 0.4341725 0.8824966 -0.5104259 -0.2500341 0.45648184 0.35905606 0.09825193 0.63149697 0.083602585 0.37270176 -0.36437052 -0.50648856 -0.29666013 -0.2990986 -0.33160576 -1.0481449 -0.1652621 -0.9220733 0.3238734 0.13845395 -0.15006198 -0.5639129 -1.3435566 -0.79067796 -0.036285922 0.26617843 0.3888016 -0.12533931 -0.7824489 0.3874212 -0.22923096 -0.022644347 0.6489728 0.30733344 0.1126992 0.50626636 0.0020236436 -0.043375295 -0.22735015 -0.32889017 -0.31149566 0.12917256 0.85530764 0.7330851 -0.84720546 0.30168235 -0.15004438 0.8753042 -0.58813685 -0.36020637 0.5341728 -0.6894285 0.14382179 0.21994412 -0.7484193 0.16378324 -0.22592966 0.14985058 -0.074622825 1.2568778 -0.10395883 -0.62082016 0.13854636 0.29886892 0.08868908 -0.20128477 1.0136747 0.66793793 -0.50953776 0.32565716 0.9386149 0.37801838 0.8811603 -0.6336397 0.56816983 -0.2659352
effect -0.14803521 0.16484058 0.3455513 0.10889649 0.19954714 -0.59118044 0.1583675 0.50819093 -0.29718474 -0.13587356 -0.17575647 -0.5753858 -0.2575449 0.1735848 0.27996585 -0.23739225 -0.3204424 -0.27873373 0.13757016 -0.7596617 0.15247843 0.08718298 0.2097063 -0.3053832 0.027848244 0.48022047 -0.37478596 -0.2069019 0.04984863 0.18064402 0.34319893 0.16231322 0.29476476 0.22991557 -0.18775028 -0.018422892 -0.057039734 -0.19376804 -0.36475682 -0.66577494 0.14137459 -0.6355487 -0.18504626 0.09430044 -0.04158994 -0.38829058 -0.6546558 -0.32476848 0.11144085 0.14263223 0.23827432 -0.4720654 -0.2932479 0.12851349 -0.16473974 0.18892646 0.15491891 -0.12661001 -0.2744328 0.29021528 0.0016352902 -0.052542195 -0.13708365 -0.21501523 -0.2597172 0.18056972 0.3934214 0.3193027 -0.44486988 0.5891245 -0.3329694 0.27608082 -0.10790271 -0.22796114 0.5188693 -0.35154006 -0.08840252 -0.15169853 -0.37270546 0.09371975 -0.2381092 -0.04495004 -0.4893626 0.70369077 -0.09222791 -0.19797654 -0.12703492 0.23955844 0.39505622 -0.16146177 0.65794754 0.19562502 -0.05548281 0.14331985 0.6099834 0.16253042 0.47209063 -0.26596603 0.09856847 -0.077651605
improv -0.61208576 0.111283064 0.5249249 -0.014855574 -0.14648542 -0.62235117 0.21091425 0.33476543 -0.52185225 -0.13487855 -0.069551066 -0.4413244 -0.22581866 -0.18491574 0.655981 -0.34716356 -0.23954523 -0.44452578 0.112924084 -0.75452673 0.16823332 0.42776087 0.14399701 -0.4764381 0.2666885 0.68902 -0.4527533 0.0067140986 0.10741254 0.28819364 0.06157666 0.6276712 -0.22994503 0.2794237 -0.15116248 -0.13155025 -0.076891944 -0.20228289 -0.5975813 -0.63237166 -0.36666843 -0.63257027 0.17671794 -0.26724237 0.15978934 -0.70546544 -1.0510697 -0.41855362 -0.102256134 0.3674225 0.26507783 0.003080896 -0.19552654 0.12591359 -0.22614144 -0.14525668 0.5325967 0.266869 0.17084888 0.53981084 -0.055563465 -0.1717807 -0.081434794 -0.678343 -0.56917185 0.091800354 0.7814779 0.6827776 -0.63202393 0.49042895 -0.07427473 0.39215916 -0.3965641 -0.26252705 0.3653605 -0.19933343 0.12878461 0.167022 -0.6101222 0.2180423 -0.40124372 0.5213128 -0.06668893 1.1311204 0.031282153 -0.31918105 0.059059374 0.16833176 0.23803003 0.13722053 0.7629774 0.43964076 -0.33137906 0.17574047 0.70418376 0.37290928 0.8086118 -0.43703207 0.5729359 -0.18014167
proc -0.51163846 0.33643204 -0.20018877 0.29469535 0.15605338 -0.6165329 0.3841869 0.9378296 -0.34866196 -0.4950181 -0.0061826394 -0.6798719 0.084495485 -0.013533132 0.17184585 -0.5206424 0.13151045 -0.4019246 -0.71484715 -0.3450977 0.18829904 0.22148217 0.17928298 -0.15001681 0.027911581 -0.19996852 0.023304459 -0.20296401 -0.65190184 0.0050576273 0.4944889 -0.061559495 -0.0027192414 0.0129490085 -0.17687638 0.6895437 0.43497556 -0.30110666 -0.38678294 -0.4135881 -0.16422386 0.10332505 0.010667748 -0.18615797 0.5114399 -0.103568204 0.047608566 0.049865644 0.25175235 0.4717249 0.19193229 -0.14769797 -0.24243926 -0.37622374 -0.20210601 0.16757789 0.17197813 -0.08944533 -0.4313821 0.17927477 0.19055428 0.1108733 0.42901644 -0.4879472 -0.69907564 0.1148213 0.09568111 0.43950465 -0.393539 0.62147623 0.04987749 -0.11344523 0.26680872 -0.2863635 0.12807944 0.29823425 0.055529464 -0.04902389 -0.47928405 0.1676929 -0.37514946 0.123201035 -0.5208187 0.53050095 -0.103784114 -0.07180167 -0.08592121 0.17662258 0.63193035 0.13900226 0.062114254 -0.04070949 0.11639594 -0.073171586 0.73685706 0.41969773 0.27372408 -0.46436432 0.2896835 -0.18160993
net 0.80359656 -0.54408735 -0.039838642 -0.6471016 0.24488454 -1.3350619 -1.5745384 1.0805137 0.48445183 0.1041331 -1.4189489 -0.30027935 -0.47780314 0.6248028 -1.5480813 0.2365903 -0.6147183 -0.43448156 -0.7281795 -0.6167033 0.41760984 0.10256833 0.49474284 -0.8242672 -0.503453 0.41601837 -1.8533338 -0.49717426 -1.0041217 0.2030726 0.6197043 -0.5777721 0.33499375 -1.0995111 -0.66962737 1.6755078 0.00851747 -0.22076921 -0.65192187 -0.80200917 -0.1184675 -0.268774 -0.42396528 0.6402622 0.41754702 -1.6703331 0.2083476 -0.18841434 0.394926 0.45614055 -0.40945363 -0.35801837 0.0043391124 0.32745984 -0.10488576 -0.25107843 -0.4640041 -0.8222797 -1.3011671 -0.9359571 -0.55007946 -0.022359254 -0.23631904 -0.40915948 0.07428172 0.7110627 0.48789632 -0.86618304 -0.41189992 -0.03014138 -1.7707908 -0.37852037 -0.16256583 0.27171078 1.1284796 0.7002335 -1.1854947 -0.2779081 0.24191053 0.94717324 0.46772707 1.0575458 -0.9051916 1.0773784 -0.7648063 0.3996598 -0.44487867 1.6987354 -0.06662864 1.1382371 0.2793551 -0.6445144 0.38514218 -0.13149118 0.21674898 0.22333238 -0.6188988 1.2979633 -0.90802586 0.13500588
challeng -0.1951709 0.22695294 -0.19159281 0.30561516 0.12877919 -0.46042952 -0.016467975 0.6536995 -0.12753658 0.029508268 -0.44948775 -0.7236094 -0.03325948 0.44440475 -0.08376069 -0.2931985 -0.51490515 -0.5469667 -0.067490414 -0.68437105 0.5238008 -3.9807397e-05 0.26558957 0.037490938 -0.694142 -0.054721348 -0.048930522 -0.42446166 -0.11514672 0.14879964 0.81434345 -0.020372357 0.59318954 0.24770793 -0.13039456 0.13736136 0.14318238 -0.028637176 -0.23394674 -0.5168891 0.5459858 -0.3985898 -0.4257825 -0.039402544 -0.15949918 0.17344171 -0.22707671 0.11959679 0.34211114 0.12581687 0.22449209 -0.89893454 0.07888209 -0.13674892 -0.049981337 0.48539302 -0.058802843 -0.5023582 -0.7995941 -0.066296905 0.15971646 -0.0072758007 -0.3048421 -0.054159205 -0.09892425 0.10502821 -0.060261287 0.2035761 -0.19089487 0.8885202 -0.24830498 -0.16183762 0.25580055 -0.20622166 0.76372457 -0.38017434 -0.07852482 -0.42751962 -0.13823685 -0.022034952 -0.38616082 -0.20294333 -1.158236 0.5146472 -0.16188379 -0.17641635 -0.34150115 0.30016774 0.56807685 -0.14374577 0.95404154 -0.055593986 0.1787117 0.097114235 0.2557483 0.06334678 0.027613146 -0.32123762 -0.15739255 0.17331088
result -0.32784492 0.19839092 0.76822734 -0.021890085 -0.08988819 -0.45297992 0.54972076 0.20151123 -0.58626 -0.005370463 0.025100349 -0.14775157 -0.5964282 -0.25320074 0.8951198 -0.28710186 -0.30110613 -0.23172927 0.5642134 -0.9439171 -0.26274237 0.39382607 0.016740426 -0.43026644 0.45841888 0.77040106 -0.8226896 -0.20450477 0.3045401 0.19858725 0.011814546 0.71157 -0.08046038 0.37983397 -0.136791 -0.50527674 -0.5468063 -0.22501482 -0.329043 -1.0235674 -0.15373845 -0.8759982 0.11677029 0.20971951 0.0016558832 -0.57374907 -1.4728516 -0.69800675 0.048478734 0.15277864 0.38612154 -0.23220867 -0.6863629 0.18923253 -0.29329544 0.12598583 0.69540024 0.32536885 0.30587718 0.619813 -0.22752354 -0.025429387 -0.4013061 -0.3531643 -0.3921411 0.1480484 0.8365937 0.5947274 -0.7715562 0.10081678 -0.28429192 0.94788617 -0.39417374 -0.31657562 0.51431286 -0.50926566 0.13744186 0.027179673 -0.7194555 0.06894741 -0.17351726 0.13852753 0.0691856 1.185495 0.22717454 -0.56811845 0.138843 0.45513618 0.15082057 -0.26238936 1.146328 0.8021313 -0.48587304 0.2666618 0.71464497 0.53857076 1.0368897 -0.6193278 0.50604916 -0.18208964
agent -0.4277139 0.45212895 -0.50807023 0.33674568 0.20687492 -0.43573654 -0.029391961 0.6733496 -0.32735407 -0.22705436 -0.13217205 -0.75420517 0.39842877 0.26454073 0.27694768 -0.52456945 -0.048951667 -0.58782685 -0.5288399 -0.4142642 0.47383612 0.36648336 0.31344226 0.067794174 -0.057102676 -0.28372258 -0.0053257435 -0.2749595 -0.4197104 -0.06894289 0.57174695 -0.23124342 0.16139898 -0.05227144 -0.29275292 0.41718003 0.43973616 -0.3256943 -0.37111908 -0.7665442 -0.112352476 0.074312106 0.12951568 -0.252179 0.143052 0.17774092 -0.03336587 0.028655631 0.1299548 0.48636377 0.15723531 -0.34237167 0.0426181 -0.34688625 0.17429364 0.10478739 0.2106834 -0.05484444 -0.7571106 0.0064075314 0.094346255 -0.017214885 0.17114508 -0.5204463 -0.4639624 0.097418495 -0.16560191 0.5466645 -0.36952013 0.87011087 0.28755227 -0.256486 0.38734126 -0.18841332 0.38195422 0.07088297 -0.13510157 0.056886915 -0.4932341 0.124297224 -0.8935431 0.16751581 -0.90204245 0.65013826 -0.23962307 -0.11267429 -0.11690989 0.3094602 0.6408203 0.15429154 0.38186914 0.005348368 0.0907525 -0.04308584 0.6248497 0.54825366 -0.10130427 -0.41255662 0.24237703 -0.08388434
human -0.6277513 0.3608086 -0.39908585 0.21638784 0.0711671 -0.376203 0.2737119 0.61466277 -0.4741591 -0.23089902 -0.07178142 -0.58327824 0.2115465 -0.1005579 0.48836806 -0.68753004 -0.08223983 -0.5581822 -0.32166445 -0.44492707 0.19815987 0.38404986 0.043258954 0.057613622 0.11587007 -0.2788189 -0.03294193 -0.25519404 -0.4677469 -0.22317518 0.39619792 0.18273148 -0.14309107 0.05511305 -0.058804702 0.26485187 0.20952812 -0.43796802 -0.22650418 -0.66587055 -0.17441882 0.1337635 0.15116772 -0.28037894 0.30185568 0.14364246 -0.25330135 0.068787545 0.057609655 0.37333378 0.15619093 -0.20055331 -0.09083879 -0.37482715 0.022843596 0.18913357 0.34979767 0.15683436 -0.22911082 0.22182967 0.09353154 0.048220076 0.12701792 -0.4736753 -0.5455617 0.041233677 -0.069901235 0.5384985 -0.3880578 0.553714 0.32560995 0.08736623 0.26572 -0.40998822 0.18763068 0.17459506 0.19983794 -0.109799035 -0.58288497 0.24519612 -0.6866984 0.09364542 -0.67612517 0.54546994 0.032276154 -0.1279565 -0.0646563 0.39459252 0.6394696 0.11281283 0.5460606 0.16407056 -0.058916464 0.06001616 0.6083519 0.7165489 0.25685245 -0.66573673 0.46703655 -0.13427953
introduc 0.15710406 0.15434933 0.28086704 0.5695058 0.49210015 -0.628823 0.10864111 1.1828886 -0.24256891 -0.1278811 -0.31988296 -1.212958 0.057087906 0.6998364 -0.483471 -0.3086492 -0.3957714 -0.43461594 -0.111813255 -0.96926785 1.0384307 -0.20681152 0.73611784 0.03296304 -0.66305345 0.56316465 0.18721616 -0.3732051 -0.21169284 0.26502585 0.84820986 -0.5833104 0.73242605 0.12701724 -0.10687593 0.10479998 0.3214759 -0.1428267 -0.6575258 -0.4256192 0.4869577 -1.0548092 -0.6482072 0.27676854 -0.4312545 -0.13514657 -0.16601264 -0.04135027 0.45883036 -0.38593972 0.32628202 -1.3532282 -0.05516979 0.36301142 -0.4232506 0.26432717 -0.10723663 -0.70327395 -1.3065003 0.31663784 0.12632135 0.027621504 0.1331991 -0.022863468 -0.06827534 0.4543279 0.07845698 0.61670905 -0.28398252 0.9891034 -0.14051987 -0.028039671 0.574986 0.07638904 0.9157112 -0.8015715 -0.51598114 -0.15547355 0.26180115 -0.44653612 -0.7321469 -0.688267 -1.2548194 0.35932934 -0.4379158 0.016206555 -0.4134206 -0.48096946 0.5592587 -0.5037246 0.67599523 0.110096164 0.57342374 0.26596457 0.49199572 -0.3810339 -0.19376439 -0.13383757 -0.46333995 0.19186924
optim -0.10273635 -0.06614134 0.11640569 0.005959244 0.20329073 -0.77573335 -0.31230977 0.43677393 -0.05594433 0.021071253 -0.53645897 -0.7055964 -0.22440222 0.25399113 -0.18900679 -0.1972682 -0.5806768 -0.4447716 0.0035985326 -0.65830857 0.41297105 0.13129663 0.41055647 -0.26608387 -0.2609947 0.4306344 -0.507607 -0.11012198 -0.3038471 0.1361106 0.46141684 0.08806732 0.26047206 0.09888481 -0.111829504 0.32340464 -0.052377164 -0.22432594 -0.5434112 -0.49577335 0.049369328 -0.5169597 -0.30497423 0.11466277 0.18648337 -0.58822423 -0.48038593 0.0028404624 0.021307034 0.12808569 0.11775706 -0.2878018 0.221093 -0.038997762 -0.24908769 0.08427754 -0.08698845 -0.29495 -0.45118755 0.17408866 -0.06805261 -0.09778412 -0.1886105 -0.271561 -0.26145568 0.18973918 0.34530696 0.168539 -0.1721186 0.6890151 -0.6353562 0.035778232 -0.018894987 -0.08037831 0.66350365 0.10279043 -0.2849218 -0.26105833 -0.07265615 0.19738787 -0.14587435 0.14300929 -0.59083533 0.5880091 -0.16623609 0.11571372 -0.30820912 0.37898383 0.3959867 0.13341488 0.6205377 0.020214334 0.017138375 0.091914095 0.38303965 0.13713239 0.19412439 0.09659108 -0.18443225 0.015344924
framework 0.08121538 0.14844252 0.11305679 0.27888408 0.4438344 -0.72865516 -0.16199856 0.87456703 -0.2567157 -0.2442153 -0.28806612 -0.8693904 0.01835756 0.50331426 -0.167578 -0.28395718 -0.21562995 -0.45602724 -0.22168075 -0.7595305 0.5834044 0.049204472 0.60250264 -0.29481333 -0.25995225 0.34305903 -0.27475834 -0.22285484 -0.3164283 0.2886003 0.6322417 -0.4110238 0.46405968 -0.053794112 -0.27134693 0.3672919 0.18072896 -0.21807641 -0.46991917 -0.5557538 0.12931733 -0.6257738 -0.32836276 0.1513671 -0.11180302 -0.36313152 -0.20947663 -0.07101323 0.2175478 0.042478114 0.18235444 -0.76495904 -0.0009670039 0.20305452 -0.1031134 0.09484244 -0.021229971 -0.29328758 -0.84906995 0.13093606 -0.07476896 0.0053871395 0.07975765 -0.2888774 -0.16591634 0.3521621 0.1780075 0.38982844 -0.38378644 0.7861644 -0.19833109 -0.02683257 0.34925434 -0.02736998 0.7143687 -0.3883935 -0.43122154 -0.027834387 -0.05497624 -0.08989983 -0.53245246 -0.07494149 -0.86073136 0.6088124 -0.2777763 0.0010162093 -0.22517394 8.251198e-05 0.55451167 -0.044671904 0.50796217 -0.017800078 0.27209678 0.059464287 0.6177623 0.030390259 0.04396803 0.030885112 -0.19338043 -0.087462656
imag -0.4644437 0.07059219 -0.045283776 0.07906894 0.034683656 -0.626733 0.5441356 0.97351766 -0.372272 -0.3875654 -0.14926258 -0.48173255 -0.3223201 -0.31434587 0.1345396 -0.5032598 -0.07695689 -0.59517694 -0.3915758 -0.3874989 -0.023079993 0.1764017 -0.024936011 -0.2973078 0.091644295 -0.009825352 -0.10467931 -0.26059383 -0.6116642 0.14292887 0.56792575 0.2823565 -0.05360134 0.015500737 -0.15469652 0.6026399 -0.032468695 -0.062409487 -0.44300854 -0.33979172 -0.1312598 -0.05953607 -0.21812163 0.070004776 0.5288678 -0.38557652 -0.19649737 0.19560902 0.02931219 0.45695853 0.019404622 -0.107051454 -0.11556505 -0.19847925 -0.49056083 0.24052854 -0.0021829952 -0.05073857 -0.060403895 0.09457376 0.0980223 0.17582947 0.15215486 -0.34102085 -0.7187232 0.20575255 0.11049661 0.14370854 -0.41969734 0.17502216 -0.15564273 0.3309056 0.05775542 -0.560374 0.18647972 0.2864362 0.07757218 -0.25743726 -0.40602207 0.3706113 0.3210096 0.0068505052 -0.29002914 0.41935202 0.21083468 0.08668059 -0.15119015 0.3369706 0.570388 0.07765341 0.2622704 0.060325757 -0.07690004 0.05516815 0.7833504 0.52067435 0.4422048 -0.4446981 0.4302358 -0.16716689
intellig -0.70197034 -0.30865255 -1.7115755 -0.65985304 -0.71325344 -0.8161695 -1.473247 1.5611113 0.4737018 -0.4956586 -0.44726467 -1.2162938 1.5308697 0.8437742 -0.36651087 -1.3068192 -0.83897257 -0.58351254 -0.58089954 0.477675 1.3815547 1.1070025 -0.29754066 1.2126142 -0.39154074 -1.5002809 0.38369074 -1.3098373 -1.1834738 -1.0683807 -0.16584206 -0.07803525 0.30110368 -1.0612563 -0.8179471 1.1624613 0.063613296 -1.4456339 -0.21653527 -0.9603815 0.81224036 0.915923 0.9720082 -1.2627262 0.6988718 1.0606334 0.26433414 0.04131362 0.13969538 0.1977758 -0.58035296 -1.049383 0.61117023 -0.46429282 1.3639668 0.18423198 1.3742769 0.08961742 0.022927864 -1.5773002 -0.09854976 -0.037917368 0.054736953 -1.2301614 -0.9977502 1.0223664 -1.4953252 0.6246693 -0.6775735 0.52077705 1.7973388 -0.44533437 1.4915439 -0.07916684 1.4244577 1.2989796 -0.08051014 -0.6096427 -1.4933006 1.7022703 -1.8033717 0.65901816 -1.49681 1.2773064 0.7466639 0.24105228 0.07130933 1.9768887 0.8531092 1.4148929 1.1254381 -0.2683717 0.62617016 -0.47528267 -0.027979331 2.0738714 -1.613119 -0.734998 0.30875844 0.5131009
signific -0.58237886 0.17889228 0.3569564 -0.003461551 -0.11796516 -0.61123216 0.14961997 0.2792875 -0.46939686 -0.23817335 -0.084970504 -0.30293483 -0.19136773 -0.146631 0.5387198 -0.2892135 -0.3602877 -0.42274517 0.06020485 -0.6533359 0.19911145 0.5133303 0.19156805 -0.45258477 0.13024125 0.45936 -0.43782333 -0.018155437 0.028865794 0.24334133 0.14155081 0.49530134 -0.05382362 0.22068624 -0.1384717 -0.060235586 -0.045714445 -0.15844473 -0.44334844 -0.6903553 -0.4141632 -0.5199899 0.07726545 -0.2302157 0.16687834 -0.426579 -0.8186793 -0.28654763 -0.027610332 0.48592398 0.34722024 -0.11365246 -0.24724324 0.04755912 0.04208729 -0.05081597 0.36966598 0.21890041 -0.112242535 0.3590453 -0.12297201 -0.0069585578 -0.15951724 -0.800385 -0.41341528 0.06718227 0.5519275 0.63383424 -0.56718427 0.4028864 -0.021455338 0.29736263 -0.2703765 -0.17667654 0.35755333 -0.25642508 0.0819589 0.066335015 -0.61998034 0.22105786 -0.5386714 0.582908 -0.26177287 1.1394944 -0.090074435 -0.46240738 0.15425287 0.12851812 0.35931095 0.26208958 0.8232974 0.32058483 -0.31184763 0.2098736 0.7542438 0.3238966 0.73903275 -0.36388814 0.37959614 -0.21750244
have -0.70026976 0.432797 -0.19942266 0.2790903 0.017969595 -0.5068783 0.15512094 0.906632 -0.401393 -0.5717242 0.21635202 -0.759724 0.28900442 -0.03248314 0.109909415 -0.46773276 0.14651036 -0.5287959 -0.88184613 -0.15344642 0.22982584 0.5108312 0.09163791 -0.15075406 0.1442808 -0.07763608 -0.18722874 -0.11470226 -0.6198108 0.033095587 0.15051597 -0.09623208 -0.08373676 -0.2942636 -0.5728493 0.9827775 0.75535595 -0.2525176 -0.47747883 -0.7014415 -0.6183157 0.17427461 0.38066408 -0.42931327 0.5730948 -0.2595828 -0.02957102 -0.017823076 0.28183842 1.0074599 0.1885661 0.08925763 -0.3722749 -0.30616122 0.07470553 -0.23167336 0.5344466 0.022923434 -0.59327614 -0.21651332 -0.03773546 0.13812946 0.5495113 -1.0572147 -0.6857381 -0.0070932284 0.17211877 0.8135869 -0.6091887 0.45474735 0.5007867 -0.07415962 -0.0024479278 0.073957525 0.34811816 0.29926273 -0.08220594 0.24060455 -0.5557764 0.33129406 -0.8802255 0.81995416 -0.49387532 0.93256974 -0.3321336 -0.56580436 0.2590706 0.19012897 0.44925308 0.6599633 0.12751628 0.11709637 0.06825831 0.025255052 1.1316757 0.6501549 0.3404711 -0.34094653 0.40568852 -0.3557806
transform -0.72905 -0.15655264 0.3373834 -0.20038287 0.3305295 -1.293224 -0.058447126 1.4878851 -0.3572918 -0.79572046 -0.019242616 -1.1481521 -0.15369485 -0.12568495 0.05917875 -0.13043089 0.52625465 -0.91237605 -0.62687725 -0.77781194 0.061897747 0.37877452 0.37136346 -1.169692 0.42065427 0.83383405 -0.44683623 0.12826855 -0.925813 0.85727024 0.6241625 0.06686878 -0.13334396 -0.26899984 -1.1518087 1.0852394 0.2627111 -0.01651972 -0.50791085 0.059969727 -0.6107472 -0.4773087 -0.16439474 -0.11678272 0.7024446 -1.1349403 -0.0093984855 -0.026689414 -0.07222389 1.0012262 -0.2462055 0.18624626 0.05623957 0.7516072 -0.5474209 -0.27058598 -0.31062204 0.17096463 -0.20230994 -0.09583894 0.2713588 0.04011401 0.8569006 -0.7077609 -0.53581315 0.2557442 0.21433558 0.14534491 -0.73175985 0.101691924 -0.03854247 0.47060025 -0.21206163 -0.7062895 0.08040189 0.12701729 -0.29906204 0.23115501 -0.35415134 0.67337614 0.54829305 0.5237806 -0.15308267 0.9579878 -0.21654749 -0.20860788 0.0864879 -0.2304949 0.43260515 0.44297585 -0.20307586 -0.10814338 -0.25695983 0.020524254 1.7064778 0.08026982 0.8038536 0.06327529 0.25062647 -0.42287087
reason -0.6697049 0.505406 -0.21517912 0.4998623 0.15601583 -0.45436126 0.4603523 0.75230396 -0.5743453 -0.45441872 0.11429643 -0.638227 0.13622117 -0.10549553 0.4583902 -0.59050417 0.06667407 -0.36021096 -0.69959176 -0.34891498 0.31132525 0.41783977 0.22234057 -0.10252671 0.1842338 -0.139378 0.03140343 -0.26261106 -0.27694896 0.10039915 0.35069424 -0.026459705 0.063153625 0.12680522 -0.1478051 0.5091315 0.4387794 -0.23880677 -0.46632478 -0.7701233 -0.22350146 0.033980228 0.2371535 -0.3206076 0.28956404 0.04595435 -0.2090957 -0.14080206 0.22793855 0.510213 0.33908525 -0.15413438 -0.30548415 -0.46047565 -0.09486206 0.05647709 0.39989778 0.08646545 -0.56417245 0.33711043 0.14323148 0.06226653 0.39958262 -0.74173635 -0.8045641 0.023279477 0.24248956 0.75781083 -0.5978884 0.85567844 0.24182522 -0.1647125 0.09535749 -0.24858825 0.16602938 0.0076539367 0.06243162 0.21379265 -0.6726718 0.010674206 -0.8017233 0.29524043 -0.5969181 0.81349677 -0.25120357 -0.2467872 0.09277163 0.009966368 0.6178736 0.111665726 0.12142489 0.07083902 -0.032451794 0.015755218 0.8076774 0.49977678 0.2550984 -0.56861633 0.48951203 -0.17507245
multi -0.22901906 0.20700657 -0.27461407 0.16620444 0.30757982 -0.697314 -0.20760433 0.64744055 -0.24842519 -0.2552112 -0.3084909 -0.9059955 0.034772497 0.30867895 -0.05748623 -0.41714275 -0.18764327 -0.5233579 -0.49196425 -0.43864092 0.6031377 0.16288164 0.47061527 -0.15245011 -0.21570505 0.1836661 -0.20742121 -0.18055822 -0.3364658 0.07386131 0.5332546 -0.25013936 0.31716728 0.09720454 -0.23363002 0.54137766 0.25485158 -0.13741945 -0.6692513 -0.53149927 -0.07387395 -0.1989276 -0.171997 -0.036968198 0.09523427 -0.3005631 0.023492793 0.044288367 0.10106916 0.37191117 0.04302638 -0.25626707 0.23725943 -0.15995881 -0.021516806 -0.006381329 -0.086440586 -0.31099054 -0.7432388 0.01507777 0.1402739 -0.07539486 0.13828239 -0.3627593 -0.50421077 0.18251857 0.106157266 0.32395443 -0.3078827 1.0161606 -0.21569933 -0.2754822 0.17372118 -0.19809891 0.4327341 0.1782666 -0.31638068 0.030283038 -0.30249164 0.025550427 -0.5077913 0.10425297 -0.8264341 0.60327697 -0.2180179 0.18903625 -0.25261727 0.25664625 0.5964662 0.09239834 0.16325398 -0.17130494 0.17712933 -0.05549668 0.6155284 0.26024216 -0.008666617 -0.03562394 -0.041803133 -0.054729354
system -0.3302732 0.112515084 -0.6545225 -0.05510548 0.026347011 -0.45228097 -0.44576764 0.5853771 -0.077707686 0.047257807 -0.56817126 -0.60609215 0.24738544 0.2790564 0.00810769 -0.5976121 -0.54541814 -0.70174336 -0.12261057 -0.3365853 0.42192546 0.39601263 0.13542533 0.18175735 -0.26522154 -0.4610616 -0.3699109 -0.57702404 -0.5887911 -0.42307904 0.5854027 -0.050302397 0.17899212 -0.29478586 -0.18947014 0.38085356 0.06910828 -0.41293752 -0.25523928 -0.90261436 0.12763715 0.23616095 -0.064278565 -0.18886478 0.16943404 0.17000663 -0.07867087 0.049271215 0.19706038 0.35163286 0.02547941 -0.58806926 0.23898815 -0.21764581 0.43320826 0.22562979 0.33685207 -0.124616235 -0.57834435 -0.36386907 -0.192245 0.09368198 -0.34858537 -0.44204938 -0.30138144 0.22912373 -0.46303922 0.1601478 -0.25080636 0.46079752 0.10732986 -0.10010294 0.5285719 -0.12253383 0.6361983 0.25373688 -0.13386187 -0.35053602 -0.39379454 0.4083927 -0.7661124 0.22507861 -1.0632423 0.58046407 -0.036518693 -0.0048868223 -0.18992367 0.9850792 0.57334584 0.43203476 0.8628899 -0.018787196 0.08717727 0.0497218 0.19220442 0.8524138 -0.35193706 -0.1870775 0.16113257 0.02653997
enhanc -0.5411952 0.24431343 0.041870166 0.1142982 0.17190154 -0.7480527 0.03466075 0.7060646 -0.34479532 -0.35253933 -0.11723079 -0.77629197 0.16938041 0.066239215 0.22209567 -0.55261225 -0.058163583 -0.48879048 -0.4538931 -0.51909155 0.37511855 0.27201104 0.25684 -0.35962895 0.10300718 0.22427312 -0.15349871 -0.0396755 -0.35166606 0.1395276 0.3026236 0.06732721 -0.096173085 0.008359239 -0.23459776 0.43166265 0.3291571 -0.29887515 -0.5581094 -0.57492036 -0.28805286 -0.25891238 0.037300218 -0.38564348 0.2926308 -0.5022213 -0.29294872 -0.21142426 0.03900546 0.4684495 0.13130799 -0.13520704 -0.048243918 -0.048525386 -0.06678036 -0.12804289 0.28038085 0.020049734 -0.35219136 0.27556312 0.07989989 -0.12110931 0.27114603 -0.74369216 -0.6580888 0.18552977 0.36607036 0.49277702 -0.4922459 0.7518491 0.09225047 -0.09799564 0.0360104 -0.15641858 0.21229447 0.044822294 -0.051608805 0.07664415 -0.44844645 0.22684176 -0.57835287 0.40312198 -0.45641658 0.73511547 -0.1423573 -0.08578966 -0.08855776 0.13104855 0.54297537 0.26193956 0.24908732 0.0023717547 0.06680574 -0.022829922 0.68711144 0.3008369 0.3442026 -0.24833214 0.32828593 -0.1887772
howev -0.5125216 0.24713095 -0.19612648 0.06562706 -0.022281354 -0.57126325 0.14971048 0.5346013 -0.27650413 -0.1557393 -0.20517023 -0.500862 -0.042434927 -0.1720143 0.2794887 -0.41901928 -0.2813707 -0.5067327 -0.35061678 -0.42261767 0.13964377 0.31898618 0.014499235 -0.16666114 -0.06448834 -0.08641687 -0.22055317 -0.23875329 -0.22681677 -0.0409372 0.3923304 0.28385457 0.01999035 0.11116794 -0.13609299 0.32604003 0.16260473 -0.2181311 -0.3048156 -0.683862 -0.12604867 -0.06588252 0.06311948 -0.23105453 0.32552543 -0.20994964 -0.36436847 0.027657555 0.030721042 0.5917633 0.05069962 -0.052921105 -0.030847134 -0.30667531 -0.02935271 0.1270577 0.21417405 -0.06414719 -0.22706273 0.12514718 0.0692552 -0.029813845 -0.02569619 -0.5269538 -0.5616936 0.093135536 0.17642325 0.36987528 -0.41533345 0.5422494 -0.11656373 -0.0039857933 -0.09253466 -0.28535601 0.3272745 0.22091125 0.11678056 -0.14385119 -0.52370816 0.33438757 -0.35074705 0.41374606 -0.53861946 0.73104197 -0.09322862 -0.16664077 -0.11782121 0.48505422 0.48922905 0.21338238 0.45550072 0.011003806 -0.104281105 0.084170654 0.6034768 0.485025 0.34129655 -0.43346518 0.34884432 -0.14776066
effici -0.3403012 0.050326206 0.2027402 -0.067124896 0.14270014 -0.92375827 -0.21752582 0.5741049 -0.12968534 -0.19820246 -0.3643258 -0.7934152 -0.041683 0.27566743 0.11525777 -0.28259048 -0.3765618 -0.4745005 -0.050771605 -0.78490585 0.36707827 0.038859203 0.3138143 -0.4571659 -0.14207265 0.4970113 -0.2838975 0.024303094 -0.22345681 0.25738126 0.36723077 0.18377481 0.14505918 0.1457556 -0.19429457 0.09581614 0.11426391 -0.22331809 -0.55708313 -0.39075202 -0.1723853 -0.57162756 -0.29808784 -0.23591846 0.16375552 -0.72651184 -0.46180803 -0.18746848 -0.009781204 0.3274475 0.06888567 -0.2560582 0.12362683 0.20042177 -0.030149827 -0.03808748 -0.051731825 -0.20383188 -0.22319551 0.33444223 0.09058423 -0.21911511 -0.0067984625 -0.41225025 -0.36138058 0.23690875 0.46340677 0.29117507 -0.28845093 0.7310484 -0.1988608 -0.048687074 -0.051413387 -0.20460035 0.34614956 -0.092080265 -0.10398816 -0.13182332 -0.21097584 0.22938055 -0.3048968 0.24835704 -0.39208162 0.6624292 -0.066805996 -0.000246337 -0.16933836 0.14954467 0.52883476 0.119588904 0.5209832 -0.023311734 0.014060495 0.079930976 0.5550897 0.09518163 0.36254638 -0.07691053 -0.017473793 -0.0013412118
benchmark -0.4366641 0.39975184 0.36950344 0.36177942 0.04958794 -0.33154252 0.7673435 0.7226281 -0.60950416 -0.256954 0.23613447 -0.2877696 -0.24036089 -0.14382605 0.81180483 -0.38827226 0.0023143406 -0.18639547 0.1491221 -0.80902785 -0.063501455 0.24388464 0.037574913 -0.19338077 0.34674105 0.29262573 -0.23851301 -0.32391864 0.05422226 0.10599953 0.23169248 0.35944948 0.030198965 0.33199793 -0.13324723 -0.18053061 -0.14581104 -0.28405115 -0.20014782 -0.8421565 0.1048135 -0.56173503 0.10136934 0.10583 0.026994478 0.056649774 -0.81237817 -0.44661546 0.23488675 0.03504461 0.41965935 -0.582674 -0.78761333 -0.020523975 -0.35018927 0.3299866 0.5466936 0.15086903 -0.12969379 0.50784296 0.02781061 0.1307756 -0.070939675 -0.17653261 -0.40727812 0.2125895 0.409423 0.6722201 -0.6638404 0.34440994 0.15381739 0.6342558 0.04178375 -0.31343895 0.45795146 -0.5139493 0.14406095 0.011846576 -0.64955187 -0.13730185 -0.37015846 -0.28824288 -0.32859442 0.8207313 0.09323071 -0.47538 0.097638495 0.10934383 0.32155323 -0.50470257 0.8554581 0.64049345 -0.13247007 0.24490568 0.7409055 0.41028666 0.5988931 -0.8748819 0.4800877 -0.11621098
paper 0.066732876 0.2584545 -0.024933534 0.46121013 0.5977463 -0.6337268 -0.20117524 1.0832913 -0.25695392 -0.098271236 -0.39449778 -1.0058074 0.19565125 0.7912638 -0.2775879 -0.3670371 -0.32333976 -0.5371409 -0.11750659 -0.7710004 0.88829505 -0.025914095 0.7256246 -0.0055344044 -0.67837983 0.18762052 -0.08425022 -0.4048973 -0.31800035 0.28794008 0.9217695 -0.6164293 0.7412968 -0.008920036 -0.20364268 0.20938751 0.27681673 -0.14411707 -0.40737697 -0.47925213 0.4951756 -0.7748744 -0.5584093 0.1584503 -0.41195276 0.18702291 -0.1294613 0.07639437 0.39723572 -0.22801225 0.39562598 -1.5383459 0.08989797 0.2685734 -0.10087623 0.34503248 -0.10229764 -0.42970428 -1.3008555 0.11279824 -0.03194636 0.13364477 -0.08894812 -0.07828586 0.14403537 0.3880779 -0.15681688 0.38655594 -0.3291177 0.96415186 -0.023339009 -0.09053109 0.70707935 0.009353809 0.96425253 -0.8495665 -0.5583388 -0.2444219 0.19421774 -0.36247382 -0.8882005 -0.49118152 -1.4249014 0.4797007 -0.34728104 -0.030860104 -0.322999 -0.32724592 0.69755816 -0.26868343 0.91882443 -0.013045294 0.4297913 0.17074567 0.45270076 -0.2936094 -0.22606054 0.07151719 -0.45068145 0.06709642
artifici -1.4243863 0.6240366 -2.0113406 0.24770375 0.6280236 0.08020944 -0.77050114 0.77575266 -0.8032643 0.8013738 -1.2296159 -0.7611708 1.0060692 -0.16594447 0.37796542 -1.4158816 -0.1843265 -2.3560753 0.2651418 -0.40680695 -0.043868136 0.81807387 0.28530425 0.15357758 -0.34677875 -1.7828623 -1.3761629 -1.1837516 -2.1597352 -1.4443742 1.9218394 -0.39225748 -0.74768966 -1.1348885 0.10364581 0.5893631 0.30408275 -0.9405995 0.17259485 -2.0608907 -0.78719866 1.3711128 -0.5892474 -0.28907478 0.46377456 1.1195388 0.59555024 0.3213556 0.5148775 1.0675902 0.18808436 -0.9793369 1.0322675 0.21724564 1.3138613 0.26393145 0.50517786 0.5501826 -1.7064453 -0.5859727 -0.9388223 0.87328553 -1.0556629 -0.80220634 0.26831105 -0.09595577 -2.0571556 -0.43580943 -0.09585631 -0.5114167 1.0739337 -0.11369155 1.8414251 -0.21065627 -0.08181527 0.018946623 -0.25546306 -0.7790896 0.34895924 0.28714997 -1.9322941 0.37735105 -2.0792866 -0.2430136 -0.64608413 -0.2737983 -0.07513437 1.6625775 1.502173 1.1789213 1.8103532 -0.11479061 -0.4652958 0.9077182 0.18588161 1.6751709 -0.8983454 0.36360753 0.9380659 -0.4971761
show -0.31268615 0.13003595 0.96528834 -0.021180347 0.02267851 -0.5300642 0.41564938 0.48479524 -0.6721815 -0.027354319 0.08667225 -0.4400939 -0.40294322 -0.16004926 0.7412916 -0.25821483 -0.18036273 -0.30241066 0.49618614 -1.0875386 -0.049319245 0.26665592 0.13867849 -0.5137805 0.4427318 1.0605956 -0.5270502 -0.20360057 0.30389825 0.3653673 0.0074946973 0.57948637 -0.016256327 0.35037714 -0.28612682 -0.47787115 -0.39230925 -0.3315098 -0.46923763 -0.9047869 -0.18088643 -1.1110762 0.16188453 0.22363237 -0.14707658 -0.7142737 -1.3728354 -0.79959613 -0.04138931 0.037055817 0.33661866 -0.2868997 -0.68620616 0.54914844 -0.36131838 -0.086528026 0.6181077 0.29123062 0.11603771 0.63799125 -0.08622637 -0.10393494 -0.2240589 -0.29663917 -0.31871408 0.2815125 0.9091424 0.729216 -0.8022316 0.21938017 -0.16525145 0.9022722 -0.42430764 -0.304484 0.52127475 -0.70252025 0.06310365 0.17465171 -0.56813926 0.08383495 -0.2258486 -0.0016178893 -0.015600589 1.1306713 -0.00033976528 -0.43553218 0.09744412 0.12389118 0.07454553 -0.30547342 0.9536948 0.7460843 -0.39076465 0.37597403 0.85765076 0.23969112 0.8423853 -0.49026167 0.52489674 -0.21378638
time -0.118229 0.09550031 0.1749539 -0.34837896 0.08923105 -0.8083048 -0.34594426 0.33055082 -0.06117313 0.07966586 -0.6620974 -0.553373 -0.4629311 0.30602875 0.3846007 -0.0013141303 -0.7425364 -0.4677867 0.0070924563 -1.0396998 0.080706656 -0.16369624 -0.043920673 -0.41884136 -0.28915396 0.37793168 -0.5584105 -0.25864512 -0.00698034 0.08371107 0.6967894 0.39302877 0.55176514 0.28599426 -0.37099084 -0.19396357 -0.0765704 0.09017905 -0.1509595 -0.6196409 0.27176163 -0.45749813 -0.39693147 0.060469277 -0.021531437 -0.5549707 -0.39794844 -0.0575522 -0.03302352 0.50898266 -0.069472894 -0.2451535 -0.10477021 -0.20240358 0.04805342 0.4156219 -0.39356208 -0.28674275 -0.14467008 0.09842524 0.38558763 -0.14691427 -0.4558315 0.19731131 0.03963679 -0.037836857 0.43280628 -0.11627078 -0.073206306 0.7421963 -1.023384 0.2327661 -0.56090635 -0.43827915 0.559034 0.18737926 -0.04061961 -0.48788434 -0.35133657 0.2518902 0.58594215 -0.041292787 -0.6165951 0.78767115 -0.10656662 -0.08020781 -0.32787836 0.6469863 0.29485172 -0.10563696 0.6600376 -0.031921055 -0.32885394 0.1202517 0.31987765 0.22455494 0.45111427 -0.19771688 -0.04497041 -0.097625405
while -0.49832675 0.041253194 0.09632532 -0.12346074 -0.09019712 -0.742019 0.044423908 0.47624055 -0.20650825 -0.19581074 -0.2964697 -0.37058485 -0.2690106 -0.1468222 0.25372505 -0.32691705 -0.36290365 -0.43828616 -0.19774336 -0.5203749 0.17471954 0.3370678 0.100235894 -0.4151329 0.084256575 0.25482008 -0.4759832 -0.071354814 -0.3097429 0.08235023 0.20556223 0.42749903 -0.12981273 0.1111465 -0.13646787 0.34953535 -0.01594715 -0.18075997 -0.53225297 -0.5052704 -0.29349244 -0.17132677 -0.0047939965 -0.15820035 0.46496406 -0.5843425 -0.48431182 -0.09719014 -0.044039346 0.5334532 0.114664204 0.040577378 -0.072062775 -0.19340329 -0.18512739 -0.044727717 0.19612923 -0.024306372 -0.06153081 0.20385765 -0.023730412 -0.08929943 -0.0433725 -0.61705375 -0.55092156 0.106820114 0.52431554 0.3437867 -0.3577047 0.42580932 -0.31609237 0.0981214 -0.20200491 -0.2708078 0.25289536 0.3347992 0.08174527 -0.10106199 -0.5284667 0.3845701 -0.12270166 0.5423259 -0.24503227 0.8037614 0.032094944 -0.11075186 -0.0048918505 0.51307505 0.3077642 0.32366416 0.5045627 0.10322255 -0.169663 0.023007195 0.5689688 0.5137392 0.5160366 -0.27234766 0.27349272 -0.058957938
predict -0.25967565 0.013508287 -0.061727885 0.013022316 0.034428567 -0.5332896 0.028667483 0.4915546 -0.19388662 0.026186557 -0.4059933 -0.4020673 -0.28298232 0.03222514 0.093791306 -0.31158787 -0.47690737 -0.4490936 -0.054112907 -0.52297884 0.2457946 0.19803181 0.14618754 -0.13030942 -0.14055842 0.09979031 -0.40049297 -0.30486992 -0.2905668 -0.037701193 0.4577774 0.22752002 0.15293464 0.07805534 -0.05599546 0.22438416 -0.114106774 -0.17094584 -0.4288313 -0.6374529 0.10309181 -0.18208763 -0.16603467 0.15097143 0.19362889 -0.29936334 -0.3823798 -0.015439594 0.115058936 0.23087744 0.1460922 -0.3635604 0.019765057 -0.2358889 -0.23002763 0.17564748 0.14604616 -0.16601193 -0.32677358 0.11862129 -0.06893039 -0.008308549 -0.25359443 -0.29709446 -0.3816789 0.09141621 0.25336462 0.2344391 -0.25226206 0.43093082 -0.4536215 0.12145179 0.043992538 -0.19560562 0.4862468 0.2227828 -0.038990665 -0.27862427 -0.368173 0.21429609 -0.1522547 0.15012155 -0.56663907 0.5749554 -0.03914154 -0.012253474 -0.22324404 0.60262555 0.32771662 0.13791344 0.6794503 0.17558017 -0.009842386 0.12322342 0.3143413 0.47089335 0.21363425 -0.20082836 0.13732487 0.039149646
graph 0.43799344 -0.15182777 0.054595128 -0.015527508 0.42353442 -0.8877538 -0.3786404 0.8789509 0.006355156 -0.15107869 -0.63535315 -0.4530296 -0.45098257 0.22887456 -0.74354535 -0.05226278 -0.38288262 -0.26368344 -0.8105634 -0.49740785 0.38728306 0.013992011 0.43001628 -0.42832863 -0.23431107 0.2242698 -0.81129026 -0.29205054 -0.49943846 0.19027613 0.4454933 -0.4054028 0.42725 -0.43548632 -0.28029758 1.1320657 0.13224575 -0.06444297 -0.6576271 -0.51297176 0.05645097 -0.24135806 -0.34901693 0.49121356 0.32476363 -0.9733078 0.08617725 -0.05217332 0.37041977 0.37863395 -0.06328394 -0.31051618 -0.22046357 -0.1133754 -0.3586203 -0.00875295 -0.0991786 -0.6167947 -0.9156993 -0.24530216 -0.25868273 -0.027244287 0.061364684 -0.34811538 -0.534132 0.41252413 0.5267773 -0.104483165 -0.26891252 0.58335865 -1.2256534 -0.28828648 -0.08604408 0.21034718 0.64316934 0.41551033 -0.4951292 -0.16496484 -0.05529271 0.23499517 0.13106418 0.42049363 -0.7104625 0.6713336 -0.5272376 0.2566862 -0.4304777 0.75431865 0.23187315 0.42393106 -0.0071109137 -0.2841265 0.3420399 -0.061384976 0.4590578 0.20680963 -0.04189838 0.40582615 -0.4389918 -0.077633016
knowledg -0.0011899489 0.16301598 -0.029907113 0.29893073 0.25664368 -0.63160425 0.35119253 0.90046483 -0.23121233 -0.3042868 -0.16574743 -0.4809952 -0.18101753 -0.029408637 -0.1099664 -0.35104287 -0.07719355 -0.17311217 -0.6242761 -0.48648226 0.22591978 0.04602842 0.25941312 -0.21217595 0.003678036 -0.001802359 -0.23481575 -0.25633225 -0.39285114 0.059913725 0.36516392 -0.14038149 0.21201067 -0.06516608 -0.070117585 0.682744 0.16076882 -0.22552076 -0.48849636 -0.53289825 0.08504862 -0.14428972 -0.10222312 0.21485768 0.32983664 -0.37308547 -0.06107707 -0.11250538 0.28308728 0.22928955 0.11226952 -0.32009032 -0.42595923 -0.29270208 -0.34393293 0.13243723 0.12696297 -0.33684853 -0.60419476 0.083856754 -0.045250226 -0.03726239 0.19055013 -0.27214536 -0.6790818 0.28198853 0.41229492 0.2650347 -0.354503 0.6186627 -0.4922656 -0.14085914 0.16178186 -0.07959799 0.30469066 0.23965834 -0.08794326 -0.14354414 -0.37017432 0.054974172 -0.11676107 0.043610614 -0.48065686 0.40479615 -0.20682862 0.05787578 -0.27214003 0.44496465 0.39672554 -0.03950779 0.10224579 -0.034131743 0.30584675 0.0090620555 0.56248456 0.29684207 0.15267214 -0.28429776 -0.015860988 -0.051580705
across -0.45985225 0.203604 0.40725124 0.15923232 0.052450135 -0.55058724 0.63183796 0.57400286 -0.44557622 -0.1753026 0.07255399 -0.25887513 -0.59243035 -0.34173593 0.8749956 -0.13295555 -0.1646683 -0.15515484 0.034672167 -0.6362593 -0.33175734 0.43410555 -0.19137752 -0.41606683 0.4358155 0.38936573 -0.5244536 -0.408947 0.1944849 0.09166662 0.20798165 0.58571315 0.16377266 0.3960099 -0.25335312 -0.03968471 -0.17710903 -0.14523321 -0.26972616 -0.9588941 0.07417574 -0.3688842 0.25859147 0.123615324 0.18673643 -0.21696821 -0.99921715 -0.4123296 0.13474521 0.38908526 0.22865453 -0.037118737 -0.64846677 -0.15312786 -0.3812622 0.23370206 0.5197737 0.08867408 0.16647294 0.47123757 0.04246189 0.06850932 -0.21574837 -0.2844116 -0.59289306 0.07310596 0.6530762 0.47325057 -0.74813795 0.36400014 -0.30935878 0.50315875 -0.43727857 -0.3650162 0.39522162 -0.20054466 0.30413744 -0.011367604 -0.81697595 0.16033763 0.03738495 0.20796664 -0.10946225 1.0387894 -0.08113055 -0.37527332 0.066890895 0.54417396 0.12862894 -0.26386493 0.58636254 0.48116574 -0.33669257 0.2840342 0.6798132 0.64755994 0.65303177 -0.6528199 0.63547444 -0.12896028
address 0.06373218 0.17998122 0.11378626 0.48169297 0.44612566 -0.6324039 -0.049988028 0.8764135 -0.15095162 -0.031016877 -0.55483127 -0.9611742 -0.03986559 0.6941934 -0.32048586 -0.15394618 -0.5865543 -0.4778589 -0.11960019 -0.8396549 0.85799986 -0.07332263 0.67927176 -0.029646391 -0.8855507 0.23305337 0.03563324 -0.48038766 -0.05834151 0.35829818 0.980251 -0.4347371 0.9886654 0.20642808 -0.048940912 0.039604217 0.20319048 0.069883734 -0.42761523 -0.40168613 0.6626664 -0.8372722 -0.71552163 0.21981898 -0.483981 0.18893905 -0.22565228 0.19720036 0.43328905 -0.17192894 0.48070958 -1.4543276 0.17244104 0.15865543 -0.26589352 0.4496424 -0.3421088 -0.6726992 -1.3056015 0.19121322 0.027432194 0.12948927 -0.27218217 0.05853069 0.2438593 0.2344952 -0.05441001 0.38337344 -0.24856119 1.1149935 -0.3680615 -0.114309825 0.44955617 -0.06109337 1.0593234 -0.8658384 -0.4501281 -0.3941801 0.1860577 -0.3408687 -0.71466845 -0.43902034 -1.4386177 0.4936895 -0.5060454 -0.11727233 -0.47669148 -0.27007347 0.6446782 -0.3044373 1.0157037 -0.060860083 0.40584028 0.26331806 0.47382048 -0.3245891 -0.07878311 0.03390193 -0.58840847 0.20638777
specif -0.19634202 0.17368044 0.13333166 0.19746478 0.31090844 -0.82178384 0.123154834 0.78748226 -0.24118997 -0.21851702 -0.27649727 -0.74368405 -0.1349756 0.11944168 0.07854277 -0.3369579 -0.21156535 -0.31815177 -0.3441221 -0.66841334 0.3322924 -0.07082485 0.33529282 -0.36145088 -0.1494304 0.33816746 -0.18206885 -0.12635103 -0.23985216 0.26926792 0.45825845 0.0049407603 0.21999422 0.19774118 -0.09422143 0.30670777 0.120081164 -0.14423168 -0.50030094 -0.393101 0.06778734 -0.48326856 -0.2890407 0.01590037 0.16242816 -0.5053947 -0.27185762 -0.087090194 0.15682773 0.17732312 0.060232174 -0.36580527 -0.060286913 -0.07496742 -0.31712615 0.09313014 -0.119580336 -0.2766551 -0.431577 0.41267934 0.13323638 -0.11412128 0.13173965 -0.20735174 -0.5110298 0.3068845 0.45849818 0.23554797 -0.3452383 0.79800904 -0.4032032 -0.06759621 0.03917901 -0.2396696 0.29821822 -0.024104323 -0.1327445 -0.14220706 -0.15716246 0.0047744503 -0.12000657 -0.07379458 -0.48476 0.4896589 -0.1499813 0.07574671 -0.2678798 0.10731663 0.5502908 -0.20744798 0.18552239 -0.022801036 0.1453242 0.007578889 0.5696748 -0.022907501 0.28804937 -0.21365453 -0.015033165 -0.030858565
achiev -0.51840085 -0.055255692 0.58297074 -0.2084732 -0.23021321 -0.6411 0.15120468 0.4090984 -0.4853439 0.007237299 -0.2338607 -0.16361803 -0.5247539 -0.31582677 0.6281479 -0.13889098 -0.47784564 -0.43869942 0.30242684 -0.87752783 0.08044997 0.50801015 0.1061801 -0.588018 0.31893003 0.83901495 -0.8610059 -0.08119589 0.033447273 0.28119105 0.040997975 0.76722986 -0.2679905 0.19621699 -0.16357952 -0.114026 -0.42934358 -0.18293932 -0.6211628 -0.6991349 -0.4489504 -0.73005486 0.13300787 0.12692629 0.26916718 -0.88053817 -1.1405622 -0.42240605 -0.1203247 0.3352913 0.2516218 0.056058545 -0.24118976 0.18215437 -0.36891884 -0.17837931 0.5574055 0.2591823 0.17305173 0.39317653 -0.28651768 -0.12774526 -0.4160916 -0.5625158 -0.46045566 0.20531079 0.8720832 0.5658149 -0.6623016 0.07621152 -0.39666393 0.6407587 -0.48664537 -0.21201631 0.49428022 -0.042787675 0.033567704 0.16057838 -0.5991334 0.32242393 -0.08319694 0.5857703 0.15141077 1.2971346 0.048070293 -0.21597198 0.11590905 0.5223753 -0.009691464 0.12538876 1.0317746 0.65561783 -0.5145146 0.2966966 0.6580814 0.47590312 0.7566733 -0.44204786 0.4913793 -0.09835259
more -0.41404477 0.15399534 -0.010563733 -0.008029485 0.029802008 -0.57495797 0.09906877 0.47905216 -0.2041622 -0.10928374 -0.2676397 -0.49718854 -0.16157512 -0.0010756907 0.27462 -0.3467319 -0.34560266 -0.4468914 -0.025406461 -0.5087131 0.109997526 0.21395719 0.050286118 -0.14594553 -0.04204522 0.08732042 -0.31831267 -0.2505713 -0.20366313 -0.06281223 0.38481727 0.2770997 0.04503486 0.14947402 -0.11683594 0.118631884 -0.014457675 -0.2661711 -0.30209938 -0.65706724 0.029326346 -0.16875122 -0.060794994 -0.044065114 0.20472991 -0.26872042 -0.4606467 -0.108470686 0.05451974 0.3328874 0.07552137 -0.2533598 0.0058558933 -0.1246661 -0.063735105 0.17335933 0.17672838 -0.049141575 -0.17473662 0.1474387 -0.027173234 -0.03175547 -0.18530518 -0.31754005 -0.40043685 0.10917417 0.1741651 0.24179825 -0.3057603 0.4362101 -0.23848444 0.13494222 0.039198343 -0.3361956 0.38842946 0.15448377 0.05707283 -0.25070837 -0.45326996 0.31310138 -0.20727153 0.1342486 -0.4968855 0.58945733 0.028004244 -0.05504847 -0.16840908 0.53278065 0.39963278 0.10626646 0.6082209 0.1156005 -0.119227484 0.07643245 0.45173842 0.50589633 0.28892723 -0.30039018 0.26447773 0.013493784
novel 0.28278273 0.1882681 0.30657536 0.5912461 0.71895385 -0.7906781 -0.1841176 1.1693791 -0.29881895 -0.23605856 -0.34241238 -1.181363 -0.008558974 0.9499044 -0.48834813 -0.23976268 -0.22477597 -0.36727533 -0.29258382 -0.988761 0.9782715 -0.2639967 0.98936594 -0.30424407 -0.6442917 0.57136273 -0.14881566 -0.23816311 -0.27028725 0.59228146 0.8555439 -0.69086605 0.7827615 0.024326792 -0.28194466 0.29346964 0.34758663 -0.12422316 -0.61793786 -0.32341018 0.43708292 -1.169691 -0.65765846 0.30488777 -0.41255406 -0.23253776 -0.2261408 0.032603506 0.4079357 -0.33524832 0.43418577 -1.4915034 0.043963976 0.4518684 -0.41288206 0.20384161 -0.25579056 -0.5876431 -1.4071747 0.2532793 0.0065775462 0.031565536 0.10558656 -0.05703542 0.13209118 0.5053785 0.18025665 0.48486534 -0.38737032 1.0755248 -0.32323152 -0.07166351 0.58377856 0.11810515 0.9934317 -0.9712433 -0.77811134 -0.06493783 0.33577937 -0.513165 -0.7239481 -0.52781415 -1.224931 0.5553873 -0.43531704 0.090070546 -0.33602133 -0.6279193 0.6534428 -0.36767355 0.73239195 -0.0036884686 0.53844565 0.15701689 0.6358837 -0.5854144 -0.09134522 0.18855536 -0.6141055 0.032723617
inform -0.16280003 0.029085519 -0.07950194 0.09809233 0.17946665 -0.7020757 0.12895714 0.65380085 -0.09052118 -0.1372886 -0.5090957 -0.61568075 -0.24782576 0.058996376 -0.14146526 -0.38697335 -0.4590211 -0.43197173 -0.23792502 -0.56145763 0.33051777 0.033699345 0.20563179 -0.18461719 -0.26315367 0.044424005 -0.29226682 -0.25186422 -0.43374965 -0.041819755 0.53876925 0.076461285 0.24625735 0.13732377 0.041009165 0.4523062 -0.0054725725 -0.136614 -0.54157513 -0.44254163 0.2099186 -0.17836104 -0.38569105 0.13586572 0.2866584 -0.3986397 -0.19323044 0.062097955 0.10338273 0.2381996 0.047724303 -0.41010347 0.04344908 -0.29053724 -0.31732175 0.20831652 -0.13553528 -0.3659668 -0.4786892 0.16811734 0.024222946 -0.0074911355 -0.13254523 -0.22189175 -0.5573935 0.18526511 0.2745929 0.10469512 -0.15500315 0.6977969 -0.582297 -0.09753246 0.18521233 -0.30003735 0.41959587 0.24514142 -0.053528868 -0.41726866 -0.2444306 0.17401485 -0.018662903 -0.016012039 -0.6764973 0.37470764 -0.006069816 0.24848889 -0.38951117 0.5337804 0.5420079 -0.016708612 0.40910068 -0.10774691 0.22053996 0.04503015 0.31925163 0.31600866 0.19070855 -0.13766788 -0.06650687 0.091279425
problem -0.08968419 0.107020564 -0.04073623 0.2599789 0.20706956 -0.5276854 -0.20522189 0.46251693 -0.13719262 0.114786856 -0.5006164 -0.7319764 -0.14403684 0.3649937 -0.110229865 -0.13510785 -0.67362887 -0.46056217 0.040499125 -0.6714383 0.45988363 0.15013245 0.35524806 -0.0054878653 -0.52067333 0.19828899 -0.24937023 -0.36601788 -0.10612293 0.08897253 0.69481283 -0.07631758 0.5594687 0.25770664 -0.102524 0.16727506 0.015689658 -0.1008983 -0.37605104 -0.6664587 0.35281718 -0.44688636 -0.32376269 0.17117757 -0.10888156 -0.06682257 -0.41111502 0.08979989 0.15665773 0.052634597 0.24010807 -0.61543673 0.14452201 -0.13223587 -0.06770412 0.2857707 -0.027640458 -0.42706624 -0.7285709 0.07990794 -0.025447713 0.012417647 -0.34208766 -0.12940083 -0.14802535 0.11609459 0.0915649 0.25336576 -0.1651375 0.8108386 -0.5181978 -0.12378468 0.09008841 -0.11127009 0.8349283 -0.2176755 -0.26204446 -0.28619298 -0.11544933 -0.037119363 -0.32303378 -0.050264996 -0.9852063 0.5956484 -0.25174952 0.0001950091 -0.31676129 0.35104433 0.4852838 -0.06897935 0.78614604 -0.012695556 0.040746644 0.18434012 0.29656634 0.14385511 -0.01149396 -0.0036471998 -0.16382122 0.12361319
high -0.37981835 -0.026197 -0.0021826741 -0.09130931 -0.11183301 -0.5934712 0.193747 0.3754503 -0.09834399 0.015874354 -0.4766895 -0.3634467 -0.42256093 -0.15687038 0.13220812 -0.3187867 -0.54703015 -0.54751444 -0.0012474478 -0.5470966 0.1760333 0.26000506 -0.0016990934 -0.28500485 -0.17061187 0.14792898 -0.3904455 -0.32533976 -0.24409741 0.092130326 0.5090404 0.51455015 0.14860654 0.24555741 0.024035458 0.24370494 -0.15605193 0.032631304 -0.50573444 -0.4297552 0.06907817 -0.14397477 -0.33420327 0.024539012 0.290098 -0.39964956 -0.49141568 0.09407943 -0.00019159616 0.40045285 0.06693562 -0.25182956 0.17159145 -0.27536082 -0.373803 0.2393886 -0.013017367 -0.2010764 -0.05455815 0.21299616 0.07499637 -0.008872159 -0.26186937 -0.24073772 -0.38892466 0.019738615 0.27697998 0.12587994 -0.24282573 0.47660664 -0.52972037 0.16202831 -0.118096985 -0.45998687 0.36944064 0.1857919 0.12325472 -0.44888481 -0.41800135 0.3486806 0.16195172 0.16808665 -0.5298472 0.55125266 0.08710381 -0.016600048 -0.20677632 0.58696544 0.3591716 0.20315723 0.7413636 0.04954512 -0.09888758 0.086313434 0.31817648 0.4874169 0.4390249 -0.18243659 0.21481554 0.06863284
studi -0.28066602 0.3392947 0.029399546 0.29543737 0.21285991 -0.39638433 0.15729955 0.65614796 -0.46190727 -0.13751312 -0.08458002 -0.60442317 0.015471955 0.12645453 0.25998676 -0.41063672 -0.22585657 -0.4327176 -0.09602807 -0.5439265 0.27920517 0.377408 0.15082425 0.0123953475 -0.09445731 0.0797579 -0.20571974 -0.3655576 -0.13564877 0.0030097794 0.4300464 -0.017999846 0.25218096 0.045617133 -0.24018688 0.11424665 0.18946068 -0.22784473 -0.21126038 -0.79658747 0.08675365 -0.33615372 0.00770785 0.01011992 -0.036215097 0.10258314 -0.42166856 -0.14153121 0.19900358 0.24580286 0.26862973 -0.59460515 -0.27005473 -0.021314211 0.038952198 0.14224784 0.36039498 -0.014393263 -0.5214279 0.12361794 -0.097787395 0.17427154 -0.07841098 -0.44794774 -0.26298726 0.094658785 0.060015824 0.55048645 -0.4906854 0.44830856 0.14616 0.18454416 0.16408427 -0.14606932 0.57523686 -0.32256544 -0.049506586 -0.03868686 -0.39166364 -0.048336286 -0.6732164 0.05523252 -0.7347297 0.6705387 -0.16853109 -0.3534527 -0.0380791 0.15070185 0.40206638 -0.017279195 0.7048725 0.23214175 -0.016470827 0.18752006 0.6437292 0.31070018 0.19954935 -0.36383864 0.23331328 -0.1279793
general -0.3162467 0.18662223 0.09372914 0.12578619 0.17128317 -0.5968464 0.03967621 0.5978532 -0.34250766 -0.1757317 -0.19050606 -0.6362991 -0.12797868 0.058029626 0.23082398 -0.28816688 -0.20426714 -0.368901 -0.15316278 -0.6146439 0.2187014 0.20751898 0.24687158 -0.31073296 -0.023248537 0.24304752 -0.28944826 -0.27834868 -0.14478907 0.18234625 0.39621374 0.07288068 0.23732638 0.084824555 -0.23037267 0.20252277 0.035436764 -0.16598642 -0.3682051 -0.6067575 0.015936501 -0.34865123 -0.069955274 -0.047626354 0.08914226 -0.2497068 -0.43586314 -0.20836568 0.16337992 0.2844038 0.16227628 -0.34785375 -0.12494711 0.015599228 -0.13680562 0.07644114 0.17739552 -0.09124097 -0.35620335 0.20098129 0.028823258 -0.018401615 0.009974514 -0.356256 -0.37353003 0.15637988 0.30179104 0.37239343 -0.46017256 0.5709945 -0.18391481 0.105752274 -0.062037695 -0.14806291 0.4157723 -0.20685384 -0.0835697 -0.047219817 -0.34847277 0.11068174 -0.33319312 0.17690997 -0.53838134 0.7694254 -0.20303798 -0.23867425 -0.03920842 0.21160764 0.41834515 0.052018855 0.42333618 0.09994611 -0.070247576 0.1104816 0.5927116 0.2587501 0.2905503 -0.21437721 0.17279842 -0.07149249
capabl -0.79802674 0.50657266 -0.26135346 0.37974307 0.1527628 -0.5458921 0.43229467 0.894353 -0.60505486 -0.5569482 0.17447668 -0.69760025 0.24347919 -0.1811885 0.58327305 -0.63782465 0.23220396 -0.51913583 -0.7182411 -0.34802043 0.16340902 0.46386686 0.097232044 -0.20477264 0.3170396 -0.19119303 0.012034383 -0.18265177 -0.49930638 0.07520728 0.3458148 0.011167273 -0.13162099 -0.006738818 -0.31030107 0.575535 0.4557614 -0.31568968 -0.36414117 -0.7229659 -0.41760096 0.12285974 0.23370808 -0.44537202 0.43318948 0.0066532223 -0.10804761 -0.0754631 0.13899419 0.69517606 0.23820636 -0.11705741 -0.3066259 -0.3444038 -0.0033024608 0.044951208 0.41315085 0.16548754 -0.37174097 0.26971245 0.16394727 0.085229695 0.47400922 -0.83773094 -0.7888906 0.086022854 0.09351711 0.696376 -0.5866646 0.6171271 0.4331798 -0.05015655 0.1078932 -0.37188008 0.047017097 0.06269558 0.12836196 0.18120374 -0.7152268 0.14429745 -0.72873294 0.3792827 -0.5098308 0.8049911 -0.15370473 -0.3117313 0.13625954 0.057579067 0.6998153 0.19957766 0.14092356 0.049682233 -0.06804789 0.0021641355 0.96863216 0.575456 0.38735688 -0.6320542 0.6463923 -0.30319753
has -0.6611094 0.3574354 -0.43778917 0.2420519 -0.037422795 -0.5351163 0.039573 0.7823185 -0.20351204 -0.41245332 -0.081501745 -0.7965507 0.24838069 0.06736852 -0.0120978635 -0.55199677 -0.15310462 -0.6531161 -0.6300225 -0.19686508 0.21851179 0.32475504 0.042152125 0.0462957 -0.11652645 -0.2756991 -0.21585064 -0.18422751 -0.71892226 -0.27080834 0.34002358 -0.0015041132 0.0074282684 -0.17230882 -0.35727963 0.8254782 0.61927754 -0.3186122 -0.39699984 -0.71654695 -0.36938807 0.3850226 0.17428854 -0.40181446 0.5549982 -0.158724 0.046862666 0.096984565 0.34750316 0.9146695 0.08550116 0.038452607 -0.13095072 -0.41140538 0.1631096 -0.038947247 0.35866097 -0.18450029 -0.55742586 -0.30932087 0.0018923904 0.12842885 0.24003358 -0.758517 -0.60729855 -0.07275876 -0.023379615 0.5153697 -0.3229555 0.5415657 0.36482468 -0.17561857 0.18124753 -0.021886187 0.3923592 0.497363 -0.026433442 -0.12496589 -0.4205541 0.41375184 -0.76198876 0.5843392 -0.6190824 0.5433665 -0.19371586 -0.4174185 0.07234165 0.57319903 0.5259267 0.5778438 0.32989377 0.02494386 0.14503182 0.04488456 0.77023315 0.762581 0.19236122 -0.34638467 0.21439393 -0.14433143
differ -0.23977481 0.072827555 0.24412651 0.106788225 0.14639267 -0.5139735 0.2698578 0.489003 -0.3438229 -0.053455226 -0.2101892 -0.40625763 -0.42002973 -0.1268194 0.27060357 -0.19836481 -0.2339073 -0.2578388 0.085965976 -0.69294083 0.057296395 0.12074425 0.10813222 -0.3370527 0.04383426 0.3649035 -0.45029715 -0.29958004 -0.06309457 0.11769369 0.37908542 0.33045006 0.18992454 0.26272172 -0.07348035 0.14765945 -0.26785555 -0.14443965 -0.42867517 -0.61723566 0.19090717 -0.37313032 -0.16410248 0.23023868 0.15760325 -0.31879988 -0.6143443 -0.24004553 0.12685898 0.09277265 0.18603767 -0.3475751 -0.27469885 -0.049793515 -0.4318053 0.19968256 0.13151911 -0.118405 -0.2130777 0.3412166 -0.0006635399 0.017660515 -0.15951239 -0.109058686 -0.43078494 0.14886156 0.49574012 0.2712366 -0.35292825 0.42833534 -0.5157495 0.32441786 -0.16660146 -0.2507074 0.38132563 -0.13323456 0.04867043 -0.22776958 -0.3682816 -0.011317561 0.05284483 -0.06684477 -0.39185116 0.65717095 -0.047370426 -0.13628978 -0.118155226 0.36631262 0.26023123 -0.1775049 0.50169164 0.25525638 -0.04461078 0.1580138 0.47017193 0.2642629 0.47781 -0.27558127 0.19900648 0.0051184944
domain -0.22544202 0.2321349 0.03786605 0.2346023 0.19631211 -0.63348806 0.33193466 0.69084114 -0.27977595 -0.120671466 -0.18057278 -0.5680449 -0.21663831 0.0042560007 0.29420877 -0.2472786 -0.2090405 -0.29990745 -0.2236232 -0.7104951 0.057086136 0.0493884 0.06928422 -0.27347475 -0.053232767 0.1460912 -0.23663594 -0.35068446 -0.12601139 0.07978041 0.5226291 0.13856204 0.3063207 0.21413004 -0.110207856 0.20044456 0.07835692 -0.13744035 -0.2993179 -0.6949045 0.22588812 -0.30578175 -0.16324082 0.06516455 0.14693746 -0.16338053 -0.415219 -0.14521012 0.24088968 0.24680215 0.13755924 -0.37585872 -0.27666983 -0.14120649 -0.23563549 0.2628532 0.08475558 -0.2208581 -0.37783247 0.23329438 0.055481054 -0.018404378 -0.09202951 -0.14000323 -0.44517773 0.19467448 0.35750702 0.22828123 -0.38503844 0.6698173 -0.34313568 0.051801648 -0.049642015 -0.285606 0.35642758 -0.14308846 0.014333547 -0.19322659 -0.37320417 0.051510476 -0.11297804 -0.090933554 -0.50173235 0.5203242 -0.13606188 -0.14664334 -0.20194902 0.42340118 0.4592499 -0.18326287 0.39487 0.09430281 0.057178445 0.11399674 0.5119668 0.28357968 0.29764664 -0.43195817 0.1881584 0.013328795
work -0.10386933 0.23716944 0.03007549 0.27203658 0.23023333 -0.43396163 0.01520448 0.6900734 -0.30667484 -0.12967634 -0.23191753 -0.6621079 0.050174624 0.28393477 -0.049802627 -0.35106316 -0.34311473 -0.37003118 -0.10549499 -0.55628 0.5638826 0.21679948 0.31411827 -0.0019734942 -0.36750272 0.09658476 -0.109628044 -0.3085775 -0.17615616 0.076582074 0.51162285 -0.19158871 0.4133085 0.053868588 -0.16156845 0.23750363 0.15366374 -0.14234982 -0.29577076 -0.6068938 0.26351938 -0.44945914 -0.18319912 0.12411519 -0.12472555 0.08775428 -0.24879174 0.023460127 0.18644921 0.037645742 0.31824836 -0.87847567 -0.10192315 -0.0067533706 -0.07411681 0.20878659 0.15375692 -0.23939946 -0.78334606 0.044785056 -0.122781456 0.15826654 -0.08519344 -0.31766844 -0.13904765 0.2525482 0.02267744 0.5031498 -0.35306334 0.5550564 0.015752029 0.06453928 0.3464372 -0.009244839 0.72225136 -0.38667804 -0.22785561 -0.11830742 -0.158685 -0.11116913 -0.63979745 -0.10171017 -0.8737267 0.5797983 -0.18446589 -0.16603696 -0.13179828 -0.0012007321 0.4302355 -0.05205286 0.7372677 0.13892393 0.18215366 0.13038222 0.46403414 0.06442054 0.011544892 -0.20180787 -0.043705232 0.022226376
state -0.29293752 -0.16190837 0.56409276 -0.42613178 -0.6703522 -0.5373809 0.036576312 0.3860475 -0.6624385 0.27224508 -0.539117 0.45310864 -0.70291 -0.6979397 0.6080579 0.24750601 -0.65736395 -0.62729794 0.124082394 -1.1431906 0.05462977 0.92015666 -0.10767537 -0.4295123 0.29524788 1.008231 -1.3813337 0.14453837 0.17220919 0.53956705 -0.46452454 1.0577207 -0.49221456 0.09892049 -0.14700332 -0.26465106 -0.7738396 -0.14662457 -0.53180224 -0.85738504 -0.7078561 -1.0518788 0.4725551 0.6160913 0.47253543 -0.6838531 -1.5141498 0.010551649 -0.3994614 0.28160736 0.18946187 0.09777163 -0.17462875 -0.010914827 -0.6762236 -0.23444764 0.8542141 0.5132834 -0.10214942 0.44412467 -0.6685988 -0.26407212 -0.7753688 -0.4211811 -0.17042856 0.5761735 1.2713658 0.9962775 -0.8255857 -0.30258572 -0.30149502 1.0607502 -0.40729177 0.35740805 0.87042457 0.04732539 -0.36838007 0.5262737 -0.33312628 0.026692588 0.04276269 1.1925725 0.31484595 1.9296751 0.41238338 -0.45089832 0.49600846 0.8904609 -0.26012725 0.12239971 1.7375598 1.1577207 -0.8676828 0.2766445 0.49430475 0.7554308 0.8722247 -0.81166124 0.5990557 0.26677063
experi -0.18885912 0.34000117 0.74093497 0.08651736 0.122061625 -0.47616857 0.599713 0.44467056 -0.6968402 -0.04944779 0.08615132 -0.25877765 -0.58958167 -0.17028436 1.1265221 -0.29576433 -0.20923798 -0.14392775 0.5816724 -1.1109139 -0.4271266 0.25929925 -0.20127034 -0.4129106 0.5705009 0.6969576 -0.6370692 -0.41058224 0.4146025 0.17919475 0.06890301 0.6224961 0.1856196 0.4028005 -0.25572923 -0.58467996 -0.44203553 -0.37143824 -0.049953446 -1.123229 0.102542974 -0.9087637 0.18343015 0.27737433 -0.12507348 -0.3684023 -1.3903055 -0.7334583 0.0887342 0.11544008 0.2702412 -0.21496156 -0.90099114 0.30246833 -0.14664192 0.26032412 0.5662454 0.3547322 0.400304 0.5482399 -0.0020066553 0.040623143 -0.37307188 -0.17751275 -0.30675077 0.1312581 0.7412725 0.497039 -0.828869 0.2379937 -0.1414378 0.98149353 -0.41287905 -0.48185635 0.5668846 -0.6197601 0.263394 -0.026995378 -0.8069165 0.0023573758 -0.025268605 -0.13844317 -0.05246405 0.95291567 0.18046911 -0.58403176 -0.024541667 0.53022975 0.25647873 -0.51734513 1.0590527 0.72906905 -0.49431166 0.33056706 0.9040756 0.49803898 1.0047917 -0.84288603 0.53108644 -0.29184908
provid -0.27098164 0.15944023 0.028028512 0.08872774 0.08267306 -0.47299364 0.250889 0.61059946 -0.24127182 -0.066769324 -0.2817331 -0.51502734 -0.23187304 0.054619636 0.22818655 -0.42438784 -0.39825916 -0.34138 0.10751813 -0.6556877 0.21170892 0.13163728 0.15462376 -0.03926381 -0.08860289 0.12814344 -0.2522071 -0.33166203 -0.2680368 -0.13505124 0.45701736 0.16259058 0.17943159 0.17454113 -0.025735928 0.0757806 -0.09608587 -0.3271665 -0.36030543 -0.7593922 0.20021726 -0.23482186 -0.18144536 0.13003448 0.17294781 -0.09352792 -0.43727657 -0.2063742 0.19322264 0.06136643 0.24783985 -0.51101494 -0.23871456 -0.14422803 -0.2528112 0.25178865 0.25767973 -0.15884775 -0.331418 0.22614332 -0.030024873 0.056067653 -0.23326199 -0.15633205 -0.39416903 0.20429371 0.20111404 0.3083678 -0.29214942 0.45988864 -0.23605287 0.24449477 0.17545511 -0.21800627 0.45352343 -0.0026639488 0.004063445 -0.31105667 -0.41334403 0.12158467 -0.30392578 -0.17856942 -0.576321 0.47008687 0.069224656 -0.077888235 -0.15672515 0.4968175 0.38167864 -0.15128556 0.7386092 0.24891801 0.046367913 0.11525092 0.3522091 0.47243124 0.23413314 -0.418569 0.20032795 0.07957002
exist -0.44420993 0.18408218 0.29975572 0.13274425 -0.09360749 -0.44023266 0.30017373 0.45748442 -0.46906912 -0.12881099 -0.04005875 -0.3526119 -0.23521909 -0.14403306 0.42144996 -0.3029915 -0.27829605 -0.36844593 0.020568345 -0.69970316 0.15287904 0.35666198 0.13731748 -0.26771733 0.186825 0.41097474 -0.41400787 -0.16803938 -0.017475488 0.14037268 0.09981903 0.48094591 -0.10323678 0.1584736 -0.13080531 0.010493911 -0.051180366 -0.2373875 -0.43967843 -0.7031442 -0.22416617 -0.58651555 0.13221756 -0.021054251 0.14847282 -0.34985602 -0.7874531 -0.23615451 0.03963802 0.26141167 0.2351998 -0.16028163 -0.287278 0.0326546 -0.2101057 -0.02461377 0.45397434 0.07101617 -0.14752522 0.26937285 -0.12724398 -0.02160663 -0.112089455 -0.5009926 -0.46873614 0.1843084 0.50182724 0.62845826 -0.5879061 0.2893405 -0.08853994 0.39926836 -0.18819156 -0.10490394 0.46359393 -0.15544333 -0.009011395 0.094625644 -0.48970753 0.10836377 -0.38254485 0.31419927 -0.21023078 0.9421052 0.0045199334 -0.27283436 0.07961883 0.21168265 0.22717907 0.040327046 0.7643073 0.43971625 -0.22309898 0.2739326 0.66362494 0.37035117 0.524279 -0.5216098 0.44529045 -0.17987111
comput -0.29785758 0.010564684 0.0899782 -0.06419659 0.033150885 -0.75391316 -0.14076807 0.45953524 -0.088139124 -0.030569186 -0.4545125 -0.5416922 -0.22507468 0.15842998 0.05814047 -0.2301783 -0.50171024 -0.4046896 -0.04999159 -0.63245904 0.32318857 0.11759833 0.23451646 -0.27245373 -0.28191322 0.27622408 -0.36432433 -0.20488963 -0.2366954 0.13621923 0.49436498 0.23799059 0.20313348 0.15926062 -0.14976959 0.23019493 0.040647477 -0.06697774 -0.48687077 -0.46514383 0.08979298 -0.33262703 -0.29416215 -0.08478486 0.20466933 -0.45229024 -0.4385712 -0.08987588 0.12608655 0.30756253 0.16160072 -0.3617933 0.035183758 -0.06781969 -0.19360782 0.10048372 -0.02959653 -0.3247646 -0.361093 0.1208819 0.051116448 -0.073427774 -0.19850822 -0.31719747 -0.27314815 0.111342594 0.3896349 0.16489083 -0.2397154 0.61730105 -0.51209754 0.013347671 -0.07968945 -0.20813322 0.47038952 0.11903648 -0.06754618 -0.26503682 -0.3023229 0.22161925 -0.12847103 0.19741282 -0.60215664 0.6572621 -0.13739282 -0.08781181 -0.22464311 0.4378881 0.37020507 0.18744564 0.6954907 0.031801548 0.0063096117 0.10194454 0.38617036 0.24751419 0.32138032 -0.096910395 -0.02742435 0.072767615
neural 0.674674 -0.9515891 -0.02990497 -0.7723684 0.47475556 -1.4369196 -1.6315563 1.0440567 0.73751724 0.110878065 -1.3311607 -0.44766974 -0.697639 0.6193895 -1.5403504 0.12214241 -1.04505 -0.6818349 -0.7556721 -0.34201562 0.6665273 0.31258547 0.65108556 -0.38383368 -0.3830854 0.5152601 -1.6878071 -0.4386162 -0.9137426 0.16140991 0.36527023 -0.6754471 0.68760157 -1.1390866 -0.8859855 1.6305163 -0.10375631 -0.13644339 -0.9360006 -0.41187617 0.10364563 -0.21122529 -0.61216486 0.66422004 0.547398 -1.6424199 0.24387355 -0.21411256 0.65635616 0.5765529 -0.47261 -0.49542457 0.06229717 0.5051332 0.09654973 -0.10937187 0.12927377 -0.9954197 -1.1089047 -1.1055573 -0.86396235 -0.20688094 -0.2770907 -0.75499046 -0.38605735 0.6724718 0.23246726 -0.7533682 -0.2792898 0.3763795 -1.9060701 -0.33091366 -0.1359458 0.5696498 1.3026874 1.1151861 -0.9179568 -0.41568983 -0.14236735 0.7419109 0.31974006 0.9105659 -1.0394032 1.0715392 -0.8681098 0.49794057 -0.68064356 1.8756877 -0.15042673 1.2990875 0.38685036 -0.5196167 0.26786277 0.003098213 0.25787893 0.54785115 -0.44386038 1.2475079 -1.0361212 0.010909069
tune -1.2737756 0.65122855 0.4826652 -0.19709083 0.6157656 -1.8006502 0.9505128 1.8343815 0.24210101 -1.228094 0.43146032 -0.83118284 0.7659678 -0.026576374 0.7469579 -1.1316106 -0.022975372 -0.10207425 0.032552984 -1.6154076 0.30886003 -0.85198253 0.17429835 -1.414449 1.1376354 1.0800354 -0.047383398 1.1119417 -0.3057375 -0.1118949 -0.29978108 0.15437289 -1.069013 0.85015744 0.42256197 0.15005027 0.26403636 -1.0999751 -0.3186721 -0.4735015 -0.631741 -1.1183861 -0.5355205 -1.0689197 0.80135494 -1.7346094 -0.10160041 -1.1006136 -0.619523 0.14233997 -0.2886862 0.20488417 -0.9657249 0.23573741 -0.000999658 0.19929194 0.13808393 0.5740151 -0.04907528 1.5962868 0.56790566 -0.89924896 0.75129807 -0.9358503 -1.1639915 1.0638925 1.3707119 0.22255285 -0.2473577 1.5170827 0.7587323 0.017683811 0.5450679 -0.12462946 -0.73204356 -0.28136262 0.16465937 -0.51918447 -0.58453196 0.46863875 -0.46840852 -0.983375 0.2577501 -0.2233065 0.36269605 0.3840241 -0.096210964 -0.44125092 1.3537233 -1.3715724 -0.32005432 -0.19582528 0.92140615 -0.2828042 0.9967237 -0.5065116 1.5904833 -1.2597966 0.057423323 0.10769001
complex -0.3489003 0.2614078 -0.23586626 0.09281092 0.04494112 -0.56074286 0.017985102 0.45331654 -0.1167538 -0.051599953 -0.3878863 -0.5449949 -0.08961672 0.11129069 0.26246887 -0.33322555 -0.48237872 -0.39951864 -0.2423711 -0.4690126 0.1880946 0.17750736 0.044316255 0.012903979 -0.25701916 -0.09929404 -0.13813463 -0.36104846 -0.08599361 -0.046078406 0.5302955 0.13294493 0.32276618 0.23498973 -0.121012494 0.12228583 0.1250617 -0.14401272 -0.28618374 -0.6611508 0.21268798 -0.061725765 -0.10402909 -0.14127873 0.122195095 -0.049802113 -0.31053433 -0.02341997 0.16075116 0.40717307 0.07486753 -0.2828816 0.000501306 -0.3878707 0.036436826 0.3171491 0.073274754 -0.28683928 -0.36290017 0.08444835 0.14176117 -0.08308948 -0.1769135 -0.22128847 -0.4181374 0.0329664 0.10133458 0.1709418 -0.2530622 0.83474106 -0.32939717 -0.1867099 -0.05971763 -0.34808728 0.43804115 0.1505194 0.05834962 -0.285686 -0.49152166 0.2728945 -0.28056738 0.07113232 -0.79545003 0.60195297 -0.12161443 -0.07950819 -0.30206683 0.64371276 0.527513 0.028854305 0.52517897 -0.05856341 0.0070810313 0.015010007 0.38424292 0.44760635 0.1319078 -0.35710162 0.10725778 0.08842952
real 0.1598452 0.67436105 -0.38113958 -0.008601434 0.17096415 -0.7083332 0.5359038 0.47029006 0.31560948 0.26453054 -0.06606849 -0.073556066 -0.431102 0.28039315 0.9882211 0.3080299 -0.5481546 -0.47061694 0.3425667 -1.0999488 -0.7016681 -0.19399029 -0.48353094 0.26218817 -0.3808874 -0.05931827 -0.044864733 -0.97829187 0.76226354 0.070815 1.2409042 0.52317524 0.7592479 0.67538005 -0.70154065 -1.0833834 -0.16055694 -0.13181111 0.5310068 -1.3260148 1.1583333 -0.31504244 0.33042133 0.17366338 -0.558767 0.32845554 -0.77394474 -0.5847643 0.061304834 0.6677654 -0.45776972 -0.21852025 -0.37387043 0.1916767 0.5871222 0.79294527 -0.03277064 -0.41624665 -0.38722807 -0.26269048 0.546831 -0.54613626 -0.7727183 0.82296 0.5674634 -0.43165508 0.06240048 -0.6861157 -0.16749759 1.2037079 -0.5448418 0.03416164 -0.46380505 -1.2283144 0.8235811 0.0060493653 0.090277866 -0.57571566 -1.0433722 0.67170036 0.47590312 -0.4289637 -1.0826056 -0.052780744 -0.22750755 -0.48786157 -1.2475255 2.0846343 0.56260514 -0.47046447 1.8183731 -0.2443376 -0.10507384 0.344122 0.73272765 1.0240474 0.09903582 -0.9897635 -0.28293163 0.48138794
through -0.27795902 0.22509834 0.047714513 0.15064156 0.17323928 -0.5758987 0.21465075 0.6276277 -0.312996 -0.20301327 -0.17463489 -0.5970939 -0.14735615 0.0505369 0.22545445 -0.40999693 -0.21789497 -0.36316475 -0.16858675 -0.6306541 0.14641505 0.16052388 0.15464722 -0.19562382 0.035949964 0.18387172 -0.2491765 -0.2598774 -0.28795964 0.03790859 0.41108873 0.10345226 0.14118898 0.122602865 -0.15929781 0.24536459 0.055891857 -0.2952977 -0.40361297 -0.7136121 0.011860125 -0.24778737 -0.077164605 0.021615032 0.21434028 -0.27499804 -0.38791224 -0.18311736 0.13958642 0.25423804 0.18832509 -0.2908035 -0.2416721 -0.10323762 -0.20974207 0.16434243 0.16453055 -0.1073458 -0.33555916 0.21369515 0.07821708 0.006777932 0.017829593 -0.31950372 -0.4593588 0.15121384 0.29150066 0.34863713 -0.4092015 0.588723 -0.17343616 0.19492674 0.07563088 -0.2978227 0.37606174 0.014611199 -0.045608427 -0.15179063 -0.44915774 0.14658682 -0.28773645 0.009876343 -0.5321113 0.5719115 -0.05820118 -0.10901396 -0.14895017 0.40616298 0.47582534 -0.029468467 0.49290204 0.15470794 -0.0053083063 0.11121473 0.6144217 0.43633217 0.3287401 -0.36677662 0.22261389 -0.09758891
algo 0.010663372 -0.02099046 0.13399911 0.00615437 0.14130096 -0.65883714 -0.33707988 0.4764247 -0.14074557 0.06719774 -0.5508748 -0.6060649 -0.25847942 0.2730844 -0.17175321 -0.10269055 -0.6379828 -0.4642384 0.07935571 -0.74176365 0.3998279 0.19635235 0.38001186 -0.2657808 -0.2868371 0.41448098 -0.58431476 -0.24212529 -0.18591534 0.11311489 0.49167228 0.05052238 0.3418573 0.035956442 -0.2164084 0.23131076 -0.12949859 -0.20434941 -0.4400465 -0.6529601 0.08226843 -0.56993777 -0.2251086 0.23858166 0.004367289 -0.5288869 -0.51130354 -0.040972352 0.060210645 0.12852833 0.1348033 -0.3921015 0.10953613 0.060830195 -0.12930727 0.08647909 0.04805296 -0.28318146 -0.5391973 0.0022454131 -0.17258482 -0.03186358 -0.3247426 -0.26581925 -0.13766284 0.22609465 0.31455156 0.25192896 -0.2850893 0.5069805 -0.56040245 0.13874666 -0.0492412 -0.0038409266 0.8365236 -0.030645473 -0.33578268 -0.16475296 -0.10721503 0.18298444 -0.23436594 0.19624276 -0.63497096 0.76286644 -0.19900462 -0.016245488 -0.20422441 0.5159075 0.29260114 0.120334834 0.7961459 0.09985858 -0.018467724 0.18360594 0.4038553 0.2367112 0.14233981 0.032611493 -0.11971337 0.004676344
both -0.33773208 0.11965542 0.14625031 -0.0069598765 0.03972108 -0.6194365 0.19285063 0.56646377 -0.2925703 -0.19281112 -0.18822435 -0.45225844 -0.24464458 -0.05963495 0.34980893 -0.35066992 -0.23583256 -0.31675428 -0.082989894 -0.6109828 0.09614264 0.16650583 0.13176651 -0.3080643 0.12709174 0.26971483 -0.3192982 -0.18056102 -0.24789123 0.07977073 0.2793998 0.32092232 0.0014597415 0.16159044 -0.14880563 0.17915985 -0.06414106 -0.26542625 -0.45905694 -0.5747382 -0.08753935 -0.28923815 -0.043536004 -0.023552705 0.2998647 -0.45031276 -0.51141816 -0.21927641 0.08072753 0.31431302 0.13196263 -0.1487687 -0.21146205 -0.09405328 -0.2337847 0.08974652 0.21404696 -0.05078092 -0.084374785 0.22733729 0.031277273 -0.05300745 -0.04293682 -0.35966033 -0.5319606 0.17669778 0.43408802 0.3269486 -0.43419582 0.45374504 -0.24211405 0.23841208 -0.0743502 -0.31637594 0.29241195 0.1382073 0.053537734 -0.09856101 -0.5056376 0.25181654 -0.121909924 0.11864465 -0.29389477 0.6862044 0.041907623 -0.10829429 -0.09091933 0.46525154 0.37603077 0.017398823 0.5152968 0.21694686 -0.09732546 0.09069719 0.5731518 0.46332264 0.44835287 -0.41940558 0.2605654 -0.06730571
compar -0.44498146 -0.057277225 0.5615021 -0.10925778 -0.19204646 -0.53866863 0.16111849 0.45670786 -0.43966842 0.029318674 -0.14434177 -0.1916562 -0.4299386 -0.21233334 0.5052869 -0.12815474 -0.41052118 -0.3469627 0.28175396 -0.84615993 0.15080984 0.45110697 0.16335963 -0.4775025 0.30333233 0.7888316 -0.7507783 -0.11087933 0.063356474 0.25446653 -0.010726164 0.6260922 -0.23632687 0.18048558 -0.1298383 -0.090739004 -0.37347603 -0.22896418 -0.55117995 -0.6867737 -0.33725652 -0.7735764 0.114011884 0.19708903 0.16449563 -0.70605624 -1.0297117 -0.37002492 -0.07139202 0.20012009 0.26998872 -0.11365468 -0.27549213 0.17146781 -0.44601598 -0.12346225 0.56126314 0.20599176 0.022708861 0.3909352 -0.2745362 -0.11414437 -0.30784997 -0.47627363 -0.41392064 0.28297153 0.7817875 0.64500403 -0.6537702 0.101573184 -0.32109505 0.61045164 -0.32863277 -0.08104635 0.53501356 -0.13529211 -0.06160041 0.16448888 -0.49899793 0.22869234 -0.1667671 0.42505184 0.020893872 1.184207 0.026033157 -0.20097138 0.10949767 0.35717186 0.017135343 0.040561065 0.94267297 0.6510966 -0.35094357 0.30746183 0.60020566 0.396441 0.65762043 -0.41858467 0.46504328 -0.11506472
featur -0.012123629 -0.11686342 0.06964679 -0.018657774 0.18296924 -0.7567475 -0.046633676 0.5913817 -0.088651046 -0.0497003 -0.57756305 -0.52650225 -0.40311268 0.11438988 -0.21964596 -0.2240094 -0.5506729 -0.3943046 -0.115166314 -0.63531905 0.32680938 0.07513072 0.21154071 -0.2750143 -0.19986838 0.26881638 -0.518022 -0.28067556 -0.38156843 0.051911607 0.4851003 0.1302558 0.26538378 0.054049447 -0.08299866 0.4679436 -0.12504698 -0.12175242 -0.589401 -0.5360119 0.14965476 -0.27518544 -0.3589332 0.30937552 0.26959994 -0.6062469 -0.31822136 0.026172068 0.13611144 0.20848145 0.035221335 -0.30844727 0.052785553 -0.13947335 -0.39098993 0.126054 -0.097653374 -0.3818146 -0.44008988 0.06839708 -0.103299245 -0.01838464 -0.23229912 -0.22275238 -0.44752333 0.21396133 0.38898796 0.086931415 -0.20075125 0.53538966 -0.78648627 0.07557365 -0.007356061 -0.20853408 0.570055 0.2844366 -0.15155888 -0.35883936 -0.22313704 0.23276034 0.12387166 0.12236349 -0.56376535 0.5279694 -0.05156868 0.18405537 -0.3306845 0.66873044 0.3428525 0.11430817 0.4907622 0.02199927 0.07920515 0.107506506 0.3408765 0.37071806 0.21682765 0.008534978 -0.07527104 0.078169666
research -0.571552 0.35461578 -0.43106484 0.1488226 0.07737648 -0.39752507 0.037134193 0.7741457 -0.28694206 -0.20252226 -0.2003053 -0.6155723 0.31038615 0.12380118 0.21435079 -0.682401 -0.21588601 -0.5504175 -0.2105766 -0.41231138 0.38236907 0.40024439 0.07158428 0.08368706 -0.120811276 -0.40038297 -0.14625745 -0.4449762 -0.57939696 -0.31600624 0.49323323 0.012446168 0.028477361 -0.14151837 -0.19348238 0.39713162 0.19062833 -0.43366948 -0.16047463 -0.8856088 0.068593994 0.116040334 0.06274266 -0.2350357 0.2654029 0.30332232 -0.0990138 -0.026763424 0.2343537 0.35086024 0.2571859 -0.6255466 -0.12264597 -0.1847994 0.2056737 0.249126 0.43104213 0.013341326 -0.6132784 -0.13035426 -0.10214772 0.2024299 -0.08638828 -0.5685309 -0.38450575 0.19244117 -0.27906418 0.44756404 -0.35798198 0.4042858 0.46604618 0.05011067 0.5114689 -0.15118384 0.46169877 0.070968114 -0.0033476942 -0.21523176 -0.5188743 0.20887986 -0.8895778 0.10730092 -0.8622585 0.5290799 -0.043573976 -0.26450902 -0.009329824 0.5299676 0.61517924 0.2294933 0.8059455 0.13086487 0.07583681 0.07532709 0.46125373 0.67288727 -0.022100907 -0.4783978 0.322613 -0.003670414
fine -0.5354548 0.3688794 0.84160876 0.36732563 0.41964442 -2.14756 0.20979373 1.2481992 -0.9861411 -0.2045733 -0.41517285 -2.0152771 0.42182356 0.38958836 1.5108958 -1.5653565 0.64923245 -0.3587057 -0.69580215 -1.7219156 -0.052899852 -0.89407307 0.42428303 -0.53471124 0.27978396 0.88868433 0.19890307 0.4434591 -1.4072587 0.7306343 0.2789293 0.68532264 -0.5916168 0.10430499 0.06759038 -0.48955464 0.7722286 -1.2299749 -1.0024993 -0.014401294 -0.7848376 -1.548638 -0.47892082 -0.91288656 1.3070688 -1.6593227 -0.99748415 -1.1009581 0.61995995 0.13066415 -0.12020107 -0.2432963 -0.5361808 0.9005721 -0.43071792 -0.47732642 -0.41296494 -0.65171975 0.89013344 1.6799777 0.4616586 -0.68900555 0.51157933 -0.071071476 -1.2915205 1.0942185 1.6013529 0.36379746 -0.8420129 1.1670513 0.4379562 -0.10615724 0.38812113 -1.1783059 -1.1857605 0.5787576 0.36548066 0.0645347 0.30423453 -0.32123002 -0.46888492 -0.94295216 1.0589801 -0.1347361 0.83310574 0.26638168 -0.85740304 -0.22341587 1.1895854 -0.71664715 -0.13393584 0.1764688 0.45713863 -0.14540148 0.48378414 -0.4910327 0.7773945 -0.6334281 0.27303153 -0.14369573
text -0.5601822 0.2628945 -0.02599989 0.26877934 0.12830772 -0.6565041 0.6648007 1.1181982 -0.49805716 -0.52311426 0.058630794 -0.63670796 -0.104695216 -0.31690663 0.249186 -0.58287185 0.14010127 -0.5896177 -0.6332 -0.45282492 0.0644152 0.22620374 0.016319932 -0.33107167 0.18741547 -0.014100167 0.019809222 -0.16354777 -0.6387126 0.16950074 0.48571566 0.22340772 -0.13655752 0.03479876 -0.19714397 0.6706813 0.24004313 -0.19178726 -0.4506365 -0.35407975 -0.2573316 -0.0739008 -0.053434193 -0.114973 0.5063923 -0.36695302 -0.15715109 0.16667075 0.05024507 0.51716316 0.0031403955 -0.022129701 -0.16336004 -0.22956455 -0.41600713 0.15392625 0.04557174 0.078878365 -0.13213174 0.24374002 0.21026464 0.1369313 0.41028613 -0.49582523 -0.77281255 0.19030868 0.20024231 0.39278397 -0.4962797 0.3303953 0.04624412 0.21166395 0.09279041 -0.5787754 0.039905455 0.22675568 0.09792562 -0.07616946 -0.455725 0.28767464 0.059250668 0.12034885 -0.27367118 0.51198083 0.09562829 0.037509777 -0.073187046 0.07142326 0.6457302 0.024074722 0.09914113 0.041636303 -0.0674909 0.04491255 0.973893 0.43243223 0.47978804 -0.57491434 0.48511875 -0.26474592
applic -0.19763678 0.3829466 -0.3395626 -0.005859515 0.17199871 -0.5700388 -0.08403083 0.60089964 -0.074208096 -0.0002215275 -0.34669715 -0.6296755 0.021886855 0.20784375 0.3293441 -0.3031277 -0.41067386 -0.5371752 -0.27700564 -0.6246393 0.053209394 0.08786283 -0.06198859 0.02558854 -0.26065192 -0.18589723 -0.19255574 -0.5155579 -0.11738889 -0.1464861 0.7027343 0.07886462 0.4224922 0.05586663 -0.36179855 0.064343594 0.2364523 -0.24939823 0.02525039 -0.8846053 0.2995104 -0.10862191 -0.024995208 -0.11250369 0.058516692 0.03247523 -0.18467806 -0.07040624 0.18114184 0.5607475 -0.07010586 -0.33799475 -0.12617706 -0.23012125 0.32025895 0.38429978 0.045323852 -0.30929348 -0.47011334 -0.12740606 0.22774127 -0.10087061 -0.2395122 -0.09278587 -0.12345875 0.032812454 -0.041732017 0.021501942 -0.24309076 0.7764099 -0.2842796 -0.088964544 -0.1087802 -0.38126966 0.49526677 0.13917916 0.040579673 -0.33712363 -0.4704162 0.32463 -0.2229919 0.024025764 -0.9145486 0.50811476 -0.2068065 -0.25104064 -0.4090073 0.8787542 0.5483871 0.07071524 0.6728425 -0.13926835 -0.007186866 0.032056935 0.49219662 0.5062247 0.08373891 -0.48027584 0.04637865 -0.050234973
