2144 100
we -0.45270452 0.4432037 0.043233436 0.31227225 -0.10835693 -0.6188706 0.23425508 0.8685614 -0.4135599 -0.089034826 0.055217754 -0.3369669 -0.047770675 0.096622266 0.15348649 -0.34306917 0.12894805 -0.6054917 -0.1421922 -0.7324926 0.060059234 0.33380792 0.11766613 -0.059045717 -0.26431245 -0.1046483 -0.36935857 -0.40042806 -0.6091285 0.1979736 0.1895886 -0.01620173 0.20531078 -0.2236636 -0.20073453 0.6102865 0.09301666 -0.24282347 -0.2165455 -0.6513466 -0.01668877 -0.30074295 -0.26912045 0.009138185 0.31678563 0.15758672 -0.16295528 0.0045794044 0.16284458 0.47223604 0.11240724 -0.022592185 -0.36834753 -0.18355526 -0.18038905 0.21217237 0.27593085 0.30137527 -0.46382 0.24946809 0.0890661 0.23217393 -0.15352467 -0.0507892 -0.5150268 0.18335019 0.03835016 0.21244155 -0.48005965 0.33940205 0.030484576 0.028256023 0.31913355 -0.43852547 0.4704458 0.20639324 0.10420892 -0.009395809 -0.29415324 0.024163822 -0.018155633 -0.0060804537 -0.45756853 0.57951987 -0.33631238 0.05558911 0.20682773 0.32282078 0.4910984 -0.014139682 0.519399 0.3549416 0.112733155 0.4708884 0.5747881 0.35606682 0.26733497 -0.3559023 -0.17846759 -0.25672475
method -0.3355456 0.25654528 -0.050755028 0.07441317 0.17524515 -0.5897446 0.12818646 0.74930054 -0.40402365 -0.017229656 -0.16717562 -0.26915637 -0.024063945 0.09822093 0.08601917 -0.28599966 0.21617618 -0.4093801 -0.09459897 -0.7829882 0.0046623126 0.28290063 0.1997624 -0.28453425 -0.10718709 -0.0021571154 -0.32377014 -0.18841408 -0.50882953 0.12950686 0.30840322 0.122939855 0.011945143 -0.18969156 -0.09665707 0.5653865 -0.018483473 -0.25258213 -0.12689362 -0.4830406 0.023394099 -0.46959198 -0.18130456 -0.15601738 0.36658123 -0.122053675 -0.11211876 0.012389943 0.14268893 0.31094956 0.15123095 -0.18942061 -0.2248142 0.11207306 -0.3432964 0.18700978 0.43097702 0.23612286 -0.3482126 0.27876332 0.07818482 0.034318056 -0.20105906 -0.05731746 -0.40511978 0.10063675 0.0014119017 0.08665565 -0.58266866 0.55622965 -0.03905516 0.08220809 0.28669715 -0.25644153 0.29687032 -0.019378174 0.20426638 0.06484887 -0.24035941 0.0018747025 -0.16395208 0.054483593 -0.5914416 0.4977992 -0.27769226 0.004171108 0.014693857 0.44781297 0.43650278 -0.034238856 0.6409191 0.30887097 0.11935142 0.3704426 0.5389763 0.3766219 0.30270973 -0.6395012 -0.10112544 -0.21606165
problem -0.2998275 0.11738102 -0.13173272 0.06372229 -0.051309995 -0.4939977 0.1127149 0.73732954 -0.31355894 0.21831472 -0.41851348 -0.19923592 -0.09664508 0.003485423 -0.18012437 -0.28288156 0.08162789 -0.2859191 0.25072727 -0.5728027 0.07856864 0.09271022 0.12826478 -0.34208596 -0.054581977 -0.10216048 -0.28820726 -0.29785052 -0.54804057 0.18890876 0.42118537 0.035464153 -0.016073626 -0.24196473 -0.09636264 0.34637746 -0.25781345 -0.32221207 -0.12322953 -0.6372533 0.0050253817 -0.36498365 -0.35195217 -0.170893 0.54762703 -0.37803674 -0.2384952 0.04397582 0.046973728 0.04654652 0.050923742 -0.27219927 -0.069058076 0.13619664 -0.216802 0.24355136 0.14241202 -0.101823166 -0.50398916 -0.042793386 0.05344109 0.01263438 -0.14902642 -0.13297926 -0.48092106 0.365157 0.09648108 0.19935448 -0.39266235 0.52572864 -0.19960716 0.13217632 0.33178702 -0.2656472 0.48590833 0.13412565 0.11380152 -0.0043163933 -0.1519132 0.101112366 -0.1295883 -0.025170986 -0.3712109 0.7053941 -0.18881834 -0.22372337 -0.0051612128 0.53231823 0.3524863 -0.11595267 0.46794614 0.27986956 0.1735638 0.037655417 0.7458806 0.3615408 0.26904732 -0.5660623 0.076086275 -0.014036251
numer -0.38666785 0.8077404 -0.05475148 0.31386614 0.17263395 -0.5675946 0.32603332 1.0110216 -0.33968726 -0.22464038 0.35761207 -0.34958765 -0.010831643 0.24435087 0.50859535 -0.5192817 0.23708048 -0.8439655 -0.40146333 -0.7858185 0.07045303 0.2838721 0.19397418 0.28508583 -0.56607217 -0.17454971 -0.27904108 -0.4919774 -0.71356994 0.33703205 0.20368972 -0.043196507 0.44753066 -0.46727115 -0.1443129 1.004421 0.24857043 0.074049704 -0.3600444 -0.38520983 -0.06354861 -0.23509474 -0.1743921 0.25040746 0.20862854 0.5425859 0.0037041323 -0.042551283 0.1974091 0.7700905 0.28247973 0.0054234136 -0.6277061 -0.46042725 -0.20302847 0.20346452 0.35714474 0.89437675 -0.4332285 0.46512973 0.2584308 0.35603297 -0.04515955 0.0053779227 -0.56851757 -0.0031770803 0.096398644 0.3126516 -0.5089307 0.23722616 0.2809264 -0.037818838 0.37842917 -0.55051106 0.5715406 0.06455097 0.031209229 0.07247889 -0.41969424 0.0056982622 -0.096213676 -0.010117471 -0.83387834 0.5174019 -0.5619573 0.15313445 0.41752404 0.37647188 0.67027754 -0.2503922 0.47906235 0.32382366 0.13666604 0.7079049 0.40248773 0.262875 0.47006625 -0.24155414 -0.2705434 -0.6237839
equat -0.16027409 -0.304745 -0.3997053 -0.28491864 -0.106293626 -0.33637452 0.008220955 0.6961379 -0.032430384 0.38155535 -1.0520655 0.10520102 -0.49871835 0.14591268 -0.5812891 -0.40693396 -0.13390002 0.037464693 0.9729632 -0.39003193 0.33927554 -0.20806375 0.09049738 -0.44833276 0.34850702 0.08548249 -0.2784152 -0.031709425 -0.7933903 0.074875996 0.60213965 0.05970541 -0.2160444 -0.77751374 0.0026174881 0.11735741 -0.77446336 -0.45715806 0.04295973 -0.31749076 -0.07806786 -0.4142084 -0.7420151 -0.5164862 1.0431212 -1.3621172 -0.44473156 0.036420476 0.09235936 -0.3957062 0.021615295 -0.5200281 0.38415956 0.51064074 0.09695871 0.3870535 -0.24778716 -0.68634564 -0.53785604 -0.48000038 -0.0015388615 -0.51368064 -0.15018566 -0.1711068 -0.5398811 0.81003374 0.053328764 0.3689888 -0.2620044 0.9798859 -0.6151866 0.49524134 0.23779736 -0.2977531 0.8113075 -0.060377564 0.02100931 0.23693575 0.17149468 0.028347109 -0.3618589 -0.18997969 -0.3942611 1.12688 -0.04200021 -0.77567375 0.12710813 1.0353324 0.014864979 -0.5041675 0.6129611 0.17021981 0.37839845 -0.6202202 1.27938 0.4561292 0.08643356 -0.71492887 0.07301412 0.515356
model -0.37518823 0.11905634 -0.011424279 0.07409594 -0.1072145 -0.7103539 -0.04369831 0.8717964 -0.28614953 0.02542304 -0.3445697 -0.18777703 0.012763136 0.00705083 -0.095636345 -0.35265547 -0.019160727 -0.2641735 0.31499124 -0.5415022 0.124183 0.31290922 0.12008816 -0.20096774 -0.07042288 -0.005947121 -0.32319778 -0.4291402 -0.4132932 0.32916763 0.31206337 0.024120923 -0.10609025 -0.29194215 -0.17320275 0.5380969 -0.13169235 -0.4829587 -0.14492452 -0.6750726 0.23343706 -0.42387354 -0.3714661 -0.2044515 0.552113 -0.3024308 -0.18072407 -0.004915321 0.059153404 -0.046006326 0.07055043 -0.31943917 -0.046949424 0.22071719 -0.14613247 0.35682636 0.13407607 -0.16433397 -0.4808261 -0.10361022 -0.007739204 -0.04488043 -0.067382924 -0.14201717 -0.35994586 0.3800399 -0.038305428 0.058199152 -0.49859354 0.49732932 -0.24725357 0.08142889 0.22929375 -0.2621748 0.5400381 0.32672194 0.028945303 0.0035490089 -0.33098584 0.2126272 -0.08644527 0.01799646 -0.18406607 0.4863189 -0.16444506 -0.12614751 -0.10325016 0.7060852 0.50024277 0.13756925 0.5013911 0.27264196 0.11013315 0.18496937 0.7348316 0.39075336 0.22279674 -0.5254613 0.011089597 0.018546054
use -0.29122657 0.13732389 -0.049484774 0.031826455 0.030268326 -0.6356354 0.06522425 0.74152493 -0.34678277 0.100484826 -0.31619596 -0.19864993 -0.006975716 0.011488313 -0.108027056 -0.27270842 0.11295734 -0.31629968 0.12685628 -0.6812351 0.0649258 0.2751843 0.20487547 -0.32355887 -0.068103075 -0.010414859 -0.32341936 -0.26727253 -0.47025454 0.1771195 0.39593512 0.12844892 -0.071320884 -0.15309493 -0.11505625 0.46183625 -0.15467678 -0.393001 -0.14169638 -0.64536595 0.100004256 -0.44050646 -0.23130119 -0.24640928 0.49005273 -0.28930822 -0.17792739 0.020231802 0.07647337 0.10405069 0.09214333 -0.25776705 -0.10338822 0.19730721 -0.27431884 0.24070787 0.2576041 -0.01032695 -0.4043903 0.02977121 0.037092876 -0.011407114 -0.17197423 -0.114793845 -0.38522467 0.25342056 -0.002930508 0.03956547 -0.53629357 0.5043141 -0.18702953 0.09942086 0.24750277 -0.2178266 0.3774578 0.11676734 0.16646914 -0.008781581 -0.24591042 0.11623404 -0.10080731 0.029401785 -0.42297092 0.5572752 -0.22814259 -0.0964078 -0.07062075 0.5033916 0.37129903 0.054968458 0.5443102 0.26760826 0.09784409 0.21819864 0.65889245 0.36233407 0.2550307 -0.6322568 -0.012842361 -0.057153933
approxim -0.30566326 0.13220602 -0.038494058 0.019689709 -0.0105272215 -0.60923797 0.034442786 0.69297624 -0.34090325 0.10305805 -0.2792477 -0.18922997 0.01955007 0.026576744 -0.113606445 -0.2620563 0.11809737 -0.34434316 0.10972942 -0.65133893 0.0508761 0.25701672 0.16253491 -0.37960646 -0.08655426 0.004138496 -0.3019101 -0.1932181 -0.48102137 0.21299325 0.37412596 0.103701025 -0.11567285 -0.17322071 -0.10073149 0.4409088 -0.1352977 -0.3712352 -0.18161501 -0.6548898 0.08531569 -0.4026174 -0.27078468 -0.24886802 0.49587655 -0.26801455 -0.14519766 0.010349407 0.066643775 0.112929285 0.09599174 -0.18198898 -0.061742086 0.20465726 -0.25201812 0.26982352 0.25661385 0.02433331 -0.40728125 0.050195683 0.027214509 -0.022713821 -0.182892 -0.05279287 -0.33252415 0.22321005 -0.0316652 0.023319796 -0.51277083 0.47861603 -0.12819602 0.10020552 0.23358846 -0.23149055 0.30281043 0.13756984 0.19948165 -0.05313564 -0.19187392 0.09483241 -0.12669691 0.042095702 -0.41898772 0.54931176 -0.22163019 -0.08702953 -0.06696869 0.5196661 0.40612945 0.10904875 0.5592276 0.22670743 0.060994934 0.19500409 0.5850483 0.35435426 0.24195167 -0.6178971 0.0008319286 -0.054273788
time -0.2405002 0.12742907 -0.092615984 -0.05728893 0.14367789 -0.57681286 0.13068458 0.6394741 -0.36422098 0.22001506 -0.38824022 -0.1650909 0.004834804 -0.074694194 -0.15122606 -0.21109144 0.08928257 -0.24564272 0.12913318 -0.716671 0.07765795 0.23730327 0.32132983 -0.46487162 -0.017801225 -0.01772232 -0.29686797 -0.16908777 -0.45509 0.05582725 0.49458838 0.116674274 -0.07542845 -0.07139218 -0.060770594 0.37690738 -0.23175609 -0.34005702 -0.04615525 -0.6210558 0.012511906 -0.41934857 -0.21001998 -0.33329454 0.5123093 -0.45979616 -0.20011164 0.10107842 0.07381353 0.03375779 0.08769299 -0.26265985 -0.0025351658 0.24767625 -0.2843278 0.19058149 0.29581878 -0.072962835 -0.3185906 0.0068718693 0.03322542 -0.08488423 -0.19331527 -0.13975759 -0.3962597 0.25411895 -0.01062616 0.079161644 -0.5903727 0.53853714 -0.30291098 0.16165552 0.28036693 -0.12688339 0.26207545 -0.027178068 0.18083905 -0.03467117 -0.19724534 0.044942964 -0.18297368 -0.0020716845 -0.4574581 0.62657726 -0.1553219 -0.15125513 -0.11013027 0.388185 0.2481082 0.010696782 0.59480655 0.24846312 0.10804078 0.10980172 0.8095475 0.37557423 0.20981248 -0.7211262 -0.010345615 -0.04367862
propos -0.36811382 0.42734453 0.011326179 0.24676882 -0.02112049 -0.64274335 0.18934533 0.8864641 -0.37035793 -0.11118614 0.070938386 -0.344481 -0.015284198 0.15955642 0.2539721 -0.34608927 0.12977974 -0.6093629 -0.112579346 -0.7229856 0.09354069 0.37334046 0.111728534 0.0026750981 -0.28516832 -0.09402714 -0.31485954 -0.39434108 -0.56979537 0.24757203 0.24888624 0.0070529324 0.21251816 -0.2348691 -0.2199113 0.73748267 0.104193576 -0.21258599 -0.25895163 -0.56732357 0.06589801 -0.30453113 -0.24395442 0.057754442 0.33115807 0.15159763 -0.047223777 -0.03132452 0.156017 0.4958468 0.12655261 -0.08764403 -0.36900443 -0.1619847 -0.19411749 0.19500321 0.25737616 0.3615595 -0.40291354 0.2312111 0.12723324 0.19772181 -0.05942731 -0.052018415 -0.5113067 0.13248226 0.025579117 0.16737264 -0.5201211 0.35193524 0.026395315 0.034552954 0.32331556 -0.4625406 0.49881205 0.23425429 0.087557435 -0.008774155 -0.37899017 0.10287843 -0.015872668 -0.010376394 -0.5324942 0.49151108 -0.3498912 0.07645417 0.11825994 0.4033452 0.5594007 -0.034751408 0.48474613 0.35429636 0.11603412 0.54025614 0.5327591 0.32503226 0.33125085 -0.32012355 -0.14800711 -0.35820106
comput -0.33207732 0.28111595 0.014840721 0.12657946 -0.022452572 -0.7084836 0.085559234 0.86595637 -0.38642243 0.068059884 -0.17306976 -0.26763365 0.045796327 -0.034287017 -0.00362521 -0.29788822 0.09556959 -0.45744407 0.12058825 -0.69678605 0.089689024 0.3044919 0.23531677 -0.2372936 -0.23559014 -0.07643769 -0.33930138 -0.40134186 -0.4511332 0.30772135 0.38189584 0.05819298 0.037811674 -0.14877412 -0.0980803 0.5772879 -0.03047058 -0.31770802 -0.23797663 -0.7215371 0.08041988 -0.37713355 -0.27608737 -0.05867874 0.39137796 -0.07729922 -0.14720903 -0.0055611427 0.0254262 0.19493946 0.10308091 -0.19463809 -0.16220318 0.07276939 -0.2726288 0.2647876 0.23474477 0.1348842 -0.4255544 0.11277891 0.026822727 0.0877015 -0.13941203 -0.11930235 -0.41571933 0.22263545 0.040871605 0.085194506 -0.48066008 0.4065456 -0.14545427 0.07321039 0.2618469 -0.29443482 0.438884 0.25848514 0.10435263 -0.07332065 -0.32276595 0.16315566 -0.09089143 0.06204999 -0.36643198 0.5026757 -0.2868592 -0.014735928 -0.04510054 0.4650528 0.5438647 0.09255985 0.5269013 0.24705142 0.032452203 0.32209912 0.5846155 0.3323306 0.35124058 -0.5323169 -0.0031996355 -0.195602
order -0.16512483 0.23153691 -0.11403939 -0.091285475 0.12822352 -0.64178705 0.14481945 0.7492243 -0.37623432 0.10617165 -0.28412873 -0.113911785 -0.03171274 -0.044884443 -0.120463476 -0.2921593 0.15667169 -0.38085905 0.024099236 -0.8953242 0.0053892103 0.13847752 0.35166684 -0.46769854 -0.11624549 -0.08634182 -0.35059947 -0.021028386 -0.48148975 0.083598234 0.4131126 0.11569439 -0.065470174 -0.120533936 0.033347424 0.43780622 -0.13087676 -0.2559139 -0.15320714 -0.556995 -0.11026644 -0.41028342 -0.16895255 -0.2503532 0.48947978 -0.3970256 -0.005371014 0.120766096 0.12020173 0.25787988 0.1405371 -0.21852116 -0.015194323 0.24080925 -0.38046846 0.14135318 0.35109475 0.11919352 -0.31789145 0.17755686 0.10469729 -0.06269778 -0.25006542 -0.05929702 -0.38156503 0.22744551 0.05529448 0.10667407 -0.6331278 0.57319814 -0.18244599 0.2752671 0.28886893 -0.150699 0.22248454 -0.08114039 0.21155883 0.03596149 -0.13163128 0.01759639 -0.18747102 0.07534082 -0.66147894 0.5193878 -0.20002162 -0.123556085 -0.10884015 0.32191923 0.36815783 0.039538935 0.6986881 0.218564 0.012607326 0.2221615 0.7294018 0.2503385 0.16353734 -0.7721827 -0.09532051 -0.13691936
solut -0.2685815 0.12263781 -0.0969459 -0.0048390687 0.010568265 -0.5330267 0.08891069 0.70812404 -0.27463534 0.14877304 -0.35111246 -0.19453141 -0.09381859 0.023669863 -0.15558724 -0.30001926 0.06986866 -0.32967883 0.21749328 -0.5940893 0.11149703 0.18342324 0.1489967 -0.29170755 -0.07508987 -0.022905026 -0.2963855 -0.22057836 -0.5071085 0.191716 0.39980578 0.061269328 -0.03136196 -0.26717937 -0.08570505 0.37315536 -0.20041777 -0.32224685 -0.13871662 -0.560575 0.029223697 -0.36650896 -0.32273456 -0.21663077 0.46672598 -0.34594703 -0.17342216 0.0064763725 0.05334122 0.11755613 0.09599771 -0.24066104 -0.04935141 0.17026852 -0.17631169 0.24755086 0.18069495 0.0028460843 -0.40327778 0.023404019 0.011194292 -0.035757884 -0.15678495 -0.092615336 -0.40632352 0.29171357 0.051460583 0.11052784 -0.43476823 0.51693845 -0.17026673 0.14346913 0.275188 -0.28797242 0.40382576 0.076270066 0.121966645 -0.010890783 -0.16328439 0.082636535 -0.17362724 0.022726657 -0.4259699 0.65426725 -0.215534 -0.1610043 0.026471518 0.5022344 0.32677937 -0.057327554 0.52613795 0.21780582 0.12501854 0.077206574 0.6513326 0.34003788 0.23462349 -0.55708164 0.0011057089 -0.00045123763
base -0.35298327 0.15422304 -0.020235362 0.10574756 -0.03885495 -0.6581521 0.014916079 0.7469819 -0.3156277 0.018717704 -0.2802008 -0.19790216 -0.0014773149 0.07284104 -0.00016229585 -0.2867271 0.07092063 -0.2923758 0.11647919 -0.6101332 0.1075794 0.31342122 0.12920552 -0.23830363 -0.054640736 0.016411694 -0.32475093 -0.3031599 -0.43650842 0.20897186 0.30618596 0.08945224 -0.040715076 -0.18195179 -0.1639568 0.515887 -0.10084229 -0.4101588 -0.15220161 -0.61413616 0.13499817 -0.42919323 -0.29309723 -0.19472566 0.47218725 -0.26942232 -0.14353728 -0.028767915 0.09823146 0.08794687 0.08232734 -0.226759 -0.14912346 0.16935495 -0.21350732 0.27083188 0.23303984 -0.04749198 -0.4284904 0.034799527 0.036376566 0.022986328 -0.10665236 -0.08654455 -0.35943574 0.23181506 -0.027771583 0.064741135 -0.507055 0.5080081 -0.14818963 0.06339193 0.21104851 -0.25765923 0.43721744 0.24563396 0.12031868 0.013678908 -0.30801007 0.11972122 -0.0849637 0.011839968 -0.31636164 0.50367755 -0.2091886 -0.048133627 -0.04333831 0.578308 0.42834118 0.08023748 0.5515921 0.29211375 0.12318333 0.24469116 0.63779306 0.38131824 0.24449404 -0.5415361 -0.059966337 -0.033097986
scheme -0.23825808 0.36639434 -0.09215323 -0.031449076 0.17508206 -0.61907023 0.22214995 0.7866365 -0.39483687 0.045950584 -0.12858172 -0.2510472 -0.0463874 -0.025330469 -0.013687765 -0.25657135 0.22550032 -0.4911631 -0.070906945 -0.9184427 0.0023338597 0.26485667 0.3081759 -0.32858717 -0.21305466 -0.07539848 -0.32055053 -0.17701516 -0.5565699 0.09283475 0.40133768 0.115605704 0.050949987 -0.15782902 -0.0655838 0.5243171 -0.038822662 -0.20340885 -0.16497238 -0.54964495 -0.040401835 -0.42399776 -0.13025336 -0.18471369 0.41844785 -0.14468494 -0.094257474 0.08089945 0.16176012 0.4056924 0.13590346 -0.13175863 -0.1803226 0.053381175 -0.35728413 0.13052139 0.43674803 0.30227423 -0.34217334 0.29729912 0.1122886 0.05352929 -0.25190714 -0.061213892 -0.4684065 0.15840031 0.06402048 0.12076277 -0.63955206 0.5049597 -0.10076371 0.105356336 0.38100344 -0.27349454 0.26636222 -0.11045406 0.24450144 0.021428144 -0.19579174 -0.017143812 -0.15473282 0.046628296 -0.70454204 0.5729092 -0.3071083 -0.012346668 0.01865209 0.3142772 0.39566603 -0.051288784 0.66409194 0.30455706 0.06961993 0.40221184 0.62054086 0.30002406 0.29052308 -0.67417896 -0.121818304 -0.26591128
algo -0.40280542 0.31883273 0.013463616 0.1907804 -0.06935444 -0.6908027 0.089233644 0.8661716 -0.3954892 0.08826096 -0.17187075 -0.3173603 -0.009627718 0.013017305 0.0051913615 -0.32518739 0.08278912 -0.477034 0.107121944 -0.6570232 0.11421008 0.32926384 0.15700886 -0.19331244 -0.26254165 -0.07414205 -0.34358713 -0.41235423 -0.48585767 0.2664416 0.36925936 0.031932797 0.05758169 -0.16453403 -0.148359 0.58042777 -0.0034304655 -0.33678836 -0.24371308 -0.692944 0.12392141 -0.3857936 -0.31633478 -0.038034443 0.40392375 -0.0053847586 -0.16245852 -0.02746202 0.07849046 0.20915885 0.09448066 -0.16107257 -0.16947676 0.039786197 -0.25932792 0.28929085 0.26341522 0.14682348 -0.45446056 0.107695 0.03635847 0.14236042 -0.16770588 -0.123038575 -0.4230908 0.20538194 0.05721151 0.13800876 -0.45294315 0.42146358 -0.14139268 0.012805008 0.30951577 -0.3535799 0.4674829 0.2937702 0.09164347 -0.053749777 -0.30824175 0.13307361 -0.109290145 0.030412087 -0.3636589 0.5225346 -0.28805816 -0.010455677 0.019703586 0.45015278 0.5417029 0.06094852 0.5145176 0.28406742 0.0610501 0.31449953 0.6007889 0.37890434 0.3452115 -0.45699626 -0.05145382 -0.14839396
which -0.34861246 0.14394917 -0.013669021 0.07320996 -0.04526218 -0.6726957 0.03138067 0.7740937 -0.34493187 0.13988104 -0.32655138 -0.23475444 0.006276758 -0.02589001 -0.14974624 -0.26729214 0.032877516 -0.3355835 0.189113 -0.62450373 0.10693188 0.29962468 0.18274361 -0.31183907 -0.122393034 -0.032316193 -0.31567687 -0.35804138 -0.43169373 0.23831895 0.40513366 0.07779932 -0.076414905 -0.133215 -0.1114494 0.44436574 -0.13026059 -0.42064536 -0.18411101 -0.7332609 0.13289551 -0.40977177 -0.2948045 -0.1898821 0.47666672 -0.22477598 -0.19338925 0.0199602 0.06531062 0.051058877 0.079500996 -0.25061885 -0.07060702 0.18165009 -0.23253922 0.29887086 0.2086546 -0.042112082 -0.4584722 -0.01377072 0.018093742 0.046498507 -0.18120438 -0.117922544 -0.37829712 0.2739332 0.0129706785 0.052674163 -0.46206972 0.44132516 -0.19624692 0.05385586 0.2469803 -0.25132993 0.40377918 0.23440309 0.122733325 -0.06622955 -0.24712014 0.14538391 -0.109732345 0.029423207 -0.30357864 0.5227493 -0.21424417 -0.08422355 -0.08475653 0.5064391 0.41480026 0.10139392 0.5045658 0.26087588 0.088390425 0.19915392 0.6349053 0.37371242 0.24023034 -0.57488924 0.0044948324 -0.00882214
approach -0.37883583 0.34045136 0.029325113 0.21256271 -0.04919119 -0.6479842 0.097909115 0.87457085 -0.31707585 -0.06516343 -0.06718602 -0.29806763 0.008539328 0.09681034 0.15501527 -0.37677422 0.059240937 -0.45615366 0.06265027 -0.6074614 0.13954367 0.34101427 0.07636645 -0.04982071 -0.24449727 -0.07159679 -0.31318003 -0.46222788 -0.4539894 0.30333117 0.22081374 -0.006744667 0.093166746 -0.27804887 -0.20195025 0.66049844 0.020779574 -0.2938406 -0.21065155 -0.60435003 0.17058271 -0.37504596 -0.28936854 -0.010838565 0.37568566 0.05109211 -0.1227281 -0.05796134 0.110930555 0.2579861 0.12977356 -0.15320204 -0.22533138 -0.047676302 -0.13765071 0.2797022 0.22181338 0.17745534 -0.4357689 0.12424054 0.036447514 0.11230718 -0.0836414 -0.07745251 -0.4143678 0.2101563 0.007532862 0.14059827 -0.45708796 0.39133692 -0.068159126 -0.007518125 0.2764678 -0.36791754 0.53995997 0.30494267 0.04906005 0.015709851 -0.3598438 0.1461539 -0.07364078 0.0314798 -0.3572256 0.45432937 -0.2639777 0.025421172 0.079719655 0.49994412 0.5817505 0.035693306 0.49739727 0.2870613 0.11683454 0.38903645 0.5644154 0.36437947 0.2939207 -0.3472119 -0.09179676 -0.20431928
system -0.24459153 0.049360346 -0.16259395 -0.022840608 -0.026136164 -0.5767446 0.07518251 0.78890383 -0.2708431 0.20695037 -0.5285141 -0.13732514 -0.15548605 0.020512901 -0.23755313 -0.29838505 0.018964298 -0.2556787 0.43022427 -0.559484 0.17182732 0.09735833 0.17381756 -0.3586557 0.010795101 -0.01953409 -0.31635177 -0.2679904 -0.56011516 0.18253586 0.49894172 0.058391977 -0.09738244 -0.33914107 -0.07408603 0.38043237 -0.31665388 -0.34654415 -0.10014744 -0.6153418 0.026159976 -0.39077166 -0.3812299 -0.230099 0.6165199 -0.5510354 -0.27869985 0.026709396 0.07700184 -0.04877757 0.05333383 -0.34017324 0.035263754 0.25815165 -0.16329695 0.31691945 0.07570736 -0.1562674 -0.4678322 -0.11000189 0.037106827 -0.08064415 -0.15540221 -0.14139074 -0.46255773 0.44962496 0.060243975 0.1996566 -0.393485 0.6079281 -0.2986661 0.1848847 0.2855716 -0.27890056 0.5875774 0.08691959 0.06581877 0.051807348 -0.1329614 0.074754685 -0.1939126 -0.04213399 -0.3752185 0.74587667 -0.15942311 -0.31630316 0.008338469 0.67003256 0.31508118 -0.15436567 0.5435325 0.21824114 0.1722793 -0.022248507 0.8433885 0.37748343 0.24691212 -0.628698 0.045106485 0.08801428
result -0.39462885 0.63013023 0.009343583 0.31661052 0.0035173513 -0.6248022 0.2605782 0.9555512 -0.4156211 -0.107477665 0.17416956 -0.43825638 0.014506529 0.13993396 0.30625233 -0.4605542 0.19206654 -0.77625567 -0.20846465 -0.7919269 0.10010624 0.37568712 0.08962973 0.09837461 -0.49734756 -0.14639556 -0.3523626 -0.5571166 -0.6204647 0.3425435 0.26522002 -0.049900442 0.3078729 -0.38680205 -0.20881279 0.8023255 0.14227016 -0.11116377 -0.32429442 -0.6103216 0.03416513 -0.29714084 -0.22856143 0.18884648 0.2328847 0.39590418 -0.06548627 -0.08768708 0.15646848 0.6439882 0.1643882 -0.05952242 -0.4818441 -0.2713235 -0.16745578 0.25539982 0.3342894 0.6080367 -0.48011458 0.35049745 0.13615525 0.2967459 -0.1150512 -0.0332694 -0.5714029 0.121017866 0.077344544 0.19237836 -0.51038474 0.30392963 0.10782379 -0.029807203 0.41877392 -0.5601523 0.53074646 0.21615478 0.064685866 -0.00038863043 -0.3932425 0.034691643 -0.079927295 0.037884668 -0.65336466 0.5584724 -0.45311183 0.14629334 0.2619505 0.39053547 0.67270035 -0.107383884 0.5091335 0.32040507 0.08029409 0.6398598 0.40853634 0.30618474 0.3722639 -0.27017772 -0.15928458 -0.43042678
our -0.3983185 0.6405534 0.025989326 0.38042423 0.032183755 -0.64294106 0.23247974 0.979206 -0.36637604 -0.15640925 0.23378262 -0.40424147 0.037061147 0.18789552 0.36922395 -0.46007696 0.14081025 -0.72766024 -0.26837167 -0.7421389 0.09411762 0.40730545 0.08846717 0.18930344 -0.47978932 -0.15676184 -0.3285327 -0.5693924 -0.6176915 0.3459307 0.21284114 -0.05054127 0.34366456 -0.35587636 -0.22594124 0.8788327 0.20678207 -0.09127585 -0.3233199 -0.5725119 0.0675815 -0.30563587 -0.24837121 0.2020827 0.21287853 0.41600874 -0.053678058 -0.08963178 0.15825824 0.62669075 0.20850603 -0.06629283 -0.51281494 -0.30759782 -0.19539607 0.25186327 0.30609915 0.6024535 -0.48591608 0.33950534 0.15563715 0.32903808 -0.048781794 -0.060798068 -0.5428577 0.07594024 0.057148546 0.18031764 -0.50726813 0.2645477 0.14479461 -0.058782056 0.34401813 -0.5458987 0.57162005 0.2778386 0.045378704 0.0087349415 -0.46930867 0.07643379 -0.05133027 0.011078002 -0.59966534 0.4500359 -0.47624078 0.20550348 0.2500652 0.40221456 0.68730664 -0.047530938 0.46910903 0.3299106 0.114407636 0.67584157 0.41424608 0.30479392 0.4088748 -0.23996367 -0.2044184 -0.4717818
converg -0.32695654 0.4910773 0.028592754 0.18964508 -0.0078020017 -0.6047328 0.20058364 0.750244 -0.48004135 0.105309725 0.038313966 -0.3342624 0.081624374 -0.012922894 0.019585643 -0.3100508 0.235083 -0.66980875 -0.19994545 -0.788753 0.00858616 0.29574564 0.21738617 -0.19317031 -0.3712075 -0.1253821 -0.35573417 -0.3164393 -0.50463724 0.24173391 0.4321316 0.05626868 0.14321917 -0.103189334 -0.058616664 0.4906337 0.07175915 -0.20885068 -0.25422493 -0.7313256 -0.01220855 -0.33867818 -0.1583785 0.004998444 0.23513699 0.18106905 -0.062523864 0.018677838 0.09598074 0.47498244 0.16733608 -0.007908423 -0.35074607 -0.07697324 -0.3566283 0.1676506 0.41924903 0.46622986 -0.45387655 0.2754708 0.10936733 0.2991816 -0.27232873 -0.040460613 -0.4722286 0.06459231 0.14788951 0.09503815 -0.5254275 0.31393847 0.037476756 -0.011220677 0.37284854 -0.3630697 0.2637597 0.1117873 0.18002859 -0.09908065 -0.24633121 0.07042001 -0.0993819 0.05614217 -0.58011645 0.5566924 -0.42559227 0.11807514 0.08513324 0.19711925 0.4854323 0.0673864 0.573559 0.26309115 0.0038082807 0.47075272 0.42428443 0.29315454 0.33049753 -0.46555182 -0.13174483 -0.31147775
net -0.56047714 -0.22770754 0.14619021 0.52732825 -0.36709717 -1.1001989 -0.54235417 1.1224122 0.07908056 -0.5838675 -0.56431025 -0.1051376 0.15453936 0.6292681 0.35252923 -0.5483232 -0.50590986 0.34771794 0.75640064 -0.010254701 0.65134156 0.7671043 -0.6820788 0.3261554 0.37599915 0.36693227 -0.30734265 -0.565697 0.017175244 0.6123317 -0.2822006 -0.098449774 -0.43256956 -0.8738568 -0.68961203 1.0546205 0.123959936 -1.1404903 -0.37506 -0.24148744 0.91109586 -0.59716797 -1.1310092 -0.41722235 0.8510336 -0.74779034 -0.010355274 -0.5700857 0.08878267 -0.642955 0.17090309 -0.7740202 -0.3103644 0.6406436 0.45068884 0.89062226 -0.39982992 -1.1323421 -0.69078803 -0.5354729 -0.46406296 -0.34060815 0.546007 -0.058090422 -0.106132016 0.6388308 -0.5874149 -0.16606706 -0.57458264 0.91561145 -0.4417232 0.046965975 -0.13516356 -0.523244 0.94583625 1.1007204 -0.36881962 0.23578793 -0.83985 0.38196155 -0.19301797 0.03770798 0.66278046 0.08716516 0.012349484 -0.027459452 -0.0883954 1.6884807 0.8929983 0.3991015 0.45866576 0.27186954 0.22271083 0.12768695 0.9756578 0.44750646 0.09626884 -0.047154285 -0.11032945 0.63242674
func -0.34435433 0.1298699 0.006960091 0.040038783 -0.043218266 -0.6476063 0.0073862416 0.7131074 -0.36592835 0.13083372 -0.3258369 -0.23213634 0.029010452 -0.029665753 -0.14255664 -0.2624581 0.11923312 -0.34465024 0.15136863 -0.6454067 0.07348977 0.28262138 0.17768024 -0.3803409 -0.11984998 0.0034666222 -0.33184308 -0.27206457 -0.39325508 0.21840133 0.39571807 0.11111054 -0.14117207 -0.12808561 -0.10733272 0.41362396 -0.11252102 -0.4474988 -0.18075608 -0.7245918 0.13486691 -0.43607226 -0.2499603 -0.26237988 0.48094147 -0.2651566 -0.2126495 0.049368944 0.051750794 0.051707543 0.11697476 -0.21843134 -0.068864085 0.24310115 -0.28547966 0.30472782 0.28255606 0.010569012 -0.42387164 -0.00029208057 -0.016869348 0.025561634 -0.21019636 -0.08577641 -0.35773787 0.2597281 0.007784921 -0.009700195 -0.5180105 0.48079452 -0.19624363 0.07864169 0.22210498 -0.23774052 0.369479 0.19994904 0.17289186 -0.06471159 -0.24300781 0.1366606 -0.12124405 0.06429658 -0.35178885 0.5689085 -0.22594376 -0.061744295 -0.12129358 0.51739323 0.3976521 0.17180161 0.54897386 0.23985253 0.056142405 0.18653226 0.63472795 0.3780949 0.2710748 -0.630648 0.034299437 0.001800965
discret -0.22854431 0.16008192 -0.10451588 -0.13915597 0.14248803 -0.54618984 0.16408592 0.58467555 -0.38750774 0.13530998 -0.3020927 -0.13961464 -0.027547462 -0.03714404 -0.17335504 -0.18818595 0.197681 -0.30637226 -0.032185934 -0.7886752 -0.057511773 0.1873611 0.2782443 -0.44984785 -0.04672986 -0.048777696 -0.28240827 -0.056263454 -0.51368994 0.0002752089 0.48127255 0.20742121 -0.08369029 -0.04814558 -0.012343424 0.3293113 -0.16022421 -0.2657942 -0.06824626 -0.54830444 -0.07244888 -0.41300282 -0.09775318 -0.32774815 0.45141768 -0.37540373 -0.12242851 0.11767047 0.14921537 0.2002292 0.12280882 -0.14876717 -0.07298644 0.21077816 -0.3537732 0.15261811 0.3965061 0.107938014 -0.31595814 0.16568124 0.113349125 -0.018829577 -0.29038924 -0.067556255 -0.3683224 0.16463695 0.0013320592 0.01012917 -0.57700175 0.5420372 -0.15079181 0.13935211 0.2904175 -0.13362616 0.17375112 -0.13396512 0.27617872 0.0074219056 -0.10391204 -0.012626985 -0.11146911 0.0472747 -0.638018 0.61625767 -0.24872936 -0.095810354 -0.09500879 0.33852494 0.2325696 0.0057865055 0.63681114 0.24838589 0.09361464 0.20828044 0.6463038 0.28674465 0.22764578 -0.7633771 -0.02268129 -0.14145204
from -0.33956125 0.11065198 -0.043185018 0.051263977 -0.047850914 -0.6930711 -0.008781036 0.8195511 -0.3157394 0.13192247 -0.41430232 -0.17221282 -0.0003780145 -0.0011057787 -0.18335052 -0.32610655 0.04523056 -0.27972347 0.24934651 -0.6107469 0.10334059 0.2820617 0.13497466 -0.34455144 -0.05378458 -0.009590829 -0.34553477 -0.35079852 -0.4759433 0.25762358 0.3946515 0.09239611 -0.12816526 -0.2569558 -0.13270089 0.47911528 -0.18262218 -0.46579608 -0.14900368 -0.71837145 0.14732642 -0.44387317 -0.3283275 -0.26724482 0.561103 -0.38657814 -0.21763451 -0.0018710253 0.06680638 -0.021427428 0.09767342 -0.31518444 -0.07673047 0.24296176 -0.19810985 0.3328236 0.16956957 -0.11624999 -0.5002021 -0.06156903 0.010415754 -0.033115458 -0.15550353 -0.124636896 -0.3678902 0.3621549 -0.008292474 0.032797266 -0.5187908 0.5354819 -0.25357494 0.0878967 0.23730463 -0.2536545 0.506881 0.22099273 0.10152053 -0.021349318 -0.26421243 0.16365597 -0.12178939 0.048769414 -0.3287102 0.6065641 -0.20837021 -0.13863413 -0.088590875 0.68350303 0.42646995 0.08398091 0.53358614 0.25885832 0.14836404 0.13065654 0.73473114 0.37642434 0.23584266 -0.6062127 0.0101479655 0.041720007
optim -0.36780626 0.21432297 -0.041565873 0.17112924 -0.054238964 -0.6173601 0.10927876 0.74057436 -0.4222341 0.17226192 -0.26188555 -0.24546693 0.033404373 -0.02677062 -0.121860124 -0.27272126 0.113557525 -0.44569656 0.09801939 -0.6421279 0.0915526 0.27725452 0.17804985 -0.2983139 -0.22193697 -0.09774718 -0.33834094 -0.32854798 -0.4787638 0.2612516 0.42553887 0.07401201 0.0040241033 -0.09494941 -0.11383799 0.446227 -0.09789443 -0.3475791 -0.1953993 -0.71436137 0.089004196 -0.38492668 -0.29849946 -0.13716586 0.4250754 -0.13609144 -0.12843472 -0.0074404757 0.07725443 0.1599938 0.10413752 -0.16969758 -0.1691111 0.08919264 -0.2674024 0.26301482 0.24593046 0.05188288 -0.48860067 0.029840065 0.017562613 0.11068769 -0.18227115 -0.119676076 -0.42555988 0.2299628 0.06779781 0.07730533 -0.47343168 0.4267674 -0.135663 0.015826935 0.285988 -0.2895749 0.36109495 0.20294663 0.13208929 -0.076839685 -0.2405002 0.14009845 -0.0895939 0.0383721 -0.35756093 0.5636944 -0.25781664 -0.0645042 -0.04128338 0.45611882 0.43648303 0.067189366 0.51315016 0.2542986 0.065888785 0.23202503 0.59723556 0.31165078 0.31038287 -0.5096467 -0.0041003604 -0.07828809
can -0.3549646 0.22284974 -0.030735595 0.12143776 -0.03141055 -0.68432313 0.07030588 0.8071967 -0.3507866 0.14431643 -0.2651221 -0.2701748 0.011994884 -0.022945324 -0.11483934 -0.30546203 0.08592236 -0.4169682 0.14861912 -0.63677335 0.08508821 0.30022496 0.18996428 -0.27864316 -0.17049195 -0.075554445 -0.3549961 -0.36870784 -0.47055274 0.26539665 0.4250298 0.058997344 -0.047941722 -0.16495074 -0.11081788 0.47622243 -0.0940759 -0.36630917 -0.18042044 -0.7448813 0.09640479 -0.4058233 -0.31375134 -0.16723014 0.45217118 -0.16550726 -0.18291292 0.03031692 0.05341073 0.12497712 0.09644812 -0.23125368 -0.10418831 0.12609868 -0.2508006 0.31114414 0.2425549 0.046899877 -0.47286752 0.036756273 0.009279079 0.06122792 -0.17025732 -0.133167 -0.40651134 0.2516206 0.029560776 0.06747439 -0.48313054 0.43321517 -0.17864428 0.06183836 0.2737273 -0.29370046 0.4149806 0.2295921 0.09229098 -0.07368836 -0.2669836 0.14067557 -0.1223823 0.037894383 -0.33033362 0.5580864 -0.23750383 -0.08017185 -0.049034078 0.48388124 0.48079735 0.0928818 0.5087905 0.25930813 0.066214375 0.2220273 0.6568539 0.35963038 0.3009633 -0.5572533 -0.010382042 -0.078800336
solv -0.21148601 -0.06908393 -0.20339015 0.016140165 -0.07890266 -0.4757825 0.033865936 0.7358061 -0.103925064 0.15373363 -0.5908056 -0.070076816 -0.21480559 0.17922539 -0.18244801 -0.35185197 -0.040583763 -0.16935931 0.48692498 -0.42133638 0.2773355 0.0945523 0.023342814 -0.22077529 0.12941986 0.015142652 -0.25622275 -0.24539927 -0.5840418 0.17475812 0.3593625 0.01495332 -0.019169036 -0.52994454 -0.17248967 0.40114558 -0.34850526 -0.38204628 -0.09914836 -0.4023879 0.026949782 -0.34908321 -0.5113052 -0.3007022 0.67139214 -0.69288236 -0.2699201 -0.09648807 0.08197608 -0.05427207 0.010902066 -0.3993477 0.011222087 0.29023048 0.008771737 0.29300222 -0.04168261 -0.3190577 -0.47910973 -0.17464675 0.025105098 -0.2031252 -0.03995771 -0.15302059 -0.45642844 0.4782565 -0.028732408 0.22821994 -0.3183389 0.69890815 -0.2818701 0.2481843 0.25857517 -0.3181896 0.670025 0.11700624 0.016749438 0.13951528 -0.16769901 0.09386605 -0.21772522 -0.075960495 -0.3365574 0.7701613 -0.11118638 -0.37708807 0.08493791 0.8316113 0.2637118 -0.24816298 0.49855328 0.222745 0.2594326 -0.172506 0.8456202 0.40956855 0.1634113 -0.5511207 -0.002044602 0.19614011
finit -0.24263185 -0.08201158 -0.15180846 -0.23294112 0.56311166 -0.50149506 -0.015532752 0.4755789 -0.6118692 -0.017755808 -0.38197106 -0.16342606 0.115750745 0.17063309 0.0061867908 -0.23461515 0.51707673 -0.38297632 -0.44647792 -1.1753063 -0.28847685 0.28099096 0.34696108 -0.62429404 0.2679365 0.26481396 -0.37429708 0.3597476 -0.424615 -0.10116804 0.2605141 0.4565956 -0.3369767 0.047533482 0.0958672 0.38009933 -0.13197182 -0.44369206 0.087041125 -0.27072266 -0.16307968 -0.7191157 0.16487789 -0.45960957 0.4773183 -0.53088135 -0.21555355 0.2578222 0.2066449 0.24977638 0.19943374 -0.22886245 -0.1718467 0.4932597 -0.6099852 -0.015975185 0.8214354 0.278471 -0.031246511 0.42354187 0.15642291 -0.33127347 -0.2754782 0.13371797 -0.283143 -0.0729862 -0.20558792 -0.108983636 -0.9909013 0.8148624 0.043775007 0.32627025 0.102459386 0.0058323634 -0.1902831 -0.525846 0.53350306 0.22845826 -0.12722927 -0.0670944 -0.33177957 0.064134784 -1.0284148 0.5435251 -0.2725471 0.07800174 -0.25029215 0.4945656 0.24849343 0.12643343 0.86432856 0.4537796 0.18249418 0.46023268 0.6236977 0.45023453 0.30220583 -1.2426594 -0.116592064 -0.23083167
linear -0.25463688 0.07067651 -0.12835024 0.0053547616 -0.016927427 -0.5079362 0.09539299 0.67496556 -0.28068325 0.23417264 -0.46982324 -0.17401014 -0.103874296 -0.027522145 -0.22134365 -0.28096208 0.06333853 -0.31434104 0.29101372 -0.58228123 0.15084551 0.08874092 0.15524182 -0.36392105 -0.0224108 -0.01678043 -0.3022268 -0.22950803 -0.5374816 0.11795187 0.45102566 0.08477016 -0.055996504 -0.25968605 -0.0465833 0.31220973 -0.23738179 -0.31051764 -0.11993385 -0.5441748 -0.017594572 -0.38367748 -0.31189808 -0.23073854 0.50576764 -0.46900514 -0.21100552 0.03023773 0.05812339 0.041656293 0.06886101 -0.25343895 -0.014907154 0.25327685 -0.20479207 0.2605182 0.15609567 -0.09366593 -0.4480465 -0.04668683 0.05160642 -0.051729742 -0.18452525 -0.123410754 -0.4210232 0.3408351 0.049694158 0.14881444 -0.37157366 0.5146848 -0.22732972 0.16710915 0.2862053 -0.26969248 0.44909972 0.07042352 0.102343164 0.025236959 -0.10122252 0.07306297 -0.18253322 -0.029112905 -0.41721714 0.706912 -0.21192695 -0.24369347 0.019062944 0.5366309 0.30066684 -0.11763246 0.50882626 0.23198037 0.1499596 -0.011706229 0.7489123 0.35164312 0.20401815 -0.61335754 0.0031357203 0.052094083
data -0.41388682 0.13578553 0.048689228 0.15393156 -0.08409257 -0.74563116 -0.03884874 0.8451839 -0.27680963 0.027402967 -0.27260184 -0.23872198 0.076233186 0.041135058 -0.041223407 -0.3489126 0.014888831 -0.315991 0.23198146 -0.5439898 0.121660724 0.3652813 0.102839716 -0.21935336 -0.08073613 -0.015555483 -0.33763945 -0.43554544 -0.42367545 0.3321513 0.3048405 0.06890879 -0.0588725 -0.23587047 -0.205028 0.59438163 -0.088128775 -0.47804153 -0.18563868 -0.7325319 0.23228048 -0.43015924 -0.31579304 -0.17708482 0.50920695 -0.19619466 -0.18556327 -0.014256748 0.060782433 -0.016994888 0.101199 -0.25649783 -0.12085875 0.16856632 -0.19169943 0.37087005 0.16037361 -0.06653535 -0.47878155 -0.021607077 0.0019617288 0.028713673 -0.09045962 -0.13037255 -0.34346166 0.29706877 -0.04008592 0.02343799 -0.4817069 0.48971227 -0.20599559 0.03544877 0.22259775 -0.27383414 0.55834055 0.36076513 0.050020225 -0.044887632 -0.34909075 0.22298639 -0.047266398 0.0447418 -0.22059013 0.48350015 -0.22427854 -0.055154536 -0.10463248 0.6598252 0.5419337 0.15493146 0.52456903 0.28122267 0.09438912 0.23017004 0.67500776 0.3660404 0.23850498 -0.5015308 0.005223371 -0.053167142
high -0.18058775 0.22366548 -0.14930362 -0.052636016 0.12072391 -0.58561915 0.109685324 0.8177038 -0.2562324 0.07337098 -0.21024632 -0.1432343 -0.090182714 0.030351106 -0.08824409 -0.21265605 0.14443031 -0.41135016 0.093025915 -0.7915237 0.009480557 0.1910389 0.33658603 -0.3412865 -0.069655955 -0.022585388 -0.24737176 -0.1382396 -0.54024714 0.19969623 0.37484777 0.07575867 0.026654677 -0.21693723 -0.0071325637 0.47552323 -0.11756976 -0.32056543 -0.10407143 -0.528262 -0.034536373 -0.42008552 -0.21113805 -0.2778652 0.49475676 -0.3538656 -0.10538861 0.10292674 0.09567029 0.2672609 0.07032588 -0.19921918 -0.05935 0.13283014 -0.23051298 0.13206695 0.33397156 0.13647293 -0.33591822 0.1732045 0.07801208 -0.025319656 -0.1754374 -0.07683309 -0.39838052 0.20114174 0.08099016 0.15269016 -0.5915083 0.53754985 -0.10635767 0.13788396 0.3134302 -0.25118998 0.2641675 -0.11182765 0.1938139 0.044777818 -0.16508672 0.05896274 -0.12443343 -0.0027575742 -0.590085 0.5705182 -0.20350373 -0.11028234 -0.03189504 0.39452946 0.33828557 0.027700137 0.5402294 0.27579787 0.08283709 0.20276056 0.62682515 0.3262164 0.30898422 -0.68598664 -0.027743971 -0.19881682
oper -0.3484729 -0.044738594 -0.05176417 0.105088495 -0.1671395 -0.7135946 -0.13009642 0.8269406 -0.13850407 -0.06019538 -0.4833921 -0.096468374 -0.051600218 0.19642003 -0.06679745 -0.37412953 -0.130551 -0.08235141 0.46320984 -0.35504574 0.2642484 0.31540564 -0.057869013 -0.18877341 0.10250185 0.0923847 -0.2855617 -0.3416619 -0.35685036 0.3196266 0.2132282 -0.015733903 -0.2005212 -0.4527896 -0.27384928 0.55816954 -0.2058035 -0.6079844 -0.17030205 -0.54665464 0.29697743 -0.45665452 -0.5737021 -0.3145428 0.69125324 -0.5543738 -0.1981681 -0.1305937 0.054586414 -0.228188 0.082236536 -0.38632426 -0.048850775 0.33788484 0.010617833 0.4442501 -0.013225359 -0.43448803 -0.50903666 -0.23515761 -0.14062257 -0.182103 0.034891717 -0.09869874 -0.31215438 0.46145758 -0.15238893 0.027948763 -0.4554159 0.655075 -0.30633944 0.12724198 0.107022636 -0.3087821 0.64817154 0.3931158 -0.01962721 0.07117298 -0.34476596 0.19437169 -0.14517085 -0.026812395 -0.045974683 0.49777743 -0.089306526 -0.17607847 -0.06312794 0.8991363 0.47353965 0.12162605 0.50388885 0.22576244 0.19261861 0.008646342 0.7905497 0.43329123 0.14860982 -0.4624579 -0.0031421988 0.22593352
neural -0.48294222 -0.55072814 -0.0030002457 0.1804618 -0.5089693 -0.9207202 -0.72551435 1.0988902 0.42086446 -0.41859096 -0.44324583 -0.07400483 0.18329607 0.76875716 0.21894592 -0.8117514 -0.50338775 0.43508226 0.66980565 0.1886534 0.7819833 0.6932147 -0.6963049 0.25135854 0.34332728 0.17860778 -0.06914812 -0.8158385 -0.13608177 0.46395808 -0.43348202 -0.13847381 -0.2386166 -0.91521895 -0.8797805 0.9121583 -0.28725606 -1.2274493 -0.10858161 -0.38441142 0.98963267 -0.5671276 -0.8026647 -0.58568066 0.94993734 -0.6573196 -0.045874313 -0.59564346 0.19517781 -0.6084412 -0.23087725 -0.8757396 -0.076586805 0.5411917 0.68464816 0.6118693 -0.20270021 -1.0140731 -0.5490988 -0.78369635 -0.13678366 -0.40441665 0.5350943 -0.25491592 -0.33856657 0.7454755 -0.5718138 -0.006123028 -0.5695319 0.82324815 -0.13882495 0.05158928 -0.012149729 -0.33543044 1.3291283 1.1616759 -0.16057359 0.28956133 -1.0416002 0.40082198 -0.16693006 0.017862173 0.53627706 0.4745303 0.22708514 -0.2287019 -0.07201709 1.8993323 0.6358324 0.430812 0.35096833 0.21398793 0.54576796 -0.08589195 0.8038589 0.8438066 -0.22076635 -0.100242004 -0.11729256 0.66350394
error -0.34130523 0.3573471 0.05727536 0.12046984 -0.039276756 -0.71298355 0.12594044 0.7435871 -0.52939767 0.114114136 -0.056047942 -0.27172768 0.11868295 -0.048691284 -0.09989729 -0.26587236 0.18534786 -0.5749306 -0.15936105 -0.7916118 -0.01862078 0.36322403 0.30016685 -0.36165333 -0.31468603 -0.14223756 -0.32411575 -0.23189585 -0.4983731 0.27418134 0.4682999 0.13376963 -0.011888444 -0.024423985 -0.012795369 0.4431591 0.021182623 -0.3288352 -0.2845702 -0.86283123 0.0129574 -0.3893157 -0.18586434 -0.1438681 0.35671458 0.10842053 -0.041020725 0.03871858 0.15176314 0.3343728 0.18307637 -0.025872229 -0.34220907 -0.0028736393 -0.34043247 0.2055704 0.42176124 0.33209956 -0.4832527 0.17190868 -0.010339106 0.2252782 -0.30531812 -0.07049753 -0.4173766 0.10720993 0.060329936 -0.086035594 -0.60951805 0.3657196 -0.049935225 -0.010567843 0.335076 -0.25216526 0.17339227 0.16055435 0.27812776 -0.20895901 -0.28051925 0.13560268 -0.089273006 0.088354334 -0.5612662 0.5566038 -0.4059796 0.0773538 -0.09377357 0.28503513 0.54176587 0.2716609 0.59691894 0.28476712 0.02338156 0.4455021 0.4577601 0.28654462 0.3424394 -0.55338705 -0.07525907 -0.29281628
two -0.28984997 0.30730402 -0.061212614 0.09785524 0.01813134 -0.56739074 0.1723139 0.8061269 -0.3169401 0.098916434 -0.19218181 -0.25018507 -0.03169762 -0.024173984 -0.04787633 -0.24847263 0.12782915 -0.41075793 0.06637029 -0.7275295 0.026729943 0.20438303 0.17260587 -0.22380444 -0.19171005 -0.081678614 -0.28987575 -0.3568568 -0.53538734 0.15923533 0.3269619 0.0718609 0.08066264 -0.19191499 -0.09589338 0.56393814 -0.0555679 -0.2636517 -0.1660846 -0.6028738 -0.000374068 -0.34628108 -0.20105176 -0.1475362 0.45282587 -0.16270202 -0.18233158 0.096358664 0.09743767 0.24791783 0.09216813 -0.17186986 -0.15221809 0.040261414 -0.2576566 0.21380195 0.2459135 0.1381694 -0.39466864 0.1005988 0.09968147 0.08221547 -0.19651398 -0.11136798 -0.43143797 0.2207358 0.039834164 0.17189264 -0.5071611 0.4330411 -0.114776015 0.08380107 0.33522594 -0.269926 0.46295786 0.08428953 0.13731211 -0.024114266 -0.24029045 0.085624695 -0.1094797 0.009586771 -0.4959551 0.56258523 -0.25660017 -0.08189472 0.014127221 0.4191679 0.43037176 -0.035254776 0.48487312 0.30807808 0.12836638 0.3085222 0.6778413 0.3221438 0.32877216 -0.5664218 -0.03295105 -0.19514701
present -0.35299566 0.4161756 -0.0066591236 0.21582428 -0.023922905 -0.5811294 0.22410761 0.8410103 -0.34224474 -0.11063739 0.0398541 -0.32512078 -0.06265763 0.19071059 0.24236543 -0.35913533 0.118219785 -0.56731385 -0.10352624 -0.68141997 0.07487459 0.31079802 0.09201027 0.023415005 -0.26518524 -0.06508131 -0.30051953 -0.37760052 -0.614266 0.22338964 0.21275845 -0.0069784336 0.23424034 -0.30510733 -0.21297415 0.69554514 0.039613858 -0.19707926 -0.2545653 -0.5155528 0.040142495 -0.29427364 -0.26107943 0.0700252 0.3609257 0.084405534 -0.05727431 -0.052965634 0.16491899 0.48046196 0.11988858 -0.103108376 -0.36969334 -0.19030067 -0.16505355 0.20234929 0.21053204 0.33698267 -0.4141355 0.18942098 0.14101376 0.17546177 -0.057728756 -0.022847362 -0.5238764 0.18250412 0.02726194 0.19627987 -0.4997162 0.37741974 0.023096468 0.045113463 0.34948093 -0.47530064 0.5486906 0.20118769 0.06583036 0.02016523 -0.353577 0.09046031 -0.013998385 -0.037720542 -0.57485384 0.55317515 -0.35188565 0.0295502 0.17084806 0.41407222 0.4698546 -0.15742911 0.4991094 0.35065073 0.16468821 0.4820255 0.53974736 0.325198 0.3148744 -0.27708057 -0.18094464 -0.33668488
effici -0.35682678 0.3588584 -0.022780402 0.20130746 0.021944886 -0.6234131 0.12173437 0.8651594 -0.33002287 -0.0037548526 -0.058382668 -0.2790436 -0.024258943 0.07983041 0.12070081 -0.35924786 0.07024158 -0.48399043 0.019306889 -0.6382412 0.14135575 0.29873416 0.19222225 -0.08115821 -0.2551542 -0.08827949 -0.29156646 -0.4182829 -0.49313468 0.29730266 0.30656174 0.016345821 0.13926432 -0.2525289 -0.1263304 0.6397576 0.0343543 -0.20889768 -0.21714482 -0.5912454 0.07159529 -0.33628553 -0.25660238 -0.013260051 0.3354918 0.058701474 -0.07915474 -0.045872446 0.10144664 0.31931794 0.13565007 -0.13826537 -0.22427252 -0.057667885 -0.20870872 0.24818209 0.23858035 0.28256896 -0.42520082 0.16944051 0.08008229 0.13728681 -0.103150494 -0.09575698 -0.42588544 0.14248054 0.058055144 0.15583137 -0.46583676 0.38314065 -0.044094212 0.030015297 0.26560718 -0.37075207 0.440704 0.20776023 0.073387735 0.009217758 -0.3094061 0.11998387 -0.09752431 0.017522495 -0.41864505 0.43894595 -0.28847674 0.0075927232 0.09551217 0.42322984 0.5425295 0.016649745 0.47968605 0.24017034 0.056209743 0.37853578 0.5161642 0.33932674 0.31655112 -0.42179975 -0.10861501 -0.22870627
analysi -0.40132526 0.4784762 -0.018311977 0.1889579 0.00090508483 -0.63849527 0.16192451 0.82339156 -0.4507829 -0.008802078 0.043325003 -0.3692596 0.020240473 0.083208 0.14996822 -0.38267037 0.20178467 -0.65810436 -0.13415475 -0.74851036 0.040799014 0.3480368 0.15447171 -0.08631609 -0.3624394 -0.111475684 -0.35921186 -0.41701847 -0.5565941 0.25989202 0.32338575 0.036392543 0.14181027 -0.21838301 -0.1395858 0.6402318 0.06541329 -0.19703941 -0.27243966 -0.6636642 0.020471707 -0.33014476 -0.20642179 0.035179734 0.28437585 0.20951054 -0.06842648 -0.022235453 0.12826382 0.47272277 0.13059592 -0.051656354 -0.32504293 -0.096666865 -0.21380737 0.21063043 0.35032338 0.40956455 -0.47663227 0.248583 0.10745926 0.22977078 -0.19015624 -0.010456968 -0.47681496 0.111833654 0.044613443 0.08417133 -0.5286454 0.35501587 0.050013635 -0.029164897 0.35754645 -0.40667126 0.39135692 0.19008994 0.1302496 -0.041801717 -0.3202382 0.045691445 -0.06275837 0.047996275 -0.5797475 0.5335138 -0.38034528 0.10176443 0.10360578 0.39186278 0.563711 0.019593813 0.55761147 0.30576852 0.06857094 0.5049842 0.46089107 0.32742882 0.31143266 -0.40654895 -0.11272348 -0.33176216
differenti -0.16185798 -0.3938508 -0.44803977 -0.3509346 -0.1686787 -0.41194606 -0.057512667 0.62533474 0.139801 0.32403007 -1.1844871 0.23726033 -0.63384557 0.25725934 -0.5330021 -0.47809216 -0.3526267 0.0037576368 1.1712188 -0.1466664 0.48234376 -0.14094077 0.036042232 -0.435027 0.5653492 0.22928785 -0.14311963 0.060737133 -0.967384 0.14734116 0.63467306 -0.07540656 -0.2618276 -0.988287 -0.10121399 0.11589334 -0.8513913 -0.39620316 0.03550014 -0.21523128 -0.049444392 -0.3132339 -0.906963 -0.6889079 1.0296229 -1.5972897 -0.5238505 -0.10247787 0.13089989 -0.38895166 0.06721972 -0.60703343 0.37728804 0.54895747 0.31638587 0.50413364 -0.41440743 -0.7922618 -0.58676565 -0.5672756 -0.14220382 -0.57482314 -0.090581305 -0.17308174 -0.47720265 0.97694457 -0.09370098 0.37165678 -0.14736773 1.105244 -0.66242033 0.60151136 0.2967169 -0.3591952 0.93128866 -0.09252735 -0.10169376 0.30774105 0.252915 0.103224635 -0.45021573 -0.17223854 -0.439294 1.2991338 0.11010963 -0.92302537 0.18022189 1.2446322 -0.049008273 -0.57210994 0.6524923 0.17730089 0.57959867 -0.91254693 1.2796706 0.53331846 0.0590921 -0.7316437 -0.0899043 0.59234065
element -0.25314865 0.14966261 -0.086883076 -0.28973848 0.50404954 -0.6609632 0.16313705 0.46378288 -0.36742413 -0.079719655 -0.25668496 -0.13389894 0.11220117 0.18238936 -0.0051678573 -0.18075909 0.40231046 -0.13668261 -0.41566202 -0.9990392 -0.34514955 0.3213605 0.24900429 -0.7070074 0.18379368 -0.008441402 -0.28714153 0.22546063 -0.6339453 -0.22980274 0.3960678 0.42924008 -0.19644062 0.014150094 -0.14644837 0.56047404 -0.17630965 -0.17888509 -0.011835186 -0.5572375 -0.102140725 -0.56229 0.13409372 -0.6561009 0.360842 -0.55832213 0.03668515 0.07704481 0.20603286 0.39400873 0.2051925 -0.20859592 -0.23301052 0.379198 -0.613605 0.03846093 0.7945519 0.09349798 -0.32784492 0.52697456 0.21863672 -0.047515687 -0.35952076 -0.058375906 -0.27438834 -0.18050274 -0.22589473 -0.28801578 -0.8878505 0.84506786 0.16431004 0.14582023 0.2462265 0.14170106 -0.045603514 -0.4859958 0.5673512 0.048736762 -0.2060941 -0.19033211 0.04803428 0.23351192 -1.0039805 0.49727398 -0.30127838 0.012799571 -0.33687168 0.4803877 0.12243753 0.03299113 1.0228046 0.3027297 0.17380479 0.40516323 0.35976407 0.36383426 0.080197096 -1.125949 0.07110219 -0.3365508
space -0.27824253 0.11024382 -0.07369692 -0.07407512 0.11805171 -0.66562223 0.07643898 0.6754549 -0.3762403 0.1455066 -0.31938875 -0.16653518 0.024094196 -0.08422962 -0.1694771 -0.2119723 0.18184373 -0.2732739 0.041325912 -0.76439196 -0.02286139 0.24533999 0.26783398 -0.48792863 -0.04625194 -0.02484162 -0.297083 -0.16775358 -0.41005984 0.08452476 0.43109804 0.17833228 -0.13895288 -0.03183457 -0.052854683 0.44088864 -0.16094203 -0.42980894 -0.09084593 -0.68121296 0.059390124 -0.48806074 -0.14627802 -0.37193704 0.5067162 -0.37774143 -0.20241185 0.13391235 0.07889626 0.099385016 0.12335891 -0.22259724 -0.052954216 0.30059192 -0.40331197 0.23509336 0.40113524 -0.008446773 -0.3458802 0.11702653 0.059342086 -0.024510223 -0.2436148 -0.10090513 -0.32103267 0.19379371 -0.035387732 0.0024708465 -0.63966626 0.5532519 -0.1995915 0.10978745 0.235578 -0.13328323 0.24986042 -0.00018668661 0.25042713 -0.037867345 -0.23055655 0.050147653 -0.15416288 0.08946762 -0.5417579 0.5922797 -0.24706984 -0.06268455 -0.16492346 0.42344934 0.3163768 0.097713806 0.6290491 0.2806765 0.07471372 0.24646783 0.6886454 0.34050873 0.23519957 -0.79554564 0.00080344704 -0.0981634
condit -0.33401838 0.15857333 -0.11661957 -0.033840965 0.017761443 -0.7014475 0.09862934 0.7504144 -0.33470467 0.20792842 -0.34463713 -0.31230232 -0.02620509 -0.053538106 -0.26068792 -0.15362078 0.08934285 -0.35492712 0.19878666 -0.75140154 -0.025195371 0.17049839 0.25642255 -0.49133527 -0.13674882 -0.14997704 -0.34917295 -0.25951666 -0.45364583 0.10519408 0.46268687 0.14232026 -0.039519243 -0.043186173 -0.02142577 0.30771968 -0.21132587 -0.4473271 -0.17143089 -0.7651688 0.060642082 -0.4081201 -0.30608165 -0.24916503 0.49099728 -0.2978834 -0.27052635 0.20006569 0.014915462 0.060106147 0.12516522 -0.2024395 -0.011528152 0.2269926 -0.28486347 0.30164087 0.37152156 -0.01763052 -0.44083816 0.08900094 0.020668542 0.061377898 -0.25293124 -0.054039933 -0.4623182 0.22782765 0.06763651 0.07514099 -0.45894006 0.41004848 -0.13708669 -0.01687842 0.37002277 -0.15821682 0.29776463 0.10083292 0.1950701 -0.1553716 -0.1952479 0.11853799 -0.19201899 0.1311183 -0.36958316 0.6918767 -0.20145065 -0.032875605 -0.060601313 0.40617397 0.38985813 0.07553852 0.5996192 0.35789517 0.052092254 0.2122311 0.7268238 0.40272728 0.20611988 -0.73476875 0.04164345 -0.015658103
paper -0.39549306 0.22216704 0.003162931 0.16122152 -0.12234011 -0.5891252 0.11840976 0.79193395 -0.32082674 -0.025507027 -0.16632244 -0.22114672 -0.04796045 0.09023938 0.038993016 -0.30132064 0.057920594 -0.43112192 0.09123649 -0.6141788 0.08627609 0.28976306 0.06512946 -0.18143903 -0.100561544 -0.027670624 -0.3033741 -0.3139027 -0.55590105 0.17577875 0.24535589 0.029486196 0.031725716 -0.20324211 -0.18744883 0.5480242 -0.074038625 -0.36749697 -0.16774762 -0.6372563 0.08884355 -0.35487446 -0.3034711 -0.1421806 0.47679922 -0.17380013 -0.12883548 -0.026584322 0.13689531 0.22966145 0.058715355 -0.16356279 -0.21731773 -0.01815848 -0.16910173 0.24826823 0.19316764 0.02661825 -0.41911224 0.052805364 0.07102195 0.072585955 -0.10077324 -0.078816675 -0.496936 0.27764997 -0.006173926 0.2002581 -0.46295547 0.48470768 -0.092404366 0.073652655 0.29544002 -0.32675725 0.5178249 0.22709627 0.09119423 -0.0056509064 -0.28209418 0.11049979 -0.028500859 -0.037481513 -0.4022091 0.6161068 -0.23065361 -0.0972911 0.052454155 0.488648 0.40574968 -0.040250316 0.5284637 0.35581675 0.16078992 0.3191346 0.6837236 0.41470933 0.23638867 -0.41915965 -0.1348228 -0.12801574
demonstr -0.3519938 0.7738704 -0.0030960038 0.33724356 0.12574574 -0.6052737 0.301155 1.02144 -0.37800455 -0.20091668 0.36934966 -0.42491698 0.02383015 0.22655989 0.50734836 -0.46028936 0.20004731 -0.84514904 -0.31491235 -0.75001365 0.108713746 0.37963015 0.14000906 0.3063523 -0.56367004 -0.20797159 -0.2875952 -0.55652493 -0.6548389 0.37178344 0.22191598 -0.07486628 0.463239 -0.40563086 -0.16421637 0.968727 0.26877442 0.047179557 -0.3862726 -0.45632333 -0.0130073195 -0.22983499 -0.18702742 0.31520718 0.120386995 0.63112956 0.021111153 -0.07025352 0.16243063 0.7668323 0.22823933 0.0014929278 -0.5909885 -0.45109078 -0.16453452 0.19466516 0.3245222 0.8374533 -0.43643814 0.45245793 0.20968331 0.35542566 -0.035496917 0.0027068814 -0.57104146 0.01666891 0.12029 0.23907368 -0.4879378 0.22681035 0.22948651 -0.07615529 0.4027699 -0.6023385 0.57515675 0.19746011 0.029287007 -0.005446072 -0.45019156 0.07741033 -0.051426627 0.018933188 -0.7332749 0.42973524 -0.5149978 0.21933159 0.3300257 0.3246524 0.74115366 -0.16026184 0.47154742 0.31034994 0.08306784 0.75096303 0.29426104 0.24506147 0.48784035 -0.16940637 -0.2339678 -0.6377509
estim -0.3995068 0.35686916 -0.0109742675 0.1156767 0.027469004 -0.6954698 0.07013022 0.74254745 -0.5237463 0.17208487 -0.1217846 -0.2862884 0.106479034 -0.066026926 -0.0837891 -0.27398238 0.21646547 -0.5627406 -0.10224898 -0.78244543 -0.057127148 0.328949 0.24986431 -0.34451517 -0.26315144 -0.15945618 -0.3642666 -0.30175158 -0.4973817 0.25039682 0.4728409 0.13163264 -0.07054736 -0.03282113 -0.048319902 0.44217226 0.01249257 -0.33590114 -0.22595218 -0.832808 0.03112413 -0.35563913 -0.20099816 -0.15237525 0.34888157 0.09382287 -0.069898985 0.049188036 0.10645171 0.28453615 0.14525726 -0.08870855 -0.2003897 0.10520768 -0.308516 0.22305115 0.36572483 0.27588823 -0.49163327 0.17237127 0.010384913 0.20214511 -0.2885566 -0.028899174 -0.3451169 0.12108767 0.020870743 -0.08831553 -0.5609303 0.3220525 -0.02980115 -0.016019592 0.30618697 -0.23107582 0.16103727 0.15227884 0.22864012 -0.17347804 -0.21520796 0.07759335 -0.069276996 0.09832286 -0.49787033 0.48305354 -0.35251075 0.078497246 -0.07250582 0.3357081 0.5271131 0.26483926 0.5964349 0.26211426 -0.02491429 0.41099736 0.51710904 0.29559004 0.30177382 -0.5776245 -0.022927307 -0.21442941
dynam -0.3506664 0.09627067 -0.047119655 0.009565267 -0.08200498 -0.68046886 0.0034446667 0.80441236 -0.3082369 0.15440777 -0.44264597 -0.18784718 -0.008440925 -0.057465743 -0.19495896 -0.310732 -0.0070226234 -0.28756845 0.3584125 -0.5678988 0.15116625 0.2449358 0.17124909 -0.34219757 -0.06656737 -0.0068636667 -0.31792495 -0.38490632 -0.48115805 0.22684753 0.41515046 0.082683675 -0.08963525 -0.23263584 -0.1403718 0.4707782 -0.22642368 -0.43606162 -0.15538605 -0.7039978 0.15282288 -0.40156287 -0.34069422 -0.21658476 0.5646685 -0.37126818 -0.23142503 0.004718406 0.03277478 -0.047540385 0.08035802 -0.29278523 -0.025522249 0.22678903 -0.17825876 0.33250993 0.1399085 -0.13125008 -0.50596076 -0.09691243 0.013112535 -0.0522428 -0.14423674 -0.15397131 -0.39452955 0.41634396 -0.0066267177 0.09079464 -0.4562026 0.51742655 -0.3074237 0.11282056 0.2553938 -0.26879236 0.55201036 0.23119386 0.09098325 -0.03137009 -0.2648332 0.19329563 -0.14746682 0.007832259 -0.2583192 0.59190273 -0.17606989 -0.16936696 -0.059595667 0.6794793 0.42926592 0.03954199 0.48390314 0.26215506 0.12196947 0.118832596 0.78821725 0.3870296 0.23714529 -0.5757242 0.035800144 0.055459395
provid -0.39400432 0.46501988 0.029963452 0.22853425 -0.032363113 -0.68949366 0.14079769 0.8787486 -0.39536113 -0.042340778 0.04518756 -0.34983596 0.05462842 0.12786585 0.18042663 -0.38525045 0.115472496 -0.61231226 -0.11475603 -0.7186521 0.108524084 0.36874947 0.13689043 -0.03139024 -0.3642205 -0.11337629 -0.32821864 -0.43677783 -0.5493801 0.2989188 0.29589623 0.021182898 0.16531414 -0.23977847 -0.17524679 0.67724854 0.08651182 -0.23132443 -0.29654494 -0.64535344 0.09720541 -0.32688865 -0.26608455 0.026772732 0.31165293 0.20292912 -0.039071046 -0.033290654 0.12356568 0.44398037 0.14186431 -0.10243633 -0.38144496 -0.14493173 -0.17691834 0.26025942 0.2845006 0.3880836 -0.47743946 0.18859158 0.091105126 0.22948977 -0.11582625 -0.034298506 -0.48394457 0.1384054 0.046635605 0.10963113 -0.51566505 0.34137028 0.010892021 -0.030686885 0.33748144 -0.43075627 0.4672675 0.29166618 0.08392196 -0.07152237 -0.3955569 0.11286614 -0.040873874 0.028331244 -0.51127464 0.5251462 -0.3942705 0.09937256 0.11883269 0.40076697 0.58746177 0.038487416 0.51118475 0.30675024 0.082638934 0.53343815 0.4759252 0.34224525 0.32560062 -0.32854515 -0.13992341 -0.3297208
general -0.38965458 0.2491405 -9.819099e-05 0.13187501 -0.07645671 -0.66221625 0.08183355 0.8001234 -0.36234102 0.07338835 -0.21186481 -0.26072738 -0.009138029 0.022969507 -0.027534582 -0.3043621 0.089185335 -0.4496105 0.06734656 -0.64405584 0.07588332 0.30100438 0.1604284 -0.2596893 -0.15875182 -0.0441285 -0.34694573 -0.3677107 -0.48570827 0.23017234 0.32821906 0.076016136 -0.016976481 -0.16182658 -0.12842199 0.5063157 -0.07184729 -0.36113593 -0.20924395 -0.699651 0.08218829 -0.38330153 -0.26852491 -0.13649577 0.43301383 -0.1010415 -0.16065966 0.015358715 0.08803 0.1929205 0.11089023 -0.17455883 -0.17069437 0.07469342 -0.24340078 0.26097494 0.25209588 0.07274333 -0.44976732 0.07109204 0.041984506 0.08712741 -0.16613354 -0.09331845 -0.39378616 0.22653651 0.027953053 0.09003011 -0.49579012 0.42979562 -0.12405439 0.03318894 0.27017292 -0.32247028 0.4061082 0.23040074 0.12182477 -0.04984797 -0.25469682 0.12578899 -0.07645848 0.03444974 -0.384949 0.5338567 -0.23934934 -0.05273735 0.0013475864 0.47791526 0.44065198 0.08324081 0.52271926 0.28454214 0.0769701 0.27610895 0.6092112 0.36855754 0.27161586 -0.51327825 -0.05092702 -0.119229965
show -0.35383305 0.48242226 -0.01111973 0.22389002 -0.017123798 -0.64069676 0.19735835 0.8733104 -0.4102248 -0.020959543 0.09222931 -0.34947005 0.029992787 0.114474915 0.17685515 -0.36656922 0.16878757 -0.66369075 -0.15364985 -0.72344476 0.095257916 0.34701705 0.13445261 -0.003682534 -0.3729137 -0.12769404 -0.30485818 -0.4298527 -0.54313385 0.30110645 0.3270615 0.025843836 0.19471617 -0.2305151 -0.143542 0.6790851 0.11077447 -0.17462891 -0.28177628 -0.6281372 0.075119495 -0.31810358 -0.22815657 0.07017839 0.27794355 0.22574496 -0.022492385 -0.008128217 0.1357017 0.47134435 0.13395464 -0.07334008 -0.35118228 -0.18347631 -0.20361614 0.22225976 0.30186018 0.4471171 -0.41678566 0.24841674 0.12148284 0.22541176 -0.114432156 -0.052086774 -0.50609934 0.096462056 0.08266129 0.14600155 -0.5085547 0.30229312 0.03461515 -0.04166223 0.34472075 -0.42649177 0.43242428 0.22875175 0.080901965 -0.060420364 -0.3595764 0.11040109 -0.03375284 0.04023578 -0.5644394 0.49259683 -0.40868592 0.08498731 0.13608079 0.33116248 0.5578001 -0.007161353 0.50265193 0.30945125 0.07734256 0.53757334 0.45798534 0.30162877 0.35464606 -0.32571658 -0.1362954 -0.36656553
nonlinear -0.21465012 0.0082450695 -0.15481782 -0.04377984 -0.037965342 -0.49475396 0.041878834 0.69101685 -0.2104565 0.18176699 -0.52744126 -0.07039006 -0.16786443 0.043541927 -0.2319608 -0.27377233 -0.023822365 -0.20546038 0.38703877 -0.4930028 0.17306823 0.06474676 0.14071634 -0.33054355 0.05731646 -0.0025801512 -0.26630515 -0.20976031 -0.5342214 0.15581718 0.4012995 0.03206981 -0.07434738 -0.35330918 -0.059381757 0.33875138 -0.32637075 -0.32837826 -0.08146452 -0.4960891 0.009051794 -0.36782718 -0.378807 -0.26770157 0.6085362 -0.6092206 -0.24248986 0.018560052 0.054667946 -0.0400911 0.04880926 -0.30338562 0.028162766 0.26466024 -0.11781681 0.2797082 0.051269192 -0.20601507 -0.4327673 -0.13994558 0.023800798 -0.11518756 -0.13605237 -0.12122414 -0.41445595 0.45552558 0.023376053 0.18814048 -0.35163152 0.6040262 -0.29172614 0.20967804 0.250535 -0.25828117 0.51495945 0.05185968 0.055897508 0.07406234 -0.079980545 0.10322309 -0.1962715 -0.058455493 -0.3542699 0.70354146 -0.13490807 -0.31055173 0.0015840369 0.6349389 0.25975597 -0.13491082 0.47770384 0.20725685 0.19393028 -0.11209308 0.81511337 0.35039297 0.18947987 -0.5940637 -0.0065257256 0.13266303
paramet -0.33159328 0.13451296 -0.021341711 0.11893317 -0.10759581 -0.6457239 0.020483444 0.74715453 -0.35046956 0.14267036 -0.3238725 -0.21446833 0.056661103 -0.02898207 -0.14502546 -0.29620588 0.040716674 -0.3044109 0.19841833 -0.557391 0.13598241 0.30093926 0.14898555 -0.28656965 -0.10376452 -0.046140827 -0.29163456 -0.3258856 -0.3981325 0.26051837 0.3765221 0.061386097 -0.07630603 -0.16242789 -0.116937295 0.41484487 -0.124331966 -0.43983734 -0.15718892 -0.72020555 0.13650097 -0.38254946 -0.31885925 -0.18668906 0.4770097 -0.21683392 -0.16953443 -0.002154233 0.031815175 -0.008254701 0.09401053 -0.25752497 -0.11143519 0.16187622 -0.18234943 0.30033916 0.17465779 -0.09440841 -0.4599699 -0.061968848 -0.024137903 0.030154757 -0.14766242 -0.120274 -0.36572853 0.28783798 -0.0047532646 0.047040306 -0.45003557 0.44733584 -0.22759013 0.03993412 0.25258178 -0.23549688 0.39313033 0.2765091 0.103741124 -0.10123102 -0.2670843 0.1755452 -0.09332338 0.058846254 -0.24792033 0.51658803 -0.19697973 -0.09694611 -0.102162726 0.5138343 0.41647294 0.12108251 0.47046366 0.22565626 0.088293575 0.17467448 0.6596047 0.3350344 0.2696514 -0.49409783 0.009258596 -0.015246059
differ -0.29676086 0.17765939 -0.038196538 -0.0257635 0.21242172 -0.63129914 0.102372915 0.6455753 -0.31415647 -0.035931334 -0.22474219 -0.20926212 0.032398067 0.09829713 0.018919697 -0.23639753 0.18166831 -0.25265267 -0.109020896 -0.7337437 -0.09994296 0.3141262 0.16200134 -0.373991 -0.010415532 -0.023193909 -0.29356053 -0.12216047 -0.4891674 0.03000102 0.31999233 0.20577896 -0.05429837 -0.10202582 -0.15468027 0.5383461 -0.088948704 -0.27457356 -0.07781538 -0.5484822 0.043065812 -0.43711686 -0.09234609 -0.33463863 0.38938475 -0.2842529 -0.091417804 0.058858965 0.13485138 0.22918445 0.13821703 -0.20867005 -0.17614493 0.20494606 -0.36449203 0.19501078 0.42938083 0.0708811 -0.34255853 0.26039076 0.11801384 0.025003694 -0.22032824 -0.0858109 -0.32889926 0.064198546 -0.087920725 -0.059711672 -0.63094455 0.5705733 -0.0066059646 0.08167393 0.24243937 -0.10606774 0.24804237 -0.069055624 0.28104424 0.025301322 -0.25128743 -0.018515086 -0.025986707 0.116382465 -0.58939743 0.47726843 -0.27200237 0.009666236 -0.13598563 0.47788736 0.30990866 0.016274279 0.658641 0.2869685 0.13849372 0.34055638 0.4723198 0.36188135 0.17509553 -0.716935 0.016686091 -0.19199094
dimension -0.29507425 0.12554294 -0.077002086 0.04113975 -0.035581008 -0.5683063 0.09957522 0.7788686 -0.2303792 0.07948197 -0.36708134 -0.09792701 -0.05177419 -0.018381044 -0.12685776 -0.30886066 0.05163418 -0.28499925 0.19235367 -0.62522084 0.09262418 0.13296789 0.15316981 -0.29030958 -0.07724288 -0.10079222 -0.24839716 -0.2872504 -0.5015811 0.16326804 0.26402652 0.039756518 -0.000490406 -0.2909311 -0.07604075 0.52488494 -0.1595465 -0.27676514 -0.13970958 -0.51541466 0.04326925 -0.3322883 -0.28507844 -0.2589026 0.56329304 -0.3798611 -0.13762884 0.035175104 0.09694587 0.080020495 0.14144811 -0.30575722 -0.03775088 0.20860986 -0.24229918 0.26622975 0.14331868 -0.09381998 -0.38915956 0.022267051 0.027973229 -0.028554646 -0.15134354 -0.10154063 -0.33954525 0.32914892 -0.027582135 0.17265658 -0.49461544 0.579125 -0.18973128 0.22635625 0.31511825 -0.23740989 0.5445225 0.062118713 0.11302863 0.028889293 -0.23169191 0.100120425 -0.17558782 -0.009708048 -0.45655343 0.56661904 -0.20681317 -0.20185618 -0.070361674 0.5681732 0.43182835 -0.060710892 0.5796248 0.22177775 0.16676973 0.13395604 0.7641306 0.2897654 0.22936349 -0.59278804 -0.053662907 -0.037746232
applic -0.37697473 0.25456348 -0.022742545 0.16712222 -0.0689189 -0.6713058 0.062234204 0.8680253 -0.3287116 0.0320486 -0.23735385 -0.24748516 -0.011632022 0.052207135 0.011673237 -0.37226647 0.025223626 -0.3975689 0.18162872 -0.58184916 0.14600918 0.28325483 0.11902593 -0.16337669 -0.1819423 -0.038773485 -0.32555056 -0.44226447 -0.50186634 0.30689573 0.3124335 0.03233183 0.028629793 -0.28714606 -0.16542974 0.54859555 -0.08651892 -0.33004382 -0.19643205 -0.6493844 0.14282766 -0.35037825 -0.32668272 -0.09341412 0.44095775 -0.14452617 -0.15890777 -0.043436345 0.09768489 0.1319559 0.091371894 -0.24023932 -0.17168947 0.045890104 -0.1440625 0.2921823 0.16462079 0.05090276 -0.4737417 0.03890199 0.04007327 0.06371601 -0.09067035 -0.101844124 -0.42455408 0.31007686 0.014642962 0.111083835 -0.457682 0.45164093 -0.16211145 0.04569655 0.27996442 -0.35917726 0.5451556 0.27338716 0.05056197 -0.0015480646 -0.30113968 0.13696752 -0.09446972 0.0117819775 -0.3206905 0.5306163 -0.2549451 -0.08290126 0.028178196 0.5989417 0.516696 0.0032678994 0.4788424 0.2750037 0.10870919 0.23812796 0.65004855 0.3435023 0.2759109 -0.45107788 -0.03455951 -0.09971233
integr -0.22815853 0.038731508 -0.14149645 -0.055837244 -2.2003202e-05 -0.60224366 0.054634467 0.71831656 -0.2086195 0.11183053 -0.4683153 -0.10756477 -0.11648671 0.031324863 -0.16201128 -0.25282183 -0.01810279 -0.19289218 0.33661538 -0.5467996 0.16155225 0.16483146 0.15944655 -0.34792677 0.008125793 0.021088282 -0.27470943 -0.2098622 -0.48612306 0.14292558 0.39177972 0.04843885 -0.09092177 -0.26996022 -0.11253543 0.40609705 -0.2827341 -0.4146432 -0.11984625 -0.51971567 0.06468355 -0.38857618 -0.3771777 -0.32568687 0.5997462 -0.5445166 -0.24942459 0.008860501 0.08144669 -0.040585566 0.07881709 -0.29032695 0.016885221 0.26199302 -0.11551298 0.2598099 0.14197084 -0.19253041 -0.4008606 -0.05883121 0.006276148 -0.12084739 -0.12824842 -0.12588142 -0.3803211 0.3559378 -0.0067415894 0.10071487 -0.44486612 0.56747955 -0.2861814 0.16205934 0.22223544 -0.23982443 0.4535393 0.10402662 0.1110165 0.05575221 -0.18719752 0.10391138 -0.21019723 0.0006526424 -0.3245038 0.6512919 -0.15343748 -0.20799544 -0.044552073 0.59478104 0.2826313 -0.05712488 0.55004156 0.25791073 0.15053959 -0.0033768383 0.7901668 0.36823377 0.14923021 -0.61721355 -0.037619624 0.101493955
introduc -0.37101418 0.12609814 0.0050926376 0.09286986 -0.12007052 -0.66072166 0.048509236 0.756113 -0.3100929 0.009522843 -0.27476686 -0.22904027 -0.060486868 0.08839848 -0.025459297 -0.26337644 0.012310196 -0.29675293 0.18579167 -0.5625649 0.11443287 0.29569986 0.077690475 -0.24335653 -0.025406308 0.010213083 -0.28821132 -0.261324 -0.45577937 0.17164277 0.279848 0.049854357 -0.05582037 -0.16763614 -0.18822165 0.48070744 -0.09770817 -0.4642593 -0.17031547 -0.6376774 0.14860338 -0.38449383 -0.34333643 -0.18892403 0.5207463 -0.31967053 -0.15765636 -0.01424883 0.11654679 0.10314417 0.050176263 -0.25036973 -0.11443239 0.12517616 -0.15923944 0.29598716 0.14027815 -0.11840382 -0.44006777 -0.054054778 -0.000703625 0.015133715 -0.1119553 -0.085205466 -0.41629985 0.32507867 -0.039288122 0.10764146 -0.48706076 0.502071 -0.20914343 0.10741568 0.2620309 -0.3265617 0.48585668 0.29435867 0.11277899 -0.026154479 -0.2912479 0.1471768 -0.059817106 -0.010555567 -0.30343658 0.5695985 -0.16497967 -0.109675676 -0.052395906 0.55282426 0.3704519 0.03574494 0.5235207 0.31817454 0.12892477 0.21644597 0.72755027 0.39258516 0.22690932 -0.47035402 -0.037699383 -0.012641181
effect -0.39129466 0.4922583 -0.0046654604 0.28290236 0.024387537 -0.65529746 0.17991465 0.9444968 -0.37127727 -0.092410915 0.04830582 -0.34687012 -0.0010415884 0.1202813 0.23514292 -0.41865373 0.11314945 -0.58351696 -0.09433261 -0.69469607 0.09773779 0.34080347 0.1447964 0.010797593 -0.35874268 -0.13258801 -0.3336693 -0.5192638 -0.5598276 0.32242605 0.2551769 -0.020113904 0.21374522 -0.30931923 -0.19753915 0.7489853 0.10382988 -0.18303262 -0.25595793 -0.59957284 0.08397046 -0.3200251 -0.2489563 0.0714134 0.3142839 0.22320542 -0.10453151 -0.042670827 0.12636071 0.42758617 0.17527752 -0.12939431 -0.3611006 -0.1620746 -0.207428 0.2684064 0.2708848 0.41185176 -0.47947186 0.25731814 0.11633314 0.23169078 -0.091692805 -0.06185415 -0.47485247 0.12382676 0.026629787 0.18495098 -0.4790494 0.32992455 0.023252187 -0.019198671 0.33299053 -0.44064042 0.5303803 0.23157367 0.03983591 0.0007651709 -0.38401425 0.083042115 -0.06042761 0.00935108 -0.49267697 0.4839249 -0.3721345 0.103741504 0.16995797 0.45801702 0.6357163 -0.013699659 0.50386477 0.30612332 0.095186375 0.5199916 0.50295967 0.3265369 0.3666978 -0.33728227 -0.12390463 -0.3478024
experi -0.37005526 0.86711246 0.011268289 0.44663227 0.15302476 -0.55549896 0.3822766 1.0544242 -0.45369092 -0.27680528 0.44197834 -0.57982594 -0.0038899004 0.21491951 0.59785914 -0.5585774 0.2165656 -0.9613103 -0.41374776 -0.8883622 0.10457955 0.41144633 0.050028555 0.41345704 -0.6810945 -0.25911167 -0.34248045 -0.6900073 -0.7215629 0.35688394 0.14739288 -0.1274535 0.55717427 -0.56921417 -0.24579419 0.99791497 0.28485897 0.12195742 -0.37303507 -0.42978665 0.0006472997 -0.26393738 -0.17458703 0.42400232 0.071983315 0.7761117 -0.013219403 -0.16420673 0.17041682 0.99042785 0.2278336 -0.010363321 -0.6904234 -0.50868523 -0.116417386 0.17918588 0.33705288 1.0004642 -0.49243408 0.62174654 0.22861254 0.429486 -0.04319732 -0.01592379 -0.68883127 -0.0053782333 0.124604136 0.29095176 -0.51284623 0.23741247 0.30009153 -0.061692882 0.5126126 -0.7211338 0.65635496 0.13060924 0.007877815 0.057385996 -0.46013576 -0.042015012 -0.053701814 0.043571867 -0.86424524 0.50704175 -0.5867887 0.3483313 0.42134172 0.3565157 0.86297125 -0.2547075 0.4918595 0.3082965 0.1214593 0.89980936 0.22343153 0.2652808 0.46220642 -0.13288294 -0.24270749 -0.73246557
work -0.37698323 0.2721993 0.010860022 0.17911012 -0.100212924 -0.60853636 0.118440315 0.8276394 -0.33316997 -0.0005523835 -0.12157272 -0.26781604 -0.058403973 0.10903417 0.08809975 -0.31748512 0.045917273 -0.48317245 0.1017066 -0.6319324 0.11259786 0.29750103 0.095832765 -0.12376144 -0.18171129 -0.043422375 -0.29178748 -0.36564252 -0.57756084 0.2366462 0.29972288 0.0016834537 0.08792195 -0.2360531 -0.1734908 0.5705416 -0.059306134 -0.30440822 -0.18473211 -0.6331076 0.07816717 -0.34310302 -0.29577914 -0.051638696 0.43462887 -0.0750963 -0.1474963 -0.016680058 0.11458605 0.25565407 0.10017997 -0.13894835 -0.22002949 -0.066209316 -0.14792113 0.26307386 0.1956748 0.11152292 -0.4347856 0.09528435 0.06667615 0.09627659 -0.12041963 -0.07158477 -0.49560013 0.2688627 0.03267492 0.20796555 -0.44348016 0.4444477 -0.11255335 0.029154923 0.2975877 -0.371375 0.5372109 0.24109036 0.06922037 0.009799623 -0.27939704 0.09555244 -0.028514773 -0.021199217 -0.41641492 0.5910952 -0.24361534 -0.04642785 0.08672537 0.48427087 0.4621557 -0.060031474 0.5206546 0.3216101 0.11861429 0.34206736 0.6177842 0.40523285 0.25205174 -0.38261724 -0.12238175 -0.16706298
accuraci -0.30866063 0.4935633 -0.018076073 0.17495812 0.042567268 -0.6852962 0.17402795 0.9264137 -0.3528994 -0.045597885 0.03548488 -0.3196413 0.020031476 0.072426096 0.18343991 -0.39961922 0.12540293 -0.60807633 -0.11382348 -0.79461664 0.100992434 0.36571068 0.21515758 -0.054194383 -0.34786958 -0.12482362 -0.332585 -0.42348042 -0.5086968 0.3128083 0.30192316 0.027957346 0.18790746 -0.2550829 -0.11286598 0.73279923 0.11575011 -0.18447316 -0.28515866 -0.57731205 0.049498007 -0.35718235 -0.23513512 0.025784317 0.29899302 0.15772842 -0.015940545 0.010560804 0.13981698 0.45854777 0.1433928 -0.13609703 -0.30337343 -0.09800647 -0.25284448 0.22942741 0.32624596 0.4067391 -0.40900674 0.3014924 0.12779571 0.18767466 -0.11545064 -0.05839923 -0.4487171 0.11304363 0.05641009 0.14899805 -0.5618828 0.37226763 0.020676585 0.036675006 0.32175183 -0.3949597 0.4101411 0.16818812 0.079587735 -0.013229506 -0.37015405 0.105742835 -0.09650381 0.056101438 -0.5778424 0.44145954 -0.3473042 0.082954176 0.10876818 0.39514253 0.6036146 0.049673446 0.54927224 0.28672975 0.053212497 0.49384537 0.48578167 0.29697907 0.36665785 -0.43658918 -0.12200883 -0.37056515
iter -0.3221444 0.26207185 -0.04859051 0.12227003 0.014438908 -0.64058805 0.14241852 0.7722743 -0.40884057 0.1693942 -0.27038848 -0.29662842 -0.021597417 -0.036615234 -0.07267188 -0.25852165 0.1222004 -0.44736826 0.08382223 -0.7062518 0.09799177 0.2740469 0.22875781 -0.30331618 -0.21454497 -0.06412211 -0.33462134 -0.322934 -0.47135967 0.1935878 0.4680689 0.08958548 0.032447316 -0.092215404 -0.1019873 0.46552828 -0.04844113 -0.28022882 -0.18154018 -0.6957046 0.050302144 -0.3819883 -0.25355753 -0.10148889 0.4064204 -0.14403558 -0.16206951 0.019209197 0.05926732 0.21242137 0.073208526 -0.15703987 -0.11294114 0.09383757 -0.34597522 0.22676404 0.2778312 0.10672305 -0.44030264 0.09096473 0.07425586 0.14465334 -0.2282898 -0.14650469 -0.41818863 0.17050163 0.09020695 0.13528861 -0.47786906 0.41428322 -0.15372191 0.06425127 0.3250149 -0.28307277 0.36681667 0.16808441 0.13553225 -0.052777942 -0.24762732 0.08462846 -0.13096234 0.024600348 -0.43163815 0.5711115 -0.25158212 -0.066834696 0.018974125 0.38932502 0.40849376 -0.011742791 0.5352584 0.27684924 0.06007371 0.23901357 0.6592645 0.36131364 0.32927477 -0.6007035 -0.03170753 -0.11785186
also -0.37066185 0.40915406 -0.0047411122 0.16087408 -0.012856376 -0.64837795 0.14167099 0.83650446 -0.39817363 0.018628616 -0.03816541 -0.3215158 0.0110027 0.051057715 0.07530737 -0.34974098 0.12683685 -0.5632769 -0.022772387 -0.7221758 0.0649526 0.32761475 0.1634367 -0.13863909 -0.2819287 -0.10334006 -0.3187089 -0.40613163 -0.5318074 0.271459 0.3472132 0.02835329 0.10692348 -0.20365703 -0.13223438 0.58847183 0.010005957 -0.26271853 -0.23202908 -0.6777391 0.078755125 -0.35315672 -0.25221816 -0.036465723 0.3472165 0.08684896 -0.11262217 0.002132898 0.11295176 0.36026365 0.13607271 -0.112463094 -0.2770694 -0.049983155 -0.23191063 0.25795218 0.2901216 0.28915808 -0.4367499 0.1838863 0.08920405 0.1830783 -0.17939301 -0.06886345 -0.46592775 0.16242866 0.07462679 0.107524805 -0.50993437 0.36669526 -0.051827595 -0.009471003 0.31583622 -0.37054065 0.4164003 0.20486389 0.0986942 -0.053621702 -0.3080385 0.11862303 -0.07026276 0.04213184 -0.49880847 0.55538595 -0.3438257 0.02715312 0.06677798 0.3927793 0.53071016 0.0198106 0.5217038 0.2993885 0.05710055 0.42772508 0.52539194 0.34738013 0.3225478 -0.44068986 -0.10364298 -0.24670134
simul -0.34414634 0.3223533 -0.038431 0.14510126 0.06923439 -0.69339204 0.112400085 0.89397293 -0.3927266 -0.010848963 -0.152619 -0.30058688 0.023633987 0.038365148 0.078829736 -0.3615194 0.11590001 -0.45357078 0.02581322 -0.739928 0.068418615 0.33483854 0.14430708 -0.14102332 -0.22088702 -0.07808382 -0.34542778 -0.42581543 -0.52944416 0.2568001 0.32860473 0.07498644 0.06738252 -0.28194857 -0.16229722 0.65888536 -0.046217903 -0.28621778 -0.20844035 -0.6240436 0.08080447 -0.39483875 -0.2257142 -0.07695988 0.38979942 -0.047408957 -0.119484045 -0.021139413 0.08930864 0.30050212 0.1361673 -0.23230012 -0.22724375 0.030702315 -0.24254297 0.25053218 0.282661 0.20458409 -0.4460637 0.19582692 0.102982104 0.08369217 -0.14243731 -0.1186935 -0.46342754 0.22722912 -0.0026597104 0.097862266 -0.5444841 0.46656844 -0.095272794 0.04097174 0.30854043 -0.35396492 0.48925027 0.13993955 0.10181807 0.009916352 -0.3452615 0.080293454 -0.115211554 0.05926477 -0.4936343 0.5201208 -0.31187814 0.02283814 0.009842951 0.53233266 0.55924046 -0.012925574 0.55505717 0.27038148 0.114614084 0.41374686 0.58646905 0.3492917 0.30803347 -0.5424015 -0.051974103 -0.23632078
new -0.40707028 0.34513202 0.012946562 0.2054796 -0.065683976 -0.6512638 0.15393461 0.83755213 -0.36543408 -0.035694573 -0.07576878 -0.3035403 -0.028743468 0.07697639 0.08902562 -0.3054378 0.094578415 -0.5289037 -0.018094122 -0.69271547 0.068914995 0.30689538 0.14383018 -0.13978551 -0.21882342 -0.057526637 -0.33719516 -0.3538037 -0.54976344 0.20780884 0.27855697 0.029372672 0.102860674 -0.16820218 -0.16470125 0.6104294 0.021129493 -0.30330622 -0.22810201 -0.66113 0.051642586 -0.340918 -0.26158816 -0.063782014 0.38324866 -0.019574817 -0.12556817 0.00171659 0.1370272 0.34715343 0.106873564 -0.10514677 -0.25800082 -0.064693116 -0.23916037 0.236051 0.26962852 0.18995395 -0.44806203 0.15505844 0.09323669 0.16331851 -0.13983667 -0.0533272 -0.47828275 0.17272533 0.045737047 0.17147957 -0.49315885 0.4189685 -0.04775236 0.026257746 0.31501538 -0.36217105 0.4653047 0.22774974 0.09501851 -0.02675126 -0.290189 0.089830026 -0.048251048 0.015691686 -0.44459265 0.5352173 -0.30119234 -0.008619612 0.090945445 0.40981495 0.47758552 -0.0005356736 0.55034035 0.3492389 0.104635224 0.40329278 0.60139406 0.38043928 0.30286703 -0.44053242 -0.13512938 -0.2234185
matrix -0.3773971 0.14495102 -0.04128935 0.049724914 -0.06343805 -0.64017195 0.034977153 0.7513928 -0.38113177 0.1741057 -0.3581205 -0.22235508 -0.011333156 -0.052184418 -0.1869648 -0.25341403 0.09244397 -0.38995034 0.23353145 -0.62926584 0.07305731 0.23859979 0.2020389 -0.40516475 -0.08690179 0.0031217227 -0.3636174 -0.2795118 -0.4746665 0.22717576 0.43907672 0.1183164 -0.13368669 -0.13830367 -0.060877454 0.41437784 -0.19169495 -0.4091629 -0.17727406 -0.78832227 0.06814818 -0.39983192 -0.3043755 -0.218858 0.5083039 -0.27317864 -0.24765041 0.0399601 0.026875662 0.030282347 0.09162527 -0.2071477 -0.04476581 0.22267585 -0.2577758 0.29293856 0.22012 -0.014624065 -0.4615643 -0.016924264 0.0029457633 0.019483972 -0.20943466 -0.1132893 -0.37769383 0.26274332 0.055656772 0.06685843 -0.44969207 0.4717973 -0.21891955 0.109722674 0.2314553 -0.2759921 0.3740118 0.2385881 0.13555793 -0.09616988 -0.1575504 0.13916126 -0.12899886 0.031048428 -0.3328202 0.6312977 -0.22030808 -0.13959977 -0.062411174 0.5125252 0.4072825 0.10916728 0.51905185 0.2381084 0.08126451 0.14238545 0.6635179 0.3637333 0.28959942 -0.62787277 0.058580782 -0.017921668
non -0.30348074 0.084525675 -0.0905614 1.1115351e-05 -0.035690136 -0.6480128 0.041732058 0.72884625 -0.3155924 0.17031917 -0.41617736 -0.19004749 -0.035202466 -0.02353385 -0.20433432 -0.2676343 0.03086059 -0.2730419 0.27383578 -0.61160207 0.10634646 0.23742045 0.13467582 -0.3647007 -0.048379496 -0.0029211987 -0.31101155 -0.283288 -0.45004144 0.18606804 0.4386419 0.09409649 -0.11767403 -0.21717903 -0.076703906 0.42286643 -0.20046884 -0.43777916 -0.1474651 -0.6876101 0.1329277 -0.4443174 -0.35106725 -0.25788975 0.53871125 -0.40150374 -0.2296442 0.059690844 0.07211539 -0.031853978 0.090233885 -0.29656836 -0.022955453 0.2743898 -0.23477782 0.33823645 0.19769548 -0.110289365 -0.48761004 -0.07140493 -0.0018842162 -0.006796418 -0.20184605 -0.11512957 -0.39192775 0.36926273 0.009805624 0.070617214 -0.4678884 0.5467198 -0.25580218 0.09974494 0.26948407 -0.2410958 0.45858243 0.15458736 0.10756181 -0.0038695948 -0.20348062 0.13025637 -0.16750751 0.019899799 -0.33037412 0.62562805 -0.20122701 -0.16538592 -0.06233787 0.60181063 0.3760285 0.043323953 0.53806406 0.27342752 0.112749636 0.09844465 0.7385338 0.3578862 0.22968428 -0.6566392 0.03638859 0.067522585
local -0.35629845 0.15943544 -0.020605756 0.037372757 -0.008983162 -0.69367534 0.042504463 0.75853723 -0.39209175 0.15480426 -0.33764887 -0.24337693 0.043261956 -0.05389471 -0.13726746 -0.29389557 0.087767266 -0.3339563 0.13706005 -0.69361997 0.09215391 0.32041764 0.16752736 -0.366436 -0.120840505 -0.043561757 -0.33112434 -0.28999057 -0.4456757 0.20333822 0.43979305 0.113630325 -0.11817222 -0.118651725 -0.12596494 0.4576395 -0.10266489 -0.44148397 -0.16447745 -0.7286269 0.13553192 -0.46243465 -0.27835184 -0.2608958 0.49296924 -0.27248877 -0.15278779 0.052191965 0.06597184 0.08579924 0.11585618 -0.25612563 -0.083126284 0.21320717 -0.29381528 0.30607685 0.27892593 -0.040415168 -0.46131927 -0.004215744 0.0037863418 0.055241346 -0.21659586 -0.13046138 -0.36789697 0.2627439 0.00804868 0.033916134 -0.5574403 0.49217102 -0.18976709 0.064399056 0.28478172 -0.23876882 0.3663529 0.20403978 0.14568776 -0.060703836 -0.2622902 0.123772696 -0.13377735 0.05085589 -0.3823247 0.58695984 -0.22954471 -0.056926798 -0.11297664 0.4936782 0.41974905 0.13197161 0.5813674 0.28442368 0.08739692 0.2065563 0.70862645 0.36048165 0.24241579 -0.66190857 0.001147134 -0.027735295
point -0.38045067 0.21180555 -0.014255576 0.08608146 -0.038612325 -0.72262603 0.0715339 0.82223576 -0.40724978 0.15193868 -0.3112491 -0.25188664 0.020157734 -0.07435574 -0.1327348 -0.2682779 0.11054256 -0.42382717 0.1079238 -0.71932006 0.059132043 0.32443133 0.18526033 -0.33839533 -0.16492343 -0.05828122 -0.37106043 -0.3360268 -0.47518104 0.22532608 0.4048048 0.11655462 -0.07227582 -0.11454961 -0.10856592 0.47352484 -0.08944327 -0.41132528 -0.1860335 -0.7940007 0.094094254 -0.45085546 -0.23220058 -0.18488967 0.46991193 -0.17925425 -0.18645497 0.066707894 0.051539786 0.14959204 0.091081224 -0.2227257 -0.10462197 0.16787302 -0.33777133 0.29025817 0.30261013 0.055497788 -0.4771367 0.06402856 0.02859137 0.08022132 -0.24626589 -0.124246344 -0.39537534 0.2508735 0.06473705 0.06360203 -0.53759027 0.46783635 -0.1490892 0.06782034 0.33150434 -0.24530406 0.40502277 0.21826774 0.1327123 -0.057811756 -0.2585114 0.11676258 -0.11246389 0.09073788 -0.38736105 0.6044005 -0.23709449 -0.057812028 -0.05786442 0.50385904 0.46073207 0.08596512 0.58981365 0.30237058 0.050068088 0.24260889 0.66622317 0.39573205 0.29539645 -0.6720546 0.018487629 -0.06081961
proc -0.3937212 0.2727012 0.024951098 0.17329526 -0.013087584 -0.73296845 0.04150827 0.8890497 -0.3850174 0.075253874 -0.22537842 -0.25934914 0.038012322 -0.027906852 0.0033391817 -0.33224294 0.05918059 -0.38963622 0.15291664 -0.65112305 0.089643456 0.3919071 0.14074785 -0.21130587 -0.19024627 -0.0848217 -0.35410228 -0.46676192 -0.44981736 0.30431968 0.3373728 0.06262096 0.0025999835 -0.17844404 -0.16424663 0.5964778 -0.052395057 -0.41777065 -0.19022307 -0.7580472 0.18914805 -0.41696554 -0.2784783 -0.11508424 0.44953176 -0.07870954 -0.18228276 0.009029362 0.05494556 0.12051854 0.10834613 -0.20121758 -0.17557634 0.10459982 -0.25067386 0.3134902 0.24979079 0.08154642 -0.44704837 0.022833005 0.016873999 0.1164152 -0.14330429 -0.15789196 -0.41248378 0.24352697 0.007119597 0.05519424 -0.5250582 0.41594234 -0.1488163 0.027446331 0.27330667 -0.29460064 0.492189 0.28419083 0.11379422 -0.059797987 -0.37990063 0.14504535 -0.093583 0.057827745 -0.3030923 0.4675214 -0.25105283 -0.0178087 -0.07161692 0.5487092 0.5519094 0.1284473 0.5124173 0.28570062 0.05797702 0.33366302 0.6725345 0.38656864 0.32454833 -0.5408678 -0.013523608 -0.13486235
perform -0.37888223 0.46954826 0.013222 0.24999353 0.01926962 -0.6873318 0.15788466 0.94601315 -0.37032083 -0.06319671 0.01636785 -0.34615543 0.025466595 0.107183225 0.2180523 -0.39578503 0.1192984 -0.5868213 -0.076017715 -0.7219609 0.10591913 0.39220357 0.14811336 -0.009811715 -0.3553684 -0.10797566 -0.31473523 -0.47449696 -0.524852 0.32723686 0.28724933 0.0036456431 0.19957985 -0.2807749 -0.1915023 0.7633526 0.111474834 -0.22195433 -0.2700583 -0.62213975 0.08823938 -0.3300535 -0.2566679 0.05386193 0.3253712 0.20260364 -0.05355584 -0.053691197 0.13309622 0.39822918 0.16216479 -0.13024186 -0.3662899 -0.103866085 -0.23171672 0.25234738 0.3016875 0.37818334 -0.43950462 0.2431524 0.11116899 0.21478955 -0.11009585 -0.06559918 -0.47335765 0.1330573 0.02930446 0.13415341 -0.51010543 0.35882932 0.011905855 -0.010502995 0.3002166 -0.40813163 0.49575648 0.2629237 0.04981833 -0.01742276 -0.41627234 0.12061915 -0.07059108 0.057058062 -0.48128164 0.45692387 -0.34304196 0.107325494 0.114265546 0.4740397 0.6180798 0.003609564 0.5087181 0.28418174 0.08529846 0.4925133 0.50938296 0.33385703 0.36422133 -0.3920196 -0.11082104 -0.3392686
one -0.31362656 0.22340031 -0.065239914 0.06876977 0.02089324 -0.617148 0.106251 0.817849 -0.3312872 0.15833978 -0.29350322 -0.21953133 -0.01596682 -0.053936664 -0.15956104 -0.27021417 0.12844566 -0.37390286 0.15267411 -0.7189214 0.06718101 0.21829468 0.19371162 -0.32184628 -0.1343167 -0.09021484 -0.3147895 -0.3412905 -0.49971673 0.20500693 0.39338833 0.10123028 -0.0358305 -0.17968045 -0.07051644 0.4819048 -0.106198646 -0.38217127 -0.15415569 -0.6879674 0.059835356 -0.40409154 -0.24563187 -0.21150826 0.51326823 -0.24722697 -0.2006568 0.0925481 0.07246688 0.12411381 0.0999099 -0.22742234 -0.083301105 0.18496488 -0.28042814 0.26143482 0.256559 0.038329888 -0.4242107 0.031182602 0.053642496 0.05477102 -0.20879927 -0.14605103 -0.41718575 0.26354128 0.054120816 0.099562936 -0.52416486 0.4657619 -0.20019801 0.09074224 0.30413976 -0.24642931 0.4207306 0.12741774 0.13277732 -0.04623421 -0.24831566 0.10306051 -0.13305604 0.046995662 -0.44245142 0.60309774 -0.2269003 -0.0947446 -0.040369466 0.4601329 0.42719975 0.037609994 0.5315595 0.27614325 0.077035606 0.2218 0.7083572 0.3522894 0.29430506 -0.65569925 0.03226831 -0.101506986
step -0.2704041 0.22364518 -0.04263136 0.0024383175 0.097076274 -0.68231505 0.13191645 0.70136875 -0.44627804 0.2161211 -0.27247941 -0.20369393 0.021884093 -0.17208184 -0.126234 -0.21669057 0.14889792 -0.355095 0.055974267 -0.76104337 0.048873562 0.26360255 0.34115168 -0.38017473 -0.18669513 -0.100335725 -0.2937789 -0.270104 -0.40717208 0.13545762 0.51381284 0.14460604 -0.048397392 0.0073094256 -0.059463117 0.44436342 -0.09716902 -0.3317849 -0.14973502 -0.72698414 0.04783213 -0.39760494 -0.18481947 -0.24453792 0.42779696 -0.23058124 -0.19359933 0.09803305 0.07350849 0.13989215 0.10519657 -0.18158062 -0.072955646 0.17584603 -0.4120789 0.18662183 0.3321478 0.06261919 -0.34269112 0.122095376 0.09297389 0.109739356 -0.2704511 -0.16528474 -0.34340686 0.16747247 0.08120147 0.05669206 -0.5478886 0.41764602 -0.21896419 0.074776284 0.2864704 -0.1535054 0.228526 0.09377626 0.18676263 -0.06427263 -0.23416305 0.043634117 -0.13280319 0.031677876 -0.50611645 0.5729641 -0.29816845 -0.023713345 -0.1071772 0.2790613 0.34420323 0.06792944 0.60500604 0.26477316 0.008510421 0.24611716 0.70081025 0.29455423 0.2878527 -0.701099 -0.049491942 -0.14971605
physic -0.4095134 -0.2606994 0.032891303 0.2231432 -0.24331285 -0.88470376 -0.43202746 0.97269225 0.10470206 -0.29174265 -0.47903848 -0.074564785 0.0759758 0.4117188 0.106946334 -0.52296966 -0.34775797 0.13930713 0.5160009 -0.105739295 0.5014351 0.5806435 -0.37089512 0.11703579 0.24542436 0.16358225 -0.2601176 -0.5449525 -0.17996232 0.43485665 -0.12842831 -0.042624734 -0.22630191 -0.65668833 -0.5912051 0.8106902 -0.12534834 -0.88551193 -0.21312326 -0.36747515 0.65284413 -0.50672007 -0.7109684 -0.4129915 0.7843275 -0.6122403 -0.06361005 -0.40218145 0.15087284 -0.38430497 -0.01869627 -0.6154832 -0.16555582 0.49746642 0.34902576 0.59107155 -0.12774445 -0.74899286 -0.5427981 -0.4655985 -0.23158737 -0.2935632 0.30946556 -0.17134884 -0.3073383 0.5658352 -0.38019255 -0.099825285 -0.48015302 0.7377922 -0.32346418 0.050843768 -0.012245774 -0.3161749 0.896513 0.794401 -0.122803755 0.15050909 -0.72276175 0.28143018 -0.08619381 0.002994992 0.28778866 0.3537122 -0.028297473 -0.11180798 -0.13775197 1.3813366 0.58388066 0.32230303 0.41044137 0.22049192 0.27361864 0.057524968 0.8345829 0.53853834 0.0146589065 -0.20968461 -0.103155375 0.38799322
structur -0.40293974 0.21004353 -0.023533437 0.04467536 -0.043485086 -0.7427741 0.06410074 0.86491334 -0.35113245 0.09909167 -0.30795208 -0.22446674 0.04531507 -0.035055093 -0.109109975 -0.31021062 0.064472 -0.3817907 0.1691435 -0.7158341 0.09473316 0.30739605 0.18047939 -0.36709228 -0.098844305 -0.020545553 -0.36281103 -0.32713908 -0.4988604 0.20696665 0.38551787 0.10141401 -0.098000765 -0.11961417 -0.11907323 0.52627856 -0.118283175 -0.425269 -0.18448289 -0.7626008 0.11169856 -0.4412363 -0.2718422 -0.24192818 0.5302881 -0.24166109 -0.15715314 0.02008973 0.06261976 0.11032786 0.07357907 -0.21346 -0.12090209 0.18914224 -0.27123556 0.31504977 0.27774313 0.03503575 -0.46995327 0.03898307 0.04701185 0.025752122 -0.18408386 -0.12887534 -0.41201138 0.30505064 -0.015867548 0.04200157 -0.5261214 0.5127658 -0.17292027 0.07078637 0.29777196 -0.2539379 0.4242799 0.2129009 0.14110968 -0.058616567 -0.2688759 0.15845625 -0.09783271 0.028005375 -0.35645172 0.55100775 -0.2273742 -0.06628296 -0.080527805 0.5392336 0.49593368 0.09671663 0.5415327 0.26977172 0.10296405 0.25987798 0.6883865 0.36468086 0.31473118 -0.6347081 -0.01570539 -0.058411278
framework -0.4163377 0.23585619 0.0063994187 0.15470904 -0.10332887 -0.67483145 0.04533568 0.8732112 -0.30361873 -0.008755609 -0.23458041 -0.24261029 -0.03546049 0.11067027 0.04290405 -0.36741284 0.024102524 -0.36916187 0.16072294 -0.59681433 0.1371394 0.33040297 0.06678414 -0.15779498 -0.13012934 -0.029331703 -0.3288689 -0.39719072 -0.50983214 0.2672027 0.2785272 0.01270853 -0.005717892 -0.28178263 -0.21504098 0.5897093 -0.06994464 -0.3976809 -0.19152577 -0.6635363 0.160014 -0.3915078 -0.37115526 -0.1631349 0.49554193 -0.17972903 -0.16331626 -0.05276853 0.12563618 0.15429877 0.07828481 -0.21998915 -0.18793555 0.05777252 -0.13707407 0.3299198 0.19791414 -0.011087282 -0.48197657 0.012438002 0.0060564 0.050568644 -0.09572891 -0.10029097 -0.45347604 0.29337108 -0.031000962 0.123373054 -0.5021248 0.530013 -0.15170373 0.043492302 0.25838253 -0.36466333 0.5430506 0.28759083 0.08295883 0.0084163165 -0.34885424 0.15665281 -0.07595825 -0.007816054 -0.3332866 0.580539 -0.24000105 -0.08335773 0.019940944 0.6314284 0.51029164 0.025828585 0.5328238 0.3106988 0.14910561 0.28961623 0.6920706 0.40471962 0.26080915 -0.4465123 -0.067589246 -0.067234784
learn -0.3730635 -0.06617216 -0.003603195 0.18721426 -0.20777388 -0.7535279 -0.211064 0.867417 0.008146688 -0.16559465 -0.3512255 -0.076219454 0.017271195 0.28179178 0.06861915 -0.39880615 -0.21432973 0.003199532 0.45929492 -0.2265162 0.30224958 0.40456802 -0.20889391 -0.012618055 0.11683299 0.12174786 -0.23195468 -0.47982228 -0.23531792 0.41152743 0.088436425 -0.018655226 -0.1643228 -0.48089963 -0.41912678 0.599028 -0.11394881 -0.6702341 -0.15046589 -0.49480984 0.48423976 -0.43744254 -0.55254376 -0.2913623 0.61526287 -0.4692473 -0.12155648 -0.25224417 0.07401093 -0.23620473 -0.019713767 -0.4303899 -0.08458487 0.36409828 0.15537132 0.46716878 -0.102821015 -0.5019584 -0.51349294 -0.31530428 -0.08984711 -0.20904146 0.18059869 -0.11985168 -0.24702498 0.45335162 -0.20120381 -0.035498753 -0.4332565 0.6506084 -0.2552842 0.063069664 0.058637228 -0.36374506 0.74430215 0.58630806 -0.096595675 0.13752916 -0.5160131 0.26960588 -0.08578606 -0.0042513134 0.13503061 0.33552793 -0.07014258 -0.15056482 -0.12255728 1.0891143 0.54080606 0.1714234 0.43365437 0.20066684 0.2121784 0.051795863 0.75341684 0.45261836 0.09229459 -0.28946435 -0.07574791 0.28380293
deriv -0.28895774 0.1744656 -0.04075135 -0.004884403 -0.026722379 -0.61540896 0.07259928 0.6817367 -0.3369662 0.14811838 -0.29426804 -0.20576109 -0.028192958 -0.014006884 -0.18229873 -0.2448195 0.07204581 -0.3753432 0.13012728 -0.6354655 0.05099565 0.23222867 0.2128232 -0.3477912 -0.11840412 -0.042494792 -0.28418243 -0.22433104 -0.4874577 0.2008696 0.43752006 0.077806644 -0.066834964 -0.14384425 -0.06110833 0.3774747 -0.15610853 -0.36740035 -0.15395147 -0.6930341 0.04916269 -0.36577025 -0.27494985 -0.2278596 0.4785773 -0.25865844 -0.14490803 0.048945267 0.11075555 0.11199879 0.10175086 -0.19383179 -0.074605554 0.16964237 -0.23868488 0.25435787 0.22443062 0.03827054 -0.42077395 0.0067001735 0.024349673 0.028196845 -0.22430404 -0.074325375 -0.3739548 0.2668738 0.048192345 0.03522443 -0.4908943 0.4583139 -0.18879455 0.10205462 0.29471654 -0.24453516 0.3339682 0.1490767 0.15080737 -0.079887375 -0.16993982 0.10160851 -0.11646964 0.034744747 -0.44178852 0.601815 -0.23912683 -0.117290236 -0.05740256 0.4448576 0.36005017 0.090036646 0.53984183 0.266114 0.08863375 0.16782318 0.65599 0.32579014 0.24190198 -0.5892416 -0.011377335 -0.06350616
boundari -0.28970945 0.14257519 -0.14513534 -0.030875267 0.062427726 -0.5988792 0.120182335 0.635746 -0.3054882 0.27770725 -0.47920063 -0.25367457 -0.07502155 -0.03699973 -0.26117092 -0.14986719 0.026583685 -0.33551466 0.21508597 -0.7247075 0.0003069584 0.18982357 0.2851383 -0.4578742 -0.09238833 -0.069495045 -0.26431486 -0.18782575 -0.45017412 0.09446095 0.456566 0.13511872 -0.045348875 -0.012748683 -0.0503803 0.3554649 -0.30328193 -0.42766017 -0.059234835 -0.6314805 0.040400993 -0.46179914 -0.23323919 -0.3395406 0.4881036 -0.3781689 -0.27619547 0.1965947 0.04745969 0.010858148 0.14676757 -0.27094927 0.04992797 0.2091222 -0.273725 0.2775409 0.30437207 -0.04239239 -0.44868967 0.029377459 0.091659546 0.021079412 -0.30086258 -0.07284111 -0.3666117 0.21355273 0.050682783 0.103041835 -0.48673522 0.44829443 -0.14093074 0.07996025 0.28851917 -0.19329199 0.35171795 0.081640154 0.13176459 -0.072286725 -0.06451256 0.08936634 -0.22592074 0.021246824 -0.47084615 0.7198166 -0.17840111 -0.15292706 -0.040563397 0.37491134 0.26631898 -0.059182152 0.56344384 0.314663 0.14283657 0.07572559 0.69779104 0.34747446 0.25821158 -0.73031014 0.080292165 0.0010502532
reduc -0.2713191 0.21640173 -0.004262524 0.07429534 0.027082486 -0.62950706 0.020237809 0.76916826 -0.3208008 0.08028113 -0.20287476 -0.21973617 0.038283363 -0.034143817 -0.06812299 -0.2286289 0.08523038 -0.33040428 0.13695565 -0.6047841 0.061967928 0.28968644 0.25835666 -0.25038394 -0.11676073 -0.03015634 -0.26617455 -0.30762532 -0.38657683 0.26670578 0.34533748 0.064915046 -0.043195426 -0.097598135 -0.080093876 0.45847648 -0.022113016 -0.38196743 -0.14637722 -0.641857 0.10700416 -0.35425627 -0.23237924 -0.18071169 0.39269635 -0.14173642 -0.10339869 0.050963033 0.028249621 0.10654845 0.07416975 -0.19906583 -0.06525856 0.11028665 -0.2227707 0.2375812 0.24324295 0.043612756 -0.3429799 0.058040064 0.0235434 0.031226823 -0.1356891 -0.11327205 -0.31930605 0.17118534 0.026336597 0.042603914 -0.48727632 0.39523998 -0.15752393 0.028815577 0.19944106 -0.21921109 0.29927465 0.18159412 0.09918708 -0.043402206 -0.26102903 0.15868005 -0.05427681 0.04232017 -0.32836592 0.42959836 -0.22000872 -0.021350492 -0.08423213 0.3901913 0.43203327 0.16278426 0.47321206 0.227889 0.022769628 0.27743047 0.56254166 0.3136344 0.24878837 -0.53747785 -0.012164047 -0.11941494
studi -0.38462436 0.26242515 -0.026271926 0.12102412 -0.03480742 -0.6428441 0.12733978 0.8174018 -0.3571742 0.050098643 -0.18911473 -0.27722883 -0.01857051 0.050802667 0.01595138 -0.33013064 0.09856069 -0.46015576 0.09106264 -0.6817125 0.088967174 0.2986027 0.1222735 -0.1852925 -0.17354454 -0.04365932 -0.3332434 -0.3679685 -0.5297438 0.21891151 0.32859752 0.054195117 0.0247714 -0.21222961 -0.12986521 0.54368937 -0.064762115 -0.32455942 -0.18390681 -0.6407335 0.068458855 -0.36622447 -0.2780332 -0.09351325 0.42391974 -0.10626529 -0.15997398 0.027068468 0.11744497 0.24945547 0.11040644 -0.18434879 -0.20462804 0.0329406 -0.2202028 0.27329963 0.24828707 0.13741787 -0.4498266 0.10774172 0.06430787 0.0869929 -0.15700349 -0.08879536 -0.4756075 0.25605187 0.020058122 0.13398585 -0.493824 0.4530446 -0.12237775 0.059575893 0.31764176 -0.34454954 0.47347215 0.18474235 0.096586205 -0.003919062 -0.2888203 0.1192538 -0.07721473 0.0285072 -0.4379471 0.59197897 -0.26785874 -0.033466175 0.011001929 0.4974548 0.45901826 -0.029771505 0.52750105 0.324584 0.118660346 0.3252845 0.6298037 0.37739027 0.29731902 -0.48811495 -0.054470804 -0.17067544
both -0.33228528 0.32201222 -0.033356145 0.119929254 0.03411613 -0.652567 0.13563344 0.826947 -0.38487792 0.07043603 -0.1724723 -0.27500877 0.02500758 0.021092998 -0.014521069 -0.3245617 0.113285534 -0.4688384 0.027733332 -0.72234887 0.085274614 0.28362346 0.1836301 -0.2052631 -0.23322798 -0.10371769 -0.3148784 -0.3710124 -0.51366675 0.24843736 0.37417093 0.07255805 0.04638931 -0.20730536 -0.10146041 0.5682402 -0.032047637 -0.28965646 -0.21050087 -0.6858351 0.06295064 -0.38669753 -0.24562013 -0.09588731 0.4085903 -0.056886606 -0.13278855 0.028053323 0.10680297 0.25721988 0.13473712 -0.17428048 -0.20955792 0.05460871 -0.26792488 0.24489993 0.2837978 0.198472 -0.46932426 0.150154 0.06541732 0.1435235 -0.18162863 -0.09924491 -0.4547044 0.1946695 0.055920362 0.107887395 -0.5297261 0.43442044 -0.09656151 0.05335273 0.3219365 -0.33890688 0.42156067 0.16477491 0.13972373 -0.050608095 -0.28584045 0.10535939 -0.10893034 0.049404714 -0.48739234 0.55884916 -0.3066096 -0.014259181 0.029039843 0.46696013 0.50241405 0.04301641 0.53754073 0.28767586 0.071263745 0.3461332 0.591246 0.32921916 0.31286466 -0.54260874 -0.03550542 -0.18291591
it -0.39466378 0.34794712 -0.018402174 0.14064191 -0.02051319 -0.6967532 0.12715176 0.8767755 -0.37452424 0.08655165 -0.1560144 -0.3128312 0.008311799 0.017400296 -0.02131394 -0.35983822 0.10616638 -0.5258058 0.047153916 -0.7283151 0.10268869 0.32800558 0.18405862 -0.21705557 -0.25631878 -0.10830955 -0.3511049 -0.41863355 -0.5462743 0.27190048 0.40503243 0.062949 0.046418626 -0.21782364 -0.1261111 0.5855174 -0.037549313 -0.3059083 -0.22635865 -0.73860013 0.065361045 -0.37413707 -0.2698427 -0.08839394 0.39921412 -0.03800536 -0.14774379 0.017941713 0.11188778 0.2673649 0.13787001 -0.17649148 -0.20841207 0.03853863 -0.26179484 0.2939685 0.27927318 0.22571863 -0.50238955 0.13428414 0.06403293 0.15241833 -0.18305716 -0.1160243 -0.46992287 0.20929061 0.055663392 0.103380285 -0.5073415 0.412624 -0.084518135 0.038720645 0.30845436 -0.35854748 0.45798174 0.22326161 0.11471182 -0.043580618 -0.30679673 0.11292259 -0.117045954 0.052507035 -0.46443242 0.5644739 -0.3214248 -0.010496383 0.049299523 0.473048 0.54443616 0.05377532 0.55693924 0.2993992 0.060658876 0.33324796 0.60298264 0.35924226 0.3350161 -0.5196445 -0.03861731 -0.18432105
devel -0.33102435 0.2306316 -0.027364515 0.0947349 -0.016011104 -0.649598 0.115506865 0.78527874 -0.35537672 0.06706306 -0.23651789 -0.25353935 -0.0498506 0.058379572 0.008572046 -0.2931475 0.08155494 -0.4158353 0.10134735 -0.6799281 0.081339896 0.27368143 0.17713743 -0.23595281 -0.13509427 -0.037165515 -0.30470642 -0.2911351 -0.5328777 0.19225092 0.35719758 0.066906705 0.028808463 -0.18648611 -0.13907605 0.5148594 -0.0799078 -0.3276381 -0.17723432 -0.61712873 0.054193486 -0.37586743 -0.28112352 -0.1358994 0.4588809 -0.20514557 -0.14484587 0.0075798347 0.13058774 0.21565339 0.0870389 -0.19304213 -0.15870799 0.06709773 -0.24000815 0.22601257 0.22412737 0.06912869 -0.40710965 0.09352862 0.06908838 0.043775316 -0.1506936 -0.08768168 -0.45816 0.25605217 0.033988487 0.13328406 -0.5077928 0.48391482 -0.14475375 0.081057526 0.3013117 -0.32536387 0.4406708 0.18233499 0.12086287 -0.0026462418 -0.2614451 0.10507038 -0.09441931 -0.00723817 -0.42532474 0.55280113 -0.22782907 -0.0711661 -0.0071947156 0.47605565 0.42779213 -0.03172767 0.53185326 0.31349835 0.12588654 0.2753971 0.6572653 0.35623077 0.26585254 -0.5205693 -0.066388346 -0.14297022
set -0.34188193 0.2374508 0.00066922954 0.11273982 -0.03355568 -0.6440317 0.07576261 0.78977054 -0.35717243 0.09961325 -0.23218791 -0.23937963 0.015757725 -0.018293729 -0.06299671 -0.29776776 0.08449015 -0.40150648 0.11790841 -0.64803183 0.08791104 0.2904768 0.1452762 -0.24208358 -0.1648163 -0.05331454 -0.30348495 -0.34636015 -0.46147004 0.22288704 0.36463 0.08062605 -0.008053155 -0.17199074 -0.113714494 0.5024984 -0.085753605 -0.36922798 -0.18434055 -0.6968036 0.1087394 -0.36992148 -0.26490778 -0.16583745 0.4270467 -0.15562008 -0.17852162 0.031290375 0.07743892 0.1409414 0.08688722 -0.2004166 -0.13552307 0.10950271 -0.23015447 0.280205 0.22024697 0.07834897 -0.4216471 0.038903274 0.045635115 0.08543177 -0.17662896 -0.11912879 -0.38915464 0.2502452 0.049227383 0.065370336 -0.48704246 0.42008087 -0.16587567 0.04735361 0.28451344 -0.29119167 0.43279994 0.2086729 0.11204675 -0.059161227 -0.2634893 0.13821892 -0.07882531 0.053090394 -0.38343024 0.55974734 -0.2395076 -0.06154228 -0.020694852 0.47378772 0.45004565 0.042597488 0.5178578 0.2856896 0.07118236 0.25324616 0.63166565 0.33716956 0.27391776 -0.53662676 -0.0045336224 -0.1051336
