2396 100
we -0.2641487 0.78730136 -0.10822871 0.45509982 -0.13110721 -0.49171215 0.1968216 0.54964495 -0.69212174 -0.25513685 -0.03865944 -0.6632264 -0.25926158 0.4002653 0.6724342 -0.14443043 0.253907 0.020191168 -0.46656114 -1.2516106 0.31912836 0.39117724 -0.099419616 -0.09335467 -0.4021487 -0.17896096 -0.39712638 -0.65512574 -0.4103381 -0.19422384 0.16324124 0.2260785 0.52615833 -0.80125326 -0.19246586 0.45578727 0.42729843 -0.25068632 -0.11315831 -1.2253692 -0.12696575 0.11427342 -0.51026803 0.1380845 0.2799785 0.054118365 -0.75453526 0.71632 0.6796307 0.120550856 -0.28293934 0.037002064 -0.10551522 -0.045397352 -0.45183927 0.15578173 -0.14489344 0.09693624 -0.30735418 0.38715464 0.47850546 0.44006687 -0.0010233336 0.0544174 -0.101920895 0.22687326 0.026042424 0.61886925 -0.6426324 -0.12169812 0.45117292 0.8976221 0.44860682 -0.515846 0.69984585 0.027944935 0.46237183 -0.36413363 0.07849169 -0.69588774 -0.5577474 -0.18593852 0.14409555 0.5840221 -0.20314024 -0.57500386 0.29007283 0.040176593 0.48838174 0.15508665 0.48679888 0.26158437 0.30349854 -0.2509116 0.8637235 0.8008793 -0.15879746 -0.30238047 0.051945724 0.5150471
model -0.37856147 0.7019806 0.0794987 0.30306336 0.001298752 -0.3783733 0.36460364 1.0044228 -0.12055447 -0.51712716 -0.010256411 -0.53794074 -0.26645306 0.36201987 0.27819332 -0.27926725 0.33365372 -0.3556646 -0.23805186 -0.10122141 -0.1978737 0.2387936 0.21609896 -0.2512512 0.05557466 0.12234327 -0.3165252 -0.42022586 -0.2844882 0.16117702 0.77956456 -0.60590583 -0.06475429 -0.61974555 -0.27237085 0.9546861 0.66683275 0.028410358 -0.3643881 -0.8185973 0.5879808 -0.5821778 -0.334301 0.15167645 0.08577715 -0.08289534 -0.49346113 0.39646232 0.32151335 0.04627044 -0.39731115 -0.4582438 -0.0493953 0.03887328 -0.71915805 0.53269684 0.121491596 -0.20911475 -0.4578951 0.036037315 0.5285043 0.19501945 -0.025393602 -0.44964567 -0.036995117 0.6287617 0.4847662 0.5728796 -0.584506 -0.16468243 -0.18263336 0.52486753 0.7344452 0.21124046 0.69636387 0.10218302 -0.16640824 -0.077049226 -0.4353314 -0.06593356 -0.33156148 0.15268688 -0.16116059 0.39397043 -0.30134147 -0.1899885 0.6256441 -0.106711306 0.20884359 0.031971 0.43204063 0.16158547 0.104845814 -0.21366452 0.623874 0.6888777 0.14563568 -0.6555346 -0.3560728 -0.016755927
our 0.05995211 0.9238162 0.17180952 -0.48704734 0.71477556 -1.1303669 -0.5814908 0.5446468 -0.6876349 -0.10900013 -0.24001598 -0.921209 0.1188274 0.67971796 0.68243605 -0.5199659 -0.12947915 0.3373202 -0.715808 -1.4154145 0.32449478 -0.5612868 0.057000622 -0.23356478 -0.5427072 -0.18600535 0.17396064 -0.2972967 -0.4178391 0.10268537 -0.25517267 0.34575865 0.06901461 -0.2673 -0.42574382 0.11783012 -0.045005456 -0.68940365 0.3998663 -0.42339447 -0.17504257 -0.33292076 -0.29243073 0.38908923 0.6599962 -0.06581542 -0.8047924 -0.11593264 0.77745074 -0.013967441 0.3654936 -0.08252368 0.4657387 -0.029588396 -0.5478027 -0.060882967 -0.15222628 -0.069628246 -0.14859119 0.4388882 0.40312144 -0.10213753 -0.121601634 0.040668007 -0.5070379 0.75446486 0.09006173 0.41126925 -1.1098224 0.19304945 -0.19419718 -0.19262475 0.21569435 -0.35956758 0.18026432 1.1917343 0.34748256 0.09837305 0.37965834 -0.37614644 -0.7243046 -0.49488133 -0.4861506 0.78459483 0.41701135 0.2682407 0.031247877 0.29293343 1.1221321 -0.14271817 0.6772634 0.46442258 0.26404747 -0.4215846 0.27470514 0.39930767 -0.25102544 -0.15461299 0.3196127 -0.26868752
generat -0.10792989 0.82515144 -0.017505161 -0.031270333 0.017475702 -0.49087965 0.24362634 0.8957829 -0.21691898 -0.7313003 0.103252575 -0.58202666 -0.17191778 0.27170783 0.23911227 -0.4152734 0.45872647 -0.41724685 -0.33616716 -0.08435302 -0.13593797 0.14893606 0.054184232 -0.16199197 -0.18149136 0.13999738 -0.28686976 -0.42096162 -0.23552275 0.09411766 0.65859824 -0.5287858 -0.048507776 -0.627084 -0.35225958 0.97107095 0.56622356 -0.016111465 -0.3889071 -0.90808713 0.6028041 -0.62831503 -0.28511217 0.2104473 0.12866165 -0.16790706 -0.5119626 0.45377925 0.23785563 0.04236948 -0.37800336 -0.36799815 -0.0020537626 -0.18083145 -0.64069164 0.38963982 0.103727505 -0.10796642 -0.51479614 0.047859736 0.5713059 0.11951707 0.07384669 -0.27140638 -0.050822176 0.8373342 0.32311028 0.43270501 -0.7495612 -0.23336707 -0.14301446 0.4860122 0.809767 0.20216043 0.67892355 0.04728947 -0.12662172 -0.1094123 -0.29724705 -0.022073112 -0.3876855 0.25107124 -0.15200536 0.5123892 -0.12563936 -0.15048464 0.6927697 0.042800434 0.26690653 0.04437462 0.5095257 0.27726945 0.08172781 -0.25767875 0.6023078 0.56957614 -0.057270057 -0.5203608 -0.18030515 0.028995492
method 0.17329171 0.8117302 0.065841675 -0.33875486 0.5068177 -0.92006665 -0.3840362 0.444849 -0.7373778 -0.3342916 -0.13763766 -0.8562559 0.01565118 0.61240405 0.6883574 -0.4548353 0.11622029 0.09660995 -0.5418406 -1.2487069 0.3289244 -0.37796944 0.008547883 -0.16787617 -0.604938 -0.20442404 -0.05452728 -0.13477047 -0.35167253 0.0752661 -0.09284729 0.36620405 0.22474918 -0.5285815 -0.2905544 0.12970582 0.095568016 -0.71000254 0.19791763 -0.5729168 -0.096634716 -0.4478825 -0.408311 0.32727557 0.5609047 -0.1405055 -0.7024916 0.055003222 0.666698 -0.031280622 0.1712762 -0.04126529 0.54811645 -0.054646365 -0.51140875 -0.058198523 -0.18850578 -0.021279562 -0.14594615 0.3660404 0.44403812 -0.035409115 -0.10318172 0.16471574 -0.5107168 0.80375683 0.21872884 0.4562705 -1.0991279 0.18221565 -0.1075621 0.09566431 0.42725128 -0.41947612 0.30577672 0.89751494 0.21327017 -0.049551155 0.41904134 -0.33828527 -0.7420981 -0.3380826 -0.22366491 0.7990499 0.3623111 0.08766721 0.2136132 0.2961126 0.89718723 -0.046823867 0.7752178 0.3774639 0.29134318 -0.39798006 0.47987992 0.47470957 -0.28018776 -0.14487137 0.32900047 0.043867715
imag -0.087458484 0.60838616 0.03856164 -0.02189204 -0.10751433 -0.3933049 0.31235173 0.8658963 -0.17827666 -0.7796722 0.17439896 -0.60569245 -0.17482908 0.25705066 0.12724341 -0.40875927 0.41658366 -0.619154 -0.25358835 -0.008163696 -0.1643328 0.14781788 0.049730044 -0.11882132 -0.023241198 0.1333998 -0.30537087 -0.39957586 -0.23157904 0.19166619 0.725337 -0.49020648 -0.08338313 -0.5930457 -0.32977286 0.97856075 0.44683388 -0.03889926 -0.4206503 -0.9039493 0.60510343 -0.73066676 -0.25578532 0.1384511 0.06721939 -0.22708403 -0.41222453 0.37334296 0.18639942 0.13762166 -0.37499073 -0.50009847 -0.062370423 -0.14685734 -0.6477404 0.40135983 0.1468364 -0.19731008 -0.5909969 -0.045228206 0.4829578 0.089124 0.11556719 -0.24691303 -0.18131378 0.80318886 0.34059986 0.34217203 -0.69844407 -0.09842608 -0.1686103 0.4488468 0.82043827 0.21149023 0.5921383 0.06891953 -0.19716634 -0.15422243 -0.3607407 0.17254026 -0.16430156 0.27146566 -0.101614974 0.4970702 -0.13000506 -0.12471062 0.60652196 0.13490976 0.13931793 0.10772979 0.50283337 0.29139534 -0.026891235 -0.22964744 0.54045385 0.50816137 -0.03694513 -0.61945593 -0.09607507 0.055133577
from -0.07680073 0.29426643 0.01378383 0.1042568 -0.15800801 -0.45256546 0.36780632 0.7738776 -0.13229248 -0.536183 0.15512979 -0.5489278 -0.18148428 0.19803415 0.075859606 -0.23001243 0.24577324 -0.7430504 -0.014121832 -0.2974306 0.123851225 0.20921223 0.021398148 -0.16153768 0.08016683 0.11764463 -0.34878275 -0.42888612 -0.14410074 0.15989973 0.68682116 -0.2203247 0.006494935 -0.35173815 -0.24566601 0.72369695 0.0651766 -0.1460375 -0.47151133 -0.79645455 0.39139867 -0.46056572 -0.093492046 0.0027925875 0.23328659 -0.076203875 -0.25542775 0.14151275 0.16678853 0.29285967 -0.21427569 -0.40654448 -0.23921932 -0.068592265 -0.45730555 0.32794398 0.1662884 -0.13108075 -0.5469026 -0.0065526864 0.12306251 0.14990845 0.02176524 -0.11732705 -0.48386106 0.44554442 0.19114481 0.3082865 -0.41117358 0.28688458 -0.10208791 0.3363618 0.53169125 -0.027862541 0.58352387 -0.054824527 -0.049497735 -0.36374307 -0.5732402 0.25805384 0.059912555 0.15252624 -0.2407734 0.5818289 -0.16232127 -0.102214664 0.34498033 0.2868835 0.08521048 0.17019744 0.3117256 0.076474 -0.23173133 -0.005826244 0.5002317 0.42477483 0.27435192 -0.5838445 0.10084139 0.10738874
base -0.107609965 0.29014844 0.05347405 0.35893145 -0.22679684 -0.33714503 0.30643058 0.54720855 -0.29846847 -0.4941713 0.110936895 -0.5101643 -0.05496996 0.2976244 0.55808467 -0.061340388 0.37028894 -0.5108099 -0.16859482 -0.5922438 0.20436908 0.2756059 -0.119625285 -0.2291256 -0.05320393 -0.027090065 -0.37390321 -0.27546716 -0.12985137 0.2448365 0.64228886 -0.13462079 0.038835254 -0.60213745 -0.28047162 0.40767696 0.33159283 -0.22169007 -0.4228901 -0.7755688 0.3017966 -0.43179715 -0.19273119 -0.12169264 0.30747792 -0.113556966 -0.22585887 0.2272259 0.4235516 0.27380344 -0.28523728 -0.26030567 -0.22890903 -0.10858697 -0.7178292 0.45301536 -0.06687803 -0.047197856 -0.36251032 0.25176296 0.19308443 0.40565786 0.11206466 0.23342286 -0.43033603 0.39849156 0.26805416 0.4321633 -0.43492028 0.1897418 0.14885926 0.4274098 0.46922174 -0.3732732 0.59705734 -0.062260687 0.08305083 -0.3296316 -0.26093447 0.059952356 -0.04095883 -0.22653352 -0.065064244 0.7689659 -0.2725787 -0.31879127 0.16771893 0.25868377 0.17006953 0.05138436 0.2573408 -0.022029562 0.07372302 -0.10322677 0.49473953 0.6103142 0.39752585 -0.55853665 0.25334972 0.26207033
use -0.25074828 0.30523768 0.1276444 0.25551483 -0.08258823 -0.5452686 0.24323677 0.65957713 -0.14135703 -0.1666265 -0.040149994 -0.477941 -0.16965227 0.15941684 0.29817346 -0.1314006 -0.0155012 -0.38403714 -0.012684937 -0.5998609 0.14061502 0.20201351 0.011625954 -0.20509267 -0.014492854 0.13749845 -0.26852202 -0.36976883 -0.23997962 0.045609884 0.4787724 -0.049970835 0.012479719 -0.15284479 -0.16619411 0.50243706 0.08899716 -0.19414647 -0.21854046 -0.6788726 0.14819986 -0.24457358 -0.1584259 0.065700196 0.38865548 -0.012765535 -0.25619292 0.067731634 0.30665255 0.19137499 -0.09095696 -0.24544917 -0.082075134 0.061445333 -0.37017524 0.40089658 0.10795529 -0.11007167 -0.38517302 0.14825417 0.045881905 0.24430662 -0.1380153 -0.059176378 -0.5328406 0.20594339 0.10570783 0.4286077 -0.33661094 0.37385228 -0.07730489 0.25277182 0.3051281 -0.22298798 0.47530386 0.17736529 0.036064874 -0.35485297 -0.3831175 -0.0019406496 -0.0063381474 -0.058296908 -0.32685387 0.5796346 -0.24341649 -0.017906176 0.095251426 0.24143559 0.21543123 0.051059324 0.26551947 -0.1333153 -0.052961756 -0.010182859 0.47067136 0.45932156 0.30403784 -0.46339214 0.06746854 0.017016232
render 0.33996487 0.34190303 -0.02638654 -0.28053513 -0.15097186 -0.6376961 -0.0035942257 0.13080673 -0.6148142 -0.6630181 0.05773991 -0.95387775 0.099396326 0.20476182 0.61085206 -0.11856046 0.60792536 -0.28043672 -0.083198875 -0.825121 0.4975694 0.04811041 -0.3173687 -0.21873729 -0.32751894 -0.025062088 -0.3633458 -0.119302005 -0.14418425 -0.097784825 0.55250525 0.45724663 0.24082515 -0.36988625 -0.47002855 0.33955196 0.049875997 -0.4260657 -0.39723122 -0.65576553 0.24480486 -0.5325411 -0.22761938 0.0958617 0.2964262 -0.11037241 -0.05642304 0.108200975 0.18733688 0.32977518 0.026198959 -0.14723691 0.18654859 -0.33420917 -0.56741935 0.22645138 -0.05548654 0.16345067 -0.4560847 0.3347402 0.22450577 0.2536436 0.033026427 0.6917449 -0.50622565 0.9084889 0.054864556 0.10189521 -0.6718487 0.2817626 0.1104339 0.2702216 0.71054804 -0.6745104 0.41829482 0.044613376 0.18069148 -0.48828232 0.13415314 0.3193233 -0.22057381 -0.28689528 -0.34610966 1.0000014 0.051633883 -0.046270933 0.32273617 0.3408133 0.49651584 0.10626975 0.48552603 0.22236718 0.20989892 -0.12990783 0.515585 0.49043527 0.06740658 -0.19286655 0.6420533 0.2930932
can -0.018551763 0.42964536 0.14353015 -0.10876114 0.15980402 -0.7974011 0.060638793 0.6428744 -0.24266817 -0.25203443 -0.08990009 -0.6463877 -0.10360892 0.22213742 0.16794702 -0.27089813 -0.048646696 -0.31193373 -0.12052311 -0.6959459 0.19655482 -0.044537578 0.03718923 -0.25468314 -0.13993458 0.057225604 -0.14050654 -0.26912993 -0.26931685 0.03785424 0.3149781 0.05113317 0.03992667 -0.0703964 -0.25016323 0.42358342 -0.022846887 -0.3625322 -0.094273254 -0.49983832 0.1315714 -0.3525681 -0.13972645 0.21811251 0.43090907 -0.056639437 -0.37077582 -0.048308235 0.30210143 0.20599478 0.0807038 -0.20518407 0.13842687 -0.012474551 -0.3333736 0.25284496 0.090836234 -0.07795888 -0.34977257 0.20218216 0.103646986 0.022313427 -0.1597146 -0.088240184 -0.55907595 0.45175257 0.04648302 0.30564958 -0.49079192 0.3117877 -0.21553531 0.052847132 0.29259294 -0.15363249 0.37118274 0.4500612 0.08432635 -0.23434767 -0.21439914 0.07806648 -0.16368924 -0.001149826 -0.4795449 0.6046989 -0.022235448 0.21811154 0.17271574 0.27657232 0.4590246 -0.00042271058 0.43252376 0.06112887 -0.08749916 -0.07182429 0.37830526 0.3435417 0.12388233 -0.3882906 0.18229108 -0.15925339
approach 0.06104185 0.7446423 0.041008532 -0.20482562 0.35658082 -0.7988517 -0.27397588 0.4595208 -0.6453887 -0.2839136 -0.13413039 -0.75383383 -0.011576052 0.4894526 0.6794459 -0.3464889 0.11300972 0.07429322 -0.45782465 -1.1571078 0.27911603 -0.23605388 -0.015864797 -0.18555973 -0.53188974 -0.13333015 -0.11834233 -0.23865585 -0.30170828 0.005364865 -0.0065418924 0.30320022 0.23435543 -0.46416056 -0.27380553 0.21988161 0.1352034 -0.5593487 0.12211269 -0.60853076 -0.0788413 -0.28086415 -0.36722845 0.2948355 0.46169895 -0.08157566 -0.5981958 0.11932554 0.5834433 0.0037020012 0.10747114 -0.067835025 0.4043456 -0.010620619 -0.4661424 0.037119236 -0.15104146 0.01840968 -0.16179176 0.33877248 0.40439448 0.06545912 -0.12564388 0.15289676 -0.42012915 0.65415573 0.15868556 0.4651903 -0.92860436 0.14791904 -0.035367228 0.2005124 0.40156317 -0.39891997 0.36285448 0.71345586 0.20219442 -0.11318236 0.28691995 -0.32303175 -0.64647794 -0.27450135 -0.23955579 0.69562274 0.23755793 0.026802951 0.17270768 0.22349101 0.7717816 -0.017415384 0.6506922 0.30394745 0.25468004 -0.3130622 0.47356644 0.4722803 -0.19796334 -0.16255845 0.23279153 0.08003165
scene 0.04395562 0.30010256 -0.037229143 -0.07832805 -0.26453158 -0.46820495 0.20395802 0.48945948 -0.32975462 -0.6662972 0.08134184 -0.7333916 -0.04309632 0.09057335 0.37776744 -0.20434651 0.54470724 -0.44271603 0.024313657 -0.4388158 0.22595865 0.23132467 -0.20855804 -0.17819639 -0.1358084 0.17831473 -0.419548 -0.30747885 -0.1625249 -0.07379966 0.8021452 0.087274835 0.1230733 -0.33115408 -0.37203178 0.66858524 0.17105995 -0.16892384 -0.49319434 -0.8273606 0.44843948 -0.42842436 -0.28930146 0.068823494 0.09111935 -0.08519869 -0.0673354 0.26974365 0.027774801 0.30118456 -0.21656063 -0.31304827 -0.003133573 -0.2575955 -0.5480424 0.40837532 0.041777775 0.06575193 -0.5552311 0.15723923 0.28689623 0.23529798 -0.014124719 0.27371246 -0.39992923 0.7306236 0.13728975 0.20653094 -0.51671237 0.23257071 0.12117281 0.4999319 0.77920204 -0.3173818 0.5334419 -0.13698404 0.01718532 -0.52981377 -0.25204813 0.2887323 -0.17152254 0.074532166 -0.32404205 0.7456075 -0.22934821 -0.007197038 0.44707125 0.16272561 0.14086469 0.15699704 0.46871245 0.06080107 0.04127399 -0.13817917 0.4939673 0.51442635 0.21308689 -0.40469438 0.25584954 0.24357753
propos -0.33140504 0.7702126 -0.22471918 0.2102698 -0.07448808 -0.45839843 -0.011750919 0.53199947 -0.5210094 -0.33102918 -0.20153078 -0.6723129 -0.10953909 0.2679052 0.84800994 -0.007092184 0.28505915 0.010916018 -0.41969523 -1.2038723 0.28061262 0.13636059 -0.087827295 -0.093984716 -0.43144658 -0.02777677 -0.34079435 -0.8256438 -0.2847795 -0.06297983 0.27859706 0.21166693 0.5012882 -0.7190888 -0.15343098 0.5518104 0.15768476 -0.15240654 -0.21299176 -0.89950854 0.03922174 0.021281956 -0.28646347 0.08666415 0.39732936 -0.04621618 -0.5988343 0.47532624 0.6465862 -0.004049522 -0.09686558 -0.13206223 -0.21297367 0.035454717 -0.6186148 0.23351157 -0.22724497 0.09582697 -0.13229162 0.3311851 0.41938105 0.43766028 -0.062339876 0.20613045 -0.056619696 0.25890774 0.13631777 0.63413095 -0.64345264 -0.055574946 0.28670785 0.6697436 0.417599 -0.33180088 0.7736773 0.10746166 0.42205113 -0.3465487 0.07457401 -0.3502878 -0.55410933 -0.31860855 -0.004786743 0.5512253 -0.13278769 -0.5312528 0.18858632 0.1095587 0.54640347 0.008915234 0.46268025 0.29767856 0.34878832 -0.08028762 0.62609816 0.61832106 0.12204023 -0.29944226 0.08718558 0.50968385
high 0.55341715 0.66289115 0.023667218 -0.6251426 0.09047477 -0.78393275 0.022696989 0.3808296 -0.43439275 -1.0221063 0.2823695 -1.0302008 0.06718034 0.19240458 0.26201898 -0.33241394 0.71391124 -0.41945705 -0.19729775 -0.3497102 0.33344862 -0.024046816 -0.27178156 -0.23305114 -0.42885032 0.009332137 -0.17491357 -0.100182295 -0.0626462 -0.03799786 0.5374821 0.08693734 0.11375579 -0.38807604 -0.45129982 0.4193425 0.2200174 -0.31079665 -0.35248187 -0.56730956 0.5228211 -0.91024965 -0.0781956 0.23161602 0.281284 -0.060197167 -0.24648917 0.23091263 0.030803675 0.2715627 -0.011076076 -0.17232566 0.34532118 -0.5160722 -0.59773207 0.20457034 0.12640457 0.14836302 -0.5449853 0.24794811 0.29994562 -0.020366365 0.12174452 0.48453572 -0.38650912 1.2623777 0.10865247 -0.026313577 -0.8499935 0.02259011 -0.22344477 0.0005503959 0.9212548 -0.22991113 0.32565674 0.14720607 0.062191784 -0.26693502 0.18860923 0.46897987 -0.30244783 0.024199665 -0.2537175 0.8118363 0.25353843 0.19775723 0.5632799 0.2536221 0.534382 0.07919567 0.73573506 0.29828748 0.092738025 -0.16841292 0.37640873 0.3100573 -0.12212177 -0.30534074 0.5102864 0.14853975
train -0.3387534 0.6203285 0.13554178 0.2060561 -0.0017397985 -0.45699146 0.100209326 0.77164006 -0.22097127 -0.16267961 -0.15088563 -0.52303976 -0.19097781 0.34992787 0.27688536 -0.23342969 0.10532252 -0.18211403 -0.21804805 -0.41324505 -0.071333945 0.16340467 0.16007599 -0.2159656 -0.105558895 0.07332335 -0.2823369 -0.39937294 -0.27334428 0.034024708 0.3564763 -0.29530942 0.0429235 -0.4155276 -0.3289005 0.7406296 0.35749486 -0.17927562 -0.3362024 -0.6805356 0.3034813 -0.3623928 -0.27255666 0.20892523 0.23698151 -0.077645145 -0.49723437 0.09481115 0.35607404 -0.021767648 -0.24343142 -0.31179523 0.01737317 0.15046553 -0.47100753 0.292526 0.12568273 -0.15354332 -0.284406 0.08588383 0.43829823 0.11095277 -0.076674946 -0.28977826 -0.10291475 0.43934512 0.3205439 0.55635405 -0.5931555 0.036719088 -0.22876039 0.41600996 0.4584816 -0.071624294 0.63571227 0.30351427 0.018003417 -0.11356615 -0.34474778 -0.1967334 -0.31355846 -0.051146656 -0.25186747 0.47366214 -0.19260506 -0.12770106 0.3808982 0.046623163 0.3764388 0.10193789 0.30385888 0.21232079 0.05137951 -0.15594181 0.59560627 0.63070965 0.1193537 -0.3295947 -0.15611213 -0.002778703
data -0.18323149 0.33869708 0.14540142 0.061927956 0.13780741 -0.7140454 0.11257737 0.7980374 -0.07072823 0.01795935 -0.17427404 -0.50238436 -0.3094144 0.10313095 0.07884582 -0.15770447 -0.259566 -0.21677485 0.041935656 -0.68506473 0.1052299 0.08976873 0.17105624 -0.09863726 -0.052471902 0.21805541 -0.1770888 -0.41827175 -0.30506623 -0.056411743 0.2440638 0.008313154 0.055959206 -0.02139059 -0.17569624 0.52959937 -0.09526617 -0.23610274 -0.043323003 -0.5076459 0.017573532 -0.09039945 -0.18618639 0.2615448 0.47776088 0.025311192 -0.35863277 -0.12554611 0.3192174 0.20967203 0.069406465 -0.24877037 0.06920439 0.14078136 -0.02067997 0.21121511 0.18906048 -0.19195288 -0.30964887 0.10496575 0.03455985 0.057013355 -0.2986733 -0.24890423 -0.55328774 0.23063153 -0.024458569 0.4014383 -0.31137455 0.43153596 -0.24148917 0.13180894 0.19221343 -0.12896013 0.35231984 0.40283802 0.08116001 -0.30883786 -0.39182985 -0.14327642 -0.12857999 0.042982034 -0.5499825 0.38783476 -0.06057034 0.2114353 0.10147311 0.20234424 0.3396674 0.014896218 0.33253884 -0.053896375 -0.092526786 0.04656147 0.47314128 0.3099197 0.12784214 -0.2999872 -0.102241136 -0.22501482
qualiti 0.6040268 0.83139074 0.0656499 -0.8276503 0.4121741 -0.9457654 -0.27195832 0.23857337 -0.7092124 -0.93621075 -0.0058509773 -1.1633965 0.27095485 0.42803603 0.58713627 -0.6194361 0.61069983 -0.07306893 -0.46761754 -0.7231999 0.40773714 -0.47939318 -0.3180232 -0.273423 -0.61286384 -0.11795811 -0.10518883 -0.07243476 -0.2284582 -0.018662296 0.36496386 0.40368795 0.015623055 -0.388425 -0.41647312 0.45391148 0.034926787 -0.45886052 -0.112732634 -0.6388653 0.39199013 -1.0012631 -0.2436836 0.43535277 0.28388545 -0.21392219 -0.38467035 0.16800278 0.17661542 0.13241446 0.27507627 -0.115264975 0.6619985 -0.476928 -0.5633886 0.17595264 -0.021267943 0.18673772 -0.39587703 0.39769387 0.49869913 -0.07473764 -0.09753064 0.48014447 -0.3634069 1.414219 0.13363954 0.062027857 -1.1201597 -0.021655384 -0.16345079 -0.054362744 0.9095347 -0.2513936 0.30594334 0.6059616 0.16987865 -0.19399112 0.5537041 0.37336808 -0.6309721 -0.09753105 -0.29006016 0.9288646 0.48018682 0.3334718 0.61534435 0.25551137 0.928157 0.039596256 1.0338004 0.50599074 0.29470226 -0.42513758 0.41284913 0.4960363 -0.3650241 -0.24894546 0.6254475 -0.05418378
represent 0.00027765863 0.06985185 0.020885663 0.28673816 -0.32963416 -0.31426576 0.26823008 0.3855813 -0.29540113 -0.60312 0.19765179 -0.53796667 -0.010987422 0.31934658 0.63086575 0.06557163 0.44789615 -0.6986746 -0.016396971 -0.6142731 0.36108217 0.27371225 -0.26385045 -0.28933442 -0.004860401 -0.045579173 -0.4148917 -0.19924992 0.025306767 0.25548652 0.71855366 0.06920178 0.071727924 -0.5471123 -0.26562342 0.21395674 0.17518084 -0.3214518 -0.4847795 -0.7712634 0.19331443 -0.43721682 -0.10169203 -0.3067701 0.31272477 -0.07164502 -0.031344663 0.16928786 0.38070637 0.3524891 -0.19956596 -0.24192919 -0.31207722 -0.097716 -0.647662 0.47953072 -0.09293306 -0.0044727735 -0.33786848 0.2512956 0.0023403722 0.48856953 0.18225157 0.4899634 -0.6225851 0.36586025 0.29553568 0.33141458 -0.34370404 0.41384742 0.28563085 0.37789425 0.46510407 -0.5646288 0.59788316 -0.16476762 0.071138136 -0.44200748 -0.29414508 0.2702247 0.13880818 -0.33238164 0.013366007 0.9408929 -0.22829111 -0.33258656 0.044561416 0.38338172 0.13286117 0.13817386 0.246727 -0.057795715 -0.00049020874 -0.014580916 0.47441244 0.63132614 0.5532518 -0.51034814 0.51512814 0.42577195
view 0.115802616 0.7485896 -0.15261133 -0.14501412 -0.38795665 -0.19654153 0.23435715 0.57036895 -0.54607224 -1.2134578 0.33176205 -0.937177 0.1509167 0.47641203 0.7379854 -0.3880694 1.1108359 -0.68418175 -0.5030192 -0.34476194 0.070877366 0.18672056 -0.25729194 -0.070295535 -0.4287131 0.099459045 -0.5481916 -0.65426856 -0.08999063 0.17353375 0.80986506 -0.19435185 0.28373834 -1.0364287 -0.5115347 1.1694597 0.40069935 -0.0828697 -0.72427654 -1.29725 0.68509597 -0.7428119 -0.4013573 0.20890786 -0.13886087 -0.22403851 -0.39880708 0.513501 0.15203044 0.093287885 -0.6238123 -0.52028686 -0.13011833 -0.35164282 -0.8347713 0.39979848 0.017715748 0.025124798 -0.5512107 0.12459561 0.74545366 0.08873056 0.25242397 0.33406964 -0.08703831 1.2798513 0.39579675 0.29186758 -1.0965921 -0.18621306 0.23216797 0.775397 1.2582413 -0.14850175 0.69274235 -0.17137577 -0.022768758 -0.3872582 -0.07022744 0.17876972 -0.5331822 0.05586129 0.25808093 0.6956317 0.026525762 -0.44414157 0.8184437 0.12507251 0.22955944 0.21216486 0.7967246 0.49435368 0.1465751 -0.26505536 0.622007 0.6562864 -0.1700526 -0.4181394 0.22326608 0.6765918
motion -0.108148955 0.5291166 -0.0012115504 0.02925021 0.15684688 -0.67014956 0.3298539 1.0495503 0.01895592 -0.36138636 -0.029455224 -0.4727006 -0.34585476 0.034913544 -0.23267265 -0.36445242 -0.05358066 -0.49041528 -0.044392165 -0.19325641 -0.0043648193 0.14616208 0.19015127 -0.17616193 0.019980604 0.13392286 -0.27100503 -0.4236184 -0.30714726 0.0082286205 0.5529425 -0.47201443 0.024056148 -0.17314166 -0.26533324 0.80920696 0.072189115 -0.03935187 -0.2851223 -0.5540268 0.47092634 -0.38762608 -0.15202385 0.2778978 0.2730207 -0.05643695 -0.4220829 0.09615982 0.16403337 0.2672502 -0.12776145 -0.40103525 -0.048172392 -0.032962594 -0.25302616 0.32328665 0.2788354 -0.1860609 -0.43468598 -0.041529648 0.18196847 0.0025070165 -0.12967858 -0.5957727 -0.40102193 0.5326274 0.103539884 0.35346892 -0.3908959 0.124136075 -0.39090815 0.23707794 0.49098614 0.23566875 0.595027 0.12998165 -0.0383971 -0.25268108 -0.6944288 0.05796067 -0.17555785 0.39911377 -0.5515487 0.34770343 -0.12990977 0.18788643 0.47407523 0.06843608 0.16253366 0.059732296 0.31267023 0.062948555 -0.24742684 0.046063777 0.5585259 0.2547972 0.09824722 -0.5131703 -0.24512611 -0.28444597
learn -0.24127276 0.35720715 0.086887725 0.37177014 -0.14109081 -0.436304 0.24555688 0.69139344 -0.19410576 -0.31095514 0.025356933 -0.44809052 -0.17526954 0.27107406 0.3830246 -0.12175554 0.12889354 -0.53551584 -0.10849314 -0.58595985 0.1175013 0.2447695 -0.008807713 -0.22149132 -0.015234689 0.06266663 -0.35076597 -0.37994093 -0.17483069 0.16240256 0.54193294 -0.16940601 0.048097692 -0.4542421 -0.21466973 0.46544367 0.19981557 -0.24296086 -0.3338735 -0.77439314 0.19303158 -0.29196244 -0.16132472 -0.0773359 0.33913225 -0.088613644 -0.32304254 0.16469854 0.4164472 0.23289715 -0.17594574 -0.23374932 -0.25254768 0.04071845 -0.53008187 0.37878224 0.020680094 -0.09177392 -0.36038354 0.14940557 0.12781557 0.34992608 -0.029692762 -0.00823587 -0.46151957 0.26210058 0.24632002 0.47978938 -0.388143 0.2875718 0.06394964 0.4249453 0.34396136 -0.26323488 0.62207514 0.03716845 0.07542899 -0.31173596 -0.37773803 0.0009685592 -0.049369402 -0.10941174 -0.1441805 0.62395257 -0.26419696 -0.2214259 0.13760175 0.21020007 0.19575588 0.10922183 0.28065637 -0.057108503 -0.042117264 -0.039627295 0.51132846 0.54957277 0.3351261 -0.48224932 0.06259404 0.15263183
which -0.17250594 0.28504494 0.09230971 0.29787034 -0.123562396 -0.5091754 0.33035976 0.67387235 -0.12898684 -0.3273233 -0.010233765 -0.53688323 -0.20036161 0.19465049 0.1681586 -0.113148905 0.025007732 -0.5689203 -0.0014770216 -0.5188671 0.18862563 0.2719585 -0.067312635 -0.23548765 0.07450246 0.009942291 -0.33313137 -0.37559566 -0.21114545 0.05431476 0.5886075 -0.07202982 0.059205722 -0.24777523 -0.18115403 0.5301569 0.1234468 -0.25227207 -0.38722733 -0.7184275 0.24610801 -0.35237077 -0.09457369 -0.03115959 0.34283397 -0.04898988 -0.26659396 0.16981867 0.28893438 0.30839002 -0.0742289 -0.25637305 -0.2328645 0.0030645668 -0.48373926 0.4656538 0.10712417 -0.08529608 -0.43679178 0.13697168 0.059972957 0.29884642 -0.08904201 -0.043420754 -0.519805 0.22414704 0.1423598 0.3625294 -0.2999548 0.32041812 -0.08097471 0.33829767 0.3440289 -0.22324267 0.57106334 0.02092451 0.08344423 -0.3772362 -0.44784167 0.1599889 0.09560436 0.0115178 -0.2725252 0.6399465 -0.2757031 -0.06450662 0.18043254 0.25011826 0.20412922 0.089807294 0.24588731 -0.052950896 -0.14555705 0.045848753 0.5281725 0.5010346 0.29283053 -0.61686 0.2025782 0.09804412
neural -0.14545265 -0.3351908 0.23782544 0.46392524 -0.64749825 -0.16375609 0.19920409 0.2778045 -0.25385487 -0.7437751 0.26915357 -0.39298698 0.057592805 0.54936683 1.1706989 0.3711253 0.7206904 -1.0690932 0.07237417 -0.67141324 0.46638125 0.5033124 -0.22620414 -0.4779227 0.036143947 0.17084631 -0.46561602 0.031261366 0.19538085 0.6558672 0.9359518 0.07180508 -0.06725593 -0.9059839 -0.33784044 -0.09548878 0.24617901 -0.41314632 -0.87776566 -0.8422665 0.10774361 -0.499327 -0.07425845 -0.7798604 0.5036829 -0.3153727 0.20574047 0.031726826 0.5535093 0.42240393 -0.3852748 -0.28073156 -0.45450336 0.013682107 -0.71614015 0.5484728 -0.10868187 0.01732775 -0.36299857 0.2089428 -0.22110432 0.632674 0.4440737 0.8290751 -0.89118373 0.4310799 0.6070118 0.3831215 -0.31904635 0.81713384 0.50151294 0.55903023 0.38502485 -1.0286051 0.78854895 -0.32891658 0.1294496 -0.6022773 -0.31667948 0.29053158 0.323424 -0.62921125 0.25461048 1.279445 -0.29471236 -0.59906965 -0.30858928 0.6769848 -0.059803076 0.41514102 0.16125073 -0.26718694 0.04805847 -0.14001434 0.619724 1.0627903 1.2261399 -0.41726393 0.73459965 0.7148025
visual -0.116132155 0.42841008 0.15416873 -0.06677015 0.15119714 -0.9008145 0.05659846 0.70790434 -0.17602555 -0.07845472 -0.19082302 -0.5896598 -0.24379231 0.04237778 0.13620447 -0.17896661 -0.27139723 -0.15393184 0.0037057358 -0.8314239 0.21327397 0.030843759 -0.009086978 -0.18479086 -0.18755381 0.122102395 -0.08562476 -0.3791891 -0.31244943 -0.17993456 0.27435216 0.23001659 0.10963876 0.15678115 -0.14217104 0.37737975 -0.08672666 -0.3782168 0.07130243 -0.5230752 -0.0030376688 -0.12571335 -0.13097589 0.2701931 0.5928699 0.087536745 -0.35017306 -0.032057572 0.3172657 0.20561889 0.2189071 -0.10798615 0.18391593 0.041577734 -0.095807396 0.28122026 0.17691901 -0.0665146 -0.34006128 0.22969055 0.01829238 0.13074058 -0.35966286 -0.12859873 -0.67868656 0.24463403 -0.13803259 0.32306397 -0.3862405 0.47979885 -0.29274112 0.016136225 0.19969125 -0.24982646 0.38423115 0.4794598 0.1472722 -0.36072257 -0.22429462 -0.062466864 -0.13417566 0.019051043 -0.63050205 0.5871222 0.010385554 0.31707078 0.02887108 0.2818789 0.5148051 -0.033965107 0.38542938 -0.13162658 -0.076604135 0.033382993 0.45185524 0.2926563 0.09152229 -0.3983019 0.143836 -0.20810682
diffus -0.2861639 0.78357047 -0.048101258 0.38531524 -0.27227202 -0.10263128 0.42907235 0.9487327 -0.1094834 -0.6702229 0.1321992 -0.38845888 -0.18716055 0.3042907 0.2532759 -0.3091932 0.5800926 -0.48194763 -0.3190697 0.1077977 -0.33012202 0.39249802 0.035753667 -0.1883007 -0.013129416 0.107418954 -0.50488156 -0.5344701 -0.24135111 0.17486966 0.89763796 -0.79799026 -0.073671795 -0.8882634 -0.37875667 1.2126709 0.8782027 0.10122146 -0.59516263 -1.2083722 0.7082686 -0.683957 -0.31498685 0.079606056 -0.07566097 -0.24690825 -0.51649576 0.58168876 0.2341472 0.019467684 -0.67791754 -0.4884302 -0.28805402 -0.08529429 -0.8446642 0.5899904 0.048465773 -0.1980836 -0.56893116 -0.004245554 0.70987684 0.27447584 0.10395656 -0.31954306 0.16125803 0.72002333 0.5446824 0.5240421 -0.69656825 -0.40462282 -0.06607431 0.7582319 0.8597601 0.21240017 0.8674981 -0.20580365 -0.20305908 -0.10833542 -0.52476865 -0.03298248 -0.20655729 0.2626851 0.04661805 0.5183525 -0.49919474 -0.4313762 0.79827386 -0.049580544 0.0046449727 0.08634525 0.34713557 0.20925666 0.16769417 -0.24310479 0.66039544 0.74763864 0.009926413 -0.67943275 -0.40411025 0.173781
object -0.07259069 0.26036566 0.04059316 0.04811453 -0.052614354 -0.6138971 0.27206537 0.67462987 -0.15628244 -0.3491862 0.019076938 -0.5368496 -0.15631998 0.057897784 0.055364672 -0.2274661 0.099306375 -0.51594704 0.072345406 -0.4624763 0.20334081 0.1581498 -0.013126014 -0.21702959 0.004956526 0.116771705 -0.2806906 -0.29888386 -0.21935028 0.009760908 0.6131384 0.0023008874 0.05151283 -0.069467455 -0.21677077 0.5940697 -0.06444218 -0.21137147 -0.31002328 -0.66824806 0.3015177 -0.33770928 -0.15814887 0.11216046 0.29687473 -0.018589174 -0.17706273 0.072612345 0.1433859 0.294605 -0.053853225 -0.2864365 -0.052263025 -0.0626604 -0.36062017 0.37065277 0.14557391 -0.017633302 -0.5235653 0.07152578 0.07798933 0.13706014 -0.14963382 -0.101014584 -0.56022894 0.4050161 0.05317572 0.23496342 -0.34148195 0.38943982 -0.13292566 0.2323978 0.45692715 -0.13778965 0.46854365 0.059295934 0.026702238 -0.43728092 -0.4207913 0.2022973 -0.01416643 0.18473184 -0.42902502 0.5802981 -0.18447794 0.13357872 0.22964706 0.23637502 0.1637984 0.09825743 0.33732313 -0.074990466 -0.185337 -0.038287718 0.4116656 0.3313689 0.22231463 -0.49314275 0.14220692 -0.00455288
novel -0.06579971 0.8592882 -0.30882826 0.2715452 -0.29150137 -0.26122516 0.14376076 0.42022914 -0.8380237 -0.7264737 0.12472494 -0.93203133 -0.10182319 0.41704386 0.9550678 -0.1657523 0.8784229 -0.20831375 -0.52423185 -0.9886108 0.27231833 0.41329575 -0.2735639 0.04430832 -0.5362194 -0.045622252 -0.6655649 -0.7616868 -0.26661274 -0.137538 0.48960713 0.15757671 0.5310188 -1.147944 -0.31620324 0.7563933 0.5174648 -0.095672764 -0.3933447 -1.3882556 0.16390121 -0.18431342 -0.56574255 0.05071621 0.04988041 -0.081308335 -0.6714211 0.86375535 0.5403175 0.13361198 -0.48514056 -0.15975074 -0.14108972 -0.26780567 -0.6841917 0.20648588 -0.20233153 0.16404709 -0.41589782 0.38359687 0.66241527 0.4418634 0.187378 0.47512266 0.039468415 0.6705034 0.13978691 0.54038364 -0.8262058 -0.24150647 0.6462573 1.0510838 0.9278751 -0.51777756 0.8068843 -0.2871063 0.30595595 -0.51813257 0.1942879 -0.4064891 -0.697896 -0.23185602 0.33287758 0.65016 -0.15465389 -0.8089951 0.5057121 0.044469237 0.46034038 0.25141254 0.67802346 0.4626717 0.48338142 -0.32501104 0.8472993 0.8629689 -0.11567663 -0.26269788 0.10627062 0.76597744
gaussian 0.4272356 0.15368414 -0.46361703 0.26482117 -0.5453191 -0.21641162 0.5306507 0.14733471 -0.53739893 -0.9055162 0.2504446 -0.9047464 0.20295982 0.41341028 0.5452618 0.20930074 1.1231639 -0.8046676 -0.12623942 -0.74927545 0.72628856 0.34702688 -0.33221287 -0.17625105 -0.036781188 -0.27318978 -0.5854236 -0.28736138 0.15541382 0.31037673 1.1338029 0.27194285 0.35935438 -1.0708134 -0.6791924 0.39034116 0.57456166 -0.4411459 -0.75854766 -0.87439656 0.26673895 -0.29019848 -0.026348218 -0.52023274 0.28729808 -0.051605836 -0.05039731 0.31105 0.39080927 0.6793797 -0.43381828 -0.25700778 -0.46335807 -0.46342343 -0.9948815 0.44555897 -0.32569376 0.026690414 -0.5564205 0.54007906 0.28960422 0.40328002 0.29686514 0.9997391 -0.63121456 0.5449632 0.10058967 0.17846482 -0.23846781 0.36290658 0.53775376 0.40310198 0.9081902 -0.681843 0.6531812 -0.57056594 0.049646456 -0.48254216 -0.34786645 0.6325585 0.040714633 -0.46881407 -0.16462678 1.2337713 -0.40377188 -0.57615286 0.45808902 0.34687755 0.17173311 0.049395837 0.26258293 0.34673065 0.007908284 -0.1758884 0.41589808 0.48580936 0.39820462 -0.8155756 0.9911329 0.68617207
demonstr 0.15542844 1.0910556 0.14183623 -0.84652007 0.9399992 -1.3344882 -0.8721172 0.38299367 -0.8720647 -0.19981387 -0.34772307 -1.1187711 0.23224826 0.74300605 0.87495005 -0.61072695 -0.09644481 0.47755456 -0.7955767 -1.7258645 0.33589545 -0.73606396 0.052662805 -0.23274127 -0.84124833 -0.11439336 0.20599982 -0.22041239 -0.4235159 -0.016093846 -0.4712348 0.67009056 0.18273175 -0.2204028 -0.39308676 0.16005349 -0.14935827 -0.93041927 0.5610835 -0.3808968 -0.23807539 -0.4170017 -0.41188613 0.5643188 0.707714 -0.08503343 -0.9685099 -0.07616309 0.77943844 -0.26891753 0.5311816 -0.020729044 0.8891852 0.015731366 -0.5426623 -0.18554516 -0.20790502 0.07848613 -0.1211184 0.5187102 0.5873137 -0.27749267 -0.26304358 0.18128599 -0.47199723 0.96312547 0.0514 0.47031176 -1.4801422 0.19013473 -0.29366666 -0.18511361 0.32257873 -0.46208802 0.18695004 1.433557 0.33835652 0.056459166 0.7502983 -0.40190336 -1.1681181 -0.51417226 -0.61366415 0.8825708 0.6529861 0.45548862 0.099763274 0.38755476 1.4129065 -0.14175923 1.019968 0.67049545 0.40483102 -0.48465192 0.30422303 0.43615133 -0.4457778 0.042936437 0.3615049 -0.20431606
proc -0.28244153 0.38213444 0.24974562 0.39771828 -0.15771917 -0.4825023 0.32022232 0.6518817 0.0112645775 0.0021750182 -0.16758637 -0.51211154 -0.21430768 0.15753628 0.22741723 -0.21572877 -0.18401968 -0.37673146 0.09970112 -0.5180086 0.11590793 0.24044722 -0.09656379 -0.20858356 -0.077476606 0.06159033 -0.29721683 -0.35381237 -0.4275149 -0.1508612 0.5836508 -0.18180539 0.051415294 -0.09579405 -0.08996189 0.4604604 0.2955914 -0.07181393 -0.26727575 -0.7374601 0.11319718 -0.43597153 -0.13118331 0.1537966 0.34559712 -0.072152294 -0.27624205 0.19762911 0.30754954 0.2237956 -0.047612395 -0.16704579 -0.06508768 0.07411181 -0.36962834 0.59428114 0.2873481 -0.2076781 -0.5138095 0.21205364 0.06386856 0.37402874 -0.20572631 -0.10094647 -0.51609635 0.16122322 0.09916459 0.5168497 -0.26173627 0.26247767 -0.17790958 0.27475908 0.2793966 -0.20264831 0.5916903 0.15325283 0.08915642 -0.2494249 -0.38928524 0.027347215 0.05445037 -0.051946323 -0.4703327 0.7345981 -0.42545 -0.04882064 0.11058129 0.19623965 0.3742877 -0.11064905 0.26748633 -0.26483274 0.032085877 0.112757534 0.63582385 0.58914673 0.1000595 -0.5835259 -0.023113051 -0.038186204
shape -0.15450978 0.23443466 0.151115 0.2119972 -0.025961587 -0.5223326 0.22186564 0.6422464 -0.05755568 -0.35431787 0.064921685 -0.46179745 -0.11221934 0.2496534 0.15137798 -0.19728203 0.0042440332 -0.6253098 -0.029794468 -0.44233748 0.15988342 0.167889 -0.04921449 -0.27722216 0.048502747 0.016222406 -0.2322623 -0.27811396 -0.16893765 0.189677 0.5596777 -0.11659907 -0.0017578795 -0.22933993 -0.14541805 0.4549977 0.038043275 -0.25155216 -0.32828256 -0.66272086 0.2479305 -0.4589874 -0.062089376 -0.047936227 0.3615042 -0.03177191 -0.29604322 0.122979246 0.28813058 0.23663473 -0.029146235 -0.22471358 -0.16234693 -0.0036836767 -0.4955871 0.40880287 0.06876892 -0.046240825 -0.40762687 0.13241813 0.032586925 0.21964416 -0.05741751 -0.12149033 -0.53531975 0.25729248 0.19237562 0.32397482 -0.3352962 0.35326293 -0.13514459 0.21371514 0.3126813 -0.12752548 0.54073626 0.09996944 0.05002247 -0.31757414 -0.39209238 0.20603514 0.08076101 0.016136505 -0.21702284 0.61467683 -0.21452758 -0.004269798 0.088821456 0.2629013 0.23062234 0.11470921 0.318737 -0.06476437 -0.19262467 -0.010945898 0.41152814 0.43756568 0.27442375 -0.6089993 0.19187175 0.021793783
field -0.027780294 -0.40074736 0.13241453 0.36701894 -0.5301275 -0.24306491 0.21588668 0.38539705 -0.12325089 -0.7781198 0.39787295 -0.39190295 -0.04508 0.3738611 0.9431744 0.34258565 0.55045986 -1.1296101 0.16083084 -0.6628524 0.37717327 0.42814383 -0.23504964 -0.4357732 0.2119406 0.15468581 -0.3902634 0.0025256267 0.21792428 0.6367466 0.8687374 0.041598745 0.010187044 -0.7009625 -0.28645584 -0.044663545 0.07391437 -0.5015326 -0.6676615 -0.7653984 0.12507601 -0.5459316 -0.10952367 -0.7400613 0.5671367 -0.28383145 0.29981786 -0.042947274 0.45813954 0.5263587 -0.34331632 -0.39004907 -0.43532237 0.01854718 -0.5233034 0.52594775 -0.07716694 -0.07019585 -0.42160666 0.27679083 -0.32473356 0.61233544 0.3900231 0.7223469 -1.0517938 0.39777225 0.5322529 0.444291 -0.32445818 0.9120218 0.44622037 0.4006635 0.45452318 -0.93878394 0.69487226 -0.30195233 -0.017532805 -0.61631405 -0.42896035 0.37580398 0.45922622 -0.5671323 0.043922666 1.2933995 -0.21726222 -0.40354702 -0.27628934 0.6612141 -0.050882574 0.35946614 0.105030224 -0.23710804 -0.031908046 -0.050125346 0.5720127 0.91110754 1.1858901 -0.43936473 0.7968555 0.53741497
reconstruct 0.27536452 0.46707803 -0.021669833 -0.21376958 -0.15118237 -0.5005641 -0.036905695 0.2853001 -0.61307997 -0.942031 0.26106974 -0.8886509 0.16093855 0.47943205 0.6990907 -0.27552778 0.7656488 -0.549073 -0.31372604 -0.5907042 0.32833397 0.018440135 -0.34910616 -0.18382387 -0.30869064 -0.06594015 -0.29934505 -0.21610075 -0.039501805 0.13689503 0.6348875 0.1791163 0.1354439 -0.66973567 -0.3819529 0.4338079 0.24494235 -0.3737633 -0.4387001 -0.87822974 0.33392012 -0.73778737 -0.24487862 -0.06438624 0.20989862 -0.16085663 -0.24481171 0.32821488 0.26159376 0.24101771 -0.16412698 -0.21432869 0.008746914 -0.3613178 -0.77977675 0.27012837 -0.12115011 0.09036414 -0.486749 0.29039216 0.3530381 0.22656642 0.18974721 0.5995632 -0.4371206 0.9551131 0.28715575 0.19472353 -0.80706006 0.18353455 0.22933985 0.33025694 0.8122925 -0.4674758 0.5142688 0.02478805 0.06748805 -0.37876442 0.15582684 0.29700598 -0.24334416 -0.2554127 0.06237479 0.91431314 0.076983936 -0.1843622 0.34437916 0.32366934 0.4532911 0.19524086 0.6193534 0.28821912 0.17927901 -0.26675412 0.4186756 0.5925238 0.059224796 -0.41765183 0.6036537 0.44452548
result 0.18523325 0.7085414 0.19882843 -0.5298293 0.5018185 -1.1194619 -0.40866807 0.5105989 -0.5302355 -0.27916446 -0.15137714 -0.9343423 0.06269372 0.4810423 0.42586678 -0.52319247 -0.055646967 0.045023594 -0.445727 -1.0663713 0.35155225 -0.4069469 -0.032564957 -0.22892869 -0.49717212 -0.098300934 0.07217515 -0.17377393 -0.3742918 -0.027127933 -0.0447702 0.37699383 0.10378393 -0.10717349 -0.33340114 0.20631206 -0.108791806 -0.6792977 0.18776062 -0.44625488 -0.0058732512 -0.5028334 -0.2251917 0.3760219 0.5649377 -0.05848655 -0.59218436 -0.112129115 0.47659534 0.07526177 0.2978482 -0.11173981 0.53226703 -0.08980254 -0.3761383 0.027199624 0.009522289 -0.016123984 -0.26120943 0.30999097 0.28697494 -0.120348 -0.19593629 0.06497246 -0.6128601 0.8335499 0.049359813 0.27878428 -0.960874 0.31246996 -0.2917973 -0.18424258 0.36527383 -0.31588423 0.20646559 0.966581 0.20725812 -0.10219787 0.25789005 -0.07542045 -0.535412 -0.2006303 -0.4949874 0.7573233 0.39343846 0.4095708 0.15595648 0.3332986 0.9041436 -0.03977337 0.72125363 0.2895274 0.11050463 -0.29634348 0.3111646 0.35311344 -0.25159392 -0.21635771 0.3532062 -0.18051483
mesh 0.04116319 0.26619706 0.08909522 0.11072416 -0.17421979 -0.44228363 0.19215892 0.36981753 -0.29177657 -0.6261679 0.18109852 -0.6079598 0.025495393 0.36585283 0.41600618 -0.15666565 0.31087565 -0.6329529 -0.12964122 -0.51352394 0.29594406 0.17938794 -0.23902124 -0.3013487 -0.086280435 -0.11100729 -0.24961023 -0.16673033 -0.12096374 0.21696214 0.6415591 0.049925696 0.051605545 -0.4441891 -0.2027388 0.3249315 0.14155135 -0.32425788 -0.45631906 -0.7617525 0.25304547 -0.6173649 -0.09120207 -0.14940241 0.3238741 -0.08994993 -0.23101917 0.22863808 0.33253694 0.26465958 -0.058768824 -0.17375863 -0.16349596 -0.18385288 -0.6790721 0.43252307 -0.026560389 0.07049889 -0.4829482 0.22336824 0.080558024 0.33784 0.102708034 0.24712297 -0.5242863 0.47333992 0.24134834 0.2568656 -0.46735469 0.260408 0.07161248 0.28137404 0.4878932 -0.32879212 0.5261854 -0.021055857 0.14601558 -0.36194146 -0.14308512 0.31593686 0.013250999 -0.15873542 -0.075272836 0.8483131 -0.19558793 -0.18934128 0.14767994 0.34845337 0.3148559 0.16073084 0.419821 0.059147935 -0.020312872 -0.1019975 0.41195837 0.5785979 0.2877025 -0.5874006 0.47913978 0.26762918
introduc -0.35750395 0.7172527 -0.31309998 0.41711703 -0.32679573 -0.27879712 0.29949707 0.61438745 -0.42445597 -0.4204025 -0.1393598 -0.6570678 -0.17734154 0.15621227 0.73429215 0.086259656 0.42232147 -0.17465563 -0.31854218 -0.98024577 0.24231729 0.35116503 -0.13445036 -0.06539615 -0.34968427 0.028183596 -0.49006143 -0.9294736 -0.25942433 -0.095087804 0.48449433 0.0433845 0.5511932 -0.8341856 -0.16983542 0.7598284 0.3123449 0.030522896 -0.412879 -1.0493264 0.15182386 0.07147055 -0.26541135 0.012175039 0.31850556 -0.04243998 -0.50795346 0.61681443 0.56992584 0.09501069 -0.29342443 -0.18727061 -0.39499405 -0.021395223 -0.61991215 0.3498555 -0.17318685 0.05738752 -0.1911042 0.29550362 0.4051781 0.51942754 -0.03808691 0.19350621 0.009526661 0.19122459 0.12526521 0.6680317 -0.4960089 -0.12486004 0.38137496 0.8467443 0.54557663 -0.2726012 0.9290263 -0.20390244 0.36602452 -0.4561931 -0.113396876 -0.2655462 -0.47262862 -0.21246691 0.05718462 0.49390703 -0.30863544 -0.7244007 0.30217195 0.05780994 0.3480335 0.04939409 0.3649717 0.22622696 0.32268432 0.006284665 0.7642847 0.66809386 0.20444137 -0.40364948 0.021741843 0.6302929
time 0.37754434 0.4080928 0.06818164 -0.53398806 -0.1796015 -0.8014584 -0.04706852 0.1792687 -0.47124788 -0.49361104 -0.056888312 -1.0128734 -0.046737302 -0.0346918 0.42967293 -0.13417785 0.46360278 0.14519152 0.025502823 -0.8960898 0.3389952 0.031096129 -0.055726532 -0.18519428 -0.38517234 0.30932513 -0.37465048 -0.08295954 -0.48516735 -0.3277799 0.47599718 0.5849233 0.25153005 -0.1715523 -0.58205414 0.583091 -0.25637963 -0.5313129 -0.4500798 -0.59402096 0.1926242 -0.47248736 -0.35882643 0.40997064 0.3031252 -0.16950612 0.09108848 -0.041445356 0.08067116 0.2482109 0.09149817 -0.28476647 0.4485372 -0.2967781 -0.488932 0.22805358 0.031364813 0.1892604 -0.59862316 0.09292893 0.34030536 -0.005510679 -0.18066937 0.6235316 -0.43214092 1.0953716 -0.15227212 -0.032112185 -0.7507278 0.36761266 -0.10357562 0.32841125 0.8008005 -0.60696185 0.22552957 0.3630527 0.15775213 -0.47728887 0.06412498 0.34897098 -0.25441876 -0.0058793775 -0.78127545 0.9136619 0.060925037 0.3196325 0.49734646 0.15114048 0.4080938 0.03552417 0.59394985 0.17854725 0.22359133 -0.2611843 0.57931876 0.42334324 -0.025261475 -0.011452708 0.25485858 -0.03907428
optim -0.13488914 0.25249818 0.07109577 0.25727183 -0.11362432 -0.47675946 0.23263247 0.5089277 -0.21223728 -0.2594277 -0.022650098 -0.55422664 -0.14242242 0.24630012 0.25900412 -0.13397197 0.03851526 -0.50717616 -0.056465346 -0.6365871 0.28337803 0.18360816 -0.11558126 -0.23514305 -0.011726947 -0.078320436 -0.27261907 -0.3613289 -0.17608769 0.084750995 0.49827275 0.026532365 0.1207045 -0.25595102 -0.16633411 0.37768185 0.08580134 -0.272042 -0.3103111 -0.6898683 0.15510447 -0.33912998 -0.06883428 -0.0398625 0.36473072 -0.047005832 -0.25327143 0.14475094 0.36295357 0.29332072 -0.025164383 -0.18388803 -0.18679003 -0.028668232 -0.5215936 0.40835872 0.05180142 -0.024374543 -0.39128846 0.21813384 0.031698994 0.32497904 -0.05896704 0.079186395 -0.50731367 0.18432267 0.14527607 0.3513405 -0.32083073 0.32379565 -0.0076647066 0.27565637 0.27792954 -0.3137203 0.50743264 0.036281068 0.15676433 -0.33905855 -0.29716754 0.1402132 0.051231638 -0.13425311 -0.22620845 0.68042696 -0.23417416 -0.14164835 0.097288 0.27363726 0.2733614 0.06573703 0.20957486 -0.027375815 -0.094353035 0.049855586 0.45275608 0.49336988 0.25195232 -0.54994947 0.30149227 0.18488474
synt 0.16084047 0.79863924 -0.14949726 -0.3601289 -0.16112094 -0.47318068 -0.16435717 0.41514364 -0.74678206 -0.8668898 0.18649302 -1.0366088 0.021339871 0.39609873 0.70205647 -0.42934528 0.90289605 -0.25074852 -0.38402814 -0.48159266 0.13680845 0.032602675 -0.1170819 0.011785935 -0.49266112 0.19843888 -0.49665904 -0.44580775 -0.2069336 -0.14528398 0.47609866 0.08603899 0.24114339 -0.7490512 -0.4704115 0.92726475 0.30400372 -0.18712217 -0.45485982 -0.99928665 0.42060554 -0.5646891 -0.467531 0.26223344 -0.052308068 -0.24925408 -0.3751136 0.40731448 0.22030628 0.037548684 -0.4021846 -0.33551353 0.2366985 -0.25852016 -0.5979643 0.077041596 -0.056734327 0.006282888 -0.5093483 0.113804385 0.7308464 0.047360074 0.08858075 0.4411061 -0.060638145 1.1956117 0.24939212 0.2641959 -1.0178497 -0.036480773 0.19654045 0.55504817 1.0988517 -0.26507807 0.53196263 0.17185438 -0.030659001 -0.33917424 0.10930677 -0.02339843 -0.6339119 -0.07726621 -0.035678968 0.65221876 0.10534467 -0.2164592 0.709333 0.13760866 0.41871613 0.21720247 0.7428554 0.52823824 0.30416667 -0.42694992 0.59176797 0.60506505 -0.25638512 -0.124436185 0.039988555 0.3779162
text -0.17543024 0.6854025 -0.036200803 0.03831233 -0.051354054 -0.4008638 0.37546092 0.98406446 -0.032706127 -0.69726855 0.07822544 -0.45527193 -0.28055623 0.13955116 0.05943651 -0.39653805 0.36095825 -0.51351917 -0.20171751 0.18229592 -0.24445297 0.21997398 0.11409496 -0.19631818 0.048208475 0.18242037 -0.27749643 -0.39697042 -0.2854682 0.12135182 0.8575845 -0.6867376 -0.13994901 -0.5802759 -0.35128516 1.0671977 0.6458399 0.10267462 -0.38309103 -0.8965696 0.6643084 -0.5935435 -0.29068127 0.17291035 0.021616213 -0.21087907 -0.47642913 0.4639349 0.14624766 0.09257253 -0.43162253 -0.4815518 -0.06479058 -0.12969057 -0.5730083 0.5102141 0.15196823 -0.21021977 -0.5878262 -0.076334834 0.5245331 0.11642725 0.045279246 -0.4769749 -0.053140886 0.78127867 0.32067013 0.42441925 -0.61642355 -0.2523713 -0.24657604 0.5512452 0.84884095 0.3620635 0.69122833 -0.066670805 -0.24197392 -0.121775165 -0.4545485 0.041919064 -0.27546012 0.44122842 -0.22749318 0.45176744 -0.22092019 -0.1342771 0.71424365 0.0077466406 0.044329405 -0.0073521542 0.4638509 0.24276976 0.05401658 -0.24577731 0.55135167 0.5517889 -0.03239904 -0.63914585 -0.33499128 -0.065260686
point -0.29116875 0.2247888 0.15677273 0.2803736 -0.050979182 -0.4015653 0.2776789 0.46151173 -0.1408105 -0.4767328 0.18949771 -0.4952488 0.055810627 0.5555816 0.4706426 -0.19958931 0.07635503 -0.7033304 -0.16960393 -0.7079984 0.21334267 0.23035207 -0.27886987 -0.27395126 0.33512494 -0.24724703 -0.11113326 -0.20265366 -0.100794666 0.18756746 0.5164945 0.10204294 -0.08968204 -0.4287593 -0.13860776 0.2922053 0.07776567 -0.4058244 -0.4537314 -0.69725966 0.09091975 -0.50251734 0.027381338 -0.41691092 0.2529603 -0.2353655 -0.22083066 0.0025899066 0.3785915 0.35256705 0.13118269 -0.20130906 -0.44806936 -0.04885825 -0.82386464 0.33567396 0.074189626 -0.11653241 -0.52040446 0.23832507 0.08421338 0.38791588 0.08077749 0.08814296 -0.7346163 0.0030375437 0.16678146 0.23685025 -0.4563613 0.5866021 0.1662206 0.21718417 0.12347429 -0.29623124 0.5057581 -0.054828092 0.23604594 -0.3457266 -0.41461724 0.2706723 0.4221838 -0.21105629 -0.08910077 0.7262373 -0.23455265 -0.09780197 -0.15900108 0.56513196 0.12461754 0.21408923 0.39083654 -0.05208745 -0.084777504 -0.074730195 0.25161618 0.5898609 0.45552003 -0.8530468 0.580645 0.19722474
control -0.102880426 0.4166369 0.025767848 0.009497696 0.08709268 -0.64642346 0.23490675 0.71493113 -0.11901125 -0.3423659 -0.013908177 -0.493627 -0.20135444 0.059728585 0.05109885 -0.27947512 0.051961455 -0.33029127 -0.07821336 -0.393632 0.08864772 0.09673901 0.019225322 -0.23965172 -0.055989094 0.05818174 -0.20058052 -0.306846 -0.2712031 -0.036465876 0.5088783 -0.13030308 0.055829998 -0.09298042 -0.18840528 0.58275265 0.10002557 -0.18322745 -0.19468531 -0.6064644 0.3379796 -0.3486736 -0.18638341 0.19071744 0.2885028 -0.02067921 -0.36795735 0.17605966 0.18753135 0.21050878 -0.070929736 -0.25680178 0.052299477 -0.06789663 -0.42461556 0.39777622 0.12958147 -0.039067473 -0.4290367 0.14306973 0.1852047 0.0986323 -0.14332122 -0.23611277 -0.40473264 0.47376695 0.048716214 0.30648 -0.45660627 0.16987716 -0.21714337 0.24216843 0.42945397 -0.044840354 0.49985963 0.13155134 0.035937842 -0.31006536 -0.33501792 0.03387921 -0.18780917 0.19625881 -0.44486263 0.51606774 -0.16220994 0.140087 0.33201063 0.09874361 0.20866372 -0.00981752 0.36322093 -0.026601763 -0.080393136 -0.064543225 0.41494343 0.35927087 0.09043019 -0.47903523 0.008987209 -0.070684776
dataset -0.06719293 0.69254786 0.07132328 -0.33339787 0.43106255 -0.9081234 -0.20234539 0.7980197 -0.3104312 -0.11019765 -0.1972278 -0.709223 -0.19839329 0.3221298 0.20302364 -0.37653726 -0.14373514 0.04085702 -0.25120214 -0.8927904 0.097331665 -0.1959144 0.23223916 -0.12218258 -0.29700196 0.09878359 -0.10751539 -0.4256396 -0.35999912 -0.06342191 -4.4420893e-05 0.08688967 0.13927698 -0.20366673 -0.33856535 0.5609123 -0.10104503 -0.39207578 0.08327737 -0.48032245 0.019414982 -0.16886216 -0.32837668 0.41339344 0.44985944 -0.031076578 -0.60970724 -0.06861654 0.4136451 0.056837782 0.13824978 -0.22478491 0.3357702 0.10658105 -0.13061841 -0.009711581 0.118308775 -0.16582641 -0.23216541 0.12962973 0.31463894 -0.18514034 -0.24857754 -0.3157136 -0.39521074 0.6114378 0.07081845 0.39943156 -0.7499754 0.21967106 -0.2793263 0.07651489 0.3751321 -0.065767705 0.31035754 0.705582 0.14311752 -0.1418294 -0.17228828 -0.28091052 -0.5592048 0.01701544 -0.5538195 0.4254564 0.23272923 0.2973798 0.31822166 0.18232001 0.6642963 0.042822067 0.54787713 0.32865497 -0.021607285 -0.16168657 0.49735692 0.33036923 -0.18061826 -0.118853904 -0.11849513 -0.28031743
net -0.31924823 0.026492676 0.22316448 0.5290456 -0.3036984 -0.34088722 0.31999668 0.59771526 -0.12662211 -0.39491186 0.06203487 -0.33607545 -0.102907926 0.27891955 0.5998491 0.0947941 0.21034972 -0.69718754 0.03211429 -0.5568873 0.12066062 0.404274 -0.046835292 -0.3583286 0.14222163 0.1542974 -0.37399366 -0.17461221 -0.12765832 0.30218115 0.6186961 -0.058136046 -0.03706709 -0.44710946 -0.24566074 0.29665133 0.14942351 -0.26954895 -0.4953821 -0.8070689 0.10563221 -0.34165877 -0.20327172 -0.29449993 0.43625903 -0.13836609 -0.070615314 -0.006630957 0.47416106 0.23745388 -0.3064043 -0.29031053 -0.295461 0.07929543 -0.49416038 0.45448816 -0.017692233 -0.13033192 -0.34671998 0.10385135 2.5958834e-05 0.4324501 0.21128933 0.16208681 -0.69100237 0.2564219 0.33643225 0.53977686 -0.29438308 0.5155405 0.19080003 0.47861785 0.32624 -0.47967815 0.70027107 -0.032596875 0.016671468 -0.43188483 -0.40912938 0.048646994 0.17186041 -0.32785153 -0.093825325 0.8539075 -0.31706262 -0.3812034 -0.04872016 0.3269786 0.07443775 0.15482679 0.2004642 -0.17229082 0.031240243 -0.012108345 0.66684747 0.7984461 0.675582 -0.42048952 0.19678749 0.27133408
human -0.037045542 0.44254774 -0.034086533 -0.11715132 0.1051716 -0.7432299 0.11755623 0.8225069 -0.13181931 -0.32873598 -0.018748606 -0.48633635 -0.16057949 -0.021793956 0.045856867 -0.37298903 0.08187281 -0.35378262 0.049305465 -0.36073568 0.16821773 0.110459305 0.03569535 -0.1688723 -0.1165207 0.19139378 -0.26420796 -0.34260094 -0.23639902 -0.13191979 0.6196713 -0.06577498 0.06312307 0.01006591 -0.21435851 0.7622951 -0.008495914 -0.10155844 -0.26283133 -0.62337434 0.38883606 -0.26304045 -0.22974809 0.26693192 0.24302128 0.07537184 -0.28039542 0.15539002 0.03626945 0.19539273 -0.0869122 -0.31782097 0.09694345 -0.084812015 -0.23236151 0.3298242 0.18278229 -0.002225067 -0.5007139 0.055734903 0.17747277 0.057353985 -0.27265027 -0.21886463 -0.49741006 0.57111025 -0.022414956 0.2653303 -0.42174235 0.34306878 -0.19954441 0.23232514 0.5712012 -0.019435627 0.5150653 0.11935837 -0.008903535 -0.47390872 -0.45631883 0.07259834 -0.21047083 0.26224095 -0.599564 0.4962978 -0.16868441 0.29600775 0.36170542 0.10700959 0.18219104 0.074818 0.4728106 -0.09339165 -0.17879745 -0.058773845 0.36374003 0.26204783 0.062965006 -0.40640372 -0.11698219 -0.15705442
design -0.28950456 0.36950967 0.09497027 0.26184705 0.007855721 -0.6922581 0.20642489 0.72005004 -0.12249459 0.027566586 -0.23098995 -0.48012885 -0.26693836 0.04982211 0.19352993 -0.13019465 -0.23716357 -0.25834614 0.06816861 -0.7838532 0.1658766 0.18679103 0.010433216 -0.2078445 -0.092781186 0.11766671 -0.24803238 -0.45232016 -0.35175505 -0.12531431 0.3929701 0.048910905 0.09744776 -0.0060127913 -0.1024829 0.46197388 -0.007278874 -0.2069309 -0.057373203 -0.66942364 0.020140545 -0.058834285 -0.16343446 0.18103324 0.51205504 0.0885613 -0.33691505 0.06533573 0.35484397 0.21944465 0.07082467 -0.14820917 -0.020547697 0.09819025 -0.19250435 0.38553864 0.12876189 -0.091588706 -0.36898157 0.20172471 -0.014823785 0.2742411 -0.31854278 -0.16825984 -0.5362607 0.056754436 -0.03964905 0.45085672 -0.24714053 0.38794023 -0.11857411 0.21969706 0.17235687 -0.2148214 0.50116366 0.25282523 0.12948014 -0.38512775 -0.34048396 -0.09950747 -0.0911025 0.014925058 -0.51864606 0.49827072 -0.23014736 0.045159116 0.038903188 0.21242654 0.35937077 -0.02004179 0.2816187 -0.17859493 -0.07435 0.101847544 0.5082016 0.3993112 0.20166604 -0.42250654 0.031060904 -0.072113484
real 0.22428648 0.42987135 0.07844832 -1.002089 0.11489275 -0.9583253 -0.33829877 0.09387198 -0.8373626 -0.29028493 -0.49527973 -1.2434636 0.20967919 -0.06239565 0.2831328 -0.4401908 0.45634001 0.118114956 0.12186705 -0.8033812 0.6606317 -0.123419486 -0.20307295 -0.42931128 -0.4516219 0.055688646 -0.27401668 -0.2793383 -0.36556038 -0.7816519 0.45948836 0.9713713 0.30079505 0.31243974 -0.6417863 0.6583689 -0.30081683 -0.4104667 -0.43554345 -0.6274108 0.4050932 -0.42937493 -0.4060927 0.6611273 -0.11268345 -0.026437327 -0.07667593 -0.15605006 -0.46935254 0.046886075 0.21339329 -0.13360089 0.68793213 -0.29441455 -0.13617475 -0.10506293 0.26708868 0.4719324 -0.7215647 0.23508258 0.57788265 -0.13058378 -0.28907302 0.23833245 -0.21354878 1.351729 -0.06536309 -0.1154518 -0.84634846 0.1619687 -0.32640094 0.4032607 0.796916 -0.6321051 0.35188612 0.023391034 0.35588214 -0.73567516 0.13898145 0.2065923 -0.7250371 -0.043786727 -0.9713454 0.7516228 0.1569797 0.39263955 0.75875235 0.3127987 0.64531136 0.19923244 0.6839322 0.47646433 0.15906365 -0.1220128 0.6197907 0.5819991 -0.31126675 0.28072956 0.5640917 0.015905634
challeng -0.16508934 0.46281362 0.015786238 0.08844453 -0.05785022 -0.6163478 0.04840022 0.54887384 -0.3362442 -0.20454377 -0.11780134 -0.5881029 -0.13018982 0.06854499 0.42413527 -0.16222252 0.085512236 -0.14323172 0.002091087 -0.7950206 0.28451997 0.21431786 -0.12561423 -0.14807168 -0.25845692 0.06303689 -0.31722727 -0.48258108 -0.3326892 -0.28922892 0.52378756 0.2412894 0.28831992 -0.16961461 -0.13410506 0.56626934 0.089856446 -0.19250251 -0.23236288 -0.89919865 0.15820237 -0.10492086 -0.3158317 0.1915585 0.30655777 0.06348962 -0.31783566 0.3671216 0.17270921 0.20803995 -0.03964423 -0.13518763 -0.033193227 -0.062268592 -0.2669547 0.32253563 0.044700142 0.0544104 -0.45451885 0.13058735 0.24168602 0.37604403 -0.22802432 0.06358073 -0.39024377 0.3129662 -0.0022761505 0.37522998 -0.43495306 0.26383084 -0.027308058 0.5268174 0.45443192 -0.2963907 0.5715347 0.06436114 0.19743253 -0.5724295 -0.20986724 -0.16592415 -0.17545992 0.02579959 -0.36814648 0.65278304 -0.18990014 -0.038491733 0.20907705 0.08410719 0.35197183 0.096436016 0.39707956 -0.025701389 0.07110618 0.02289938 0.569257 0.5643326 -0.013758974 -0.37009 0.118262805 0.13212326
perform 0.18064359 0.7284514 0.18746991 -0.50462204 0.5616233 -1.1248753 -0.48141155 0.50362617 -0.5967267 -0.16888697 -0.21558134 -0.92477614 0.013978457 0.4970701 0.6145218 -0.49691683 -0.060021486 0.1340219 -0.43768635 -1.2432848 0.36714825 -0.48463362 0.027185112 -0.17763756 -0.55417573 -0.058067765 0.006273026 -0.1895149 -0.35343105 -0.0059969877 -0.14556894 0.47058955 0.08647618 -0.17771277 -0.3313501 0.1707294 -0.15713425 -0.7114241 0.24676041 -0.4277996 -0.13337268 -0.4250707 -0.28865132 0.39040092 0.6469482 -0.06828683 -0.61406815 -0.21442324 0.57743365 0.07389209 0.37040865 -0.14296538 0.56757474 -0.010507426 -0.32279307 -0.027555984 -0.040574923 -0.088831075 -0.1800285 0.39139634 0.26830435 -0.10596717 -0.26443675 0.13299833 -0.64825594 0.8256417 0.072709255 0.3444244 -1.021773 0.4066458 -0.27580136 -0.22567089 0.3431593 -0.45455644 0.17062579 1.064884 0.22225645 -0.14692982 0.28824005 -0.19801442 -0.60681117 -0.3507546 -0.5044326 0.7889688 0.45819083 0.35809398 0.1139816 0.39728695 0.96142393 -0.057399184 0.7395348 0.27461335 0.1939558 -0.32797086 0.3582328 0.3307792 -0.22571394 -0.109750144 0.29031003 -0.21518691
video -0.13836479 0.50560856 -0.01352192 0.0002586992 0.008168891 -0.6720396 0.27637446 0.9762864 -0.15001737 -0.31884533 -0.033047646 -0.52880347 -0.30934587 0.06495037 0.019535951 -0.32813036 0.12207753 -0.39019647 -0.07200343 -0.30586618 0.0009642181 0.1522191 0.15062615 -0.11109995 -0.04381653 0.28497806 -0.27981758 -0.4565231 -0.2712763 0.0067964015 0.5304254 -0.2610636 0.021158295 -0.24328546 -0.29793122 0.9003282 0.17340177 -0.0015220166 -0.21501422 -0.70995533 0.40338638 -0.25698698 -0.22840801 0.318611 0.24166091 -0.031790473 -0.3621856 0.12128825 0.17010324 0.16986759 -0.24357416 -0.4154224 0.052067168 -0.03596006 -0.18731236 0.2699694 0.23691629 -0.1654064 -0.47355995 0.029883787 0.27438194 -0.0002878991 -0.14486298 -0.38607055 -0.34520173 0.52300483 0.103226565 0.4285365 -0.47255334 0.16440256 -0.22834232 0.28525805 0.5665993 0.11920951 0.52623194 0.18464425 -0.13325553 -0.29525396 -0.5226576 -0.04037486 -0.23184152 0.29470363 -0.4976803 0.3153993 -0.13695738 0.061014917 0.48407117 0.1058394 0.16790698 0.09362549 0.4262125 0.09829428 -0.110445835 -0.052519403 0.5342209 0.31397632 0.08735205 -0.3397931 -0.22124405 -0.13505878
exist 0.1326296 0.71035045 0.14241616 -0.36902735 0.38747922 -0.8976485 -0.37431347 0.5371353 -0.50012827 -0.30547747 -0.0935929 -0.7568313 0.04930291 0.4299452 0.555106 -0.43660873 0.07386145 0.08427118 -0.41840112 -0.9016892 0.24426223 -0.35293013 -0.03416237 -0.15827185 -0.3911049 -0.061216515 0.010171336 -0.22980252 -0.29006457 0.039225314 0.14549243 0.18832918 0.015051481 -0.22592364 -0.30238974 0.3264081 0.043978017 -0.44384924 0.1371434 -0.5150789 0.11666315 -0.5135826 -0.2696257 0.33627635 0.4733583 -0.13631602 -0.51608366 0.0066651553 0.41489896 0.09442429 0.15286298 -0.17749012 0.33541065 -0.09949856 -0.4905498 0.11713768 -0.0038982837 -0.07129058 -0.24447602 0.2765406 0.35902804 0.052226234 -0.16793458 0.09933567 -0.5324029 0.82388645 0.13666861 0.33734992 -0.8944457 0.24603195 -0.24558784 -0.051298726 0.4225453 -0.27006406 0.2635256 0.7477183 0.13429743 -0.09865512 0.18441604 -0.09746904 -0.4908916 -0.2408859 -0.43267944 0.796278 0.23709463 0.28309834 0.14743191 0.22523788 0.78051496 -0.07692608 0.589038 0.18885913 0.22629535 -0.30866736 0.33295208 0.3834485 -0.14697826 -0.33382186 0.19890708 -0.17142703
while 0.20497608 0.41320512 0.14293611 -0.2139976 0.07573873 -0.7487433 0.016228862 0.5133242 -0.28667164 -0.44336426 -0.0021794564 -0.7448372 -0.017890267 0.18516226 0.22166957 -0.32439804 0.16730143 -0.35390887 -0.10276732 -0.5230222 0.26789728 -0.033387087 -0.12481274 -0.25547442 -0.18724787 0.0062390896 -0.1421163 -0.12260891 -0.22835597 0.0046527726 0.4575186 0.11056174 0.016295621 -0.12519182 -0.2846098 0.37312374 0.009880617 -0.43334553 -0.20179135 -0.5698607 0.2483644 -0.6373831 -0.090161085 0.19688432 0.41524005 -0.06339284 -0.26535237 0.004166872 0.16023295 0.2533648 0.11569507 -0.23562577 0.17982683 -0.18755949 -0.39036566 0.30012187 0.11865366 -0.058046225 -0.42519903 0.2006755 0.13062564 0.078075826 -0.15758409 0.15366785 -0.6383685 0.73062605 0.116728865 0.20626538 -0.5897094 0.34378272 -0.31446567 -0.033502374 0.5052533 -0.28729886 0.3437746 0.36756644 0.07860606 -0.3290121 -0.09679594 0.26806942 -0.07246183 -0.007746573 -0.42834845 0.79027474 0.05800896 0.23477577 0.21188508 0.28252718 0.47648385 0.017691232 0.4955945 0.039942373 -0.008153602 -0.08468168 0.42883995 0.37297592 0.07257295 -0.4296727 0.35669968 -0.10558711
user -0.229387 0.43566 0.17480335 -0.058948386 0.3197306 -1.05431 0.08495758 0.8380909 -0.09778462 -0.048546255 -0.25295404 -0.604968 -0.29945982 0.06667997 0.0012996492 -0.28982124 -0.45966494 -0.1871525 -0.043823 -0.7907745 0.14617516 0.01246192 0.06206105 -0.28155166 -0.09328363 0.13068146 -0.08679582 -0.36654067 -0.39779308 -0.1515379 0.265804 0.16437396 0.07167821 0.3290437 -0.16507632 0.5092934 -0.16570115 -0.35488486 0.13902949 -0.4810838 0.0554587 -0.107662536 -0.14402552 0.29681882 0.5671216 0.093116075 -0.48822415 -0.051657744 0.32805872 0.17650962 0.24015608 -0.17974123 0.2504393 0.09783885 -0.16440628 0.34507063 0.19221815 -0.12243017 -0.39367792 0.20010968 0.030526564 0.022775656 -0.41693 -0.38871214 -0.6899156 0.17959802 -0.15237561 0.36415464 -0.44914794 0.45298958 -0.35109574 -0.041629925 0.17422166 -0.092288464 0.41291228 0.57305443 0.13795131 -0.34866276 -0.28705707 -0.06905035 -0.1877896 0.16113542 -0.77445126 0.5190324 -0.05529237 0.4576118 0.071843736 0.25370052 0.4631648 -0.08622087 0.42809653 -0.050420545 -0.17076974 0.02960506 0.36119977 0.31114113 0.028072888 -0.41056982 0.09390123 -0.29887888
present -0.38412482 0.62916833 -0.26930103 0.3206589 -0.25880826 -0.40338883 0.18603645 0.60061145 -0.40500155 -0.28617358 -0.21048278 -0.5992561 -0.1763184 0.058703452 0.7059266 0.07497721 0.28876737 -0.057921108 -0.24218869 -1.0663792 0.28128046 0.3135387 -0.0879783 -0.05709959 -0.34495965 0.08117492 -0.40406886 -0.87149435 -0.28006446 -0.16229495 0.40699032 0.18272391 0.51921016 -0.616387 -0.13979056 0.6857108 0.16282187 -0.0036679886 -0.2853103 -0.9332011 0.08757246 0.1690095 -0.3181399 0.050445154 0.37120348 0.027549708 -0.46485183 0.47826648 0.5340334 0.053126708 -0.17712027 -0.17548387 -0.29323673 0.015311403 -0.49088907 0.28543302 -0.153786 0.06909872 -0.21672423 0.3079624 0.3217195 0.47736326 -0.13301936 0.14795324 -0.074782364 0.16874935 0.004468225 0.62542355 -0.46103445 0.027146328 0.32905114 0.76201195 0.45869103 -0.3250973 0.8440437 -0.121630915 0.3868866 -0.52260274 -0.1326938 -0.3217618 -0.4923258 -0.19405963 -0.11977704 0.48157465 -0.3082776 -0.5470646 0.20219608 0.07736501 0.35459945 0.03545406 0.40614882 0.12629397 0.31656852 0.008614162 0.70306015 0.5843868 0.20373079 -0.31674367 -0.03256597 0.5269716
effect -0.06627077 0.6448679 0.118942164 -0.1849573 0.36219907 -0.931378 -0.14015514 0.56212974 -0.42703745 -0.14573134 -0.20483164 -0.7155145 -0.06920534 0.33822152 0.3542944 -0.32865712 -0.18827865 0.02981677 -0.295287 -1.0310684 0.26760882 -0.18101722 0.027964959 -0.24825995 -0.36652637 -0.0113591 -0.021550966 -0.32572296 -0.36046046 -0.0442021 0.04477105 0.27896053 0.13719533 -0.07227869 -0.21672684 0.25595674 -0.07094026 -0.44941267 0.14786538 -0.5274124 -0.036098212 -0.18620127 -0.22556792 0.3063172 0.5163974 0.004393001 -0.5312259 0.018985355 0.501866 0.056397233 0.22277273 -0.07750688 0.32562464 -0.02293675 -0.31234005 0.122819066 -0.010043534 0.005829538 -0.2853391 0.31278107 0.22704893 0.033012897 -0.1958777 -0.0646786 -0.47923058 0.4330135 -0.019722871 0.37360024 -0.6918519 0.24372841 -0.16845071 0.031486604 0.23372318 -0.26684356 0.33993816 0.6903703 0.23597993 -0.17199782 0.102904744 -0.20036788 -0.44568232 -0.10984623 -0.4794529 0.5770078 0.12857299 0.1969666 0.110771015 0.24595292 0.71749866 -0.028334407 0.55429476 0.19362532 0.021493735 -0.1895184 0.41309124 0.3783292 -0.078228444 -0.26128075 0.22717388 -0.09841876
applic -0.14491381 0.29485756 0.08928352 -0.09947496 -0.10908297 -0.9109622 0.08102015 0.5267787 -0.23611155 -0.047204938 -0.26969138 -0.5969072 -0.15228382 -0.17619109 0.3812193 -0.1345937 -0.06708867 0.05236202 0.24628714 -0.8840637 0.31927934 0.15838258 -0.13973805 -0.23045592 -0.2903356 0.392009 -0.21881966 -0.3179797 -0.3829146 -0.38645437 0.5088922 0.45512095 0.106153004 0.30822924 -0.19296618 0.54213727 -0.0982564 -0.20128565 -0.06663019 -0.6781935 0.048812903 0.009316704 -0.36033893 0.34277424 0.45608115 0.14686422 -0.12138779 -0.0063421186 0.050238762 0.13022882 0.101754986 -0.1264704 0.33308893 -0.05960882 -0.06268087 0.3663122 0.15540896 0.042497374 -0.55880576 0.25600174 0.046214744 0.20312653 -0.4486937 0.07317625 -0.62062407 0.36532965 -0.2327896 0.302195 -0.36679077 0.5440528 -0.07054336 0.22913626 0.36123532 -0.44687182 0.36845052 0.29375684 0.10869947 -0.59815896 -0.17766759 -0.025728565 -0.23600046 0.06752306 -0.7982217 0.64477515 -0.24837503 0.34711283 0.10082422 0.22037195 0.33337668 -0.003983578 0.50349617 -0.2945057 0.03506308 -0.056022763 0.47347653 0.38976997 0.13739929 -0.19841029 0.07461428 -0.02759226
edit -0.022359643 0.54113764 0.017779058 -0.087116666 0.011782902 -0.57783794 0.16265567 0.64432645 -0.2560752 -0.5386937 0.052908126 -0.6100933 -0.11881372 0.19244887 0.24043386 -0.30148306 0.25074437 -0.33210188 -0.17247826 -0.33106816 0.080612816 0.059512593 -0.07727962 -0.1863668 -0.13085145 0.025070582 -0.18238197 -0.25205734 -0.21651953 0.004740997 0.5825744 -0.1472224 -0.0038869472 -0.271318 -0.28596374 0.60797507 0.3219614 -0.23095874 -0.20361468 -0.6910529 0.38302574 -0.48616874 -0.21366684 0.17733677 0.20450082 -0.11516196 -0.36686566 0.25279132 0.21665518 0.18114646 -0.13687032 -0.30848822 0.07923989 -0.17873143 -0.5253157 0.4170018 0.06127839 -0.07422943 -0.4787717 0.13438857 0.32146278 0.14948194 -0.059700716 -0.07741042 -0.35211256 0.6572814 0.15258573 0.31355816 -0.5878972 0.05315042 -0.16185503 0.29673934 0.59590816 -0.08897335 0.49265024 0.1671522 -0.015145692 -0.26109877 -0.22149584 0.10235018 -0.24027173 0.102225125 -0.37081775 0.6627837 -0.09433685 0.06385109 0.3881235 0.144903 0.2989002 -0.011401392 0.44365874 0.115965456 0.017613083 -0.17591077 0.44410866 0.47822452 0.044833936 -0.5225607 0.13969141 0.0039308826
achiev 0.36203465 0.7238436 0.13311714 -0.5827456 0.4861859 -0.9623625 -0.42402256 0.3594944 -0.62287414 -0.5155301 -0.02143247 -0.98264605 0.11718454 0.5022002 0.63277835 -0.48826975 0.23776186 -0.031901095 -0.46939495 -1.0157264 0.3751104 -0.46621975 -0.109768875 -0.21287599 -0.5631702 -0.14747275 -0.063992515 -0.121026255 -0.24736969 0.07822035 0.038978726 0.38664386 0.07871105 -0.3227566 -0.3978568 0.20447266 -0.08259336 -0.67094743 0.069526285 -0.47563088 0.09041973 -0.6721919 -0.20331168 0.33069056 0.50143266 -0.14813603 -0.52504784 -0.043241594 0.45085832 0.12239177 0.3205781 -0.16801152 0.52697474 -0.18702157 -0.50951827 0.06882475 -0.02928217 0.035598796 -0.25571 0.37916794 0.32064056 -0.025840482 -0.1280032 0.3586024 -0.579475 1.0178449 0.12264166 0.20832692 -1.0623326 0.23602562 -0.2619745 -0.14810732 0.5565247 -0.4433413 0.24397306 0.81898654 0.1732137 -0.16063829 0.33751935 0.028160725 -0.5264463 -0.3295851 -0.33875304 0.9246871 0.46805444 0.30518013 0.24192703 0.38104892 0.924425 -0.0014301635 0.7683444 0.3901752 0.2318446 -0.30921492 0.3630408 0.36823118 -0.22310866 -0.19448112 0.48363373 -0.09155511
simul -0.19685069 0.24140735 0.14999422 0.072889686 -0.03629563 -0.8312898 0.09907158 0.50845164 -0.26088542 -0.033723198 -0.23359524 -0.56705654 -0.1292123 -0.088170014 0.3463913 -0.1469975 -0.1330469 -0.099331476 0.15658273 -0.9319189 0.314438 0.19731848 -0.12354373 -0.2272422 -0.21088554 0.21001163 -0.23914257 -0.31894252 -0.34067425 -0.29741505 0.4448404 0.37643033 0.14092217 0.2374712 -0.13169906 0.42115396 -0.13104543 -0.22751749 -0.07892339 -0.6240135 0.092747554 -0.050285723 -0.27344033 0.2787985 0.47994682 0.16732505 -0.19085793 -0.01529776 0.15378964 0.20816396 0.067685686 -0.07559626 0.20143348 -0.030129764 -0.18007356 0.34924173 0.08867933 0.10526275 -0.46885198 0.27679977 -0.010605118 0.25405014 -0.3668387 0.056661215 -0.6442082 0.21036364 -0.16812466 0.34609777 -0.2983337 0.55132025 -0.016006548 0.23119695 0.26169616 -0.40872756 0.42663682 0.22327334 0.16157651 -0.5755571 -0.14926052 -0.076238275 -0.15164015 -0.00430101 -0.6817896 0.5898126 -0.25314316 0.26049596 -0.001280012 0.22386205 0.34093693 0.016676273 0.401632 -0.32844755 0.017645942 0.0309136 0.40699005 0.37876374 0.21392998 -0.29014352 0.121255346 -0.03949607
comput -0.20236821 0.21278767 0.23930791 0.22489503 -0.14410304 -0.65068495 0.15305634 0.525087 -0.068769746 0.029622154 -0.1711378 -0.5003323 -0.15803856 0.038709342 0.3037904 -0.078475036 -0.23654363 -0.23688054 0.23197906 -0.7026713 0.2533581 0.26870975 -0.1606261 -0.2420351 -0.11861518 0.15034902 -0.20497023 -0.28659385 -0.35522208 -0.20954746 0.5716368 0.16910249 0.07980804 0.18465571 -0.085433565 0.3878234 0.04072265 -0.20549588 -0.19552438 -0.6772359 0.04593288 -0.23449747 -0.14253263 0.1600194 0.46939746 0.05858258 -0.14980885 0.08133373 0.1637973 0.21539918 0.13744509 -0.08122529 0.023832109 -0.009725597 -0.17661563 0.48281136 0.22459333 -0.07143155 -0.4883321 0.2005038 -0.0596696 0.37155983 -0.3174603 0.04730062 -0.63921475 0.16068822 -0.04296239 0.38612816 -0.20684068 0.5057363 -0.15377642 0.20488758 0.19347647 -0.38921607 0.4907454 0.14643288 0.15885743 -0.4628293 -0.28104812 0.038473 0.089696065 -0.06497404 -0.61562985 0.73327714 -0.300682 0.1668307 -0.027967023 0.25658855 0.36931404 -0.02869227 0.29698107 -0.3465746 -0.033016365 0.14225765 0.50019526 0.5302989 0.19650826 -0.4008043 0.16459897 -0.026472447
effici 0.073893644 0.44222584 0.079068124 -0.05976321 -0.03210839 -0.6454994 0.104962766 0.40392467 -0.3433516 -0.38333586 -0.073264934 -0.71396756 -0.062262174 0.20803319 0.41499585 -0.18578337 0.2037983 -0.2389393 -0.122610904 -0.7351148 0.3162306 0.09306763 -0.18241243 -0.2594187 -0.23517029 -0.0061941585 -0.23511451 -0.26450065 -0.2189029 -0.05812643 0.47609067 0.21334201 0.13247518 -0.21997835 -0.25083336 0.3627374 0.14325334 -0.32464263 -0.23672368 -0.6460313 0.15368873 -0.41527086 -0.17000367 0.11726787 0.39191324 -0.033475123 -0.24255332 0.17865348 0.28736144 0.24789692 0.037577573 -0.12835154 0.12467249 -0.17117064 -0.48159942 0.36154526 0.019986304 0.03257379 -0.39134592 0.29088652 0.18065865 0.2468657 -0.075177014 0.27596456 -0.46498105 0.52313286 0.06631363 0.2911764 -0.52139807 0.25609165 -0.01609322 0.2233454 0.44428307 -0.40578666 0.43553877 0.19780362 0.16260049 -0.33499974 -0.02360236 0.15957977 -0.15116666 -0.16509365 -0.36582616 0.76510495 -0.060293645 0.022934504 0.21835853 0.22565964 0.45716652 0.039208718 0.4570995 0.047695793 0.09382947 -0.0976061 0.4731099 0.49899182 0.12520024 -0.37089276 0.37470672 0.09292849
framework -0.19760315 0.6169334 -0.094325505 0.22468834 -0.058917724 -0.5046171 0.23100777 0.58229375 -0.44624412 -0.36150625 -0.11980708 -0.6191489 -0.18829684 0.23603033 0.4937112 -0.117687605 0.21923955 -0.16638432 -0.2511416 -0.90004116 0.23164923 0.2767575 -0.072340086 -0.15972766 -0.32145128 -0.03762555 -0.37339923 -0.52552325 -0.2885095 -0.09188024 0.3958173 0.082008585 0.3434654 -0.5404087 -0.21701112 0.52976876 0.30686122 -0.16073278 -0.21280073 -0.91300905 0.12552176 -0.07589598 -0.3339792 0.16545814 0.28236032 0.021168627 -0.505083 0.43138397 0.4463991 0.115380175 -0.19900757 -0.07320016 -0.019049335 -0.06851919 -0.4925409 0.28273913 -0.08061363 0.060829315 -0.32464367 0.25332165 0.35890865 0.33786637 -0.055017505 0.037601434 -0.19806372 0.33421224 0.10295847 0.4989784 -0.5699904 -0.033489306 0.17177272 0.64185095 0.4925108 -0.28215814 0.6836319 0.026778925 0.24466121 -0.34946397 -0.09422714 -0.27190042 -0.429748 -0.07122225 -0.14426868 0.5505854 -0.19194366 -0.3422035 0.34677216 0.0902137 0.356348 0.032649156 0.43598387 0.16398461 0.18940265 -0.11571562 0.6827994 0.6180863 0.026428077 -0.33983266 0.0622217 0.33638373
geometri 0.028821355 0.31613103 0.035693835 0.074948 -0.1896493 -0.44295532 0.25898308 0.4862471 -0.22470768 -0.654257 0.17425132 -0.6392169 -0.04307318 0.25593585 0.22450477 -0.25315642 0.32117593 -0.67260486 -0.039214823 -0.35097268 0.18300326 0.20447089 -0.21550143 -0.27892464 -0.06687755 -0.039634716 -0.28957963 -0.26274475 -0.1436057 0.11965116 0.7204879 -0.108991966 0.08435282 -0.34667364 -0.20530398 0.4883624 0.1536429 -0.21046133 -0.47190255 -0.8177353 0.42338392 -0.67576873 -0.13550945 -0.058812108 0.25684398 -0.0752837 -0.22457433 0.27385727 0.19703203 0.30305246 -0.1595985 -0.24314472 -0.16190676 -0.18844314 -0.649799 0.47526574 0.054844845 0.025845306 -0.5407363 0.17483112 0.15728126 0.2745379 0.029119316 0.13339621 -0.4377865 0.5334889 0.24971156 0.23266464 -0.47419876 0.23785639 -0.010994624 0.3178974 0.5803717 -0.18458435 0.5710877 -0.10055897 0.033755135 -0.39212257 -0.25501564 0.36290237 0.0042599 0.033583514 -0.16927911 0.78359085 -0.21939898 -0.11728908 0.27254277 0.24345635 0.23635364 0.13854954 0.40189505 0.0009578485 -0.11997632 -0.037308153 0.43383315 0.53789777 0.21722901 -0.6399165 0.34477845 0.25228286
enabl -0.04262964 0.34873235 0.06822389 0.018945538 -0.050082408 -0.60197306 0.19450018 0.6058503 -0.2532953 -0.38674152 -0.031889696 -0.64330494 -0.121429466 0.1528749 0.23424174 -0.20795055 0.1604597 -0.37886846 -0.057536956 -0.5134855 0.17960876 0.13096587 -0.06534573 -0.2372299 -0.09663504 0.0926801 -0.291612 -0.3086049 -0.24566416 0.0021886046 0.51679647 0.0026040052 0.06372883 -0.20563853 -0.30013484 0.560302 0.07054137 -0.2388696 -0.30657277 -0.67335355 0.27768913 -0.37702462 -0.16346505 0.16150558 0.2839281 -0.06591649 -0.24092695 0.099412404 0.19708468 0.24424528 -0.06520122 -0.26234722 0.04353043 -0.104892544 -0.4383855 0.3550087 0.12194471 -0.028953364 -0.42925504 0.16730085 0.17597401 0.15201813 -0.115351066 0.0077108564 -0.4472613 0.52848417 0.104947306 0.28534436 -0.4551471 0.22705846 -0.1348385 0.26128772 0.46544147 -0.23157965 0.5024093 0.1291204 0.052330647 -0.33809596 -0.27839345 0.119884394 -0.13778298 0.021623792 -0.3844698 0.6274448 -0.1323787 0.058623146 0.29806572 0.21658991 0.29213622 0.03329219 0.38337532 0.02779392 -0.031877138 -0.0503852 0.47553197 0.4620244 0.17450753 -0.42204937 0.1668301 0.020578431
multi -0.13809094 0.54851675 -0.041218534 0.23443377 -0.31818905 -0.19636549 0.27132773 0.6368263 -0.39233953 -0.77673995 0.27571574 -0.756033 -0.13373798 0.419313 0.34695604 -0.3339598 0.6578961 -0.7730464 -0.26161537 -0.082710885 -0.06242128 0.286629 -0.09857122 0.015833635 -0.054392636 0.1583166 -0.5750575 -0.48083737 -0.16869012 0.028863864 0.65173507 -0.30882066 0.073488906 -0.73522824 -0.27234584 0.9426284 0.48770425 -0.03620123 -0.5714067 -1.1120468 0.42177886 -0.5547321 -0.2405704 -0.0316018 -0.11400738 -0.27111554 -0.43112195 0.5315877 0.2542547 0.22732559 -0.5641513 -0.4045594 -0.2215628 -0.15105022 -0.6592776 0.28657645 0.08006929 -0.15703887 -0.61078936 0.01673169 0.52454257 0.2246255 0.20020385 0.15230228 -0.12297377 0.62885064 0.3761563 0.3878794 -0.5871243 -0.0073422976 0.22222061 0.6036101 0.8426758 -0.022746418 0.69264495 -0.12928998 -0.17198488 -0.32161868 -0.2906509 0.103732064 -0.14130639 0.0940412 0.19674878 0.4344419 -0.22005324 -0.48759347 0.5878219 0.15152925 0.1106354 0.27671966 0.5125644 0.3503419 0.0391029 -0.20482852 0.61477315 0.65412784 0.014360923 -0.5201769 -0.06680381 0.41517454
work -0.08619963 0.5748271 -0.016226692 0.024644433 0.070839435 -0.6345698 -0.08109684 0.5315584 -0.45116222 -0.3093994 -0.09742997 -0.6130647 -0.11328903 0.23370035 0.56663024 -0.18338391 0.18278803 -0.080648035 -0.2153837 -0.9581536 0.21071924 0.06874932 -0.076257356 -0.1515135 -0.34499496 0.030089345 -0.2553448 -0.38596517 -0.29046014 -0.051220633 0.26059815 0.23246567 0.22882189 -0.42742142 -0.20806131 0.42671964 0.122016 -0.3844721 -0.0635228 -0.7856413 0.0406155 -0.16185267 -0.32912943 0.165477 0.43720543 -0.028478745 -0.47440878 0.25424075 0.40664935 0.08253204 -0.029986745 -0.112825006 0.11071977 -0.012878707 -0.36927134 0.18322141 -0.083566345 0.019513829 -0.3007614 0.27369368 0.2912812 0.23450758 -0.1261482 0.103360504 -0.42124757 0.44609356 0.123849 0.4631041 -0.6414241 0.21295725 0.040528923 0.40529528 0.41198015 -0.3769276 0.48528355 0.31921348 0.19372371 -0.3473875 0.04111727 -0.2678802 -0.38784155 -0.12274248 -0.2343848 0.67692786 -0.003920803 -0.106824845 0.17085512 0.20530619 0.50854194 0.068750836 0.47605273 0.10553463 0.21041396 -0.15353869 0.5621928 0.5326364 0.024794003 -0.27696493 0.17919734 0.15117481
surfac -0.013717132 0.12166164 0.08061194 0.23029682 -0.20511639 -0.4647673 0.2682088 0.4008644 -0.24490288 -0.500487 0.1601427 -0.587382 -0.048062682 0.30407843 0.40837207 -0.025677785 0.23169021 -0.7160902 -0.030879539 -0.6461535 0.32538393 0.2371749 -0.22184782 -0.29718685 -0.004585902 -0.042156123 -0.28260747 -0.21471097 -0.059720434 0.23967113 0.62327933 0.09778928 0.10086785 -0.3822282 -0.17524065 0.27187556 0.04921205 -0.36832374 -0.42775849 -0.7332179 0.17397179 -0.49714744 -0.06270138 -0.21495965 0.4334474 -0.040097624 -0.15805645 0.13351119 0.37505797 0.34060186 -0.013836548 -0.1970961 -0.2406835 -0.09402855 -0.60390025 0.43413642 -0.011672445 0.023648582 -0.4480041 0.23884274 -0.071218856 0.36891347 0.06663067 0.29079726 -0.65209496 0.31193104 0.22980352 0.31976444 -0.34471598 0.45000315 0.082320124 0.23829554 0.34754568 -0.42411485 0.5483472 -0.05134911 0.1276944 -0.4151807 -0.24575734 0.3291262 0.12917884 -0.2075447 -0.10015715 0.8521582 -0.20756553 -0.1878997 0.032565825 0.42811686 0.26415348 0.16444269 0.303622 -0.02647167 -0.10592976 -0.002098118 0.46800455 0.55464315 0.44553348 -0.6075227 0.5506776 0.3060722
task -0.119140446 0.5771456 0.0772897 -0.08551745 0.13379464 -0.7164763 -0.015420039 0.6331968 -0.31226656 -0.21379963 -0.15616843 -0.64413553 -0.13338016 0.16864702 0.36713853 -0.31276757 0.010374184 -0.06811402 -0.15079054 -0.73378193 0.18009569 0.004057576 -0.054536577 -0.15726447 -0.29805908 0.07473636 -0.13645165 -0.3805599 -0.34821314 -0.15940326 0.3787708 0.1150549 0.109200634 -0.13357602 -0.1910468 0.5416558 0.117230624 -0.24365784 -0.062420983 -0.68958694 0.13841721 -0.25754184 -0.29409352 0.28990865 0.33195913 -0.012293586 -0.4215165 0.16469476 0.26055405 0.09710677 0.042180963 -0.19777274 0.2117063 -0.045309264 -0.3017901 0.24915317 0.056673497 -0.06282275 -0.37422737 0.16578537 0.2823807 0.15522522 -0.23307106 -0.11101791 -0.3865448 0.50484353 0.038956966 0.38776755 -0.62063754 0.20853621 -0.13997564 0.24985932 0.439484 -0.20300609 0.44431 0.37306684 0.12247313 -0.30634072 -0.09347627 -0.13219938 -0.3576562 0.007166703 -0.4289465 0.55053294 -0.020869777 0.1491292 0.22360612 0.14063656 0.49458998 0.003978293 0.5315914 0.0766333 0.11611976 -0.12788662 0.491983 0.42262632 -0.08094061 -0.36310646 0.046350796 -0.024837859
textur 0.050451547 0.5418223 0.017963126 -0.021777943 -0.119413614 -0.51891845 0.24564175 0.6240444 -0.2657267 -0.65567815 0.10015133 -0.7004939 -0.1126155 0.24497254 0.19702218 -0.2928855 0.34869775 -0.578548 -0.18348719 -0.35780254 0.10570516 0.17799766 -0.15225826 -0.21356624 -0.17656279 0.017124029 -0.30649453 -0.35681278 -0.23188795 0.123320594 0.59346217 -0.16687159 0.04211237 -0.45386526 -0.2536215 0.63846713 0.21264474 -0.13822052 -0.3745849 -0.85645473 0.42104197 -0.6855696 -0.14245084 0.12958446 0.23911512 -0.08221789 -0.39349768 0.35554025 0.19227117 0.20228799 -0.20068207 -0.2517705 -0.04348282 -0.19812332 -0.5759712 0.39464715 0.10475178 0.013615754 -0.5218839 0.15172333 0.26612636 0.15103497 0.0150769465 -0.007789719 -0.25916478 0.6692387 0.25617465 0.31548014 -0.5743691 -0.007913452 -0.05157357 0.3626034 0.67087686 -0.039337356 0.5615619 0.027813608 0.015015634 -0.2626964 -0.17006493 0.18732204 -0.18023583 0.13678317 -0.09266895 0.65395176 -0.100169405 -0.15207328 0.4535278 0.19647802 0.34555456 0.10090663 0.50682926 0.16569018 -0.046501864 -0.099928275 0.52470815 0.50033087 0.019306758 -0.5770744 0.18411104 0.18223237
paper -0.299712 0.6692692 -0.2590245 0.51082635 -0.28586078 -0.33637765 0.27374604 0.571588 -0.5633641 -0.34859234 -0.06671409 -0.5705808 -0.31929928 0.14651173 0.7045943 0.019960696 0.3701386 -0.11165097 -0.20952885 -1.0818918 0.2437458 0.545467 -0.1593601 -0.03271347 -0.3448898 0.018318824 -0.5790566 -0.7983969 -0.30717924 -0.17544647 0.37101948 0.17623955 0.5684107 -0.7793127 -0.13893388 0.6596833 0.3267468 -0.08466783 -0.25259042 -1.2063605 0.024608573 0.18502007 -0.43230653 0.07906394 0.27325004 0.09615429 -0.58888334 0.7378381 0.4989394 0.124295354 -0.30530623 -0.025077002 -0.25637493 -0.047551833 -0.37572074 0.26161587 -0.12362297 0.1590675 -0.30881044 0.30831113 0.3649524 0.5362226 -0.0406512 0.13291971 -0.10544824 0.13779372 0.01740092 0.6084017 -0.47259685 -0.042059615 0.50277025 0.986491 0.54505557 -0.4298005 0.8225683 -0.28667417 0.3877335 -0.5773088 -0.082133085 -0.536307 -0.45737582 -0.08055072 0.063551195 0.49651456 -0.30052963 -0.6423194 0.2896427 0.060911313 0.31949896 0.1728597 0.4241505 0.14237677 0.26563028 -0.09199613 0.87067074 0.737256 0.06527398 -0.33098713 0.018109543 0.569422
techniqu -0.067704946 0.4387412 0.06557126 0.06983607 0.014730121 -0.62254465 0.018663881 0.5238404 -0.35436812 -0.23888849 -0.11168649 -0.6156594 -0.11516331 0.24269463 0.51688904 -0.1649493 0.09948095 -0.19172277 -0.13741939 -0.8644072 0.26389834 0.07038807 -0.0849423 -0.15775454 -0.28020036 0.019932272 -0.2130817 -0.31343275 -0.2589153 -0.012964413 0.35694355 0.19230223 0.17032003 -0.28636065 -0.19671454 0.3571971 0.11982425 -0.35554808 -0.08761904 -0.7101873 0.028642997 -0.22927569 -0.26673475 0.13779616 0.4451405 -0.008746933 -0.34487668 0.12618448 0.41224846 0.14601034 0.0036019916 -0.12051014 0.094015785 -0.009904139 -0.37439865 0.26767644 -0.00683607 -0.036332786 -0.28419793 0.2849988 0.16806632 0.25576296 -0.17780817 0.1520266 -0.52964145 0.3998053 0.0864802 0.40506023 -0.5284961 0.31295708 0.0042547537 0.2575995 0.3593979 -0.3826005 0.45811906 0.31748322 0.136285 -0.36030346 -0.057358027 -0.09990321 -0.24798267 -0.17102191 -0.25530654 0.6851645 -0.03965966 -0.020549998 0.10302558 0.25244766 0.45110822 -0.0012503513 0.44577795 -0.01603052 0.13337281 -0.11928446 0.5094401 0.49520856 0.09031935 -0.3640853 0.21382436 0.115472406
howev -0.005859062 0.33592296 0.11436828 -0.07439968 -0.069846034 -0.64571863 0.09714868 0.5915498 -0.20886636 -0.3889403 0.000520332 -0.60783285 -0.074593425 0.11256001 0.29574817 -0.254828 0.22196078 -0.34600976 0.04281318 -0.4607796 0.19787164 0.08695316 -0.10575026 -0.19455974 -0.083858706 0.16246423 -0.21864499 -0.2240019 -0.23240669 -0.060855657 0.6103452 0.0780967 -0.03919377 -0.10066878 -0.27316406 0.5611723 0.1329499 -0.2771212 -0.2773604 -0.6702869 0.29909584 -0.456057 -0.19518593 0.14418322 0.31233352 -0.067882985 -0.15380043 0.06906401 0.10947742 0.2421809 -0.050970167 -0.27053624 0.09278175 -0.124159634 -0.38227615 0.35258436 0.15683216 -0.08968933 -0.50359637 0.12761706 0.17406152 0.17803949 -0.16033088 0.09005706 -0.57349026 0.62485266 0.12422509 0.25700992 -0.48741648 0.39423087 -0.17217186 0.19169867 0.51696783 -0.25983176 0.40663952 0.20320283 -0.03115526 -0.40749687 -0.26845846 0.18461646 -0.059101198 0.03350594 -0.46290278 0.7311715 -0.1174277 0.20294355 0.25073433 0.22760405 0.28009373 0.07194882 0.42875257 -0.0735911 -0.00414147 -0.08281883 0.44037023 0.45189697 0.15914491 -0.44540542 0.1854521 -0.041063756
larg -0.27781206 0.49712443 0.040929746 0.18438675 -0.14995411 -0.40612027 0.30077377 0.77313143 -0.18620563 -0.3973956 0.054601952 -0.4713677 -0.22587147 0.19245791 0.29570103 -0.18662639 0.29240182 -0.31393492 -0.060572125 -0.16629337 -0.08993173 0.3104299 0.17569992 -0.12265135 0.05582548 0.17620236 -0.3243239 -0.46170014 -0.13937917 0.01414513 0.7436978 -0.30143586 -0.0108360825 -0.42331296 -0.3582338 0.8994482 0.4393311 -0.040040147 -0.49138045 -0.8472276 0.48772955 -0.38448477 -0.27396014 0.0117321415 0.05762034 -0.07670232 -0.37670445 0.26492807 0.2258134 0.08105322 -0.3363918 -0.41594934 -0.17015493 -0.0033775403 -0.596623 0.3925912 0.09991638 -0.23536445 -0.45666492 0.04111185 0.46774274 0.23734905 -0.1014655 -0.27218097 -0.1643365 0.57859325 0.37289023 0.44219914 -0.5130852 0.055482753 -0.16313238 0.5859675 0.63417894 0.013244433 0.6275953 0.103841774 -0.060818136 -0.18575418 -0.57483613 -0.034180276 -0.085951984 -0.00028957147 -0.37034804 0.5936105 -0.40828267 -0.012641645 0.5573942 -0.014008142 0.19690701 0.16078305 0.4190286 0.11852344 -0.02518119 -0.15571164 0.6626799 0.6208346 0.29744264 -0.58460593 -0.19559665 0.0017092944
transfer -0.19685072 0.21093191 0.1568034 0.32417655 1.0359375 -1.8854101 0.6447142 2.4020653 0.51933616 0.8058218 -0.3881802 -0.4007316 -1.3241436 0.0031345515 -1.0758055 -0.19200742 -1.7723703 -1.2418745 0.2796924 -1.4447908 0.32188728 -0.0547389 1.1852168 -0.13351628 0.62238204 0.36961415 -0.30080786 -0.7658304 -0.4370211 0.82940215 -0.49204412 -0.7756438 -0.07027371 -0.07702855 -0.4853097 0.43966392 -1.002253 -0.5569228 0.46300608 0.13569167 -0.5668914 0.45268935 0.54506093 0.21932834 1.8060155 -0.0008810339 -0.6768085 -1.3305119 1.2476338 1.0497057 0.60844404 -0.5943497 -0.5245197 0.7422993 0.98989344 -0.14668302 0.8534022 -1.0052909 -0.03326721 -6.953266e-05 -1.1506058 -0.36671367 -0.5589682 -1.5429553 -1.6904249 -0.52525866 -0.051848557 0.8997434 0.223376 1.3739212 -1.3077296 -0.8357253 -0.794828 0.41830832 0.5878943 1.3073659 -0.1281314 -0.048253965 -2.135217 -0.38685375 0.4620379 0.2726332 -1.4957912 0.34834334 0.28340697 0.41311076 -0.2962491 0.9028825 0.4893404 -0.109845795 -0.2675787 -0.06987415 -1.2818213 0.6613096 0.94095397 -0.4358231 0.9216803 -0.36461842 -0.40584546 -1.3974925
interact -0.19721155 0.31544137 0.025925808 0.015226485 -0.051994663 -0.786843 0.2151412 0.679737 -0.17383103 -0.17635965 -0.15419582 -0.5235237 -0.18540724 -0.15339266 0.118222214 -0.19455609 -0.0535357 -0.20447308 0.17618512 -0.6650303 0.24255367 0.19298452 -0.083801985 -0.2241444 -0.09439366 0.22759773 -0.26097584 -0.38260734 -0.28835568 -0.30600837 0.55186903 0.22675838 0.114810064 0.2394784 -0.12876144 0.6151324 -0.09866042 -0.15650305 -0.14231658 -0.6675607 0.21373026 -0.06575817 -0.25644982 0.26585665 0.34445047 0.12855262 -0.19295612 0.07989237 0.043268107 0.22525553 0.018635249 -0.17306 0.105468296 -0.046987526 -0.17808937 0.4049105 0.15308887 0.08317518 -0.51093996 0.18570744 0.064088516 0.18313156 -0.3666641 -0.1354642 -0.5548886 0.29810378 -0.18413787 0.27529085 -0.26366222 0.43762496 -0.077365704 0.2568556 0.37855595 -0.21064694 0.4801718 0.089197 0.106628776 -0.59532815 -0.34293485 0.046039354 -0.15490346 0.1720974 -0.6644715 0.46630073 -0.25191778 0.27623913 0.19958648 0.16173564 0.2256016 0.021194924 0.37525952 -0.24813992 -0.07366883 0.01382003 0.42331573 0.31166035 0.18832615 -0.38341013 0.026407856 -0.03783815
graph -0.29040122 0.3100281 0.3111068 0.29953727 -0.25736994 -0.5117147 0.18406929 0.4811809 -0.0037056538 0.0754068 -0.23739004 -0.49482587 -0.180426 0.13099276 0.37977707 -0.15556626 -0.2153198 -0.21034609 0.18919307 -0.6043827 0.1436745 0.28075558 -0.22814672 -0.23499699 -0.15322615 0.06496556 -0.26991877 -0.3042263 -0.37692714 -0.27312785 0.6050794 0.036013354 0.016187401 0.0921331 -0.07015185 0.36024848 0.26382378 -0.1370621 -0.23606037 -0.7541685 0.06227699 -0.35965562 -0.18817858 0.08360823 0.3941638 -0.020253545 -0.20226808 0.14909984 0.26719144 0.24313727 0.0039434843 -0.08313368 0.014820131 -0.0041504405 -0.2972977 0.6793418 0.2616896 -0.1465595 -0.51703763 0.23519215 -0.03225095 0.4854468 -0.29275492 0.10031552 -0.6327862 0.13264903 0.020320512 0.42415518 -0.23519884 0.47989088 -0.08524762 0.23361365 0.18366972 -0.43714824 0.5099707 0.09793595 0.21451077 -0.39753726 -0.32461762 0.12390262 0.13082302 -0.18138169 -0.6013272 0.87665874 -0.46858317 0.046246774 -0.022557814 0.2646111 0.41398758 -0.12060088 0.24347873 -0.4030776 0.09311929 0.13519675 0.59729564 0.64231133 0.15130754 -0.51780427 0.13983539 0.02950112
featur -0.19468948 0.2588299 0.13368878 0.28708357 -0.05284936 -0.54248637 0.31748104 0.7326958 -0.07039213 -0.2812465 0.020767957 -0.48796406 -0.2089221 0.27324763 0.14889391 -0.12670429 -0.06468491 -0.6363063 -0.018474407 -0.52840185 0.1289055 0.18373653 0.015239701 -0.25290003 0.102678314 0.018032717 -0.25437975 -0.32372335 -0.1825548 0.17248917 0.5043366 -0.11417741 -0.0052990154 -0.22624525 -0.20046568 0.41780344 0.04011086 -0.29013836 -0.32730052 -0.63956743 0.17934746 -0.3875202 -0.030226236 -0.07110691 0.3940861 -0.07455729 -0.2890924 0.016278028 0.35854045 0.31942764 -0.06714507 -0.26823026 -0.2243504 0.07765664 -0.43134913 0.40228015 0.118249975 -0.14520983 -0.39374107 0.11523555 0.025672633 0.21693246 -0.06669278 -0.10862819 -0.59973174 0.1778083 0.1855235 0.36190194 -0.2933248 0.42269498 -0.12428711 0.19941975 0.23913622 -0.20477793 0.526353 0.15333818 0.061762676 -0.3091688 -0.513175 0.16637927 0.15051231 -0.037299618 -0.2768464 0.6331394 -0.20570277 -0.038713213 0.08423271 0.33012545 0.22403847 0.084119804 0.25591823 -0.06457063 -0.20449236 0.038551956 0.5065573 0.46147242 0.34545067 -0.62782925 0.1786189 0.031361382
both 0.11066945 0.585496 0.13423163 -0.3790701 0.274932 -0.970325 -0.19716436 0.513335 -0.44516155 -0.3149593 -0.12032419 -0.8476964 -0.019365257 0.28372777 0.38320747 -0.35899597 0.03712065 -0.04253791 -0.23023564 -0.9807627 0.30252233 -0.16529247 -0.06000247 -0.22584043 -0.3939729 0.061758842 -0.09935492 -0.25695872 -0.33695832 -0.07601624 0.22684939 0.33307156 0.12537451 -0.07908452 -0.3324922 0.41556987 -0.12305545 -0.49496132 -0.0060866727 -0.5761573 0.09711536 -0.3839474 -0.29228446 0.31557253 0.4843449 -0.022332303 -0.3952771 -0.030241122 0.3615153 0.12223707 0.19505265 -0.20199928 0.36618876 -0.08447787 -0.40604198 0.19487785 0.01536511 0.030974468 -0.38746637 0.26810396 0.2491684 -0.017791167 -0.21278559 0.12680782 -0.55773234 0.73271513 0.0025320614 0.23885652 -0.7750752 0.36380467 -0.18914191 0.046647817 0.46626157 -0.3715017 0.30133915 0.6311293 0.1722652 -0.3305758 0.06376341 -0.0066944347 -0.40427703 -0.1249725 -0.56881064 0.7525627 0.14908588 0.30166444 0.21082862 0.2974675 0.6486019 0.011243236 0.62474275 0.17345734 0.07365605 -0.19661225 0.40569055 0.36394668 -0.06024666 -0.2421211 0.2765973 -0.105241634
show 0.05719204 0.8281539 0.14942916 -0.5103109 0.64022666 -1.0794458 -0.5611912 0.41016564 -0.60118383 -0.1882484 -0.25460365 -0.9042911 0.110215135 0.5703339 0.6414845 -0.43778607 -0.14312592 0.21829835 -0.5310554 -1.3546036 0.26908833 -0.47555363 0.031257387 -0.23270893 -0.59673136 -0.0905046 0.108886175 -0.23257044 -0.3616763 0.019424086 -0.21200137 0.47224534 0.14241451 -0.1252223 -0.2871447 0.19084926 -0.14625925 -0.73645926 0.34027186 -0.41037557 -0.12284332 -0.4033367 -0.2885595 0.37146887 0.61475945 -0.056336533 -0.75345993 -0.039187517 0.62269694 -0.122586176 0.38684753 -0.04799922 0.60557467 0.022725286 -0.4788402 0.008423352 -0.11694881 0.040671207 -0.1914643 0.39006925 0.38213193 -0.10135839 -0.23204024 0.11258867 -0.48994634 0.6721485 0.059573077 0.40499943 -1.0963447 0.23973809 -0.22030123 -0.11848474 0.25886217 -0.37233004 0.2468911 1.0699308 0.27378422 -0.060747553 0.45670128 -0.24888068 -0.75351065 -0.3845427 -0.48666817 0.78741914 0.40828633 0.31429124 0.06283078 0.3322577 1.049501 -0.08802228 0.77261543 0.39537466 0.24317065 -0.33243912 0.30037332 0.40290612 -0.24157868 -0.14306793 0.32474625 -0.14483511
signific 0.18427143 0.5809594 0.14352125 -0.35383698 0.330223 -0.90478367 -0.33297873 0.43740574 -0.51844776 -0.32815602 -0.11156581 -0.8283091 0.034740295 0.40131918 0.57320964 -0.36948666 0.079490475 0.0028306823 -0.270313 -0.96256673 0.3375953 -0.2981577 -0.10656295 -0.24465744 -0.42286468 -0.0100048 0.014046061 -0.15017442 -0.25022107 -0.015025782 0.2038546 0.38283342 0.06395245 -0.12507068 -0.29875714 0.19725476 0.06154486 -0.5968375 0.05987117 -0.5222833 0.015990973 -0.4111997 -0.27825588 0.22536607 0.48482242 -0.048280444 -0.37585822 0.009100802 0.40433034 0.14152808 0.22816928 -0.16103868 0.43444523 -0.14485033 -0.4006193 0.14790629 -0.041918553 -0.04123336 -0.29731694 0.31916654 0.262245 0.07218185 -0.17256275 0.22935994 -0.650536 0.73747236 0.079242095 0.3093967 -0.839234 0.3959958 -0.14727126 -0.05891868 0.41400766 -0.49846238 0.252944 0.70239115 0.12511495 -0.1996157 0.20866525 -0.015347754 -0.38808316 -0.3014886 -0.46187901 0.8747943 0.2309912 0.28116217 0.14697711 0.30909368 0.7520837 -0.010677276 0.61941105 0.19052278 0.17385678 -0.24185848 0.36254635 0.41561252 -0.09208834 -0.26160467 0.40062025 -0.04919284
have -0.13639337 0.31036434 0.10648631 0.014924122 -0.072561204 -0.64497995 0.04592852 0.60183305 -0.19519936 -0.4065662 0.032230984 -0.5139865 -0.033299632 0.21985874 0.5779884 -0.15727586 0.23734432 -0.32514685 -0.041005053 -0.6434197 0.23142639 0.1545956 -0.11650518 -0.23811372 -0.11982153 0.18676428 -0.20841219 -0.24502574 -0.13116802 0.13976152 0.519413 0.061847106 -0.062093437 -0.28286847 -0.30011508 0.40020525 0.25680882 -0.35383895 -0.17439526 -0.7340629 0.14210732 -0.34831142 -0.22845234 0.017301321 0.4111563 -0.06388821 -0.17953753 0.09654222 0.3305531 0.23254322 -0.09119175 -0.26939538 0.055950403 -0.08662665 -0.42510998 0.3655888 0.03437404 -0.07905275 -0.42369244 0.21658927 0.16205344 0.27371252 -0.04181605 0.14403988 -0.64873904 0.5419535 0.18816614 0.46111628 -0.5566185 0.4412368 -0.049608856 0.24110359 0.46924546 -0.3865753 0.5193404 0.27064744 -0.033822708 -0.34227726 -0.24678177 0.04525512 -0.08569705 -0.12794107 -0.3334895 0.8632738 -0.09611085 0.013856843 0.068939485 0.28995025 0.29850706 0.082408376 0.40392035 -0.033956934 0.089789 -0.12978488 0.48320496 0.60059845 0.3923547 -0.39312893 0.25684336 0.028186921
input -0.16534334 0.4250249 0.084398456 0.119327925 -0.080537304 -0.413282 0.31347838 0.7290719 -0.14317565 -0.5296003 0.097251885 -0.52500504 -0.14129764 0.2680214 0.09215194 -0.29301715 0.18404861 -0.62300766 -0.12450685 -0.21521953 0.0073010293 0.17982218 -0.029386234 -0.17056014 0.06540038 0.053621408 -0.27392107 -0.39869738 -0.20891406 0.086617924 0.6209133 -0.25346768 -0.0042081354 -0.3467525 -0.17841373 0.7640521 0.23809604 -0.109434396 -0.41599134 -0.81935036 0.39770937 -0.5224619 -0.14309669 0.052353773 0.16464415 -0.13993537 -0.37654802 0.2891579 0.20009764 0.17930098 -0.20207606 -0.32452473 -0.16997087 -0.057508487 -0.57115066 0.3689728 0.13480732 -0.11094637 -0.5584572 0.02049162 0.25548577 0.17371053 0.009500312 -0.19391169 -0.35006782 0.42932618 0.22499374 0.33617094 -0.47633183 0.14344628 -0.11171578 0.40487093 0.5300602 0.04292273 0.57347447 -0.014990829 -0.011041533 -0.28998145 -0.41013476 0.17677815 -0.008308991 0.1823388 -0.164686 0.49399197 -0.19661024 -0.096594825 0.37344575 0.22351801 0.15571253 0.15202738 0.37313905 0.12810837 -0.13907917 -0.08170674 0.46133336 0.49040994 0.08806678 -0.61718225 0.06615327 0.12005274
experi 0.033950225 0.95618725 0.2237773 -0.73753774 0.74332476 -1.4172943 -0.5864824 0.47219098 -0.72608745 -0.11494014 -0.32651144 -1.0392194 0.08435847 0.5230619 0.58540213 -0.6176342 -0.21894912 0.45654428 -0.6003665 -1.5631917 0.40203515 -0.5222332 -0.017764442 -0.32564744 -0.7465439 -0.048345853 0.2045038 -0.24093851 -0.49581897 -0.21644677 -0.275299 0.6949969 0.1592256 0.046801496 -0.37352216 0.16803493 -0.17500013 -0.76884943 0.5237545 -0.5278561 -0.23855059 -0.185678 -0.43678135 0.59249496 0.66540146 -0.011116457 -0.7887985 -0.09981565 0.65795183 -0.12695706 0.49940374 -0.03588189 0.9015066 -0.018817022 -0.38500017 -0.006429354 -0.14150998 0.07581732 -0.32786182 0.45379823 0.3987401 -0.197638 -0.30131194 -0.02448448 -0.5995002 0.79453456 -0.15269615 0.38650322 -1.1526438 0.2795537 -0.19153014 -0.19554436 0.26393545 -0.4257211 0.15236971 1.3501747 0.29756004 -0.04048604 0.5392352 -0.40061444 -0.91668355 -0.26141718 -0.7240704 0.70098686 0.42384532 0.54943806 0.16152425 0.34219286 1.1771512 -0.09390778 0.9670471 0.3991757 0.18806486 -0.50238466 0.2677019 0.40280542 -0.38012755 0.03563686 0.3594279 -0.18231724
state 0.5840143 0.9672988 0.3152643 -0.5982554 0.7812434 -1.6145023 -1.1737962 0.32221264 -1.0891938 -0.028288016 -0.5098658 -1.5200533 0.17058176 1.1970861 1.213559 -0.89487183 0.2814536 0.24367298 -0.7983185 -1.6529498 0.32114875 -1.1021886 0.09152648 0.11513998 -0.8022082 -0.07259562 0.311947 0.22242762 -0.6237469 0.21665566 -0.35066307 0.5649609 -0.015070058 -0.78392 -0.564159 -0.34243798 0.17942418 -1.2058173 0.37529194 -0.14490868 -0.43925986 -0.9987196 -0.3841617 0.049205422 1.1303688 -0.5022397 -0.96589583 -0.6989331 1.186629 0.060538623 0.2347494 -0.12530315 0.63995147 0.14742519 -0.63569534 -0.49029446 -0.32110813 -0.53171897 0.20318101 0.6965783 0.4835993 -0.47243887 -0.21655577 0.451727 -1.0397973 1.5155386 0.601693 0.6181656 -1.6632988 0.98460805 -0.24949448 -0.6408266 0.4124959 -0.88528633 -0.17272617 1.8324946 0.26525825 0.1873634 0.8170727 -0.28444207 -1.0280808 -1.0171056 -0.31499228 0.9399835 1.0779448 0.45998147 -0.18647076 0.5299129 1.6492766 -0.23957048 1.097842 0.4110065 0.4903568 -0.6230466 0.3778352 0.09934027 -0.31283802 -0.02110802 0.4653727 -0.2902433
consist 0.075923175 0.6506074 0.05324327 -0.09228288 0.1008764 -0.57973826 0.079160854 0.67349386 -0.34089696 -0.58712137 0.11233922 -0.7235662 -0.078103155 0.3652409 0.22885439 -0.4450803 0.25482807 -0.4742287 -0.32410443 -0.39063966 0.07050796 -0.026790679 -0.08350087 -0.12684327 -0.18558335 -0.0034164658 -0.21525687 -0.31924853 -0.22136945 0.08767809 0.38995844 -0.14520666 0.05031293 -0.4287724 -0.26832035 0.6409884 0.2109341 -0.26146048 -0.22897771 -0.76143634 0.33594292 -0.62220025 -0.16197479 0.16724983 0.22045287 -0.17844261 -0.5206252 0.24291891 0.31111336 0.17575404 -0.1364167 -0.3054088 0.05615545 -0.14359091 -0.50329953 0.24870804 0.07418021 -0.09011355 -0.412657 0.1314699 0.3744311 0.065210044 -0.00065438537 -0.04097513 -0.33258983 0.7286116 0.24272959 0.30517012 -0.7275858 0.052818872 -0.17787379 0.17468 0.6112912 -0.045335434 0.4777726 0.28572887 0.0006866609 -0.1883908 -0.13413906 0.11276189 -0.2300433 0.05767255 -0.14832091 0.59235287 0.06371973 -0.017484285 0.43863848 0.21817371 0.43683654 0.05878216 0.5568358 0.30110675 -0.024586087 -0.17982766 0.48864868 0.4150213 -0.10498165 -0.5174872 0.14688711 0.06086542
complex -0.07123617 0.30814698 0.124692306 0.011861829 -0.036297034 -0.69613457 0.16550721 0.62580526 -0.14172362 -0.24161263 -0.09973027 -0.60912853 -0.14944038 0.07272595 0.1434173 -0.18259488 -0.033954706 -0.3764253 0.09239748 -0.590855 0.24838589 0.15455711 -0.07956057 -0.26567855 -0.09096317 0.09637926 -0.2510535 -0.32622936 -0.27024353 -0.115129955 0.57088184 0.10722211 0.07385909 -0.0021211088 -0.20234297 0.47592065 -0.015586501 -0.27804112 -0.26391342 -0.6762676 0.21131325 -0.31340465 -0.15783885 0.14978766 0.39066818 0.014288945 -0.20343758 0.09773716 0.1813566 0.2682099 0.037411638 -0.20781088 0.009087517 -0.060603242 -0.30406505 0.37454507 0.16420765 -0.025897536 -0.46964657 0.13946438 0.06979535 0.19919297 -0.21772067 -0.037577435 -0.5419943 0.3655252 0.041444257 0.26077697 -0.34188098 0.3988654 -0.1884692 0.22612377 0.35993764 -0.24561223 0.48179507 0.13779059 0.11541108 -0.45460254 -0.3453111 0.13727519 -0.036514338 0.078041054 -0.52237093 0.6871382 -0.15234512 0.14684814 0.18713786 0.2327749 0.32731733 0.064471774 0.33627054 -0.08469703 -0.09884822 0.041549053 0.5083676 0.44041777 0.1833876 -0.46943027 0.19649202 -0.042001795
