2974 100
we -0.13366581 0.3125293 -0.18168227 0.3143189 -0.45262688 -0.37705392 0.6483003 0.5717143 0.13879544 -0.78708833 0.51462364 -1.4286451 -0.29939938 0.822772 -0.5483123 -0.4767779 0.29494745 -0.30718753 -0.55660313 -0.61554474 0.12298734 0.37597176 -0.050507557 -0.10467905 -0.106359996 0.4353525 0.4946202 0.08967115 -0.5722951 -0.14262351 0.10388005 -0.61543196 0.17388019 -0.47503045 -1.1778686 0.22701992 0.5061718 -0.23076068 0.056854315 -1.1155584 -0.3167743 0.22494268 -0.31973216 -0.4773204 0.257115 -0.22958033 -0.74657667 0.5242252 0.47226664 0.80846596 -0.6192174 -0.52993447 -0.4792483 -0.16139412 0.33843377 0.01773927 0.4311141 -0.16271156 -0.7021304 0.31724492 -0.11457029 -0.047434874 0.027124016 -1.1051601 -0.7068864 0.110524334 -0.58646846 0.61660635 -0.39331302 0.14567836 0.6857188 0.7878676 0.47830987 -0.20627476 0.5615582 0.10059583 0.39288753 0.32609543 -0.49842662 -0.22962226 -0.38377464 0.44471923 -0.39356276 0.57752347 0.17511241 -0.12748958 0.6858103 0.4349349 0.018392947 -0.06851486 0.33713567 0.7444802 0.6027925 0.824775 0.8847166 0.35280457 0.07016415 -0.06288152 0.42063722 0.21301316
comput -0.2588097 0.2961297 0.16176504 -0.045460112 0.34529662 -0.30923137 0.052220855 0.74856925 -0.54040027 -0.3946373 -0.5593394 -0.62835884 -0.45143786 0.02187673 0.109945945 -0.24661401 -0.26207122 -0.14136823 -0.07598682 -0.7862287 0.17401004 -0.14910388 0.34493342 -0.23162337 -0.30586776 -0.19552761 -0.13452865 -0.21064313 -0.23551111 -0.07379114 0.32105318 -0.132998 0.008193163 -0.46111447 0.12254805 0.6630554 0.10218373 -0.07708188 -0.18964949 -0.6232532 0.26153162 -0.5052769 -0.09078433 0.24189559 0.47456855 -0.103750065 0.105261795 -0.13583362 0.23515745 0.1282689 0.39154574 -0.25026402 0.26057142 0.17031676 0.004829481 0.018131712 -0.1426597 0.040118564 -0.40105262 0.0072735944 -0.053676266 0.22288895 0.14510955 -0.28106013 -0.14376946 0.44194168 0.36375886 0.39589253 -0.36472186 0.4297174 -0.13448188 0.2206155 0.49641553 0.1370288 -0.01444293 -0.024731508 -0.13967828 -0.15947738 -0.054143872 0.22335073 -0.323683 0.074124075 -0.26912272 -0.015434103 -0.15720457 0.27149692 0.26312503 0.21003026 0.39775684 0.19924991 0.74096125 0.33194184 -0.14173307 0.29017073 0.60795796 0.40377596 0.047536854 -0.30426842 -0.104094945 -0.12714057
use -0.24596459 0.45809355 -0.012204881 -0.031944364 -0.09751796 -0.3763852 0.215038 0.6598168 -0.07841335 -0.4079033 -0.19310017 -0.3826548 -0.012058431 0.17122582 -0.039605197 -0.18986988 0.014102252 -0.23320998 -0.27574798 -0.67918223 0.1532756 0.16904688 0.024067855 -0.32258543 -0.20083532 -0.07687525 0.017907808 -0.24071287 -0.29577452 -0.045124833 0.28003675 -0.090278044 0.14017649 0.016074102 -0.35071966 0.33957937 0.042147443 -0.10531475 -0.21897094 -0.7242353 0.07090512 -0.22207548 0.028038466 0.033743907 0.24017116 -0.094403714 -0.17844719 -0.10063652 0.21424718 0.29328835 -0.15044808 -0.29994655 -0.1831168 -0.12615298 0.067880355 0.23408517 0.112252094 -0.012689898 -0.49460322 0.05143124 0.091277085 0.1270243 0.055624474 -0.40224552 -0.4394671 0.19481985 0.09726535 0.31826425 -0.40426192 0.3653843 -0.08148182 0.045484688 0.35730076 -0.0077275285 0.26679537 0.17643686 0.11920655 -0.13571584 -0.55504394 0.111427486 -0.053117763 0.22383413 -0.48430914 0.61719185 -0.10376309 0.09602932 0.1312468 0.37021253 0.2498845 0.09890883 0.5477172 0.29516402 0.070054986 0.3838777 0.5502462 0.40227276 0.056471445 -0.22222249 0.16797768 -0.065903455
algo -0.13834208 0.26900914 0.24739677 0.091613606 -0.08462908 -0.34204274 0.3650091 0.58645916 -0.26395416 -0.63333464 -0.003259303 -0.8271469 -0.48796603 0.16815943 -0.1979698 -0.2941658 -0.17021677 -0.2681805 -0.34167585 -0.49295536 -0.0686384 0.123604454 0.23112717 -0.0908139 -0.25095698 0.07335899 0.09125663 -0.11887357 -0.23778543 -0.17581306 0.035623714 -0.4029211 0.1393681 -0.4119873 -0.44904634 0.6445679 0.34581104 -0.15200293 -0.23968579 -0.8491217 0.13932791 -0.31282008 -0.11792211 0.09917867 0.37745798 -0.029940957 -0.19303404 -0.010035618 0.27392787 0.4432849 -0.11882413 -0.38105378 0.015330906 -0.029634742 0.046522867 0.15981719 0.038792152 -0.10701314 -0.4995086 0.022574626 -0.0687811 0.12636547 0.14603555 -0.6145708 -0.35427308 0.33535352 -0.04251596 0.67971885 -0.276525 0.17245618 0.18284753 0.40912998 0.5645989 0.23356129 0.16703036 -0.024511462 -0.17199564 -0.11752076 -0.36851805 0.21958013 -0.23010156 0.20370117 -0.40560538 0.1485963 -0.1647736 0.1465689 0.2993947 0.12554641 0.21915543 0.21264248 0.6271149 0.43423572 -0.0301379 0.60595363 0.74929166 0.36641535 -0.1963721 -0.31666487 0.049222052 -0.23525962
perform 0.055799074 0.14850007 -0.15179943 -0.21754713 0.36759838 -0.2553869 0.15021348 0.7572761 -0.77095175 -0.45652086 -0.6627931 -0.43175623 -0.9435291 0.36458492 0.011840664 -0.61085266 -0.6258044 -0.42578715 -0.07012417 -1.1744243 0.13592917 -0.29050648 0.48455736 0.0732551 -1.1297474 -0.036352217 0.44212693 -0.21915732 -0.25026885 -0.011218924 0.80363107 -0.73452914 0.23900846 -0.97416365 0.023602556 0.64343935 0.3090402 0.21760666 -0.30251276 -0.7611777 0.5183805 -0.54708534 -0.39277127 0.2609556 0.5325815 -0.32358944 -0.110663995 0.5178709 0.6749655 -0.0039358702 -0.09313753 -0.44238248 0.5169425 0.45388654 0.030849451 -0.19055665 -0.17688906 -0.3812002 -0.60476375 -0.35193557 0.3785333 0.49813014 0.6151266 -0.58604985 -0.38411763 0.6669045 0.25130168 0.51683736 -0.70583314 0.13313371 0.060298987 0.9732931 0.47551382 -0.03640272 0.19333208 -0.16525821 -0.079251856 0.35921627 0.1611339 -0.07027377 -0.18653086 0.1287372 -0.47484675 -0.016363008 -0.20379585 0.1985921 0.24813801 0.2344463 0.23890892 -0.41651234 1.0825346 0.44376627 0.31125855 0.35031363 0.8622729 0.13392757 0.057178557 -0.39437866 -0.048449185 0.16204236
proc 0.1311265 0.21662208 0.5846198 -0.7218737 -0.05834686 -0.703798 -0.21090555 1.1999431 -0.93708163 -1.0202044 -0.6973866 -0.8857987 -1.1136322 0.108569175 -0.47058615 -0.83224946 -1.2519085 -0.5131481 -0.6941527 -1.1217695 0.34043318 -0.49078235 0.25186554 -0.0065692314 -1.8542498 -0.33721024 -0.15053715 -1.0862614 0.10461242 -0.1685338 0.44062084 -1.3589686 -0.083226055 -1.4138709 -0.25104386 0.99556893 0.7397503 0.21955965 -0.21706064 -1.2038361 0.4542214 -0.4318811 -0.4602344 0.8418284 1.1806793 -0.24868253 0.3565892 0.28035456 0.109845 0.31729588 0.09001344 -1.3410808 0.34620464 0.7333477 -0.40673697 0.047659706 0.38957015 -1.0315479 -1.1096443 -1.4478741 0.844927 0.66746354 1.5407021 -0.46288466 -0.67725354 0.70917493 -0.17917301 0.6589332 -0.5185923 -0.3280093 0.43646035 1.7689772 0.71492976 1.2040843 0.18429595 0.8275146 -0.4270286 0.18776448 -0.43046242 -0.6345469 0.70402366 -0.10862948 -0.38743705 -0.66634405 -0.17111942 0.039707575 -0.9465318 0.018419141 -0.48374623 0.1149648 1.47777 0.6662979 -0.35116437 0.46312624 0.80810577 1.1342586 -1.4542388 -0.65929437 -0.32356152 0.11169899
implement 0.07817938 0.233975 -0.06758245 -0.07815607 -0.082493864 -0.46316314 0.28651807 0.47744069 -0.18092176 -0.45749947 0.048256412 -0.98138964 -0.13449803 0.6719002 -0.44187692 -0.42478296 0.07703168 -0.2953254 -0.29905418 -0.7269895 0.27180627 0.2046903 -0.12057706 -0.063087195 -0.44395065 0.10301097 0.35383323 -0.26547793 -0.21140875 0.0201186 0.46949834 -0.17203073 0.019878166 -0.61550236 -0.65280265 0.3932345 0.18512452 -0.18685651 0.09249458 -1.0946834 0.17442636 -0.18920085 0.05557943 -0.003214228 0.3041588 -0.13766654 -0.44412315 0.29268953 0.34401202 0.27045992 -0.1756453 -0.5056183 -0.11162877 0.09833093 -0.04512369 0.08169871 0.26256472 -0.02589226 -0.6715563 -0.25468573 0.18746084 0.040402155 0.27694434 -0.72263426 -0.45428973 0.15203735 -0.12444338 0.30977422 -0.43923557 0.1302772 0.22042555 0.4655263 0.2968769 0.1581111 0.6242798 0.15091224 0.12478409 0.32692516 -0.3041165 0.0030229958 -0.17253113 0.4208725 -0.5978837 0.22989072 -0.035968896 -0.14333999 0.47501063 0.51290315 0.16355947 -0.03272181 0.67912155 0.57689744 0.22161005 0.48661855 0.56259674 0.42274725 -0.12460773 -0.1408712 0.253444 0.27918917
method -0.03183063 0.44565004 -0.11285272 0.5342897 -0.7440476 -0.44735262 0.99212474 0.9100702 -0.09325737 -0.24348767 0.4856968 -0.38508233 -0.20053677 0.418887 -0.007064555 -0.13610955 0.44129473 -0.38859096 -0.7356433 -0.52112883 -0.09769876 0.24404627 -0.06673635 -0.34829518 0.3841558 0.012940071 0.017582098 -0.28148532 -0.15279719 0.18500128 0.12233601 0.25692448 0.46449605 0.041287556 -0.51553434 0.22502643 0.33259392 -0.019531287 -0.4209614 -0.47276923 0.12569499 -0.45250133 -0.016839862 0.07879444 0.10221206 -0.08296783 0.040452026 -0.35879028 0.28540483 0.8109701 -0.88926125 -0.33659843 -0.15554434 -0.37852913 0.09585757 0.62752783 -0.32898635 -0.061247587 -0.300976 0.7266945 0.4457577 -0.4420228 0.17756712 -0.21493721 -0.572379 -0.028282208 0.025254346 0.56182116 -0.63771707 0.7729152 0.06888058 -0.24232194 0.50687736 -0.25734478 0.06596422 0.1966137 -0.30331394 -0.5544708 -0.6469665 0.56267846 0.18500789 0.07647917 -0.78731734 0.31268623 -0.37426308 -0.094448805 0.20839319 0.3752965 0.41565213 0.5255142 0.6785336 -0.0017341288 0.4214646 0.69868743 0.92408365 0.2246021 0.081889585 -0.10299406 -0.049616512 -0.4182729
problem -0.86225617 0.66460353 0.23606607 0.4752285 -0.094496965 -0.02579403 0.35064876 0.7606157 -0.04011298 -0.3747121 -0.23936003 -0.4587072 -0.041665196 -0.29608715 0.46881595 -0.10230434 0.26842257 -0.23873557 -0.23580758 -0.39291644 -0.052663296 0.42236143 0.49926022 -0.56417644 0.65525067 -0.04886131 -0.74929655 0.04814331 -0.54612166 -0.38835043 -0.14865854 0.23948707 0.23992154 0.55261666 -0.10581078 0.14227659 -0.016719434 -0.37636334 -0.37182847 -0.29866642 -0.4216911 -0.3151581 -0.05480175 -0.26959214 0.2931887 -0.307119 0.123799786 -0.78485084 0.19747514 0.53913087 0.11398935 -0.011967089 -0.25235063 -0.7528844 0.22218865 0.29315794 -0.25076577 0.022575945 -0.18198591 0.9512936 -0.43647963 0.037916098 -0.24013527 -0.03247738 -0.53835297 0.107815616 0.24440227 0.54728246 -0.38973972 0.9627965 -0.32399103 -0.42840108 0.77623427 -0.21488287 -0.38347524 -0.18522431 -3.529306e-05 -0.8007993 -0.6450566 0.42629623 -0.40287602 -0.32173592 -0.25286865 0.9970603 -0.06324703 0.4341522 0.4293951 0.1295998 0.47799048 0.507075 0.2625951 0.04410125 0.06658037 0.32720605 0.79221046 0.39863464 0.35920435 0.00094850996 0.110489756 -0.6011972
optim -0.28911144 0.5464925 0.084790744 0.05156966 0.20299599 -0.3502226 0.17878908 0.7066506 -0.24956672 -0.48529992 -0.1334058 -0.5473602 -0.0768707 0.08738778 0.13580362 -0.090773046 0.085739516 -0.19968803 -0.15125349 -0.69363254 0.33512068 0.17833294 0.13229842 -0.38375026 -0.063538134 -0.1003011 -0.33483058 -0.05398365 -0.37758636 -0.25384206 0.24783863 0.20279628 0.12093351 -0.05399173 -0.14147042 0.31169102 -0.04305768 -0.13243501 -0.108791396 -0.6392722 0.03068748 -0.21909532 0.020364974 -0.085309796 0.2974742 -0.11006921 -0.08886684 -0.29977217 0.22847281 0.37900853 0.110823885 0.013491483 -0.11678246 -0.27467102 0.21395358 -0.039822187 -0.14540915 0.09576071 -0.30895382 0.22923814 -0.20388572 0.05322865 -0.02843276 -0.30735728 -0.30873588 0.09944764 0.20580807 0.18354793 -0.4381335 0.48675185 -0.18995507 -0.152295 0.5455338 0.038075566 0.10793681 0.02586057 0.18597193 -0.30062377 -0.5777883 0.23662773 -0.35062093 0.19343808 -0.27932438 0.67703736 -0.18018883 0.1165679 0.45052242 0.47974154 0.3357436 0.1822758 0.5770246 0.2887097 0.008309251 0.3384626 0.6663981 0.37146962 -0.03385168 -0.084459245 0.15380481 -0.15737334
model -0.16953719 0.7761495 0.2010758 -0.37394834 0.28590238 -0.4156625 -0.02795236 0.9257264 -0.052254368 -0.58918655 -0.056027383 -0.4286496 0.36728278 -0.07002287 0.36653778 -0.07915787 0.18751863 -0.09777345 -0.14656535 -0.8439887 0.8135142 0.12838104 0.005087555 -0.27301815 -0.3289817 -0.07196109 -0.72383595 -0.21083741 -0.29916486 -0.34017187 0.123301975 0.24955499 -0.16683036 0.1321656 0.13378356 0.012186473 -0.170963 -0.23908551 -0.14716904 -0.2640391 -0.17914651 0.020439632 -0.117896676 -0.04370214 0.5033629 -0.27072468 -0.019533977 -0.48953748 -0.00860669 0.3287778 0.15145968 -0.33873975 -0.43550402 -0.39449167 0.317082 -0.024646062 0.0854725 0.047926795 -0.020861568 0.28086463 -0.28810316 0.05402459 -0.06592805 -0.0567419 -0.7882602 0.046484362 0.08463741 -0.2549848 -0.622645 0.51462936 -0.50828636 -0.2114854 0.5344356 0.049470216 0.07159185 0.5210043 0.44425395 -0.4666215 -0.9150205 0.13174261 -0.33076423 0.2965302 0.05716386 1.2846098 -0.05997649 0.1326719 0.0880032 0.6808565 0.21981506 0.013944425 0.34508103 0.28437462 0.20069368 0.033215135 0.572864 0.58117175 -0.028469378 0.005382886 0.10275018 0.08849824
graph 0.32089207 0.19529082 0.65533674 -0.4389914 0.044828936 -0.7892485 -0.24216516 1.1367557 -1.0600655 -1.0127348 -0.69722 -0.87719715 -1.1673183 0.2520851 -0.43226194 -0.73615694 -1.3358628 -0.42554092 -0.80887634 -1.060855 0.2895847 -0.703189 0.1097415 -0.26814124 -1.8754687 -0.4464595 -0.12715612 -0.871816 0.12092805 -0.2974983 0.40216306 -1.2980638 0.15111913 -1.4334013 -0.26696134 1.0214534 0.7568764 0.26110655 -0.3063471 -1.3868306 0.45535913 -0.30151263 -0.36707807 0.89571756 1.011033 -0.12690078 0.5632773 0.17826687 0.1301726 0.34344164 0.09186041 -1.1658295 0.4897808 0.70978004 -0.24959104 -0.12594967 0.068322815 -0.838754 -1.1227338 -1.4792347 0.80176747 0.48078394 1.5580488 -0.44445428 -0.49893704 0.66996175 -0.071746856 0.80322194 -0.54188895 -0.29084894 0.49154314 1.7241284 0.6680137 1.3141227 0.14642282 0.73241735 -0.45355195 0.17489535 -0.47348064 -0.70810544 0.6020526 0.1556393 -0.5421291 -0.80437714 -0.33419174 0.10582163 -0.8041189 -0.2226603 -0.45704275 0.2473875 1.5901388 0.5034181 -0.45433998 0.65177166 0.78189224 0.9670491 -1.6827595 -0.55387896 -0.36612365 0.03560511
system -0.8337187 0.5912361 0.30384585 0.47472215 0.14107402 -0.07449388 0.0032952642 0.70378774 -0.47372693 -0.3071351 -0.5369289 -0.74029016 -0.30881774 -0.1739406 0.19335938 -0.23885211 0.1250105 -0.09755762 -0.089852735 -0.44135594 0.095342174 0.094315305 0.5172868 -0.67663103 0.46550736 -0.30483004 -0.81358945 -0.010113693 -0.6083392 -0.56279224 -0.082876734 0.29626447 0.14582792 -0.06017574 0.04268783 0.2676337 -0.07996473 -0.3061089 -0.19467568 -0.76464003 -0.24969344 -0.27178374 -0.19341077 -0.1370004 0.3191841 -0.40929112 0.69741833 -0.90536404 0.019269269 0.578581 0.37695733 -0.08875926 -0.21227899 -0.44163826 0.35354912 0.032093003 -0.7285359 0.0073973355 -0.53387254 0.43765876 -0.2855193 -0.12200481 0.12904106 0.15116157 -0.1660625 0.03191965 0.40079147 0.70617855 -0.39826828 1.0419738 0.1660527 -0.12638377 1.000847 0.20817028 -0.42517343 0.009423898 -0.08389512 -0.78992486 -0.5633177 0.333692 -0.49812356 -0.35784224 -0.5134146 0.45641673 -0.4146919 0.15297085 0.8489072 0.06541008 0.35155338 0.6914563 0.67901736 0.062852226 -0.3159176 0.6086348 0.9124152 0.7715412 -0.0044071027 0.29282337 -0.011010928 -0.79670876
can -0.4403819 0.33944964 0.00720151 0.020273112 -0.20827298 -0.34162846 0.15628354 0.6193977 -0.20390294 -0.25738418 -0.43399474 -0.24562773 -0.18917923 -0.03744373 0.06102839 -0.14092909 -0.13401 -0.3335622 -0.28877184 -0.69414645 -0.09203912 0.20337032 0.33516794 -0.23356672 -0.082288176 -0.03442061 -0.13925812 -0.32974285 -0.24045306 0.055637706 0.23722038 -0.1363751 0.17650962 0.122215845 -0.12141797 0.40626892 0.12055409 -0.17104752 -0.29520565 -0.5155436 0.01272827 -0.46790484 -0.03850984 0.16831054 0.25392723 -0.33633906 -0.1595392 -0.0447269 0.27783528 0.22700928 -0.057377096 -0.40606964 -0.115062244 0.0057618143 -0.22048925 0.4131949 0.28500786 -0.1728645 -0.60449106 0.23735912 0.14379893 0.45257545 -0.036732092 -0.16676345 -0.48194253 0.436129 0.13940132 0.5693532 -0.20526583 0.45409018 -0.058948297 0.2039014 0.25518373 -0.18718223 0.19547682 -0.051284675 -0.025664268 -0.16193983 -0.07117173 0.06533281 0.09501038 -0.14382483 -0.40010306 0.40193713 0.066817865 0.2514769 -0.13966024 0.2889556 0.28649274 0.024059292 0.42533618 0.2646029 0.2037205 0.18333924 0.66422075 0.2823598 0.21517846 -0.45835987 -0.022782497 -0.17699677
librari 0.036411896 0.40382972 -0.14363329 -0.27990583 0.54928887 -0.47247484 0.014978302 0.51880544 -0.16520286 -0.4253926 0.017884647 -1.4017593 0.13479547 0.5150088 -0.3946934 -0.4706669 0.36392903 -0.17833239 0.031683937 -0.71076757 0.80516005 0.13742097 -0.48181298 -0.15587373 -0.39291927 -0.029827608 -0.05465951 -0.31737295 -0.31848136 -0.111751184 0.5257892 0.27546784 -0.38180262 -0.85318613 -0.46984586 0.23720473 -0.1505748 -0.41287193 0.42067343 -1.3411372 0.005228397 -0.111233816 0.087969914 0.080293 0.47160384 -0.147356 -0.33092746 -0.041197915 0.18292601 0.13389124 0.40145758 -0.31931514 0.016344838 0.012549612 0.16054961 -0.22103328 0.08670474 0.3408945 -0.5733211 -0.25500625 -0.1273389 -0.13345912 0.11827715 -0.6034272 -0.27491876 -0.044180043 0.11788301 -0.2294572 -0.52209175 0.32043108 -0.05882021 0.1543173 0.42818895 0.2909395 0.6410688 0.3614187 0.3666469 0.37680104 -0.6265545 0.012271781 -0.62878424 0.6229591 -0.2802328 0.29876602 -0.16239066 -0.24015325 0.9453155 0.93956405 0.22059527 -0.014421521 0.7540407 0.6836585 -0.08478229 0.40632355 0.51084524 0.61096334 -0.22324984 0.13380167 0.35125366 0.4473735
data -0.043710023 0.30413187 0.21319412 -0.43041402 0.123995 -0.48328474 -0.026520481 0.86716837 -0.08371629 -0.20782997 -0.41248137 -0.5907375 0.29182455 -0.1823253 0.11791421 -0.18042019 -0.16800444 -0.08876966 -0.27110648 -0.6253842 0.22902164 0.13317929 -0.058223635 0.099274255 -0.22687064 -0.03413679 -0.7746531 -0.29383755 -0.034139067 0.09001804 0.2100855 0.09610485 -0.24934222 0.06600186 0.23648857 0.49067435 0.06017126 -0.5794323 -0.34448582 -0.22784668 -0.2577595 -0.655597 -0.022291524 0.53275347 0.5971718 -0.3586587 -0.3761492 -0.2845782 0.1300171 -0.14980327 0.43471602 -0.56864005 0.3332411 -0.022129962 -0.32892808 0.29127586 0.59976196 0.13521719 -0.16550002 0.2772438 -0.19769594 0.4570299 -0.19667244 -0.15412606 -0.6425857 0.6153407 0.28124776 0.053265985 -0.22857462 0.50543463 -0.8833054 0.05573075 0.024273725 -0.10084655 0.34181246 0.2312568 -0.08255115 -0.12761272 0.019495854 0.10136147 -0.13814145 0.21794267 0.13108335 0.43498674 0.20270802 0.36543036 -0.72089136 0.40464687 0.51325554 0.24774061 0.11697464 0.27840686 0.12251978 -0.4229137 0.40985364 0.1891345 0.085330196 -0.5366857 0.09108187 0.34823647
unit 0.27879956 -0.045188274 0.86460996 -0.57258373 0.10107756 -0.7921784 -0.23121026 1.5180906 -1.1389062 -1.1815821 -0.935255 -1.2701179 -1.5470085 0.5141882 -0.77287346 -0.760322 -1.7273736 -0.49079958 -0.9146323 -1.4422845 0.6822682 -0.48283646 0.33005273 -0.120589286 -2.172086 -0.09417596 0.15113229 -1.3510706 0.031067468 -0.36488292 0.50160354 -1.7730274 0.16571824 -1.9611613 -0.35751757 1.3528357 1.0470376 0.18850325 -0.46033564 -1.8517407 0.54432136 -0.66534567 -0.6262455 1.1583829 1.4178796 -0.1903805 0.3197737 0.28450364 0.34757656 0.5015218 -0.08513985 -1.71621 0.4417289 0.86313015 -0.34530666 0.06866662 0.11827607 -1.3328044 -1.6347351 -1.7240129 1.0715258 0.87168574 1.9178315 -0.53273946 -0.69660556 0.9287288 -0.4673468 1.2127264 -0.44488347 -0.27249187 0.82397544 2.3742921 0.8923426 1.4650406 0.20945626 0.55340916 -0.34697258 0.18559122 -0.36390397 -0.9480819 0.7739377 -0.1577605 -0.95864254 -1.0183434 -0.5012103 0.15728562 -1.0976493 -0.42993474 -0.66696167 -0.0144046685 2.051191 0.89805996 -0.11886041 1.0516201 0.89514476 1.4649789 -2.0737286 -0.7330735 -0.6575989 0.11953656
high 0.11248697 0.45301118 -0.24030735 -0.037897605 0.526365 -0.6895483 0.35453284 0.8946664 -1.0165125 -0.31121138 -0.34002998 -0.7353036 -0.30914047 0.40755075 0.19730818 -0.32533702 -0.16590291 -0.41483822 0.068606496 -1.2985939 0.1934561 -0.3679712 0.10007598 -0.3794965 -0.7422942 -0.44525182 0.64767516 -0.5365041 -0.046964794 0.25940627 0.7375794 0.08870536 -0.0758916 -1.015585 0.13989869 0.8893728 -0.029902391 0.41973305 0.192017 -1.0957992 0.99506485 -0.6439351 0.073814824 0.46115226 0.21170996 0.006531372 0.0138035305 0.13048087 0.20696689 0.2219817 0.20885338 0.087863274 0.4169096 0.63428247 0.23169789 -0.13521421 -0.36871865 0.31469607 -0.5372255 -0.11102354 0.3465068 -0.13690124 0.10643547 -0.11070706 0.21611191 0.27635914 0.28252038 0.3365395 -0.5458287 0.07099148 0.33258182 0.25628182 0.55696887 0.14738323 0.3393293 -0.22972581 0.1601988 0.09349468 0.2995295 0.47246793 -0.29619986 0.5541356 -0.40582946 -0.5394843 -0.34194222 0.12437968 0.5816215 0.63739216 0.7644256 0.0027958855 1.2275451 0.4256251 0.33798185 0.49053833 1.0642837 0.29777896 0.075712875 -0.14370942 -0.10829936 -0.31165916
base 0.045989893 0.35617512 0.036682688 0.014608736 -0.07178235 -0.5221765 0.40095183 0.7495856 -0.22453219 -0.35174555 0.071440816 -0.7117144 -0.13233776 0.3899382 -0.15046789 -0.22074716 0.07912743 -0.1480687 -0.4131155 -0.56101847 0.37763342 0.108025566 -0.16161957 -0.29857412 -0.09673003 -0.070260465 -0.24936348 -0.23019163 -0.16398782 -0.10476213 0.3410337 0.16132727 0.16364823 -0.40247455 -0.26523855 0.38931882 0.10759954 -0.0029290288 -0.040389437 -0.89572597 0.044207502 -0.28103715 -0.028925866 0.17313801 0.24743955 -0.12284649 -0.050211515 -0.26527843 0.16936608 0.35086027 -0.14707565 -0.3293204 0.06364244 -0.22004946 0.17007324 0.10880483 -0.14493021 0.13370126 -0.42773154 0.052041642 0.12117468 -0.18871592 0.29816085 -0.34796458 -0.34817842 0.0047269496 0.09844903 0.303563 -0.48467803 0.40879133 -0.016293311 0.048024308 0.43905163 0.32610583 0.29291266 0.30690366 -0.0760054 -0.20012142 -0.656661 0.137473 -0.12241312 0.32759747 -0.3790799 0.19509873 -0.35409898 -0.1999127 0.36755607 0.3538306 0.17804864 0.32607046 0.78921354 0.27251324 -0.0139312325 0.44623166 0.6210292 0.37775564 -0.28396025 -0.070883326 0.097943984 -0.10335686
present 0.059305295 0.4990753 -0.0976693 0.367489 -0.49867794 -0.26004243 0.591886 0.23181152 0.2418969 -0.61804235 0.2174872 -1.0854986 -0.17441656 1.036445 -0.43849716 -0.44387397 0.2636173 -0.21762086 -0.44107854 -0.33905047 0.20538771 0.5088362 -0.24000704 -0.016341254 -0.37336954 0.576616 0.5910258 -0.22092886 -0.12493741 -0.08615175 0.22875986 -0.49033895 0.24309418 -0.4643559 -1.1311381 0.27433425 0.03364517 -0.13555047 0.15776744 -1.3908306 -0.03722089 0.18478473 0.054896392 -0.55948025 0.004027404 -0.120895736 -0.738811 0.09773865 0.5565294 0.60135967 -0.8080243 -0.6119552 -0.34062576 -0.4961617 0.40710026 0.45588425 0.31053007 0.16550188 -0.7148285 0.14289396 0.11112629 -0.30954278 0.25074434 -1.0357587 -0.607902 -0.13931665 -0.45245695 0.3825262 -0.6311626 0.3885586 0.45962736 0.30651805 0.61267084 0.10635603 0.7106631 0.28017634 0.48865995 0.215122 -0.7751663 0.08440503 -0.56431675 0.632436 -0.752006 0.6220784 -0.044963375 -0.32723406 0.952185 0.54708606 0.30778405 -0.0971068 0.82931334 0.61813915 0.34867054 0.92087644 0.40517917 0.6286263 -0.10081598 0.20300758 0.49759457 0.39328337
which -0.28977415 0.33350217 0.032514848 -0.02758058 -0.018627994 -0.40638858 0.17512669 0.6458717 -0.0503954 -0.21662195 -0.23732327 -0.55049056 0.14766501 0.024399338 -0.044057176 -0.08720257 0.15966794 -0.22843586 -0.23418346 -0.6212561 0.11422059 0.3169989 -0.043189824 -0.29813015 0.15114118 -0.14292532 -0.26579574 -0.21618256 -0.37497032 -0.06125468 0.2602049 0.2808059 0.040286746 0.18573181 -0.23143648 0.41330865 -0.030611183 -0.34032947 -0.20777 -0.6355814 0.0102673285 -0.333871 0.12940556 0.12942182 0.23186938 -0.116660476 -0.22941272 -0.13637124 0.18052904 0.22140494 0.19571514 -0.1926776 -0.12241781 -0.17710534 -0.12356815 0.28450802 0.1335762 0.15150572 -0.43508023 0.24215269 -0.0807679 0.20177561 -0.27410108 -0.3347064 -0.36884397 0.22840117 0.2474484 0.31956115 -0.20176603 0.48021537 -0.25333658 -0.2003074 0.24469793 -0.10986358 0.27390704 0.08611413 0.0156175215 -0.21357045 -0.42308527 0.26391205 -0.11637503 0.17915651 -0.4551711 0.5450069 -0.08453007 0.22939372 0.19805439 0.5110327 0.32389504 0.26541764 0.39556333 0.26100266 -0.09392675 0.25392517 0.47184986 0.2808218 0.18084514 -0.28263053 0.18381685 -0.11283034
code -0.03661117 0.5173849 -0.0030737906 -0.07879085 0.067216925 -0.5713951 -0.1522147 0.39809403 -0.39271513 -0.073678195 -0.010754354 -0.7963495 0.41894662 0.71247333 -0.45295283 -0.471698 0.36790735 -0.24454056 -0.15015341 -0.91646475 0.68809223 0.1680294 -0.2536425 -0.17789027 -0.40694895 -0.04557546 0.043373637 -0.3102846 -0.22155179 -0.12205495 0.75334615 0.3148856 -0.17519559 -0.62944967 -0.33470875 -0.16944729 0.003243227 -0.32881102 0.36061776 -0.8676904 0.110924564 -0.32755244 -0.0016103499 0.01534208 0.3501453 -0.69982076 -0.033106938 -0.028546467 0.005119946 0.0586753 0.054419663 -0.49021298 -0.5643876 0.12417204 -0.19009241 -0.034820672 0.16881499 -0.14793698 -0.63075775 -0.49427447 0.45565733 -0.13574553 0.38611898 -0.13499479 -0.36177102 -0.15684208 0.08339737 -0.1296467 -0.6529497 0.59227824 0.09970052 0.3212733 0.275387 0.23034184 0.75228596 0.5231246 0.3978583 0.3432528 -0.26944897 -0.08035273 -0.13534218 0.19079657 -0.5455061 0.5796052 -0.10614324 -0.5107838 0.5116973 0.8591523 -0.012641444 -0.16620868 0.6475672 0.5282673 0.4925939 0.1655121 0.5658626 0.713412 -0.14196476 0.38397056 0.09725611 0.31215745
parallel 0.2795955 0.28965563 0.3162501 0.119418584 -0.15049545 -0.6834979 0.46099344 0.98059916 -0.9131764 -0.557282 -0.22268854 -0.7015365 -0.88787764 0.51192725 -0.07681477 -0.3209543 -0.64348626 -0.21643826 -0.6084083 -0.87608147 -0.05015383 -0.30820358 0.29672226 -0.08469305 -0.7534887 -0.19882329 0.17088766 -0.44388053 0.117401265 -0.0042404635 0.41096637 -0.60706645 0.37223268 -1.0879054 -0.087236665 0.82130086 0.6281914 0.36117294 -0.30676013 -0.83962417 0.5922141 -0.6257191 -0.2564086 0.50449026 0.48449665 -0.23791578 0.30222598 0.04674589 0.33236822 0.4633408 -0.2790399 -0.66823834 0.41067016 0.46324638 -0.03308218 0.11400564 -0.35834193 -0.31289837 -0.7139503 -0.38720682 0.54249215 -0.060584687 1.0159407 -0.26902318 -0.1854176 0.44409683 0.037636895 0.839527 -0.58299387 0.2427193 0.40076575 0.8176132 0.6001808 0.46388283 0.0022108972 0.15957063 -0.5463022 -0.20057164 0.03146972 0.14980313 0.15646148 0.08848643 -0.63793015 -0.76508176 -0.406495 0.06832947 -0.16269648 -0.07808933 0.29523715 0.4784025 1.2596328 0.2508619 0.027261125 0.6563734 1.0053236 0.4787097 -0.67008775 -0.29171386 -0.35860384 -0.19319195
applic -0.22979987 0.5335937 0.15398751 -0.47219568 0.5250614 -0.36011708 -0.2696034 0.82019717 -0.11243697 -0.6916761 -0.46231624 -0.58106494 0.23182535 0.01701654 0.23649701 -0.11425371 0.05198136 -0.23525257 0.116437785 -1.0653441 0.6581803 0.11178693 0.008586523 -0.2148988 -0.6810587 -0.06535494 -0.292212 -0.25401765 -0.42240542 -0.1028866 0.3295307 -0.12212455 -0.2862926 -0.0034709263 -0.04527446 0.24300872 -0.16540092 -0.279629 -0.14674339 -0.4055061 0.10332572 0.070586376 0.048660018 -0.08611683 0.63313234 -0.015839415 -0.3195761 0.03188273 0.1809785 0.13754463 0.4551675 -0.20614733 -0.3052527 -0.006213465 0.17037094 -0.07397114 0.3767116 0.06736693 -0.12856199 -0.004470653 -0.32883823 0.39328563 -0.23278499 -0.393637 -0.56705076 0.21445116 0.16105102 -0.2918781 -0.44982052 0.2659342 -0.4621069 -0.0085572405 0.46895963 -0.12589961 0.25602466 0.24366154 0.5956216 -0.04664543 -0.6545061 0.025943158 -0.40480864 0.4199895 -0.06315628 1.1296372 0.22040157 0.4555676 0.050189838 0.9114751 0.20496945 -0.120802514 0.37197933 0.49168813 0.013648513 0.0985314 0.33716235 0.52158207 0.1613106 -0.26189816 0.2618845 0.4060534
from -0.3975121 0.502847 0.023492482 -0.18665242 -0.06506403 -0.38390338 0.048083805 0.7358788 -0.04631366 -0.11702631 -0.35821676 -0.38887972 0.36550233 -0.07671522 0.10547139 -0.1642272 0.1876774 -0.20334402 -0.21112369 -0.6762386 0.25269422 0.25577062 -0.010201837 -0.2341998 0.10178196 -0.13590509 -0.6442082 -0.34191284 -0.25719875 -0.012698146 0.2779087 0.44682896 -0.10341883 0.24590883 0.12396099 0.19664006 -0.107663766 -0.5337825 -0.08405026 -0.36406368 -0.2889895 -0.45433372 0.05628046 0.17703314 0.38051963 -0.50532955 -0.097434655 -0.37749293 0.1337216 0.109340094 0.2707964 -0.36975816 -0.1320302 -0.21263932 -0.19335078 0.41508272 0.34685338 0.07971988 -0.35684884 0.29779208 -0.053207666 0.30866048 -0.1818189 0.024879154 -0.6352847 0.3194426 0.25141746 0.04023835 -0.32384938 0.77828914 -0.4815361 -0.1308228 0.18264341 -0.14390995 0.32944432 0.27138647 0.13362275 -0.24579006 -0.23935233 0.107568726 -0.059966784 0.0018361014 -0.16737786 0.7445028 0.11531469 0.06733646 -0.1324477 0.5735876 0.36939815 0.1502475 0.17875439 0.18423806 0.21839885 -0.20510463 0.5865721 0.32536566 0.24107575 -0.26316062 0.10804882 0.0078044813
func -0.46826246 0.5226384 0.1804467 -0.10577464 0.055830907 -0.40896773 -0.0069781165 0.5885189 0.07681167 -0.17152551 -0.38394603 -0.37851015 0.6122761 -0.15910763 -0.13235447 0.07122148 0.28696126 -0.18612337 -0.17323464 -0.66921926 0.18643627 0.5379113 -0.046038963 -0.46215606 0.22494549 -0.07996129 -0.42905557 -0.12276018 -0.40954852 0.05802669 0.24770547 0.5825433 -0.01489869 0.5169327 -0.23404026 0.3439562 -0.191759 -0.46664184 -0.20297274 -0.65674317 -0.07995234 -0.33764222 0.29302385 0.034002446 0.11832912 -0.31118476 -0.29437834 -0.33067998 -0.010887717 0.09915668 0.25813675 -0.016432611 -0.4552634 -0.3333607 -0.15048614 0.22371413 0.31970084 0.26892492 -0.43337035 0.31694672 -0.20625602 0.28258887 -0.54359025 -0.26944837 -0.42188597 0.23587525 0.34073794 0.12923634 -0.18796922 0.5875585 -0.44602922 -0.44633436 0.17725594 -0.21241611 0.43090242 0.0050590006 0.2245988 -0.22048089 -0.5033153 0.2609148 -0.084321424 0.20293225 -0.3701892 0.89220804 0.05717981 0.23840588 0.18700628 0.7688734 0.25787392 0.10986492 0.24547914 0.21400958 -0.018613284 0.03883359 0.48405188 0.2577775 0.28593075 -0.23701492 0.30761534 -0.022930602
program -0.388749 0.79992425 0.05930016 -0.113741115 0.6062088 -0.42064515 -0.33098748 0.61750495 -0.3182766 -0.41011712 -0.5289563 -0.7121117 0.5450866 0.23198198 -0.11915695 0.047704335 0.33748075 -0.11517604 0.17990135 -1.0758929 0.7709775 0.37831557 -0.08454854 -0.5592766 -0.4317436 -0.17163314 -0.19343933 -0.17792435 -0.5975778 -0.24133454 0.46407008 0.43012244 -0.10369567 0.14317735 -0.1412173 0.3493554 -0.47631484 -0.17458361 0.11721587 -0.99030554 0.26698047 0.17181277 0.08953649 -0.30058402 0.21554944 -0.19437659 -0.072150245 -0.21626703 0.14338885 0.08812051 0.38692337 0.2552883 -0.6258358 -0.10171527 0.3233101 -0.28658015 0.09464641 0.1907021 -0.49062833 -0.4004882 -0.18877247 0.035107177 -0.33006024 -0.47584438 -0.1990201 -0.1761659 0.2454579 -0.20747377 -0.43446723 0.36743245 -0.0021277678 -0.34616816 0.4969575 0.16238803 0.5515387 0.2260338 0.8733414 -0.032454297 -0.9036142 0.10726288 -0.5045569 0.51748157 -0.37606642 1.155646 -0.08100643 -0.1564177 0.8039087 1.1557498 0.047977075 -0.06244614 0.5689842 0.4426367 -0.17980914 0.29659063 0.44610816 0.5970081 0.027501008 0.15416795 0.44435415 0.19188653
our -0.12130333 0.25060764 -0.20614645 0.035374068 -0.27865824 -0.26462632 0.38495135 0.35726386 0.0771717 -0.5831571 0.10310034 -0.9126668 -0.36675978 0.6204556 -0.27605444 -0.4962661 -0.02023807 -0.39604485 -0.40420875 -0.537226 -0.03815328 0.29848427 0.07137203 0.029818874 -0.43843204 0.28688174 0.37077034 -0.28110713 -0.256818 -0.030796228 0.32464126 -0.6931733 0.06267328 -0.49196655 -0.8432151 0.24500084 0.29265332 -0.18948519 0.11190906 -1.0064446 -0.14985178 -0.13197306 -0.17023543 -0.1791402 0.29237422 -0.28131536 -0.59694755 0.34333575 0.51584125 0.5284493 -0.44747335 -0.7717448 -0.1793922 -0.020651001 -0.0018006696 0.33363014 0.49645117 -0.22474708 -0.84655666 0.06877775 0.16164173 0.2671092 0.31856713 -0.6663567 -0.7333566 0.28341138 -0.437065 0.47974297 -0.41363105 0.19265649 0.41913825 0.7708374 0.43475315 -0.1200095 0.4742982 0.06305141 0.1844765 0.30682814 -0.22435386 -0.23537853 -0.18488081 0.16339931 -0.5059409 0.4083241 0.19143637 -0.039060727 0.23124327 0.37403554 0.20536949 -0.20692235 0.50111353 0.5976967 0.51361054 0.49540418 0.665677 0.495641 0.0052348156 -0.20320791 0.18669453 0.21261337
provid -0.15151069 0.50353676 -0.14986171 -0.19282463 0.15635197 -0.40191957 0.07737851 0.48862192 0.08365163 -0.33799392 -0.16769385 -0.88776106 0.45285836 0.49192327 -0.26531428 -0.25203913 0.34688246 -0.2204554 -0.048761804 -0.775608 0.54392534 0.44698146 -0.23857027 -0.10796101 -0.2182565 0.09133785 0.023806248 -0.25053206 -0.3057545 0.06495679 0.5170178 0.29273394 -0.14685246 -0.15021189 -0.42016268 0.20947883 -0.2520915 -0.41396695 0.17938246 -0.99370736 -0.06339288 -0.072865896 0.21652149 -0.1366101 0.22382024 -0.24525492 -0.559372 0.0066495356 0.30736315 0.10777742 0.07550998 -0.2951914 -0.31546462 -0.16208558 0.015755974 0.102268256 0.40663207 0.3205892 -0.50203186 0.045826416 -0.048971552 0.09059741 -0.19204293 -0.5971387 -0.53561455 0.032137115 0.057634808 -0.13674483 -0.44106084 0.4493382 -0.23991314 -0.082924835 0.23512226 -0.09266457 0.6945101 0.23607162 0.5217486 0.18906015 -0.47394082 0.027599348 -0.43783137 0.48089817 -0.41530156 0.77645075 0.09711505 -0.08531269 0.5506249 0.9618118 0.33733967 -0.097452685 0.43914843 0.49468464 0.15324448 0.1798397 0.35127127 0.46915004 0.2096348 -0.10278589 0.4999774 0.50296193
softwar -0.18202505 0.61416584 -0.2811048 -0.3037863 0.36719733 -0.37063646 -0.0031476107 0.50212806 0.2244351 -0.45955157 0.20295048 -1.2818618 0.6089478 0.71079195 -0.26383433 -0.49825737 0.8212394 -0.23727605 0.03712305 -0.8632721 0.98810804 0.3687055 -0.5042052 -0.10049635 -0.026880069 0.09454975 -0.1725318 -0.19293162 -0.52967006 -0.2182202 0.4268142 0.49076423 -0.52235067 -0.37574407 -0.5035917 -0.24132285 -0.2851578 -0.67230743 0.51881 -0.9495352 -0.3616644 0.1914639 0.16496351 -0.34913608 0.5434326 -0.3563972 -0.47296342 -0.040798154 0.19832365 0.27930367 0.25192514 -0.41431156 -0.6668241 -0.25781035 0.19756925 -0.0060951323 0.3546914 0.30873185 -0.24898016 0.09660173 -0.1779859 -0.17625739 -0.11569924 -0.5950481 -0.7602815 -0.28335494 -0.06269872 -0.5024081 -0.72060406 0.6134103 -0.24435465 -0.06928263 0.3733583 -0.08313384 0.669425 0.60422236 0.6796726 0.22511815 -0.8244517 0.036299743 -0.7367229 0.62597567 -0.33738652 1.22499 0.14792879 -0.20579438 0.98879683 1.2360221 0.34120536 -0.055056915 0.29504907 0.70142806 0.39311948 0.23565939 0.45834136 0.85647917 0.28664407 0.3369822 0.54176176 0.6300002
time -0.32682246 0.3532092 0.25859106 0.17902009 -0.5100029 -0.3078784 0.6072101 1.0440089 -0.41681102 -0.121573105 -0.43467027 -0.010336767 -0.40454826 -0.31671527 0.12045158 -0.3332483 -0.3023152 -0.58543324 -0.49519643 -0.79633105 -0.16477095 0.04389308 0.5264186 -0.19291568 -0.08619158 -0.24006057 -0.35302773 -0.49289408 -0.15036784 -0.056433663 0.14236772 -0.22328222 0.28847903 0.011705299 0.14745766 0.39443603 0.44069222 0.01575405 -0.75361055 -0.02659385 0.016808735 -0.8491351 -0.11864139 0.5925989 0.34976518 -0.52676624 0.48823488 -0.19554561 0.19023964 0.49461308 -0.2978253 -0.62680894 0.0137273995 0.18813576 -0.5033281 0.63019955 0.09430071 -0.5152329 -0.49743646 0.48209834 0.44142997 0.5469601 0.34126642 0.07742335 -0.72418654 0.586993 0.1242513 0.8691212 -0.22887285 0.4348933 -0.1378366 0.33719802 0.41835585 -0.21864384 -0.229582 -0.007084476 -0.62722063 -0.44730264 0.1517777 0.1665997 0.43192515 -0.49513125 -0.56550664 0.02099402 -0.21203655 0.43675047 -0.69332457 -0.18554743 0.30504045 0.32714456 0.5042868 -0.01693675 0.26221162 0.09914094 0.9493763 0.30408233 0.090068035 -0.5235996 -0.48184276 -0.51031566
matrix -0.27565315 -0.38633773 0.42295823 0.37908825 -0.39208648 -0.7683508 0.5607925 0.7195807 -0.5781511 -0.18729839 -0.6343318 -1.2588408 -0.7292298 -0.11367731 -0.24367526 -0.30343887 -0.57616776 -0.43213853 -0.60068846 -0.21578021 -1.0737567 0.037896615 0.15460487 -0.5363866 0.45156506 -0.1373082 -0.49460757 -0.1588452 -0.23254174 0.33652943 0.32149437 0.20968477 0.44412145 -0.5891242 -0.5034833 1.9351563 0.5358982 -0.58517575 -0.62812054 -1.5426772 0.25501248 -1.6489769 0.24793763 1.112507 0.542876 0.29525712 -0.31851912 -0.23101912 0.33701402 -0.047130704 0.6144451 -0.09198329 1.5521683 0.07897538 -0.6083895 0.6291433 -0.39724508 0.40858015 -1.0351628 0.21133721 0.026425777 0.17893395 -0.10563139 -0.5522747 0.5481094 0.93490523 0.81857705 1.4823184 0.26981816 0.79448736 -0.44748104 0.3407589 0.23483586 0.4564971 0.27847064 -0.40009502 -1.4546589 -0.18157656 0.32892856 0.71325356 0.03918865 0.090508275 -0.7543563 -1.3473752 -0.6823796 0.5670459 -0.035530474 -0.27664945 0.89504266 1.1457956 1.4693379 0.40206993 -1.0239347 0.49079746 0.84985423 -0.33462626 -0.32678512 -1.0505266 -0.11106067 -0.95847267
numer -0.55196327 0.5927948 -0.166046 0.45441505 -0.3317948 -0.23500098 0.46616966 0.6672791 -0.020944057 -0.3559848 0.09005289 -0.36178884 -0.09477594 0.2981598 0.122782394 -0.0930012 0.43125367 -0.29721528 -0.2858973 -0.6247245 0.16787905 0.2819516 0.16530375 -0.6048314 0.4511438 -0.10626534 -0.09014818 0.039915986 -0.5409612 -0.2599036 0.130368 0.24202028 0.39328152 0.19314307 -0.36758575 0.029633636 0.0030558754 -0.07406049 -0.14502682 -0.6020797 -0.06857072 -0.11925396 -0.08159738 -0.43146256 0.13000391 -0.3897432 0.16002035 -0.4000504 0.24460389 0.727905 -0.39612004 -0.18105409 -0.5381211 -0.5236498 0.41444033 0.29454282 -0.32357422 0.044363625 -0.4272038 0.71905077 0.014773802 -0.26105836 0.022613525 -0.18459252 -0.4884049 -0.14177199 0.10599298 0.55192846 -0.5886628 0.85049444 0.16824935 -0.26402023 0.7076713 -0.24887782 -0.03586687 0.07664293 0.16276765 -0.52875894 -0.72338384 0.33384 -0.19781107 -0.059387762 -0.69000125 0.9917078 -0.23740146 0.027532151 0.8417784 0.35203627 0.35209653 0.29095614 0.48101938 0.16349143 0.33317116 0.6058707 0.8961246 0.5113381 0.39279813 0.23684484 0.19193597 -0.48560163
effici -0.06415202 0.2926638 0.12783551 0.07204565 0.03353995 -0.4168946 0.3309523 0.73446625 -0.5964068 -0.44270942 -0.27872422 -0.49875826 -0.5595439 0.23179653 -0.0021654307 -0.21038434 -0.29476085 -0.23949412 -0.30874246 -0.7459779 0.039523844 -0.08194463 0.30192542 -0.17972028 -0.38415578 -0.1746948 0.073827654 -0.21831773 -0.21374379 -0.11357421 0.33078814 -0.30187595 0.25769797 -0.48170355 -0.08698559 0.6169801 0.2624869 0.11656839 -0.22531445 -0.7261701 0.31454647 -0.43208507 -0.13710321 0.23384678 0.37309745 -0.14555255 0.06768658 -0.027123593 0.29493368 0.32291842 -0.08610091 -0.32276928 0.15713908 0.07721974 0.072222225 0.07471048 -0.2322049 -0.11948721 -0.542414 -0.023975497 0.12543377 0.09394577 0.32279742 -0.3254727 -0.22790952 0.33862135 0.18428211 0.6481949 -0.42450705 0.28691033 0.09629742 0.32810313 0.5433818 0.15223722 0.051649682 0.008780448 -0.2404539 -0.19708233 -0.16340378 0.21783261 -0.06278502 0.045140814 -0.5047455 0.00960736 -0.25487304 0.19152685 0.24809045 0.09448081 0.32855463 0.21629937 0.8588413 0.2726977 0.01593929 0.49569184 0.74952173 0.34884304 -0.18875265 -0.25102887 -0.033441212 -0.25896624
packag -0.219439 0.6576134 -0.26078135 -0.35282767 0.15094158 -0.42690122 -0.007924934 0.60092753 0.40403807 -0.4383426 0.27518347 -1.246404 0.85466385 0.6784884 -0.41446143 -0.42171946 0.8398924 -0.18118991 -0.058068622 -0.78791845 1.0224906 0.5640207 -0.5821189 -0.14961247 0.030233774 0.04912205 -0.19294074 -0.27704805 -0.5400568 -0.15234502 0.34981385 0.5942563 -0.37684196 -0.13010564 -0.6046968 -0.22921535 -0.36511445 -0.6889388 0.48293093 -0.99311376 -0.36289576 0.25710836 0.23107328 -0.42865938 0.4053665 -0.4889405 -0.58424246 -0.014898089 0.21306428 0.26312935 0.118164465 -0.46290466 -0.7755445 -0.4607472 0.18314464 0.09233574 0.6570659 0.3507573 -0.3333357 0.108148165 -0.22504486 -0.058019385 -0.22310452 -0.69165075 -0.9636624 -0.20889689 -0.11197708 -0.41014224 -0.6664584 0.606065 -0.2269368 -0.18323551 0.3023319 -0.09199748 0.90630746 0.6147332 0.8464351 0.15112157 -0.92299175 -0.020029306 -0.5693635 0.661281 -0.32730144 1.4285245 0.28099513 -0.30614987 0.9088863 1.291812 0.26243192 -0.05009681 0.11997708 0.6243141 0.4538711 0.13455543 0.43211338 0.80602586 0.19420874 0.27482948 0.6715807 0.7150586
devel -0.010957446 0.47772858 -0.23951638 -0.35194346 0.24351367 -0.31880608 0.030694583 0.53042 0.07634932 -0.7208403 -0.07144324 -0.89242554 -0.015356975 0.4666087 -0.20104045 -0.38137802 0.3654164 -0.28029144 0.07387731 -0.845349 0.7366077 0.13814636 -0.19355577 -0.07859082 -0.3857496 -0.03402371 0.09054693 -0.30309016 -0.5021115 -0.30300546 0.28076303 -0.12213169 -0.25966707 -0.3126371 -0.41062564 0.11660965 -0.12943438 -0.43727556 0.16817902 -0.7745561 -0.06214458 0.27409634 0.13010995 -0.35302526 0.52367634 0.033533517 -0.42838296 0.23991968 0.41177723 0.3149691 0.084591046 -0.39737082 -0.518487 -0.08082157 0.19861071 0.05711161 0.3169369 -0.008557028 -0.30798897 -0.17122765 -0.11368739 0.14221808 -0.06928591 -0.6994359 -0.7062615 0.03252174 -0.017772483 -0.11864933 -0.5824598 0.15067345 -0.101604536 0.11626001 0.43687254 -0.03603131 0.39251816 0.45426974 0.41854292 0.12269099 -0.82717276 0.12382524 -0.48163277 0.55599695 -0.4857395 1.12698 0.15553182 0.068229474 0.69702727 0.7614398 0.20760041 -0.13870257 0.39557698 0.650477 0.071695276 0.39295432 0.3182788 0.6929611 0.042528003 -0.005446223 0.41560447 0.37924016
paper 0.039488044 0.5196381 -0.22180709 0.22404939 -0.35830435 -0.28062493 0.539716 0.4591211 0.26074028 -0.74945134 0.5258835 -1.3445281 -0.13531274 0.94745153 -0.5104655 -0.41127166 0.30015552 -0.1438807 -0.40601104 -0.50162095 0.23924793 0.29459867 -0.4007607 -0.1240005 -0.28014803 0.40794972 0.56907064 -0.14183998 -0.41629282 -0.16354682 0.095476545 -0.4675465 0.17899087 -0.51208514 -1.1975247 0.2968815 0.3404365 -0.09313504 0.076078214 -1.2753017 -0.16822869 0.3563201 -0.02836904 -0.60048765 0.2562089 -0.20803766 -0.6988419 0.4189579 0.5081903 0.7883953 -0.69866055 -0.4789427 -0.514906 -0.3096799 0.42324382 0.15501364 0.38449717 -0.038760066 -0.5763603 0.04423386 0.0355099 -0.1980402 0.034104917 -1.1432761 -0.72428674 -0.1520652 -0.52551347 0.43183857 -0.6025937 0.24665394 0.6591156 0.4821058 0.5120238 0.08977114 0.73024154 0.30356133 0.5053744 0.24169329 -0.80818367 0.0011436987 -0.43753138 0.6430314 -0.585482 0.6811473 0.05934844 -0.27000484 0.83746773 0.6403375 0.12771437 -0.020410882 0.55474395 0.7488254 0.52351624 0.9041619 0.7837271 0.58615965 -0.051444985 0.14186092 0.45124555 0.3095372
result -0.29231086 0.2008838 -0.0207502 -0.025465501 -0.38831615 -0.22263983 0.30603272 0.62946063 -0.1246811 -0.531258 -0.2500319 -0.46196628 -0.5073208 0.13552558 -0.09620567 -0.4846729 -0.24314646 -0.5265927 -0.39532328 -0.7184199 -0.11639132 0.11444627 0.44464278 -0.092302024 -0.4550033 0.121178746 0.14640728 -0.31896332 -0.3014238 -0.058274534 0.17542073 -0.7781673 0.119257376 -0.23750027 -0.5042229 0.27062622 0.43498474 -0.17998405 -0.34541798 -0.51216584 -0.11885178 -0.3403277 -0.26690686 0.108752556 0.47173974 -0.3756552 -0.19322954 0.23710634 0.32643583 0.49865746 -0.31446597 -0.79277277 -0.23436743 0.122043505 -0.21540368 0.3783778 0.3860812 -0.53102916 -0.7058075 0.19013037 0.24716608 0.5945413 0.27143535 -0.3439446 -0.8363621 0.5549133 -0.28758213 0.6800847 -0.331418 0.1996004 0.24198149 0.8606361 0.47013974 -0.2620382 0.09604631 -0.0061361156 -0.049600683 0.1016029 -0.046232246 -0.1406069 0.14565569 -0.17495136 -0.5011532 0.39510715 0.21783069 0.3438794 -0.2582975 0.07426726 0.07782245 -0.23593384 0.38219973 0.4437702 0.52701163 0.34667885 0.8056408 0.40096724 0.13261299 -0.3730725 -0.10458412 -0.06796499
linear -1.2364058 0.3599558 0.2908478 0.99312097 0.3057135 0.023885615 0.07034254 0.6490692 -0.73057395 -0.3383207 -0.79981655 -1.3533064 -0.73743844 -0.19406909 0.19189431 -0.27115628 -0.08851365 0.26345634 -0.09108402 -0.0025120592 -0.018465389 -0.099050604 0.69597566 -0.99478304 1.1609899 -0.45213085 -1.0476953 0.033968516 -0.62193984 -0.5360771 -0.03920173 0.72482914 0.42225507 -0.30030456 0.15182179 0.8796662 -0.3005137 -0.29195675 -0.17877798 -1.5167462 -0.23559096 -0.7714034 -0.04121883 -0.024758294 0.10008774 -0.34849575 0.81403035 -1.4899254 0.18453433 0.49947387 0.95011264 0.18446489 0.6494009 -0.75200635 0.42280516 -0.12724486 -1.2846681 0.57404715 -1.067389 0.6957646 -0.4424817 -0.2725972 0.060907878 -0.050330326 0.4108249 0.06326023 0.8433687 1.2839184 -0.34866732 1.5982074 0.07813979 -0.37148315 1.085743 0.5537563 -0.57471067 -0.33809957 -0.29667643 -0.9074648 -0.4198919 0.5435253 -0.9562187 -0.5896196 -0.5085982 -0.29999325 -0.98151386 0.12445407 1.6094637 -0.24237116 0.7356294 1.1273603 1.1576972 -0.12343635 -1.0938784 1.0802288 0.95268416 0.7728707 -0.15353258 0.023500206 0.011642416 -1.1674477
solver -0.45270306 0.42982274 0.1107313 0.5035338 -0.19815378 -0.19099015 0.25377217 0.57546335 -0.5875917 -0.28138706 -0.20016654 -0.6445843 -0.49024963 0.14134263 0.08516023 -0.28998408 0.07224156 -0.31045723 -0.2964697 -0.3428771 0.027826097 0.013187417 0.34624478 -0.51342034 0.20064685 -0.2414969 -0.4564228 -0.15480894 -0.38810104 -0.36699888 0.07275363 0.17039816 0.26584414 -0.30014247 -0.10828001 0.4267771 0.13075197 -0.096797325 -0.21282049 -0.871086 -0.03870605 -0.4061199 -0.19266695 0.11899192 0.26494846 -0.2085898 0.50488466 -0.6310527 0.12762839 0.61413044 -0.06805357 -0.17777815 0.028982868 -0.27546814 0.2715456 0.1560205 -0.6856094 -0.12171316 -0.6723809 0.20249367 0.07397273 -0.2025261 0.3003011 0.043946106 -0.091138504 0.0007912087 0.2743792 0.7308646 -0.4179129 0.85357565 0.24469747 0.045043834 0.84578323 0.28380603 -0.22776183 0.037480842 -0.26912606 -0.5412287 -0.45648724 0.27592275 -0.23159577 -0.27443397 -0.6830641 0.0873309 -0.55167603 -0.040352777 0.73297393 0.04475993 0.28929675 0.528501 0.8464429 0.093078665 -0.18000482 0.7026046 0.9716857 0.55365807 -0.28262055 0.13098003 -0.12660907 -0.7879598
approach -0.18669604 0.34348089 0.023888506 0.1722278 -0.36200538 -0.40879327 0.39327794 0.53568166 -0.107357174 -0.50405675 0.03146714 -0.63278973 -0.27258673 0.42243183 -0.18963774 -0.2965702 -0.0013106638 -0.35907367 -0.37961158 -0.6143716 -0.07420431 0.25775957 0.121240474 -0.20585157 -0.20463356 0.1783948 0.28555867 -0.15097557 -0.2646136 -0.0022107626 0.29097992 -0.30273044 0.2378538 -0.21143903 -0.6484725 0.34280357 0.29940534 -0.07420277 -0.23509079 -0.7871041 0.1375814 -0.2563558 -0.093548864 -0.09036494 0.21291667 -0.2154489 -0.31745628 0.12663704 0.3257386 0.4768261 -0.40633714 -0.42954662 -0.23099057 -0.020954072 0.02217109 0.30616662 0.14499393 -0.16339952 -0.63722104 0.1050036 0.20282033 0.069638275 0.16454637 -0.52864546 -0.483399 0.20689113 -0.15299855 0.5731059 -0.3931725 0.36410254 0.2619043 0.37837112 0.4708444 -0.05112654 0.34881535 0.004357533 0.039307706 -0.01671771 -0.3281197 0.120927595 -0.07008609 0.17707154 -0.6198973 0.40014517 -0.038587626 0.026843823 0.23371865 0.36532903 0.20082763 0.020565243 0.6156364 0.41167066 0.33879966 0.5586779 0.73282146 0.37238318 0.030607648 -0.21760777 0.07107711 -0.09876506
new -0.097330615 0.48562667 -0.09698246 -0.0020682777 -0.10702029 -0.36231533 0.2977806 0.4777456 0.11225179 -0.63269186 0.13091739 -0.9249584 0.031941053 0.63990724 -0.3204649 -0.2870202 0.25357807 -0.26033884 -0.2902364 -0.71718353 0.34268713 0.4022597 -0.1638849 -0.12806366 -0.28028756 0.19008565 0.36046717 -0.14619152 -0.41493133 -0.15356879 0.23406938 -0.25147596 0.072232015 -0.21351777 -0.7934596 0.2448057 0.09647089 -0.14338286 0.043298297 -1.0170016 -0.0035934479 0.16577749 0.06202236 -0.398638 0.1868034 -0.12744445 -0.56555283 0.28145802 0.41052046 0.5369777 -0.34121594 -0.3755491 -0.53258985 -0.20217144 0.21362366 0.13252555 0.40800267 0.01918956 -0.5251652 0.083029665 -0.016392317 0.064486645 -0.0553114 -0.8748524 -0.6721372 -0.0020051445 -0.26693124 0.23856287 -0.48430896 0.2102373 0.29994154 0.21627197 0.44897828 -0.051070902 0.5527618 0.17437737 0.47611508 0.13979751 -0.6688068 0.018083433 -0.30070904 0.5302459 -0.5519292 0.8259082 0.115615726 -0.01771067 0.5928947 0.7065384 0.14486799 -0.09773829 0.46562198 0.5669036 0.32912827 0.60817283 0.46941304 0.50572336 0.06285634 -0.07512211 0.4182957 0.264728
generat -0.17657362 0.47144392 -0.076434925 -0.09367237 0.15811083 -0.6998535 0.21546192 0.49362 -0.2483019 0.1180792 -0.13369554 -0.59961975 0.18175112 0.3448532 -0.22646093 -0.17805265 0.21848075 -0.050704088 -0.41023377 -0.74002004 0.39227638 0.18052486 -0.106679775 -0.5733628 0.06290829 -0.36179635 -0.120922245 -0.284207 -0.38273218 -0.22564693 0.7135637 0.64796877 0.12667269 -0.30377027 -0.17725308 0.23496325 -0.2421093 -0.21379115 0.17556815 -0.9803404 0.18661284 -0.30675772 0.30317116 0.12396287 0.027910583 -0.42907092 -0.14752673 -0.11224948 0.16991596 0.21957718 0.15341553 -0.21173292 -0.045036376 -0.07364134 -0.04229337 0.1955193 -0.18552186 0.33714998 -0.72962016 -0.10382516 0.2016306 -0.07044239 0.122883 -0.15870643 -0.055543654 -0.07762107 0.20812798 0.3582248 -0.38864923 0.60840553 -0.024640959 -0.16987425 0.08715445 0.122808844 0.5547389 0.18353961 0.1567787 -0.13140287 -0.43343624 0.00997465 -0.17376238 0.35240737 -0.70654035 0.37633264 -0.479046 -0.17957518 0.69404536 0.44951656 0.3266662 0.050760362 0.76464856 0.22685623 -0.08673471 0.21772201 0.54583436 0.3380514 -0.08172419 0.15572667 0.13708085 -0.16958052
framework 0.05460103 0.5725807 -0.07668518 -0.24377452 0.25919402 -0.5438063 0.18747728 0.7278616 0.024119385 -0.594428 0.31340036 -1.0943742 0.248411 0.60745364 -0.14296034 -0.27637056 0.40123907 -0.112630785 -0.2144534 -0.7906891 0.797946 0.17549945 -0.43887287 -0.20286456 -0.35161895 0.04396628 -0.120097175 -0.20836362 -0.33119902 -0.22420345 0.36863372 0.26168326 -0.13250804 -0.43475387 -0.4591234 0.103246935 -0.10460263 -0.26160893 0.2013645 -0.92289907 -0.0240189 0.13316658 0.018615553 -0.1823202 0.40459156 -0.14554471 -0.38709494 -0.057339754 0.20979767 0.37831384 -0.009529775 -0.3224883 -0.2659041 -0.29251125 0.3517236 -0.044423338 0.14400014 0.21459812 -0.263603 0.024374085 -0.1577148 -0.24455757 0.07316619 -0.55319595 -0.5930495 -0.14214806 -0.048098717 -0.21640949 -0.65605146 0.3792401 -0.13252585 -0.09910647 0.47857934 0.1671393 0.5398605 0.48544928 0.47027168 -0.01816943 -0.9445978 0.098438576 -0.5019801 0.6658396 -0.2434583 0.88579 -0.09929672 -0.17000678 0.7483341 0.91177577 0.24712498 0.016236661 0.61460686 0.5513852 0.2056478 0.43390644 0.55385095 0.5840835 -0.20295374 0.1451094 0.36370453 0.38824737
equat -1.4941382 1.1666414 0.38659233 1.1224515 -0.63959396 -0.24937132 0.39138833 0.8760469 -0.2730579 -0.1466033 -0.15741727 -0.26357716 0.1179665 -0.056286838 0.13564886 0.12376621 0.7402227 -0.13857533 -0.4066826 -0.42284408 0.34563723 0.5554027 0.2940827 -1.4900167 1.5170368 -0.4525945 -1.2291813 0.1401385 -1.0652782 -0.95462507 -0.21120222 1.3783401 0.5741048 0.81557775 -0.13171569 0.1606818 -0.21897693 -0.3555503 -0.15408383 -0.9106972 -0.3838276 -0.25214046 -0.19497456 -0.64467853 0.22934589 -0.9241375 1.1590797 -1.7542998 -0.11559937 0.98590046 -0.16100739 0.10894027 -1.1551316 -1.2444197 0.47656718 0.5589744 -1.1472374 -0.21786357 -0.74367774 0.6324519 0.044286627 -0.67156327 0.08153793 0.33032155 -0.34897727 -0.5822513 0.5263168 0.9969406 -0.5269588 1.9316196 0.25966477 -0.8109184 1.1467792 0.34744716 -0.21105841 0.5134699 -0.03641441 -1.4851784 -1.542129 0.6208386 -0.17748716 -0.7666342 -1.0680575 1.5505407 -0.9260582 -0.49621913 1.5347108 0.124689765 0.12646632 0.77218646 0.80341727 -0.058980253 -0.1199246 0.74092233 1.6414694 1.1108623 -0.014950876 0.81570446 -0.09357227 -1.5764891
simul -0.17432785 0.61423856 0.076820016 -0.118837215 0.009657197 -0.42514145 0.11930822 0.8338449 -0.21587157 -0.4016351 -0.07703056 -0.47982827 0.03415047 0.33524057 0.152717 -0.35426348 0.1468253 -0.19434637 -0.29693848 -0.85467017 0.5471307 0.053672563 0.12932397 -0.26208225 -0.31881997 -0.13332255 -0.3046373 -0.2195426 -0.29991713 -0.28503197 0.30359545 0.012808779 0.0043995944 -0.30296618 -0.041506715 -0.021359123 0.1118638 -0.11888191 -0.090380214 -0.3073287 -0.102501206 -0.13005607 -0.111259855 0.0037862274 0.49083912 -0.4356772 0.17018352 -0.25978118 0.109646514 0.34759498 -0.09008857 -0.56064796 -0.3571578 -0.11797817 0.121893875 0.1180607 -0.11538246 -0.16593161 -0.2699854 0.09249226 0.16542788 -0.077146426 0.46096703 -0.005912377 -0.66484517 0.078861535 -0.011237456 0.08883033 -0.6566756 0.5940231 -0.05782835 0.20602693 0.51761675 0.050592814 0.013603433 0.47636148 0.17663302 -0.29834938 -0.45248798 0.02417081 -0.14457864 0.080787934 -0.3970114 0.6485919 -0.041875135 0.057647437 0.13343874 0.38549525 0.27806047 0.12727769 0.59370035 0.2870407 0.41090629 0.1482043 0.6762931 0.6496699 -0.02668643 0.18060024 -0.089293115 0.024493784
algebra -0.8483829 0.4513474 -0.13003129 0.6376706 0.50684935 -0.17603214 -0.022489801 0.4902786 -0.7865189 0.07462834 -0.68953127 -1.3427918 -0.23872192 -0.09991255 0.027020905 -0.1431727 0.43392366 -0.20096155 0.19149321 -0.24107069 -0.1904817 0.19052584 0.19302921 -0.8546931 0.7164195 -0.3908471 -0.8456674 0.0268049 -0.8662958 -0.5940933 0.23539855 0.79136974 0.019938251 -0.3950516 0.004626405 0.8401611 -0.40697443 -0.5702746 0.022754805 -1.7397833 -0.20987527 -0.36951706 -0.13019659 0.04975693 0.103458576 0.101643875 0.38297677 -0.9846429 0.22011827 0.3583919 0.81336844 0.44550928 0.5106048 -0.30750635 0.7069057 -0.36700395 -1.099602 0.7523925 -0.8515172 0.36639908 -0.6951304 -0.41684502 -0.5095017 -0.21484058 0.7025214 -0.08100753 0.68468016 0.6615214 -0.15414007 0.9356966 0.11400734 -0.5118454 1.0521544 0.2282019 -0.15230437 -0.41404912 -0.051436193 -0.5756779 -0.4635367 0.5481565 -1.218792 0.2676725 -0.67089033 -0.15193325 -0.93566793 -0.078532495 1.6981652 0.49080575 0.7373001 1.033911 1.0104532 0.16277942 -0.95207494 0.9535144 1.010723 0.4926308 0.09338494 0.39870408 0.42205003 -1.0588461
oper -0.5571168 0.07447688 0.19708252 0.24537663 -0.0038322166 -0.4599089 0.16581887 0.5865398 -0.5310333 0.055970307 -0.6507934 -0.7005811 -0.23805235 -0.30763113 -0.101652056 -0.07823981 -0.11388514 -0.2917964 -0.25616807 -0.304458 -0.36260754 0.13476898 0.14924227 -0.565733 0.46469477 -0.3070772 -0.5119595 -0.21571638 -0.34972242 -0.0056122392 0.24303195 0.51701975 0.20085557 -0.02442794 -0.050328817 1.0393153 0.025966052 -0.42269602 -0.36633426 -1.1136003 0.11252134 -0.9299634 0.06305878 0.5939153 0.1962101 -0.057211593 0.057396907 -0.53183824 0.11424871 0.020631956 0.53541505 0.01804107 0.61511207 -0.08333776 -0.18462227 0.24060684 -0.28385007 0.3484803 -0.7658803 0.19795725 -0.12844929 0.099410996 -0.30176315 -0.20450936 0.2796058 0.50237715 0.6872523 0.869885 0.060525432 0.7081133 -0.3204002 -0.14968403 0.3157392 0.213559 0.17772721 -0.30699465 -0.4922931 -0.3409442 -0.08237729 0.43520826 -0.14741799 -0.0120055415 -0.52706337 -0.32628784 -0.5375985 0.1812178 0.33642527 0.12593663 0.5164851 0.64529264 0.7898697 0.213542 -0.6406357 0.37643084 0.7175744 0.094944306 -0.024598833 -0.44831035 0.063191466 -0.734923
differenti -1.1938438 1.3449805 0.5237282 0.7838178 -0.36932284 -0.5122279 -0.101284176 0.56593287 -0.47699976 -0.2090388 -0.25213826 -0.37967125 0.46206692 0.34774074 0.24230307 0.27837938 0.55957055 0.17478102 -0.51257277 -0.6506751 0.93233234 0.1365459 0.11704577 -1.6928068 0.9903035 -0.45374686 -1.4514124 0.30149966 -1.1795914 -1.2662756 0.08927401 1.6304169 0.63096285 0.6821295 -0.17706996 0.033940528 -0.44317186 -0.088327035 -0.20003687 -1.3953305 -0.25631228 0.07725775 -0.054165207 -0.75068533 0.061008602 -0.7025096 1.0473033 -1.4283229 -0.48018694 1.2181115 0.008589127 0.17408162 -1.3520633 -1.4606525 0.8493195 0.40508246 -1.2202153 0.12264555 -1.1140943 0.20695767 -0.056240465 -0.63958687 -0.029758427 0.4797205 -0.018718304 -0.8474353 0.63031185 0.89902854 -0.49058795 2.1371548 0.026432613 -1.0417302 1.0353754 0.67396086 0.018606368 0.7482449 0.16916421 -1.551337 -1.9129586 0.24805248 -0.18593997 -0.50871134 -1.1208181 1.9202905 -1.1999705 -0.495189 2.0126216 0.18612513 -0.0597924 0.4521787 1.0288424 -0.1770434 -0.5074703 0.9503368 1.2082025 1.2957304 -0.44410336 0.9410957 -0.0640673 -1.5846691
solv -0.92053384 0.6931037 0.20152666 0.7889214 -0.43053034 -0.09746331 0.32303837 0.6668277 -0.34032103 -0.24275327 -0.2889492 -0.44750392 -0.28922862 -0.0057324884 0.29081872 -0.053513445 0.26758176 -0.21879293 -0.33462054 -0.26808408 -0.020294765 0.26960742 0.5555613 -0.88128656 0.7921151 -0.17206532 -0.86234576 0.15442392 -0.65846103 -0.60833716 -0.13326941 0.51665 0.47718045 0.3162987 -0.1353537 0.23198968 -0.007726532 -0.20131339 -0.4082433 -0.6921718 -0.3742137 -0.3341356 -0.099228434 -0.320797 0.22847462 -0.22948854 0.55486625 -1.0377223 0.08777286 0.8091353 0.016556531 0.07205764 -0.33804575 -0.79503655 0.43911174 0.21654445 -0.8234084 0.022767061 -0.558895 0.7409416 -0.23494081 -0.31686184 -0.003032379 0.041284967 -0.09797613 -0.13116872 0.36752984 0.85696286 -0.3819531 1.2913623 0.06580046 -0.49205136 0.9857522 0.057026956 -0.47486326 -0.0015864638 -0.14947514 -0.985344 -0.7169333 0.44651657 -0.4461953 -0.39254698 -0.7397192 0.62171614 -0.50379205 0.06266495 0.95874923 0.03918489 0.38212818 0.8125496 0.6945017 -0.09633847 -0.25089222 0.68112415 0.9421112 0.6084448 0.083569475 0.30458626 -0.08266437 -1.0637418
element 0.6583343 -0.2067465 -0.6795266 0.6484484 -1.6874596 -1.3591021 1.7521504 1.7649806 -1.0361961 0.89129734 1.0491863 -0.44275644 -0.41236386 1.6770961 -0.61774445 -0.46073622 0.79521435 -1.0294095 -1.700581 -0.7156778 0.66286814 -0.13504696 -0.92568016 -0.39102986 0.5559282 -0.8502905 0.6725609 -0.9808262 0.11709133 0.7032848 1.1068438 1.483944 1.3715771 -1.0430275 -0.108763784 0.5788108 0.4877577 0.8732381 -0.24997427 -1.1704456 1.2505968 -0.84237754 0.03622483 1.020699 -0.110654816 -0.108148284 0.4353118 0.035088263 0.8093605 0.43047118 -1.575228 -0.60580945 0.9800659 -0.75694174 0.34921607 0.6082232 -0.96158487 0.6890001 0.25612342 0.9225944 1.6408801 -1.5300401 1.0347196 -0.6289727 -0.5741181 -0.762996 0.4349307 1.1602027 -1.5053786 0.85910153 -0.2085421 -0.57833856 0.3309418 0.31393868 0.80854946 0.3001367 -0.7169944 -0.87491953 -0.65475255 1.0195029 1.043579 0.8571866 -1.8663603 -0.7946785 -1.5344572 -1.0100741 0.85906124 0.32264778 0.9122126 1.5684323 1.7641699 -0.11348696 0.98509717 1.3826839 1.0162718 -0.29707724 -0.17346685 0.5855507 0.31517157 -0.5332002
mem 0.30549464 0.087361425 0.4931653 -0.3767451 -0.06921079 -0.60544574 0.27363116 1.1892006 -1.0842587 -0.4536711 -0.833098 -0.37217247 -0.99568456 -0.047604986 0.092244625 -0.32990664 -1.1432161 -0.3328729 -0.6737661 -1.0428926 -0.2884543 -0.38928893 0.7562236 0.2985078 -0.8467304 -0.37671262 -0.20313665 -0.79645365 0.30706432 0.20982757 0.23918779 -0.9311142 0.14946616 -0.862084 0.508896 1.1865908 0.5960087 0.0882109 -0.5648066 -0.36596146 0.4408108 -1.1625286 -0.18202612 1.0337465 0.7362049 -0.54179585 0.17956862 0.1987206 0.4298424 0.17607495 0.1297782 -0.9818508 0.6046386 0.7798477 -0.743007 0.36357754 0.4090214 -0.5197908 -0.6883465 -0.31920993 0.46159866 0.9665358 0.69233215 -0.18250874 -0.7689979 1.3081738 0.31459105 1.1616066 -0.26881847 0.12186585 -0.058846526 1.0268763 0.19187014 0.13063124 0.003466173 -0.22015697 -0.9374399 -0.019552719 0.85088456 0.22882904 0.3781515 -0.2363194 -0.44732273 -0.83904696 0.020511245 0.56525975 -1.2567008 -0.3317439 0.4704149 0.36358297 0.7306546 0.16901985 0.15640937 -0.07319561 1.0363586 0.36563668 -0.44694656 -1.0416152 -0.62502354 -0.07228342
solut -0.860453 0.52812976 0.15639438 0.5600253 -0.5439737 -0.067210376 0.42660865 0.68235713 -0.18998733 -0.15087119 -0.37730768 -0.23188178 -0.17350917 -0.23912953 0.16662322 -0.1301323 0.20554496 -0.36830333 -0.35081846 -0.4170701 -0.15315732 0.3801712 0.6317254 -0.6256131 0.7405776 -0.15990286 -0.6197669 0.019504067 -0.5760829 -0.34028476 -0.119796716 0.29293376 0.38569438 0.500938 -0.12117583 0.25788575 0.09948866 -0.30878863 -0.5042474 -0.39870316 -0.33355987 -0.5181129 -0.06696356 -0.11763595 0.18416144 -0.4254131 0.34420568 -0.70494866 0.09250365 0.63139063 -0.06787823 -0.20172183 -0.42890003 -0.57470256 0.03686515 0.522933 -0.3269542 -0.18012299 -0.5291468 0.8268996 -0.098346755 0.1306514 -0.18402147 0.044033773 -0.50588506 0.20229813 0.26793435 0.9346182 -0.23074745 1.0301524 -0.02095218 -0.24596435 0.66760343 -0.23534058 -0.31699768 -0.13996729 -0.22544669 -0.8102997 -0.37222108 0.42439902 -0.08480676 -0.4692194 -0.65482485 0.6920439 -0.2302291 0.26272058 0.3861018 -0.074229226 0.34252444 0.46852204 0.34759715 -0.06297509 0.08017797 0.37684146 0.96385825 0.38142192 0.37980965 -0.04287909 -0.124958515 -0.90640086
also -0.093426295 0.21881925 -0.11159433 -0.09549815 -0.22327058 -0.31920868 0.28850582 0.4943761 0.087386236 -0.5213052 -0.0485243 -0.76478773 -0.1255254 0.34392884 -0.19488944 -0.3076614 0.018074902 -0.36976397 -0.3134761 -0.6078507 0.007279932 0.2672425 -0.06248375 -0.0029925143 -0.3175791 0.15239848 0.24978869 -0.35508704 -0.2566347 0.019321963 0.21514766 -0.4296938 0.0094659235 -0.057721328 -0.67377037 0.36979493 0.23135428 -0.3077718 -0.14111756 -0.73897094 -0.008811049 -0.10288112 -0.002316878 -0.081586316 0.33613396 -0.13214323 -0.57415265 0.37612006 0.4061733 0.4093658 -0.25064483 -0.5951258 -0.2762031 -0.049351905 -0.15349935 0.41264692 0.5632065 -0.18448934 -0.55401343 0.13372046 0.08562373 0.38653696 -0.1489882 -0.67537254 -0.745114 0.33724886 -0.18842326 0.42457905 -0.33254302 0.18199974 0.10574786 0.40040523 0.2616202 -0.22893979 0.4740864 0.08292571 0.19883242 0.1814207 -0.32359424 0.060301904 -0.037931774 0.22348909 -0.521915 0.6519053 0.19365668 0.22093642 0.065318584 0.5310476 0.18411438 -0.18591993 0.30716762 0.5428307 0.34987897 0.446273 0.52210087 0.3748144 0.1317266 -0.3484472 0.27309513 0.20747413
differ -0.042734884 0.1957482 -0.062277127 0.122462206 -0.4499324 -0.5446851 0.5322713 0.9627416 -0.460033 -0.06821188 0.013199251 -0.26863238 -0.2256452 0.37532583 -0.04823272 -0.19445825 0.004112128 -0.46557072 -0.6133376 -0.6875203 0.2131792 0.010171782 -0.05689281 -0.2547946 -0.11483743 -0.30329424 0.13230057 -0.47439447 -0.12004345 0.12729986 0.3896016 0.20608552 0.4600221 -0.26829758 -0.060349684 0.4559197 0.1907405 0.22057578 -0.2996265 -0.57670885 0.49380952 -0.3902408 -0.076303825 0.34029993 0.22626166 -0.10125419 0.13883005 -0.025734982 0.37253937 0.3254331 -0.38847592 -0.3678157 0.20473349 -0.15495668 0.072530776 0.27137274 -0.18127525 0.07332362 -0.2032547 0.3297714 0.47841465 -0.11138453 0.28262985 -0.3176191 -0.39073652 0.0071052318 0.1301144 0.5733155 -0.5823576 0.3662091 -0.0901905 0.045389798 0.38067478 0.05479366 0.27280796 0.05651602 -0.08205415 -0.39225632 -0.36751467 0.28962386 0.27162468 0.24751528 -0.6569467 0.08120336 -0.49486595 -0.03154285 0.06496964 0.24775429 0.3939231 0.43812934 0.7760599 0.11073612 0.32785198 0.5614732 0.6759161 0.14512001 -0.007274921 -0.058635734 0.047525745 -0.22927272
it -0.25890556 0.47552043 -0.060367998 -0.20414732 0.0645446 -0.31953937 0.07072002 0.5620551 0.04165375 -0.47625357 -0.18489118 -0.66598743 0.21828403 0.24208729 -0.11329879 -0.27391472 0.2485587 -0.29717147 -0.058810506 -0.8102632 0.38852462 0.30820876 0.03134946 -0.12238574 -0.21744153 0.040181376 0.0038786815 -0.2496438 -0.41708007 -0.03492287 0.25914204 -0.043596145 -0.14989717 0.04816824 -0.3289413 0.15099186 -0.04615469 -0.38525602 -0.025572916 -0.59061044 -0.091846265 -0.054113913 0.08241039 -0.12476892 0.3470318 -0.27263376 -0.419644 0.12594059 0.32153353 0.260651 0.007204166 -0.38631135 -0.49152622 -0.08179831 -0.033123754 0.16101247 0.512073 -0.017938057 -0.3853654 0.14662482 -0.088916436 0.3519871 -0.21264134 -0.4933749 -0.6955121 0.2356187 -0.031340063 0.04740416 -0.40659085 0.32479024 -0.15617901 0.12901123 0.32307687 -0.2735315 0.3981726 0.16193314 0.39841136 0.054154698 -0.35157806 0.029353594 -0.21612906 0.26570758 -0.34438178 0.9006989 0.28198126 0.19235186 0.20574898 0.7130664 0.26875156 -0.117877804 0.19485888 0.48395392 0.27471578 0.13203654 0.4901879 0.42161977 0.29941913 -0.2269099 0.3404687 0.27540663
learn 0.9741623 0.7554373 -0.046784393 -1.5304639 1.3108019 -0.78353935 0.21023764 1.8211582 0.35563517 -1.5749981 -0.5264803 -0.93874717 0.48170373 -0.5855963 1.109939 0.1475466 -0.23529677 0.041915223 0.22948672 -1.016819 2.007026 -0.13191035 -0.6348704 0.14838195 -1.3799527 0.5762336 -1.9221724 -0.45616794 -0.3887911 -0.39832196 0.4314395 -0.42105067 -0.9293722 -0.06602458 0.50352615 0.46103802 -0.39066017 -0.6373803 -0.54097056 -0.013155311 -0.8835019 0.15602686 -0.19275591 -0.08659308 1.5318906 0.018549003 -1.144175 -0.70863736 0.0904714 -0.12353382 0.97333336 -0.4997702 0.24062206 -0.9034499 0.7535443 -0.5747564 1.05516 0.37810794 0.17033717 0.44128364 -1.2899982 0.44733196 -0.7303885 -0.6966648 -1.2081724 0.20683311 0.5019193 -1.38356 -0.9150084 -0.18179275 -2.1330707 -0.22262715 0.17828043 -0.10003496 0.38001448 0.6526031 0.68868685 0.43092114 -1.8055288 0.33279297 -1.2437769 1.4217309 1.4286292 2.3669782 -0.08185388 0.7290833 -0.66306067 1.1869899 0.1206232 -0.8998364 0.29279435 1.0264691 -0.15605615 -0.80656725 0.6171194 0.3319963 -0.71201247 -0.6412825 0.17132126 1.2592665
structur -0.14576112 0.32732388 0.08419806 -0.035193097 0.0020006213 -0.486995 0.31196722 0.7169202 -0.15490498 -0.2830138 -0.11357974 -0.7270667 0.057380885 -0.006666921 0.11023627 -0.0425285 0.045845892 -0.076127715 -0.29414374 -0.41573155 -0.0649819 0.16265792 -0.12093378 -0.15527663 0.13967587 -0.12847252 -0.390334 -0.19622128 -0.11678577 0.027445259 0.18682574 0.33875576 0.012616219 0.073039114 -0.035571255 0.6379579 -0.014630017 -0.3633203 -0.25086 -0.631728 0.03460143 -0.44744098 0.10209209 0.32311037 0.19888356 -0.02751956 -0.30800417 -0.2727157 0.24410667 0.21002497 0.2081388 -0.18793897 0.37322837 -0.16304784 -0.054506496 0.28284594 0.025646538 0.36361063 -0.31751013 0.34787548 -0.22548522 0.05200596 -0.28678545 -0.30767527 -0.20016058 0.35431436 0.31443563 0.33477706 -0.17061503 0.53215504 -0.44992435 -0.21292485 0.24359748 -0.08727369 0.22514737 0.037059393 -0.08013139 -0.3703272 -0.2482229 0.38537773 -0.24397014 0.27903157 -0.25689504 0.15064117 -0.14379336 0.2506543 0.039209142 0.44358683 0.5993468 0.4964242 0.4690206 0.16495271 -0.2326315 0.21232924 0.5578228 0.12963516 0.11923903 -0.435057 0.24505287 -0.09148566
larg -0.63991344 0.46877795 0.24298327 0.27974 0.36874336 -0.05338931 0.22072905 0.8589907 -0.37841195 -0.519422 -0.611306 -0.3386877 -0.64248836 -0.39638212 0.5959586 -0.20247014 -0.23110583 0.075580925 -0.41531095 -0.35109034 -0.34648785 -0.19766745 0.84443736 -0.47212338 0.21680361 -0.44817105 -1.0019597 -0.13721028 -0.2916198 -0.3477395 -0.06997302 -0.27574095 0.096882895 -0.09272218 0.09310713 0.3951225 0.31195286 -0.20998764 -0.3243129 -0.06585956 -0.28876698 -0.6546788 0.012290553 0.2925479 0.67567354 -0.22694278 0.24691682 -0.5207702 0.16728568 0.38839766 0.70758367 -0.36315674 0.52992487 -0.49926767 -0.12793908 0.27328625 -0.40277267 0.10116003 -0.45854583 0.6980651 -0.3594697 0.28685465 0.21299383 0.28580815 -0.07477358 0.39274022 0.11927273 0.8161344 -0.3859351 0.6605417 -0.5571998 0.10815579 0.9641083 -0.018837037 -0.71854496 -0.3049227 -0.5515096 -0.7494233 -0.1544779 0.28756803 -0.30740798 -0.48519507 -0.37347075 0.16693658 -0.08502985 0.80789745 0.111223996 -0.20523828 0.7300843 0.77217877 0.8676262 0.27141392 -0.07475575 0.3003943 0.95005715 0.59078795 -0.037421674 -0.0526166 -0.2868131 -0.7051623
number -0.5285297 0.23933475 0.3386417 0.080837026 -0.08194063 -0.37217703 0.17662783 0.63144046 -0.3104292 -0.022893373 -0.77552044 -0.2659163 -0.0797274 -0.5570494 0.07489234 -0.29451513 -0.1409772 -0.3992384 -0.4250549 -0.5644093 -0.26927054 0.28401354 0.55078846 -0.23088522 0.28797135 -0.3106258 -0.5230347 -0.2193315 -0.32572997 -0.036992595 0.12463296 -0.033398364 0.12231739 0.21845907 0.014324686 0.36678332 0.272707 -0.4690586 -0.59572124 -0.26916724 -0.1917859 -1.0007083 0.114577845 0.57776564 0.32274508 -0.4253398 -0.00014805477 -0.4317993 0.05330732 0.11687296 0.30855215 -0.42827648 0.114565805 -0.061393917 -0.38480443 0.3893491 0.06835151 -0.037533283 -0.50407946 0.5917684 -0.04353777 0.55991966 -0.17695339 0.014615479 -0.45876527 0.6834707 0.49146703 0.83946407 -0.13899109 0.6996614 -0.3479379 0.06260269 0.31680033 -0.2826663 -0.10741002 -0.295021 -0.45261845 -0.26046586 0.15500507 0.26023278 0.15523027 -0.2502813 -0.43465894 0.25508082 0.06312848 0.6944807 -0.46309984 -0.018294647 0.49610114 0.3005154 0.36377177 0.143553 0.012361536 0.010909935 0.48059863 0.07046534 0.26555562 -0.51511526 -0.19788978 -0.5279601
user -0.2659965 0.5815632 0.0023605616 -0.4125934 0.38193753 -0.5531636 -0.38195837 0.7192156 0.085831404 -0.27473238 -0.36597276 -0.72292674 0.91220874 0.3056657 -0.17274557 0.07716047 0.30992803 -0.17658108 0.061674695 -1.1377189 0.7632979 0.5468646 -0.3616405 -0.2647525 -0.41830572 -0.082742766 -0.082515135 -0.4072622 -0.47530437 0.12958972 0.6030626 0.5510825 -0.3090364 0.377332 -0.23663451 0.21642256 -0.4438799 -0.42475915 0.10258845 -0.8055092 0.11291172 0.097791925 0.32937616 -0.07427832 0.2928787 -0.17876925 -0.5361819 0.076263696 0.08105734 -0.051260114 0.4267442 -0.06589916 -0.7131731 -0.0286906 -0.055521056 0.009739554 0.66735756 0.15821834 -0.4397812 -0.3289336 -0.046012472 0.2757004 -0.47226146 -0.41394338 -0.52799135 0.053282168 0.14855045 -0.370261 -0.33150333 0.36222243 -0.3364881 -0.42189392 0.04681593 -0.14962642 0.8086611 0.41797912 0.79919213 0.1450325 -0.6252273 -0.08636371 -0.18719122 0.4409792 -0.40681747 1.1621566 0.32623065 0.06457206 0.21856059 1.3907558 0.13589138 -0.22926533 0.27024937 0.42051798 0.016134875 0.052586745 0.14270113 0.6510404 0.11854199 -0.13501969 0.46773005 0.6630392
order -0.15543187 0.4295796 -0.07163099 0.5295653 -0.72678393 -0.46632874 0.94035536 0.9834573 -0.54169166 0.2530038 -0.12891696 0.1612668 -0.37392125 0.23622714 0.008636175 -0.17725012 0.10680152 -0.48426294 -0.64925826 -0.84023416 -0.015016347 0.1105202 0.1698163 -0.54384977 0.4000172 -0.33865833 0.034758095 -0.3351129 -0.14541502 0.19951563 0.49842945 0.6267363 0.7281712 0.07437787 0.045434 0.50835085 0.31818774 0.3402587 -0.6229458 -0.41043824 0.43062466 -0.84897655 -0.11027162 0.35344505 -0.035662312 -0.4574255 0.55507684 -0.32773808 0.28612316 0.5127301 -0.77974796 -0.20390993 0.01424747 -0.11493271 -0.16877997 0.5983392 -0.694368 -0.20706671 -0.37318927 0.5012287 0.83957404 -0.2515619 0.37260014 0.008862766 -0.28534168 0.13212222 0.46206218 0.88638496 -0.62491894 0.9430915 0.017685799 -0.20003174 0.32940987 -0.26770797 -0.032289978 0.021136109 -0.62299323 -0.6546173 -0.22806183 0.62802845 0.53978944 -0.27810925 -1.0531743 -0.050665714 -0.64882886 -0.14515767 0.22757924 0.071750626 0.33670828 0.43920827 0.98838687 -0.21237658 0.35928994 0.41163108 1.0634179 0.025320515 0.31337404 -0.094183855 -0.23887227 -0.75739354
python -0.093289055 0.78694767 -0.30864033 -0.41887105 0.42693207 -0.6100861 -0.049329758 0.7064744 0.16434345 -0.35976917 0.039337832 -1.3159826 0.96371305 0.80928797 -0.3745551 -0.32792294 0.79215014 -0.16184567 0.018505134 -1.0505029 1.2687947 0.5183619 -0.6972152 -0.26284936 -0.26366386 -0.0136208 -0.24097234 -0.39359105 -0.50083727 -0.118522964 0.685046 0.79937005 -0.427441 -0.2531522 -0.45846298 -0.11526859 -0.49564326 -0.517429 0.57655567 -1.2156318 -0.21058024 0.22908889 0.2828707 -0.30535495 0.36461133 -0.44944242 -0.5686852 -0.10558376 0.17179772 0.16858788 0.24048655 -0.26547888 -0.693461 -0.3767824 0.20803244 -0.08762853 0.5192445 0.4496799 -0.45388386 -0.16695987 -0.09887032 -0.11072856 -0.23800597 -0.67323357 -0.78427756 -0.36032718 0.05569219 -0.6115494 -0.7607166 0.60483956 -0.3173361 -0.2951196 0.2435462 0.041874725 1.034646 0.6969024 0.9977548 0.28477126 -1.0303881 -0.10642733 -0.63640296 0.7778381 -0.3678375 1.3316036 0.07955598 -0.4514291 1.026789 1.4994069 0.19339982 -0.21648507 0.42688018 0.645344 0.33443472 0.12781519 0.49131298 0.82873243 0.09583112 0.32276958 0.6625353 0.80450886
have -0.24784859 0.52751297 -0.41660032 -0.60000014 0.36811465 -0.039925758 0.16129692 0.6667712 0.06385698 -1.2282497 -0.0046749385 -0.21688327 -0.6069131 0.033457834 -0.18992946 -0.5508625 0.24165095 -0.44644517 0.3714688 -0.9387325 0.28582233 -0.20799549 0.17793182 0.13009773 -0.24652213 -0.2381585 0.48426133 -0.47605178 -0.5883353 -0.22994795 -0.1751338 -0.52161175 -0.09009234 -0.13766748 -0.25004667 0.21137656 0.20864207 -0.49716005 -0.2239775 -0.43098015 0.08167012 -0.1381256 0.34822935 -0.22891101 0.83480215 0.54930717 -0.4065588 0.42333275 0.5982765 0.2771092 -0.18538587 -0.06683294 -0.39836547 0.38264474 0.10013428 -0.04150756 0.5257489 -0.43811816 0.11224135 -0.35721624 0.08579508 0.6471691 -0.14497009 -0.9229922 -0.7250997 0.5243594 0.23062325 -0.11001846 -0.74041843 -0.16546813 -0.7166158 0.019189263 0.25439116 -0.08141588 0.07861663 0.15822484 -0.23621066 0.088727355 -0.7552966 0.19791637 -0.11019404 0.59452486 -0.4404702 1.0653138 0.47700992 0.5322208 0.084099494 0.15898015 0.40804318 0.12457722 0.27799705 0.40077442 -0.1444442 0.5280787 0.13545714 0.80852854 0.092413485 -0.7336837 0.20433025 0.18833861
tensor -0.28279647 -0.11676133 0.08962181 0.20184252 0.3080826 -0.64980197 0.23407689 0.5737678 -0.44516984 -0.20943098 -0.45404252 -1.4023244 -0.060427763 0.029622087 -0.041108266 -0.05715776 -0.19203146 -0.037038103 -0.29514506 -0.15083614 -0.42621985 0.057241075 -0.35123864 -0.5288372 0.39193523 -0.098675 -0.42321154 -0.09278334 -0.26918143 0.2398592 0.4100429 0.7071263 0.07410895 -0.31557092 -0.42767715 1.5150397 -0.16348697 -0.55810136 -0.2995769 -1.6392143 0.2014906 -0.9386928 0.1888499 0.6212562 0.10330514 0.3236171 -0.43153122 -0.41070667 0.23231345 -0.07917902 0.76622474 0.18795216 1.2558938 -0.17919403 -0.11194726 0.10121644 -0.32953936 0.8380695 -0.8048725 0.23451322 -0.2791563 -0.113148205 -0.62286663 -0.67400825 0.58930707 0.50564885 0.72180265 0.7019708 0.13997725 0.68865955 -0.6521635 -0.3040956 0.11438478 0.22164632 0.5317187 -0.3563664 -0.45566428 -0.052112583 -0.15919963 0.49289086 -0.5315231 0.53056556 -0.28415835 -0.70874953 -0.77017474 0.28793532 0.54586136 0.3567165 0.838652 0.6167544 1.1254054 0.24732535 -0.9278771 0.5551047 0.52533835 -0.08650981 -0.070377305 -0.7000758 0.34551045 -0.5173817
design -0.03508978 0.50802225 -0.076459825 -0.22401346 0.18319117 -0.39706242 0.0725927 0.6200084 0.010288505 -0.65098315 0.00630576 -0.8960803 0.07432307 0.53738505 -0.17155498 -0.29108378 0.17285894 -0.19520676 -0.15508543 -0.8011632 0.58625656 0.19395192 -0.18405391 -0.07033594 -0.49317992 0.07547919 0.05804487 -0.29247537 -0.35204723 -0.17637023 0.3499943 -0.1167028 -0.1431211 -0.31297436 -0.40445393 0.17658018 -0.02038224 -0.23659702 0.1329493 -0.8178669 -0.015975736 0.17085825 0.038502317 -0.23580001 0.39084822 -0.16310593 -0.40831754 0.14510977 0.33401555 0.34150916 -0.056644056 -0.42142802 -0.3806927 -0.110459 0.18057233 0.013753025 0.35906586 -0.022041319 -0.41558692 -0.19026554 0.006065331 0.07473323 0.11583231 -0.5738818 -0.6235337 0.0007867104 -0.14101537 -0.063283406 -0.54785866 0.22027245 0.045602705 0.2083826 0.39554885 0.07774047 0.5036653 0.38648194 0.46595627 0.09330017 -0.6369259 -0.04656611 -0.33293957 0.48777923 -0.3261295 0.7909323 0.07462551 -0.06515469 0.43222603 0.7463779 0.16238986 -0.11399207 0.49503294 0.55280095 0.25553188 0.35256305 0.46791443 0.64196867 -0.109842785 -0.022407684 0.3052187 0.43855107
analysi -0.1821816 0.5495325 -0.047450513 -0.24061067 -0.037920758 -0.40252897 0.17209376 0.7367834 0.13649678 -0.4879989 0.015991878 -0.64785355 0.4181002 0.12202215 0.099589445 -0.209549 0.31768757 -0.22499356 -0.13960133 -0.7209967 0.4234068 0.28777623 -0.081775405 -0.14821568 -0.14120421 0.09968789 -0.3487509 -0.12049275 -0.2548755 -0.10484235 0.23299251 0.16000819 -0.16588685 0.047542907 -0.22131911 0.10769711 -0.09972657 -0.3955425 -0.12154183 -0.45050207 -0.21042822 -0.12439651 -0.004021141 -0.09712313 0.41849333 -0.31189346 -0.3612758 -0.20731507 0.12587331 0.2863452 0.01064943 -0.45816854 -0.30143884 -0.269337 0.14330961 0.19033006 0.3204913 0.18057272 -0.2290722 0.4967632 -0.18467374 0.061499853 -0.14885026 -0.3319511 -0.7292904 0.15059775 0.008593129 -0.051061314 -0.4616701 0.4937358 -0.4143974 -0.03739213 0.31257313 -0.2249231 0.2519444 0.35073665 0.3542161 -0.1625814 -0.42269325 0.104728125 -0.35588524 0.3856087 -0.17737156 0.97484237 0.14406112 0.17146705 0.14293903 0.6870431 0.42800885 0.06662545 0.20546989 0.34956756 0.38691744 0.04190836 0.5505808 0.40504763 0.31972894 -0.08304161 0.3007719 0.23865369
spars -0.39656985 -0.29128096 0.30382234 0.33289292 0.061396264 -0.5867711 0.3957441 0.70156103 -0.79880154 -0.16554514 -0.7255794 -1.4237242 -0.835953 -0.26290485 -0.04043474 -0.20493068 -0.47733787 -0.32817832 -0.40905076 -0.22186846 -0.93527734 -0.006635291 0.185488 -0.509766 0.391062 -0.20460886 -0.6183747 -0.032306217 -0.3363965 -0.030529963 0.32882205 0.122516416 0.30453372 -0.5885045 -0.2243159 1.6982002 0.3426942 -0.62310964 -0.49674666 -1.5580405 0.10815094 -1.3792971 -0.007782468 0.93141687 0.5355129 0.34777632 -0.22835538 -0.42471603 0.36723208 0.0269477 0.8773269 -0.030828584 1.5292438 0.03201941 -0.2419035 0.21896587 -0.5157248 0.559046 -0.99759895 0.2806319 -0.472385 0.09569776 -0.22724381 -0.46471205 0.6141759 0.86613077 0.87997085 1.3520865 0.15036155 0.72954416 -0.46986243 0.16636969 0.56257087 0.445591 -0.024627678 -0.552179 -1.0620657 -0.21010977 0.25524792 0.55213845 -0.48991686 0.10875265 -0.56718475 -1.1039456 -0.71652377 0.5568934 0.38675615 -0.10388643 0.9264407 1.2093675 1.236021 0.42743966 -1.0871291 0.6104811 0.7624223 -0.10692461 -0.26532722 -0.7989233 0.13800566 -0.8807001
includ -0.30862072 0.49906123 0.07207131 -0.21476741 0.07758295 -0.3813382 0.058757387 0.6599423 -0.006118587 -0.28231546 -0.2200945 -0.57814914 0.34137005 0.09737493 -0.037703514 -0.17599863 0.24779333 -0.21433456 -0.17929405 -0.69024473 0.47920662 0.3131836 -0.119586945 -0.2855248 0.007384657 -0.09910168 -0.43274462 -0.26854554 -0.3614893 -0.08692775 0.29325008 0.35496357 -0.11986202 0.065382846 -0.15552841 0.18134113 -0.15671353 -0.44539672 -0.013062344 -0.62625337 -0.18204516 -0.2033294 0.114995055 0.0461063 0.39027873 -0.29107383 -0.13814023 -0.271319 0.12756139 0.21370602 0.22072873 -0.3268852 -0.27538615 -0.25418693 -0.031705268 0.23108023 0.25648552 0.12035374 -0.4077532 0.102816716 -0.09983648 0.19458494 -0.107498765 -0.29853317 -0.5262287 0.11515179 0.19547452 -0.011471379 -0.3748573 0.5543646 -0.3708542 -0.10955572 0.27742887 -0.04208762 0.38521066 0.3266711 0.24805741 -0.1476316 -0.5475129 0.077979796 -0.18216719 0.20277679 -0.28444543 0.81863886 -0.03719086 0.064337924 0.16587797 0.6367455 0.2628649 0.15805838 0.3278224 0.32474747 0.046138722 0.021761121 0.48737004 0.48047438 0.09207412 -0.1613518 0.259627 0.13256645
multipl -0.12852384 -0.27539307 0.3231053 0.046711132 -0.31001174 -0.6927497 0.44418103 0.8228874 -0.5911074 -0.17685711 -0.68187857 -0.9220574 -0.7400496 -0.19472037 -0.27272534 -0.2933115 -0.59145254 -0.5443031 -0.55955297 -0.54243356 -0.702601 0.06020708 0.12665236 -0.2858468 -0.07102645 -0.11115309 -0.30117664 -0.26904434 -0.12991606 0.25601968 0.36837777 -0.20725265 0.27328944 -0.55431825 -0.30041096 1.4354738 0.5904413 -0.3941258 -0.5333255 -1.1642057 0.20577846 -1.3586224 0.069725975 1.1026133 0.6177554 0.15205716 -0.3167153 0.06779006 0.21764153 -0.022886476 0.47040868 -0.37852132 1.099207 0.31013158 -0.62267596 0.50084907 0.07121826 0.15867963 -0.9283157 0.058214657 -0.028979393 0.4088985 0.015964376 -0.4506693 0.1452393 0.9933308 0.57453126 1.2190416 0.14279644 0.36225677 -0.27480498 0.60545695 0.29099768 0.39705718 0.23667482 -0.29269034 -1.0556328 0.05100517 0.38349232 0.30891755 0.16567811 0.10979651 -0.5813447 -0.95179266 -0.29689857 0.4842755 -0.29767856 -0.10408072 0.55569756 0.76027936 1.090589 0.5655037 -0.5818945 0.27567685 0.706825 -0.12657502 -0.21874273 -0.9845941 -0.13402745 -0.47117376
languag -0.23410791 0.84243256 -0.12585762 -0.31287083 0.82396656 -0.6293625 -0.40165353 0.74133354 -0.25066456 -0.30618355 -0.45150906 -1.0043534 0.8626971 0.4867363 -0.13461623 -0.01906706 0.620776 -0.06486366 0.33843315 -1.214626 1.0364108 0.50729525 -0.58513147 -0.5310713 -0.22872105 -0.24770734 -0.15105025 -0.42036685 -0.57253146 0.033842713 0.7007207 0.9812213 -0.26285776 -0.06802031 -0.020077027 0.27086025 -0.7200304 -0.31531146 0.40091467 -1.1838539 0.42925647 0.17208813 0.38312566 -0.2319946 0.08152253 -0.11480223 -0.4428514 0.06481564 0.13109785 -0.1640127 0.5835899 0.44850218 -0.58555937 -0.052233234 0.26894858 -0.3774263 0.19138214 0.682742 -0.2891277 -0.28577915 -0.19401525 0.102915086 -0.59484756 -0.63687176 -0.17891511 -0.3079645 0.40557525 -0.5121338 -0.4962299 0.5430635 -0.1939432 -0.5513562 0.32686457 0.04585199 1.0651524 0.23742528 1.1858368 0.034357384 -0.9518956 0.15684325 -0.6769742 0.84686124 -0.31191438 1.1188293 -0.083990544 -0.3175276 1.0222707 1.6975545 0.28939542 -0.113382414 0.5678785 0.57196224 -0.15368763 0.28633156 0.45815003 0.5977777 0.29609075 0.039603945 0.6414079 0.50367063
general -0.24296376 0.17562485 0.14024355 0.076029204 -0.1197804 -0.37819165 0.21093509 0.6446236 -0.22136971 -0.36071074 -0.25793645 -0.76362866 -0.2947471 0.06037449 -0.13825566 -0.18795365 -0.110604875 -0.24399501 -0.33192706 -0.41115043 -0.04101834 0.1603314 0.05728446 -0.35337952 0.011269338 -0.053305883 -0.27811423 -0.18388577 -0.307339 -0.0738821 0.19137682 -0.015312354 0.20156722 -0.22338782 -0.34280398 0.68052924 0.21631385 -0.26170933 -0.18024209 -0.9311582 -0.0739582 -0.37354395 -0.002664251 0.23874085 0.38218465 0.010879806 -0.10466999 -0.18734899 0.19177921 0.2176212 0.13855445 -0.21932495 0.17073202 -0.17356423 -0.078574255 0.16506481 0.024011228 0.064332224 -0.55009973 0.04471076 -0.036162272 0.10165972 0.016393647 -0.40363616 -0.20357747 0.28677234 0.17077906 0.61124283 -0.14648624 0.3871887 -0.10089277 0.16060586 0.35562038 0.32633626 0.18601853 0.037522025 -0.24376093 -0.19490384 -0.40195417 0.148409 -0.046674475 0.13320155 -0.3867089 0.028539421 -0.19560467 0.14982302 0.23903954 0.16585766 0.18586536 0.42630664 0.69602084 0.2916603 -0.25367466 0.410607 0.5753477 0.3201825 -0.22510369 -0.34473595 0.13190304 -0.29968715
has -0.34376022 0.58836776 -0.557881 -0.93175286 0.65959495 0.0014715622 0.100076765 0.8780065 0.05895972 -1.6154108 0.050836097 -0.25139862 -0.7706866 -0.0068788636 -0.3620864 -0.7505273 0.41518247 -0.5785467 0.6048885 -1.2301537 0.54590154 -0.41561368 0.1691989 0.22437754 -0.22156687 -0.47970086 0.5095975 -0.6489648 -0.82760525 -0.3184621 -0.26628077 -0.46743682 -0.24593519 -0.31419906 -0.14657106 0.22442429 0.2829725 -0.79549265 -0.17245452 -0.49266672 0.050188646 -0.18767354 0.5359296 -0.138107 1.2441295 0.8054606 -0.37592882 0.61923826 0.7279465 0.2254922 -0.014245086 0.013684096 -0.47074836 0.67650294 0.025171269 -0.27287728 0.7106478 -0.5941174 0.23796538 -0.76680315 0.092376806 0.8811136 -0.057877872 -1.139 -0.84324694 0.7048523 0.41201073 -0.35848314 -0.9183291 -0.3537091 -1.1473669 0.028493587 0.14781241 0.016236207 0.03830938 0.31030005 -0.4808747 0.18146098 -0.9191049 0.07265172 -0.06522153 0.7471799 -0.45439988 1.2190577 0.67103523 0.69060135 0.09552962 0.050830472 0.41062468 0.3051113 0.24327047 0.46633863 -0.4091083 0.54100144 0.025022926 1.0938073 -0.054510593 -1.0442104 0.2746789 0.28160095
one -0.28258717 0.28915274 0.08306904 0.043669853 -0.3018241 -0.39638442 0.45132026 0.84701526 -0.21692829 -0.22949697 -0.3483204 -0.22899315 -0.170444 -0.16916129 0.101981565 -0.18904811 -0.09324453 -0.455055 -0.36861753 -0.7172559 -0.16227207 0.2561167 0.2637131 -0.22015513 0.05224591 -0.15734178 -0.14589882 -0.3753564 -0.22173776 0.10505866 0.21791989 -0.03140506 0.19563812 0.24016805 -0.1302009 0.5181618 0.22279991 -0.18057339 -0.52177507 -0.39866367 0.11451541 -0.56084067 0.015354886 0.29284498 0.28283167 -0.121818855 -0.057110902 -0.08867693 0.2588881 0.31270626 -0.12093218 -0.34210157 -0.055959795 -0.022034284 -0.3164625 0.49849692 0.10399168 -0.16367638 -0.4074508 0.4134544 0.15160996 0.41927573 -0.12624705 -0.25593168 -0.50613475 0.48272362 0.24177286 0.6116454 -0.21420477 0.43987346 -0.24200287 0.06290946 0.28409946 -0.2384677 0.04372404 -0.057549037 -0.2855303 -0.30319908 -0.16716169 0.32166925 0.23927417 -0.13206403 -0.5344994 0.30407584 -0.06502822 0.41511518 -0.2787363 0.18936858 0.33787355 0.27314007 0.44437164 0.13576138 0.08352339 0.21005696 0.67008495 0.14403193 0.3171402 -0.51009077 -0.05576383 -0.3077806
mani -0.2297289 0.28991777 0.2463492 -0.38927236 0.42151785 -0.32090428 -0.06216002 0.85003054 -0.30197617 -0.6040938 -0.5039827 -0.43015563 -0.25708523 -0.32833767 0.22642727 -0.16841404 -0.18201022 -0.31126907 -0.06127474 -0.7983025 0.3458771 -0.08502502 0.1892685 -0.17370902 -0.31133944 -0.2686284 -0.5770868 -0.29656917 -0.35009354 -0.23616861 0.10818805 -0.12918347 -0.1743672 -0.11859668 0.118812434 0.47123334 0.0661171 -0.36209974 -0.31347656 -0.2976104 0.04573467 -0.3078896 -0.066937484 0.2913629 0.81167024 0.05174711 0.15766442 -0.21742362 0.17924197 0.24644025 0.49531484 -0.29109636 0.050185278 0.060198188 -0.04116932 0.04217501 0.032484055 -0.13857602 -0.16894205 0.06089849 -0.23240381 0.4052718 0.00894847 -0.1926211 -0.39323005 0.42422163 0.33878008 0.08569327 -0.28105366 0.25141522 -0.5509256 0.13717477 0.4939598 0.08247766 -0.1894017 0.20522928 -0.08814831 -0.27748233 -0.47720045 0.1745619 -0.10318541 0.0677957 -0.12550344 0.5196479 -0.060637455 0.57347447 -0.17502582 0.35020682 0.21032818 0.24758148 0.44511384 0.3088713 -0.2734245 0.1164886 0.43389842 0.43491462 -0.075217836 -0.38343924 -0.012262664 -0.11490835
complex -0.5392991 0.52140206 0.17237431 0.04203454 0.038456403 -0.3064311 0.20541732 0.8660811 -0.18054327 -0.25533962 -0.4783552 -0.22914752 0.05567896 -0.29755726 0.26797196 -0.0920545 0.062178146 -0.17547268 -0.2077749 -0.6637667 0.09675231 0.19412628 0.3317999 -0.45174593 0.275478 -0.19133207 -0.59502256 -0.07479618 -0.39453116 -0.17657027 0.13021047 0.27679428 0.12670481 0.35223603 0.1193125 0.36681077 0.004766266 -0.2823205 -0.45827353 -0.30511677 -0.13843817 -0.5276766 0.0066486425 0.13576311 0.32939768 -0.2960328 0.12112108 -0.49620548 0.081374936 0.22367765 0.2033788 -0.15941888 -0.10714335 -0.33324036 -0.005386035 0.26439762 -0.117782876 0.100593515 -0.27451515 0.61945677 -0.1434742 0.22216265 -0.23079261 -0.07375436 -0.40802756 0.3735621 0.3850575 0.4473585 -0.32592604 0.78493303 -0.4787174 -0.2661353 0.47474203 -0.20289597 -0.1538177 0.008535865 -0.106118076 -0.5623375 -0.35235694 0.38324338 -0.12891772 -0.099735 -0.31989038 0.62194216 -0.09364576 0.45985344 0.06478819 0.27233976 0.47439638 0.31624687 0.43707478 0.09768806 0.0037342843 0.11626452 0.6658786 0.2663367 0.39204672 -0.2692066 -0.026879182 -0.38090238
show -0.33079255 0.33093515 -0.07216769 0.28224152 -0.59277064 -0.021368848 0.37841475 0.33298564 -0.04999213 -0.6101582 -0.34970492 -0.48272714 -0.7740188 0.47000477 0.00721159 -0.4425054 -0.49635127 -0.47071955 -0.42275202 -0.50905144 -0.5533077 0.26500267 0.5640527 0.055469967 -0.6669093 0.39199483 0.6004619 -0.31660974 -0.094428696 -0.034342222 0.17436782 -1.2651792 0.31375977 -0.21053928 -0.8527833 0.45507306 0.45720825 -0.0057858014 -0.29882738 -0.8816976 -0.000862184 -0.28912762 -0.25021088 -0.28572842 0.16409743 -0.26481065 -0.5646551 0.33836412 0.6239153 0.60209477 -0.76581866 -0.79557157 -0.098985456 -0.09813853 -0.020502565 0.63198185 0.47346663 -0.50629544 -1.002132 0.18165435 0.2763155 0.52752215 0.31993535 -0.5802968 -0.73653454 0.4797687 -0.46025622 0.9706118 -0.37427008 0.23932059 0.57853013 0.87811744 0.5651237 -0.21194065 0.21677227 -0.29894438 0.13567597 0.19857895 0.025475722 -0.040857036 -0.10184389 -0.17423747 -0.7781027 0.40653786 0.17199016 0.24014702 -0.02695568 0.036625404 0.3353821 -0.35774234 0.6191222 0.51385355 0.6525711 0.7270565 0.8446322 0.523552 0.10552616 -0.36987376 0.044104975 -0.06146884
finit 0.7103698 1.2619972 -0.7036074 1.2870489 -0.6922931 -1.3808538 2.157611 1.5770501 -0.18488187 -0.07222141 1.4420708 -0.66911215 0.21503188 1.4886167 0.19358528 0.3523506 1.0241028 0.013454868 -1.2448342 -1.1644093 -0.56499135 0.12574078 -1.2097727 -0.9008809 0.66626924 -0.0029517158 0.60510904 -0.7470671 0.31922778 1.1733601 1.0999824 1.3257573 0.6441328 -0.33593637 -1.1504705 0.39633653 0.4666948 0.32448786 -0.13845031 -1.160953 0.7942381 -1.0130061 0.4827036 0.20107165 -0.29194397 0.21728846 0.25337097 -0.9270445 0.1831754 1.4196098 -1.8896807 0.20182373 0.036621112 0.33755198 0.13521321 0.9814035 -1.3946048 0.3023907 -0.9214565 0.39902943 1.7206204 -2.069171 0.768186 0.3321995 0.43144605 -0.59501714 0.39172077 -0.21763282 -1.180236 1.7807057 0.44055045 -1.0887265 0.26061773 -0.6008957 0.5882638 0.9452106 -0.85802174 -0.39717638 -1.0801226 1.1860791 0.4747267 0.49642706 -1.4252802 -0.95624 -1.1523494 -0.7140326 0.22294971 1.639573 0.92258114 1.0192941 2.0992463 -0.396035 0.50569636 1.1079925 1.754434 0.33169642 -0.24947459 -0.015850974 -0.4675691 -0.29996645
allow -0.04784611 0.48373365 0.052614495 -0.21747255 0.17532317 -0.60755587 0.055750657 0.74255806 -0.23781104 -0.3263914 -0.26631442 -0.48973116 0.2873516 0.26236808 -0.12702799 -0.0033047637 0.028412448 -0.14919907 -0.22631821 -0.92214537 0.33869588 0.24840325 -0.18386957 -0.2615508 -0.29464528 -0.10503778 -0.09937019 -0.31709856 -0.19823512 0.167003 0.49945423 0.3217709 0.048878934 -0.053343542 -0.05066458 0.4697301 -0.07960752 -0.12937337 -0.106718756 -0.74887764 0.26822874 -0.264748 0.15073532 0.2201406 0.25933784 -0.120687336 -0.19699317 -0.006769475 0.20420425 -0.005668764 0.14571789 -0.15507892 -0.06890208 0.12125745 -0.09280234 0.0538905 0.15678534 0.25936043 -0.3818349 -0.113313004 0.13753447 0.09353673 -0.078843616 -0.30812 -0.2376462 0.14255388 0.29211098 -0.008520721 -0.36279708 0.37085626 -0.30865002 -0.1346462 0.2095519 0.0056467555 0.47626948 0.21283533 0.17048056 -0.11211282 -0.3709722 0.14842844 -0.080489695 0.412526 -0.4229377 0.36343262 -0.07511941 0.036591575 0.07116171 0.8052341 0.2867762 0.18597735 0.6079097 0.3085018 -0.033812374 0.15960674 0.46385592 0.31915268 0.026512343 -0.3569872 0.19739181 0.18583634
demonstr -0.1518272 0.49437806 -0.13035008 0.19139345 -0.3725642 -0.13669339 0.39608452 0.35760027 0.024446169 -0.6861916 -0.11955412 -0.52627313 -0.46277073 0.6010458 -0.0025009022 -0.35432452 -0.21880138 -0.3693255 -0.33096433 -0.6583001 -0.1865746 0.2509768 0.3471305 -0.03578138 -0.7089983 0.33380246 0.6209835 -0.25705892 -0.12653145 -0.045158446 0.2611762 -0.97133577 0.24929875 -0.24477372 -0.8390302 0.30935478 0.2912221 0.011960607 -0.12993202 -0.78711134 0.08893957 -0.10072262 -0.105514415 -0.4059997 0.19423105 -0.2302105 -0.55544716 0.2903252 0.5410249 0.59555113 -0.69483894 -0.6896909 -0.3018956 -0.11827983 0.14881091 0.45603892 0.3834101 -0.32081148 -0.81282353 0.12418831 0.23822513 0.24995299 0.3073323 -0.58445495 -0.6927046 0.2466782 -0.44078463 0.580168 -0.5837983 0.19792244 0.49566936 0.64180565 0.6062868 -0.19314331 0.30460715 -0.048491746 0.30892763 0.16180992 -0.22606446 0.0019657363 -0.22445925 0.10316106 -0.7035056 0.68670106 0.18251748 0.17160907 0.23597068 0.29692 0.31560248 -0.3760955 0.67355025 0.5429717 0.6751777 0.6351843 0.7513275 0.5257699 0.08799115 -0.16281733 0.15228507 0.10019147
work -0.028307647 0.40168953 -0.15684031 0.044476174 -0.26266122 -0.33503485 0.36796343 0.54034895 0.04283058 -0.45250627 0.13244118 -0.9212026 -0.12221257 0.63077927 -0.28029695 -0.39994827 0.22310995 -0.276614 -0.33551484 -0.5743824 0.23975627 0.23430257 -0.15918408 -0.08052408 -0.20388828 0.1478001 0.26073015 -0.3141682 -0.2779351 -0.060318727 0.23230457 -0.23146728 0.043839782 -0.33660337 -0.6806377 0.1909568 0.19458517 -0.22197905 0.024796376 -0.84900296 -0.0776101 0.020333108 0.018753415 -0.2289669 0.25747028 -0.23412006 -0.39644364 0.22470018 0.4031521 0.5004695 -0.36803886 -0.5406634 -0.30156875 -0.1397671 0.083435975 0.2844179 0.29614234 -0.0752162 -0.48390758 0.09052656 0.14958905 0.02553328 0.11720347 -0.684986 -0.70318615 0.023348533 -0.24982922 0.3358988 -0.50448567 0.32483998 0.2591306 0.3067917 0.35741898 -0.058041845 0.46606603 0.22991139 0.22892958 0.1404232 -0.46810827 0.07070964 -0.19340593 0.33677542 -0.6086125 0.5334621 0.046000596 -0.084685504 0.41610107 0.52334946 0.22736298 0.02803217 0.47372207 0.49930173 0.40142605 0.52358246 0.6095446 0.49665192 0.024359528 -0.016916169 0.2681497 0.22122796
two -0.17545098 0.30179334 0.015767848 0.15034762 -0.42812333 -0.32619014 0.5964504 0.7356261 -0.09011602 -0.33663154 -0.052145574 -0.4636864 -0.28223124 0.1594036 -0.0167829 -0.28035498 -0.04958631 -0.3902778 -0.46881083 -0.56746477 -0.08730103 0.22796553 0.09684774 -0.12713157 -0.0646393 0.06261248 0.0009313915 -0.35245317 -0.14970078 0.07493778 0.102724366 -0.24649346 0.18986775 -0.036074 -0.3790921 0.4180482 0.33499137 -0.10708796 -0.33090308 -0.5234007 0.017361246 -0.3782541 -0.09150372 0.160345 0.2551357 -0.13568106 -0.17693572 0.013022451 0.32670593 0.56248015 -0.39252037 -0.47524327 -0.058101915 -0.12772457 -0.15054588 0.546747 0.1799535 -0.17122634 -0.45672306 0.39542794 0.19708681 0.22610076 0.044762075 -0.3963402 -0.60875875 0.33960235 -0.079999216 0.6435955 -0.3213482 0.38536268 0.039226465 0.31467646 0.4032512 -0.15820281 0.18403867 0.029864468 -0.15788713 -0.17489603 -0.29452282 0.24545412 0.13230348 0.0055260756 -0.49983358 0.27683392 -0.06136842 0.2098936 -0.12278542 0.2005182 0.2738547 0.15687902 0.5134722 0.25839368 0.32793483 0.4021794 0.7599658 0.25560835 0.14215869 -0.33285618 -0.0009944332 -0.21719578
requir -0.29410982 0.4048843 0.16179101 -0.07566073 0.050678115 -0.36023045 0.26411992 0.81797874 -0.32240382 -0.22856326 -0.5088602 -0.18707404 -0.082504295 -0.2353593 0.17314409 -0.08200434 -0.08373445 -0.28218058 -0.22943783 -0.79500365 0.045304026 0.13727422 0.34266222 -0.1967696 0.009874082 -0.26559338 -0.32884687 -0.30972525 -0.24338454 -0.0035432226 0.20060763 0.0794144 0.06740436 0.1590021 0.18200953 0.4166548 0.08667187 -0.19841462 -0.3943204 -0.26669532 0.06780819 -0.538976 0.051885642 0.29151687 0.35889253 -0.2664657 0.037499815 -0.17508024 0.22082661 0.2005698 0.17695102 -0.2835029 -0.041174848 0.015944827 -0.25269973 0.30223638 0.059407808 -0.04976236 -0.33356068 0.3632561 -0.022432398 0.40067923 -0.109964654 -0.071181335 -0.47537017 0.46686864 0.34480646 0.46939403 -0.28412876 0.51203954 -0.35896787 -0.025892397 0.32001975 -0.2631778 -0.010626953 -0.019491198 -0.16541377 -0.39812788 -0.09548002 0.3335727 0.05403854 -0.094519556 -0.370817 0.3710929 0.024456361 0.39486656 -0.18497676 0.30407462 0.41992044 0.25763518 0.3744649 0.15658872 0.03736284 0.05014873 0.6151935 0.2601727 0.26796263 -0.4265265 -0.06131564 -0.2507635
sourc -0.56829673 0.92238766 -0.57088524 -0.70792615 0.44251758 -0.7207103 0.22534901 0.3864642 0.8792923 0.4233523 0.21097004 -2.1906602 1.036669 1.2290401 -0.83560556 -1.0903544 1.277722 -0.08310765 -0.27100432 -0.9642218 1.6753546 0.9615823 -1.305059 -0.5341651 0.35127306 -0.1828515 -0.24150136 -0.80248815 -0.88559324 -0.41560984 0.892102 1.4064628 -0.9506158 -1.1602228 -0.9671745 -0.33677244 -1.0264415 -0.93383044 1.540394 -1.7406828 -0.74279755 0.64109695 0.89446265 -0.34327486 0.15430892 -1.1741478 -0.86758393 0.03828691 0.54190236 0.024457227 0.7514836 -0.8650385 -0.4052771 -0.08263627 -0.26017877 0.55730134 0.32208362 0.76732486 -0.88244927 -0.273965 -0.08027719 -0.07098511 0.1495238 -0.9640983 -1.0312489 -0.82516336 -0.3785727 -0.59402925 -0.40185672 0.6059016 0.33532983 -0.07208325 -0.39966044 0.037808463 1.4012822 1.192937 0.89045286 0.7803986 -0.95793957 -0.4677494 -1.0877258 1.0153655 -0.7620329 0.6944261 -0.23864563 -0.7151599 1.7407296 1.2623867 0.6336809 -0.16655797 0.7470615 0.9049621 0.041531432 -0.5763404 0.3186612 1.0437843 0.3631486 1.0762613 0.83647275 1.258631
scale -0.3906775 0.4053159 0.4946826 0.14809549 0.092464425 -0.44227168 0.092412055 0.8834313 -0.8294144 -0.39685827 -0.73981947 -0.68295896 -0.64978975 -0.26076782 0.65457046 -0.49624524 -0.3589203 -0.40836307 -0.42692697 -0.7723969 -0.15752834 -0.2087883 0.853975 -0.13418978 -0.3276013 -0.20617664 -0.7017753 -0.024085667 -0.40778717 -0.36241275 0.060936525 -0.478999 0.14959873 -0.4568283 0.27240744 0.30183777 0.5212898 -0.3272501 -0.60851145 -0.087519534 -0.2767682 -0.94858444 -0.37460473 0.2940282 0.87765884 -0.38698962 0.3486183 -0.7812277 0.33610362 0.45805243 0.21380481 -0.51288795 0.4427272 0.020561263 0.15770274 -0.12804317 -0.47410142 -0.42464817 -0.17476887 0.6268041 -0.22847965 0.10922791 0.53706723 0.26719373 -0.51231617 0.80278665 0.50826275 0.6893492 -0.6584679 0.90957373 -0.28804892 0.34093937 0.90124637 -0.07438377 -0.8198934 -0.06306349 -0.457773 -0.43436003 0.2820135 0.094885185 -0.32946998 -0.44323242 -0.17236789 0.012321084 0.027943742 0.8572301 -0.44572458 -0.1975692 0.70149976 0.49990287 0.69328254 0.07575906 0.154856 0.1560181 0.64119214 0.25250247 -0.183283 -0.17695214 -0.4269047 -0.5414221
level -0.07240861 0.53565055 -0.09301073 0.0008786064 0.5240995 -0.5341763 0.0064978856 0.8063491 -0.7466158 -0.017197788 -0.7079421 -0.37152347 -0.033028945 0.32325152 -0.00025800063 -0.06513162 -0.110091366 -0.10164241 0.0431377 -1.2125126 0.3866426 0.078286625 0.050595343 -0.4617135 -0.44451118 -0.27329338 0.18039945 -0.10365626 -0.34759358 0.06479167 0.9198431 0.5805347 0.32160163 -0.27133238 0.26581362 0.77540374 -0.27980047 0.16544224 -0.13617177 -0.91838264 0.73173606 -0.41108748 0.025167169 0.09711912 0.0396423 -0.2625824 -0.0580539 0.07615072 0.46907613 -0.2259197 0.20721886 0.34207606 0.2897882 0.24099635 0.19445896 -0.2795743 -0.4705318 0.3226052 -0.41091537 -0.2976901 0.24506736 0.07212361 -0.033282477 -0.45885572 0.16455826 0.24789377 0.67386115 0.15892313 -0.56230664 0.5150326 -0.11030061 -0.18902743 0.23975062 -0.061437555 0.48384655 -0.13371524 0.24372925 -0.07025589 -0.20646936 0.36491242 -0.27988485 0.46214685 -0.59447837 0.21951653 -0.39337504 -0.10883388 0.7584833 0.7974035 0.430192 -0.011022686 1.0607405 0.23800896 -0.15540592 0.28438675 0.74192697 -0.011344987 0.23459545 -0.15863372 0.19339775 0.03975018
tool -0.3606098 0.72797924 -0.011671635 -0.33270532 0.22853687 -0.3961041 -0.1260485 0.5859826 0.18532227 -0.49765968 0.0050604213 -0.76131386 0.5938039 0.24735181 -0.1126776 -0.21695215 0.5622558 -0.16018493 -0.0014543589 -0.7957247 0.8549897 0.37058517 -0.2690465 -0.3303605 -0.017674744 -0.04582507 -0.45192438 -0.1478791 -0.5860537 -0.38728967 0.2634638 0.45452368 -0.27495107 0.13593844 -0.3027465 -0.16728751 -0.26845533 -0.5653194 0.1894223 -0.69704264 -0.27023467 0.16020729 0.10553805 -0.32752708 0.46341956 -0.39887023 -0.21602988 -0.2120217 0.042870164 0.2733984 0.195427 -0.3179948 -0.80419755 -0.3902355 0.19021483 0.05879757 0.36236888 0.09393983 -0.302135 0.07346396 -0.23309278 0.04216458 -0.19759291 -0.35639256 -0.7024352 -0.14853995 0.06905188 -0.2687055 -0.50571346 0.6035664 -0.35575625 -0.22914441 0.37368476 0.022491604 0.48582718 0.54138666 0.6396585 -0.11955897 -0.9704259 0.0153656695 -0.41136327 0.38159344 -0.27002862 1.5093606 0.10021439 -0.09136298 0.6435782 0.91566277 0.12683736 -0.09449574 0.18695225 0.47806638 0.19813102 0.124017596 0.50598186 0.77620447 0.123183385 0.1535628 0.40075815 0.26219273
both -0.2181687 0.33566257 0.14123358 -0.09813219 -0.047828864 -0.32054237 0.10612172 0.63994044 -0.27947342 -0.4009314 -0.33832565 -0.6220209 -0.26317123 0.17065199 -0.12908755 -0.3387466 -0.19445701 -0.2992868 -0.30454043 -0.6702104 0.14360693 0.10335125 0.21136054 -0.14007081 -0.34757656 -0.059837863 -0.09364678 -0.36763844 -0.23506986 -0.080773614 0.24915934 -0.29406598 0.026315572 -0.33549494 -0.22571312 0.4363347 0.19551091 -0.16686651 -0.13630302 -0.734751 -0.0021953885 -0.35526544 -0.08018283 0.18775943 0.40610996 -0.3695845 -0.08086116 0.0048179966 0.25631168 0.28029576 -0.0077290377 -0.5565983 -0.06890417 0.085886925 -0.15588222 0.22503151 0.23041321 -0.21375388 -0.65186274 -0.13066933 0.17007606 0.35211733 0.27585799 -0.32477 -0.52327555 0.37564158 -0.01473387 0.5009127 -0.31674802 0.29455903 0.09623959 0.50368226 0.37030286 0.11309222 0.2196576 0.113389336 -0.021679359 -0.04174042 -0.17303373 -0.04479367 0.0029181326 -0.009034142 -0.38929912 0.217379 0.0009636064 0.12888815 -0.045201175 0.1986271 0.17388277 0.08277342 0.55564857 0.33686203 0.10857871 0.24665937 0.6446099 0.5146144 -0.1461691 -0.29546213 -0.022641007 -0.013108701
