2889 100
we 0.24581917 0.029617378 0.024227561 0.6817016 -0.6051202 -0.437981 0.38833192 0.2757693 -0.060907118 -0.4766886 0.29540253 -0.06959983 0.07782847 0.50127864 -0.36404964 -0.65927196 0.30133274 0.9404283 -0.81730616 -0.40196264 0.6218308 0.08903325 0.19992588 -0.52908134 0.8710375 -0.2922874 -0.521564 0.26112416 -0.67790234 0.27056432 -0.19354832 0.09049881 0.42440104 -1.1889526 -0.3536425 0.67515516 -0.0879874 -0.2576169 0.16376239 -0.50350964 -0.3801449 -0.10684606 -0.33323205 -0.28133655 0.18769352 -0.05495218 -0.6834379 0.17067568 0.40443304 0.45406452 0.11825799 -0.41453093 -0.35217792 -0.13852575 0.32193092 -0.3022443 0.37355417 -0.6574298 -0.17830868 1.2666141 -0.023242004 -0.40353215 -0.042739328 -0.8356471 -0.7421649 0.29761836 0.3646696 0.82821465 -0.45997047 1.0098547 0.014370972 -0.14891614 0.73453057 -0.3329774 1.1491457 0.46967453 0.28891775 0.02117664 -0.40149626 -0.3023673 -0.75220025 0.5313485 -0.65881085 1.1221293 -0.6453639 0.23777075 0.7231898 -0.023585992 0.11453463 0.0060948636 1.18596 0.24855597 0.7220401 -0.40076458 0.9384861 0.3550763 -0.17048639 -0.93357927 0.09996354 0.121747956
algo -0.17192857 -0.011400534 -0.020017799 0.18314785 -0.32180917 -0.63956076 1.0020622 0.8953602 -0.13275748 -0.548964 -0.2048657 -0.3073308 -0.2583324 0.20358352 0.080961704 -0.23507836 0.18053174 0.5183374 -0.045474116 -0.8088042 0.6664601 0.20859854 0.53363955 -0.25018218 0.7214167 -0.35261855 -0.008178556 -0.14914212 -0.8927983 0.3000774 0.34018645 -0.28501886 0.6925742 -0.685256 -0.29955107 0.5872068 0.06740983 -0.30896944 0.42043605 -0.116441645 0.22866137 -0.118170366 -0.4779153 -0.19490388 0.52154315 0.027575167 -0.10024402 -0.0070762536 0.31838804 0.38323915 0.49332598 -0.2757062 -0.12672979 -0.119386554 -0.16347744 0.029649818 0.19115287 -0.28254598 -0.2745611 0.642367 -0.37411597 -0.25528446 -0.09815382 -0.4997881 -0.27963072 0.3832091 0.49728876 0.52356905 0.1254008 0.7196478 -0.51259273 -0.49075928 0.2959368 -0.03299154 0.71892565 0.28984913 -0.17075902 -0.35544348 -0.15528242 0.4338497 -0.67621017 0.30835962 -0.45752636 1.1016 -0.2394524 -0.25134987 0.47209388 -0.15621403 0.055115744 -0.09272715 1.111164 0.37624243 0.46959496 -0.41889235 0.78904986 0.31350926 0.20368908 -0.54134285 0.11461437 0.015750883
problem -0.028897014 0.7614622 0.08540724 0.68590677 -0.3541333 -0.8079616 0.49872196 0.6834975 -0.4633489 -0.2797085 -0.13226414 -0.29596487 0.021753939 0.119741715 0.021176737 -1.5735649 0.08956688 0.9859751 -0.91659087 -0.48825848 0.44819465 0.10829954 -0.51376504 -0.42811415 0.17988467 -0.7511752 -0.77928525 -0.45778567 -0.24655579 0.15944637 -0.2613693 0.19379675 -0.14429152 -0.31058517 -0.5680863 0.62404084 0.19260283 0.38758656 0.063876815 -0.5373066 0.5627588 -0.38608572 0.95044214 -0.12893426 -0.03387407 -0.26219782 -0.17475733 0.06381158 0.30559912 0.7440883 0.16713469 -0.42626706 -0.16697393 -0.35077846 0.16568533 0.0037058664 0.057420496 0.17954616 0.21724777 0.7593982 0.6366226 -0.35733452 0.2545403 -0.6023159 -0.66658753 0.031130021 0.14791818 0.60902596 -0.7090702 0.6731956 0.707868 -0.26535815 1.0001704 -0.13283932 0.51989025 0.45077097 -0.06030009 0.1402912 -0.20677204 -0.3147438 -0.48677805 0.20424746 -1.1579853 -0.18084203 -0.1649027 0.20663771 -0.020669965 -0.36401743 0.5079717 -0.23325887 0.7868871 -0.1556564 0.45371425 -0.22768341 0.27678695 0.44201532 -0.079981394 -0.9925468 -0.01406391 -1.0913317
graph -0.45662266 0.6204626 -0.16632316 0.332384 0.05019016 -1.031028 0.052238896 0.70516145 -0.24517585 -0.28360963 -0.3168668 -0.60828066 0.10623536 0.07089513 -0.10990809 -0.762151 0.6096753 -0.2596717 -0.11641927 -0.46311367 0.16895571 0.33573875 -0.39261165 -0.3947775 -0.8011999 -0.17097351 -0.63887936 0.16965753 0.16439186 -0.39165035 0.09513695 0.19865319 -0.4954151 0.029613277 -0.762091 0.008111641 0.37290296 -0.24153347 -0.50995356 -0.88807315 0.38023236 -0.33607203 0.6609675 -0.2998319 0.4028248 -0.26844794 -0.54856545 -0.45500916 0.014895548 0.8712636 -0.434189 -0.3481637 -0.0027913263 -0.2015138 -0.3208792 0.40581256 0.16089518 0.21487147 0.06280765 -0.06737258 0.286837 -0.052474923 0.18612716 0.4515332 -0.5499307 0.14567444 -0.38612384 -0.051641043 -0.5884667 -0.08745452 0.30584013 -0.17253625 0.43674526 0.30847207 0.29366314 -0.2717405 -0.20008093 0.23324846 -0.6245041 -0.4786314 0.034304034 0.15101296 -0.423233 0.16748525 0.48591748 0.31115413 -0.105695024 0.04332501 0.44108462 -0.66189003 0.15718916 -0.26293966 -0.015757337 0.39268678 0.046328954 0.6873181 0.16221452 -0.7930129 -0.28064227 -0.29231837
our -0.33284345 -0.2969302 0.20344345 0.16149709 -0.30129346 -0.53558296 0.7622074 0.7890926 -0.15963136 -0.4455339 -0.14477825 -0.3490456 -0.2876267 0.22810696 0.0110245105 0.18310821 0.25752637 -0.040434588 0.40755633 -0.8249546 0.5484363 0.0760037 0.8762767 -0.3980845 0.6658898 0.21582349 0.21376118 0.33153588 -0.85821223 0.4211015 0.26530424 0.21949224 0.67587686 -0.5506666 -0.29105496 0.528206 -0.25793433 -0.62841725 -0.11416948 -0.71244234 -0.515112 0.044860467 -0.923469 -0.07691146 0.96530485 -0.40789044 -0.46319222 -0.22363544 0.48506287 -0.12181674 0.48899436 -0.23010482 0.0041993815 -0.15294908 -0.28964362 0.054596405 0.03761353 -0.59337074 -0.656493 0.48357373 -0.9207963 -0.41611844 0.108383186 -0.37480512 -0.5681451 0.49292 0.5100265 0.9939964 0.0036202075 0.7188168 -0.81162035 -0.09887845 -0.039116856 0.04186955 0.9650467 0.31736374 0.3511978 -0.430404 -0.31300858 0.5481457 -0.45814252 0.22937831 -0.23519112 1.3613222 -0.28959396 -0.25773233 0.78468776 0.5340672 -0.18854122 -0.059774335 0.9676945 0.23270005 0.57688695 -0.63449925 1.1260635 0.35152546 1.053941 -0.15209943 0.29059508 0.83443147
time -1.074519 0.69901097 -0.40719134 -0.36489138 -0.629086 -0.5209644 1.0683291 0.98509127 -0.31691667 -0.382937 -0.34890884 -0.086975306 -0.5065871 -0.79640234 0.14681338 -0.7802859 0.01309095 -0.3092029 0.2949356 -1.2183897 0.8716091 0.15537009 0.7345736 0.24413085 0.03202591 -0.7256899 -0.15125988 -0.6284738 -0.64382786 0.12465681 -0.09494511 -0.8928062 0.27032074 -0.22804458 -0.7556764 0.43637046 0.24141847 0.04102538 0.63616824 0.016336253 1.6971388 -0.49127057 -0.122556165 -0.59101874 0.27046242 -0.37348086 -0.50614756 -0.035720933 0.14208078 0.5679065 0.2790491 -0.25792852 0.23514435 -0.102653556 -0.19487058 0.061668567 0.10400341 -0.549354 -0.9565758 -0.2578395 0.14784056 -0.13610688 -0.01977533 -0.76088613 0.062364485 0.23982511 0.71078634 0.46045813 0.14965788 -0.35640943 -0.8609892 -0.48604125 0.19947246 0.07240299 0.19860205 0.33876374 -0.81116825 -0.2052691 0.21385734 0.409601 -0.031257015 0.051725667 -0.35344914 0.82152086 0.17291757 -0.45016664 -0.12174272 -0.51145047 -0.46056032 -0.6329399 1.1682905 0.21879768 -0.17145686 -0.44278342 0.8775952 0.43283033 -0.2185558 -0.15834033 -0.22094525 -0.885783
use -0.062574215 -0.13864684 -0.11837153 0.12604392 0.068627924 -0.62551075 0.45376775 0.6402468 -0.3489733 -0.46576485 -0.5626373 -0.6695191 -0.22208445 0.21758157 0.072647005 -0.0068731047 0.23166807 -0.3412961 0.37590513 -0.70258284 0.1490417 0.49030617 -0.054524563 -0.29340523 -0.053646587 0.13306098 -0.0011973555 0.010549965 -0.47075117 -0.16725376 0.4469737 0.10072223 0.13185258 -0.18842562 -0.39990214 0.27035636 0.17493589 -0.5637636 -0.23878679 -0.75067335 -0.26859152 -0.024213793 -0.16310252 0.051751193 0.53572136 0.100182004 -0.1616602 -0.36788824 0.24720095 0.5579213 0.12084105 -0.33147264 -0.04100171 -0.012993868 -0.45790055 0.22180375 0.2686423 -0.068000905 -0.106056154 -0.010372928 -0.35002226 0.2901924 -0.015401108 0.4096826 -0.35762122 0.49656332 -0.2317487 -0.015216565 -0.14337006 0.2453502 -0.35880637 -0.09901205 0.086621255 0.09334851 0.44469643 0.032528788 0.03478991 0.008338628 -0.27474567 0.22086902 -0.13718192 0.01598347 -0.055263843 0.60757506 0.17767836 -0.06062255 0.22520281 0.27384338 0.32231733 0.2000842 0.3262215 0.38386157 -0.14435223 0.11566864 0.51810163 0.23103036 0.369809 -0.46241006 0.03392993 0.5197991
which -0.34696883 0.33471653 -0.10631942 0.0033691383 -0.14148448 -0.5563327 0.43438044 0.66823435 -0.15904486 -0.18219917 -0.2397453 -0.39049587 -0.066316165 -0.02492654 0.04938363 -0.46507916 0.049080804 -0.0877182 0.048746757 -0.63390166 0.32694614 0.14468409 0.016834315 -0.07838268 -0.15508729 -0.22869448 -0.12227155 -0.3498711 -0.34480256 -0.1315457 0.18081893 -0.024474656 0.01262354 -0.10191965 -0.2742579 0.4089721 0.077778585 -0.23620127 -0.14116797 -0.39709756 0.40765843 -0.28494814 0.1478062 -0.05768715 0.12754215 -0.042244215 -0.31030402 -0.11366117 0.2456741 0.6234779 0.11106212 -0.12752555 -0.010380787 0.017864268 -0.19967128 0.12303161 0.10114028 0.18408597 -0.36412576 0.35059705 0.21878734 0.16775358 -0.24228574 -0.055686165 -0.24343096 0.15250939 0.10412231 0.21183532 -0.40078095 0.1417843 -0.20554133 -0.05103556 0.35864502 -0.09266046 0.27270523 0.24906182 -0.07607709 0.024341172 -0.10755846 0.07702063 -0.25031662 0.023331944 -0.3907418 0.35878578 -0.09438077 0.013107193 0.020402905 0.28046495 0.33259496 -0.16975889 0.52092904 0.2013588 -0.051060602 0.18065809 0.40591028 0.33067754 0.13363685 -0.592653 0.010739224 -0.22937109
optim -0.2478873 0.3842568 0.024094826 0.23370051 -0.29191104 -0.42561135 0.71356785 0.7082483 -0.18029448 -0.2277376 -0.070991285 -0.28254962 -0.08698575 -0.07720559 0.14514217 -0.4887115 -0.040338412 0.17476273 -0.12760271 -0.8209441 0.51908475 0.14230661 0.26056924 -0.2522006 0.44376764 -0.3771265 -0.17187794 -0.52700466 -0.49459887 0.2500194 0.07846879 -0.21097584 0.38651687 -0.2822384 -0.29693693 0.5229658 0.01949585 -0.074359335 0.2142877 -0.37519413 0.4688481 -0.25755253 -0.11689301 -0.07632175 0.17207722 -0.2831997 -0.2744435 0.051304195 0.23843771 0.25609946 0.33739752 -0.18766259 -0.10492843 -0.10106824 0.0027016795 -0.16234387 0.05854718 -0.15709789 -0.2859268 0.6666748 -0.05545015 -0.12742092 -0.101135425 -0.49730211 -0.32919362 0.13957678 0.36096793 0.58188635 -0.27290168 0.60228014 -0.2998259 -0.13212343 0.3863001 -0.106191196 0.45916373 0.23825659 -0.22247854 -0.1827163 -0.04814246 0.38300788 -0.41332495 0.13031021 -0.59715194 0.6027303 -0.24271876 0.0037046825 0.19850042 -0.058002554 0.060002092 -0.17366472 0.9290168 0.12439926 0.27465364 -0.3426105 0.75407356 0.17646287 0.121040575 -0.4606101 0.2128843 -0.38639078
can -0.4574971 0.23039985 -0.13276426 -0.014612067 -0.14767751 -0.49630395 0.40886414 0.72673935 -0.16935237 -0.25019842 -0.3103915 -0.39665395 -0.17769873 -0.051741295 0.065712176 -0.22544748 0.16410516 -0.3270037 0.29822212 -0.7674683 0.38839862 0.28038618 0.15665281 -0.10404965 0.03026301 -0.2088087 -0.103606604 -0.11337342 -0.40572312 -0.031078503 0.23276044 -0.09471848 0.1430272 -0.10243571 -0.43539548 0.31685314 0.08945042 -0.36519653 -0.047845174 -0.44150618 0.37770507 -0.1794994 -0.15660492 -0.11788768 0.38678047 -0.1379313 -0.36053926 -0.1276294 0.14327514 0.43311065 0.16958167 -0.16965841 -0.0048513385 -0.017301312 -0.23169538 0.11504154 0.09563696 -0.17422517 -0.35403994 0.12786284 -0.11286024 0.13960865 -0.10344248 -0.08362557 -0.29826787 0.27643946 0.15382478 0.19774704 -0.1598287 0.13514535 -0.41699997 -0.14385651 0.15535702 -0.051545832 0.34064633 0.09529053 -0.16092852 -0.13979131 -0.18060967 0.22090966 -0.16791973 0.0423867 -0.3008671 0.7227748 0.01781706 -0.032587204 0.103630304 0.09605082 0.10077552 -0.21995746 0.59257656 0.20525667 -0.0096415365 -0.044660117 0.59792715 0.3234384 0.23731358 -0.36089715 0.037144452 -0.040389813
set -0.3320723 0.7120201 0.05440578 0.00052047934 -0.19570212 -0.6572411 -0.18212539 0.7216267 -0.20972027 -0.057814516 -0.13863376 -0.3409005 0.14338095 -0.03080746 -0.022835063 -0.86725855 0.017262684 -0.17568266 -0.27953574 -0.44882295 0.11601765 0.14925958 -0.5132496 -0.16760305 -0.38974163 -0.41294658 -0.54583603 -0.48920494 0.124598965 -0.22572072 -0.03850513 0.310191 -0.30615517 -0.008143404 -0.1068851 0.4081433 0.09015155 -0.17808439 -0.38095477 -0.64920104 0.3702742 -0.5057161 0.48164144 -0.008335866 -0.22565538 -0.17463757 -0.44942516 -0.06602155 0.007833692 0.5950338 -0.05108713 -0.25947732 -0.13264191 0.101528235 0.05193517 -0.030853227 0.23593049 0.32043096 -0.02955429 0.7305282 0.6052309 0.22469287 -0.19830927 -0.12954184 -0.58336896 0.026874667 -0.0146719515 0.08795852 -0.9281032 0.30222288 0.22584158 0.20441389 0.6034084 -0.1535691 0.1950612 0.13310677 -0.025350207 0.19435593 -0.25163063 -0.07352597 -0.037807565 0.14010178 -0.67299366 -0.035918314 -0.109410316 0.4178033 -0.31433892 0.43300048 0.5305053 -0.15816233 0.49350643 -0.014589782 -0.10038363 0.25015074 0.21899092 0.39413387 -0.0033236365 -0.8540666 0.07537727 -0.5604799
data 0.29183823 -0.34382626 0.154809 0.0151039185 0.52080435 -0.8150767 -0.15411893 0.42145556 -0.6424383 -0.47414225 -0.5333365 -0.8777547 0.04471281 0.31030342 0.3762899 0.37867674 0.3140867 -1.1480554 0.47117195 -0.5827671 -0.44513038 0.4969964 -0.4089723 -0.57170546 -0.5304409 0.51129 -0.04021974 0.4927652 -0.1869829 -0.48814037 0.580835 0.25678545 -0.25854698 -0.15065442 -0.17611882 0.18260647 0.19216815 -1.029993 -0.7336759 -1.3900476 -0.99883145 0.023009958 -0.34951556 0.6163182 0.51073825 0.57310265 -0.05290923 -0.616697 0.17218693 0.83435225 0.063275196 -0.6370011 -0.1011374 0.38289887 -0.753298 0.4417308 0.7118527 0.17492916 0.01866545 -0.08272531 -0.49868232 0.8785077 -0.098999 0.9765432 -0.55713165 0.90408313 -0.48527595 -0.08263251 -0.5246645 0.19343802 -0.57717633 0.27166122 0.23803869 0.12983145 0.44716552 0.18764746 0.26235494 0.07545644 -0.6494862 0.22836435 -0.03612201 0.10706401 0.058854986 0.5445045 0.24591564 0.24334121 0.029239252 0.98034483 0.8543699 0.8437705 0.16195875 0.75467885 -0.6582155 0.4968684 1.0235107 0.37125096 0.4877694 -0.48949203 -0.15134437 0.8847314
show -0.55065334 0.08608276 0.3535068 0.19958824 -0.5488927 -0.802779 0.8256309 1.1718386 -0.16769542 -0.35242927 -0.40845168 -0.2027701 -0.4626034 0.015723806 -0.036878 -0.66034055 0.1263215 0.21548983 0.16286893 -0.68790823 0.47632435 0.20960522 0.6115414 -0.31368113 0.69976044 -0.22758451 -0.2512737 -0.050148662 -0.70055073 0.3591276 0.17322625 0.24164627 0.5110681 -0.3524853 -0.13447706 0.38471985 -0.21608263 -0.41230986 -0.020328924 -0.26568156 -0.08521963 -0.027399844 -0.22304842 -0.29488924 0.58809817 -0.72700065 -0.21656856 -0.034149975 0.19667214 -0.07481248 0.4763286 -0.19568664 0.0516744 -0.38092732 -0.07370947 -0.09558382 -0.13971181 -0.29090953 -0.13868599 0.56793517 -0.4426594 -0.71645886 0.3123993 -0.6837537 -0.55909014 0.07204233 0.56382036 0.784086 -0.11113354 0.76056546 -0.017702535 -0.096644945 0.17483154 -0.07047183 0.7671932 0.1768964 0.11840759 -0.4450953 -0.29102376 0.46976677 -0.40656126 0.28410557 -0.6623267 0.7192249 -0.114986435 -0.30018264 0.45643535 0.20736602 -0.14388251 -0.0987951 0.8769508 -0.08040436 0.69485503 -0.85669166 0.5607921 0.21973732 0.8659685 -0.23989703 0.41870576 -0.03197074
result -0.39599127 -0.1703064 0.22439124 0.25285408 -0.5212928 -0.65610284 0.6515683 0.72532684 -0.046717297 -0.3055677 -0.04882901 -0.22829673 -0.27784282 0.14320001 -0.02108842 -0.096053526 0.26431683 0.19531737 0.20814009 -0.6174134 0.5663644 0.08644527 0.7576015 -0.39733407 0.71179956 -0.049964726 -0.02760899 0.21672061 -0.684833 0.29642653 0.25292027 0.24455336 0.6161442 -0.5829535 -0.18190663 0.3850437 -0.25976598 -0.56655633 -0.042091075 -0.4818109 -0.34821916 0.053127658 -0.55134094 -0.21094619 0.7385307 -0.41513166 -0.39167938 -0.074320115 0.35545373 -0.0103998305 0.45748797 -0.22061026 -0.14457701 -0.16014388 -0.21671632 -0.029390937 0.08840701 -0.4346383 -0.4743169 0.6794181 -0.6235925 -0.40711105 0.115182504 -0.45719123 -0.5444361 0.31780496 0.47170964 0.9165941 -0.04714039 0.70543265 -0.41248378 -0.29922536 0.17415641 0.004827827 0.9304714 0.28077132 0.28711963 -0.44801366 -0.35898474 0.36601937 -0.46476936 0.22533906 -0.41221532 1.1562996 -0.2650627 -0.18207791 0.6793095 0.4266602 -0.032529164 -0.13344723 1.0141326 0.22749218 0.5750255 -0.5367862 0.890721 0.42450258 0.84777534 -0.37383682 0.2489307 0.3446315
comput -0.028705271 -0.023642916 -0.12499199 0.2415668 0.014243348 -0.5871107 0.800224 0.7456771 -0.269265 -0.43607077 -0.3564002 -0.62904 -0.28671378 0.0063944794 0.12242628 -0.11996231 0.23713312 -0.007366636 0.092449434 -0.816692 0.48291022 0.45489562 0.19346496 -0.4113153 0.17453098 -0.024924345 -0.010297791 -0.084810205 -0.52881557 0.0039247875 0.21564637 -0.07408085 0.27099165 -0.2654362 -0.660916 0.33432266 0.2623648 -0.34663665 0.02848447 -0.5600279 0.10270449 0.0016817305 -0.086025335 0.07643602 0.6064765 0.077998176 -0.0673042 -0.29939002 0.30232254 0.58417416 0.21479732 -0.24855785 -0.041040692 -0.110473454 -0.4210514 0.1710223 0.18691139 -0.03927568 -0.13085559 0.019120762 -0.29932746 0.16217688 0.0038011654 0.09760874 -0.34806794 0.4879336 -0.1342217 0.2535215 0.031565607 0.25688735 -0.4594061 -0.38383672 0.2387626 0.13537908 0.50415343 0.13937098 -0.038274407 -0.13858403 -0.26332897 0.28877527 -0.20968604 0.07324165 -0.17487991 0.556237 0.09556665 -0.037180506 0.30720887 -0.0889421 0.08669666 -0.09311353 0.6483844 0.29635805 0.16956805 -0.042861875 0.6930106 0.33100125 0.2911968 -0.39032263 -0.09755234 0.19504239
model -0.015196674 0.18062511 0.12631387 0.1548754 -0.08205061 -0.7460347 0.043916777 0.5147079 -0.33588436 -0.34133345 -0.37597385 -0.4591913 0.0051153246 0.2938241 0.07986072 -0.45782638 -0.0615583 0.045266923 -0.120823 -0.37444618 0.042785093 0.33276698 -0.41424134 -0.25443703 -0.11412099 -0.08172402 -0.34060022 -0.1550474 -0.25122845 -0.2069366 0.18512435 0.25551057 0.028224174 -0.29271206 -0.14476657 0.4482259 0.11203859 -0.4286994 -0.33972803 -0.64666504 -0.12906255 -0.27404538 0.004858677 0.11796763 0.1560774 0.12377991 -0.17431454 -0.20220311 0.23216121 0.47000524 0.15906735 -0.3660961 -0.1426638 0.065172076 -0.07997467 0.12564178 0.25368974 0.1464495 0.118709736 0.5715175 0.16385406 0.28544348 -0.09632504 0.06477406 -0.42589974 0.3159848 -0.061658304 0.12201574 -0.5385361 0.51567525 -0.059753895 0.08124246 0.5174071 -0.20343098 0.43856868 0.3031191 0.10982344 0.015845414 -0.19777589 0.041250776 -0.2543839 0.18349846 -0.4722643 0.36801034 -0.15311335 0.18694137 0.01055375 0.45132184 0.61895853 0.29630944 0.40242437 0.23307101 -0.05457735 0.11910064 0.3592082 0.35416782 0.22408932 -0.6468019 0.18550523 0.10730132
from -0.2519546 0.16051607 -0.014028563 -0.072057925 0.09965643 -0.5950827 -0.053314418 0.6060244 -0.26804608 -0.15345795 -0.3853315 -0.6061076 -0.008193826 0.041393034 0.10484736 -0.11589948 0.09812614 -0.5819721 0.2880738 -0.59067726 0.121322334 0.42193493 -0.25273365 -0.17180172 -0.4056712 0.07306466 -0.17110255 -0.10591905 -0.11539753 -0.35726684 0.24191847 0.25395426 -0.15691218 -0.016703574 -0.2711316 0.23760961 0.13526984 -0.60490257 -0.47468165 -0.8902346 -0.0255232 -0.24291852 -0.02418448 0.23050308 0.3264818 0.11406817 -0.38925982 -0.37797493 0.1875816 0.5787076 -0.010724637 -0.28334025 -0.0948086 0.1668844 -0.34129196 0.21421485 0.2547457 0.17654328 -0.21537393 0.13068028 0.0131019065 0.5614491 -0.2385265 0.41539425 -0.4315922 0.41968063 -0.2651342 -0.016207905 -0.5292489 0.091540754 -0.34773448 0.13922633 0.28468117 -0.047329716 0.17033109 0.042828318 0.12769207 0.010016121 -0.2752472 0.12365019 0.041372746 -0.018654773 -0.20461427 0.33832538 0.006728078 0.25814447 -0.13158065 0.53017086 0.4262318 0.03722225 0.32373807 0.28826565 -0.3085671 0.3612986 0.45278978 0.48898128 0.27565306 -0.45715955 -0.043886136 0.20661883
approxim -0.5906433 0.45608124 0.008103424 0.0023929768 -0.5915268 -0.4967005 1.2032509 1.1675544 -0.006554402 -0.2874786 0.008029705 -0.09743781 -0.18229385 -0.24878521 -0.0006808238 -0.64342093 0.15216279 0.31192032 0.03760589 -0.9827604 0.8557084 -0.11920721 0.7243605 -0.16892917 0.760868 -0.63992214 -0.09557409 -0.5639871 -0.7782299 0.5257286 -0.03742625 -0.37947962 0.4820849 -0.53560615 -0.35029233 0.65019673 -0.18109863 0.08298147 0.47212687 -0.031868745 0.9194754 -0.33122376 -0.18734287 -0.41246852 0.33831057 -0.57072794 -0.5443241 0.18353035 0.20169507 0.15760142 0.50095147 0.0025665974 0.010396376 -0.27547008 0.098194584 -0.27172062 -0.06880816 -0.42000943 -0.6376016 0.6317347 -0.24503663 -0.64095557 -0.17589435 -0.9676623 -0.25049722 0.04621296 0.82559204 0.8588073 -0.038736485 0.55691236 -0.35735404 -0.3399386 0.1783314 -0.055038936 0.61379147 0.31832743 -0.3132472 -0.2637353 0.013361199 0.5747808 -0.55401665 0.30191386 -0.5438575 0.9640857 -0.1685737 -0.20602775 0.40387568 -0.20495798 -0.36999023 -0.51453257 1.3597684 0.09559688 0.5823699 -0.6939651 0.8090099 0.16956188 0.17770404 -0.46093324 0.21825063 -0.6459341
net 0.04411108 -0.04332957 0.0769994 0.1707975 0.32044554 -1.0230871 -0.023957876 0.43677473 -0.42769665 -0.34217337 -0.36836696 -0.85970503 0.09651708 0.5647795 0.13015574 0.00092303415 0.3104561 -0.3828094 0.25255644 -0.32528347 -0.1092463 0.37637746 -0.356283 -0.5760171 -0.67377615 0.35046616 -0.1617707 0.3715915 0.08912415 -0.45466498 0.4146133 0.49320856 -0.21272372 0.10961018 -0.6676904 0.13690665 0.20631722 -0.5787734 -0.67529577 -1.257089 -0.42984375 -0.16695783 0.12395554 0.11709639 0.47116107 0.20387918 -0.4475744 -0.7611229 0.40064755 0.5993994 -0.11066107 -0.43750957 -0.036984842 0.05405668 -0.41582763 0.6083695 0.30247796 0.30581704 0.07385348 -0.071288496 -0.13679059 0.3814183 0.06772667 0.7738212 -0.6131772 0.6675259 -0.3669668 -0.007706727 -0.5568484 0.013273841 -0.20172934 -0.13696545 0.3941605 0.20162068 0.4257434 0.02872577 0.3348297 -0.0010846292 -0.6186336 -0.18146078 0.012599451 0.08206813 -0.05553702 0.35887122 0.34047428 0.21331401 0.06988816 0.61809254 0.6765526 -0.05293055 -0.08201731 0.19315602 -0.13196869 0.39592844 0.41074258 0.73950833 0.7374481 -0.55672973 -0.07107452 0.51654816
base 0.004748273 -0.028373897 -0.03330977 0.3229912 -0.10875149 -0.6181102 0.6374051 0.6990002 -0.24035546 -0.4925138 -0.41074806 -0.5590175 -0.14395206 0.2554652 -0.008959323 -0.11226661 0.3136808 -0.04448192 0.16133952 -0.69275 0.25864756 0.3930024 0.039797015 -0.39652532 0.12004898 0.06340475 -0.15336697 0.02213642 -0.5138968 0.092658535 0.36456507 0.056467447 0.2045309 -0.41905862 -0.44827175 0.33657867 0.074255906 -0.44398922 -0.0901903 -0.69598895 -0.26243553 -0.013960503 -0.18425289 0.033871274 0.5331898 -0.0354225 -0.23444915 -0.32748315 0.24863707 0.4604054 0.08984408 -0.34029365 -0.08473998 -0.09677487 -0.31976083 0.11324746 0.18317956 -0.16266762 -0.043741155 0.25345376 -0.40382937 -0.02248929 -0.020363422 0.11609379 -0.42795837 0.41952932 -0.07809335 0.1557826 -0.17740537 0.4359299 -0.28099713 -0.18229508 0.20623648 0.013061516 0.5041729 0.04718704 0.043777954 -0.0075108074 -0.28608543 0.13325337 -0.31219062 0.11509892 -0.13645399 0.76108897 0.11230098 -0.031626787 0.31966117 0.16849774 0.18406324 0.019766403 0.5567829 0.2817349 0.12323487 -0.085117154 0.49388933 0.17702052 0.32103068 -0.5288773 0.1512165 0.45273325
effici -0.02966412 -0.27564105 -0.077530615 0.2553062 -0.018270927 -0.5663069 0.73151934 0.67253226 -0.33213392 -0.55571485 -0.40696928 -0.5127038 -0.22278425 0.25586054 0.16328427 0.02149705 0.22209536 0.0016190308 0.20469138 -0.7985281 0.35765448 0.43906644 0.24041376 -0.29940212 0.3668215 0.07259558 0.052497413 0.16086987 -0.74719703 0.051530603 0.32416487 -0.06788356 0.40835893 -0.40394604 -0.48165578 0.38103697 0.14321928 -0.47708923 0.031847466 -0.5824967 -0.2100368 0.026428685 -0.47409457 0.036105067 0.7429597 0.007005675 -0.14097384 -0.28385687 0.35890427 0.5140778 0.28760692 -0.33976734 -0.04532417 -0.15223187 -0.35800153 0.22431456 0.24116004 -0.24747635 -0.16802464 0.072938 -0.52879256 0.07897989 0.035453204 0.03799807 -0.39042768 0.5779904 0.0001217561 0.29501367 0.13472182 0.40400106 -0.51744294 -0.29771164 0.07589445 0.020036446 0.6297584 0.27455625 0.014479928 -0.13125573 -0.34019664 0.31345898 -0.37443587 0.087139174 -0.15847819 0.9251912 -0.015090281 -0.09288543 0.47599646 -0.029303173 0.14809145 0.13682784 0.60302985 0.43997738 0.18039049 -0.1178245 0.81025225 0.2669585 0.35898545 -0.32430288 -0.038979277 0.42138153
bound -0.86452234 0.8727137 0.50394297 0.05492573 -1.1943822 -0.39675894 0.5926277 1.0786569 0.24240373 0.21714559 0.29948285 0.39267483 0.30538985 -0.44336662 -0.28256005 -0.83992517 0.13955653 -0.15542912 -0.16774265 -0.822427 0.6997405 -0.4725567 0.7435861 -0.26341593 0.92045754 -0.5930611 -0.61002785 -0.75244457 -0.37571687 0.34206894 0.03582866 -0.45555633 0.81725603 -1.0572524 0.20717372 0.37959766 -0.37008688 -0.37854436 0.21416035 -0.14313465 0.994022 -0.61079 -0.46519294 -0.5490517 -0.25771818 -1.0515488 -0.74893725 0.06562532 -0.35880697 -0.33515918 0.54810756 0.17642283 -0.3884729 -0.06384918 -0.08171517 -0.8874456 -0.13227244 -0.4129604 -1.2182568 1.3142397 0.06647233 -0.49513322 -0.5204469 -0.9645159 -0.3775372 -0.27742514 1.3909683 1.1379006 -0.69242454 1.0416756 -0.3983698 0.3336913 0.25812754 -0.51901436 0.9266066 -0.18341547 -0.28352877 -0.21116042 0.28088206 1.2087679 -0.6602647 0.28485498 -0.901546 1.3736118 -0.6938016 -0.2971497 0.11462266 0.45431155 -0.5311846 -0.6398482 1.8474971 -0.3557702 0.7092651 -0.69769967 0.7981474 0.0910325 0.294491 -0.2110254 0.34947717 -0.41609097
learn 0.5303946 -0.005219289 0.26453748 0.33154234 0.13480262 -0.72963667 0.028049063 0.27779546 -0.62033707 -0.6921706 -0.58875114 -0.49699378 0.18650968 0.57489175 0.36892664 -0.15205419 -0.4968581 0.41818947 -0.3184459 -0.37127942 -0.13820833 0.38613033 -0.8193091 0.003764982 0.22412889 0.18985093 -0.39109692 -0.2540919 -0.4768315 -0.060454674 0.18593088 0.33470345 0.1565629 -0.725675 0.1705209 0.9428351 0.27265117 -0.34044242 -0.32251638 -0.67265016 -0.24447066 -0.47860128 -0.39801526 0.37017384 0.1569278 0.41476253 0.3699442 0.060853906 0.5327391 0.52285475 0.6603994 -0.48290628 -0.24946806 0.18379211 -0.0048664305 0.26296103 0.3212342 0.12576956 0.2048762 0.676084 0.023396319 0.553211 -0.08502637 0.30588531 -0.23754568 0.61631685 -0.13096984 0.2100827 -0.6428781 0.9468765 -0.3229037 0.31211656 0.60492843 -0.6350377 0.5749361 0.9122252 -0.02025075 0.1584674 0.23926362 0.4711049 -0.8030268 0.31328502 -0.42243347 0.35629413 -0.61314774 0.15183564 0.15002 0.7369878 1.0274004 0.9841844 0.69066584 0.4933273 -0.28154054 0.22406058 0.6062499 0.12849385 0.29799145 -0.6193524 0.2940374 0.4357406
number -0.9566392 1.0449756 -0.18112054 -0.29529494 -0.3198726 -0.6447005 -0.044977933 0.9355204 0.0026685838 0.20158854 -0.17126046 -0.31230238 0.084015675 -0.4504008 -0.050485533 -0.88594353 0.12337469 -0.6711683 0.08024727 -0.6957852 0.40743524 0.16995254 -0.1033568 0.047619347 -0.68105567 -0.484694 -0.54126984 -0.6456139 0.22699776 -0.42994863 -0.11698915 -0.057805426 -0.40410748 0.26501852 -0.40883917 0.14824821 0.1724671 -0.16068707 -0.30701777 -0.40589088 1.2728949 -0.6166503 0.5470044 -0.374984 -0.22965181 -0.4493034 -0.7253409 -0.18734397 -0.102014005 0.67077845 -0.23771784 -0.053102575 0.033327386 0.10439627 -0.085007474 0.026623452 0.07126431 0.24197446 -0.54785043 0.25263205 0.76051277 0.21137828 -0.42828983 -0.101848714 -0.3504777 -0.04772701 0.16334465 -0.05053765 -0.77720076 -0.26830256 -0.18620998 0.091572136 0.36692405 -0.10910982 -0.0026495596 -0.11238605 -0.36302558 0.1808814 -0.1383844 -0.010640919 0.15259835 0.027214274 -0.5598796 0.11447271 0.11757891 0.31025985 -0.54060584 0.22083673 0.1047411 -0.81311446 0.51082426 -0.27503636 -0.3251899 0.28286144 0.15908527 0.570107 -0.0041457745 -0.58670896 -0.16075593 -0.81229573
studi 0.08248799 0.21760793 0.20486544 0.37379488 -0.274104 -0.8417998 0.5557914 0.75263846 -0.54087234 -0.54815316 -0.5368403 -0.3709347 -0.27859816 0.36112243 0.029698867 -0.9085079 -0.25387564 0.735107 -0.4302312 -0.39030215 0.04909774 0.19807369 -0.6365353 -0.2308805 0.1299003 -0.28466064 -0.22085537 -0.65188855 -0.49308905 -0.03256989 0.17383765 0.6450848 0.24115431 -0.22707966 0.04399965 0.7401883 0.12631142 -0.06377229 -0.31398222 -0.56402075 -0.36237764 -0.22513348 0.4977227 -0.030462053 0.18317604 -0.23074707 0.18475597 0.016696509 0.5611787 0.5661437 0.40703866 -0.27118915 -0.06151004 -0.23587552 0.0955421 0.104716755 0.077184476 0.39854717 0.32998356 0.8553758 0.3640178 -0.09851978 0.20607547 -0.33489564 -0.6127642 -0.014696307 -0.008571592 0.41671914 -0.6558666 0.94262046 0.5576211 0.10100315 0.6213265 -0.09124901 0.66957325 0.51974344 0.34607393 0.0889676 -0.088009626 0.069916524 -0.27781656 0.16459586 -0.6934208 -0.26043993 -0.079991765 -0.07628011 0.25049955 0.3877083 0.81160975 0.6018835 0.26989502 0.09505426 0.31308502 -0.030233026 0.1039968 0.146331 0.43501619 -0.89739335 0.3575406 -0.18505551
two -0.22841814 0.39950866 -0.06573477 0.1498993 -0.29118466 -0.70493287 0.32416102 0.7788773 -0.18473436 -0.18168259 -0.3501192 -0.38044074 -0.1355038 0.16259268 -0.07729277 -0.648742 0.10897452 0.17685692 -0.15765941 -0.5916241 0.3549119 0.33459285 -0.21921241 -0.22624528 -0.03153087 -0.2765827 -0.37529996 -0.2921789 -0.28505567 -0.05796105 0.14851782 0.1740967 -0.00526001 -0.22150786 -0.34653187 0.41430914 0.10176374 -0.19148435 -0.1744189 -0.5216668 0.15965497 -0.2907058 0.22596355 -0.20573172 0.12442559 -0.2589715 -0.39457992 -0.102205336 0.16818124 0.4943678 -0.00843235 -0.25824955 -0.043125708 -0.13944082 0.06667381 -0.046981055 0.07997069 -0.009147363 -0.058308847 0.4554364 0.225856 -0.17344707 -0.029846078 -0.23286292 -0.4567461 0.15618473 0.10889217 0.15555876 -0.503883 0.36415902 0.04539404 -0.10050865 0.33190855 -0.13550958 0.36611873 0.16541904 -0.08350582 0.124047466 -0.2531739 -0.13536452 -0.2346304 0.20808266 -0.5332083 0.28682715 -0.049735673 0.13761064 0.14051637 0.10564263 0.26009104 -0.0957108 0.3810706 0.0011528797 0.21363388 -0.1273076 0.24279977 0.20090395 0.08279948 -0.6478629 0.08740116 -0.23283496
provid -0.30560195 -0.0061189854 0.20592569 0.14860733 -0.4624458 -0.63033026 0.88822275 1.0717326 -0.20110732 -0.55119157 -0.3971824 -0.23743327 -0.39019996 0.045660682 -0.015540535 -0.3636468 0.10073859 0.06964059 0.16431269 -0.7892296 0.3808443 0.20308895 0.37378883 -0.48275238 0.7827757 -0.20480938 -0.13071215 -0.30576032 -0.80893075 0.42585027 0.25708884 0.07841123 0.59662 -0.5719608 -0.037070643 0.5957059 -0.16221285 -0.37780648 0.025515346 -0.38466236 -0.15411066 -0.077071555 -0.47064856 -0.21616744 0.5315998 -0.5170876 -0.14737359 0.042127 0.17286104 -0.035624143 0.5256513 -0.23162983 -0.04879312 -0.23686469 -0.16523151 -0.17504348 -0.030335134 -0.45495304 -0.22951578 0.64427155 -0.4436096 -0.41809413 0.13659666 -0.5839471 -0.511736 0.11362747 0.48012006 0.6574452 -0.065672636 0.9412941 -0.14705274 -0.015463976 0.08642134 -0.09728821 0.8404323 0.11603681 0.1068131 -0.2896832 -0.12880006 0.6975701 -0.3621035 0.25407165 -0.4237251 0.9022918 -0.085192375 -0.3397566 0.4873486 0.3579095 -0.14237563 0.17724146 0.9689988 0.14294666 0.554485 -0.7066396 0.7052062 -0.04362784 0.6596446 -0.39987478 0.48166254 0.27699754
tree -0.37481543 0.59483624 -0.1861037 0.3138075 -0.11283887 -0.7682171 0.2907259 0.7819049 -0.1436819 -0.08030271 -0.29305074 -0.51907945 0.10099661 0.04131284 -0.19358437 -0.77702594 0.45731047 -0.19451766 -0.2254861 -0.46159992 0.14908507 0.3607888 -0.26705417 -0.37776187 -0.300588 -0.31240946 -0.7737455 -0.082388364 0.083022386 -0.24405567 0.100319885 0.0093851425 -0.4054014 -0.21262845 -0.57658935 0.036563944 0.2502384 -0.13288622 -0.10043405 -0.6534483 0.41446087 -0.43857872 0.49064064 -0.3281482 0.08753977 -0.2913719 -0.5662679 -0.26151872 -0.028291658 0.75506955 -0.28784388 -0.29652503 0.1053375 -0.24314715 -0.2609968 0.10090625 0.21170229 0.06772104 -0.09281256 0.19155149 0.20263882 -0.22698818 0.049182918 0.14460634 -0.5562201 0.087949954 -0.19980629 0.021942675 -0.62073314 0.088762954 0.21837038 -0.09956658 0.3635186 -0.051922776 0.34833366 -0.3254316 -0.3077934 0.2546711 -0.3775343 -0.2719817 -0.22221947 0.11435684 -0.50602263 0.25844023 0.37107545 0.17912422 -0.19012854 0.055552002 0.34302306 -0.5469381 0.4858055 -0.1452244 0.091821864 0.07001902 0.21916533 0.3868402 0.14164175 -0.740415 -0.25231674 -0.4280287
method -0.084040105 -0.41227484 -0.11752368 0.25034288 -0.17625418 -0.6125678 0.82560897 0.79325014 -0.1147358 -0.44635835 -0.43304875 -0.68985283 -0.28126678 0.3727927 0.074375734 0.22290969 0.3209155 0.0317913 0.44582155 -0.8078754 0.5926404 0.47958675 0.5498019 -0.3137825 0.39475203 0.1398001 0.2678548 0.22556065 -0.75379074 0.070883706 0.5891911 0.012042559 0.5741446 -0.4581939 -0.5086014 0.29063958 0.07745615 -0.75792545 0.04388983 -0.5416745 -0.46909666 0.1839121 -0.65249825 -0.054661036 0.9032127 0.061462 -0.18001384 -0.34525484 0.47797668 0.35307032 0.263233 -0.26337808 -0.11901221 -0.05643834 -0.4269245 0.16990536 0.2097518 -0.25436008 -0.25714007 0.2874353 -0.7402745 -0.03380279 -0.120515674 0.049561705 -0.40893134 0.5889772 -0.009679094 0.34612697 0.19692196 0.46271026 -0.6635764 -0.47012216 0.05149575 0.08721155 0.6716444 0.15006323 0.13579622 -0.30757377 -0.4205922 0.25011426 -0.48333108 0.10105389 -0.10206344 1.1915818 -0.049387142 -0.20872258 0.6642331 0.1751598 0.12638283 0.00013564024 0.61478305 0.4529202 0.24704011 -0.22877872 0.83144546 0.29689997 0.5861785 -0.44118676 0.16595034 0.70064723
structur -0.030447917 -0.40904334 -0.030794492 0.1619894 0.47457254 -0.60196924 -0.1435613 0.46101245 -0.6172372 -0.3211086 -0.66319025 -0.75273013 0.10425444 0.4564522 0.18455355 -0.05777164 0.48484495 -0.7492516 0.28445426 -0.5947813 -0.16351692 0.54306793 -0.32584545 -0.44919232 -0.117289916 0.42636925 -0.2449902 0.4857649 -0.15507801 -0.42030704 0.32227495 0.23067944 -0.34477153 -0.2074511 -0.21909565 0.0570494 0.15431565 -0.86225164 -0.3473672 -0.8942558 -0.66047806 -0.13007504 -0.043719664 0.18389738 0.54903066 0.22968782 -0.4350473 -0.442933 0.23004931 0.7704278 -0.0076397047 -0.4362484 -0.10798438 0.096945964 -0.56201434 0.21334767 0.4762164 0.07647848 0.08076836 0.013723401 -0.311895 0.40090725 0.024443956 0.88282585 -0.47426888 0.6260621 -0.45068204 -0.09023746 -0.4533333 0.33806738 -0.22529045 0.18412454 0.18445708 -0.0035941047 0.37585935 -0.13393609 0.22237825 0.15778768 -0.48291093 0.11963703 -0.23371577 -0.009170786 -0.17812173 0.591441 0.20481414 0.23753116 0.07190676 0.5113074 0.62643915 0.22245984 0.22295943 0.5559349 -0.24890256 0.4397304 0.66398084 0.4446723 0.35123655 -0.44922304 -0.2085862 0.53592676
one -0.58784217 0.6864604 -0.19455537 -0.12716597 -0.14944535 -0.58705777 0.09563636 0.7331862 -0.094142996 0.12126957 -0.3006347 -0.44972733 -0.04442826 -0.15149955 0.0804266 -0.5924277 0.066663034 -0.41944718 0.15848379 -0.6746025 0.39350277 0.20331855 -0.19191797 0.05794233 -0.58680516 -0.35090175 -0.282465 -0.42905024 -0.037880205 -0.3509202 0.1965399 0.030666232 -0.2176932 0.16656408 -0.36613983 0.23953164 0.2089356 -0.24287005 -0.26879752 -0.49363485 0.64535356 -0.45150653 0.33810744 -0.09195865 0.024572829 -0.11952449 -0.46436933 -0.13981988 0.0816475 0.6914881 -0.11984049 -0.11822916 0.030899473 0.08089792 -0.15100661 0.13640653 0.12933536 0.23375772 -0.4026367 0.25157717 0.46695668 0.3292237 -0.33600754 0.036604285 -0.2923787 0.091371976 0.026887368 0.053588226 -0.5839934 -0.1251345 -0.26808178 -0.086586684 0.3448867 -0.14025928 0.009717907 0.13730463 -0.21545675 0.16050524 -0.17570479 -0.12903628 -0.060437698 -0.018858915 -0.4650872 0.26087785 -0.022382367 0.19558564 -0.20601356 0.24406624 0.37446964 -0.38931328 0.3916272 0.022210725 -0.2280839 0.31297457 0.33221918 0.43692085 0.00084444584 -0.5830443 -0.104963064 -0.4908498
general -0.17870596 0.27069736 0.11857181 0.40423763 -0.47660726 -0.5622167 0.6143455 0.7716335 -0.13973047 -0.3310853 -0.15422963 -0.2675565 -0.16089128 0.13047756 -0.03358945 -0.8345111 0.080463625 0.54866076 -0.26181817 -0.53643084 0.45929316 0.14608197 0.032108236 -0.3485533 0.47263587 -0.45153642 -0.41911885 -0.26338825 -0.5045159 0.25582922 0.047877815 0.1566126 0.22044313 -0.46862948 -0.22767255 0.5819166 0.0042376583 -0.07616557 0.04310422 -0.4123019 0.07178038 -0.17686455 0.1719652 -0.16448697 0.27463958 -0.26517847 -0.28705707 0.12331268 0.2979982 0.27478993 0.27809012 -0.1721916 -0.09646865 -0.29450777 0.036300655 -0.12928455 0.013355903 -0.061413936 -0.026625795 0.82246846 0.067587465 -0.26477757 0.044320885 -0.6101805 -0.58316815 -0.03483094 0.19485192 0.6663384 -0.37247786 0.78717613 0.20808335 -0.11984418 0.5173593 -0.20664531 0.6850708 0.35206673 0.016379153 -0.06679878 -0.21615168 0.06901765 -0.46216556 0.14644939 -0.6918868 0.4610131 -0.29104978 0.036222674 0.3027761 0.03970459 0.22706598 -0.038068883 0.9357991 0.021355735 0.45024353 -0.38802814 0.5767476 0.10897354 0.19020903 -0.678361 0.2422183 -0.36102226
perform -0.37307417 -0.41392544 0.18517843 -0.1571954 -0.10344276 -0.62449074 0.64534897 0.89272046 -0.07488455 -0.27224365 -0.19661677 -0.4469608 -0.36351848 0.18469796 0.2976729 0.5074985 0.03425513 -0.3087227 0.6181524 -0.832917 0.5169556 0.23792833 0.91387206 -0.16242807 0.29567385 0.26247844 0.48806873 0.19783027 -0.67858374 0.20055774 0.4701695 0.07940722 0.67327523 -0.18205981 -0.27259356 0.37054756 -0.18598583 -0.8608063 -0.22409225 -0.5951936 -0.25826427 0.0057514524 -0.94451743 0.012016534 1.0057261 -0.19842161 -0.26011294 -0.27282715 0.5000238 0.037705872 0.49434114 -0.12007306 -0.0063977847 0.018637449 -0.37242028 0.15898213 0.06540314 -0.16881049 -0.59882396 0.23239169 -0.85812134 -0.062733896 -0.1575226 0.0041217003 -0.36339173 0.60570693 0.37567946 0.74251974 0.056483548 0.455183 -0.9974045 -0.23757647 -0.17075068 -0.0027464803 0.5727504 0.35231057 0.17009208 -0.51189435 -0.2844243 0.68732196 -0.32599023 0.07078897 -0.19406715 1.178155 -0.16139689 -0.20115653 0.61739075 0.5607173 -0.015732825 -0.027670523 0.6800637 0.28788814 0.25956684 -0.35686454 1.0597132 0.50090265 1.027183 -0.053401098 0.24309963 0.5896073
propos 0.004444837 -0.31689078 0.02426664 0.48818666 -0.39634028 -0.76937217 1.2449001 1.1410496 -0.37493435 -0.74024886 -0.7438601 -0.47254676 -0.6229886 0.38521704 -0.013580938 -0.35437313 0.10004314 0.5336095 0.14499925 -0.729802 0.3997595 0.49208584 0.20226094 -0.35591382 0.78969485 -0.060582787 0.050408203 -0.16553652 -1.1193608 0.34576878 0.5015792 0.23280688 0.6123198 -0.62999874 -0.26991817 0.6589948 -0.0021449071 -0.38560992 0.05981131 -0.4288226 -0.6371723 0.19676408 -0.26719964 -0.14856896 0.8505852 -0.34256643 0.09809217 -0.017262815 0.49580064 0.41507405 0.4719682 -0.31994626 -0.0086853355 -0.45287806 -0.23636669 0.037830293 0.019533262 -0.30372104 0.14538008 0.47106475 -0.5901879 -0.4238596 0.22099319 -0.36579326 -0.5647679 0.26914605 0.0961463 0.494877 0.10558132 0.94808483 -0.0058953455 -0.33013973 0.08395119 -0.058318585 0.84665865 0.35688198 0.2365526 -0.11996603 -0.18331577 0.28325862 -0.5442331 0.13399789 -0.24507658 0.70961547 0.062265806 -0.40107748 0.75206673 0.0988276 0.21033399 0.4437143 0.66933465 0.31762388 0.57170886 -0.49032074 0.4625813 0.00036364046 0.6887422 -0.6825229 0.43117458 0.45078596
paper 0.19964664 -0.11888508 0.012477317 0.5817481 -0.45624337 -0.8549059 0.6786959 0.82932955 -0.3236946 -0.71242684 -0.5150395 -0.41812545 -0.31804484 0.57200146 -0.14134763 -0.8919526 0.08511558 0.84338325 -0.42536253 -0.4745445 0.45576337 0.5082918 -0.13427648 -0.48824644 0.6722439 -0.25157705 -0.3647139 -0.05143384 -0.83466613 0.08874184 0.14017485 0.2376614 0.38414732 -0.8026805 -0.36788237 0.5804057 0.009118772 -0.3661084 -0.011488411 -0.41544136 -0.5048177 0.03990594 0.057810575 -0.27995175 0.45818508 -0.13730173 -0.098179616 -0.052792035 0.4392833 0.55221355 0.23199786 -0.48156452 -0.18635768 -0.3355109 0.19071202 -0.08962824 0.23800959 -0.285995 0.37627092 0.6708902 -0.050627124 -0.40298888 0.19996563 -0.51149976 -0.6926529 0.32606497 0.028839553 0.3677029 -0.21456502 0.9738531 0.3175167 -0.22746645 0.5782802 -0.21256359 0.9290932 0.4082223 0.15730762 0.033513807 -0.41322267 -0.11646868 -0.60370886 0.36853853 -0.6304243 0.6316754 -0.099425234 -0.057401985 0.58331764 -0.114770845 0.34133098 0.35482243 0.6036979 0.21677335 0.6135093 -0.46486196 0.4175595 0.11607937 0.094016425 -0.8274894 0.20123728 0.16075726
work -0.0705911 -0.23984127 0.15664086 0.2544327 -0.39547074 -0.70352376 0.7796699 0.78126335 -0.19786024 -0.52088434 -0.3680926 -0.19526154 -0.28278372 0.39743707 0.004146818 -0.58127576 -0.09451261 0.7098212 -0.100350186 -0.3992331 0.3852463 0.11739881 0.20239337 -0.17670734 0.60400486 -0.1991143 0.10742203 -0.16322798 -0.9932219 0.03546344 0.38329884 0.32837084 0.4685808 -0.6188529 0.16265519 0.7461391 -0.1899689 -0.41225302 -0.06455077 -0.22410215 -0.503698 0.044420056 -0.16639704 -0.082071684 0.41585168 -0.05119705 0.03266826 0.06923155 0.556757 0.49370342 0.4996036 -0.18322283 -0.16664888 -0.18496001 -0.06796266 0.06120398 0.12021442 0.06913606 -0.14559664 0.8381938 -0.076587625 -0.14933735 -0.06861681 -0.51636815 -0.46938315 0.16181602 0.2593422 0.5772027 -0.23133278 0.76694 0.0658934 -0.04767208 0.46684477 -0.24912572 0.82263047 0.67868817 0.4488175 -0.1452333 -0.21567798 0.14913654 -0.66042036 0.20812246 -0.49687424 0.56026113 -0.40401495 -0.28395838 0.5912877 0.5223584 0.46531522 0.44144335 0.6833582 0.41807908 0.4808536 -0.17205642 0.40000677 0.23120804 0.49191758 -0.6480097 0.33940172 0.14481843
have -0.2534706 0.10170135 -0.30901724 0.2625741 -0.3584156 -0.37083024 0.64577746 0.5131495 -0.14930977 0.0056845206 -0.30092818 -0.653569 -0.24101347 0.2450693 -0.05177093 -0.449229 -0.43135676 0.55341643 0.25028473 -0.4692362 0.5237101 -0.08729581 -0.3677422 0.2095479 -0.25479704 -0.15493158 0.5074882 -0.7807267 -0.43043804 -0.4678832 0.11415413 0.65283805 0.49552497 0.04675684 -0.2793729 0.72610307 0.28627366 0.015510739 -0.611693 -0.54530555 -0.08745282 0.1297581 0.662796 -0.21810569 0.554434 -0.22805771 -0.022364527 -0.16285984 1.0633645 1.0458184 0.25571564 0.21874091 -0.14363453 -0.42466563 -0.20413801 0.19427481 -0.021306783 0.6944833 -0.38448995 0.40495092 0.17516401 0.22580652 -0.35974354 0.08845971 -0.52353686 -0.19120963 -0.19336605 0.692593 -0.6760088 0.36192766 -0.05093334 -0.06309482 0.27773085 0.1118918 0.48460335 0.69960755 0.57406753 0.14490667 0.20374152 0.3291161 -0.46573758 -0.25335917 -0.034784343 -0.23941697 -0.045081668 -0.44844168 0.28688625 0.5101722 1.0013429 0.41244158 -0.07033223 0.26688206 -0.20176844 0.83574057 0.29757282 0.67288584 0.63817936 -0.6911399 -0.212372 0.07404215
quantum 0.044173144 -0.58965695 -0.22054942 0.13332121 0.1498974 -0.50933886 1.1803082 0.8709503 -0.2691128 -0.7838001 -0.48044786 -0.9113455 -0.35409927 -0.020201461 0.12341912 0.5929078 0.30122438 -0.18652825 0.48791254 -1.12489 0.49411103 0.736015 0.431484 -0.4949152 0.24343969 0.39220637 0.31237018 0.05188304 -0.7972974 0.1432816 0.5288109 -0.30049095 0.5730841 -0.42643568 -0.92490286 0.34769148 0.25689784 -0.71695995 -0.08905154 -0.7464873 -0.17475373 0.18216902 -0.6493952 0.46945685 1.0254264 0.36015895 0.23196909 -0.49273843 0.20978099 0.5591816 0.24521716 -0.28996873 -0.16479433 0.07079506 -0.8217869 0.27813622 0.10148279 -0.049447976 -0.27263355 -0.38231885 -0.7788979 0.6104129 -0.05470988 0.5181403 -0.32395053 0.876271 -0.44629833 0.019957894 0.48746264 0.23879331 -0.9370922 -0.35772854 -0.035962954 0.30449766 0.58020484 0.07728047 -0.20795982 -0.22214329 -0.34653196 0.68311197 -0.059158932 -0.058151286 0.11626862 1.0055435 0.23101065 -0.20982581 0.4885938 -0.12395912 -0.18388681 -0.072845906 0.531684 0.64709985 0.073124774 0.07628512 0.9991955 0.27778557 0.43986726 -0.36949417 -0.04142259 0.9144804
has -0.28821668 0.13327749 -0.3463268 0.21984695 -0.3472131 -0.27120805 0.5874727 0.47694516 -0.14959465 0.0395172 -0.24778514 -0.6400583 -0.1995565 0.20272261 -0.06293527 -0.5038877 -0.52166367 0.59954226 0.24747366 -0.43182606 0.5311508 -0.19353333 -0.48783258 0.29809457 -0.317431 -0.23135631 0.5771648 -0.90986305 -0.38181534 -0.5135785 0.11707491 0.70743185 0.45808512 0.07555412 -0.1676755 0.8141681 0.30058482 0.069906965 -0.6040873 -0.5591192 -0.007816142 0.073567994 0.7682019 -0.18022336 0.48578033 -0.121704884 0.036153138 -0.10033041 1.1105758 1.1767495 0.29821026 0.28120235 -0.1582972 -0.38784063 -0.26893604 0.2288749 0.009841132 0.8532796 -0.45970532 0.4915818 0.31408766 0.3923771 -0.46520123 0.1124827 -0.5334109 -0.2782855 -0.21050198 0.7459111 -0.80578977 0.3705127 -0.04266837 -0.005018124 0.3350941 0.06381613 0.42162636 0.80194575 0.61692256 0.2129187 0.30996886 0.3850341 -0.51302725 -0.2840207 0.0019467573 -0.3344463 -0.110760435 -0.47066355 0.22299998 0.6025304 1.1455306 0.47913936 -0.029250516 0.3112623 -0.32211387 1.0611808 0.2940916 0.75217676 0.59305817 -0.82351714 -0.250458 0.012036807
where -0.5243283 1.0173583 -0.06572888 -0.15856893 -0.19859847 -0.73655534 -0.19749285 0.74049443 -0.26454803 -0.04268493 -0.20769364 -0.301708 0.028518146 -0.096373715 0.035309583 -1.1233945 -0.066034 -0.26565546 -0.26257434 -0.5409889 0.19865362 0.17769669 -0.5551198 -0.0069709662 -0.61222273 -0.60683924 -0.6992484 -0.68097144 0.083835594 -0.29857454 -0.091139786 0.17187306 -0.34751898 0.12147257 -0.17065907 0.4841216 0.12793432 -0.07273426 -0.43134895 -0.56929886 0.7310567 -0.65792155 0.6671037 -0.089491986 -0.34485736 -0.16222888 -0.49272338 -0.061781775 -0.0060303393 0.70836323 -0.08717396 -0.17551307 -0.016540462 0.08292719 0.22512454 0.0020926886 0.17019573 0.33226132 -0.1662697 0.5858136 0.9297554 0.29694474 -0.29897135 -0.17696075 -0.49023876 -0.04130336 0.10419058 0.03921589 -1.0446502 0.19220403 0.1486713 0.20989624 0.67974067 -0.27586865 0.05179012 0.22575958 -0.30751726 0.3004631 -0.159954 -0.15640892 0.031126188 0.086038336 -0.81659764 -0.13240173 -0.082101904 0.47975847 -0.4647081 0.31403017 0.56494313 -0.23298398 0.51728135 -0.1699483 -0.22655353 0.23782638 0.15332763 0.38173276 -0.23058818 -0.7761995 -0.011249752 -0.8334115
also -0.4185015 0.09539898 0.13464871 0.16348267 -0.5692138 -0.65679663 0.713248 0.9313154 -0.051460072 -0.3363703 -0.22576384 -0.1429499 -0.30137864 0.09388656 -0.06939241 -0.6391294 0.06491979 0.31110254 -0.0221531 -0.60059375 0.5937595 0.15813243 0.503911 -0.29511753 0.74698836 -0.28834835 -0.14781673 -0.14702165 -0.73938566 0.22672765 0.102682374 0.042733323 0.50327635 -0.5644867 -0.16272132 0.47413775 -0.17485276 -0.333716 0.061236545 -0.18401055 0.028346777 -0.06696333 -0.270449 -0.36205754 0.42012012 -0.48594868 -0.31198907 0.046786323 0.25155184 0.12077703 0.42308998 -0.1657468 -0.11291773 -0.26722634 0.032153465 -0.1769314 -0.022546396 -0.33015072 -0.3169684 0.7308956 -0.23433638 -0.5082227 0.021905486 -0.73819625 -0.4603968 0.09799573 0.5004066 0.7369899 -0.1165255 0.7614446 -0.10004167 -0.102117896 0.26861203 -0.16756575 0.8262499 0.24559829 0.055031937 -0.26852348 -0.21116047 0.3329951 -0.5129073 0.30535835 -0.6650294 0.85017246 -0.21912742 -0.22732875 0.4861232 0.16578686 -0.07387889 -0.121426724 0.92587596 0.03661789 0.6261968 -0.63005847 0.6040951 0.21122326 0.49326697 -0.45407167 0.29339185 -0.05431942
edg -0.8623958 1.2260699 -0.22797608 -0.22255927 -0.06169442 -0.9578504 -0.29883713 1.0311865 -0.04321676 0.033200786 -0.21981138 -0.5965868 0.19217663 -0.18947989 -0.23157272 -1.0537261 0.3973126 -0.59971505 -0.099048935 -0.5873646 0.14766249 0.32965228 -0.63482076 -0.20313075 -1.083217 -0.5488585 -0.6561343 -0.5069684 0.39017028 -0.53186715 0.04485817 0.27768862 -0.6963867 0.4250764 -0.63110036 0.20189816 0.21634652 -0.13661237 -0.60440046 -0.8624119 1.0457481 -0.75198275 0.92092484 -0.40952563 -0.22052841 -0.3344779 -0.7959934 -0.37129614 -0.22996274 0.9516141 -0.4302354 -0.1775892 0.041637816 0.060927466 -0.18531676 0.19934398 0.28163522 0.4171846 -0.18414515 0.2576443 0.9697876 0.18247376 -0.28177673 0.17721687 -0.65024763 -0.05179781 -0.21212801 -0.38582692 -1.1328566 -0.29585087 0.30236268 0.03600708 0.50145525 0.14816803 0.059202474 -0.39149424 -0.32871315 0.3611358 -0.4940064 -0.39415872 0.33097276 0.14554283 -0.5991145 -0.18586819 0.3930741 0.560668 -0.6084881 0.3269256 0.4227022 -0.91139555 0.22947192 -0.33242813 -0.24419606 0.49309504 -0.2392492 0.736777 -0.054451093 -1.1227231 -0.17057157 -0.83154273
improv -0.5941138 -0.13994783 0.0046029766 -0.1542041 -0.38557303 -0.49245176 1.1123922 1.093845 0.07736679 -0.2419999 -0.042945597 -0.20970283 -0.4050819 -0.02783946 0.052601475 0.11456085 0.10573207 -0.02316776 0.46783078 -0.8905469 0.7930695 0.05070223 1.1238959 -0.085989386 0.6313076 -0.116640784 0.34871924 0.03302491 -0.86120915 0.33035627 0.39552134 -0.22081424 0.80267346 -0.45186517 -0.25413346 0.4488458 -0.16289797 -0.6329032 0.19035397 -0.24544246 0.21107331 -0.028246235 -0.7979108 -0.23770362 0.9029199 -0.3370042 -0.3420449 -0.01955747 0.38418347 0.108924806 0.50569415 0.035961248 -0.03598189 -0.17000817 -0.4167386 0.00906858 0.0184076 -0.3635537 -0.75793236 0.36677182 -0.7507225 -0.29741094 -0.2385783 -0.46413723 -0.29176047 0.34594068 0.608655 0.89357674 0.14965461 0.46705228 -1.0734255 -0.31619814 -0.15237047 -0.09735955 0.6441736 0.32618988 -0.049618296 -0.499614 -0.15906134 0.7628468 -0.56254184 0.16174467 -0.27167308 1.3893006 -0.24469931 -0.4085757 0.54195166 0.21847267 -0.28936398 -0.36139584 1.1251601 0.20476706 0.39910403 -0.4877772 1.0320709 0.32534668 0.778155 -0.13702741 0.2317345 0.30048373
approach -0.15699227 -0.29427418 0.010326849 0.26925862 -0.25219294 -0.70844454 0.64893204 0.745339 -0.11121424 -0.39597732 -0.27538848 -0.5498589 -0.22659747 0.33873487 0.045481138 0.07294581 0.28580663 0.053954028 0.3254903 -0.6877658 0.50866085 0.3717309 0.49507838 -0.41197625 0.39463383 0.07324839 0.071330935 0.23801659 -0.5995198 0.049644087 0.40041104 0.078350104 0.51580894 -0.4589154 -0.40885806 0.23924908 0.013076738 -0.7262943 -0.053992614 -0.5258029 -0.4378737 0.11174437 -0.5586134 -0.110905305 0.77798027 -0.10810842 -0.27147907 -0.28597656 0.3800616 0.25060928 0.25363258 -0.278194 -0.12943424 -0.07297378 -0.29558164 0.106396936 0.18527207 -0.28888392 -0.20246163 0.4071479 -0.65091705 -0.18717793 -0.0022087307 -0.056701202 -0.47896734 0.49907658 0.108367175 0.462274 0.072165124 0.5372642 -0.5269814 -0.3901596 0.13526246 0.07181177 0.68186 0.12224805 0.16474213 -0.33330244 -0.45000422 0.23847786 -0.4634641 0.17344907 -0.23522776 1.1211737 -0.039343867 -0.12423422 0.57569516 0.19410695 0.16342476 -0.0021812355 0.6284604 0.3265065 0.33077872 -0.2540932 0.8143739 0.38024983 0.5762885 -0.41276982 0.15156558 0.55121726
complex -0.324628 0.14127177 0.016421597 0.055119228 -0.23200412 -0.49892834 0.72839385 0.6799701 -0.27422956 -0.43847966 -0.1574074 -0.20878737 -0.07808524 -0.09869792 0.08844463 -0.37193832 0.081238896 0.016318973 0.016566968 -0.75636774 0.36751544 0.17604783 0.30394107 -0.310904 0.49348027 -0.2288033 -0.128714 -0.22100998 -0.65666896 0.02102719 -0.051258203 -0.13970809 0.34506652 -0.3938279 -0.30903822 0.4920879 0.032149926 -0.2819021 0.1866001 -0.34671095 0.3347548 -0.17933904 -0.26889637 -0.15229163 0.38974187 -0.09131513 -0.23694873 -0.1597717 0.2495804 0.37520352 0.2829484 -0.1757052 -0.11922711 -0.099211454 -0.18111661 0.006782027 0.07901457 -0.23088391 -0.47720248 0.32978126 -0.060199548 -0.023745196 0.024208387 -0.3994685 -0.3434358 0.29688033 0.31764573 0.51410306 -0.05750464 0.35807833 -0.41299027 -0.046740294 0.22542843 0.040554523 0.6915911 0.24659081 -0.07039258 -0.21807541 -0.150556 0.4093938 -0.22630794 0.1756476 -0.45745158 0.69498956 -0.16837464 -0.14823766 0.2741526 0.019138874 -0.0052555227 -0.10284708 0.7792973 0.2494046 0.26329288 -0.22348028 0.7550345 0.32389727 0.20781146 -0.25986242 -0.031007012 -0.10885226
when -0.7568067 0.74556935 -0.039696883 -0.19923913 -0.22238226 -0.5372557 0.17862734 0.786449 -0.045039076 0.17943612 -0.07038913 -0.20096901 0.00062277005 -0.2582822 0.19200277 -0.7213999 0.01341727 -0.33045328 0.06570378 -0.69165546 0.55371886 0.058508903 0.2347647 0.06999865 -0.26391175 -0.47331762 -0.3138059 -0.42984304 -0.12778781 -0.12202397 -0.05522862 -0.17028771 -0.04503216 0.12337955 -0.2918283 0.29699874 0.09382762 -0.1546376 -0.11987749 -0.30562127 0.98065674 -0.4855086 0.17429692 -0.27897134 0.06278525 -0.3061729 -0.6048459 -0.0027381321 0.17234024 0.41258878 0.08818561 -0.03550932 -0.00044531873 -0.061945055 0.03220412 -0.008675269 -0.017456723 0.12339489 -0.5972599 0.36340475 0.40015826 0.02489905 -0.30943993 -0.27341983 -0.25159118 0.038852327 0.37292913 0.45648965 -0.5653947 0.07481199 -0.31493682 0.0038719166 0.3220315 -0.22384351 0.18809617 0.22309121 -0.31744716 -0.052041605 -0.038414273 0.15107566 -0.19140625 0.07748179 -0.7036968 0.39192548 -0.19978853 0.1760328 -0.13994259 0.15756497 0.14769208 -0.59062725 0.8221673 -0.19288759 -0.07648018 -0.018303553 0.52478296 0.491998 0.14486259 -0.3572629 -0.09683347 -0.8192103
distribut -0.27215123 0.2895098 0.058786497 -0.09752745 0.037422385 -0.5391278 -0.10077397 0.5606282 -0.30339122 -0.13821293 -0.3893867 -0.44920173 0.0886141 -0.054490145 0.23524995 -0.33599013 -0.06304934 -0.486723 0.13279095 -0.54164714 0.050378527 0.35125965 -0.28916046 -0.10825161 -0.21998303 -0.07662535 -0.32691267 -0.3084766 -0.17170618 -0.33221322 0.15840028 0.07802651 -0.091584004 -0.20569837 -0.052827157 0.26966885 0.10412409 -0.5159606 -0.26439238 -0.6651488 0.13978812 -0.35454813 -0.1366926 0.20326248 0.14074688 0.1063002 -0.26519355 -0.18699642 0.16596907 0.48283076 0.10567185 -0.30252847 -0.109310605 0.15512681 -0.1357696 0.08117138 0.20738396 0.16306682 -0.19646035 0.38965595 0.09177908 0.5140406 -0.29850066 0.19084628 -0.29568693 0.3750616 -0.119058095 0.02654286 -0.57353705 0.27017877 -0.3103511 0.27920863 0.3918211 -0.21690719 0.22706455 0.17157345 -0.04565847 -0.0033625516 -0.088103436 0.25570002 -0.08627014 0.10141838 -0.4246093 0.32352427 -0.16482858 0.22890858 -0.1778461 0.51651615 0.45903072 0.19237679 0.5214937 0.24553093 -0.3509132 0.21549027 0.5062457 0.3612402 0.14599217 -0.36056048 0.07407856 -0.037651658
applic 0.14874795 -0.2504295 0.32228073 0.20537071 0.31193954 -0.9027537 0.2696726 0.37958297 -0.62738484 -0.38281536 -0.4332459 -0.67352474 -0.012745853 0.40235758 0.3187099 -0.03823612 0.046489004 -0.20110361 0.107201375 -0.47814256 -0.042934805 0.262065 -0.11681822 -0.5371775 -0.19877204 0.33839288 0.09113977 0.15709218 -0.33898747 -0.30526665 0.2392836 0.5210483 0.09383698 0.0037012375 -0.37009966 0.46175995 0.06642263 -0.5763501 -0.6265102 -1.0531949 -0.6419656 -0.025105132 -0.04081929 0.35789233 0.51547873 0.29208198 -0.009236185 -0.61667347 0.48113042 0.5388658 0.27666184 -0.39953148 -0.110361695 0.117959 -0.39097205 0.44234243 0.31418762 0.343996 -0.15992448 0.11575819 -0.21055257 0.3444285 0.15363495 0.46499017 -0.44521856 0.62121487 -0.19916508 0.32428026 -0.39992842 0.26589388 -0.36811253 0.022260744 0.39560267 0.13769366 0.58697414 0.39829713 0.5429269 -0.18735272 -0.48091468 0.214975 -0.11136415 0.0549565 -0.2593083 0.20058545 -0.023907557 0.02598305 0.26858693 0.7118784 0.6856917 0.4235349 0.06340676 0.48459974 -0.015810253 0.24658997 0.6981979 0.62518984 0.7743562 -0.35418123 -0.03839154 0.54215336
proc -0.3835039 0.16235822 -0.2513414 -0.0015427514 0.32113993 -0.8061294 0.084563695 0.551099 -0.26169276 -0.41451856 -0.68008745 -0.73815256 -0.12593159 0.10067358 0.16286376 -0.05056908 0.33799177 -0.736396 0.46510106 -0.91888124 0.3000832 0.5194664 -0.0538697 -0.15895732 -0.68042487 0.11374565 -0.12299373 0.24312691 -0.30983895 -0.47488663 0.45608705 -0.14411572 -0.008168281 0.093372084 -0.676632 -0.03694683 0.45976138 -0.62446916 -0.47296438 -0.8118401 0.21210386 -0.13649514 -0.059718046 -0.10768824 0.60616356 0.12946427 -0.25191388 -0.3890148 0.021352012 0.9070871 -0.19365424 -0.3133094 -0.14499825 0.043229003 -0.41888487 0.45974377 0.30475304 0.054106418 -0.17817077 -0.47857618 0.017974813 0.694452 -0.15458417 0.93941367 -0.16022219 0.4598794 -0.40736926 -0.24727313 -0.02033588 -0.042606518 -0.53161913 -0.21583153 0.18316586 0.26882482 0.10944711 -0.013308546 -0.40170914 0.00058842736 -0.48406333 -0.0035530806 0.20792423 -0.072642945 -0.09564511 0.72018266 0.3391805 0.26477167 0.067524485 0.083430976 0.3728142 -0.39101985 0.2320665 0.10799828 -0.45433953 0.6868227 0.4033827 0.60627866 0.03946889 -0.39596394 -0.22914688 0.31122205
case -0.7700875 0.52578545 0.26663285 -0.13106024 -0.73502725 -0.5739791 0.4262768 0.91684973 0.14046253 0.10671519 0.023864381 0.265486 -0.2854367 -0.18080576 0.2738163 -0.8633094 -0.3201059 0.12956521 -0.29286325 -0.45098633 0.7408691 -0.26108187 0.7422102 -0.2048953 0.42423484 -0.6444136 -0.41857332 -0.68129146 -0.25794527 0.115032874 -0.37960425 0.077743456 0.32912168 -0.2724741 -0.005052137 0.4790087 -0.3446637 -0.13470909 -0.1755681 -0.022693079 0.7141703 -0.46032944 -0.049323205 -0.44197556 0.23647761 -0.49703994 -0.6135942 0.17653403 0.27225336 0.10863535 0.5713404 -0.09226104 -0.1027046 -0.27634615 0.3178256 -0.3796861 -0.18537855 -0.375847 -0.7136947 0.92293686 0.2890148 -0.5428752 -0.02556752 -1.101296 -0.1560016 -0.08240703 0.99343187 1.1493996 -0.5186831 0.63658553 -0.30134872 -0.18367234 0.29956156 -0.4040801 0.40533257 0.57385534 0.067682564 -0.3788074 0.18422604 0.33679232 -0.4621727 0.3648978 -1.2144706 0.49890476 -0.42216724 -0.16698274 0.35382473 0.34282926 -0.13850746 -0.30743608 1.2395074 -0.22732027 0.29993775 -0.693181 0.8353704 0.5102085 0.29972938 -0.23728198 0.023145184 -0.9285002
match -0.4488074 1.0155796 0.053000443 0.21921644 -0.45529866 -0.69599056 0.27355957 0.93131185 -0.15816215 0.16428177 0.2884694 -0.0019177783 0.05826046 -0.112875916 -0.11860171 -1.1123314 0.016296368 0.22854277 -0.65942365 -0.51733226 0.5536872 -0.15450881 -0.13673915 -0.09156445 -0.18352124 -0.7921451 -0.678649 -0.53734034 0.20069064 0.1547157 -0.16022511 0.12835598 -0.087392956 -0.19878502 -0.28403667 0.4236858 0.04774155 0.13524204 0.0066664005 -0.467108 0.96253544 -0.6623367 0.61841923 -0.1309243 -0.16564257 -0.5463051 -0.45203784 0.12588967 0.010373004 0.43070498 -0.039841175 -0.1408286 -0.0067289993 -0.1673373 0.185446 -0.14175503 0.033509176 0.38847423 -0.17814156 0.8804575 0.6413224 -0.4054842 -0.040620476 -0.6219777 -0.61365026 -0.2600118 0.41436788 0.7344633 -0.8540879 0.44507545 0.15447171 -0.10796781 0.56815845 -0.108825825 0.23203558 0.07723014 -0.3639756 0.07159781 -0.22071464 0.10416019 -0.22627823 0.19385998 -1.0621157 0.048223656 -0.20673676 0.24865577 -0.26766637 -0.058474854 0.21063766 -0.5905329 0.83747846 -0.43855846 0.44896317 -0.04426064 0.34905133 0.44309497 -0.017559849 -0.6474458 0.02072888 -1.1416212
onlin 0.0075960606 0.8511716 0.3241862 0.2045124 -0.36059132 -0.67173207 0.23402911 0.6065346 -0.4540774 -0.27213946 0.03670178 0.11280828 -0.015524305 0.1996473 0.14290304 -1.128362 -0.48328596 0.7680363 -0.89732146 -0.47547856 0.32491198 -0.07803518 -0.40228036 -0.00016086563 0.20259699 -0.80547994 -0.7289376 -0.7006372 -0.20790067 0.23988152 -0.2456712 0.064428434 0.25299963 -0.5157281 0.024309015 0.86096543 0.035496965 0.22103927 0.062408667 -0.34228066 0.6814879 -0.7329854 0.3396025 0.026198473 -0.21630596 -0.24616867 -0.031481747 0.26953605 0.23244533 0.43397528 0.39253682 -0.2957794 -0.13318938 -0.14095993 0.417165 -0.15850309 0.14493544 0.17447191 0.08852986 1.0313585 0.6397488 -0.14419548 -0.0345266 -0.7473526 -0.5011355 0.011518201 0.6168144 0.749999 -0.7961496 0.9437895 0.043968435 0.022038424 0.76815456 -0.48136076 0.406468 0.6483093 -0.32222155 0.099917084 0.16174676 0.29718342 -0.56603813 0.34039143 -1.1915442 0.22092527 -0.46682352 0.19038644 -0.20162435 0.037381854 0.553682 0.12353071 0.8993126 -0.14166562 0.3551985 -0.22152618 0.46282277 0.34370446 -0.15379483 -0.6542552 0.18163785 -0.8843864
first -0.22606781 0.030654734 0.006185731 0.3479759 -0.62568337 -0.69759405 1.040038 0.99639827 -0.21329167 -0.53465736 -0.41313928 -0.2073905 -0.35107145 0.1877262 -0.14260828 -0.69150394 0.13709466 0.58125496 -0.094409935 -0.74773574 0.63655686 0.28412375 0.4084409 -0.33510894 0.8934667 -0.35846892 -0.28245592 -0.16568112 -0.9511036 0.2774817 0.18030787 -0.03337939 0.6153996 -0.79877764 -0.251511 0.5818261 -0.12362504 -0.2785466 0.2459128 -0.19409253 -0.084811255 -0.044740144 -0.26116875 -0.3019252 0.5195617 -0.36383462 -0.28550568 0.031403817 0.2623161 0.27199385 0.39963272 -0.3297304 -0.106930494 -0.38230252 0.059002966 -0.21313705 0.028635273 -0.55073303 -0.1765294 0.67059743 -0.30043492 -0.53721094 0.06455284 -0.779865 -0.49931857 0.19839604 0.5046175 0.64973253 -0.048391446 0.85368174 -0.15854432 -0.29633746 0.3185123 -0.21631801 0.8508081 0.31138226 0.012565788 -0.20461626 -0.19020803 0.22047733 -0.612685 0.38443613 -0.56966466 0.96977115 -0.1927425 -0.311094 0.5729924 -0.104120046 -0.08048878 0.017510738 0.9802905 0.1995298 0.6220126 -0.66193074 0.62569034 0.07887381 0.28787524 -0.5030716 0.27843514 -0.0043228935
analysi 0.022878015 -0.45732826 0.24246609 0.2024634 -0.06121198 -0.6622727 0.48144236 0.5130505 -0.24904038 -0.5788055 -0.2553727 -0.47602776 -0.17324807 0.4311189 0.1359503 0.24600258 0.17786123 -0.03540947 0.24066114 -0.5640078 0.15549748 0.265953 0.22037593 -0.5310806 0.44417968 0.24368666 0.14107332 0.16128401 -0.6793018 0.09316657 0.37983388 0.36834982 0.5055358 -0.4668184 -0.1292197 0.5559218 -0.09282836 -0.6748342 -0.29014844 -0.79386824 -0.7082532 0.040143665 -0.63598996 0.040521894 0.6835521 0.0036425577 -0.27721116 -0.2753901 0.40394402 0.17293309 0.46833652 -0.35382992 -0.13297418 0.022628782 -0.3604311 0.18647331 0.2520962 -0.27067068 -0.28961906 0.5518084 -0.59536237 0.0030907562 0.09404866 0.007589262 -0.49908763 0.5089506 0.16026415 0.5189577 -0.16109826 0.73808986 -0.38733217 -0.02437095 0.15576847 0.08597821 0.88709277 0.22631758 0.508553 -0.3243244 -0.28766936 0.45025846 -0.32242796 0.23442997 -0.12838727 0.97679365 -0.19329832 -0.11020033 0.6240137 0.6822365 0.30325416 0.33934972 0.61249167 0.48020014 0.35079473 -0.14634153 0.84224993 0.3758221 0.78223205 -0.43835557 0.24548295 0.8413613
solut -0.43851286 0.19799513 -0.06717174 0.10541075 -0.34596595 -0.47923416 0.737472 0.82750005 -0.09415235 -0.11577677 -0.2319588 -0.29657838 -0.21334547 -0.08143947 0.099251404 -0.39708063 0.0949297 0.056389462 0.12252403 -0.8207441 0.6811115 0.13763095 0.53582096 -0.123801835 0.3068551 -0.30860797 0.034829807 -0.27493346 -0.5470996 0.12139152 0.0947576 -0.18608406 0.41203424 -0.16087642 -0.37512 0.30775443 -0.0075891367 -0.2654094 0.19887367 -0.20461385 0.46739992 -0.09554168 -0.18530817 -0.2128367 0.4184956 -0.26371804 -0.28468916 -0.11270489 0.29728752 0.32097578 0.2604354 -0.13504528 -0.055694506 -0.07796867 -0.12576956 -0.0017198065 0.0059155663 -0.1849251 -0.41857713 0.3878242 -0.17583676 -0.16884555 -0.17132911 -0.39938277 -0.19781002 0.23390445 0.38237917 0.5087222 -0.052970294 0.30892262 -0.48794076 -0.33835447 0.22396462 -0.008813449 0.39325207 0.19442798 -0.09284659 -0.28000605 -0.18748446 0.24025407 -0.39621067 0.07342614 -0.4524897 0.72447145 -0.20345831 -0.118179105 0.26420453 -0.13186781 -0.038459532 -0.37279356 0.8032983 0.11669143 0.2568948 -0.28149086 0.69706255 0.32159582 0.24422778 -0.3024295 0.007232702 -0.24191271
func -0.5467478 0.7539269 -0.047063135 0.036335815 -0.38488805 -0.48383564 0.018042173 0.74915826 -0.13784936 0.087626725 -0.16923696 -0.37388572 0.08675759 -0.22906944 0.0536394 -0.88556457 -0.1403814 -0.33967885 -0.033858225 -0.54121524 0.27045295 0.1124028 -0.061561294 -0.14248455 -0.26638764 -0.34905338 -0.5222842 -0.6745482 0.029720929 -0.18773608 -0.030115556 0.11494983 -0.15063667 0.055278767 -0.1392598 0.12632263 0.021703536 -0.19519876 -0.18012527 -0.5649574 0.6295388 -0.42603186 0.3305556 -0.20228413 -0.3501198 -0.36891916 -0.46357605 -0.13918692 0.20064555 0.2709321 -0.042331196 -0.31446147 -0.15501359 0.08495615 0.096288934 -0.30216283 0.24002007 0.13859494 -0.20564725 0.79610366 0.5492798 0.26811835 -0.27625254 -0.21080998 -0.37903753 0.07511579 0.13880856 0.03874054 -0.84394556 0.2948611 -0.12682045 0.121124096 0.60058284 -0.30949154 0.14479773 0.099077545 -0.19342257 0.13386224 -0.08068077 0.013885996 0.017547065 0.038560092 -0.6799045 0.08894544 -0.22855425 0.30987066 -0.27093095 0.31547946 0.34575608 -0.32713613 0.7048275 -0.021616174 -0.28883988 -0.06294349 0.41360378 0.08060158 -0.077363074 -0.65673894 0.24697527 -0.603399
new 0.0056536673 -0.14868484 0.039045535 0.41061682 -0.46815076 -0.67991066 0.84578514 0.86768496 -0.14676638 -0.6266221 -0.39270154 -0.33110118 -0.242924 0.31848857 -0.1408599 -0.44684505 0.1865187 0.47040546 -0.082755394 -0.61902446 0.45446554 0.32395607 0.19345927 -0.4505844 0.7479373 -0.108465016 -0.23985453 -0.04420349 -0.8442071 0.24535334 0.29358795 0.051798966 0.5099094 -0.8347219 -0.18129866 0.55448335 -0.057288323 -0.3941986 0.07967291 -0.37170202 -0.43156514 -0.0045639537 -0.35644045 -0.2219051 0.5158743 -0.23382111 -0.17089674 -0.068023734 0.2547697 0.23780024 0.32228854 -0.3225442 -0.12698643 -0.24718107 -0.07957999 -0.17496501 0.16885002 -0.43214998 -0.039434586 0.73090124 -0.38277504 -0.40626094 0.07342956 -0.48952484 -0.536362 0.2547228 0.23367076 0.43641195 -0.06641426 0.8579873 -0.09288301 -0.123315856 0.27562547 -0.1495849 0.90300393 0.1957694 0.10164901 -0.07947102 -0.31029162 0.22315267 -0.6139844 0.34758115 -0.37947303 0.9790509 -0.1459073 -0.18274844 0.56226295 0.10141055 0.044984818 0.1711719 0.82775897 0.25042066 0.54455143 -0.48949516 0.57478094 0.022465363 0.30026257 -0.646565 0.3220589 0.41750064
all -0.6194076 0.64924043 -0.15198997 -0.1558339 -0.1364519 -0.5534482 0.13178332 0.7780713 -0.071026534 0.046127517 -0.11670779 -0.3990254 -0.012104205 -0.20523016 0.02032234 -0.5364453 0.08660984 -0.41483685 0.0807142 -0.64369404 0.35036278 0.15322971 -0.038924396 -0.010505726 -0.43995488 -0.3563097 -0.24086367 -0.39646113 0.024861509 -0.24104503 0.058320012 0.00920284 -0.20233141 0.1773542 -0.3409392 0.2524614 0.10693963 -0.24402477 -0.20528105 -0.5166142 0.7096126 -0.45027605 0.2728298 -0.123567335 0.02020111 -0.22333403 -0.56620866 -0.14337265 0.07842865 0.57117665 -0.11444756 -0.13056888 0.036208708 0.073486984 -0.13739264 0.07717998 0.11358025 0.20771147 -0.45195344 0.2987924 0.37794042 0.1761764 -0.3049341 -0.055947002 -0.3443143 0.09066161 0.083771914 0.11609606 -0.5744271 -0.09919812 -0.25490013 0.028162975 0.31643352 -0.047115963 0.084333524 0.012987358 -0.21043077 0.03731205 -0.20971815 0.014114088 0.02431441 0.03189898 -0.4827202 0.2255104 0.024880588 0.24914084 -0.22621493 0.24248013 0.21699905 -0.49589223 0.47049952 -0.06430636 -0.14539173 0.21828924 0.3279519 0.46606776 0.063527256 -0.5816771 -0.023659889 -0.5052022
under -0.2293676 0.52929145 0.029453883 0.020228578 -0.16459018 -0.41916305 0.13661572 0.6887809 -0.17627968 -0.2278897 -0.1013634 -0.30858564 -0.022179322 -0.08758301 0.046964366 -0.7144297 -0.02245137 -0.08965293 -0.21833163 -0.5242884 0.106765844 0.05175183 -0.3135978 -0.25423825 -0.019567456 -0.43776396 -0.37851176 -0.5562581 -0.18807863 0.0150099015 0.021825168 0.098121025 -0.0654797 -0.19833897 -0.05109041 0.52653044 0.02203689 -0.1327431 -0.16993043 -0.5452826 0.31526467 -0.3561821 0.274216 0.043841757 -0.09367008 -0.08390069 -0.34627032 0.09881516 0.11327685 0.43912026 0.21766867 -0.21597855 -0.14872737 0.08060668 -0.050646577 -0.08830616 0.1888177 0.19084589 -0.17190577 0.7655618 0.38179204 0.26642182 -0.20671208 -0.2317477 -0.44777733 -0.04108417 0.0777254 0.3065308 -0.6758034 0.45456338 0.15124168 0.21627912 0.56328666 -0.16363874 0.35228008 0.12919499 -0.06777302 0.04652677 -0.08671155 0.1740018 -0.111924544 0.082148485 -0.57299083 0.14234254 -0.18560609 0.2661071 -0.11642798 0.44145033 0.37494296 0.025952606 0.72360337 0.1265089 -0.012955895 0.044155136 0.4959419 0.20063867 0.023505548 -0.7055012 0.1767107 -0.44540274
random -0.3702553 0.3599068 -0.009244953 0.08259161 -0.350244 -0.4862429 0.48487926 0.69953847 -0.17085443 -0.15878654 -0.25440118 -0.23147152 -0.112359256 -0.101848416 0.04656855 -0.43377504 0.0100814495 -0.11769442 0.03769415 -0.6464662 0.35894445 0.28923365 0.1005499 -0.06483478 0.09220116 -0.3121911 -0.37831667 -0.3397038 -0.3379139 -0.10662115 0.04870152 -0.14857267 0.17506543 -0.46642178 -0.31992257 0.3010511 0.0529881 -0.33052677 -0.0047751823 -0.3094055 0.42450267 -0.2857756 -0.045543794 -0.11998704 0.24527694 -0.25276628 -0.4470289 -0.1689944 0.06910339 0.41355073 0.013909466 -0.24851476 -0.03822245 -0.128103 -0.041168988 -0.14816141 -0.03535202 -0.0951517 -0.32404795 0.433443 0.004181739 -0.06222474 -0.14867465 -0.30843294 -0.3815509 0.15099427 0.2462465 0.31767192 -0.3558304 0.3750837 -0.33355558 -0.015776088 0.25979617 -0.21343637 0.37795502 0.085246034 -0.21713485 -0.015073013 -0.039211344 0.17317826 -0.20668982 0.18938583 -0.45998192 0.6882472 -0.03773474 -0.012011681 0.0046151048 0.12045959 0.13679087 -0.2170898 0.6411448 0.008989709 0.15578964 -0.08653148 0.469698 0.2528898 0.11431215 -0.42783973 0.07684169 -0.21216089
it -0.3556039 0.19856331 0.025008993 -0.06666812 -0.06373037 -0.5965164 0.21850942 0.71080256 -0.116549455 -0.057420906 -0.14693841 -0.4768343 -0.054027833 0.027145512 0.12591824 -0.18279293 0.05938327 -0.36151382 0.21105066 -0.6331284 0.30871823 0.19132967 0.14240976 -0.17783587 -0.21140806 -0.03454546 0.0031763508 -0.18056087 -0.22629927 -0.15926339 0.19900185 0.18647058 0.087033786 0.048440617 -0.29520854 0.33129787 0.006403512 -0.44827783 -0.3527767 -0.6355373 0.16583838 -0.22896926 -0.05647613 0.027723024 0.2955323 -0.07715021 -0.35587817 -0.25602219 0.23150775 0.44503883 0.14435473 -0.14376487 -0.06034568 0.07669306 -0.24785177 0.14476576 0.19088672 0.136638 -0.42763075 0.28772798 0.004781843 0.22476079 -0.25076616 0.07712392 -0.39708474 0.29024318 0.0804083 0.28823635 -0.4417408 0.14798652 -0.45260575 -0.02885401 0.22112283 0.011866928 0.34404266 0.17442027 0.067065455 -0.06026078 -0.277755 0.23900568 -0.07130363 0.05879054 -0.345995 0.40755442 -0.07448605 0.12386801 0.07037851 0.466994 0.27059337 -0.19322126 0.4353364 0.1606588 -0.06743098 0.14602545 0.54264176 0.4859423 0.4048585 -0.42139712 -0.013531793 0.050813317
present -0.1789715 -0.031569105 0.08562065 0.38554814 -0.5467864 -0.8647158 1.1447445 1.2328448 -0.40832123 -0.77780825 -0.76741046 -0.30892408 -0.6935745 0.1892083 -0.05279123 -0.7553503 0.085767314 0.49080512 0.00055322493 -0.7650115 0.44627506 0.56350213 0.17272219 -0.4318126 0.8222671 -0.25107774 -0.28847256 -0.3017905 -1.0032 0.3780816 0.2805831 0.13526617 0.58619225 -0.6222841 -0.25945234 0.5991878 0.015219788 -0.2698137 0.066593565 -0.29866388 -0.31080884 0.009652305 -0.17301725 -0.3217819 0.6502472 -0.5348588 0.049516615 0.03313444 0.30162206 0.3093788 0.40626055 -0.38982445 0.039508693 -0.49002868 -0.05033211 -0.08243943 -0.07736936 -0.48010245 0.1950568 0.46224546 -0.32689524 -0.59280473 0.38257056 -0.6556399 -0.57036746 0.16483833 0.26765764 0.4866047 0.056213666 0.97846955 0.1592655 -0.2230517 0.13008176 -0.08454187 0.82394034 0.21913774 0.029648669 -0.1483534 -0.15367454 0.3296692 -0.3824827 0.27103844 -0.49724498 0.6179377 0.16630498 -0.4297684 0.59805745 -0.12547895 -0.034402717 0.3435017 0.76084465 0.114043415 0.66027147 -0.7726373 0.36500546 -0.085903995 0.5384101 -0.5730997 0.4350477 0.1319967
each -0.72479343 1.1495702 -0.24466681 -0.3086328 -0.034660667 -0.83634645 -0.2948924 0.869605 -0.1791777 0.11671777 -0.3969192 -0.4965727 0.1050809 -0.21873288 0.0066366824 -1.0184325 -0.044699233 -0.7136483 -0.020891037 -0.7068995 0.19120724 0.2911728 -0.5382551 0.11248215 -1.034988 -0.48161432 -0.5398937 -0.7463418 0.25224447 -0.6416359 0.05374973 0.084773116 -0.5346808 0.433684 -0.35474747 0.24057367 0.24776104 -0.25032523 -0.48732355 -0.607822 1.0478164 -0.77061445 0.712865 -0.11031229 -0.41313395 -0.0942199 -0.6349496 -0.28674912 -0.04904963 0.99699026 -0.3321555 -0.13852035 -0.016583592 0.27644023 -0.03181008 0.15948687 0.2214761 0.49389592 -0.3814909 0.3424214 1.123564 0.60670733 -0.49812686 0.12640472 -0.32222393 0.015848069 -0.028178079 -0.31652868 -1.0701532 -0.3335527 -0.10208558 0.205948 0.595328 -0.17060275 -0.15645516 0.00021388801 -0.34918535 0.3167046 -0.22436762 -0.28314617 0.2139462 0.021945883 -0.68721277 -0.1889047 0.09908621 0.49296877 -0.58427763 0.3881609 0.5580395 -0.55895764 0.22291133 -0.10327939 -0.5262674 0.63119215 0.00828444 0.55524474 -0.18614458 -0.85640216 -0.116333954 -0.805977
linear -0.3454366 0.46296465 -0.47952852 -0.063376375 -0.16964819 -0.50782126 0.88435674 0.72123796 -0.3304969 -0.60772926 -0.2534244 -0.42094547 -0.34499598 -0.084004596 -0.06499994 -0.6446262 0.17114131 -0.13571042 0.23802695 -1.0577309 0.57213306 0.29043138 0.29947257 -0.2760086 0.25041753 -0.52837 -0.117127545 -0.43576825 -0.71043533 0.00045039778 0.086191855 -0.5768406 0.41244236 -0.20132264 -0.7147892 0.21537799 0.09971425 -0.14456077 0.40030763 -0.18507083 0.69999725 -0.1110067 0.1505145 -0.18132395 0.20568171 0.11117599 -0.2147573 -0.29778904 0.21297437 0.7658539 0.10511716 -0.20071529 -0.1849951 -0.072606735 -0.16406783 0.040491007 0.11887097 -0.41513458 -0.31891 -0.08673914 0.10154598 0.2102308 -0.19223247 -0.2758507 -0.09581483 0.31198943 0.37156922 0.13513695 0.04278647 0.03591627 -0.5982382 -0.5012291 0.28658578 0.18736525 0.2974012 0.0045137974 -0.49662146 -0.11040572 -0.07045555 0.2536125 -0.11058256 0.098987944 -0.37750873 0.778196 0.17206247 -0.20702988 -0.008604268 -0.5447574 -0.08112343 -0.29394042 0.6089164 0.2187761 -0.20469567 -0.18952768 0.41916162 0.22553962 -0.2401044 -0.32830894 -0.10146379 -0.23139104
find -0.36754024 0.48583627 -0.0656805 0.21231046 -0.15376548 -0.70046526 0.27405682 0.8069187 -0.2096157 -0.11266581 -0.19641581 -0.5024618 -0.062495552 -0.03979881 0.013848345 -0.56608635 0.2445147 -0.08061014 -0.06767115 -0.5844072 0.3438428 0.30196315 -0.10630997 -0.27674618 -0.24024516 -0.29966617 -0.37572333 -0.2129381 -0.0635409 -0.081509314 0.04782818 0.24239963 -0.14595321 0.09192008 -0.5542374 0.27308533 0.106315516 -0.18011302 -0.21579538 -0.7006833 0.37744063 -0.2719041 0.3845856 -0.17618524 0.24432495 -0.32601845 -0.4643879 -0.25284824 0.09842773 0.49227983 -0.036691085 -0.25116128 0.0871353 -0.16192313 -0.16542435 0.13311957 0.13928157 0.0882603 -0.08932315 0.26844507 0.13315934 -0.13894366 0.026780875 -0.07050966 -0.5310402 0.20663719 -0.043136533 0.18680733 -0.50078297 0.14132534 -0.0066548125 -0.24378379 0.3223171 0.10151817 0.30643186 -0.08612341 -0.08587869 0.004840938 -0.37172508 -0.09217155 -0.08611075 0.08748297 -0.47208035 0.16880894 0.13276778 0.264192 -0.038708784 0.008784139 0.2602216 -0.4646946 0.48445624 -0.12728192 0.15969864 -0.042479455 0.27203894 0.47531945 0.23437405 -0.6176569 -0.076389015 -0.40237865
design 0.022506632 -0.08298883 0.14365362 0.23846705 -0.14977252 -0.70268446 0.6091633 0.7054922 -0.34015056 -0.5738126 -0.39107382 -0.39041772 -0.23246421 0.3649471 0.085136905 -0.22153254 -0.003054105 0.20370029 0.011007488 -0.54601645 0.15399303 0.28173012 -0.026156975 -0.32069382 0.35204354 -0.015361234 -0.10800165 -0.09287244 -0.6481129 0.16260387 0.26185685 0.18084681 0.37223956 -0.41500154 -0.21472608 0.544188 0.028534783 -0.3416551 -0.112848744 -0.5584795 -0.28705147 -0.10646421 -0.22308582 -0.04944473 0.49641663 -0.14276089 -0.09722352 -0.11632656 0.35686842 0.3541348 0.35787332 -0.3036727 -0.029977987 -0.18935896 -0.12924464 0.09296007 0.13248728 -0.17720424 0.012245897 0.4092738 -0.2716192 -0.13791282 0.13328367 -0.12775253 -0.44369006 0.32998723 0.16583607 0.37158892 -0.15161304 0.7264306 -0.14817072 -0.1331226 0.20172238 -0.07182024 0.63754153 0.3413999 0.10674557 -0.10573503 -0.124364585 0.33421513 -0.38303962 0.21517959 -0.28712192 0.5927221 -0.040172353 -0.14289218 0.4054624 0.26276645 0.28858152 0.29635173 0.56008524 0.27316982 0.30330798 -0.23998085 0.50495386 0.19705513 0.47881696 -0.51012367 0.22698714 0.2766845
order -0.56007403 0.5612968 -0.1965891 -0.10338345 -0.18663582 -0.5254947 0.098979004 0.74931216 -0.14985876 -0.017494943 -0.24896139 -0.45601395 -0.02133749 -0.13565037 0.067343704 -0.43888718 0.13194911 -0.4699747 0.21591012 -0.6831877 0.26317608 0.27179965 -0.11540296 -0.039536245 -0.44661507 -0.2810391 -0.29849043 -0.30282372 0.008642753 -0.2817499 0.21197017 -0.04995799 -0.22231603 -0.02392727 -0.36078653 0.1868401 0.13919772 -0.40266478 -0.17995968 -0.54611725 0.5395843 -0.3136308 0.1392831 -0.116659395 0.16287845 -0.12741743 -0.55508834 -0.1866136 0.01012213 0.5440224 -0.15151948 -0.15865698 -0.005320444 0.05965868 -0.17059648 0.0020269847 0.08018747 0.15452285 -0.30155072 0.28348574 0.2513102 0.2780301 -0.28782314 0.051299922 -0.40222913 0.14044446 0.0595188 0.08370303 -0.5156164 0.04735095 -0.31241232 -0.024883635 0.21308024 -0.13801822 0.045225278 0.049805634 -0.25492686 0.101880826 -0.1677293 -0.009502017 -0.068339616 -0.006467386 -0.389016 0.47425574 0.07903164 0.135079 -0.16953681 0.22254798 0.3030354 -0.32423496 0.3979149 -0.021131754 -0.1504307 0.26658282 0.44418845 0.34634846 0.06545519 -0.57125396 0.021569088 -0.33366394
between -0.42930603 0.6289929 -0.16418236 -0.2493822 -0.07580395 -0.5649278 -0.06929799 0.75877374 -0.06924876 0.11165044 -0.095840044 -0.5929757 0.103393815 -0.15581639 -0.07118129 -0.40184563 0.148791 -0.5412868 -0.02058302 -0.6004131 0.049675785 0.30539012 -0.53173643 -0.2434256 -0.57921773 -0.29239023 -0.26440975 -0.58186483 0.15732689 -0.30795407 0.28920332 0.18826763 -0.29101917 0.11656794 -0.1689268 0.3552082 0.1563259 -0.31221575 -0.42657188 -0.843133 0.6350773 -0.604866 0.26735955 -0.049419496 -0.18235734 -0.06854789 -0.63657165 -0.04272877 -0.050232038 0.5459572 -0.073852696 -0.1821879 -0.03581364 0.22249217 -0.27938893 -0.0026276608 0.34091493 0.32980016 -0.2592172 0.48603472 0.47759035 0.45884734 -0.41985193 0.1997085 -0.45914668 0.12724069 -0.06342548 -0.16422522 -0.8418423 0.13047257 -0.060359016 0.1321621 0.31893545 -0.039182216 0.12929913 -0.2173613 -0.1394582 0.22441147 -0.20560297 0.10417219 0.08296122 0.051518425 -0.43565863 0.050281394 -0.0064607826 0.36801153 -0.3125191 0.589993 0.42203096 -0.29422653 0.33597532 0.049120005 -0.2448608 0.36557522 0.21929926 0.30839556 0.06707741 -0.95382726 0.12013475 -0.3344217
more -0.47081083 0.11187096 -0.102430016 -0.10440046 -0.15343556 -0.42167005 0.5038336 0.821781 -0.20424962 -0.06960332 -0.32513613 -0.48097864 -0.2408936 -0.033256896 0.18583196 -0.26124844 0.22925302 -0.22230516 0.32472807 -0.6397977 0.52919215 0.25746197 0.18606304 -0.06502991 -0.062689394 -0.14886375 0.096344516 -0.023242675 -0.46047583 -0.11108236 0.35098577 0.008864321 0.02146037 -0.036028627 -0.2902464 0.31096148 0.085908726 -0.45893386 -0.048434243 -0.42045707 0.11902718 -0.08020163 -0.124894954 -0.0025923052 0.5266463 -0.03383897 -0.25572136 -0.019266687 0.121999696 0.49020928 0.18041883 -0.1678072 0.025860086 -0.10149123 -0.35113984 0.13162608 0.12072797 -0.03894869 -0.4077573 0.14820157 -0.20829482 0.30329797 -0.21775503 -0.12407489 -0.3455197 0.23480071 0.06343041 0.34574413 -0.18503077 0.15118647 -0.34425503 -0.19151828 0.16145338 -0.1742603 0.34215942 0.33600384 -0.056013383 0.050845858 -0.3485339 0.04514616 -0.23357116 -0.061224714 -0.2797165 0.69594145 -0.056631394 0.020823777 0.17546955 0.18240488 0.1990588 -0.17892466 0.652566 0.21887895 0.08701426 -0.008059404 0.71664083 0.18617502 0.29924712 -0.47019187 0.093742624 -0.043666027
given -0.61019456 0.9699297 -0.18408513 -0.03788352 -0.13831279 -0.7011328 -0.040523503 0.8615552 -0.17351587 0.035193294 -0.2324043 -0.4444906 0.065881744 -0.26084855 -0.058313347 -0.91631764 0.12558101 -0.43959567 -0.116077006 -0.65606296 0.24343982 0.27790016 -0.44501787 -0.06868995 -0.7281707 -0.49582535 -0.62362266 -0.5218719 0.20577869 -0.2905029 -0.054009847 0.10194178 -0.4390958 0.24284276 -0.48429704 0.21136959 0.23265909 -0.122564614 -0.31197172 -0.68792754 0.8989013 -0.59833634 0.7105628 -0.14095835 -0.10386247 -0.26221916 -0.5415204 -0.20139569 -0.053464144 0.7637245 -0.26667145 -0.16751477 0.04218762 0.019371519 -0.06407987 0.104530334 0.14038947 0.3650299 -0.16178784 0.26216587 0.70119905 0.22524497 -0.24279432 0.04269052 -0.47545156 0.008679459 -0.09329712 -0.07238704 -0.8502926 -0.098811574 0.11567508 0.04823753 0.50237125 -0.009313221 -0.0080820415 -0.09089336 -0.38272947 0.24035187 -0.2303816 -0.1740678 0.15602916 0.04596443 -0.603734 -0.069045685 0.18007152 0.42609432 -0.46979415 0.13091666 0.37656015 -0.5932985 0.43096724 -0.2298975 -0.23484492 0.30979756 0.0856864 0.5092239 -0.10435129 -0.76539373 -0.107080385 -0.762317
consid -0.22328283 0.6799158 0.14553683 0.32639942 -0.39676237 -0.835063 0.323822 0.9980703 -0.43033865 -0.3216497 -0.56370753 -0.23386502 -0.30326286 0.102759734 -0.021949274 -1.3198308 -0.17016476 0.40851948 -0.43710518 -0.42682335 0.13838862 0.36068127 -0.6142848 -0.2047797 0.029018013 -0.5662206 -0.7303339 -0.6498409 -0.23691507 0.020774784 -0.037562177 0.37205014 -0.04994009 -0.1593486 -0.089915395 0.5032194 0.10729844 0.0017943264 -0.21879248 -0.45538217 0.23041837 -0.3910594 0.6705276 -0.19863652 -0.047270082 -0.45847943 -0.07925826 0.113039255 0.14634496 0.45405427 0.16210215 -0.29567847 -0.0068396716 -0.29466304 0.2430627 -0.073841296 0.011387752 0.19972007 0.43374455 0.69111097 0.58387554 -0.20663251 0.1765752 -0.5153275 -0.62470084 -0.14170164 0.07496336 0.23960906 -0.6995476 0.7340179 0.6559913 0.08289861 0.6155578 -0.26549688 0.37379467 0.22634658 -0.079690546 0.16544075 -0.16292009 -0.101329505 -0.19359995 0.18688677 -0.8977328 -0.23197812 0.043977316 0.124583736 -0.09744792 0.058716707 0.5195054 0.13672718 0.49226356 -0.2268747 0.24195659 -0.27220765 0.017264012 0.07495617 0.121513575 -0.8164816 0.30453625 -0.68315953
state -0.41125774 -0.08950623 -0.37640497 -0.31010094 0.21159624 -0.3540886 1.0053488 1.4829464 0.28428072 0.011394647 -0.34415197 -0.9735569 -0.8557192 -0.3612851 0.38201702 0.9584532 0.36909297 -0.9648049 1.1942021 -1.1757212 0.8538137 0.90356344 1.2303771 -0.013822459 -0.5852158 0.18788934 1.0980729 0.43711105 -0.4993553 0.3890175 1.1346071 -0.7514094 0.6512991 0.13085918 -1.1245617 0.19906673 0.5166036 -1.1660962 0.34174693 -0.7830904 0.09292834 0.4086604 -0.74184686 0.2531246 1.5369979 0.3860854 -0.08166209 -0.75401 0.39047843 0.11296216 -0.00441819 0.35441184 -0.05293114 0.27089828 -1.115704 -0.023655541 0.3018627 0.3180573 -0.37073743 -0.31970656 -0.89594537 0.46661398 -0.8538828 0.71889263 -0.43194157 0.583691 -0.46546715 0.26292866 0.62267965 -0.41330454 -1.6106068 -0.91793925 -0.71342826 0.6132677 -0.18270998 -0.07799737 -0.6468537 -0.5466269 -0.5986407 0.60361403 0.23360829 -0.13887563 0.55834574 1.2364475 0.63325405 0.067681424 0.33737034 0.22460549 -0.48845068 -0.78459024 0.7681756 -0.1840359 0.049787045 -0.1026127 1.255928 0.51681566 0.77139634 -0.38429165 0.21583077 0.24288692
polynomi -0.81500196 0.70221746 -0.35080025 -0.120182835 -0.5064665 -0.44377488 1.2385286 1.0893495 -0.22991914 -0.53042614 -0.09884124 0.017358026 -0.3687355 -0.36904904 -0.06120276 -1.0340029 0.13188264 0.17294677 0.09863225 -1.2169867 0.95337087 0.050617922 0.74859166 -0.08329985 0.911506 -0.8842822 -0.30908984 -0.5045071 -1.1059244 0.18154772 -0.31130436 -0.57161534 0.6656792 -0.42918712 -0.55903876 0.5291479 0.048459105 -0.043088205 0.66798466 0.1797324 1.1742913 -0.24853066 0.03858375 -0.5565069 0.37698814 -0.30638698 -0.48198873 0.06067761 0.18417907 0.553057 0.3010451 -0.052437752 -0.114462495 -0.3635608 0.1189679 -0.15815352 -0.0023171706 -0.7256999 -0.7920229 0.18005864 0.1118312 -0.28459114 -0.04311303 -1.1110966 -0.18118615 0.14888489 0.91293615 0.63777614 0.14534324 0.17465508 -0.67984873 -0.44554007 0.22462785 0.057003863 0.6019231 0.1671264 -0.5716228 -0.33945134 0.018003112 0.3662208 -0.27139458 0.3618124 -0.72187006 0.9685222 -0.07759726 -0.19700049 0.19977494 -0.84025836 -0.4295284 -0.6076574 1.2432687 0.029985093 0.32304788 -0.65322644 0.6088733 0.33231562 -0.29839808 -0.11881227 -0.087814726 -0.8114374
both -0.3216288 0.10961483 0.17426689 0.05056368 -0.21544604 -0.6488359 0.48806047 0.7052718 -0.23091808 -0.27697298 -0.10450706 -0.3044204 -0.1279621 0.07176325 0.14455812 -0.21127973 0.11161324 -0.09789416 0.12764582 -0.66582775 0.3885548 0.11363069 0.40260428 -0.30277324 0.2529334 -0.08795068 -0.02493103 -0.058173243 -0.46464643 0.1446441 0.13398185 0.09458628 0.3684106 -0.24455309 -0.2825337 0.46615845 -0.0524644 -0.4191599 -0.1487391 -0.59363127 0.0042220005 -0.16078384 -0.32599318 -0.08725081 0.4478874 -0.19582821 -0.3678367 -0.2170351 0.28489834 0.17187706 0.33132535 -0.20859998 -0.07935383 -0.039437972 -0.14977133 0.060925044 0.110103674 -0.17760433 -0.4640527 0.43952033 -0.2727165 -0.1017891 -0.0061790803 -0.25534377 -0.40399045 0.33094713 0.38676316 0.5925814 -0.24193662 0.4512949 -0.46953377 -0.096143775 0.20446198 0.027977603 0.5795097 0.25957087 0.07154475 -0.26358518 -0.25573227 0.3659547 -0.21123864 0.14706615 -0.43602216 0.73774844 -0.1957402 0.0040903403 0.29262844 0.30353853 0.10677334 -0.10378093 0.7320224 0.15307546 0.2860815 -0.2918835 0.77475154 0.37646723 0.54426765 -0.30377352 0.09502077 0.11258105
onli -0.6119283 0.531849 -0.15452625 -0.20208861 -0.09703583 -0.5739944 0.16534209 0.7627072 -0.061597798 0.030496888 -0.27126348 -0.3926497 -0.0566151 -0.17239831 0.03683293 -0.5228862 0.021305187 -0.40324986 0.17348148 -0.63141996 0.3604953 0.17135029 -0.06475978 0.07231031 -0.45209512 -0.27585724 -0.14686844 -0.4300165 -0.12261143 -0.27810654 0.13829127 0.027673272 -0.1344798 0.12920332 -0.29940614 0.34930944 0.110961914 -0.24564275 -0.30240142 -0.44753566 0.6243342 -0.3860397 0.25444216 -0.0872593 0.07635602 -0.11835224 -0.44523776 -0.14540765 0.16884528 0.6994153 -0.028555404 -0.07967559 -0.01788902 0.09610228 -0.17658614 0.15588708 0.09971405 0.26051185 -0.49330938 0.26250458 0.366624 0.31653225 -0.3672285 -0.0002673758 -0.2849975 0.061421003 0.061951194 0.109089814 -0.5457327 -0.09286792 -0.24633814 0.03820001 0.3088288 -0.09481163 0.09532052 0.17288446 -0.11264296 0.060799334 -0.12746419 0.019815836 -0.04500335 -0.0129865585 -0.3779456 0.21963815 -0.049732283 0.13395867 -0.1814865 0.405109 0.30770627 -0.32118416 0.4370507 0.07770189 -0.2470492 0.34592074 0.3145203 0.46979287 0.1519838 -0.5546825 -0.06943401 -0.40409386
cost -0.5831239 0.86493456 -0.084097125 -0.10655106 -0.2514942 -0.5947834 -0.031045653 0.79313874 -0.07059702 0.06288437 -0.13598284 -0.3140809 0.104759045 -0.19164902 0.03161511 -0.8415474 -0.06701222 -0.36111012 -0.15912156 -0.57126284 0.24290416 0.14688441 -0.27004415 -0.083049454 -0.38767374 -0.46181834 -0.5340033 -0.6181466 0.1226988 -0.29054254 -0.050365657 0.054588735 -0.26061815 0.15530738 -0.2031246 0.2830463 0.124139264 -0.17332302 -0.254113 -0.5608768 0.828391 -0.6137844 0.41694623 -0.25205138 -0.29671156 -0.32912567 -0.5036812 -0.09208028 -0.022352396 0.52181536 -0.06554901 -0.170213 -0.08688795 0.08743478 0.06194558 -0.07746992 0.20320943 0.23574471 -0.2650914 0.5664398 0.70594174 0.2376717 -0.29568708 -0.15812188 -0.41022906 0.012477006 0.15412013 0.004177957 -0.80325294 0.15645729 -0.026735403 0.075026326 0.51936775 -0.22112432 0.062382173 0.051243495 -0.32174703 0.15822674 -0.14896959 0.041371487 0.016929407 0.022448344 -0.7013572 0.054835066 -0.08602917 0.41318226 -0.384902 0.26355216 0.39541382 -0.4829189 0.582201 -0.16142507 -0.1802679 0.16396445 0.2614505 0.2737243 -0.04072355 -0.7087215 0.040874384 -0.71175444
than -0.9850887 0.24865076 -0.17334034 -0.3660422 -0.342609 -0.31515926 0.69016355 1.1725163 0.13304017 0.15755594 -0.27449256 -0.41442987 -0.34470952 -0.2035492 0.21877307 -0.006268959 0.14280875 -0.5134472 0.7268731 -0.9361517 0.7647198 0.18263766 0.8379819 0.26069486 -0.13446149 -0.29943416 0.32531664 -0.1520739 -0.46901587 0.010843672 0.4691335 -0.42266962 0.17860326 0.07635339 -0.34905663 0.16298649 0.10363161 -0.58307666 0.15332143 -0.27847305 0.7242194 -0.142558 -0.46230677 -0.28641337 0.6472209 -0.14167629 -0.63613224 -0.013909582 0.26528242 0.38256538 0.106624715 0.21683148 0.10435633 -0.16249326 -0.42898995 0.14555885 0.041562177 0.0038781704 -0.79696673 -0.0098179355 -0.3476328 0.26484716 -0.57377756 -0.18684568 -0.29532197 0.081803374 0.29495257 0.5242462 0.05749065 0.03635125 -0.86008877 -0.39951813 -0.27462092 -0.11604296 0.18352579 0.15528886 -0.24454804 -0.23029998 -0.23846014 0.45336884 -0.25247678 -0.22547098 -0.14897697 1.1391561 -0.113943614 -0.23058645 0.16362256 0.16050582 -0.095888704 -0.7056836 0.78267854 0.08135974 0.05632009 0.006652796 0.90076 0.32552242 0.39783806 -0.22814777 0.04835761 -0.17238843
search -0.15636277 0.114658125 -0.1708273 0.26612213 -0.12463665 -0.6159126 0.80299264 0.830945 -0.18211444 -0.2896144 -0.32902464 -0.48945954 -0.20051925 0.11287897 0.10015209 -0.11017599 0.2902009 -0.032653168 0.096605875 -0.78781396 0.41768667 0.40088403 0.20941566 -0.2587021 0.13689135 -0.11001717 -0.14317776 -0.12772767 -0.4267489 0.13195068 0.28401312 -0.17373136 0.22001992 -0.32526636 -0.6144568 0.26135293 0.22216327 -0.340027 0.14512311 -0.5193128 0.19265372 -0.15252551 -0.13125911 -0.070556924 0.5186984 -0.11421739 -0.28696483 -0.2786195 0.22291622 0.5487161 0.0708743 -0.23227187 -0.007488422 -0.14007436 -0.28111193 0.09705224 0.13049582 -0.1471371 -0.2190816 0.11293562 -0.32940963 -0.08822441 -0.054866936 0.038422346 -0.33814946 0.34132645 0.026522743 0.18401185 -0.08339344 0.34868512 -0.4292641 -0.43879977 0.08314826 -0.013612218 0.3752878 0.109883405 -0.23878114 -0.0058731916 -0.2505008 0.2043065 -0.26981053 0.060811713 -0.21098953 0.73392045 0.14170042 -0.046763457 0.21104035 -0.10017867 0.10820137 -0.223432 0.7099483 0.22591133 0.19767812 -0.13320291 0.670717 0.19592872 0.23836526 -0.48456916 -0.06771958 0.06594398
predict -0.16526705 0.25964734 0.25716764 -0.11906198 -0.14063878 -0.57940465 0.24178249 0.5573327 -0.24204053 -0.2314918 -0.19329578 -0.11701574 -0.038315814 0.22439152 0.26103878 -0.3634349 -0.4018069 0.26547247 -0.24881832 -0.49026766 0.260744 0.06059244 0.041881144 0.08093296 0.19378379 -0.23040894 -0.15141085 -0.3802035 -0.494546 0.05123673 0.12552421 0.025745807 0.36599118 -0.37660155 0.101353936 0.6493499 -0.048555184 -0.25181985 -0.087960176 -0.2950907 0.32719293 -0.4468042 -0.3558302 -0.025299888 0.16153689 -0.086023785 -0.027153037 0.1609539 0.44375715 0.25409755 0.51081526 -0.20910592 -0.056024224 -0.024402412 0.10956921 0.032925252 0.10542608 0.030672459 -0.21703205 0.6855779 0.13976236 0.04652839 -0.22503668 -0.29713622 -0.2004447 0.2743556 0.49574292 0.5347368 -0.4860384 0.67290926 -0.4428683 0.11078089 0.3647861 -0.48769978 0.45859632 0.70653653 -0.11932576 -0.09905617 0.13033168 0.464432 -0.5868788 0.25405 -0.7286723 0.58632094 -0.5492868 -0.01228201 0.14136107 0.44904727 0.45861414 0.25825998 0.812082 0.1556771 0.084003545 -0.10078624 0.635531 0.30419832 0.29084322 -0.36730114 0.25498036 -0.21672963
while -0.51218534 0.3970403 -0.07442139 -0.17835547 -0.10621493 -0.38494575 0.38364685 0.7256053 -0.043245506 -0.019239925 -0.12238764 -0.40268317 -0.077406906 -0.17382647 0.12415355 -0.28948152 0.018106103 -0.35706452 0.23964421 -0.7237738 0.39376158 0.08733827 0.22576362 -0.016058002 -0.20655921 -0.264428 0.09000686 -0.3980063 -0.2568753 -0.061334997 0.2173809 -0.092747055 0.08472628 0.08013517 -0.25403973 0.35853517 0.04893702 -0.3185796 -0.09310566 -0.42856026 0.58948386 -0.30490965 0.0103188455 -0.04198965 0.18390916 -0.045676444 -0.34786052 -0.082932405 0.17908093 0.45845604 0.19278227 -0.03077667 -0.03797075 0.10906299 -0.2961959 0.09602317 0.14549598 0.2119929 -0.55430484 0.30177405 0.12857491 0.32936263 -0.40450987 -0.048199747 -0.2262718 0.11600543 0.18988381 0.3148525 -0.3587705 0.052164733 -0.42151874 -0.05981111 0.21200176 -0.051471353 0.20615922 0.20924817 -0.14191978 -0.109090015 -0.073656105 0.32780802 -0.14006053 -0.035720136 -0.33738086 0.45335636 -0.107551455 0.03701688 -0.029734537 0.33512154 0.18121469 -0.33844283 0.63604724 0.120568074 -0.1161321 0.15960331 0.5837005 0.3962924 0.24358591 -0.4749747 0.04358091 -0.26744622
introduc 0.010708455 0.019996084 0.064012945 0.42757183 -0.37860504 -0.7621929 0.82824117 1.1089667 -0.36859754 -0.6309454 -0.69517064 -0.37850478 -0.4635754 0.32180005 -0.11742014 -0.7645304 0.07919227 0.49596402 -0.12213511 -0.49740857 0.19272281 0.4221273 -0.1909022 -0.3826803 0.539747 -0.21635175 -0.35444075 -0.25875583 -0.81033576 0.18311861 0.39936146 0.32979223 0.24638876 -0.58287567 -0.071429566 0.5775712 0.003155192 -0.3316429 -0.08424972 -0.42613617 -0.49363756 0.027125517 0.11859349 -0.13248725 0.41109923 -0.28696305 0.070670605 0.08986724 0.26044807 0.54960793 0.28249893 -0.3952004 -0.036165394 -0.36074793 -0.13778347 -0.06300376 0.059861638 -0.10090518 0.3631021 0.606947 -0.07243774 -0.23741135 0.1414066 -0.37589914 -0.6726891 0.040998243 0.0012588991 0.26288182 -0.27611357 0.92647004 0.3722495 -0.14519177 0.35342556 -0.24535298 0.62737167 0.28238532 0.18076317 0.10194122 -0.21748643 0.09370337 -0.3995402 0.12510711 -0.4401318 0.39209226 0.052804846 -0.20540588 0.38942513 0.19614063 0.32162228 0.42173228 0.65259385 0.20501895 0.46282604 -0.31104946 0.20203112 -0.05376993 0.3868082 -0.87010616 0.42795154 0.1064421
sampl -0.38736737 0.24939117 -0.06131698 -0.18658477 -0.15492551 -0.4250875 0.38280135 0.74453425 -0.17556562 -0.32939133 -0.2589605 -0.3168078 -0.009115752 -0.22731854 0.122122824 -0.27562287 0.07694057 -0.27511793 0.1634993 -0.730187 0.29629844 0.24230064 -0.027763389 -0.096857466 0.12157335 -0.2241025 -0.1791656 -0.4589282 -0.42376494 -0.063948184 0.09588923 -0.17487983 0.13925523 -0.37391353 -0.09086488 0.39949414 0.096869275 -0.3273159 0.06410036 -0.3592099 0.42043915 -0.2952705 -0.2459408 0.03431385 0.19050075 0.008363293 -0.22816405 -0.022319088 0.03225814 0.4593966 0.2169313 -0.17932145 -0.04582384 0.061130285 -0.20840666 0.026984852 0.16172066 -0.08169389 -0.37438598 0.37714612 -0.029264854 0.2812658 -0.24128741 -0.16320473 -0.25190482 0.27525494 0.1516841 0.17166167 -0.27737224 0.30982304 -0.36730972 0.124126285 0.23683274 -0.05975372 0.4117679 0.060927983 -0.21817209 -0.018906377 -0.019061333 0.43882716 -0.13606207 0.1742756 -0.29038852 0.56278914 -0.0817581 0.021734724 -0.07229632 0.2063058 0.08202073 0.00063197553 0.7722107 0.23370801 -0.08447063 -0.0105508985 0.5516503 0.24142843 0.05984498 -0.3792845 0.07922984 -0.07636681
known -0.49692118 0.35614926 0.09691253 0.046838254 -0.38273883 -0.53441477 0.8220021 0.8990309 -0.1277683 -0.09837428 -0.07361171 -0.11985111 -0.14582993 -0.13059725 0.056837153 -0.59883624 0.00071050134 0.2594765 0.02447971 -0.6904936 0.64049375 -0.12569045 0.36733678 -0.0087462235 0.28593737 -0.49311495 -0.053336207 -0.47394028 -0.45907938 0.21797882 0.015119889 0.0042361473 0.26768887 -0.23703499 -0.10070668 0.5976478 -0.020781728 -0.07836846 0.09175122 -0.23117301 0.535759 -0.31094036 0.05167736 -0.13215055 0.33310592 -0.36092472 -0.35414058 0.0980384 0.32330275 0.26854637 0.3469937 0.044958174 0.017370116 -0.16092706 -0.10231148 -0.1296201 -0.13372791 0.005075906 -0.58495075 0.65247697 -0.025046146 -0.2544887 -0.14883795 -0.6161542 -0.3732869 -0.09339001 0.5077212 0.83950865 -0.34163257 0.45686918 -0.24631189 -0.089030184 0.30865425 -0.16553383 0.45070288 0.43106535 -0.0453799 -0.24892846 -0.031094186 0.3566168 -0.36702493 0.14446576 -0.6495887 0.45063615 -0.21991444 -0.16951728 0.22806144 0.23816377 0.0711645 -0.25350463 0.8941438 0.017499767 0.31079695 -0.23705913 0.5942814 0.34086344 0.3698358 -0.39193454 0.1833295 -0.5297487
exist -0.32775518 0.06456553 -0.009185521 0.078745574 -0.1800396 -0.50019354 0.6323055 0.8046078 -0.13086277 -0.24967837 -0.23084709 -0.42999193 -0.24421746 0.065974526 0.028814217 -0.18804918 0.15794377 -0.03847115 0.23110606 -0.7167654 0.4863708 0.22687149 0.29773992 -0.19135465 0.17026512 -0.091630325 0.0734429 -0.0838638 -0.5333521 0.1269618 0.2977959 0.08078181 0.2636253 -0.21555431 -0.35400847 0.42409694 -0.015443995 -0.39063966 -0.04319554 -0.53309894 -0.009053685 -0.05457068 -0.21205792 -0.024942968 0.5325956 -0.15563717 -0.29127583 -0.11303207 0.29852092 0.34023917 0.25583923 -0.17196375 -0.022593655 -0.06293292 -0.28620836 0.10410326 0.06928359 -0.056568176 -0.37260827 0.3237071 -0.32647702 -0.01924761 -0.11018973 -0.17454621 -0.40416843 0.2505602 0.12952033 0.476542 -0.14398043 0.31706926 -0.37143645 -0.17892307 0.13702169 -0.0046108477 0.45032084 0.2247588 0.0582238 -0.148841 -0.24326122 0.24221529 -0.29524216 0.07998944 -0.25593075 0.6568867 -0.07941033 -0.08566303 0.32595283 0.2451663 0.087525524 -0.13037995 0.6677839 0.20121132 0.19983476 -0.15314712 0.62217057 0.33163637 0.49146998 -0.42025468 0.15940388 0.14795616
cluster -0.21676677 0.48657763 0.016161453 0.18742716 -0.04706897 -0.74492294 0.01996734 0.5594186 -0.29502815 -0.17519312 -0.35264057 -0.56701946 0.027710848 0.18831211 0.05733376 -0.6084761 0.21711949 -0.15565029 -0.11931153 -0.53160596 0.06448784 0.28000376 -0.3732007 -0.24746248 -0.4024114 -0.10329426 -0.28488746 -0.22130917 -0.08965272 -0.19475687 0.10707369 0.28576484 -0.19690466 0.022245137 -0.37188807 0.20930357 0.18160465 -0.28088415 -0.3705525 -0.7044027 0.097487174 -0.36025724 0.2928965 -0.11055852 0.16516548 -0.13935016 -0.3705936 -0.2963391 0.26755813 0.6050669 -0.044973414 -0.29569563 -0.08274796 0.06437863 -0.10963506 0.14361653 0.23504874 0.21026288 0.0521474 0.43264222 0.3059056 0.12502418 -0.11263161 0.13716947 -0.47679493 0.22593844 -0.11465562 0.030284617 -0.68083674 0.28301993 0.086480945 -0.01749653 0.4688619 -0.033225138 0.25942984 0.1258752 0.046702 0.08866461 -0.28843096 -0.17680243 -0.070352115 0.082024865 -0.4044067 0.10304899 0.10956385 0.27409312 -0.044295877 0.29353598 0.5316026 -0.1562588 0.24905469 0.04335933 -0.076838054 0.20306839 0.21392915 0.34108734 0.20793954 -0.75304866 0.03574336 -0.12312317
size -0.75373155 0.6978694 -0.1469522 -0.16145556 -0.25718307 -0.60510117 0.26643133 0.8901651 -0.13060018 0.03423715 -0.21108326 -0.2844553 -0.06387465 -0.310909 0.021769015 -0.69078034 0.12907575 -0.49016318 0.15484746 -0.7489288 0.44881296 0.1867483 0.15568034 -0.04584846 -0.3003945 -0.385246 -0.3786526 -0.3461183 -0.0901817 -0.24136695 -0.022573447 -0.1223623 -0.12745616 0.09416163 -0.46017462 0.18344487 0.06084331 -0.29556394 -0.074982755 -0.38809013 0.9012999 -0.39631942 0.24265526 -0.28407812 0.07159739 -0.33272126 -0.6111725 -0.18815829 0.02082164 0.53523606 -0.07980344 -0.13590996 0.03797998 -0.004420289 -0.13441367 0.04471631 0.06314975 0.038140263 -0.4731813 0.1143169 0.3586185 0.079560876 -0.25681096 -0.18980196 -0.30377954 0.12901942 0.25912356 0.17362703 -0.45595568 -0.12661377 -0.36881366 -0.10045638 0.28388464 -0.08148535 0.12468574 0.0013147608 -0.30530018 -0.0015762943 -0.17829722 0.09603356 0.02621797 0.048872534 -0.49751037 0.4307472 0.09759687 0.115977995 -0.22267747 0.044860475 0.038939238 -0.62399554 0.6374241 -0.057834253 -0.14894974 0.0102588255 0.4403683 0.4832541 0.06604719 -0.39471352 -0.120277636 -0.5861329
framework 0.1285595 -0.11891037 0.10582393 0.2916321 -0.24585822 -0.63443136 0.665187 0.7147201 -0.2270675 -0.63151544 -0.28894177 -0.45827284 -0.13221174 0.28717095 -0.0115324715 -0.2816116 0.13423687 0.35146868 -0.07447567 -0.58592224 0.30466703 0.28533834 0.019645931 -0.4686569 0.55371183 -0.10628287 -0.13453986 -0.11043588 -0.7237073 0.22469561 0.35052022 0.124417864 0.43381533 -0.6477846 -0.15520817 0.60151017 -0.013311597 -0.39010876 0.013932158 -0.5636351 -0.36899778 -0.055807587 -0.3213022 0.04415424 0.43029058 0.026729885 -0.031728853 -0.01603079 0.28777543 0.32392058 0.40923166 -0.39182582 -0.1910228 -0.059701744 -0.17623354 -0.004240667 0.2716207 -0.2374879 -0.024408452 0.7272975 -0.3154559 -0.024930015 0.024268772 -0.2542693 -0.48525456 0.3598131 0.15640931 0.37236148 -0.13159683 0.84248394 -0.09349555 -0.15760663 0.39178327 -0.061948046 0.78890455 0.24941719 0.13357478 -0.15615474 -0.26995957 0.26804325 -0.49969763 0.25270948 -0.409904 0.816588 -0.18338111 -0.066425465 0.45562178 0.28840038 0.26401237 0.2972811 0.82664186 0.3931949 0.34769195 -0.2729114 0.66466236 0.115082145 0.29215586 -0.7363258 0.31026292 0.34721422
